%YAML:1.0
my_svm: !!opencv-ml-svm
   svm_type: C_SVC
   kernel: { type:RBF, gamma:1. }
   C: 1.
   term_criteria: { epsilon:1.1920928955078125e-007, iterations:1000 }
   var_all: 1000
   var_count: 1000
   class_count: 2
   class_labels: !!opencv-matrix
      rows: 1
      cols: 2
      dt: i
      data: [ 0, 1 ]
   sv_total: 101
   support_vectors:
      - [ 3.95256933e-003, 0., 7.90513866e-003, 3.95256933e-003, 0.,
          3.95256933e-003, 0., 0., 0., 0., 3.95256933e-003, 0., 0., 0.,
          0., 0., 0., 3.95256933e-003, 0., 0., 0., 0., 3.95256933e-003,
          0., 0., 0., 0., 3.95256933e-003, 0., 0., 3.95256933e-003, 0.,
          3.95256933e-003, 0., 0., 3.95256933e-003, 0., 0.,
          3.95256933e-003, 0., 3.95256933e-003, 0., 0., 0., 0., 0., 0.,
          0., 0., 7.90513866e-003, 0., 0., 0., 3.95256933e-003, 0.,
          3.95256933e-003, 0., 0., 0., 0., 0., 0., 0., 0.,
          1.18577080e-002, 0., 3.95256933e-003, 0., 0., 0., 0., 0., 0.,
          0., 3.95256933e-003, 3.95256933e-003, 3.95256933e-003, 0., 0.,
          3.95256933e-003, 0., 0., 0., 0., 0., 0., 0., 0.,
          7.90513866e-003, 0., 0., 0., 3.95256933e-003, 0., 0., 0., 0.,
          0., 0., 1.18577080e-002, 0., 0., 0., 0., 0., 0.,
          3.95256933e-003, 7.90513866e-003, 0., 1.18577080e-002, 0.,
          3.95256933e-003, 0., 0., 0., 0., 0., 0., 0., 0.,
          3.95256933e-003, 0., 0., 0., 0., 0., 0., 0., 0., 0., 0., 0.,
          0., 0., 0., 0., 3.95256933e-003, 0., 3.95256933e-003,
          3.95256933e-003, 0., 0., 3.95256933e-003, 3.95256933e-003, 0.,
          0., 0., 0., 0., 0., 0., 0., 0., 0., 0., 0., 0., 0.,
          3.95256933e-003, 0., 0., 0., 3.95256933e-003, 0., 0., 0.,
          3.95256933e-003, 0., 0., 0., 0., 0., 7.90513866e-003, 0., 0.,
          0., 3.95256933e-003, 0., 0., 0., 0., 0., 3.95256933e-003, 0.,
          3.95256933e-003, 3.95256933e-003, 0., 0., 0., 0., 0., 0., 0.,
          0., 3.95256933e-003, 0., 0., 0., 0., 0., 0., 0., 0., 0., 0.,
          0., 0., 0., 0., 3.95256933e-003, 0., 3.95256933e-003, 0., 0.,
          0., 0., 0., 0., 0., 0., 0., 3.95256933e-003, 0., 0., 0., 0.,
          0., 3.95256933e-003, 0., 7.90513866e-003, 0., 0., 0., 0., 0.,
          0., 3.95256933e-003, 0., 0., 0., 0., 3.95256933e-003, 0., 0.,
          0., 0., 0., 0., 0., 0., 7.90513866e-003, 0., 0., 0., 0., 0.,
          0., 0., 0., 3.95256933e-003, 0., 0., 0., 0., 0., 0., 0., 0.,
          0., 3.95256933e-003, 0., 0., 3.95256933e-003, 0., 0.,
          3.95256933e-003, 0., 0., 3.95256933e-003, 3.95256933e-003, 0.,
          0., 0., 0., 0., 0., 3.95256933e-003, 3.95256933e-003, 0., 0.,
          0., 3.95256933e-003, 0., 0., 0., 0., 0., 0., 0., 0.,
          7.90513866e-003, 0., 0., 0., 0., 0., 0., 0., 0., 0., 0., 0.,
          0., 3.95256933e-003, 7.90513866e-003, 0., 3.95256933e-003, 0.,
          0., 0., 3.95256933e-003, 0., 3.95256933e-003, 0.,
          3.95256933e-003, 0., 0., 0., 0., 0., 3.95256933e-003, 0., 0.,
          0., 0., 0., 0., 0., 0., 0., 0., 0., 0., 0., 0., 0., 0.,
          3.95256933e-003, 0., 0., 0., 0., 0., 0., 0., 0.,
          3.95256933e-003, 7.90513866e-003, 3.95256933e-003, 0., 0., 0.,
          0., 0., 0., 0., 0., 0., 0., 0., 0., 3.95256933e-003, 0., 0.,
          1.18577080e-002, 0., 0., 0., 0., 0., 0., 3.95256933e-003, 0.,
          0., 3.95256933e-003, 0., 0., 3.95256933e-003, 0., 0., 0., 0.,
          0., 0., 0., 0., 0., 3.95256933e-003, 0., 0., 0., 0., 0., 0.,
          0., 0., 0., 0., 0., 0., 0., 0., 0., 0., 0., 0., 0., 0., 0.,
          3.95256933e-003, 0., 7.90513866e-003, 0., 0., 0., 0., 0., 0.,
          0., 0., 3.95256933e-003, 0., 0., 0., 3.95256933e-003, 0., 0.,
          0., 3.95256933e-003, 0., 7.90513866e-003, 0., 0., 0., 0., 0.,
          0., 0., 0., 7.90513866e-003, 0., 0., 0., 0., 0., 0., 0., 0.,
          7.90513866e-003, 1.18577080e-002, 0., 0., 0., 0., 0., 0.,
          3.95256933e-003, 0., 0., 0., 0., 1.18577080e-002, 0.,
          3.95256933e-003, 0., 0., 0., 1.18577080e-002, 0., 0., 0., 0.,
          0., 0., 0., 1.18577080e-002, 0., 0., 0., 0., 0., 0., 0.,
          3.95256933e-003, 0., 0., 0., 7.90513866e-003, 0.,
          3.95256933e-003, 0., 0., 0., 0., 0., 0., 0., 0., 0.,
          3.95256933e-003, 7.90513866e-003, 3.95256933e-003, 0.,
          3.95256933e-003, 0., 0., 3.95256933e-003, 0., 0., 0., 0.,
          7.90513866e-003, 3.95256933e-003, 0., 3.95256933e-003, 0., 0.,
          0., 0., 0., 0., 0., 0., 3.95256933e-003, 0., 0., 0., 0.,
          3.95256933e-003, 0., 0., 0., 0., 0., 0., 0., 0., 0., 0., 0.,
          0., 3.95256933e-003, 3.95256933e-003, 0., 0., 0., 0., 0.,
          7.90513866e-003, 0., 0., 0., 0., 0., 3.95256933e-003, 0.,
          3.95256933e-003, 3.95256933e-003, 0., 0., 0., 0., 0., 0., 0.,
          0., 0., 0., 3.95256933e-003, 0., 0., 0., 0., 0., 0., 0., 0.,
          0., 0., 7.90513866e-003, 0., 0., 0., 0., 0., 0., 0., 0.,
          3.95256933e-003, 0., 0., 0., 0., 7.90513866e-003,
          3.95256933e-003, 0., 0., 7.90513866e-003, 0., 0., 0., 0.,
          7.90513866e-003, 0., 0., 0., 0., 0., 0., 0., 0.,
          3.95256933e-003, 0., 3.95256933e-003, 0., 0., 0., 0., 0., 0.,
          0., 0., 0., 0., 3.95256933e-003, 0., 0., 0., 0., 0., 0., 0.,
          0., 0., 0., 0., 0., 0., 0., 0., 0., 3.95256933e-003, 0.,
          3.95256933e-003, 0., 0., 0., 0., 0., 0., 0., 3.95256933e-003,
          3.95256933e-003, 0., 0., 0., 0., 0., 0., 0., 0.,
          3.95256933e-003, 3.95256933e-003, 0., 0., 0., 7.90513866e-003,
          0., 0., 0., 0., 0., 0., 0., 0., 3.95256933e-003,
          3.95256933e-003, 3.95256933e-003, 0., 3.95256933e-003, 0., 0.,
          0., 0., 0., 0., 0., 0., 3.95256933e-003, 0., 0., 0., 0., 0.,
          0., 0., 0., 3.95256933e-003, 0., 0., 0., 3.95256933e-003, 0.,
          3.95256933e-003, 0., 0., 0., 0., 7.90513866e-003, 0., 0.,
          3.95256933e-003, 0., 0., 0., 0., 1.18577080e-002, 0., 0., 0.,
          0., 0., 0., 0., 0., 0., 0., 0., 0., 0., 0., 3.95256933e-003,
          0., 0., 0., 0., 0., 0., 0., 3.95256933e-003, 0., 0., 0., 0.,
          0., 0., 3.95256933e-003, 0., 7.90513866e-003, 0., 0., 0., 0.,
          0., 0., 0., 3.95256933e-003, 0., 1.18577080e-002, 0., 0.,
          3.95256933e-003, 3.95256933e-003, 0., 0., 0., 0., 0.,
          7.90513866e-003, 0., 3.95256933e-003, 0., 0., 0., 0., 0., 0.,
          0., 0., 0., 0., 3.95256933e-003, 0., 0., 7.90513866e-003,
          3.95256933e-003, 7.90513866e-003, 0., 0., 0., 7.90513866e-003,
          0., 0., 0., 0., 0., 0., 0., 0., 0., 7.90513866e-003,
          3.95256933e-003, 0., 0., 0., 3.95256933e-003, 0., 0., 0.,
          7.90513866e-003, 0., 3.95256933e-003, 0., 0., 0.,
          3.95256933e-003, 0., 0., 0., 1.58102773e-002, 0., 0., 0., 0.,
          7.90513866e-003, 0., 0., 0., 0., 7.90513866e-003, 0., 0., 0.,
          0., 0., 0., 0., 0., 0., 0., 3.95256933e-003, 0., 0., 0., 0.,
          0., 0., 7.90513866e-003, 0., 0., 0., 3.95256933e-003, 0., 0.,
          0., 0., 0., 0., 0., 0., 0., 0., 0., 3.95256933e-003, 0.,
          7.90513866e-003, 3.95256933e-003, 0., 0., 0., 0., 0., 0., 0.,
          3.95256933e-003, 0., 0., 0., 0., 0., 0., 0., 0.,
          7.90513866e-003, 0., 0., 0., 0., 0., 0., 0., 0., 0., 0.,
          1.18577080e-002, 0., 3.95256933e-003, 0., 0., 0., 0., 0., 0.,
          0., 3.95256933e-003, 3.95256933e-003, 0., 0., 0., 0.,
          3.95256933e-003, 0., 0., 0., 0., 3.95256933e-003, 0., 0., 0.,
          0., 0., 0., 0., 0., 0., 0., 7.90513866e-003, 0., 0., 0., 0.,
          0., 0., 3.95256933e-003, 0., 0., 0., 0., 0., 3.95256933e-003,
          0., 0., 0., 0., 0., 0., 0., 0., 0., 3.95256933e-003, 0., 0.,
          0., 0., 0., 0., 3.95256933e-003, 0., 0., 0., 3.95256933e-003,
          0., 0., 0., 0., 0., 0., 3.95256933e-003, 0., 0., 0., 0.,
          7.90513866e-003, 0., 0., 3.95256933e-003, 0., 0., 0., 0.,
          3.95256933e-003, 0., 0., 0., 0., 0., 0., 7.90513866e-003, 0.,
          0. ]
      - [ 0., 0., 1.10701108e-002, 3.69003695e-003, 0., 3.69003695e-003,
          0., 2.58302577e-002, 0., 0., 3.69003695e-003, 0., 0., 0., 0.,
          0., 0., 0., 0., 0., 0., 0., 0., 0., 0., 0., 0., 0., 0., 0., 0.,
          0., 3.69003695e-003, 0., 0., 0., 3.69003695e-003, 0., 0.,
          1.10701108e-002, 0., 0., 3.69003695e-003, 0., 0., 0., 0., 0.,
          0., 3.69003695e-003, 0., 3.69003695e-003, 0., 0., 0.,
          3.69003695e-003, 0., 0., 0., 0., 0., 3.69003695e-003, 0., 0.,
          3.69003695e-003, 0., 0., 0., 3.69003695e-003, 0.,
          3.69003695e-003, 0., 0., 0., 0., 0., 7.38007389e-003, 0., 0.,
          3.69003695e-003, 0., 0., 3.69003695e-003, 0., 0., 0., 0., 0.,
          0., 0., 0., 0., 0., 0., 0., 0., 0., 0., 0., 0., 0., 0., 0., 0.,
          0., 0., 0., 3.69003695e-003, 0., 3.69003695e-003, 0., 0., 0.,
          3.69003695e-003, 7.38007389e-003, 0., 0., 0., 0., 0., 0., 0.,
          0., 0., 0., 0., 0., 0., 0., 0., 0., 0., 3.69003695e-003, 0.,
          0., 0., 0., 0., 3.69003695e-003, 3.69003695e-003, 0., 0., 0.,
          0., 0., 0., 0., 0., 0., 0., 0., 0., 0., 3.69003695e-003, 0.,
          0., 3.69003695e-003, 0., 3.69003695e-003, 0., 0.,
          3.69003695e-003, 0., 0., 0., 0., 3.69003695e-003, 0., 0., 0.,
          0., 0., 7.38007389e-003, 0., 0., 3.69003695e-003,
          3.69003695e-003, 0., 0., 0., 0., 0., 3.69003695e-003,
          7.38007389e-003, 0., 0., 0., 0., 0., 0., 0., 0., 0., 0.,
          3.69003695e-003, 0., 3.69003695e-003, 0., 0., 0., 0., 0., 0.,
          0., 0., 0., 0., 0., 0., 0., 0., 0., 0., 0., 0., 0.,
          3.69003695e-003, 0., 0., 0., 0., 0., 0., 0., 0., 0., 0., 0.,
          0., 1.10701108e-002, 0., 0., 0., 0., 3.69003695e-003, 0., 0.,
          0., 0., 0., 0., 0., 0., 0., 0., 0., 0., 3.69003695e-003,
          3.69003695e-003, 3.69003695e-003, 3.69003695e-003, 0.,
          3.69003695e-003, 0., 0., 0., 0., 0., 0., 0., 7.38007389e-003,
          0., 0., 0., 0., 0., 0., 3.69003695e-003, 0., 7.38007389e-003,
          0., 0., 3.69003695e-003, 0., 0., 0., 0., 0., 3.69003695e-003,
          1.10701108e-002, 0., 0., 0., 0., 1.10701108e-002,
          7.38007389e-003, 0., 0., 0., 0., 0., 3.69003695e-003, 0.,
          1.10701108e-002, 3.69003695e-003, 0., 0., 0., 0., 0.,
          3.69003695e-003, 0., 0., 0., 0., 0., 0., 0., 0., 0., 0., 0.,
          0., 7.38007389e-003, 0., 0., 3.69003695e-003, 0., 0., 0., 0.,
          0., 7.38007389e-003, 0., 0., 0., 0., 0., 3.69003695e-003, 0.,
          0., 0., 3.69003695e-003, 0., 0., 0., 0., 0., 0., 0., 0., 0.,
          0., 0., 0., 0., 0., 3.69003695e-003, 0., 3.69003695e-003, 0.,
          0., 0., 0., 0., 0., 0., 3.69003695e-003, 0., 0., 0., 0.,
          7.38007389e-003, 0., 1.10701108e-002, 3.69003695e-003, 0., 0.,
          0., 0., 0., 0., 0., 3.69003695e-003, 0., 0., 0., 0., 0., 0.,
          0., 7.38007389e-003, 7.38007389e-003, 0., 7.38007389e-003, 0.,
          0., 7.38007389e-003, 3.69003695e-003, 0., 0., 0., 0., 0., 0.,
          0., 0., 0., 0., 0., 0., 0., 0., 0., 0., 0., 0., 0., 0., 0., 0.,
          0., 0., 0., 0., 0., 0., 3.69003695e-003, 0., 3.69003695e-003,
          3.69003695e-003, 7.38007389e-003, 3.69003695e-003, 0., 0., 0.,
          0., 3.69003695e-003, 0., 0., 3.69003695e-003, 3.69003695e-003,
          0., 0., 3.69003695e-003, 0., 0., 3.69003695e-003, 0., 0.,
          7.38007389e-003, 0., 0., 0., 0., 0., 0., 0., 0., 0., 0., 0.,
          0., 3.69003695e-003, 0., 0., 0., 0., 3.69003695e-003, 0., 0.,
          0., 3.69003695e-003, 3.69003695e-003, 0., 0., 7.38007389e-003,
          0., 0., 0., 0., 0., 3.69003695e-003, 1.10701108e-002, 0., 0.,
          0., 7.38007389e-003, 0., 0., 0., 0., 0., 0., 3.69003695e-003,
          7.38007389e-003, 0., 0., 0., 0., 0., 0., 0., 0., 0., 0., 0.,
          3.69003695e-003, 0., 3.69003695e-003, 0., 0., 0., 0., 0., 0.,
          0., 0., 0., 0., 1.10701108e-002, 3.69003695e-003, 0., 0.,
          3.69003695e-003, 0., 3.69003695e-003, 0., 0., 0., 0.,
          3.69003695e-003, 3.69003695e-003, 0., 3.69003695e-003, 0., 0.,
          0., 0., 0., 0., 0., 0., 0., 0., 0., 3.69003695e-003, 0., 0.,
          0., 0., 0., 0., 0., 0., 0., 0., 0., 0., 0., 0., 0., 0., 0., 0.,
          0., 0., 0., 3.69003695e-003, 0., 0., 0., 0., 0.,
          3.69003695e-003, 3.69003695e-003, 0., 0., 0., 0., 0., 0., 0.,
          0., 0., 0., 0., 0., 0., 0., 0., 0., 0., 0., 0., 0., 0., 0., 0.,
          0., 3.69003695e-003, 0., 3.69003695e-003, 0., 0., 0., 0., 0.,
          0., 0., 0., 0., 3.69003695e-003, 0., 0., 0., 0.,
          3.69003695e-003, 0., 0., 0., 0., 0., 0., 0., 0., 0., 0., 0.,
          0., 0., 7.38007389e-003, 0., 3.69003695e-003, 0., 0., 0., 0.,
          0., 0., 0., 0., 0., 0., 0., 0., 0., 0., 0., 0., 0., 0., 0., 0.,
          0., 0., 0., 0., 3.69003695e-003, 0., 3.69003695e-003,
          3.69003695e-003, 3.69003695e-003, 7.38007389e-003, 0., 0., 0.,
          0., 0., 0., 0., 3.69003695e-003, 3.69003695e-003, 0., 0., 0.,
          0., 0., 0., 0., 0., 0., 0., 0., 0., 0., 3.69003695e-003, 0.,
          0., 0., 0., 0., 0., 0., 0., 0., 0., 3.69003695e-003,
          3.69003695e-003, 3.69003695e-003, 0., 0., 0., 0., 0., 0., 0.,
          0., 3.69003695e-003, 0., 0., 0., 0., 0., 0., 0., 0.,
          3.69003695e-003, 0., 0., 0., 3.69003695e-003, 0.,
          3.69003695e-003, 0., 0., 3.69003695e-003, 0., 3.69003695e-003,
          3.69003695e-003, 0., 0., 0., 0., 0., 0., 7.38007389e-003, 0.,
          0., 0., 0., 0., 0., 0., 0., 0., 0., 0., 0., 0., 0.,
          3.69003695e-003, 0., 0., 0., 3.69003695e-003, 3.69003695e-003,
          0., 0., 7.38007389e-003, 0., 0., 0., 0., 0., 0., 0., 0.,
          3.69003695e-003, 0., 0., 0., 0., 0., 3.69003695e-003, 0.,
          3.69003695e-003, 0., 7.38007389e-003, 3.69003695e-003, 0., 0.,
          0., 0., 0., 0., 0., 0., 0., 0., 3.69003695e-003, 0., 0., 0.,
          0., 0., 3.69003695e-003, 1.10701108e-002, 7.38007389e-003, 0.,
          0., 0., 0., 0., 3.69003695e-003, 7.38007389e-003,
          7.38007389e-003, 0., 1.10701108e-002, 0., 0., 0., 0., 0., 0.,
          0., 0., 0., 0., 0., 7.38007389e-003, 0., 0., 0., 0.,
          3.69003695e-003, 0., 0., 0., 3.69003695e-003, 0.,
          3.69003695e-003, 0., 7.38007389e-003, 0., 3.69003695e-003, 0.,
          0., 0., 3.69003695e-003, 0., 0., 0., 0., 3.69003695e-003,
          3.69003695e-003, 0., 0., 0., 3.69003695e-003, 0., 0., 0., 0.,
          3.69003695e-003, 3.69003695e-003, 0., 0., 3.69003695e-003, 0.,
          0., 0., 0., 0., 0., 0., 0., 0., 7.38007389e-003, 0., 0.,
          3.69003695e-003, 0., 0., 0., 3.69003695e-003, 0.,
          3.69003695e-003, 0., 0., 0., 0., 0., 7.38007389e-003, 0.,
          3.69003695e-003, 3.69003695e-003, 0., 0., 0., 0., 0., 0., 0.,
          0., 0., 0., 3.69003695e-003, 0., 0., 0., 0., 3.69003695e-003,
          3.69003695e-003, 0., 0., 3.69003695e-003, 0., 3.69003695e-003,
          0., 0., 0., 0., 0., 3.69003695e-003, 0., 0., 0., 0., 0., 0.,
          0., 0., 0., 0., 0., 0., 3.69003695e-003, 7.38007389e-003, 0.,
          1.10701108e-002, 0., 0., 0., 0., 3.69003695e-003, 0., 0., 0.,
          0., 7.38007389e-003, 0., 0., 3.69003695e-003, 0., 0.,
          3.69003695e-003, 0., 0., 0., 0., 0., 0., 0., 0., 0.,
          3.69003695e-003, 3.69003695e-003, 0., 0., 0., 3.69003695e-003,
          0., 0., 3.69003695e-003, 0., 0., 0., 0., 7.38007389e-003, 0.,
          0., 3.69003695e-003, 0., 0., 1.10701108e-002, 3.69003695e-003,
          0., 0., 0., 3.69003695e-003, 0., 0., 0., 0., 0.,
          3.69003695e-003, 3.69003695e-003, 0., 0., 0., 3.69003695e-003,
          1.10701108e-002, 0., 3.69003695e-003, 0., 0., 0., 0., 0.,
          1.10701108e-002, 0., 3.69003695e-003, 0., 3.69003695e-003, 0.,
          0., 0., 0., 0. ]
      - [ 0., 0., 3.63636366e-003, 7.27272732e-003, 0., 3.63636366e-003,
          3.63636366e-003, 0., 0., 0., 3.63636366e-003, 3.63636366e-003,
          0., 0., 0., 0., 0., 0., 0., 0., 0., 0., 0., 0., 0., 0., 0.,
          3.63636366e-003, 0., 0., 3.63636366e-003, 0., 7.27272732e-003,
          0., 0., 0., 0., 0., 0., 3.63636366e-003, 3.63636366e-003, 0.,
          3.63636366e-003, 0., 0., 0., 0., 0., 0., 3.63636366e-003, 0.,
          0., 0., 3.63636366e-003, 0., 3.63636366e-003, 0., 0., 0., 0.,
          0., 3.63636366e-003, 0., 0., 1.45454546e-002, 0.,
          3.63636366e-003, 0., 0., 0., 3.63636366e-003, 0., 0., 0.,
          3.63636366e-003, 0., 0., 0., 0., 3.63636366e-003, 0., 0.,
          3.63636366e-003, 0., 0., 0., 0., 0., 7.27272732e-003, 0.,
          3.63636366e-003, 0., 7.27272732e-003, 0., 0., 0., 0.,
          3.63636366e-003, 0., 3.63636366e-003, 0., 0., 0., 0., 0., 0.,
          3.63636366e-003, 3.63636366e-003, 0., 1.09090907e-002,
          7.27272732e-003, 0., 0., 0., 3.63636366e-003, 0., 0., 0., 0.,
          0., 0., 0., 0., 0., 0., 0., 0., 0., 0., 0., 0., 0., 0.,
          3.63636366e-003, 0., 3.63636366e-003, 7.27272732e-003, 0.,
          7.27272732e-003, 0., 0., 0., 3.63636366e-003, 0., 0., 0., 0.,
          0., 3.63636366e-003, 0., 0., 0., 3.63636366e-003, 0., 0., 0.,
          0., 0., 0., 0., 0., 7.27272732e-003, 0., 0., 0., 0.,
          3.63636366e-003, 0., 0., 0., 0., 0., 3.63636366e-003,
          3.63636366e-003, 0., 3.63636366e-003, 3.63636366e-003, 0., 0.,
          0., 0., 0., 0., 0., 3.63636366e-003, 7.27272732e-003, 0., 0.,
          0., 0., 0., 0., 0., 0., 0., 0., 3.63636366e-003, 0., 0.,
          3.63636366e-003, 0., 0., 0., 0., 0., 0., 0., 0., 0., 0., 0.,
          0., 0., 0., 0., 0., 3.63636366e-003, 3.63636366e-003, 0., 0.,
          0., 3.63636366e-003, 0., 0., 0., 0., 0., 3.63636366e-003, 0.,
          2.18181815e-002, 7.27272732e-003, 0., 3.63636366e-003, 0., 0.,
          1.09090907e-002, 0., 0., 0., 0., 0., 3.63636366e-003, 0., 0.,
          0., 0., 0., 3.63636366e-003, 0., 3.63636366e-003,
          3.63636366e-003, 0., 0., 0., 0., 0., 0., 0., 0.,
          7.27272732e-003, 7.27272732e-003, 0., 0., 7.27272732e-003, 0.,
          3.63636366e-003, 0., 0., 0., 3.63636366e-003, 0., 0.,
          3.63636366e-003, 0., 0., 0., 0., 0., 3.63636366e-003,
          3.63636366e-003, 0., 0., 0., 0., 0., 0., 0., 0., 0., 0.,
          3.63636366e-003, 3.63636366e-003, 0., 0., 3.63636366e-003, 0.,
          0., 0., 0., 0., 7.27272732e-003, 0., 0., 0., 0., 0., 0., 0.,
          0., 0., 0., 0., 0., 3.63636366e-003, 0., 0., 3.63636366e-003,
          0., 0., 0., 3.63636366e-003, 0., 3.63636366e-003,
          3.63636366e-003, 7.27272732e-003, 0., 0., 0., 3.63636366e-003,
          0., 3.63636366e-003, 0., 0., 0., 0., 0., 0., 0., 0., 0., 0.,
          3.63636366e-003, 0., 0., 0., 0., 0., 0., 0., 0., 0.,
          3.63636366e-003, 0., 0., 0., 0., 3.63636366e-003,
          3.63636366e-003, 0., 0., 0., 0., 0., 0., 0., 0., 0., 0., 0.,
          0., 0., 0., 0., 0., 7.27272732e-003, 0., 0., 0., 0., 0., 0.,
          0., 0., 0., 3.63636366e-003, 0., 0., 7.27272732e-003,
          7.27272732e-003, 0., 0., 0., 0., 0., 0., 0., 0.,
          3.63636366e-003, 0., 0., 0., 0., 0., 0., 7.27272732e-003, 0.,
          0., 0., 0., 0., 0., 0., 0., 0., 3.63636366e-003, 0., 0., 0.,
          0., 3.63636366e-003, 0., 3.63636366e-003, 0., 0., 0., 0., 0.,
          0., 0., 3.63636366e-003, 0., 3.63636366e-003, 0., 0.,
          3.63636366e-003, 0., 0., 3.63636366e-003, 3.63636366e-003, 0.,
          3.63636366e-003, 3.63636366e-003, 0., 0., 0., 0., 0., 0., 0.,
          3.63636366e-003, 0., 0., 3.63636366e-003, 0., 0., 0., 0., 0.,
          7.27272732e-003, 0., 0., 0., 0., 3.63636366e-003, 0., 0., 0.,
          3.63636366e-003, 0., 0., 0., 0., 0., 3.63636366e-003, 0., 0.,
          0., 1.09090907e-002, 0., 3.63636366e-003, 3.63636366e-003, 0.,
          0., 0., 0., 7.27272732e-003, 0., 0., 0., 0., 0., 0., 0.,
          3.63636366e-003, 0., 0., 0., 7.27272732e-003, 0.,
          3.63636366e-003, 0., 0., 0., 0., 0., 0., 0., 0., 0., 0.,
          7.27272732e-003, 3.63636366e-003, 0., 0., 0., 0.,
          3.63636366e-003, 0., 0., 0., 0., 1.45454546e-002,
          3.63636366e-003, 0., 3.63636366e-003, 0., 0., 3.63636366e-003,
          0., 0., 0., 0., 0., 3.63636366e-003, 0., 0., 0., 0., 0., 0.,
          0., 0., 0., 0., 0., 0., 0., 0., 0., 0., 3.63636366e-003, 0.,
          3.63636366e-003, 0., 3.63636366e-003, 0., 0., 0.,
          3.63636366e-003, 0., 0., 0., 0., 0., 3.63636366e-003,
          3.63636366e-003, 0., 0., 0., 0., 0., 0., 0., 0., 0., 0., 0.,
          0., 0., 0., 0., 0., 0., 0., 0., 0., 0., 0., 0.,
          7.27272732e-003, 0., 0., 3.63636366e-003, 0., 7.27272732e-003,
          0., 0., 0., 0., 0., 0., 0., 0., 7.27272732e-003,
          3.63636366e-003, 0., 0., 3.63636366e-003, 0., 0., 0., 0., 0.,
          0., 7.27272732e-003, 0., 0., 3.63636366e-003, 0., 0., 0., 0.,
          0., 3.63636366e-003, 0., 0., 0., 0., 0., 0., 0., 0., 0., 0.,
          0., 0., 0., 3.63636366e-003, 0., 0., 0., 0., 0., 0., 0., 0.,
          0., 0., 3.63636366e-003, 0., 0., 3.63636366e-003,
          3.63636366e-003, 0., 0., 0., 0., 0., 0., 0., 0.,
          3.63636366e-003, 3.63636366e-003, 0., 0., 0., 0., 0.,
          3.63636366e-003, 0., 0., 0., 0., 0., 0., 0., 7.27272732e-003,
          0., 0., 0., 0., 0., 0., 0., 0., 0., 0., 0., 3.63636366e-003,
          0., 0., 0., 0., 0., 0., 0., 0., 0., 3.63636366e-003, 0., 0.,
          0., 3.63636366e-003, 0., 0., 0., 0., 3.63636366e-003, 0., 0.,
          0., 3.63636366e-003, 0., 0., 0., 0., 0., 3.63636366e-003,
          3.63636366e-003, 3.63636366e-003, 0., 0., 0., 0., 0., 0.,
          1.09090907e-002, 0., 0., 0., 0., 0., 0., 0., 0., 0., 0., 0.,
          0., 0., 0., 0., 0., 3.63636366e-003, 0., 3.63636366e-003, 0.,
          0., 0., 3.63636366e-003, 0., 0., 0., 0., 0., 0., 0., 0.,
          3.63636366e-003, 3.63636366e-003, 0., 0., 0., 0., 0., 0.,
          3.63636366e-003, 0., 7.27272732e-003, 0., 0., 0.,
          3.63636366e-003, 0., 0., 0., 0., 0., 3.63636366e-003, 0., 0.,
          0., 0., 0., 0., 0., 0., 0., 0., 0., 0., 3.63636366e-003, 0.,
          0., 3.63636366e-003, 7.27272732e-003, 3.63636366e-003, 0.,
          1.09090907e-002, 0., 3.63636366e-003, 0., 0., 0., 0., 0., 0.,
          0., 0., 0., 7.27272732e-003, 0., 0., 0., 0., 0., 0., 0., 0.,
          7.27272732e-003, 0., 3.63636366e-003, 0., 0., 0., 0., 0., 0.,
          0., 1.09090907e-002, 0., 0., 3.63636366e-003, 0.,
          7.27272732e-003, 3.63636366e-003, 0., 0., 3.63636366e-003,
          7.27272732e-003, 0., 3.63636366e-003, 0., 0., 0., 0., 0., 0.,
          0., 0., 0., 0., 0., 0., 0., 0., 0., 3.63636366e-003, 0., 0.,
          3.63636366e-003, 3.63636366e-003, 0., 0., 0., 0., 0., 0., 0.,
          0., 0., 0., 0., 0., 0., 7.27272732e-003, 3.63636366e-003, 0.,
          0., 0., 0., 0., 0., 0., 0., 0., 0., 0., 0., 0., 0., 0.,
          3.63636366e-003, 0., 0., 3.63636366e-003, 0., 0., 0., 0., 0.,
          3.63636366e-003, 0., 0., 7.27272732e-003, 0., 7.27272732e-003,
          0., 0., 0., 0., 0., 0., 0., 0., 0., 0., 0., 3.63636366e-003,
          0., 1.09090907e-002, 0., 0., 3.63636366e-003, 0.,
          3.63636366e-003, 0., 0., 0., 0., 3.63636366e-003, 0.,
          3.63636366e-003, 0., 0., 0., 0., 0., 0., 0., 0., 0., 0., 0.,
          0., 0., 3.63636366e-003, 0., 0., 0., 0., 0., 0., 0.,
          3.63636366e-003, 0., 0., 0., 0., 1.09090907e-002, 0., 0., 0.,
          0., 0., 0., 7.27272732e-003, 0., 0., 0., 3.63636366e-003,
          3.63636366e-003, 0., 0., 0., 0., 0., 3.63636366e-003, 0., 0.,
          0., 0., 7.27272732e-003, 0., 0., 3.63636366e-003, 0., 0.,
          3.63636366e-003, 0., 0., 3.63636366e-003, 0., 0.,
          3.63636366e-003, 0., 0., 7.27272732e-003, 0., 0. ]
      - [ 2.68096523e-003, 0., 0., 0., 0., 5.36193047e-003, 0.,
          5.36193047e-003, 0., 0., 0., 0., 2.68096523e-003,
          8.04289617e-003, 0., 0., 0., 0., 0., 0., 0., 0., 0., 0.,
          2.68096523e-003, 0., 0., 2.68096523e-003, 0., 0., 0., 0.,
          2.68096523e-003, 0., 0., 0., 2.68096523e-003, 0., 0.,
          2.68096523e-003, 0., 8.04289617e-003, 2.68096523e-003, 0., 0.,
          0., 0., 0., 5.36193047e-003, 0., 0., 2.68096523e-003, 0., 0.,
          0., 0., 5.36193047e-003, 0., 0., 0., 0., 0., 0., 0.,
          2.68096523e-003, 0., 0., 0., 0., 0., 2.68096523e-003, 0., 0.,
          0., 0., 0., 2.68096523e-003, 0., 0., 2.68096523e-003, 0., 0.,
          0., 0., 0., 5.36193047e-003, 0., 0., 0., 2.68096523e-003,
          2.68096523e-003, 2.68096523e-003, 2.68096523e-003, 0., 0.,
          2.68096523e-003, 2.68096523e-003, 0., 0., 0., 0., 0., 0., 0.,
          0., 0., 2.68096523e-003, 5.36193047e-003, 0., 5.36193047e-003,
          0., 0., 0., 2.68096523e-003, 0., 0., 0., 0., 0., 0., 0., 0.,
          0., 0., 0., 0., 0., 0., 5.36193047e-003, 0., 2.68096523e-003,
          8.04289617e-003, 2.68096523e-003, 0., 5.36193047e-003, 0., 0.,
          0., 0., 2.68096523e-003, 0., 0., 5.36193047e-003, 0., 0., 0.,
          2.68096523e-003, 0., 0., 0., 2.68096523e-003, 0.,
          2.68096523e-003, 5.36193047e-003, 0., 0., 0., 0.,
          8.04289617e-003, 0., 0., 0., 5.36193047e-003, 0.,
          5.36193047e-003, 0., 0., 0., 0., 0., 0., 0., 5.36193047e-003,
          0., 0., 2.68096523e-003, 2.68096523e-003, 5.36193047e-003,
          5.36193047e-003, 0., 0., 0., 2.68096523e-003, 0.,
          2.68096523e-003, 0., 0., 2.68096523e-003, 0., 2.68096523e-003,
          0., 0., 0., 0., 0., 8.04289617e-003, 0., 0., 5.36193047e-003,
          0., 1.60857923e-002, 0., 0., 5.36193047e-003, 0., 0., 0., 0.,
          0., 2.68096523e-003, 0., 0., 2.68096523e-003, 0., 0.,
          2.68096523e-003, 0., 0., 2.68096523e-003, 8.04289617e-003, 0.,
          0., 0., 0., 0., 2.68096523e-003, 2.68096523e-003, 0., 0.,
          2.68096523e-003, 0., 0., 2.68096523e-003, 0., 0.,
          2.68096523e-003, 2.68096523e-003, 0., 0., 0., 2.68096523e-003,
          5.36193047e-003, 0., 0., 0., 0., 0., 0., 0., 2.68096523e-003,
          5.36193047e-003, 0., 5.36193047e-003, 5.36193047e-003, 0., 0.,
          0., 0., 1.07238609e-002, 2.68096523e-003, 0., 2.68096523e-003,
          0., 0., 0., 0., 2.68096523e-003, 0., 2.68096523e-003, 0., 0.,
          2.68096523e-003, 2.68096523e-003, 0., 0., 0., 0., 0.,
          2.68096523e-003, 2.68096523e-003, 0., 0., 0., 2.68096523e-003,
          2.68096523e-003, 2.68096523e-003, 0., 0., 0., 0., 0.,
          2.68096523e-003, 2.68096523e-003, 0., 0., 0., 0., 0., 0., 0.,
          2.68096523e-003, 0., 0., 0., 0., 0., 0., 0., 0., 0.,
          2.68096523e-003, 0., 0., 2.68096523e-003, 0., 0., 0., 0., 0.,
          0., 0., 0., 0., 0., 5.36193047e-003, 0., 0., 0., 0., 0., 0.,
          0., 0., 0., 8.04289617e-003, 0., 0., 0., 0., 5.36193047e-003,
          0., 0., 0., 0., 0., 0., 5.36193047e-003, 0., 0., 0., 0.,
          2.68096523e-003, 0., 0., 2.68096523e-003, 0., 0., 0.,
          5.36193047e-003, 0., 0., 0., 0., 0., 2.68096523e-003,
          2.68096523e-003, 0., 0., 0., 0., 0., 5.36193047e-003, 0., 0.,
          0., 0., 0., 0., 0., 0., 0., 2.68096523e-003, 0., 0., 0.,
          5.36193047e-003, 0., 2.68096523e-003, 0., 2.68096523e-003, 0.,
          0., 0., 2.68096523e-003, 0., 0., 0., 0., 5.36193047e-003, 0.,
          0., 0., 0., 0., 5.36193047e-003, 0., 0., 2.68096523e-003, 0.,
          0., 0., 0., 0., 0., 0., 0., 2.68096523e-003, 0.,
          5.36193047e-003, 0., 0., 2.68096523e-003, 5.36193047e-003, 0.,
          1.07238609e-002, 0., 0., 0., 0., 0., 0., 2.68096523e-003, 0.,
          0., 0., 0., 0., 0., 0., 0., 0., 0., 2.68096523e-003, 0.,
          2.68096523e-003, 2.68096523e-003, 0., 0., 0., 0., 0., 0., 0.,
          0., 0., 0., 0., 0., 2.68096523e-003, 0., 0., 0.,
          2.68096523e-003, 0., 0., 2.68096523e-003, 5.36193047e-003, 0.,
          0., 2.68096523e-003, 0., 5.36193047e-003, 2.68096523e-003,
          8.04289617e-003, 0., 0., 0., 2.68096523e-003, 0., 0., 0., 0.,
          0., 0., 0., 2.68096523e-003, 0., 0., 0., 0., 0.,
          5.36193047e-003, 2.68096523e-003, 2.68096523e-003, 0., 0., 0.,
          0., 0., 0., 0., 0., 0., 0., 0., 0., 0., 0., 0.,
          1.07238609e-002, 2.68096523e-003, 5.36193047e-003, 0.,
          5.36193047e-003, 0., 2.68096523e-003, 2.68096523e-003, 0., 0.,
          0., 2.68096523e-003, 5.36193047e-003, 0., 0., 0.,
          2.68096523e-003, 0., 2.68096523e-003, 2.68096523e-003, 0., 0.,
          0., 0., 0., 5.36193047e-003, 0., 0., 0., 0., 0., 0., 0., 0.,
          0., 0., 0., 0., 0., 0., 0., 2.68096523e-003, 0., 0., 0.,
          2.68096523e-003, 2.68096523e-003, 0., 0., 0., 0.,
          5.36193047e-003, 0., 0., 0., 5.36193047e-003, 0.,
          5.36193047e-003, 0., 0., 0., 0., 2.68096523e-003, 0., 0., 0.,
          0., 0., 0., 0., 0., 0., 2.68096523e-003, 0., 0., 0., 0., 0.,
          2.68096523e-003, 0., 0., 0., 0., 0., 0., 0., 2.68096523e-003,
          0., 5.36193047e-003, 0., 0., 0., 0., 0., 0., 2.68096523e-003,
          8.04289617e-003, 0., 0., 2.68096523e-003, 0., 0., 0., 0., 0.,
          2.68096523e-003, 5.36193047e-003, 0., 0., 0., 0., 0.,
          8.04289617e-003, 5.36193047e-003, 0., 0., 0., 0., 0.,
          2.68096523e-003, 2.68096523e-003, 0., 0., 0., 0., 0., 0., 0.,
          0., 2.68096523e-003, 0., 0., 0., 0., 0., 0., 5.36193047e-003,
          0., 0., 5.36193047e-003, 0., 2.68096523e-003, 0., 0.,
          2.68096523e-003, 0., 0., 0., 0., 0., 0., 0., 0.,
          2.68096523e-003, 0., 0., 5.36193047e-003, 0., 0., 0., 0.,
          2.68096523e-003, 0., 0., 0., 0., 0., 0., 0., 0., 0., 0., 0.,
          0., 1.07238609e-002, 0., 2.68096523e-003, 0., 0., 0., 0.,
          2.68096523e-003, 0., 0., 2.68096523e-003, 0., 0., 0., 0.,
          2.68096523e-003, 0., 0., 0., 0., 0., 0., 5.36193047e-003, 0.,
          0., 0., 2.68096523e-003, 0., 2.68096523e-003, 0., 0., 0., 0.,
          1.07238609e-002, 0., 2.68096523e-003, 0., 0., 0., 0., 0., 0.,
          0., 2.68096523e-003, 0., 2.68096523e-003, 0., 0., 0., 0., 0.,
          0., 0., 0., 0., 0., 1.07238609e-002, 0., 2.68096523e-003, 0.,
          2.68096523e-003, 0., 0., 0., 0., 5.36193047e-003,
          5.36193047e-003, 5.36193047e-003, 0., 0., 0., 0.,
          5.36193047e-003, 0., 0., 2.68096523e-003, 0., 0., 0., 0., 0.,
          0., 0., 0., 5.36193047e-003, 0., 2.68096523e-003, 0., 0.,
          2.68096523e-003, 2.68096523e-003, 0., 0., 0., 0., 0., 0., 0.,
          0., 2.68096523e-003, 0., 0., 2.68096523e-003, 0., 0., 0.,
          8.04289617e-003, 2.68096523e-003, 2.68096523e-003, 0., 0., 0.,
          2.68096523e-003, 0., 0., 0., 0., 0., 0., 0., 0., 0.,
          2.68096523e-003, 0., 8.04289617e-003, 0., 0., 5.36193047e-003,
          0., 2.68096523e-003, 0., 0., 2.68096523e-003, 2.68096523e-003,
          0., 0., 0., 0., 2.68096523e-003, 5.36193047e-003, 0., 0., 0.,
          0., 2.68096523e-003, 0., 2.68096523e-003, 0., 0.,
          2.68096523e-003, 0., 0., 0., 0., 0., 0., 2.68096523e-003, 0.,
          0., 0., 2.68096523e-003, 0., 0., 2.68096523e-003, 0., 0.,
          1.07238609e-002, 0., 2.68096523e-003, 0., 0., 8.04289617e-003,
          0., 0., 8.04289617e-003, 0., 5.36193047e-003, 0., 0.,
          2.68096523e-003, 0., 2.68096523e-003, 0., 0., 0., 0., 0., 0.,
          0., 0., 0., 0., 2.68096523e-003, 2.68096523e-003,
          2.68096523e-003, 0., 0., 0., 0., 0., 0., 0., 0., 0.,
          2.68096523e-003, 0., 0., 0., 0., 0., 0., 0., 0., 0.,
          5.36193047e-003, 0., 0., 0., 0., 0., 0., 5.36193047e-003, 0.,
          0., 0., 2.68096523e-003, 0., 0., 0., 0., 0., 0.,
          2.68096523e-003, 0., 8.04289617e-003, 2.68096523e-003, 0., 0.,
          0., 8.04289617e-003, 0., 0., 0., 0., 0., 0., 0.,
          2.68096523e-003, 0., 8.04289617e-003, 0., 0., 0., 0., 0., 0.,
          0., 0., 0., 0., 0., 0., 0., 0., 0., 0., 2.68096523e-003, 0.,
          2.68096523e-003, 0., 0., 2.68096523e-003, 0., 0., 0., 0., 0.,
          5.36193047e-003, 2.68096523e-003, 5.36193047e-003, 0., 0.,
          2.68096523e-003, 2.68096523e-003, 0., 0., 0., 2.68096523e-003,
          0., 0., 0., 2.68096523e-003, 0., 2.68096523e-003, 0., 0., 0.,
          0., 0., 0., 0., 0., 2.68096523e-003, 0., 0., 2.68096523e-003,
          0., 0., 0., 0., 2.68096523e-003, 0., 0., 5.36193047e-003, 0.,
          2.68096523e-003, 0. ]
      - [ 0., 0., 4.20168089e-003, 4.20168089e-003, 0., 4.20168089e-003,
          0., 0., 0., 0., 0., 0., 0., 0., 0., 0., 0., 0., 0., 0., 0., 0.,
          0., 0., 0., 0., 0., 8.40336177e-003, 0., 0., 4.20168089e-003,
          0., 0., 0., 0., 0., 4.20168089e-003, 0., 0., 8.40336177e-003,
          4.20168089e-003, 0., 0., 0., 0., 0., 0., 0., 0.,
          4.20168089e-003, 0., 0., 0., 4.20168089e-003, 0.,
          4.20168089e-003, 4.20168089e-003, 0., 0., 0., 0.,
          4.20168089e-003, 0., 0., 4.20168089e-003, 0., 0., 0., 0., 0.,
          4.20168089e-003, 0., 0., 4.20168089e-003, 0., 0.,
          4.20168089e-003, 0., 0., 4.20168089e-003, 0., 0.,
          8.40336177e-003, 0., 0., 0., 0., 0., 8.40336177e-003, 0., 0.,
          0., 4.20168089e-003, 4.20168089e-003, 0., 0., 0.,
          4.20168089e-003, 0., 0., 0., 0., 0., 0., 0., 0., 0.,
          8.40336177e-003, 0., 4.20168089e-003, 4.20168089e-003, 0., 0.,
          4.20168089e-003, 0., 0., 0., 0., 0., 0., 0., 0., 0., 0., 0.,
          0., 0., 0., 0., 0., 0., 0., 0., 8.40336177e-003, 0., 0., 0.,
          0., 0., 4.20168089e-003, 0., 0., 4.20168089e-003, 0., 0., 0.,
          0., 0., 0., 0., 0., 0., 0., 0., 0., 4.20168089e-003, 0., 0.,
          0., 0., 0., 4.20168089e-003, 4.20168089e-003, 0., 0., 0.,
          4.20168089e-003, 0., 0., 0., 0., 0., 4.20168089e-003,
          4.20168089e-003, 0., 4.20168089e-003, 8.40336177e-003, 0., 0.,
          0., 0., 0., 0., 4.20168089e-003, 0., 0., 0., 0., 0., 0., 0.,
          0., 0., 0., 0., 0., 4.20168089e-003, 0., 0., 0., 0., 0., 0.,
          4.20168089e-003, 0., 0., 0., 0., 0., 0., 0., 4.20168089e-003,
          0., 0., 0., 0., 0., 4.20168089e-003, 0., 0., 8.40336177e-003,
          4.20168089e-003, 0., 0., 0., 0., 0., 0., 0., 1.26050431e-002,
          4.20168089e-003, 0., 0., 0., 0., 0., 0., 0., 0., 0., 0., 0.,
          0., 0., 0., 4.20168089e-003, 0., 0., 0., 0., 4.20168089e-003,
          0., 0., 0., 0., 0., 0., 4.20168089e-003, 0., 4.20168089e-003,
          1.26050431e-002, 0., 0., 4.20168089e-003, 0., 4.20168089e-003,
          0., 0., 0., 8.40336177e-003, 0., 0., 0., 0., 0., 0., 0., 0.,
          4.20168089e-003, 4.20168089e-003, 0., 0., 0., 0., 0.,
          4.20168089e-003, 0., 0., 0., 0., 0., 4.20168089e-003, 0., 0.,
          0., 0., 0., 0., 0., 0., 4.20168089e-003, 0., 0., 0., 0., 0.,
          0., 0., 0., 0., 0., 4.20168089e-003, 0., 8.40336177e-003,
          4.20168089e-003, 0., 4.20168089e-003, 0., 0., 0., 0., 0.,
          4.20168089e-003, 0., 0., 0., 0., 0., 4.20168089e-003, 0., 0.,
          0., 0., 0., 0., 0., 0., 4.20168089e-003, 0., 0., 0., 0., 0.,
          0., 0., 0., 0., 0., 4.20168089e-003, 4.20168089e-003, 0.,
          4.20168089e-003, 0., 4.20168089e-003, 0., 0., 0.,
          4.20168089e-003, 4.20168089e-003, 0., 0., 0., 0., 0., 0.,
          4.20168089e-003, 0., 0., 0., 0., 0., 0., 0., 0., 0., 0., 0.,
          0., 0., 4.20168089e-003, 0., 4.20168089e-003, 0., 0.,
          8.40336177e-003, 0., 4.20168089e-003, 8.40336177e-003, 0., 0.,
          0., 0., 0., 0., 0., 4.20168089e-003, 0., 4.20168089e-003, 0.,
          0., 0., 0., 0., 0., 0., 0., 0., 0., 0., 0., 0., 0., 0., 0.,
          4.20168089e-003, 0., 0., 4.20168089e-003, 0., 0., 0., 0., 0.,
          0., 0., 0., 0., 0., 4.20168089e-003, 4.20168089e-003,
          4.20168089e-003, 0., 0., 0., 0., 0., 0., 0., 0., 0., 0.,
          4.20168089e-003, 0., 0., 0., 0., 0., 0., 0., 4.20168089e-003,
          0., 0., 0., 0., 0., 0., 0., 0., 4.20168089e-003,
          8.40336177e-003, 0., 0., 0., 4.20168089e-003, 0., 0.,
          4.20168089e-003, 0., 4.20168089e-003, 0., 0., 0., 0.,
          8.40336177e-003, 0., 0., 4.20168089e-003, 4.20168089e-003, 0.,
          0., 0., 0., 0., 0., 0., 4.20168089e-003, 0., 4.20168089e-003,
          0., 0., 0., 0., 0., 4.20168089e-003, 0., 0., 0., 0., 0.,
          4.20168089e-003, 0., 0., 0., 0., 0., 0., 0., 0., 0., 0.,
          4.20168089e-003, 4.20168089e-003, 0., 0., 0., 0.,
          4.20168089e-003, 0., 0., 0., 0., 8.40336177e-003,
          4.20168089e-003, 0., 4.20168089e-003, 0., 8.40336177e-003, 0.,
          0., 0., 0., 0., 4.20168089e-003, 0., 0., 0., 0., 0., 0., 0.,
          0., 0., 0., 0., 0., 0., 0., 0., 0., 0., 0., 0., 0., 0., 0., 0.,
          4.20168089e-003, 0., 0., 0., 0., 0., 0., 0., 4.20168089e-003,
          0., 0., 4.20168089e-003, 0., 0., 0., 0., 0., 4.20168089e-003,
          4.20168089e-003, 0., 0., 0., 4.20168089e-003, 0., 0., 0., 0.,
          0., 0., 0., 4.20168089e-003, 0., 0., 0., 0., 0., 0., 0., 0.,
          0., 0., 0., 4.20168089e-003, 0., 0., 0., 0., 0., 0., 0., 0.,
          4.20168089e-003, 0., 0., 0., 0., 4.20168089e-003, 0., 0., 0.,
          0., 0., 0., 0., 0., 4.20168089e-003, 0., 4.20168089e-003, 0.,
          4.20168089e-003, 0., 0., 0., 0., 0., 0., 4.20168089e-003, 0.,
          4.20168089e-003, 0., 0., 8.40336177e-003, 0., 0., 0., 0., 0.,
          0., 0., 0., 0., 0., 0., 0., 0., 4.20168089e-003,
          4.20168089e-003, 4.20168089e-003, 0., 0., 0., 0., 0., 0., 0.,
          4.20168089e-003, 4.20168089e-003, 0., 0., 0., 0., 0., 0., 0.,
          0., 0., 0., 0., 0., 0., 4.20168089e-003, 0., 0., 0., 0., 0.,
          0., 0., 4.20168089e-003, 4.20168089e-003, 0., 4.20168089e-003,
          0., 0., 4.20168089e-003, 0., 0., 0., 0., 0., 0., 0.,
          4.20168089e-003, 0., 0., 0., 4.20168089e-003, 0., 0., 0., 0.,
          0., 0., 0., 4.20168089e-003, 8.40336177e-003, 0., 0., 0., 0.,
          8.40336177e-003, 0., 4.20168089e-003, 4.20168089e-003, 0., 0.,
          0., 0., 0., 4.20168089e-003, 8.40336177e-003, 0., 0., 0., 0.,
          0., 0., 0., 0., 0., 0., 0., 0., 0., 0., 4.20168089e-003, 0.,
          0., 0., 8.40336177e-003, 0., 4.20168089e-003, 0.,
          4.20168089e-003, 0., 0., 0., 0., 0., 0., 0., 0.,
          4.20168089e-003, 0., 0., 0., 0., 0., 0., 0., 0., 0.,
          4.20168089e-003, 0., 0., 0., 0., 0., 0., 0., 0., 0.,
          4.20168089e-003, 0., 0., 0., 0., 0., 8.40336177e-003, 0., 0.,
          0., 1.26050431e-002, 0., 0., 0., 0., 0., 4.20168089e-003,
          4.20168089e-003, 8.40336177e-003, 0., 1.26050431e-002,
          4.20168089e-003, 0., 0., 0., 0., 0., 0., 0., 0., 0., 0., 0.,
          0., 0., 0., 4.20168089e-003, 4.20168089e-003, 0., 0., 0.,
          8.40336177e-003, 0., 4.20168089e-003, 0., 4.20168089e-003, 0.,
          8.40336177e-003, 0., 0., 0., 0., 0., 0., 0., 0.,
          8.40336177e-003, 0., 0., 4.20168089e-003, 0., 4.20168089e-003,
          0., 0., 0., 0., 0., 4.20168089e-003, 0., 0., 0., 0.,
          4.20168089e-003, 0., 0., 0., 0., 0., 0., 0., 0., 0., 0.,
          4.20168089e-003, 0., 0., 0., 0., 0., 0., 0., 0., 0., 0., 0.,
          4.20168089e-003, 0., 0., 4.20168089e-003, 0., 0., 0., 0., 0.,
          0., 0., 0., 0., 0., 4.20168089e-003, 0., 0., 0., 0., 0., 0.,
          0., 0., 0., 0., 4.20168089e-003, 0., 4.20168089e-003, 0., 0.,
          0., 4.20168089e-003, 8.40336177e-003, 8.40336177e-003, 0., 0.,
          0., 0., 0., 4.20168089e-003, 0., 8.40336177e-003, 0., 0., 0.,
          4.20168089e-003, 0., 8.40336177e-003, 0., 0., 0., 0.,
          4.20168089e-003, 0., 0., 4.20168089e-003, 0., 0.,
          4.20168089e-003, 0., 0., 0., 0., 4.20168089e-003, 0., 0., 0.,
          0., 0., 0., 0., 0., 0., 8.40336177e-003, 0., 0.,
          4.20168089e-003, 0., 0., 0., 4.20168089e-003, 0., 0., 0., 0.,
          4.20168089e-003, 8.40336177e-003, 0., 0., 4.20168089e-003, 0.,
          0., 4.20168089e-003, 0., 0., 0., 0., 4.20168089e-003, 0., 0.,
          0., 0., 0., 4.20168089e-003, 0., 0., 0., 0., 0.,
          4.20168089e-003, 0., 4.20168089e-003, 0., 0., 0.,
          4.20168089e-003, 0., 0., 4.20168089e-003, 0., 0., 0., 0., 0.,
          0., 0., 0. ]
      - [ 0., 0., 0., 0., 0., 2.53807101e-003, 0., 3.55329961e-002, 0.,
          0., 0., 0., 2.53807101e-003, 5.07614203e-003, 0., 0., 0., 0.,
          0., 0., 0., 0., 0., 0., 0., 0., 0., 0., 0., 0.,
          2.53807101e-003, 0., 5.07614203e-003, 0., 0., 0.,
          2.53807101e-003, 0., 0., 2.53807101e-003, 0., 7.61421304e-003,
          0., 0., 0., 0., 0., 0., 0., 0., 0., 0., 0., 0., 0.,
          2.53807101e-003, 7.61421304e-003, 0., 0., 0., 0.,
          7.61421304e-003, 0., 0., 0., 0., 2.53807101e-003, 0.,
          2.53807101e-003, 0., 0., 0., 0., 0., 0., 0., 2.53807101e-003,
          5.07614203e-003, 0., 5.07614203e-003, 0., 0., 0., 0., 0., 0.,
          0., 0., 0., 0., 2.53807101e-003, 2.53807101e-003,
          2.53807101e-003, 5.07614203e-003, 0., 0., 2.53807101e-003, 0.,
          0., 5.07614203e-003, 0., 0., 0., 0., 0., 0., 0., 0., 0.,
          2.53807101e-003, 0., 0., 0., 0., 0., 0., 0., 0., 0., 0., 0.,
          5.07614203e-003, 2.53807101e-003, 0., 0., 0., 0., 0.,
          2.53807101e-003, 0., 0., 7.61421304e-003, 5.07614203e-003,
          2.53807101e-003, 5.07614203e-003, 0., 2.53807101e-003, 0.,
          2.53807101e-003, 2.53807101e-003, 0., 0., 1.01522841e-002,
          2.53807101e-003, 0., 0., 0., 0., 0., 0., 0., 0., 0., 0., 0.,
          0., 0., 0., 2.53807101e-003, 0., 2.53807101e-003, 0.,
          2.53807101e-003, 0., 2.53807101e-003, 0., 0., 0., 0., 0., 0.,
          0., 5.07614203e-003, 2.53807101e-003, 0., 0., 2.53807101e-003,
          0., 0., 2.53807101e-003, 5.07614203e-003, 0., 5.07614203e-003,
          0., 2.53807101e-003, 2.53807101e-003, 0., 0., 0., 0., 0., 0.,
          2.53807101e-003, 0., 5.07614203e-003, 2.53807101e-003, 0., 0.,
          0., 0., 5.07614203e-003, 0., 0., 5.07614203e-003, 0., 0., 0.,
          0., 0., 0., 2.53807101e-003, 0., 5.07614203e-003, 0., 0., 0.,
          2.53807101e-003, 0., 0., 0., 2.53807101e-003, 0., 0., 0., 0.,
          0., 0., 2.53807101e-003, 0., 7.61421304e-003, 0., 0.,
          2.53807101e-003, 0., 0., 0., 5.07614203e-003, 0., 0., 0.,
          2.53807101e-003, 2.53807101e-003, 0., 0., 0., 0., 0., 0., 0.,
          0., 2.53807101e-003, 0., 0., 0., 0., 0., 0., 0.,
          5.07614203e-003, 2.53807101e-003, 0., 0., 0., 0., 0.,
          2.53807101e-003, 0., 0., 0., 2.53807101e-003, 0., 0., 0., 0.,
          0., 0., 0., 0., 2.53807101e-003, 0., 0., 0., 0.,
          7.61421304e-003, 0., 0., 0., 0., 0., 0., 5.07614203e-003,
          2.53807101e-003, 2.53807101e-003, 0., 0., 0., 0., 0., 0., 0.,
          5.07614203e-003, 2.53807101e-003, 0., 0., 0., 0., 0., 0., 0.,
          0., 0., 2.53807101e-003, 0., 0., 0., 0., 0., 0.,
          2.53807101e-003, 0., 0., 0., 0., 0., 2.53807101e-003, 0., 0.,
          0., 2.53807101e-003, 0., 0., 0., 2.53807101e-003, 0., 0.,
          2.53807101e-003, 0., 0., 0., 0., 0., 0., 7.61421304e-003,
          2.53807101e-003, 0., 0., 0., 0., 5.07614203e-003,
          2.53807101e-003, 0., 0., 2.53807101e-003, 0., 2.53807101e-003,
          0., 0., 2.53807101e-003, 0., 0., 0., 0., 0., 0., 0.,
          2.53807101e-003, 2.53807101e-003, 0., 0., 0., 0.,
          2.53807101e-003, 2.53807101e-003, 0., 2.53807101e-003, 0., 0.,
          0., 0., 0., 0., 5.07614203e-003, 0., 0., 0., 0.,
          5.07614203e-003, 0., 2.53807101e-003, 2.53807101e-003, 0., 0.,
          5.07614203e-003, 0., 0., 0., 0., 2.53807101e-003, 0., 0., 0.,
          0., 2.53807101e-003, 0., 2.53807101e-003, 0., 0., 0., 0., 0.,
          0., 0., 0., 0., 5.07614203e-003, 2.53807101e-003, 0., 0., 0.,
          0., 0., 0., 2.53807101e-003, 0., 0., 0., 0., 0., 0., 0., 0.,
          5.07614203e-003, 0., 5.07614203e-003, 2.53807101e-003, 0., 0.,
          0., 5.07614203e-003, 0., 2.53807101e-003, 0., 0., 0., 0.,
          2.53807101e-003, 0., 0., 0., 0., 0., 0., 0., 0., 0.,
          2.53807101e-003, 0., 0., 0., 7.61421304e-003, 0., 0.,
          2.53807101e-003, 0., 0., 0., 5.07614203e-003, 0., 0., 0.,
          2.53807101e-003, 5.07614203e-003, 0., 5.07614203e-003, 0., 0.,
          2.53807101e-003, 0., 0., 0., 0., 0., 0., 0., 0., 0., 0., 0.,
          0., 0., 0., 7.61421304e-003, 2.53807101e-003, 2.53807101e-003,
          0., 0., 0., 2.53807101e-003, 0., 0., 0., 0., 0., 0., 0., 0.,
          0., 0., 0., 0., 2.53807101e-003, 2.53807101e-003, 0.,
          2.53807101e-003, 0., 0., 2.53807101e-003, 0., 0., 0., 0.,
          5.07614203e-003, 0., 0., 0., 0., 0., 0., 0., 5.07614203e-003,
          0., 2.53807101e-003, 0., 0., 0., 0., 0., 0., 0., 0., 0., 0.,
          0., 0., 0., 0., 0., 0., 0., 0., 0., 0., 2.53807101e-003, 0.,
          0., 0., 0., 0., 2.53807101e-003, 0., 0., 0., 0.,
          5.07614203e-003, 2.53807101e-003, 2.53807101e-003,
          2.53807101e-003, 0., 0., 0., 0., 7.61421304e-003, 0., 0., 0.,
          0., 0., 0., 5.07614203e-003, 0., 5.07614203e-003,
          2.53807101e-003, 0., 0., 0., 0., 0., 0., 0., 0., 0., 0., 0.,
          2.53807101e-003, 0., 0., 0., 0., 0., 0., 2.53807101e-003, 0.,
          0., 0., 0., 2.53807101e-003, 5.07614203e-003, 2.53807101e-003,
          0., 0., 0., 0., 0., 2.53807101e-003, 0., 4.06091362e-002, 0.,
          0., 0., 0., 0., 0., 0., 2.53807101e-003, 2.53807101e-003, 0.,
          2.53807101e-003, 0., 5.07614203e-003, 0., 0., 0., 0., 0., 0.,
          0., 0., 0., 5.07614203e-003, 0., 0., 0., 0., 0.,
          2.53807101e-003, 0., 0., 0., 2.53807101e-003, 2.53807101e-003,
          0., 2.53807101e-003, 0., 5.07614203e-003, 0., 0., 0., 0., 0.,
          0., 0., 2.53807101e-003, 2.53807101e-003, 5.07614203e-003, 0.,
          0., 0., 0., 0., 0., 5.07614203e-003, 2.53807101e-003, 0., 0.,
          0., 2.53807101e-003, 0., 0., 0., 2.53807101e-003, 0., 0., 0.,
          0., 0., 5.07614203e-003, 0., 0., 0., 0., 2.53807101e-003, 0.,
          0., 0., 0., 0., 0., 0., 0., 0., 0., 0., 0., 0., 0., 0., 0., 0.,
          0., 0., 0., 2.53807101e-003, 0., 2.53807101e-003, 0., 0.,
          2.53807101e-003, 0., 0., 2.53807101e-003, 0., 0., 0., 0.,
          5.07614203e-003, 0., 5.07614203e-003, 5.07614203e-003,
          5.07614203e-003, 0., 0., 0., 0., 0., 0., 0., 0., 0., 0., 0.,
          0., 0., 0., 2.53807101e-003, 0., 0., 0., 0., 2.53807101e-003,
          5.07614203e-003, 0., 0., 0., 2.53807101e-003, 2.53807101e-003,
          2.53807101e-003, 0., 0., 2.53807101e-003, 0., 0.,
          2.53807101e-003, 0., 0., 0., 0., 5.07614203e-003, 0.,
          2.53807101e-003, 2.53807101e-003, 0., 0., 5.07614203e-003,
          2.53807101e-003, 0., 0., 0., 0., 0., 0., 2.53807101e-003,
          2.53807101e-003, 0., 0., 0., 0., 0., 2.53807101e-003, 0.,
          2.53807101e-003, 0., 2.53807101e-003, 0., 0., 5.07614203e-003,
          2.53807101e-003, 0., 0., 5.07614203e-003, 2.53807101e-003, 0.,
          0., 0., 0., 0., 2.53807101e-003, 5.07614203e-003,
          2.53807101e-003, 0., 0., 0., 0., 0., 0., 0., 0.,
          2.53807101e-003, 7.61421304e-003, 0., 0., 0., 2.53807101e-003,
          2.53807101e-003, 0., 0., 2.53807101e-003, 0., 2.53807101e-003,
          0., 7.61421304e-003, 0., 0., 2.53807101e-003, 0.,
          7.61421304e-003, 2.53807101e-003, 0., 0., 0., 0., 0., 0.,
          2.53807101e-003, 0., 1.77664980e-002, 0., 0., 0.,
          7.61421304e-003, 5.07614203e-003, 7.61421304e-003,
          7.61421304e-003, 0., 0., 0., 0., 0., 5.07614203e-003,
          2.53807101e-003, 0., 0., 0., 0., 0., 0., 2.53807101e-003, 0.,
          0., 0., 0., 0., 0., 2.53807101e-003, 0., 0., 0.,
          2.53807101e-003, 0., 0., 0., 0., 0., 0., 0., 0., 0., 0., 0.,
          0., 0., 0., 0., 2.53807101e-003, 0., 0., 0., 2.53807101e-003,
          0., 2.53807101e-003, 0., 2.53807101e-003, 0., 0., 0.,
          7.61421304e-003, 5.07614203e-003, 2.53807101e-003, 0.,
          2.53807101e-003, 0., 0., 0., 2.53807101e-003, 0.,
          2.53807101e-003, 0., 5.07614203e-003, 0., 2.53807101e-003, 0.,
          2.53807101e-003, 0., 0., 0., 0., 0., 0., 0., 0., 0.,
          2.53807101e-003, 0., 5.07614203e-003, 0., 0., 0., 0.,
          2.53807101e-003, 0., 0., 0., 2.53807101e-003, 2.53807101e-003,
          0., 0., 0., 5.07614203e-003, 0., 0., 0., 0., 2.53807101e-003,
          0., 0., 0., 0., 0., 0., 0., 0., 5.07614203e-003,
          2.53807101e-003, 0., 0., 0., 0., 2.53807101e-003, 0.,
          2.53807101e-003, 2.53807101e-003, 2.53807101e-003, 0., 0., 0.,
          0., 0., 0., 0., 0., 0., 0., 5.07614203e-003, 5.07614203e-003,
          0., 0., 2.53807101e-003, 5.07614203e-003, 0., 2.53807101e-003,
          2.53807101e-003, 7.61421304e-003, 0., 2.53807101e-003, 0.,
          2.53807101e-003, 0., 1.01522841e-002, 0., 0., 0. ]
      - [ 0., 0., 0., 0., 0., 0., 0., 0., 0., 0., 0., 0., 0., 0., 0., 0.,
          0., 0., 0., 0., 0., 0., 0., 0., 0., 0., 0., 0., 0., 0.,
          4.23728814e-003, 0., 0., 0., 0., 0., 0., 0., 0., 0., 0., 0.,
          0., 4.23728814e-003, 0., 0., 0., 0., 0., 4.23728814e-003, 0.,
          0., 0., 4.23728814e-003, 4.23728814e-003, 8.47457629e-003,
          8.47457629e-003, 0., 0., 0., 0., 4.23728814e-003, 0., 0., 0.,
          0., 0., 0., 4.23728814e-003, 0., 0., 0., 4.23728814e-003, 0.,
          4.23728814e-003, 0., 0., 0., 0., 0., 0., 0., 4.23728814e-003,
          0., 0., 0., 0., 0., 8.47457629e-003, 0., 4.23728814e-003, 0.,
          8.47457629e-003, 0., 0., 0., 0., 0., 0., 1.27118640e-002, 0.,
          0., 0., 0., 8.47457629e-003, 0., 0., 0., 0., 0., 0., 0., 0.,
          8.47457629e-003, 0., 0., 0., 0., 0., 0., 4.23728814e-003,
          4.23728814e-003, 0., 0., 0., 0., 0., 0., 0., 0., 0., 0., 0.,
          0., 4.23728814e-003, 0., 0., 0., 0., 0., 0., 0.,
          8.47457629e-003, 0., 0., 0., 8.47457629e-003, 0.,
          8.47457629e-003, 0., 0., 0., 4.23728814e-003, 0., 0.,
          4.23728814e-003, 4.23728814e-003, 0., 4.23728814e-003, 0., 0.,
          0., 0., 4.23728814e-003, 0., 0., 8.47457629e-003, 0., 0., 0.,
          0., 0., 0., 4.23728814e-003, 0., 0., 4.23728814e-003, 0., 0.,
          0., 4.23728814e-003, 0., 0., 4.23728814e-003, 4.23728814e-003,
          0., 0., 0., 0., 0., 0., 0., 0., 0., 4.23728814e-003, 0., 0.,
          0., 0., 0., 0., 0., 0., 0., 0., 0., 0., 0., 0., 0., 0., 0., 0.,
          0., 0., 0., 0., 0., 4.23728814e-003, 4.23728814e-003, 0., 0.,
          0., 0., 0., 0., 0., 4.23728814e-003, 4.23728814e-003, 0., 0.,
          0., 0., 0., 0., 8.47457629e-003, 0., 0., 0., 4.23728814e-003,
          0., 0., 0., 0., 0., 4.23728814e-003, 4.23728814e-003, 0., 0.,
          0., 4.23728814e-003, 4.23728814e-003, 0., 0., 0., 0., 0., 0.,
          0., 0., 0., 0., 0., 8.47457629e-003, 0., 0., 0., 0., 0.,
          8.47457629e-003, 0., 0., 0., 0., 0., 0., 0., 0.,
          8.47457629e-003, 0., 0., 0., 0., 4.23728814e-003, 0.,
          4.23728814e-003, 0., 0., 0., 0., 0., 8.47457629e-003, 0., 0.,
          0., 0., 0., 0., 0., 0., 0., 0., 0., 0., 0., 0., 0., 0., 0., 0.,
          0., 4.23728814e-003, 0., 0., 0., 0., 4.23728814e-003, 0., 0.,
          0., 4.23728814e-003, 0., 0., 0., 8.47457629e-003, 0., 0., 0.,
          0., 0., 0., 0., 4.23728814e-003, 0., 0., 0., 0., 0., 0., 0.,
          0., 0., 0., 0., 4.23728814e-003, 0., 0., 0., 0.,
          4.23728814e-003, 0., 0., 0., 0., 0., 0., 0., 4.23728814e-003,
          1.27118640e-002, 0., 0., 0., 0., 0., 0., 4.23728814e-003, 0.,
          0., 0., 0., 0., 0., 0., 0., 1.27118640e-002, 0., 0., 0., 0.,
          4.23728814e-003, 0., 8.47457629e-003, 0., 0., 4.23728814e-003,
          0., 0., 4.23728814e-003, 0., 0., 0., 0., 0., 0., 0., 0., 0.,
          0., 0., 0., 0., 0., 0., 0., 0., 0., 0., 0., 0., 0., 0., 0., 0.,
          0., 0., 4.23728814e-003, 0., 0., 0., 0., 0., 4.23728814e-003,
          0., 0., 0., 4.23728814e-003, 0., 0., 0., 4.23728814e-003, 0.,
          4.23728814e-003, 0., 4.23728814e-003, 0., 0., 0., 0.,
          4.23728814e-003, 0., 0., 4.23728814e-003, 0., 4.23728814e-003,
          0., 0., 0., 0., 0., 8.47457629e-003, 0., 4.23728814e-003, 0.,
          0., 0., 0., 0., 0., 8.47457629e-003, 4.23728814e-003, 0., 0.,
          8.47457629e-003, 0., 0., 0., 1.27118640e-002, 0.,
          4.23728814e-003, 0., 0., 1.27118640e-002, 0., 1.27118640e-002,
          0., 0., 0., 4.23728814e-003, 0., 0., 0., 0., 0.,
          4.23728814e-003, 0., 4.23728814e-003, 0., 8.47457629e-003, 0.,
          0., 0., 0., 4.23728814e-003, 4.23728814e-003, 4.23728814e-003,
          0., 0., 0., 0., 4.23728814e-003, 0., 0., 0., 0., 0., 0., 0.,
          0., 0., 0., 8.47457629e-003, 4.23728814e-003, 0., 0., 0., 0.,
          4.23728814e-003, 0., 0., 0., 0., 4.23728814e-003,
          4.23728814e-003, 0., 4.23728814e-003, 0., 0., 4.23728814e-003,
          0., 0., 0., 0., 4.23728814e-003, 4.23728814e-003, 0., 0.,
          4.23728814e-003, 0., 0., 0., 0., 0., 0., 0., 4.23728814e-003,
          0., 0., 0., 0., 0., 0., 0., 4.23728814e-003, 0., 0., 0., 0.,
          0., 0., 0., 0., 0., 0., 0., 4.23728814e-003, 0., 0., 0., 0.,
          0., 0., 0., 0., 0., 0., 0., 0., 0., 0., 0., 0., 0., 0., 0., 0.,
          0., 0., 0., 0., 0., 0., 0., 0., 0., 4.23728814e-003, 0., 0.,
          0., 0., 0., 0., 0., 0., 0., 4.23728814e-003, 0., 0., 0., 0.,
          4.23728814e-003, 0., 0., 4.23728814e-003, 0., 0., 0., 0., 0.,
          0., 0., 0., 0., 0., 4.23728814e-003, 0., 0., 0., 0., 0., 0.,
          0., 0., 0., 0., 0., 0., 0., 4.23728814e-003, 0., 0., 0., 0.,
          0., 0., 0., 0., 0., 0., 0., 0., 0., 4.23728814e-003, 0., 0.,
          0., 0., 0., 0., 0., 0., 0., 4.23728814e-003, 4.23728814e-003,
          0., 0., 0., 0., 0., 4.23728814e-003, 0., 0., 4.23728814e-003,
          0., 0., 0., 0., 4.23728814e-003, 0., 0., 0., 0., 0., 0., 0.,
          0., 0., 0., 1.69491526e-002, 4.23728814e-003, 0., 0., 0., 0.,
          0., 0., 0., 0., 0., 4.23728814e-003, 0., 0., 0.,
          4.23728814e-003, 0., 0., 0., 0., 0., 0., 0., 0., 0., 0., 0.,
          0., 0., 4.23728814e-003, 0., 0., 4.23728814e-003, 0., 0., 0.,
          0., 4.23728814e-003, 0., 8.47457629e-003, 0., 0., 0., 0.,
          4.23728814e-003, 0., 0., 0., 0., 0., 0., 0., 0., 0.,
          4.23728814e-003, 0., 4.23728814e-003, 0., 0., 0., 0., 0., 0.,
          0., 0., 0., 0., 0., 0., 0., 0., 8.47457629e-003, 0., 0., 0.,
          0., 0., 1.27118640e-002, 0., 0., 0., 4.23728814e-003,
          8.47457629e-003, 0., 0., 0., 0., 4.23728814e-003, 0., 0., 0.,
          0., 0., 4.23728814e-003, 0., 0., 0., 0., 0., 0., 0.,
          8.47457629e-003, 0., 0., 4.23728814e-003, 0., 0.,
          4.23728814e-003, 0., 8.47457629e-003, 0., 1.27118640e-002, 0.,
          8.47457629e-003, 0., 0., 0., 0., 0., 0., 0., 0., 0.,
          1.27118640e-002, 0., 0., 0., 4.23728814e-003, 4.23728814e-003,
          0., 4.23728814e-003, 0., 8.47457629e-003, 0., 4.23728814e-003,
          0., 0., 0., 4.23728814e-003, 0., 0., 0., 4.23728814e-003, 0.,
          4.23728814e-003, 0., 0., 1.27118640e-002, 0., 0., 0., 0.,
          4.23728814e-003, 0., 0., 0., 0., 0., 0., 0., 0.,
          4.23728814e-003, 0., 0., 0., 0., 0., 0., 0., 0.,
          4.23728814e-003, 0., 0., 0., 4.23728814e-003, 0., 0., 0., 0.,
          0., 0., 0., 0., 0., 0., 0., 0., 0., 8.47457629e-003,
          4.23728814e-003, 0., 0., 0., 0., 0., 0., 8.47457629e-003, 0.,
          0., 0., 0., 0., 0., 0., 0., 0., 8.47457629e-003, 0.,
          4.23728814e-003, 4.23728814e-003, 0., 0., 0., 4.23728814e-003,
          0., 0., 4.23728814e-003, 4.23728814e-003, 0., 4.23728814e-003,
          0., 0., 0., 0., 0., 0., 0., 4.23728814e-003, 0., 0., 0., 0.,
          0., 0., 0., 0., 0., 0., 0., 4.23728814e-003, 0., 0., 0.,
          1.27118640e-002, 0., 0., 0., 0., 0., 0., 0., 0., 0., 0., 0.,
          0., 0., 0., 0., 0., 0., 0., 0., 0., 0., 0., 0.,
          8.47457629e-003, 0., 0., 0., 0., 4.23728814e-003, 0., 0., 0.,
          0., 0., 0., 8.47457629e-003, 0., 0., 0., 4.23728814e-003, 0.,
          0., 0., 0., 0., 0., 4.23728814e-003, 0., 0., 0., 0., 0., 0.,
          0., 0., 0., 0., 1.69491526e-002, 0., 0., 0., 0., 0., 0., 0.,
          0., 0., 0., 0. ]
      - [ 0., 0., 0., 6.34920644e-003, 0., 0., 3.17460322e-003,
          2.53968257e-002, 0., 0., 0., 0., 0., 0., 0., 0., 0., 0., 0.,
          0., 0., 0., 0., 0., 3.17460322e-003, 0., 0., 0.,
          3.17460322e-003, 0., 3.17460322e-003, 0., 3.17460322e-003, 0.,
          0., 0., 3.17460322e-003, 0., 0., 3.17460322e-003,
          3.17460322e-003, 0., 0., 3.17460322e-003, 0., 0., 0., 0., 0.,
          6.34920644e-003, 0., 0., 0., 3.17460322e-003, 0.,
          3.17460322e-003, 0., 0., 0., 0., 0., 0., 0., 0., 0., 0., 0.,
          0., 0., 0., 0., 3.17460322e-003, 3.17460322e-003,
          3.17460322e-003, 3.17460322e-003, 3.17460322e-003,
          3.17460322e-003, 0., 0., 0., 0., 0., 6.34920644e-003, 0., 0.,
          0., 0., 0., 6.34920644e-003, 0., 0., 0., 1.26984129e-002, 0.,
          3.17460322e-003, 0., 0., 0., 0., 3.17460322e-003, 0., 0., 0.,
          0., 0., 0., 0., 0., 0., 0., 0., 0., 3.17460322e-003, 0., 0.,
          0., 0., 0., 0., 0., 0., 0., 6.34920644e-003, 0., 0., 0., 0.,
          0., 0., 0., 0., 0., 6.34920644e-003, 3.17460322e-003,
          3.17460322e-003, 0., 0., 0., 0., 0., 0., 0., 0., 0., 0., 0.,
          0., 0., 0., 0., 0., 0., 0., 1.58730168e-002, 0., 0., 0., 0.,
          0., 0., 0., 0., 0., 0., 0., 0., 3.17460322e-003, 0., 0., 0.,
          0., 0., 3.17460322e-003, 3.17460322e-003, 0., 3.17460322e-003,
          6.34920644e-003, 0., 0., 0., 0., 0., 0., 6.34920644e-003, 0.,
          3.17460322e-003, 0., 0., 0., 0., 0., 0., 0., 0.,
          3.17460322e-003, 0., 1.26984129e-002, 3.17460322e-003, 0., 0.,
          0., 0., 0., 3.17460322e-003, 0., 0., 0., 0., 0., 0., 0., 0.,
          0., 0., 0., 3.17460322e-003, 6.34920644e-003, 0.,
          3.17460322e-003, 0., 3.17460322e-003, 0., 0., 0., 0., 0., 0.,
          0., 0., 9.52380989e-003, 0., 0., 3.17460322e-003, 0.,
          3.17460322e-003, 6.34920644e-003, 0., 0., 0., 3.17460322e-003,
          0., 0., 0., 0., 3.17460322e-003, 0., 0., 0., 0., 0.,
          3.17460322e-003, 6.34920644e-003, 0., 0., 0., 0., 0., 0., 0.,
          0., 6.34920644e-003, 0., 0., 0., 0., 0., 0., 0., 0.,
          6.34920644e-003, 0., 0., 0., 0., 0., 0., 0., 0.,
          3.17460322e-003, 3.17460322e-003, 0., 0., 0., 0.,
          6.34920644e-003, 3.17460322e-003, 0., 0., 0., 0., 0.,
          6.34920644e-003, 0., 0., 0., 0., 3.17460322e-003, 0., 0.,
          3.17460322e-003, 3.17460322e-003, 0., 0., 0., 0., 0., 0., 0.,
          0., 0., 0., 0., 0., 1.26984129e-002, 3.17460322e-003, 0.,
          3.17460322e-003, 0., 0., 0., 0., 0., 0., 0., 6.34920644e-003,
          0., 0., 0., 3.17460322e-003, 0., 0., 3.17460322e-003,
          3.17460322e-003, 0., 0., 0., 0., 0., 0., 3.17460322e-003, 0.,
          0., 0., 0., 0., 0., 0., 0., 0., 3.17460322e-003, 0., 0., 0.,
          6.34920644e-003, 0., 0., 0., 3.17460322e-003, 3.17460322e-003,
          0., 0., 0., 0., 0., 0., 3.17460322e-003, 0., 0., 0., 0., 0.,
          0., 3.17460322e-003, 0., 3.17460322e-003, 0., 0., 0., 0.,
          3.17460322e-003, 0., 6.34920644e-003, 6.34920644e-003, 0., 0.,
          0., 0., 6.34920644e-003, 0., 0., 0., 0., 0., 0., 0., 0., 0.,
          0., 0., 0., 0., 0., 0., 0., 0., 0., 0., 0., 0., 0., 0., 0., 0.,
          0., 0., 0., 0., 0., 0., 0., 0., 0., 0., 3.17460322e-003, 0.,
          3.17460322e-003, 0., 3.17460322e-003, 0., 0., 3.17460322e-003,
          0., 0., 0., 6.34920644e-003, 0., 0., 0., 3.17460322e-003, 0.,
          3.17460322e-003, 3.17460322e-003, 0., 0., 0., 3.17460322e-003,
          0., 0., 0., 0., 0., 0., 3.17460322e-003, 3.17460322e-003, 0.,
          0., 0., 0., 3.17460322e-003, 0., 0., 0., 6.34920644e-003, 0.,
          0., 0., 1.26984129e-002, 0., 3.17460322e-003, 0., 0.,
          3.17460322e-003, 0., 6.34920644e-003, 0., 0., 3.17460322e-003,
          3.17460322e-003, 3.17460322e-003, 0., 0., 0., 0., 0., 0., 0.,
          0., 3.17460322e-003, 3.17460322e-003, 0., 3.17460322e-003, 0.,
          0., 3.17460322e-003, 0., 0., 0., 6.34920644e-003, 0.,
          3.17460322e-003, 0., 0., 0., 0., 0., 0., 0., 0., 0., 0.,
          9.52380989e-003, 3.17460322e-003, 0., 0., 0., 0.,
          3.17460322e-003, 0., 0., 3.17460322e-003, 0., 6.34920644e-003,
          0., 0., 3.17460322e-003, 0., 0., 0., 0., 0., 0., 0.,
          6.34920644e-003, 3.17460322e-003, 0., 3.17460322e-003,
          6.34920644e-003, 0., 0., 0., 0., 0., 0., 0., 3.17460322e-003,
          0., 0., 0., 0., 0., 0., 0., 1.26984129e-002, 0., 0., 0.,
          3.17460322e-003, 0., 0., 0., 0., 0., 0., 0., 0.,
          3.17460322e-003, 0., 6.34920644e-003, 0., 0., 0.,
          1.58730168e-002, 0., 0., 3.17460322e-003, 0., 0.,
          6.34920644e-003, 6.34920644e-003, 0., 0., 0., 0., 0., 0., 0.,
          0., 0., 0., 0., 0., 0., 0., 3.17460322e-003, 0., 0., 0., 0.,
          0., 0., 0., 0., 0., 3.17460322e-003, 9.52380989e-003, 0.,
          3.17460322e-003, 3.17460322e-003, 3.17460322e-003, 0., 0., 0.,
          3.17460322e-003, 0., 0., 3.17460322e-003, 0., 0., 0., 0., 0.,
          0., 0., 3.17460322e-003, 0., 0., 0., 0., 0., 0.,
          3.17460322e-003, 0., 0., 0., 0., 0., 0., 3.17460322e-003, 0.,
          0., 0., 0., 0., 0., 0., 0., 0., 0., 0., 0., 0.,
          3.17460322e-003, 0., 3.17460322e-003, 0., 0., 0., 0., 0., 0.,
          0., 3.17460322e-003, 3.17460322e-003, 0., 0., 0., 0.,
          3.17460322e-003, 3.17460322e-003, 0., 3.17460322e-003, 0.,
          6.34920644e-003, 0., 0., 0., 9.52380989e-003, 0., 0., 0., 0.,
          0., 0., 0., 0., 0., 0., 3.17460322e-003, 0., 3.17460322e-003,
          0., 0., 0., 0., 0., 0., 0., 0., 3.17460322e-003, 0., 0., 0.,
          3.17460322e-003, 0., 0., 0., 0., 0., 3.17460322e-003, 0., 0.,
          6.34920644e-003, 0., 0., 0., 0., 0., 0., 0., 3.17460322e-003,
          0., 0., 0., 0., 0., 0., 6.34920644e-003, 0., 9.52380989e-003,
          0., 0., 6.34920644e-003, 0., 0., 0., 0., 0., 0., 0., 0., 0.,
          3.17460322e-003, 0., 0., 0., 6.34920644e-003, 0.,
          3.17460322e-003, 0., 3.17460322e-003, 0., 0., 0., 0., 0., 0.,
          0., 0., 9.52380989e-003, 0., 0., 0., 0., 0., 3.17460322e-003,
          0., 0., 0., 6.34920644e-003, 3.17460322e-003, 0., 0., 0., 0.,
          0., 0., 0., 0., 0., 3.17460322e-003, 0., 0., 0., 0.,
          3.17460322e-003, 0., 0., 0., 6.34920644e-003, 0.,
          3.17460322e-003, 0., 0., 0., 3.17460322e-003, 0.,
          6.34920644e-003, 0., 3.17460322e-003, 0., 6.34920644e-003,
          3.17460322e-003, 6.34920644e-003, 0., 0., 0., 0., 0., 0., 0.,
          3.17460322e-003, 0., 0., 0., 0., 3.17460322e-003, 0., 0., 0.,
          6.34920644e-003, 0., 3.17460322e-003, 0., 0., 0.,
          3.17460322e-003, 0., 0., 0., 0., 0., 0., 0., 0.,
          6.34920644e-003, 0., 0., 0., 0., 6.34920644e-003, 0.,
          6.34920644e-003, 3.17460322e-003, 0., 2.22222228e-002, 0., 0.,
          0., 0., 0., 3.17460322e-003, 0., 0., 0., 0., 0., 0.,
          3.17460322e-003, 3.17460322e-003, 0., 0., 3.17460322e-003, 0.,
          0., 0., 0., 0., 0., 0., 0., 0., 0., 0., 0., 0.,
          3.17460322e-003, 3.17460322e-003, 0., 0., 0., 0., 0., 0., 0.,
          0., 0., 0., 3.17460322e-003, 0., 0., 0., 0., 3.17460322e-003,
          6.34920644e-003, 0., 3.17460322e-003, 6.34920644e-003, 0., 0.,
          0., 0., 0., 0., 0., 0., 0., 6.34920644e-003, 0., 0., 0., 0.,
          0., 0., 0., 0., 0., 0., 0., 3.17460322e-003, 0., 0., 0., 0.,
          0., 0., 0., 3.17460322e-003, 0., 6.34920644e-003, 0.,
          3.17460322e-003, 0., 0., 0., 0., 0., 0., 0., 0., 0., 0., 0.,
          0., 0., 0., 0., 0., 0., 0., 0., 0., 3.17460322e-003, 0.,
          3.17460322e-003, 3.17460322e-003, 0., 0., 0., 3.17460322e-003,
          3.17460322e-003, 0., 0., 0., 0., 3.17460322e-003, 0., 0., 0.,
          0., 0., 6.34920644e-003, 3.17460322e-003, 0., 0., 0., 0., 0.,
          0., 0., 0., 0., 0., 3.17460322e-003, 3.17460322e-003,
          3.17460322e-003, 0., 0., 0., 0., 0., 0., 9.52380989e-003, 0.,
          0., 0., 0., 6.34920644e-003, 0., 0., 0. ]
      - [ 0., 0., 7.60456268e-003, 3.80228134e-003, 3.80228134e-003, 0.,
          1.14068445e-002, 0., 0., 0., 0., 0., 0., 0., 0.,
          3.80228134e-003, 0., 0., 0., 0., 0., 0., 0., 0., 0., 0., 0.,
          0., 0., 0., 3.80228134e-003, 0., 0., 0., 0., 0., 0.,
          3.80228134e-003, 0., 3.80228134e-003, 3.80228134e-003, 0.,
          3.80228134e-003, 0., 0., 0., 0., 0., 0., 7.60456268e-003, 0.,
          0., 0., 7.60456268e-003, 0., 7.60456268e-003, 0., 0., 0., 0.,
          0., 0., 0., 0., 1.14068445e-002, 0., 3.80228134e-003, 0.,
          7.60456268e-003, 0., 3.80228134e-003, 0., 3.80228134e-003,
          3.80228134e-003, 0., 0., 3.80228134e-003, 0., 0., 0., 0., 0.,
          0., 0., 0., 3.80228134e-003, 0., 0., 7.60456268e-003, 0., 0.,
          0., 0., 0., 3.80228134e-003, 0., 0., 0., 3.80228134e-003,
          3.80228134e-003, 0., 0., 0., 0., 0., 0., 0., 0., 0., 0., 0.,
          0., 0., 0., 0., 0., 0., 0., 0., 0., 3.80228134e-003,
          3.80228134e-003, 0., 0., 0., 0., 0., 0., 0., 0., 0., 0., 0.,
          0., 0., 3.80228134e-003, 0., 0., 3.80228134e-003,
          3.80228134e-003, 0., 0., 3.80228134e-003, 3.80228134e-003,
          3.80228134e-003, 0., 7.60456268e-003, 0., 3.80228134e-003,
          3.80228134e-003, 0., 0., 0., 0., 0., 0., 0., 3.80228134e-003,
          0., 0., 0., 0., 3.80228134e-003, 0., 0., 0., 3.80228134e-003,
          0., 0., 0., 0., 0., 3.80228134e-003, 0., 0., 0.,
          7.60456268e-003, 0., 0., 0., 0., 0., 3.80228134e-003,
          7.60456268e-003, 0., 0., 0., 0., 0., 3.80228134e-003, 0., 0.,
          0., 0., 3.80228134e-003, 0., 0., 0., 0., 0., 0., 0., 0., 0.,
          0., 0., 0., 0., 0., 0., 0., 0., 0., 0., 0., 3.80228134e-003,
          3.80228134e-003, 3.80228134e-003, 0., 0., 0., 0., 0., 0., 0.,
          0., 0., 0., 0., 3.80228134e-003, 0., 0., 0., 0.,
          7.60456268e-003, 3.80228134e-003, 0., 0., 0., 0., 0., 0., 0.,
          0., 0., 0., 0., 0., 0., 0., 3.80228134e-003, 3.80228134e-003,
          0., 0., 0., 0., 0., 3.80228134e-003, 0., 3.80228134e-003,
          1.14068445e-002, 0., 0., 0., 0., 0., 0., 0., 0., 0., 0., 0.,
          0., 0., 0., 0., 0., 0., 3.80228134e-003, 7.60456268e-003, 0.,
          0., 0., 0., 0., 3.80228134e-003, 0., 0., 0., 0., 0.,
          3.80228134e-003, 0., 0., 3.80228134e-003, 0., 0., 0., 0., 0.,
          3.80228134e-003, 0., 0., 0., 0., 0., 0., 0., 0., 0., 0.,
          3.80228134e-003, 0., 7.60456268e-003, 7.60456268e-003, 0., 0.,
          0., 0., 0., 0., 0., 0., 0., 7.60456268e-003, 0., 0., 0.,
          7.60456268e-003, 0., 0., 0., 0., 0., 0., 0., 0., 0., 0., 0.,
          0., 0., 0., 0., 0., 0., 0., 0., 0., 3.80228134e-003, 0., 0.,
          0., 3.80228134e-003, 0., 0., 0., 3.80228134e-003, 0., 0., 0.,
          3.80228134e-003, 0., 0., 0., 3.80228134e-003, 0., 0., 0., 0.,
          0., 0., 3.80228134e-003, 0., 0., 0., 0., 0., 0.,
          3.80228134e-003, 0., 7.60456268e-003, 0., 0., 3.80228134e-003,
          0., 0., 7.60456268e-003, 0., 0., 0., 0., 0., 0., 0., 0., 0.,
          3.80228134e-003, 0., 0., 0., 0., 0., 0., 3.80228134e-003, 0.,
          0., 0., 0., 0., 0., 0., 0., 0., 0., 3.80228134e-003, 0., 0.,
          0., 0., 0., 0., 0., 0., 0., 0., 0., 0., 0., 0.,
          3.80228134e-003, 3.80228134e-003, 0., 0., 3.80228134e-003, 0.,
          0., 0., 7.60456268e-003, 0., 3.80228134e-003, 3.80228134e-003,
          3.80228134e-003, 0., 0., 0., 0., 0., 0., 3.80228134e-003, 0.,
          0., 3.80228134e-003, 0., 0., 0., 0., 0., 7.60456268e-003,
          3.80228134e-003, 0., 0., 3.80228134e-003, 0., 0., 0., 0., 0.,
          3.80228134e-003, 0., 0., 3.80228134e-003, 0., 7.60456268e-003,
          0., 0., 3.80228134e-003, 3.80228134e-003, 0., 0., 0., 0., 0.,
          0., 0., 0., 0., 0., 0., 0., 3.80228134e-003, 0., 0.,
          3.80228134e-003, 3.80228134e-003, 0., 0., 3.80228134e-003, 0.,
          3.80228134e-003, 7.60456268e-003, 0., 0., 0., 0., 0., 0., 0.,
          0., 0., 3.80228134e-003, 0., 0., 3.80228134e-003, 0., 0.,
          3.80228134e-003, 0., 0., 3.80228134e-003, 0., 3.80228134e-003,
          7.60456268e-003, 0., 3.80228134e-003, 0., 0., 0., 0., 0., 0.,
          0., 0., 0., 0., 0., 3.80228134e-003, 0., 3.80228134e-003, 0.,
          0., 0., 0., 0., 0., 0., 0., 0., 0., 0., 0., 0.,
          3.80228134e-003, 0., 0., 0., 0., 0., 3.80228134e-003, 0.,
          7.60456268e-003, 0., 0., 0., 0., 0., 0., 3.80228134e-003, 0.,
          3.80228134e-003, 0., 0., 0., 0., 3.80228134e-003,
          3.80228134e-003, 0., 7.60456268e-003, 7.60456268e-003, 0., 0.,
          0., 0., 0., 0., 0., 0., 0., 0., 0., 0., 0., 0.,
          3.80228134e-003, 0., 0., 0., 0., 0., 0., 0., 7.60456268e-003,
          0., 3.80228134e-003, 3.80228134e-003, 0., 3.80228134e-003,
          7.60456268e-003, 3.80228134e-003, 0., 0., 0., 0., 0., 0., 0.,
          0., 0., 0., 0., 3.80228134e-003, 0., 0., 3.80228134e-003, 0.,
          0., 0., 0., 0., 0., 0., 0., 3.80228134e-003, 0., 0., 0., 0.,
          0., 0., 0., 0., 0., 0., 0., 0., 0., 0., 0., 3.80228134e-003,
          0., 0., 7.60456268e-003, 0., 3.80228134e-003, 0., 0., 0., 0.,
          0., 0., 0., 3.80228134e-003, 3.80228134e-003, 3.80228134e-003,
          0., 0., 0., 0., 3.80228134e-003, 0., 0., 0., 3.80228134e-003,
          0., 0., 0., 3.80228134e-003, 0., 0., 0., 0., 0., 0., 0.,
          3.80228134e-003, 0., 0., 3.80228134e-003, 1.14068445e-002,
          3.80228134e-003, 0., 0., 0., 0., 0., 0., 0., 0., 0., 0., 0.,
          0., 3.80228134e-003, 0., 0., 0., 0., 0., 0., 0., 0.,
          3.80228134e-003, 0., 0., 3.80228134e-003, 0., 1.14068445e-002,
          3.80228134e-003, 0., 3.80228134e-003, 0., 0., 0., 0., 0., 0.,
          7.60456268e-003, 0., 3.80228134e-003, 0., 0., 0., 0., 0., 0.,
          0., 0., 0., 0., 0., 0., 7.60456268e-003, 0., 0., 0.,
          3.80228134e-003, 0., 3.80228134e-003, 0., 3.80228134e-003, 0.,
          0., 0., 0., 0., 0., 0., 0., 1.14068445e-002, 0., 0., 0., 0.,
          0., 3.80228134e-003, 0., 0., 0., 7.60456268e-003, 0., 0., 0.,
          0., 0., 0., 0., 0., 0., 0., 0., 0., 0., 0., 0., 0., 0.,
          3.80228134e-003, 7.60456268e-003, 7.60456268e-003, 0., 0., 0.,
          0., 0., 3.80228134e-003, 0., 3.80228134e-003, 0.,
          1.52091254e-002, 0., 0., 0., 7.60456268e-003, 0., 0., 0., 0.,
          0., 0., 0., 7.60456268e-003, 0., 0., 0., 0., 0., 0., 0., 0.,
          7.60456268e-003, 0., 3.80228134e-003, 0., 0., 0., 0., 0., 0.,
          0., 0., 0., 0., 3.80228134e-003, 0., 3.80228134e-003, 0., 0.,
          0., 0., 3.80228134e-003, 0., 0., 0., 0., 0., 0., 0., 0.,
          3.80228134e-003, 0., 1.14068445e-002, 0., 0., 0., 0., 0., 0.,
          3.80228134e-003, 0., 0., 0., 3.80228134e-003, 0., 0., 0., 0.,
          0., 0., 0., 0., 0., 0., 0., 0., 0., 7.60456268e-003,
          3.80228134e-003, 0., 0., 0., 0., 0., 0., 0., 0., 0., 0.,
          3.80228134e-003, 0., 0., 3.80228134e-003, 0., 0.,
          3.80228134e-003, 3.80228134e-003, 0., 7.60456268e-003, 0., 0.,
          0., 3.80228134e-003, 0., 0., 3.80228134e-003, 0., 0., 0., 0.,
          0., 0., 0., 0., 0., 0., 0., 0., 0., 0., 0., 0., 0., 0., 0., 0.,
          0., 3.80228134e-003, 7.60456268e-003, 0., 3.80228134e-003, 0.,
          0., 0., 0., 0., 0., 0., 0., 0., 0., 0., 0., 3.80228134e-003,
          0., 0., 0., 3.80228134e-003, 0., 0., 0., 0., 0., 0., 0.,
          3.80228134e-003, 0., 0., 0., 0., 3.80228134e-003,
          7.60456268e-003, 0., 0., 0., 0., 0., 3.80228134e-003,
          3.80228134e-003, 0., 0., 0., 3.80228134e-003, 7.60456268e-003,
          0., 0., 0., 0., 0., 0., 0., 0., 0., 0., 7.60456268e-003, 0.,
          3.80228134e-003, 0., 0., 0., 7.60456268e-003, 3.80228134e-003,
          0., 3.80228134e-003, 0., 0., 3.80228134e-003, 0., 0., 0., 0.,
          0. ]
      - [ 3.05810408e-003, 0., 3.05810408e-003, 3.05810408e-003, 0.,
          3.05810408e-003, 0., 1.83486249e-002, 0., 0., 3.05810408e-003,
          0., 0., 3.05810408e-003, 0., 0., 0., 0., 0., 0., 0., 0., 0.,
          0., 0., 0., 0., 3.05810408e-003, 0., 0., 3.05810408e-003, 0.,
          0., 0., 0., 0., 3.05810408e-003, 0., 0., 6.11620815e-003,
          6.11620815e-003, 0., 3.05810408e-003, 0., 0., 0., 0., 0., 0.,
          3.05810408e-003, 0., 0., 0., 0., 0., 0., 6.11620815e-003, 0.,
          0., 0., 0., 3.05810408e-003, 0., 0., 6.11620815e-003, 0., 0.,
          0., 0., 0., 3.05810408e-003, 0., 0., 0., 0., 0.,
          3.05810408e-003, 0., 3.05810408e-003, 3.05810408e-003, 0., 0.,
          0., 0., 0., 0., 0., 0., 6.11620815e-003, 0., 0., 0., 0., 0.,
          0., 0., 0., 3.05810408e-003, 0., 3.05810408e-003, 0., 0., 0.,
          0., 0., 0., 0., 0., 0., 6.11620815e-003, 0., 0., 0.,
          3.05810408e-003, 0., 0., 0., 0., 0., 0., 0., 3.05810408e-003,
          0., 0., 0., 0., 0., 0., 0., 0., 0., 0., 3.05810408e-003,
          3.05810408e-003, 3.05810408e-003, 0., 6.11620815e-003, 0.,
          3.05810408e-003, 0., 0., 0., 9.17431246e-003, 9.17431246e-003,
          0., 0., 3.05810408e-003, 0., 3.05810408e-003, 0., 0., 0., 0.,
          3.05810408e-003, 0., 0., 3.05810408e-003, 0., 3.05810408e-003,
          3.05810408e-003, 3.05810408e-003, 0., 0., 0., 3.05810408e-003,
          0., 0., 0., 0., 6.11620815e-003, 0., 0., 3.05810408e-003,
          3.05810408e-003, 0., 0., 0., 0., 0., 0., 0., 0., 0., 0.,
          3.05810408e-003, 0., 0., 0., 0., 0., 0., 0., 0., 0., 0.,
          3.05810408e-003, 0., 0., 0., 0., 3.05810408e-003, 0., 0., 0.,
          0., 0., 0., 0., 0., 3.05810408e-003, 0., 0., 0., 0., 0.,
          3.05810408e-003, 0., 3.05810408e-003, 3.05810408e-003, 0.,
          6.11620815e-003, 0., 0., 0., 0., 0., 3.05810408e-003,
          3.05810408e-003, 0., 9.17431246e-003, 0., 0., 3.05810408e-003,
          0., 0., 0., 3.05810408e-003, 0., 0., 0., 0., 0., 0., 0., 0.,
          3.05810408e-003, 0., 9.17431246e-003, 0., 0., 6.11620815e-003,
          6.11620815e-003, 3.05810408e-003, 0., 0., 0., 0., 0.,
          3.05810408e-003, 6.11620815e-003, 1.22324163e-002, 0., 0.,
          3.05810408e-003, 0., 0., 0., 0., 3.05810408e-003,
          3.05810408e-003, 0., 0., 0., 0., 0., 0., 0., 0.,
          3.05810408e-003, 9.17431246e-003, 0., 0., 0., 0.,
          3.05810408e-003, 0., 0., 0., 0., 0., 0., 6.11620815e-003, 0.,
          0., 0., 0., 6.11620815e-003, 0., 0., 0., 3.05810408e-003, 0.,
          0., 0., 6.11620815e-003, 0., 0., 0., 0., 0., 0., 0.,
          3.05810408e-003, 0., 0., 0., 3.05810408e-003, 0.,
          3.05810408e-003, 0., 3.05810408e-003, 0., 6.11620815e-003, 0.,
          0., 0., 3.05810408e-003, 0., 0., 0., 0., 0., 3.05810408e-003,
          0., 0., 0., 0., 0., 0., 0., 0., 0., 0., 3.05810408e-003, 0.,
          0., 0., 0., 3.05810408e-003, 0., 0., 0., 0., 0.,
          3.05810408e-003, 0., 0., 0., 3.05810408e-003, 0., 0., 0.,
          3.05810408e-003, 0., 3.05810408e-003, 3.05810408e-003,
          3.05810408e-003, 0., 0., 0., 0., 0., 0., 0., 3.05810408e-003,
          0., 0., 3.05810408e-003, 0., 0., 0., 3.05810408e-003,
          6.11620815e-003, 0., 3.05810408e-003, 0., 0., 0.,
          3.05810408e-003, 0., 3.05810408e-003, 0., 0., 0., 0., 0., 0.,
          0., 3.05810408e-003, 0., 3.05810408e-003, 0., 0., 0.,
          6.11620815e-003, 3.05810408e-003, 0., 6.11620815e-003, 0., 0.,
          0., 0., 0., 0., 3.05810408e-003, 0., 0., 3.05810408e-003, 0.,
          6.11620815e-003, 0., 3.05810408e-003, 0., 0., 0.,
          3.05810408e-003, 0., 0., 0., 3.05810408e-003, 3.05810408e-003,
          0., 0., 3.05810408e-003, 0., 0., 0., 0., 0., 0., 0.,
          3.05810408e-003, 0., 0., 0., 3.05810408e-003, 3.05810408e-003,
          0., 0., 3.05810408e-003, 0., 0., 0., 3.05810408e-003, 0., 0.,
          0., 0., 0., 0., 0., 0., 0., 3.05810408e-003, 0., 0.,
          6.11620815e-003, 0., 3.05810408e-003, 0., 0., 0., 0.,
          9.17431246e-003, 0., 0., 0., 0., 0., 0., 0., 0., 0., 0., 0.,
          0., 0., 3.05810408e-003, 0., 0., 0., 0., 3.05810408e-003, 0.,
          0., 0., 0., 3.05810408e-003, 0., 3.05810408e-003, 0., 0., 0.,
          0., 0., 3.05810408e-003, 0., 0., 0., 0., 3.05810408e-003,
          6.11620815e-003, 0., 1.22324163e-002, 0., 3.05810408e-003,
          3.05810408e-003, 0., 0., 0., 0., 9.17431246e-003, 0., 0.,
          3.05810408e-003, 0., 0., 0., 0., 0., 0., 0., 0., 0., 0., 0.,
          0., 0., 6.11620815e-003, 0., 0., 0., 0., 0., 0., 0., 0., 0.,
          0., 0., 3.05810408e-003, 0., 0., 0., 3.05810408e-003, 0.,
          3.05810408e-003, 0., 0., 0., 0., 0., 0., 0., 3.05810408e-003,
          0., 0., 0., 0., 0., 0., 9.17431246e-003, 0., 0.,
          6.11620815e-003, 0., 0., 0., 6.11620815e-003, 0., 0., 0., 0.,
          0., 0., 0., 0., 0., 0., 0., 0., 0., 0., 3.05810408e-003, 0.,
          0., 0., 0., 0., 0., 0., 3.05810408e-003, 0., 0., 0., 0., 0.,
          9.17431246e-003, 0., 0., 0., 0., 0., 0., 0., 9.17431246e-003,
          0., 0., 0., 0., 0., 0., 0., 3.05810408e-003, 0.,
          3.05810408e-003, 0., 0., 0., 0., 0., 0., 0., 0.,
          3.05810408e-003, 0., 0., 9.17431246e-003, 0., 0., 0., 0., 0.,
          0., 0., 0., 0., 0., 3.05810408e-003, 0., 0., 0., 0.,
          3.05810408e-003, 0., 0., 0., 0., 0., 0., 0., 0.,
          3.05810408e-003, 0., 3.05810408e-003, 0., 0., 3.05810408e-003,
          0., 0., 3.05810408e-003, 0., 0., 0., 0., 0., 6.11620815e-003,
          0., 0., 0., 0., 0., 0., 0., 0., 0., 0., 3.05810408e-003, 0.,
          3.05810408e-003, 0., 0., 0., 0., 0., 0., 0., 0.,
          3.05810408e-003, 0., 0., 0., 3.05810408e-003, 0., 0., 0., 0.,
          6.11620815e-003, 0., 0., 0., 3.05810408e-003, 0., 0., 0., 0.,
          3.05810408e-003, 0., 6.11620815e-003, 0., 0., 0., 0., 0.,
          3.05810408e-003, 0., 6.11620815e-003, 0., 3.05810408e-003, 0.,
          0., 0., 0., 0., 0., 0., 3.05810408e-003, 0., 0.,
          1.22324163e-002, 0., 3.05810408e-003, 0., 3.05810408e-003, 0.,
          0., 0., 0., 0., 0., 0., 0., 0., 0., 0., 3.05810408e-003, 0.,
          3.05810408e-003, 6.11620815e-003, 0., 0., 0., 0., 0., 0., 0.,
          3.05810408e-003, 0., 9.17431246e-003, 3.05810408e-003, 0., 0.,
          3.05810408e-003, 0., 0., 3.05810408e-003, 0., 0.,
          3.05810408e-003, 0., 3.05810408e-003, 0., 0., 0., 0., 0., 0.,
          0., 0., 0., 0., 0., 0., 0., 3.05810408e-003, 6.11620815e-003,
          6.11620815e-003, 0., 9.17431246e-003, 3.05810408e-003, 0., 0.,
          0., 0., 0., 0., 0., 3.05810408e-003, 0., 0., 0., 0., 0., 0.,
          0., 3.05810408e-003, 0., 0., 0., 6.11620815e-003, 0.,
          3.05810408e-003, 0., 3.05810408e-003, 0., 9.17431246e-003, 0.,
          0., 0., 0., 0., 0., 0., 0., 6.11620815e-003, 0., 0.,
          3.05810408e-003, 0., 3.05810408e-003, 3.05810408e-003, 0., 0.,
          0., 3.05810408e-003, 3.05810408e-003, 0., 0., 0., 0.,
          3.05810408e-003, 0., 0., 0., 0., 0., 0., 0., 3.05810408e-003,
          0., 0., 3.05810408e-003, 0., 0., 0., 0., 0., 0., 0., 0.,
          6.11620815e-003, 0., 0., 0., 0., 0., 3.05810408e-003, 0., 0.,
          0., 0., 0., 0., 0., 0., 0., 0., 0., 0., 3.05810408e-003,
          3.05810408e-003, 0., 3.05810408e-003, 6.11620815e-003, 0., 0.,
          0., 0., 0., 0., 0., 0., 0., 3.05810408e-003, 6.11620815e-003,
          3.05810408e-003, 6.11620815e-003, 0., 0., 0., 0., 0.,
          3.05810408e-003, 0., 0., 0., 0., 3.05810408e-003,
          3.05810408e-003, 0., 6.11620815e-003, 0., 0., 0., 0., 0., 0.,
          0., 0., 0., 3.05810408e-003, 3.05810408e-003, 3.05810408e-003,
          0., 0., 0., 3.05810408e-003, 0., 0., 0., 0., 0., 0., 0.,
          3.05810408e-003, 0., 0., 0., 0., 3.05810408e-003, 0., 0., 0.,
          0., 0., 0., 0., 0., 0., 6.11620815e-003, 0., 3.05810408e-003,
          0., 0., 0., 0., 0., 0., 0., 0., 3.05810408e-003, 0., 0., 0.,
          0., 0., 3.05810408e-003, 3.05810408e-003, 9.17431246e-003, 0.,
          0., 0., 1.22324163e-002, 0., 6.11620815e-003, 3.05810408e-003,
          0., 0., 3.05810408e-003, 0., 9.17431246e-003, 0., 0., 0.,
          6.11620815e-003, 3.05810408e-003, 9.17431246e-003, 0., 0., 0. ]
      - [ 3.26797389e-003, 0., 0., 3.26797389e-003, 0., 0., 0., 0., 0.,
          0., 0., 0., 3.26797389e-003, 6.53594779e-003, 0., 0., 0., 0.,
          0., 0., 0., 0., 0., 0., 0., 0., 0., 3.26797389e-003, 0., 0.,
          0., 0., 0., 0., 0., 0., 3.26797389e-003, 3.26797389e-003, 0.,
          3.26797389e-003, 0., 3.26797389e-003, 3.26797389e-003, 0., 0.,
          0., 0., 0., 0., 6.53594779e-003, 0., 0., 0., 0., 0., 0.,
          6.53594779e-003, 0., 0., 0., 0., 0., 0., 0., 6.53594779e-003,
          0., 3.26797389e-003, 0., 3.26797389e-003, 0., 0., 0., 0., 0.,
          0., 0., 3.26797389e-003, 0., 3.26797389e-003, 0.,
          3.26797389e-003, 0., 0., 3.26797389e-003, 0., 9.80392192e-003,
          0., 0., 3.26797389e-003, 0., 0., 0., 3.26797389e-003, 0., 0.,
          0., 0., 0., 0., 0., 0., 0., 0., 0., 0., 0., 0., 0., 0.,
          6.53594779e-003, 6.53594779e-003, 0., 0., 0., 0., 0., 0., 0.,
          0., 0., 0., 3.26797389e-003, 0., 0., 0., 0., 0., 0., 0., 0.,
          0., 0., 0., 3.26797389e-003, 3.26797389e-003, 3.26797389e-003,
          0., 0., 0., 3.26797389e-003, 0., 0., 0., 0., 0., 0.,
          3.26797389e-003, 0., 0., 0., 0., 0., 0., 0., 0., 0., 0.,
          3.26797389e-003, 0., 0., 3.26797389e-003, 0., 3.26797389e-003,
          0., 3.26797389e-003, 0., 3.26797389e-003, 0., 0., 0., 0., 0.,
          6.53594779e-003, 0., 0., 0., 0., 3.26797389e-003, 0.,
          1.30718956e-002, 3.26797389e-003, 0., 0., 0., 0.,
          3.26797389e-003, 0., 0., 0., 0., 0., 0., 0., 0., 0., 0.,
          6.53594779e-003, 0., 0., 0., 1.63398702e-002, 0., 0., 0.,
          3.26797389e-003, 0., 0., 0., 0., 3.26797389e-003, 0., 0.,
          3.26797389e-003, 0., 0., 3.26797389e-003, 0., 0., 0., 0.,
          3.26797389e-003, 0., 0., 0., 0., 0., 0., 0., 0.,
          3.26797389e-003, 0., 0., 0., 0., 3.26797389e-003,
          3.26797389e-003, 0., 0., 0., 0., 3.26797389e-003, 0., 0., 0.,
          3.26797389e-003, 0., 0., 0., 0., 0., 6.53594779e-003, 0.,
          3.26797389e-003, 3.26797389e-003, 0., 0., 0., 6.53594779e-003,
          1.30718956e-002, 3.26797389e-003, 3.26797389e-003, 0., 0., 0.,
          3.26797389e-003, 3.26797389e-003, 0., 0., 0., 3.26797389e-003,
          0., 0., 3.26797389e-003, 0., 0., 3.26797389e-003, 0., 0.,
          3.26797389e-003, 3.26797389e-003, 0., 0., 0., 3.26797389e-003,
          0., 3.26797389e-003, 0., 0., 0., 3.26797389e-003, 0., 0., 0.,
          0., 3.26797389e-003, 0., 0., 0., 0., 0., 3.26797389e-003, 0.,
          0., 0., 0., 0., 0., 0., 0., 0., 3.26797389e-003, 0., 0.,
          6.53594779e-003, 0., 0., 0., 0., 0., 0., 0., 0., 0., 0.,
          6.53594779e-003, 0., 0., 0., 3.26797389e-003, 0., 0., 0., 0.,
          0., 3.26797389e-003, 0., 0., 0., 0., 9.80392192e-003, 0., 0.,
          0., 6.53594779e-003, 0., 0., 3.26797389e-003, 0., 0., 0.,
          6.53594779e-003, 0., 0., 0., 3.26797389e-003, 0., 0., 0., 0.,
          0., 0., 0., 0., 0., 0., 3.26797389e-003, 0., 0., 0., 0., 0.,
          0., 0., 0., 0., 0., 0., 0., 0., 3.26797389e-003, 0.,
          6.53594779e-003, 0., 0., 0., 0., 3.26797389e-003,
          6.53594779e-003, 0., 0., 0., 0., 3.26797389e-003, 0., 0., 0.,
          0., 0., 0., 0., 0., 0., 0., 0., 0., 0., 0., 0., 0., 0., 0., 0.,
          0., 0., 0., 0., 9.80392192e-003, 0., 3.26797389e-003, 0., 0.,
          3.26797389e-003, 0., 0., 0., 0., 0., 0., 0., 0., 0.,
          6.53594779e-003, 0., 0., 3.26797389e-003, 0., 0., 0.,
          6.53594779e-003, 0., 0., 0., 0., 0., 0., 0., 0., 0., 0., 0.,
          0., 0., 0., 0., 0., 0., 0., 0., 0., 0., 3.26797389e-003,
          3.26797389e-003, 0., 0., 0., 0., 0., 0., 0., 0., 0., 0., 0.,
          6.53594779e-003, 0., 0., 3.26797389e-003, 9.80392192e-003, 0.,
          0., 0., 0., 0., 3.26797389e-003, 0., 0., 0., 0., 0., 0., 0.,
          3.26797389e-003, 0., 3.26797389e-003, 3.26797389e-003,
          6.53594779e-003, 0., 6.53594779e-003, 0., 3.26797389e-003, 0.,
          0., 0., 0., 3.26797389e-003, 0., 0., 0., 0., 6.53594779e-003,
          6.53594779e-003, 0., 0., 1.30718956e-002, 3.26797389e-003, 0.,
          3.26797389e-003, 0., 0., 0., 0., 3.26797389e-003,
          6.53594779e-003, 0., 3.26797389e-003, 3.26797389e-003, 0., 0.,
          3.26797389e-003, 3.26797389e-003, 0., 0., 0., 0., 0.,
          3.26797389e-003, 0., 0., 0., 0., 0., 0., 0., 0., 0., 0., 0.,
          0., 0., 0., 0., 0., 0., 0., 0., 0., 3.26797389e-003, 0., 0.,
          0., 0., 0., 0., 0., 0., 0., 0., 3.26797389e-003, 0., 0., 0.,
          0., 0., 0., 3.26797389e-003, 0., 0., 0., 0., 0., 0.,
          3.26797389e-003, 0., 0., 0., 0., 0., 0., 0., 0.,
          6.53594779e-003, 0., 0., 0., 0., 0., 0., 0., 0., 0., 0., 0.,
          0., 0., 6.53594779e-003, 6.53594779e-003, 3.26797389e-003, 0.,
          0., 0., 0., 0., 0., 0., 6.53594779e-003, 0., 0., 0., 0., 0.,
          0., 3.26797389e-003, 0., 0., 0., 0., 0., 0., 0.,
          3.26797389e-003, 0., 0., 3.26797389e-003, 0., 0., 0., 0.,
          3.26797389e-003, 0., 0., 0., 0., 0., 0., 0., 3.26797389e-003,
          0., 0., 0., 0., 0., 6.53594779e-003, 0., 6.53594779e-003, 0.,
          0., 0., 0., 0., 0., 0., 3.26797389e-003, 0., 0., 0., 0., 0.,
          0., 0., 0., 0., 0., 0., 0., 0., 3.26797389e-003,
          3.26797389e-003, 3.26797389e-003, 0., 0., 0., 0.,
          3.26797389e-003, 3.26797389e-003, 6.53594779e-003, 0., 0., 0.,
          3.26797389e-003, 0., 6.53594779e-003, 0., 0., 6.53594779e-003,
          0., 0., 0., 0., 3.26797389e-003, 0., 0., 0., 0., 0., 0., 0.,
          0., 0., 0., 0., 0., 6.53594779e-003, 0., 3.26797389e-003, 0.,
          0., 6.53594779e-003, 3.26797389e-003, 0., 0., 0., 0., 0., 0.,
          0., 3.26797389e-003, 6.53594779e-003, 6.53594779e-003,
          3.26797389e-003, 3.26797389e-003, 0., 0., 0., 0., 0., 0., 0.,
          0., 0., 0., 0., 0., 0., 0., 0., 3.26797389e-003, 0.,
          3.26797389e-003, 0., 6.53594779e-003, 0., 0., 0., 0.,
          6.53594779e-003, 0., 0., 0., 6.53594779e-003, 0., 0., 0., 0.,
          3.26797389e-003, 3.26797389e-003, 0., 3.26797389e-003, 0., 0.,
          6.53594779e-003, 0., 0., 3.26797389e-003, 0., 0., 0.,
          6.53594779e-003, 3.26797389e-003, 0., 0., 3.26797389e-003, 0.,
          3.26797389e-003, 0., 0., 0., 0., 0., 0., 9.80392192e-003, 0.,
          3.26797389e-003, 0., 0., 3.26797389e-003, 0., 0., 0.,
          3.26797389e-003, 3.26797389e-003, 0., 0., 0., 0., 0., 0.,
          3.26797389e-003, 6.53594779e-003, 0., 0., 9.80392192e-003,
          3.26797389e-003, 0., 0., 6.53594779e-003, 0., 0.,
          6.53594779e-003, 0., 3.26797389e-003, 0., 3.26797389e-003, 0.,
          6.53594779e-003, 0., 0., 0., 0., 0., 0., 0., 0., 0., 0.,
          3.26797389e-003, 0., 0., 0., 3.26797389e-003, 6.53594779e-003,
          0., 0., 0., 3.26797389e-003, 0., 0., 3.26797389e-003, 0., 0.,
          0., 0., 3.26797389e-003, 0., 0., 3.26797389e-003, 0., 0.,
          3.26797389e-003, 0., 3.26797389e-003, 0., 3.26797389e-003, 0.,
          0., 0., 0., 0., 3.26797389e-003, 0., 0., 0., 0., 0.,
          6.53594779e-003, 0., 0., 3.26797389e-003, 3.26797389e-003, 0.,
          0., 0., 0., 0., 0., 0., 0., 0., 3.26797389e-003, 0.,
          3.26797389e-003, 0., 0., 3.26797389e-003, 0., 0.,
          3.26797389e-003, 0., 3.26797389e-003, 0., 0., 0., 0., 0., 0.,
          0., 3.26797389e-003, 3.26797389e-003, 0., 0., 0., 0., 0., 0.,
          0., 3.26797389e-003, 0., 0., 0., 3.26797389e-003, 0., 0., 0.,
          3.26797389e-003, 0., 0., 3.26797389e-003, 3.26797389e-003, 0.,
          3.26797389e-003, 0., 0., 0., 6.53594779e-003, 0., 0., 0., 0.,
          0., 0., 0., 0., 0., 0., 0., 0., 0., 0., 3.26797389e-003, 0.,
          0., 0., 3.26797389e-003, 0., 0., 0., 0., 0., 0., 0.,
          6.53594779e-003, 6.53594779e-003, 0., 6.53594779e-003, 0., 0.,
          6.53594779e-003, 0., 0., 0., 1.30718956e-002, 3.26797389e-003,
          0., 3.26797389e-003, 0., 0., 0., 0., 0., 0., 0., 0., 0.,
          3.26797389e-003, 0., 0., 3.26797389e-003, 0., 0., 0., 0., 0.,
          0., 0., 6.53594779e-003, 0., 0., 0., 0., 3.26797389e-003,
          3.26797389e-003 ]
      - [ 2.96735903e-003, 0., 0., 0., 0., 0., 5.93471806e-003,
          4.45103869e-002, 0., 0., 0., 0., 0., 0., 0., 0., 0., 0., 0.,
          0., 0., 0., 0., 0., 0., 0., 0., 0., 8.90207663e-003, 0.,
          2.96735903e-003, 0., 0., 0., 0., 0., 0., 0., 0.,
          2.96735903e-003, 0., 0., 0., 2.96735903e-003, 0., 0., 0., 0.,
          0., 5.93471806e-003, 0., 0., 2.96735903e-003, 0.,
          5.93471806e-003, 2.96735903e-003, 0., 0., 0., 0., 0.,
          2.96735903e-003, 0., 0., 0., 0., 0., 5.93471806e-003,
          2.96735903e-003, 0., 5.93471806e-003, 0., 0., 0., 0.,
          2.96735903e-003, 0., 0., 0., 0., 0., 0., 8.90207663e-003, 0.,
          0., 0., 0., 0., 5.93471806e-003, 0., 0., 0., 5.93471806e-003,
          0., 5.93471806e-003, 0., 0., 0., 2.96735903e-003,
          2.96735903e-003, 0., 0., 0., 0., 2.96735903e-003, 0., 0., 0.,
          0., 0., 0., 0., 0., 2.96735903e-003, 0., 0., 0., 0., 0., 0.,
          0., 0., 0., 0., 0., 0., 0., 0., 0., 0., 0., 0.,
          5.93471806e-003, 0., 0., 0., 5.93471806e-003, 0., 0., 0., 0.,
          0., 5.93471806e-003, 5.93471806e-003, 0., 0., 1.78041533e-002,
          0., 0., 0., 0., 0., 0., 8.90207663e-003, 5.93471806e-003, 0.,
          2.96735903e-003, 0., 0., 0., 0., 0., 0., 0., 0., 0.,
          2.96735903e-003, 0., 0., 2.96735903e-003, 0., 0.,
          5.93471806e-003, 0., 0., 0., 0., 0., 0., 0., 0., 0., 0.,
          5.93471806e-003, 0., 0., 2.96735903e-003, 0., 8.90207663e-003,
          0., 0., 0., 0., 0., 2.96735903e-003, 0., 8.90207663e-003, 0.,
          0., 0., 0., 0., 0., 0., 0., 0., 0., 0., 0., 0., 0., 0., 0., 0.,
          0., 0., 2.96735903e-003, 0., 2.96735903e-003, 0., 0., 0., 0.,
          0., 0., 0., 2.96735903e-003, 0., 0., 8.90207663e-003, 0., 0.,
          5.93471806e-003, 0., 2.96735903e-003, 0., 2.96735903e-003, 0.,
          0., 0., 0., 2.96735903e-003, 0., 2.96735903e-003, 0., 0.,
          2.96735903e-003, 5.93471806e-003, 0., 0., 2.96735903e-003,
          2.96735903e-003, 2.96735903e-003, 0., 0., 0., 0., 0., 0., 0.,
          1.18694361e-002, 0., 0., 2.96735903e-003, 0., 0., 0., 0.,
          2.96735903e-003, 5.93471806e-003, 0., 0., 0., 0., 0., 0., 0.,
          0., 5.93471806e-003, 2.96735903e-003, 0., 0., 0., 0., 0.,
          2.96735903e-003, 0., 0., 0., 0., 0., 0., 0., 0., 0., 0.,
          2.96735903e-003, 0., 0., 2.96735903e-003, 0., 0., 0., 0., 0.,
          0., 0., 0., 0., 0., 0., 0., 0., 0., 2.96735903e-003, 0., 0.,
          0., 0., 0., 0., 5.93471806e-003, 0., 0., 5.93471806e-003, 0.,
          0., 0., 0., 0., 0., 0., 0., 0., 0., 0., 0., 0., 0., 0., 0., 0.,
          0., 0., 0., 0., 0., 0., 0., 0., 0., 2.96735903e-003, 0., 0.,
          0., 2.96735903e-003, 0., 2.96735903e-003, 5.93471806e-003, 0.,
          0., 0., 0., 0., 2.96735903e-003, 2.96735903e-003, 0., 0., 0.,
          0., 0., 0., 2.96735903e-003, 0., 0., 0., 2.96735903e-003, 0.,
          0., 5.93471806e-003, 0., 5.93471806e-003, 5.93471806e-003, 0.,
          5.93471806e-003, 0., 0., 5.93471806e-003, 0., 0.,
          2.96735903e-003, 0., 0., 0., 0., 0., 0., 0., 0., 0., 0., 0.,
          0., 0., 2.96735903e-003, 0., 0., 0., 0., 0., 0., 0., 0., 0.,
          0., 0., 0., 0., 0., 0., 0., 0., 0., 0., 2.96735903e-003,
          2.96735903e-003, 0., 2.96735903e-003, 0., 2.96735903e-003, 0.,
          5.93471806e-003, 0., 0., 2.96735903e-003, 0., 0., 0.,
          5.93471806e-003, 0., 5.93471806e-003, 0., 0., 0., 0.,
          2.96735903e-003, 0., 0., 0., 0., 0., 0., 0., 2.96735903e-003,
          0., 0., 0., 0., 2.96735903e-003, 0., 0., 0., 5.93471806e-003,
          0., 0., 0., 0., 0., 5.93471806e-003, 2.96735903e-003, 0.,
          5.93471806e-003, 0., 8.90207663e-003, 0., 0., 0.,
          5.93471806e-003, 0., 0., 0., 0., 0., 2.96735903e-003, 0.,
          2.96735903e-003, 0., 0., 0., 2.96735903e-003, 0., 0., 0.,
          2.96735903e-003, 2.96735903e-003, 0., 0., 2.96735903e-003, 0.,
          2.96735903e-003, 0., 0., 0., 0., 0., 2.96735903e-003, 0., 0.,
          0., 0., 5.93471806e-003, 2.96735903e-003, 0., 0., 0., 0.,
          2.96735903e-003, 0., 0., 0., 0., 5.93471806e-003, 0., 0.,
          2.96735903e-003, 0., 0., 0., 0., 0., 0., 2.96735903e-003,
          2.96735903e-003, 2.96735903e-003, 0., 0., 0., 0., 0., 0., 0.,
          0., 0., 0., 0., 0., 0., 0., 0., 0., 0., 0., 5.93471806e-003,
          0., 0., 0., 0., 0., 0., 0., 0., 0., 0., 0., 2.96735903e-003,
          0., 0., 2.96735903e-003, 0., 0., 0., 4.15430255e-002, 0., 0.,
          5.93471806e-003, 0., 0., 2.96735903e-003, 0., 0., 0., 0., 0.,
          0., 0., 0., 2.96735903e-003, 0., 0., 0., 0., 0., 0., 0.,
          2.96735903e-003, 0., 0., 0., 2.96735903e-003, 0., 0.,
          5.93471806e-003, 2.96735903e-003, 0., 0., 0., 0.,
          2.96735903e-003, 0., 5.93471806e-003, 0., 0., 0., 0., 0.,
          3.26409489e-002, 0., 0., 0., 0., 0., 0., 0., 2.96735903e-003,
          0., 0., 2.96735903e-003, 0., 0., 0., 0., 0., 0., 0., 0., 0.,
          0., 0., 0., 0., 2.96735903e-003, 0., 0., 0., 0., 0., 0., 0.,
          0., 0., 2.96735903e-003, 2.96735903e-003, 0., 2.96735903e-003,
          0., 0., 0., 0., 0., 0., 0., 2.96735903e-003, 2.96735903e-003,
          0., 0., 0., 0., 5.93471806e-003, 2.96735903e-003, 0.,
          2.96735903e-003, 2.96735903e-003, 0., 0., 0., 2.96735903e-003,
          2.96735903e-003, 0., 0., 2.96735903e-003, 0., 0., 0., 0.,
          5.93471806e-003, 0., 0., 5.93471806e-003, 2.96735903e-003, 0.,
          0., 0., 0., 0., 0., 2.96735903e-003, 0., 0., 0., 0., 0., 0.,
          2.96735903e-003, 0., 0., 0., 0., 0., 0., 0., 0.,
          2.96735903e-003, 0., 0., 0., 0., 0., 0., 0., 0., 0.,
          2.96735903e-003, 0., 5.93471806e-003, 2.96735903e-003, 0.,
          5.93471806e-003, 0., 0., 0., 0., 2.96735903e-003, 0., 0., 0.,
          0., 2.96735903e-003, 0., 0., 1.18694361e-002, 0.,
          2.96735903e-003, 0., 2.96735903e-003, 0., 2.96735903e-003, 0.,
          0., 0., 0., 0., 2.96735903e-003, 0., 0., 0., 0., 0., 0.,
          2.96735903e-003, 0., 0., 0., 0., 0., 2.96735903e-003, 0., 0.,
          0., 2.96735903e-003, 0., 0., 0., 0., 0., 8.90207663e-003, 0.,
          0., 0., 0., 0., 0., 0., 0., 0., 0., 0., 0., 0.,
          2.96735903e-003, 0., 0., 2.96735903e-003, 0., 0.,
          2.96735903e-003, 0., 5.93471806e-003, 0., 5.93471806e-003, 0.,
          2.96735903e-003, 0., 0., 0., 2.96735903e-003, 0., 0., 0., 0.,
          2.96735903e-003, 2.96735903e-003, 0., 0., 2.96735903e-003,
          2.96735903e-003, 5.93471806e-003, 0., 0., 0., 5.93471806e-003,
          0., 2.96735903e-003, 0., 2.96735903e-003, 0., 5.93471806e-003,
          0., 0., 0., 0., 0., 0., 0., 0., 2.96735903e-003, 0., 0.,
          5.93471806e-003, 2.96735903e-003, 0., 0., 0., 0., 0.,
          2.37388723e-002, 0., 0., 0., 0., 0., 8.90207663e-003, 0., 0.,
          0., 0., 2.96735903e-003, 0., 0., 0., 0., 0., 2.96735903e-003,
          0., 0., 0., 0., 0., 0., 0., 0., 0., 0., 2.96735903e-003, 0.,
          0., 2.96735903e-003, 0., 0., 0., 0., 0., 0., 0.,
          2.96735903e-003, 2.96735903e-003, 0., 2.96735903e-003, 0., 0.,
          0., 0., 0., 0., 0., 0., 0., 0., 0., 0., 0., 0., 0., 0.,
          2.96735903e-003, 0., 0., 2.96735903e-003, 0., 0., 0., 0., 0.,
          0., 0., 2.96735903e-003, 0., 0., 2.96735903e-003,
          2.96735903e-003, 0., 0., 0., 0., 0., 0., 0., 0., 0., 0., 0.,
          2.96735903e-003, 0., 0., 0., 0., 0., 0., 0., 0., 0., 0., 0.,
          0., 0., 0., 0., 0., 0., 0., 0., 0., 0., 0., 0., 0., 0., 0., 0.,
          0., 8.90207663e-003, 0., 0., 0., 0., 0., 5.93471806e-003,
          2.96735903e-003, 0., 0., 0., 5.93471806e-003, 0., 0., 0.,
          2.96735903e-003, 0., 0., 0., 2.96735903e-003, 0., 0., 0.,
          2.96735903e-003, 0., 0., 0., 0., 0., 2.96735903e-003, 0., 0.,
          2.96735903e-003, 0., 0., 0., 0., 5.93471806e-003, 0., 0., 0. ]
      - [ 0., 0., 3.80228134e-003, 3.80228134e-003, 0., 0.,
          3.80228134e-003, 0., 0., 0., 3.80228134e-003, 0., 0., 0., 0.,
          3.80228134e-003, 0., 0., 0., 0., 0., 0., 0., 0., 0., 0., 0.,
          0., 0., 0., 3.80228134e-003, 0., 0., 0., 0., 0., 0., 0., 0.,
          3.80228134e-003, 0., 0., 0., 3.80228134e-003, 0., 0., 0., 0.,
          0., 3.80228134e-003, 0., 0., 0., 7.60456268e-003, 0.,
          1.14068445e-002, 0., 0., 0., 0., 0., 0., 0., 0.,
          3.80228134e-003, 0., 0., 3.80228134e-003, 0., 0.,
          3.80228134e-003, 0., 0., 0., 0., 0., 0., 0., 0., 0., 0., 0.,
          7.60456268e-003, 0., 0., 0., 0., 0., 7.60456268e-003, 0., 0.,
          0., 7.60456268e-003, 0., 3.80228134e-003, 0., 0., 0.,
          7.60456268e-003, 2.28136890e-002, 0., 0., 0., 3.80228134e-003,
          7.60456268e-003, 0., 0., 0., 0., 0., 0., 0., 0., 0., 0., 0.,
          0., 0., 0., 0., 0., 0., 0., 0., 0., 0., 0., 0., 0., 0., 0., 0.,
          0., 0., 0., 3.80228134e-003, 0., 0., 3.80228134e-003, 0., 0.,
          0., 1.14068445e-002, 0., 0., 0., 0., 0., 3.80228134e-003, 0.,
          0., 0., 0., 0., 0., 0., 3.80228134e-003, 0., 3.80228134e-003,
          0., 0., 0., 0., 0., 0., 0., 3.80228134e-003, 0., 0.,
          3.80228134e-003, 0., 0., 3.80228134e-003, 3.80228134e-003, 0.,
          0., 0., 0., 0., 0., 0., 0., 0., 3.80228134e-003, 0., 0., 0.,
          0., 0., 0., 0., 0., 0., 0., 3.80228134e-003, 0.,
          3.80228134e-003, 3.80228134e-003, 0., 0., 0., 0., 0.,
          3.80228134e-003, 3.80228134e-003, 0., 0., 0., 0., 0., 0., 0.,
          0., 0., 0., 7.60456268e-003, 1.14068445e-002, 0.,
          3.80228134e-003, 3.80228134e-003, 0., 0., 0., 0., 0., 0., 0.,
          0., 0., 3.80228134e-003, 0., 0., 0., 0., 3.80228134e-003,
          3.80228134e-003, 0., 0., 0., 0., 0., 0., 0., 0., 0., 0., 0.,
          0., 0., 0., 0., 3.80228134e-003, 0., 0., 0., 0., 0.,
          3.80228134e-003, 3.80228134e-003, 3.80228134e-003,
          1.14068445e-002, 0., 0., 0., 0., 0., 0., 3.80228134e-003, 0.,
          7.60456268e-003, 0., 0., 0., 0., 0., 0., 0., 0.,
          3.80228134e-003, 3.80228134e-003, 0., 0., 0., 0., 0.,
          3.80228134e-003, 0., 0., 0., 0., 0., 7.60456268e-003, 0.,
          7.60456268e-003, 3.80228134e-003, 0., 0., 0., 0., 0.,
          3.80228134e-003, 0., 0., 0., 0., 0., 0., 0., 0., 0., 0., 0.,
          0., 0., 7.60456268e-003, 0., 7.60456268e-003, 0., 0., 0., 0.,
          0., 0., 0., 7.60456268e-003, 0., 0., 0., 0., 0., 0.,
          3.80228134e-003, 0., 0., 0., 0., 0., 0., 0., 0., 0., 0., 0.,
          7.60456268e-003, 0., 0., 0., 0., 0., 7.60456268e-003,
          3.80228134e-003, 0., 0., 3.80228134e-003, 0., 0., 0.,
          3.80228134e-003, 3.80228134e-003, 0., 0., 0., 0., 0., 0.,
          3.80228134e-003, 0., 0., 0., 0., 0., 0., 3.80228134e-003, 0.,
          0., 3.80228134e-003, 0., 0., 0., 3.80228134e-003, 0.,
          7.60456268e-003, 0., 0., 3.80228134e-003, 0., 0.,
          3.80228134e-003, 0., 0., 3.80228134e-003, 0., 0., 0., 0.,
          3.80228134e-003, 0., 0., 0., 0., 0., 0., 0., 0., 0., 0., 0.,
          0., 0., 0., 0., 0., 0., 0., 3.80228134e-003, 0., 0., 0., 0.,
          3.80228134e-003, 0., 0., 0., 0., 0., 0., 3.80228134e-003, 0.,
          0., 0., 0., 3.80228134e-003, 0., 0., 3.80228134e-003, 0., 0.,
          0., 3.80228134e-003, 0., 1.14068445e-002, 3.80228134e-003, 0.,
          0., 0., 7.60456268e-003, 0., 0., 0., 0., 0., 0., 0., 0., 0.,
          0., 0., 0., 3.80228134e-003, 7.60456268e-003, 0.,
          3.80228134e-003, 7.60456268e-003, 3.80228134e-003, 0., 0.,
          7.60456268e-003, 0., 7.60456268e-003, 0., 0., 3.80228134e-003,
          0., 7.60456268e-003, 0., 0., 0., 3.80228134e-003, 0., 0., 0.,
          0., 0., 3.80228134e-003, 0., 0., 0., 0., 0., 0.,
          3.80228134e-003, 0., 0., 3.80228134e-003, 0., 0., 0.,
          3.80228134e-003, 0., 3.80228134e-003, 3.80228134e-003, 0., 0.,
          0., 0., 0., 0., 0., 0., 0., 7.60456268e-003, 3.80228134e-003,
          0., 0., 0., 0., 0., 0., 0., 3.80228134e-003, 0.,
          3.80228134e-003, 3.80228134e-003, 0., 7.60456268e-003, 0., 0.,
          0., 0., 0., 0., 0., 3.80228134e-003, 3.80228134e-003, 0., 0.,
          3.80228134e-003, 0., 3.80228134e-003, 0., 0., 0., 0., 0., 0.,
          0., 0., 0., 0., 0., 0., 0., 3.80228134e-003, 0., 0., 0., 0.,
          0., 0., 0., 0., 0., 0., 0., 0., 0., 0., 1.14068445e-002,
