%YAML:1.0
my_svm: !!opencv-ml-svm
   svm_type: C_SVC
   kernel: { type:RBF, gamma:1. }
   C: 1.
   term_criteria: { epsilon:1.1920928955078125e-007, iterations:1000 }
   var_all: 1000
   var_count: 1000
   class_count: 2
   class_labels: !!opencv-matrix
      rows: 1
      cols: 2
      dt: i
      data: [ 0, 1 ]
   sv_total: 102
   support_vectors:
      - [ 0., 0., 1.16731515e-002, 0., 0., 0., 3.89105058e-003, 0., 0.,
          0., 0., 0., 0., 0., 7.78210117e-003, 0., 0., 7.78210117e-003,
          3.89105058e-003, 0., 0., 0., 0., 0., 3.89105058e-003, 0., 0.,
          1.55642023e-002, 0., 0., 0., 3.89105058e-003, 3.89105058e-003,
          0., 0., 0., 0., 0., 0., 7.78210117e-003, 3.89105058e-003, 0.,
          3.89105058e-003, 0., 3.89105058e-003, 3.89105058e-003,
          3.89105058e-003, 3.89105058e-003, 0., 0., 0., 0., 0.,
          3.89105058e-003, 0., 0., 0., 7.78210117e-003, 0., 0.,
          3.89105058e-003, 0., 0., 0., 2.72373538e-002, 0., 0., 0., 0.,
          0., 0., 0., 0., 0., 3.89105058e-003, 0., 0., 7.78210117e-003,
          0., 3.89105058e-003, 0., 0., 0., 7.78210117e-003, 0., 0.,
          3.89105058e-003, 3.89105058e-003, 0., 3.89105058e-003, 0., 0.,
          0., 0., 0., 0., 0., 3.89105058e-003, 0., 0., 0., 0.,
          3.89105058e-003, 0., 0., 0., 0., 3.89105058e-003, 0., 0.,
          3.89105058e-003, 0., 0., 3.89105058e-003, 0., 0., 0., 0., 0.,
          3.89105058e-003, 3.89105058e-003, 0., 0., 0., 0., 0., 0., 0.,
          0., 7.78210117e-003, 0., 0., 0., 3.89105058e-003, 0., 0., 0.,
          0., 0., 0., 0., 3.89105058e-003, 0., 3.89105058e-003, 0., 0.,
          0., 7.78210117e-003, 0., 0., 3.89105058e-003, 0., 0., 0., 0.,
          0., 0., 0., 0., 0., 0., 7.78210117e-003, 0., 0., 0.,
          3.89105058e-003, 0., 0., 3.89105058e-003, 0., 3.89105058e-003,
          0., 0., 0., 0., 7.78210117e-003, 0., 0., 0., 0., 0., 0.,
          7.78210117e-003, 0., 7.78210117e-003, 7.78210117e-003,
          3.89105058e-003, 3.89105058e-003, 0., 0., 3.89105058e-003, 0.,
          0., 3.89105058e-003, 0., 0., 0., 3.89105058e-003, 0.,
          7.78210117e-003, 0., 0., 0., 2.72373538e-002, 0.,
          3.89105058e-003, 0., 0., 0., 0., 0., 0., 0., 3.89105058e-003,
          0., 0., 3.89105058e-003, 0., 0., 3.89105058e-003,
          3.89105058e-003, 0., 0., 0., 0., 0., 0., 0., 3.89105058e-003,
          7.78210117e-003, 0., 0., 0., 0., 0., 0., 3.89105058e-003,
          3.89105058e-003, 0., 0., 0., 0., 0., 0., 0., 0., 0., 0., 0.,
          0., 0., 0., 0., 0., 3.89105058e-003, 0., 0., 0., 0., 0., 0.,
          0., 0., 3.89105058e-003, 0., 0., 0., 0., 3.89105058e-003, 0.,
          0., 0., 0., 0., 0., 0., 0., 0., 0., 0., 0., 3.89105058e-003,
          3.89105058e-003, 0., 0., 0., 0., 0., 0., 0., 0., 0.,
          3.89105058e-003, 3.89105058e-003, 3.89105058e-003, 0., 0., 0.,
          0., 3.89105058e-003, 1.16731515e-002, 7.78210117e-003, 0., 0.,
          0., 0., 0., 0., 0., 0., 0., 0., 0., 0., 3.89105058e-003, 0.,
          0., 0., 0., 0., 3.89105058e-003, 0., 0., 0., 0., 0., 0., 0.,
          3.89105058e-003, 0., 0., 0., 3.89105058e-003, 0., 0.,
          3.89105058e-003, 0., 0., 0., 0., 3.89105058e-003,
          3.89105058e-003, 3.89105058e-003, 0., 7.78210117e-003,
          3.89105058e-003, 0., 0., 0., 3.89105058e-003, 0., 0., 0., 0.,
          0., 0., 0., 3.89105058e-003, 3.89105058e-003, 0., 0., 0., 0.,
          0., 0., 0., 0., 3.89105058e-003, 7.78210117e-003, 0., 0., 0.,
          3.89105058e-003, 0., 0., 0., 0., 0., 0., 0., 0., 0., 0., 0.,
          3.89105058e-003, 0., 0., 0., 3.89105058e-003, 0., 0., 0., 0.,
          0., 0., 0., 0., 3.89105058e-003, 0., 0., 0., 0.,
          3.89105058e-003, 0., 0., 0., 0., 0., 0., 0., 3.89105058e-003,
          0., 0., 0., 0., 0., 0., 0., 0., 0., 0., 3.89105058e-003, 0.,
          3.89105058e-003, 0., 0., 0., 0., 0., 0., 3.89105058e-003, 0.,
          0., 0., 0., 7.78210117e-003, 0., 0., 0., 0., 3.89105058e-003,
          0., 0., 0., 0., 0., 0., 0., 0., 0., 0., 0., 0., 0., 0., 0., 0.,
          0., 0., 0., 0., 0., 0., 0., 3.89105058e-003, 0., 0., 0.,
          3.89105058e-003, 0., 0., 0., 0., 0., 0., 0., 0., 0., 0., 0.,
          0., 7.78210117e-003, 0., 0., 0., 0., 0., 3.89105058e-003, 0.,
          0., 0., 0., 0., 0., 0., 0., 0., 0., 3.89105058e-003,
          3.89105058e-003, 0., 0., 0., 0., 0., 0., 0., 0., 0.,
          3.89105058e-003, 0., 0., 0., 1.55642023e-002, 0., 0., 0., 0.,
          0., 0., 0., 3.89105058e-003, 0., 7.78210117e-003, 0.,
          3.89105058e-003, 0., 3.89105058e-003, 3.89105058e-003, 0., 0.,
          0., 3.89105058e-003, 3.89105058e-003, 0., 0., 0., 0., 0.,
          3.89105058e-003, 0., 0., 0., 0., 0., 0., 0., 0., 0., 0., 0.,
          7.78210117e-003, 3.89105058e-003, 0., 0., 1.16731515e-002,
          3.89105058e-003, 0., 0., 3.89105058e-003, 0., 0., 0., 0., 0.,
          0., 0., 0., 0., 0., 0., 0., 0., 3.89105058e-003, 0.,
          3.89105058e-003, 0., 0., 0., 0., 0., 0., 0., 0., 0., 0., 0.,
          0., 0., 0., 0., 0., 0., 7.78210117e-003, 0., 0.,
          7.78210117e-003, 0., 0., 3.89105058e-003, 0., 0., 0.,
          3.89105058e-003, 0., 0., 0., 0., 0., 0., 0., 3.89105058e-003,
          0., 0., 0., 0., 0., 0., 3.89105058e-003, 0., 0.,
          3.89105058e-003, 0., 0., 0., 3.89105058e-003, 0., 0., 0., 0.,
          0., 0., 0., 0., 0., 0., 0., 0., 0., 0., 0., 3.89105058e-003,
          3.89105058e-003, 0., 0., 0., 0., 0., 7.78210117e-003, 0., 0.,
          0., 0., 0., 0., 0., 0., 0., 0., 3.89105058e-003, 0., 0., 0.,
          0., 0., 0., 0., 0., 0., 0., 0., 0., 3.89105058e-003,
          3.89105058e-003, 3.89105058e-003, 0., 0., 0., 0., 0., 0., 0.,
          0., 0., 0., 0., 0., 0., 3.89105058e-003, 3.89105058e-003, 0.,
          0., 3.89105058e-003, 0., 0., 0., 0., 0., 0., 0., 0., 0., 0.,
          0., 3.89105058e-003, 0., 0., 3.89105058e-003, 0., 0., 0., 0.,
          0., 0., 0., 0., 0., 3.89105058e-003, 3.89105058e-003, 0., 0.,
          3.89105058e-003, 0., 0., 0., 3.89105058e-003, 0., 0., 0., 0.,
          0., 0., 3.89105058e-003, 0., 0., 0., 3.89105058e-003, 0., 0.,
          0., 0., 0., 0., 0., 0., 3.89105058e-003, 0., 0., 0., 0.,
          7.78210117e-003, 0., 0., 0., 0., 0., 0., 0., 3.89105058e-003,
          0., 3.89105058e-003, 0., 0., 0., 0., 0., 0., 3.89105058e-003,
          0., 0., 0., 0., 0., 0., 0., 0., 0., 0., 0., 0., 0., 0., 0., 0.,
          0., 3.89105058e-003, 0., 0., 0., 0., 0., 0., 0., 0., 0.,
          3.89105058e-003, 0., 3.89105058e-003, 0., 3.89105058e-003, 0.,
          0., 0., 0., 0., 0., 0., 0., 0., 0., 0., 0., 7.78210117e-003,
          0., 0., 0., 0., 0., 0., 0., 0., 0., 0., 0., 3.89105058e-003,
          0., 0., 0., 0., 1.16731515e-002, 0., 0., 0., 0.,
          3.89105058e-003, 7.78210117e-003, 0., 0., 0., 0., 0., 0., 0.,
          0., 0., 0., 0., 0., 3.89105058e-003, 0., 3.89105058e-003, 0.,
          3.89105058e-003, 0., 7.78210117e-003, 0., 0., 0., 0., 0., 0.,
          0., 0., 0., 0., 0., 0., 0., 3.89105058e-003, 0., 0., 0., 0.,
          0., 0., 7.78210117e-003, 0., 7.78210117e-003, 0.,
          7.78210117e-003, 0., 0., 0., 0., 0., 0., 3.89105058e-003, 0.,
          0., 0., 0., 0., 7.78210117e-003, 0., 0., 0., 0., 0., 0.,
          3.89105058e-003, 0., 0., 0., 0., 7.78210117e-003, 0., 0., 0.,
          3.89105058e-003, 0., 0., 0., 0., 0., 0., 3.89105058e-003, 0.,
          0., 0., 0., 0., 7.78210117e-003, 0., 0., 0., 7.78210117e-003,
          0., 0., 0., 0., 0., 0., 0., 3.89105058e-003, 0.,
          3.89105058e-003, 0., 0., 0., 3.89105058e-003, 0., 0., 0.,
          3.89105058e-003, 0., 0., 0., 0., 0., 3.89105058e-003,
          7.78210117e-003, 0., 0., 0., 0., 0., 0., 7.78210117e-003, 0.,
          0., 0., 0., 0., 0., 0., 0., 0., 0., 0., 0., 0.,
          3.89105058e-003, 3.89105058e-003, 0., 0., 0., 0., 0., 0., 0.,
          0., 3.89105058e-003, 0., 0., 0., 0., 0., 0., 0., 0., 0., 0.,
          0., 3.89105058e-003, 0., 0., 0., 0., 7.78210117e-003, 0. ]
      - [ 0., 0., 7.51879718e-003, 0., 0., 0., 0., 0., 0., 0., 0., 0.,
          3.75939859e-003, 0., 1.12781953e-002, 0., 0., 3.75939859e-003,
          3.75939859e-003, 0., 0., 0., 0., 0., 0., 3.75939859e-003, 0.,
          0., 0., 3.75939859e-003, 0., 3.75939859e-003, 0., 0., 0., 0.,
          0., 0., 0., 0., 0., 0., 0., 0., 0., 0., 0., 0., 0., 0., 0., 0.,
          0., 0., 0., 0., 7.51879718e-003, 0., 0., 0., 0., 0., 0., 0.,
          3.75939859e-003, 0., 0., 7.51879718e-003, 0., 0.,
          3.75939859e-003, 0., 3.75939859e-003, 0., 0., 0., 0., 0., 0.,
          0., 0., 0., 3.75939859e-003, 0., 0., 0., 3.75939859e-003,
          3.75939859e-003, 0., 0., 0., 0., 7.51879718e-003,
          3.75939859e-003, 3.75939859e-003, 0., 3.75939859e-003,
          7.51879718e-003, 0., 0., 0., 0., 3.75939859e-003, 0., 0., 0.,
          0., 7.51879718e-003, 0., 0., 0., 0., 0., 0., 0., 0., 0., 0.,
          3.75939859e-003, 3.75939859e-003, 7.51879718e-003, 0., 0.,
          3.75939859e-003, 0., 0., 0., 0., 0., 0., 0., 0., 0.,
          3.75939859e-003, 0., 7.51879718e-003, 3.75939859e-003, 0.,
          3.75939859e-003, 3.75939859e-003, 0., 0., 0., 3.75939859e-003,
          0., 0., 0., 0., 0., 0., 0., 0., 0., 0., 0., 0., 0., 0., 0., 0.,
          0., 0., 0., 0., 0., 3.75939859e-003, 0., 0., 3.75939859e-003,
          0., 7.51879718e-003, 0., 3.75939859e-003, 0., 0.,
          3.75939859e-003, 3.75939859e-003, 0., 0., 0., 1.12781953e-002,
          0., 1.12781953e-002, 0., 7.51879718e-003, 0., 0.,
          3.75939859e-003, 0., 0., 0., 0., 0., 3.75939859e-003, 0., 0.,
          3.75939859e-003, 0., 3.75939859e-003, 3.75939859e-003, 0., 0.,
          0., 3.75939859e-003, 0., 0., 0., 0., 0., 0., 0., 0., 0., 0.,
          0., 0., 0., 0., 0., 0., 0., 0., 0., 3.75939859e-003,
          3.75939859e-003, 0., 0., 0., 7.51879718e-003, 7.51879718e-003,
          0., 0., 0., 3.75939859e-003, 0., 7.51879718e-003, 0., 0., 0.,
          0., 0., 0., 7.51879718e-003, 0., 0., 0., 3.75939859e-003,
          7.51879718e-003, 0., 0., 0., 0., 0., 0., 0., 0., 0., 0.,
          7.51879718e-003, 3.75939859e-003, 0., 0., 0., 3.75939859e-003,
          0., 0., 0., 0., 0., 0., 0., 0., 3.75939859e-003, 0., 0., 0.,
          0., 0., 0., 3.75939859e-003, 0., 0., 7.51879718e-003, 0., 0.,
          3.75939859e-003, 0., 0., 0., 0., 0., 0., 7.51879718e-003, 0.,
          3.75939859e-003, 0., 0., 0., 0., 3.75939859e-003, 0., 0., 0.,
          0., 0., 0., 0., 0., 0., 0., 0., 0., 0., 3.75939859e-003, 0.,
          0., 0., 0., 0., 0., 0., 0., 0., 0., 0., 0., 0.,
          7.51879718e-003, 3.75939859e-003, 0., 0., 0., 3.75939859e-003,
          0., 0., 0., 7.51879718e-003, 0., 0., 0., 0., 7.51879718e-003,
          0., 7.51879718e-003, 0., 0., 0., 0., 0., 3.75939859e-003, 0.,
          0., 0., 0., 0., 0., 0., 0., 0., 7.51879718e-003, 0., 0., 0.,
          0., 0., 0., 3.75939859e-003, 7.51879718e-003, 3.75939859e-003,
          0., 0., 0., 3.75939859e-003, 0., 0., 0., 0., 0.,
          3.75939859e-003, 0., 0., 0., 0., 0., 0., 0., 3.75939859e-003,
          3.75939859e-003, 0., 3.75939859e-003, 3.75939859e-003, 0.,
          3.75939859e-003, 0., 0., 0., 0., 0., 0., 0., 0., 0., 0., 0.,
          3.75939859e-003, 0., 0., 3.75939859e-003, 0., 0., 0., 0., 0.,
          0., 0., 7.51879718e-003, 0., 3.75939859e-003, 0., 0., 0., 0.,
          0., 0., 3.75939859e-003, 0., 0., 0., 0., 0., 0.,
          7.51879718e-003, 0., 3.75939859e-003, 0., 0., 0.,
          3.75939859e-003, 3.75939859e-003, 0., 7.51879718e-003, 0., 0.,
          0., 0., 0., 0., 0., 0., 0., 3.75939859e-003, 0.,
          3.75939859e-003, 0., 0., 0., 0., 0., 0., 3.75939859e-003, 0.,
          0., 0., 0., 3.75939859e-003, 0., 1.12781953e-002, 0.,
          3.75939859e-003, 0., 0., 0., 0., 3.75939859e-003, 0., 0., 0.,
          0., 0., 0., 0., 3.75939859e-003, 0., 0., 0., 0., 0., 0., 0.,
          0., 0., 1.12781953e-002, 0., 0., 0., 0., 0., 0., 0.,
          3.75939859e-003, 7.51879718e-003, 0., 0., 0., 3.75939859e-003,
          0., 0., 0., 0., 7.51879718e-003, 0., 0., 0., 7.51879718e-003,
          0., 0., 0., 0., 0., 3.75939859e-003, 0., 3.75939859e-003, 0.,
          3.75939859e-003, 0., 3.75939859e-003, 0., 0., 0., 0., 0., 0.,
          3.75939859e-003, 0., 0., 0., 0., 0., 0., 7.51879718e-003, 0.,
          0., 0., 0., 0., 0., 0., 0., 0., 0., 0., 1.12781953e-002, 0.,
          0., 0., 0., 0., 0., 3.75939859e-003, 3.75939859e-003, 0., 0.,
          0., 0., 0., 0., 0., 0., 0., 0., 0., 0., 3.75939859e-003, 0.,
          0., 0., 0., 0., 0., 0., 3.75939859e-003, 0., 3.75939859e-003,
          0., 0., 0., 3.75939859e-003, 0., 0., 3.75939859e-003, 0.,
          3.75939859e-003, 0., 0., 0., 3.75939859e-003, 0., 0., 0.,
          3.75939859e-003, 0., 0., 0., 0., 0., 0., 1.12781953e-002, 0.,
          7.51879718e-003, 0., 0., 3.75939859e-003, 3.75939859e-003, 0.,
          0., 0., 0., 0., 3.75939859e-003, 0., 0., 0., 0., 0., 0.,
          3.75939859e-003, 0., 3.75939859e-003, 3.75939859e-003, 0.,
          7.51879718e-003, 0., 0., 0., 0., 3.75939859e-003, 0.,
          3.75939859e-003, 0., 0., 0., 3.75939859e-003, 0., 0., 0., 0.,
          0., 0., 0., 0., 0., 0., 0., 3.75939859e-003, 0., 0., 0., 0.,
          0., 3.75939859e-003, 0., 0., 0., 0., 0., 0., 0., 0., 0., 0.,
          0., 0., 3.75939859e-003, 0., 7.51879718e-003, 0.,
          3.75939859e-003, 0., 0., 0., 0., 3.75939859e-003, 0., 0., 0.,
          0., 0., 0., 0., 0., 3.75939859e-003, 0., 3.75939859e-003, 0.,
          0., 0., 0., 0., 0., 0., 0., 0., 0., 0., 3.75939859e-003,
          3.75939859e-003, 0., 0., 0., 0., 0., 0., 0., 0., 0., 0.,
          7.51879718e-003, 3.75939859e-003, 0., 0., 0., 3.75939859e-003,
          0., 0., 0., 7.51879718e-003, 0., 0., 0., 0., 0., 0.,
          3.75939859e-003, 0., 0., 0., 3.75939859e-003, 0., 0., 0., 0.,
          3.75939859e-003, 0., 0., 0., 0., 0., 0., 3.75939859e-003, 0.,
          3.75939859e-003, 0., 0., 0., 0., 0., 0., 0., 0., 0., 0.,
          3.75939859e-003, 0., 3.75939859e-003, 0., 0., 0., 0., 0.,
          1.12781953e-002, 0., 0., 0., 0., 0., 0., 0., 0., 0., 0.,
          3.75939859e-003, 0., 0., 3.75939859e-003, 3.75939859e-003,
          3.75939859e-003, 0., 3.75939859e-003, 0., 0., 3.75939859e-003,
          3.75939859e-003, 0., 0., 0., 3.75939859e-003, 0.,
          7.51879718e-003, 0., 7.51879718e-003, 0., 0., 0., 0., 0., 0.,
          0., 0., 0., 0., 0., 0., 3.75939859e-003, 0., 0., 0., 0., 0.,
          0., 0., 0., 0., 0., 0., 3.75939859e-003, 3.75939859e-003, 0.,
          0., 0., 0., 0., 0., 0., 0., 0., 0., 0., 7.51879718e-003, 0.,
          0., 0., 0., 0., 0., 0., 0., 0., 0., 3.75939859e-003, 0.,
          3.75939859e-003, 0., 3.75939859e-003, 0., 0., 0., 0., 0., 0.,
          0., 0., 0., 0., 0., 0., 0., 0., 0., 3.75939859e-003, 0., 0.,
          0., 0., 0., 0., 0., 0., 0., 0., 3.75939859e-003, 0.,
          3.75939859e-003, 0., 0., 0., 0., 0., 0., 0., 0., 0., 0.,
          7.51879718e-003, 0., 3.75939859e-003, 0., 3.75939859e-003, 0.,
          0., 0., 3.75939859e-003, 0., 0., 0., 1.50375944e-002, 0., 0.,
          0., 0., 0., 0., 0., 0., 0., 0., 0., 3.75939859e-003,
          3.75939859e-003, 0., 0., 0., 3.75939859e-003, 0., 0., 0., 0.,
          0., 0., 0., 0., 0., 0., 0., 0., 0., 3.75939859e-003, 0., 0.,
          0., 3.75939859e-003, 0., 0., 0., 0., 0., 0., 0., 0., 0., 0.,
          7.51879718e-003, 0., 0., 0., 0., 0., 0., 3.75939859e-003,
          3.75939859e-003, 0., 0., 0., 0., 0., 0., 0., 0., 0.,
          3.75939859e-003, 0., 0., 0., 0., 0., 3.75939859e-003, 0., 0.,
          0., 0., 0., 0., 0., 1.12781953e-002, 0., 0., 3.75939859e-003,
          0., 0., 0., 0., 0., 0., 0., 3.75939859e-003, 7.51879718e-003,
          0., 7.51879718e-003, 0., 3.75939859e-003, 0. ]
      - [ 0., 0., 1.25523005e-002, 0., 0., 0., 8.36820062e-003, 0., 0.,
          0., 0., 0., 0., 0., 4.18410031e-003, 0., 0., 4.18410031e-003,
          4.18410031e-003, 0., 0., 0., 4.18410031e-003, 0., 0.,
          4.18410031e-003, 0., 0., 0., 0., 0., 0., 0., 4.18410031e-003,
          0., 0., 0., 0., 0., 4.18410031e-003, 0., 0., 0., 0.,
          4.18410031e-003, 4.18410031e-003, 0., 0., 0., 0., 0., 0., 0.,
          4.18410031e-003, 0., 0., 0., 0., 0., 0., 0., 0., 0., 0.,
          3.34728025e-002, 0., 0., 4.18410031e-003, 0., 0., 0., 0., 0.,
          0., 0., 0., 0., 0., 4.18410031e-003, 0., 0., 0.,
          8.36820062e-003, 0., 0., 0., 4.18410031e-003, 4.18410031e-003,
          0., 0., 0., 0., 8.36820062e-003, 0., 0., 0., 0., 0., 0., 0.,
          0., 0., 0., 0., 0., 0., 0., 0., 0., 0., 0., 0., 0., 0., 0., 0.,
          0., 0., 0., 0., 4.18410031e-003, 0., 0., 0., 8.36820062e-003,
          0., 0., 0., 0., 0., 0., 4.18410031e-003, 0., 1.67364012e-002,
          0., 0., 0., 0., 0., 0., 0., 0., 1.67364012e-002, 0., 0., 0.,
          0., 0., 0., 0., 0., 0., 0., 0., 0., 0., 0., 0., 0., 0., 0.,
          4.18410031e-003, 0., 0., 8.36820062e-003, 8.36820062e-003, 0.,
          0., 4.18410031e-003, 0., 8.36820062e-003, 0., 4.18410031e-003,
          0., 0., 0., 0., 0., 0., 0., 0., 4.18410031e-003, 0., 0.,
          4.18410031e-003, 0., 4.18410031e-003, 4.18410031e-003, 0., 0.,
          0., 4.18410031e-003, 0., 0., 0., 0., 4.18410031e-003,
          8.36820062e-003, 0., 0., 0., 0., 0., 0., 0., 0., 0., 0., 0.,
          4.18410031e-003, 0., 4.18410031e-003, 0., 0., 0., 0., 0., 0.,
          0., 4.18410031e-003, 4.18410031e-003, 0., 0., 0., 0., 0., 0.,
          4.18410031e-003, 4.18410031e-003, 8.36820062e-003, 0., 0., 0.,
          4.18410031e-003, 0., 8.36820062e-003, 0., 0., 0., 0., 0., 0.,
          8.36820062e-003, 0., 0., 0., 4.18410031e-003, 0., 0., 0.,
          4.18410031e-003, 0., 0., 0., 4.18410031e-003, 0., 0., 0., 0.,
          8.36820062e-003, 4.18410031e-003, 0., 0., 0., 0., 0., 0., 0.,
          0., 0., 0., 0., 0., 0., 0., 0., 0., 0., 0., 0., 0.,
          4.18410031e-003, 0., 0., 0., 0., 0., 0., 0., 0., 0., 0., 0.,
          0., 4.18410031e-003, 0., 0., 0., 0., 4.18410031e-003,
          4.18410031e-003, 8.36820062e-003, 0., 0., 0., 0., 0., 0., 0.,
          0., 0., 4.18410031e-003, 0., 0., 0., 0., 0., 0., 0., 0.,
          4.18410031e-003, 4.18410031e-003, 0., 0., 0., 0., 0., 0., 0.,
          0., 0., 0., 4.18410031e-003, 0., 0., 0., 8.36820062e-003, 0.,
          0., 0., 0., 0., 0., 0., 0., 4.18410031e-003, 0., 0., 0.,
          8.36820062e-003, 0., 0., 4.18410031e-003, 0., 0., 0., 0., 0.,
          4.18410031e-003, 0., 0., 0., 0., 0., 0., 0., 4.18410031e-003,
          4.18410031e-003, 4.18410031e-003, 0., 0., 4.18410031e-003,
          4.18410031e-003, 0., 0., 0., 4.18410031e-003, 0., 0., 0., 0.,
          0., 0., 0., 0., 0., 4.18410031e-003, 0., 4.18410031e-003, 0.,
          0., 0., 0., 0., 0., 0., 0., 4.18410031e-003, 0., 0., 0., 0.,
          0., 0., 4.18410031e-003, 0., 0., 8.36820062e-003, 0., 0., 0.,
          0., 0., 0., 0., 8.36820062e-003, 0., 4.18410031e-003, 0., 0.,
          0., 8.36820062e-003, 0., 0., 0., 0., 0., 0., 0., 0.,
          8.36820062e-003, 4.18410031e-003, 0., 0., 0., 0., 0., 0., 0.,
          4.18410031e-003, 8.36820062e-003, 0., 0., 0., 0., 0., 0., 0.,
          0., 0., 0., 0., 0., 0., 0., 0., 0., 0., 0., 0., 0., 0., 0.,
          8.36820062e-003, 8.36820062e-003, 0., 0., 0., 4.18410031e-003,
          0., 0., 0., 0., 0., 0., 0., 0., 4.18410031e-003, 0., 0., 0.,
          4.18410031e-003, 0., 0., 0., 0., 0., 4.18410031e-003, 0., 0.,
          8.36820062e-003, 0., 0., 0., 0., 0., 0., 0., 0., 0., 0., 0.,
          0., 0., 0., 0., 4.18410031e-003, 0., 0., 0., 0.,
          4.18410031e-003, 0., 4.18410031e-003, 0., 0., 0., 0., 0., 0.,
          0., 0., 0., 8.36820062e-003, 0., 0., 0., 0., 4.18410031e-003,
          0., 0., 0., 4.18410031e-003, 0., 0., 0., 4.18410031e-003, 0.,
          0., 8.36820062e-003, 0., 0., 0., 0., 0., 0., 0., 0., 0., 0.,
          0., 8.36820062e-003, 0., 0., 0., 0., 0., 0., 0.,
          4.18410031e-003, 0., 0., 0., 0., 4.18410031e-003, 0., 0., 0.,
          0., 0., 0., 0., 0., 4.18410031e-003, 0., 8.36820062e-003, 0.,
          4.18410031e-003, 0., 0., 0., 0., 0., 0., 0., 0., 0., 0., 0.,
          4.18410031e-003, 0., 4.18410031e-003, 0., 4.18410031e-003, 0.,
          0., 0., 0., 0., 0., 0., 0., 0., 0., 0., 0., 0., 0.,
          4.18410031e-003, 4.18410031e-003, 0., 4.18410031e-003, 0., 0.,
          0., 0., 0., 0., 4.18410031e-003, 0., 0., 0., 0., 0., 0.,
          4.18410031e-003, 0., 0., 0., 0., 0., 0., 4.18410031e-003, 0.,
          0., 0., 0., 8.36820062e-003, 0., 0., 0., 4.18410031e-003, 0.,
          0., 4.18410031e-003, 0., 0., 0., 0., 0., 0., 0., 0., 0., 0.,
          0., 0., 0., 0., 0., 0., 0., 0., 0., 0., 0., 0., 0., 0., 0., 0.,
          0., 4.18410031e-003, 0., 8.36820062e-003, 0., 4.18410031e-003,
          4.18410031e-003, 0., 0., 0., 0., 0., 0., 0., 0., 0., 0., 0.,
          4.18410031e-003, 0., 0., 4.18410031e-003, 0., 0., 0., 0., 0.,
          0., 0., 0., 0., 0., 0., 4.18410031e-003, 0., 0., 0., 0., 0.,
          0., 0., 0., 4.18410031e-003, 0., 0., 8.36820062e-003,
          8.36820062e-003, 0., 4.18410031e-003, 0., 4.18410031e-003, 0.,
          0., 8.36820062e-003, 4.18410031e-003, 0., 0., 0., 0., 0., 0.,
          0., 0., 0., 0., 0., 0., 0., 0., 0., 0., 0., 0., 0., 0., 0., 0.,
          0., 1.25523005e-002, 4.18410031e-003, 8.36820062e-003, 0., 0.,
          0., 0., 0., 0., 0., 0., 4.18410031e-003, 0., 0., 0.,
          8.36820062e-003, 0., 4.18410031e-003, 0., 0., 8.36820062e-003,
          0., 0., 4.18410031e-003, 0., 0., 0., 0., 0., 4.18410031e-003,
          0., 0., 0., 0., 4.18410031e-003, 0., 0., 4.18410031e-003, 0.,
          0., 0., 0., 0., 0., 0., 0., 0., 0., 8.36820062e-003, 0., 0.,
          8.36820062e-003, 0., 0., 0., 0., 0., 0., 0., 0., 0.,
          4.18410031e-003, 0., 0., 0., 0., 0., 0., 0., 0., 0., 0., 0.,
          0., 0., 4.18410031e-003, 0., 0., 0., 0., 0., 0., 0., 0., 0.,
          0., 0., 0., 4.18410031e-003, 0., 0., 4.18410031e-003, 0., 0.,
          0., 0., 0., 0., 0., 8.36820062e-003, 0., 1.67364012e-002, 0.,
          4.18410031e-003, 0., 0., 0., 1.25523005e-002, 0., 0., 0., 0.,
          0., 0., 0., 0., 0., 0., 0., 0., 0., 0., 0., 0., 0., 0.,
          1.67364012e-002, 0., 0., 0., 4.18410031e-003, 0., 0., 0., 0.,
          8.36820062e-003, 0., 0., 0., 0., 0., 0., 0., 0., 0., 0., 0.,
          4.18410031e-003, 0., 0., 0., 4.18410031e-003, 0., 0., 0., 0.,
          0., 4.18410031e-003, 0., 0., 0., 0., 0., 0., 0., 0., 0., 0.,
          0., 0., 0., 0., 0., 4.18410031e-003, 0., 0., 0.,
          4.18410031e-003, 0., 0., 0., 0., 0., 4.18410031e-003, 0., 0.,
          8.36820062e-003, 0., 0., 0., 0., 0., 0., 0., 4.18410031e-003,
          0., 0., 0., 0., 0., 4.18410031e-003, 8.36820062e-003,
          4.18410031e-003, 0., 0., 4.18410031e-003, 0., 0.,
          4.18410031e-003, 0., 0., 0., 0., 0., 0., 0., 0., 0., 0., 0.,
          0., 0., 4.18410031e-003, 4.18410031e-003, 0., 0., 0., 0., 0.,
          0., 0., 0., 0., 4.18410031e-003, 0., 0., 0., 0., 0., 0., 0.,
          0., 0., 0., 0., 8.36820062e-003, 0., 0., 0., 0., 0. ]
      - [ 0., 0., 0., 0., 0., 0., 8.26446246e-003, 0., 0.,
          4.13223123e-003, 0., 0., 0., 0., 8.26446246e-003, 0., 0.,
          4.13223123e-003, 4.13223123e-003, 0., 0., 0., 0., 0., 0., 0.,
          0., 8.26446246e-003, 4.13223123e-003, 0., 0., 4.13223123e-003,
          8.26446246e-003, 0., 0., 0., 0., 0., 0., 8.26446246e-003,
          4.13223123e-003, 0., 4.13223123e-003, 0., 0., 0., 0., 0., 0.,
          0., 0., 0., 0., 4.13223123e-003, 0., 0., 0., 4.13223123e-003,
          0., 0., 0., 0., 0., 0., 3.71900797e-002, 0., 0.,
          8.26446246e-003, 0., 0., 0., 0., 4.13223123e-003, 0., 0., 0.,
          0., 0., 0., 8.26446246e-003, 0., 0., 0., 0., 0., 0., 0., 0.,
          0., 0., 0., 0., 4.13223123e-003, 0., 0., 0., 0.,
          4.13223123e-003, 0., 0., 0., 0., 4.13223123e-003, 0.,
          4.13223123e-003, 0., 0., 0., 0., 0., 0., 0., 0., 0., 0., 0.,
          0., 0., 0., 4.13223123e-003, 0., 0., 0., 4.13223123e-003,
          8.26446246e-003, 0., 4.13223123e-003, 0., 0., 0., 0., 0., 0.,
          8.26446246e-003, 0., 0., 0., 0., 8.26446246e-003,
          4.13223123e-003, 0., 4.13223123e-003, 4.13223123e-003,
          4.13223123e-003, 0., 4.13223123e-003, 4.13223123e-003, 0., 0.,
          0., 0., 0., 0., 4.13223123e-003, 0., 0., 0., 0., 0., 0., 0.,
          0., 4.13223123e-003, 0., 0., 8.26446246e-003, 0., 0., 0., 0.,
          4.13223123e-003, 0., 0., 0., 0., 0., 0., 0., 0., 0., 0., 0.,
          0., 0., 4.13223123e-003, 0., 0., 4.13223123e-003,
          8.26446246e-003, 0., 4.13223123e-003, 0., 0., 0., 0.,
          4.13223123e-003, 0., 0., 0., 8.26446246e-003, 0., 0., 0.,
          4.13223123e-003, 0., 0., 0., 0., 0., 0., 0., 0., 0.,
          4.13223123e-003, 4.13223123e-003, 4.13223123e-003, 0.,
          4.13223123e-003, 0., 0., 0., 0., 0., 0., 0., 0., 0., 0.,
          4.13223123e-003, 1.23966932e-002, 0., 0., 1.23966932e-002,
          4.13223123e-003, 0., 4.13223123e-003, 0., 0., 0., 0., 0., 0.,
          4.13223123e-003, 0., 0., 0., 0., 0., 0., 8.26446246e-003, 0.,
          0., 4.13223123e-003, 0., 4.13223123e-003, 0., 0., 0.,
          4.13223123e-003, 8.26446246e-003, 0., 0., 0., 0., 0., 0., 0.,
          0., 0., 0., 0., 0., 0., 0., 0., 0., 4.13223123e-003, 0., 0.,
          4.13223123e-003, 0., 0., 8.26446246e-003, 0., 0.,
          4.13223123e-003, 4.13223123e-003, 0., 0., 0., 0., 0., 0., 0.,
          4.13223123e-003, 0., 4.13223123e-003, 0., 0., 4.13223123e-003,
          4.13223123e-003, 0., 4.13223123e-003, 0., 0., 0., 0., 0., 0.,
          0., 0., 0., 0., 4.13223123e-003, 0., 0., 0., 0., 0., 0., 0.,
          0., 0., 0., 0., 0., 0., 0., 4.13223123e-003, 0., 0., 0., 0.,
          0., 0., 0., 0., 0., 0., 0., 0., 0., 0., 0., 0., 0., 0., 0., 0.,
          4.13223123e-003, 0., 0., 0., 0., 0., 0., 0., 0.,
          8.26446246e-003, 4.13223123e-003, 0., 0., 0., 0.,
          4.13223123e-003, 0., 0., 4.13223123e-003, 4.13223123e-003, 0.,
          0., 0., 0., 4.13223123e-003, 0., 0., 0., 0., 0., 0., 0., 0.,
          0., 0., 0., 0., 4.13223123e-003, 0., 4.13223123e-003, 0., 0.,
          0., 0., 0., 0., 0., 0., 0., 0., 0., 0., 0., 0., 0., 0., 0., 0.,
          0., 0., 0., 4.13223123e-003, 0., 0., 0., 0., 0., 0.,
          4.13223123e-003, 0., 4.13223123e-003, 0., 0., 0.,
          4.13223123e-003, 0., 0., 0., 0., 0., 0., 4.13223123e-003, 0.,
          0., 0., 0., 4.13223123e-003, 0., 0., 0., 0., 4.13223123e-003,
          0., 0., 0., 0., 0., 0., 0., 0., 0., 0., 0., 0., 0., 0., 0., 0.,
          0., 0., 0., 0., 0., 0., 4.13223123e-003, 4.13223123e-003, 0.,
          0., 0., 8.26446246e-003, 0., 0., 4.13223123e-003, 0., 0., 0.,
          0., 4.13223123e-003, 0., 0., 0., 0., 4.13223123e-003, 0., 0.,
          0., 0., 0., 4.13223123e-003, 0., 0., 0., 0., 0., 0., 0., 0.,
          0., 0., 4.13223123e-003, 0., 0., 0., 0., 0., 0., 0., 0., 0.,
          0., 4.13223123e-003, 0., 0., 0., 8.26446246e-003, 0., 0., 0.,
          0., 0., 0., 0., 8.26446246e-003, 0., 8.26446246e-003, 0., 0.,
          0., 8.26446246e-003, 0., 0., 0., 0., 4.13223123e-003, 0., 0.,
          0., 0., 0., 0., 4.13223123e-003, 0., 0., 0., 0., 0., 0., 0.,
          0., 0., 0., 0., 8.26446246e-003, 0., 0., 0., 0.,
          4.13223123e-003, 0., 0., 4.13223123e-003, 0., 4.13223123e-003,
          0., 0., 8.26446246e-003, 0., 0., 4.13223123e-003, 0., 0., 0.,
          0., 0., 4.13223123e-003, 0., 0., 0., 0., 0., 0., 0., 0., 0.,
          0., 0., 0., 0., 0., 0., 0., 0., 4.13223123e-003, 0., 0., 0.,
          4.13223123e-003, 0., 0., 0., 4.13223123e-003, 0., 0., 0., 0.,
          0., 0., 0., 0., 0., 4.13223123e-003, 0., 8.26446246e-003, 0.,
          0., 0., 4.13223123e-003, 0., 0., 0., 0., 0., 0., 0., 0., 0.,
          4.13223123e-003, 0., 0., 4.13223123e-003, 0., 0., 0., 0., 0.,
          0., 0., 0., 4.13223123e-003, 0., 4.13223123e-003, 0.,
          4.13223123e-003, 0., 0., 0., 0., 0., 0., 0., 0., 0., 0., 0.,
          0., 0., 0., 0., 0., 0., 0., 0., 0., 0., 0., 0., 0., 0., 0., 0.,
          0., 0., 0., 4.13223123e-003, 4.13223123e-003, 4.13223123e-003,
          0., 4.13223123e-003, 4.13223123e-003, 0., 0., 0., 0., 0., 0.,
          0., 0., 4.13223123e-003, 0., 0., 0., 2.06611566e-002, 0.,
          4.13223123e-003, 0., 0., 0., 0., 0., 0., 0., 0., 0., 0., 0.,
          0., 0., 0., 0., 0., 0., 0., 0., 0., 0., 4.13223123e-003, 0.,
          4.13223123e-003, 4.13223123e-003, 4.13223123e-003, 0., 0., 0.,
          0., 0., 4.13223123e-003, 4.13223123e-003, 0., 0.,
          4.13223123e-003, 0., 0., 0., 0., 0., 0., 0., 0.,
          8.26446246e-003, 0., 0., 0., 4.13223123e-003, 0., 0.,
          4.13223123e-003, 4.13223123e-003, 0., 0., 0., 8.26446246e-003,
          4.13223123e-003, 4.13223123e-003, 0., 0., 0., 4.13223123e-003,
          0., 0., 8.26446246e-003, 0., 0., 0., 0., 0., 0., 0.,
          4.13223123e-003, 0., 0., 4.13223123e-003, 0., 0., 0., 0., 0.,
          0., 0., 0., 4.13223123e-003, 0., 4.13223123e-003, 0., 0.,
          4.13223123e-003, 0., 4.13223123e-003, 0., 0., 0., 0., 0., 0.,
          0., 4.13223123e-003, 0., 0., 0., 4.13223123e-003, 0.,
          4.13223123e-003, 4.13223123e-003, 0., 0., 0., 0., 0., 0., 0.,
          0., 0., 0., 4.13223123e-003, 0., 0., 0., 0., 0., 0., 0., 0.,
          0., 0., 4.13223123e-003, 0., 8.26446246e-003, 0., 0., 0., 0.,
          0., 0., 0., 0., 0., 0., 0., 0., 0., 0., 0., 0., 0., 0.,
          4.13223123e-003, 4.13223123e-003, 0., 0., 0., 0., 0.,
          1.23966932e-002, 4.13223123e-003, 4.13223123e-003, 0., 0., 0.,
          0., 0., 0., 0., 4.13223123e-003, 0., 0., 0., 0., 0., 0., 0.,
          0., 0., 0., 0., 0., 0., 0., 4.13223123e-003, 0.,
          4.13223123e-003, 0., 4.13223123e-003, 0., 4.13223123e-003, 0.,
          4.13223123e-003, 0., 0., 0., 0., 0., 0., 0., 0., 0., 0., 0.,
          0., 0., 0., 0., 4.13223123e-003, 4.13223123e-003, 0., 0., 0.,
          1.23966932e-002, 0., 0., 0., 0., 0., 0., 0., 0., 0., 0., 0.,
          0., 4.13223123e-003, 0., 0., 0., 0., 0., 0., 0.,
          4.13223123e-003, 0., 0., 0., 0., 0., 0., 0., 0., 0.,
          4.13223123e-003, 0., 0., 0., 4.13223123e-003, 4.13223123e-003,
          0., 4.13223123e-003, 4.13223123e-003, 0., 0., 0., 0., 0., 0.,
          8.26446246e-003, 0., 0., 0., 0., 0., 0., 4.13223123e-003,
          4.13223123e-003, 0., 0., 0., 0., 0., 0., 0., 0., 0., 0., 0.,
          0., 0., 0., 0., 0., 0., 0., 0., 0., 4.13223123e-003, 0., 0.,
          8.26446246e-003, 0., 0., 0., 0., 0., 0., 0., 0., 0., 0.,
          4.13223123e-003, 4.13223123e-003, 0., 8.26446246e-003, 0.,
          1.23966932e-002, 0. ]
      - [ 3.44827585e-003, 0., 6.89655170e-003, 0., 0., 0., 0.,
          4.82758619e-002, 0., 0., 0., 0., 0., 0., 6.89655170e-003, 0.,
          0., 0., 0., 0., 0., 0., 0., 0., 3.44827585e-003, 0., 0., 0.,
          0., 0., 0., 0., 0., 0., 0., 0., 0., 0., 0., 0.,
          3.44827585e-003, 0., 3.44827585e-003, 0., 3.44827585e-003, 0.,
          3.44827585e-003, 0., 0., 0., 0., 0., 0., 0., 3.44827585e-003,
          0., 3.44827585e-003, 0., 0., 0., 0., 0., 0., 0., 0., 0., 0.,
          0., 0., 0., 0., 0., 0., 0., 3.44827585e-003, 0., 0., 0.,
          3.44827585e-003, 0., 0., 0., 0., 0., 0., 0., 0., 0.,
          3.44827585e-003, 0., 0., 0., 1.03448275e-002, 0., 0., 0., 0.,
          0., 0., 3.44827585e-003, 0., 0., 3.44827585e-003, 0.,
          3.44827585e-003, 0., 0., 0., 0., 0., 3.44827585e-003, 0., 0.,
          0., 0., 0., 0., 0., 0., 3.44827585e-003, 0., 0., 0.,
          3.44827585e-003, 0., 0., 0., 0., 0., 3.44827585e-003, 0., 0.,
          0., 0., 3.44827585e-003, 6.89655170e-003, 3.44827585e-003, 0.,
          0., 3.44827585e-003, 0., 0., 3.44827585e-003, 0., 0., 0., 0.,
          0., 0., 0., 0., 0., 3.44827585e-003, 6.89655170e-003, 0., 0.,
          0., 0., 0., 0., 0., 0., 0., 0., 0., 6.89655170e-003, 0., 0.,
          0., 0., 6.89655170e-003, 0., 0., 0., 0., 0., 3.44827585e-003,
          0., 0., 0., 0., 3.44827585e-003, 3.44827585e-003, 0., 0., 0.,
          0., 1.03448275e-002, 0., 0., 0., 0., 0., 0., 0., 0.,
          3.44827585e-003, 3.44827585e-003, 0., 6.89655170e-003, 0., 0.,
          0., 3.44827585e-003, 0., 0., 0., 0., 0., 0., 0., 0., 0., 0.,
          0., 0., 3.44827585e-003, 0., 3.44827585e-003, 0., 0., 0., 0.,
          0., 0., 0., 0., 0., 0., 6.89655170e-003, 0., 0., 0., 0., 0.,
          3.44827585e-003, 0., 0., 0., 0., 0., 6.89655170e-003,
          3.44827585e-003, 0., 0., 0., 0., 3.44827585e-003, 0.,
          3.44827585e-003, 0., 0., 3.44827585e-003, 0., 6.89655170e-003,
          0., 0., 0., 6.89655170e-003, 3.44827585e-003, 0., 0., 0.,
          3.44827585e-003, 0., 0., 0., 0., 3.44827585e-003, 0., 0., 0.,
          3.44827585e-003, 0., 0., 0., 0., 0., 0., 6.89655170e-003, 0.,
          0., 3.44827585e-003, 0., 0., 3.44827585e-003, 0., 0., 0.,
          3.44827585e-003, 0., 3.44827585e-003, 6.89655170e-003, 0., 0.,
          3.44827585e-003, 0., 0., 0., 0., 0., 6.89655170e-003, 0., 0.,
          0., 0., 0., 0., 0., 0., 0., 0., 0., 0., 0., 0., 0., 0., 0., 0.,
          0., 0., 0., 0., 0., 0., 0., 0., 6.89655170e-003, 0., 0., 0.,
          0., 0., 0., 3.44827585e-003, 0., 0., 0., 0., 3.44827585e-003,
          0., 0., 0., 3.44827585e-003, 0., 0., 0., 0., 3.44827585e-003,
          3.44827585e-003, 0., 3.44827585e-003, 0., 0., 0., 0., 0., 0.,
          3.44827585e-003, 0., 0., 0., 0., 0., 0., 3.44827585e-003,
          3.44827585e-003, 6.89655170e-003, 0., 0., 3.44827585e-003,
          1.37931034e-002, 0., 0., 0., 0., 0., 0., 0., 0., 0., 0., 0.,
          0., 0., 3.44827585e-003, 0., 3.44827585e-003, 0.,
          3.44827585e-003, 0., 3.44827585e-003, 0., 3.44827585e-003, 0.,
          0., 0., 0., 0., 0., 0., 0., 0., 0., 0., 0., 0., 0., 0.,
          3.44827585e-003, 0., 0., 0., 0., 0., 0., 6.89655170e-003, 0.,
          0., 0., 3.44827585e-003, 0., 0., 0., 0., 0., 0., 0., 0., 0.,
          3.44827585e-003, 0., 0., 0., 3.44827585e-003, 0., 0., 0., 0.,
          0., 6.89655170e-003, 0., 0., 0., 0., 0., 0., 0., 0., 0., 0.,
          0., 0., 0., 0., 0., 0., 0., 0., 0., 0., 0., 6.89655170e-003,
          6.89655170e-003, 0., 0., 0., 6.89655170e-003, 3.44827585e-003,
          0., 6.89655170e-003, 0., 0., 0., 0., 0., 0., 0., 0., 0.,
          3.44827585e-003, 0., 0., 0., 0., 0., 0., 3.44827585e-003, 0.,
          0., 6.89655170e-003, 0., 0., 0., 0., 0., 0., 0., 0., 0., 0.,
          0., 0., 0., 0., 0., 0., 0., 3.44827585e-003, 0., 0., 0.,
          6.89655170e-003, 0., 6.89655170e-003, 0., 0., 0., 0., 0., 0.,
          0., 3.44827585e-003, 0., 0., 0., 6.89655170e-003, 0., 0., 0.,
          6.89655170e-003, 6.89655170e-003, 0., 0., 0., 3.44827585e-003,
          0., 0., 3.44827585e-003, 0., 0., 0., 0., 0., 0., 0., 0., 0.,
          0., 0., 6.89655170e-003, 0., 0., 0., 0., 3.44827585e-003, 0.,
          0., 3.44827585e-003, 0., 3.44827585e-003, 0., 0.,
          3.44827585e-003, 0., 0., 0., 0., 0., 0., 3.10344826e-002,
          3.44827585e-003, 3.44827585e-003, 0., 0., 0., 0., 0., 0., 0.,
          0., 3.44827585e-003, 0., 0., 0., 0., 0., 0., 0., 0.,
          6.89655170e-003, 0., 6.89655170e-003, 0., 0., 3.44827585e-003,
          0., 3.44827585e-003, 0., 0., 0., 0., 0., 0., 6.89655170e-003,
          0., 0., 0., 3.44827585e-003, 0., 6.89655170e-003, 0., 0., 0.,
          3.44827585e-003, 0., 0., 3.44827585e-003, 0., 0., 0., 0., 0.,
          0., 3.44827585e-003, 0., 0., 0., 3.44827585e-003, 0., 0.,
          3.44827585e-003, 0., 0., 3.44827585e-003, 0., 3.44827585e-003,
          0., 3.44827585e-003, 0., 3.44827585e-003, 0., 0., 0., 0.,
          3.44827585e-003, 0., 0., 0., 0., 0., 0., 1.37931034e-002, 0.,
          0., 0., 0., 0., 3.44827585e-003, 0., 0., 0., 0., 0., 0., 0.,
          0., 0., 0., 0., 0., 3.44827585e-003, 3.44827585e-003, 0., 0.,
          0., 0., 0., 0., 0., 0., 0., 0., 6.89655170e-003,
          6.89655170e-003, 0., 0., 0., 0., 0., 0., 3.44827585e-003, 0.,
          0., 0., 0., 0., 0., 3.44827585e-003, 0., 0., 3.44827585e-003,
          0., 3.44827585e-003, 0., 0., 0., 0., 0., 0., 0., 0., 0., 0.,
          0., 0., 0., 6.89655170e-003, 0., 0., 0., 0., 0.,
          6.89655170e-003, 0., 0., 0., 0., 0., 0., 0., 0., 0., 0.,
          3.44827585e-003, 6.89655170e-003, 0., 0., 0., 0.,
          6.89655170e-003, 0., 0., 0., 0., 0., 0., 3.44827585e-003,
          6.89655170e-003, 6.89655170e-003, 3.44827585e-003, 0., 0., 0.,
          0., 0., 0., 1.03448275e-002, 0., 0., 0., 0., 6.89655170e-003,
          6.89655170e-003, 0., 3.44827585e-003, 3.44827585e-003, 0.,
          3.44827585e-003, 0., 0., 3.44827585e-003, 0., 0., 0., 0., 0.,
          3.44827585e-003, 0., 0., 0., 0., 0., 3.44827585e-003,
          3.44827585e-003, 0., 0., 0., 0., 3.44827585e-003,
          3.44827585e-003, 0., 0., 0., 6.89655170e-003, 0.,
          3.44827585e-003, 0., 3.44827585e-003, 0., 0., 0., 0., 0., 0.,
          0., 3.44827585e-003, 0., 3.44827585e-003, 0., 3.44827585e-003,
          0., 0., 0., 3.44827585e-003, 3.44827585e-003, 0., 0., 0., 0.,
          0., 0., 0., 6.89655170e-003, 3.44827585e-003, 0., 0., 0., 0.,
          6.89655170e-003, 0., 0., 0., 0., 0., 0., 3.44827585e-003, 0.,
          0., 0., 0., 0., 0., 1.72413792e-002, 0., 0., 0.,
          3.44827585e-003, 0., 0., 0., 3.44827585e-003, 0., 0., 0., 0.,
          0., 0., 0., 6.89655170e-003, 0., 0., 0., 0., 0., 0., 0.,
          3.44827585e-003, 0., 1.72413792e-002, 0., 0., 0., 0., 0., 0.,
          0., 0., 0., 0., 0., 0., 0., 0., 0., 0., 0., 0., 0., 0., 0.,
          1.03448275e-002, 0., 0., 0., 0., 0., 0., 0., 3.44827585e-003,
          0., 0., 0., 3.44827585e-003, 0., 3.44827585e-003, 0., 0., 0.,
          0., 0., 0., 0., 0., 0., 0., 0., 0., 0., 0., 6.89655170e-003,
          0., 0., 0., 3.44827585e-003, 0., 0., 0., 3.44827585e-003, 0.,
          0., 0., 0., 0., 3.44827585e-003, 0., 0., 0., 3.44827585e-003,
          0., 0., 0., 0., 0., 0., 0., 0., 0., 0., 3.44827585e-003,
          3.44827585e-003, 0., 0., 0., 0., 0., 3.44827585e-003,
          3.44827585e-003, 0., 0., 0., 0., 0., 0., 0., 0., 0., 0., 0.,
          0., 0., 3.44827585e-003, 0., 0., 0., 0., 3.44827585e-003, 0.,
          0., 0., 0., 3.44827585e-003, 0., 0., 3.44827585e-003, 0., 0.,
          0., 0., 3.44827585e-003, 0., 0., 0., 0., 0., 6.89655170e-003,
          0., 3.44827585e-003, 0. ]
      - [ 4.29184549e-003, 0., 8.58369097e-003, 0., 0., 0.,
          4.29184549e-003, 0., 0., 0., 0., 0., 0., 0., 8.58369097e-003,
          0., 0., 8.58369097e-003, 4.29184549e-003, 0., 0., 0., 0., 0.,
          8.58369097e-003, 8.58369097e-003, 0., 0., 0., 0., 0., 0., 0.,
          0., 0., 0., 4.29184549e-003, 0., 0., 4.29184549e-003,
          4.29184549e-003, 0., 0., 4.29184549e-003, 0., 0., 0., 0., 0.,
          0., 0., 0., 0., 0., 4.29184549e-003, 0., 1.28755365e-002,
          4.29184549e-003, 0., 0., 0., 0., 0., 0., 3.00429184e-002, 0.,
          0., 8.58369097e-003, 0., 0., 4.29184549e-003, 0., 0., 0.,
          8.58369097e-003, 0., 0., 0., 0., 4.29184549e-003, 0., 0., 0.,
          0., 0., 0., 4.29184549e-003, 4.29184549e-003, 0., 0., 0., 0.,
          4.29184549e-003, 0., 0., 0., 0., 4.29184549e-003, 0., 0., 0.,
          0., 4.29184549e-003, 0., 4.29184549e-003, 0., 0., 0., 0., 0.,
          0., 0., 0., 0., 0., 0., 0., 0., 0., 0., 4.29184549e-003, 0.,
          0., 0., 4.29184549e-003, 4.29184549e-003, 0., 0., 0., 0., 0.,
          0., 0., 1.28755365e-002, 0., 4.29184549e-003, 0., 0., 0., 0.,
          0., 0., 0., 0., 0., 0., 8.58369097e-003, 0., 0., 0., 0., 0.,
          0., 0., 0., 0., 0., 0., 0., 0., 0., 4.29184549e-003, 0., 0.,
          8.58369097e-003, 4.29184549e-003, 0., 0., 8.58369097e-003, 0.,
          4.29184549e-003, 0., 0., 0., 0., 0., 0., 0., 0.,
          4.29184549e-003, 0., 4.29184549e-003, 8.58369097e-003, 0.,
          4.29184549e-003, 0., 4.29184549e-003, 4.29184549e-003, 0., 0.,
          0., 0., 0., 0., 0., 0., 4.29184549e-003, 0., 0.,
          8.58369097e-003, 0., 0., 0., 4.29184549e-003, 0., 0., 0., 0.,
          0., 0., 0., 0., 0., 0., 0., 0., 0., 0., 0., 0.,
          4.29184549e-003, 0., 0., 0., 0., 0., 0., 0., 4.29184549e-003,
          8.58369097e-003, 0., 0., 0., 4.29184549e-003, 0.,
          8.58369097e-003, 0., 4.29184549e-003, 0., 0., 0.,
          4.29184549e-003, 0., 0., 0., 0., 0., 0., 0., 0.,
          4.29184549e-003, 0., 0., 0., 0., 0., 0., 0., 0.,
          8.58369097e-003, 0., 4.29184549e-003, 0., 0., 0., 0., 0., 0.,
          4.29184549e-003, 0., 0., 0., 0., 0., 0., 0., 0., 0., 0.,
          4.29184549e-003, 0., 0., 0., 0., 4.29184549e-003, 0., 0., 0.,
          0., 0., 0., 0., 4.29184549e-003, 0., 0., 0., 0., 0., 0., 0.,
          4.29184549e-003, 0., 0., 0., 0., 0., 0., 0., 0., 0., 0.,
          4.29184549e-003, 0., 0., 0., 0., 0., 0., 0., 0., 0., 0., 0.,
          0., 0., 0., 4.29184549e-003, 0., 4.29184549e-003, 0., 0., 0.,
          0., 0., 0., 0., 0., 0., 4.29184549e-003, 0., 0., 0., 0., 0.,
          4.29184549e-003, 8.58369097e-003, 0., 0., 0., 0., 0., 0., 0.,
          0., 0., 0., 0., 0., 0., 0., 0., 0., 0., 0., 0., 0.,
          8.58369097e-003, 4.29184549e-003, 4.29184549e-003, 0., 0.,
          4.29184549e-003, 0., 0., 0., 0., 0., 0., 4.29184549e-003, 0.,
          0., 0., 0., 0., 0., 0., 4.29184549e-003, 0., 4.29184549e-003,
          0., 4.29184549e-003, 0., 0., 4.29184549e-003, 0., 0., 0.,
          4.29184549e-003, 0., 0., 0., 0., 0., 0., 4.29184549e-003, 0.,
          0., 4.29184549e-003, 0., 0., 4.29184549e-003, 0., 0., 0., 0.,
          4.29184549e-003, 0., 0., 0., 4.29184549e-003, 0., 0., 0., 0.,
          0., 0., 0., 0., 0., 0., 4.29184549e-003, 0., 0.,
          4.29184549e-003, 0., 4.29184549e-003, 0., 0., 0.,
          4.29184549e-003, 4.29184549e-003, 0., 0., 0., 0., 0., 0., 0.,
          0., 0., 0., 4.29184549e-003, 0., 0., 0., 0., 0., 0., 0.,
          1.28755365e-002, 0., 0., 4.29184549e-003, 0., 4.29184549e-003,
          0., 0., 0., 1.71673819e-002, 0., 0., 4.29184549e-003, 0., 0.,
          0., 0., 4.29184549e-003, 8.58369097e-003, 0., 0., 0.,
          8.58369097e-003, 0., 0., 0., 0., 0., 0., 0., 0.,
          4.29184549e-003, 0., 0., 0., 0., 0., 0., 0., 0., 0., 0., 0.,
          0., 0., 0., 0., 0., 0., 0., 0., 0., 0., 0., 8.58369097e-003,
          0., 0., 0., 0., 0., 0., 0., 0., 0., 4.29184549e-003, 0., 0.,
          4.29184549e-003, 0., 0., 4.29184549e-003, 0., 0., 0., 0., 0.,
          0., 4.29184549e-003, 0., 0., 0., 0., 0., 0., 0., 0., 0., 0.,
          0., 0., 0., 0., 4.29184549e-003, 0., 0., 0., 0., 0., 0., 0.,
          8.58369097e-003, 0., 8.58369097e-003, 0., 0., 4.29184549e-003,
          0., 0., 0., 0., 0., 0., 0., 8.58369097e-003, 0., 0.,
          4.29184549e-003, 0., 0., 0., 0., 0., 0., 0., 4.29184549e-003,
          0., 4.29184549e-003, 0., 0., 0., 4.29184549e-003, 0.,
          8.58369097e-003, 0., 8.58369097e-003, 0., 0., 0., 0., 0., 0.,
          0., 0., 0., 0., 0., 0., 0., 0., 8.58369097e-003, 0., 0.,
          4.29184549e-003, 0., 0., 0., 0., 0., 0., 0., 0., 0., 0., 0.,
          0., 4.29184549e-003, 4.29184549e-003, 0., 0., 0., 0., 0., 0.,
          0., 0., 0., 0., 0., 8.58369097e-003, 0., 0., 0.,
          4.29184549e-003, 0., 0., 0., 0., 0., 0., 4.29184549e-003, 0.,
          0., 0., 0., 4.29184549e-003, 0., 0., 0., 0., 0., 0., 0., 0.,
          0., 0., 0., 0., 0., 0., 0., 0., 0., 0., 4.29184549e-003,
          4.29184549e-003, 0., 0., 0., 0., 0., 0., 0., 4.29184549e-003,
          0., 0., 4.29184549e-003, 0., 4.29184549e-003, 0., 0., 0., 0.,
          0., 4.29184549e-003, 0., 0., 0., 0., 0., 0., 0., 0., 0., 0.,
          0., 4.29184549e-003, 0., 0., 0., 4.29184549e-003, 0., 0., 0.,
          0., 8.58369097e-003, 0., 0., 4.29184549e-003, 0., 0., 0., 0.,
          4.29184549e-003, 0., 0., 0., 8.58369097e-003, 0., 0., 0., 0.,
          4.29184549e-003, 0., 0., 0., 0., 0., 0., 0., 0., 0., 0.,
          4.29184549e-003, 0., 0., 4.29184549e-003, 0., 0., 0., 0.,
          4.29184549e-003, 4.29184549e-003, 0., 0., 0., 0., 0., 0., 0.,
          8.58369097e-003, 0., 0., 0., 0., 0., 1.28755365e-002, 0., 0.,
          0., 0., 8.58369097e-003, 0., 0., 0., 0., 0., 0., 0., 0., 0.,
          0., 0., 0., 0., 0., 0., 8.58369097e-003, 4.29184549e-003, 0.,
          0., 0., 0., 4.29184549e-003, 0., 4.29184549e-003, 0., 0., 0.,
          4.29184549e-003, 0., 0., 0., 0., 0., 0., 0., 0., 0., 0., 0.,
          0., 0., 0., 0., 0., 0., 0., 0., 0., 0., 0., 0., 0., 0., 0.,
          8.58369097e-003, 0., 0., 0., 0., 0., 0., 0., 0., 0., 0.,
          4.29184549e-003, 0., 4.29184549e-003, 0., 0., 0., 0., 0., 0.,
          0., 0., 0., 0., 4.29184549e-003, 0., 4.29184549e-003, 0.,
          4.29184549e-003, 0., 0., 0., 4.29184549e-003, 0., 0., 0., 0.,
          0., 0., 0., 0., 0., 0., 0., 0., 0., 0., 0., 0., 0., 0., 0., 0.,
          0., 0., 8.58369097e-003, 0., 4.29184549e-003, 0.,
          4.29184549e-003, 0., 0., 0., 0., 0., 0., 0., 0.,
          8.58369097e-003, 0., 0., 0., 4.29184549e-003, 0., 0., 0.,
          4.29184549e-003, 0., 0., 0., 4.29184549e-003, 8.58369097e-003,
          4.29184549e-003, 0., 0., 0., 0., 0., 0., 0., 0., 0., 0., 0.,
          0., 0., 0., 0., 0., 0., 0., 4.29184549e-003, 0., 0., 0., 0.,
          0., 0., 0., 0., 4.29184549e-003, 4.29184549e-003, 0., 0., 0.,
          4.29184549e-003, 0., 0., 0., 0., 0., 0., 0., 0., 0., 0.,
          1.28755365e-002, 0., 0., 0., 0., 0., 0., 0., 0., 0., 0., 0.,
          0., 0., 0., 0., 0., 0., 4.29184549e-003, 0., 0., 0.,
          8.58369097e-003, 0., 0., 0., 0., 0., 0., 0., 0., 0.,
          8.58369097e-003, 0., 0., 0., 4.29184549e-003, 0., 0., 0., 0.,
          0., 0., 4.29184549e-003, 4.29184549e-003, 0., 0., 0.,
          1.28755365e-002, 0. ]
      - [ 0., 0., 1.22448970e-002, 0., 0., 0., 4.08163248e-003, 0., 0.,
          0., 0., 0., 0., 0., 8.16326495e-003, 0., 0., 8.16326495e-003,
          0., 0., 0., 0., 0., 0., 0., 0., 0., 0., 0., 0., 0., 0.,
          4.08163248e-003, 0., 0., 0., 0., 0., 0., 8.16326495e-003,
          4.08163248e-003, 0., 4.08163248e-003, 8.16326495e-003,
          4.08163248e-003, 0., 0., 0., 0., 0., 0., 0., 0., 0.,
          4.08163248e-003, 0., 0., 4.08163248e-003, 0., 0., 0., 0., 0.,
          0., 2.04081628e-002, 4.08163248e-003, 0., 0., 0., 0., 0., 0.,
          0., 0., 0., 0., 0., 4.08163248e-003, 0., 0., 4.08163248e-003,
          0., 4.08163248e-003, 0., 0., 0., 8.16326495e-003,
          4.08163248e-003, 0., 0., 4.08163248e-003, 0., 8.16326495e-003,
          0., 0., 0., 0., 4.08163248e-003, 0., 8.16326495e-003, 0., 0.,
          0., 0., 4.08163248e-003, 0., 0., 0., 0., 0., 4.08163248e-003,
          0., 0., 4.08163248e-003, 0., 0., 0., 0., 0., 4.08163248e-003,
          0., 0., 0., 0., 4.08163248e-003, 0., 0., 0., 0., 0., 0.,
          4.08163248e-003, 0., 4.08163248e-003, 0., 0., 4.08163248e-003,
          0., 0., 0., 0., 0., 1.22448970e-002, 4.08163248e-003, 0., 0.,
          4.08163248e-003, 8.16326495e-003, 0., 4.08163248e-003, 0., 0.,
          0., 0., 0., 0., 0., 0., 0., 0., 0., 0., 0., 4.08163248e-003,
          0., 8.16326495e-003, 0., 0., 4.08163248e-003, 0.,
          4.08163248e-003, 0., 0., 0., 0., 4.08163248e-003, 0., 0., 0.,
          0., 0., 0., 0., 0., 0., 0., 0., 4.08163248e-003, 0., 0., 0.,
          4.08163248e-003, 0., 4.08163248e-003, 0., 0., 0.,
          8.16326495e-003, 0., 1.22448970e-002, 0., 0., 0.,
          1.22448970e-002, 0., 0., 0., 0., 0., 0., 0., 0., 0., 0., 0.,
          0., 0., 0., 0., 0., 4.08163248e-003, 0., 0., 0., 0., 0., 0.,
          0., 4.08163248e-003, 2.44897939e-002, 0., 0., 0.,
          4.08163248e-003, 0., 8.16326495e-003, 4.08163248e-003,
          4.08163248e-003, 0., 0., 0., 0., 0., 0., 0., 0., 0., 0., 0.,
          0., 0., 0., 0., 0., 4.08163248e-003, 0., 0., 0., 0., 0., 0.,
          0., 0., 0., 4.08163248e-003, 0., 0., 0., 4.08163248e-003, 0.,
          0., 0., 0., 0., 0., 0., 0., 0., 0., 0., 0., 0.,
          4.08163248e-003, 0., 0., 4.08163248e-003, 0., 0., 0., 0., 0.,
          0., 0., 0., 4.08163248e-003, 0., 0., 0., 0., 0., 0., 0., 0.,
          0., 0., 0., 0., 0., 0., 0., 0., 0., 0., 0., 4.08163248e-003,
          0., 0., 4.08163248e-003, 0., 0., 8.16326495e-003, 0., 0., 0.,
          0., 0., 0., 4.08163248e-003, 1.22448970e-002, 0., 0., 0., 0.,
          0., 0., 0., 0., 0., 0., 0., 0., 0., 0., 0., 4.08163248e-003,
          0., 0., 0., 0., 4.08163248e-003, 0., 0., 0., 0., 0., 0., 0.,
          0., 0., 4.08163248e-003, 0., 0., 0., 0., 0., 0., 0.,
          4.08163248e-003, 4.08163248e-003, 0., 0., 0., 4.08163248e-003,
          4.08163248e-003, 0., 0., 0., 0., 0., 0., 0., 0., 0., 0.,
          1.22448970e-002, 0., 0., 0., 1.63265299e-002, 0., 0., 0., 0.,
          0., 0., 0., 0., 0., 0., 0., 0., 0., 4.08163248e-003,
          4.08163248e-003, 8.16326495e-003, 0., 0., 0., 4.08163248e-003,
          0., 4.08163248e-003, 0., 0., 0., 0., 8.16326495e-003, 0.,
          4.08163248e-003, 0., 8.16326495e-003, 0., 0., 0.,
          4.08163248e-003, 0., 0., 0., 4.08163248e-003, 0.,
          4.08163248e-003, 0., 0., 0., 4.08163248e-003, 0.,
          4.08163248e-003, 0., 0., 0., 0., 1.22448970e-002,
          4.08163248e-003, 0., 0., 0., 0., 0., 0., 0., 0., 0., 0., 0.,
          0., 0., 0., 0., 0., 0., 0., 0., 0., 0., 0., 8.16326495e-003,
          0., 4.08163248e-003, 0., 4.08163248e-003, 0., 0., 0., 0., 0.,
          0., 0., 0., 0., 0., 0., 0., 0., 0., 0., 0., 0., 0.,
          4.08163248e-003, 0., 0., 4.08163248e-003, 0., 0.,
          4.08163248e-003, 0., 0., 0., 0., 0., 0., 0., 0., 0., 0., 0.,
          4.08163248e-003, 0., 0., 0., 8.16326495e-003, 0.,
          4.08163248e-003, 0., 1.22448970e-002, 0., 0., 0., 0., 0., 0.,
          0., 0., 4.08163248e-003, 8.16326495e-003, 0., 4.08163248e-003,
          0., 0., 0., 8.16326495e-003, 0., 4.08163248e-003,
          4.08163248e-003, 0., 0., 0., 8.16326495e-003, 0., 0.,
          8.16326495e-003, 0., 0., 0., 0., 0., 0., 0., 0., 0., 0., 0.,
          4.08163248e-003, 0., 0., 0., 4.08163248e-003, 0., 0., 0.,
          4.08163248e-003, 0., 4.08163248e-003, 0., 0., 0., 0., 0., 0.,
          0., 0., 0., 0., 0., 4.08163248e-003, 0., 4.08163248e-003, 0.,
          4.08163248e-003, 0., 0., 0., 0., 0., 0., 0., 0., 0., 0., 0.,
          0., 0., 0., 0., 8.16326495e-003, 0., 4.08163248e-003,
          4.08163248e-003, 0., 0., 0., 0., 4.08163248e-003,
          4.08163248e-003, 0., 0., 0., 4.08163248e-003, 0., 0., 0., 0.,
          4.08163248e-003, 0., 0., 0., 0., 0., 0., 4.08163248e-003, 0.,
          0., 0., 0., 0., 8.16326495e-003, 4.08163248e-003, 0., 0.,
          4.08163248e-003, 0., 0., 0., 4.08163248e-003, 0., 0., 0., 0.,
          4.08163248e-003, 0., 0., 0., 0., 0., 0., 0., 0., 0., 0., 0.,
          0., 0., 0., 0., 0., 0., 0., 0., 0., 0., 0., 0., 0., 0., 0., 0.,
          0., 0., 0., 0., 4.08163248e-003, 0., 0., 4.08163248e-003,
          4.08163248e-003, 4.08163248e-003, 4.08163248e-003,
          4.08163248e-003, 0., 0., 0., 0., 0., 0., 0., 0., 0.,
          4.08163248e-003, 0., 4.08163248e-003, 4.08163248e-003, 0., 0.,
          4.08163248e-003, 0., 0., 0., 0., 0., 0., 0., 0., 0., 0., 0.,
          4.08163248e-003, 0., 0., 0., 0., 4.08163248e-003, 0., 0., 0.,
          0., 0., 0., 8.16326495e-003, 4.08163248e-003, 0., 0., 0., 0.,
          0., 0., 0., 0., 0., 0., 0., 0., 0., 0., 0., 0., 0., 0., 0., 0.,
          0., 0., 0., 0., 0., 0., 0., 0., 0., 0., 4.08163248e-003,
          4.08163248e-003, 4.08163248e-003, 8.16326495e-003, 0.,
          4.08163248e-003, 0., 0., 0., 0., 4.08163248e-003, 0.,
          4.08163248e-003, 0., 0., 0., 0., 0., 0., 0., 0., 0., 0., 0.,
          0., 0., 0., 0., 0., 0., 0., 0., 4.08163248e-003, 0., 0.,
          4.08163248e-003, 0., 4.08163248e-003, 4.08163248e-003, 0., 0.,
          0., 0., 0., 0., 4.08163248e-003, 0., 4.08163248e-003, 0.,
          4.08163248e-003, 0., 0., 8.16326495e-003, 0., 0., 0., 0., 0.,
          0., 0., 0., 0., 0., 4.08163248e-003, 0., 0., 0.,
          4.08163248e-003, 0., 0., 0., 0., 0., 0., 0., 0., 0., 0., 0.,
          0., 0., 0., 0., 0., 0., 0., 0., 0., 0., 0., 0., 0., 0., 0., 0.,
          0., 0., 0., 0., 0., 4.08163248e-003, 0., 8.16326495e-003, 0.,
          4.08163248e-003, 0., 0., 0., 8.16326495e-003, 4.08163248e-003,
          0., 0., 4.08163248e-003, 0., 0., 0., 4.08163248e-003, 0., 0.,
          4.08163248e-003, 0., 0., 0., 0., 0., 0., 0., 4.08163248e-003,
          0., 0., 0., 0., 0., 4.08163248e-003, 0., 8.16326495e-003,
          4.08163248e-003, 0., 4.08163248e-003, 0., 0., 0., 0., 0., 0.,
          0., 0., 0., 0., 0., 0., 4.08163248e-003, 0., 0., 0., 0.,
          4.08163248e-003, 0., 0., 0., 0., 0., 0., 0., 0., 0., 0., 0.,
          0., 0., 0., 0., 0., 0., 0., 0., 0., 0., 0., 0., 0., 0., 0., 0.,
          4.08163248e-003, 0., 0., 4.08163248e-003, 0., 4.08163248e-003,
          0., 0., 4.08163248e-003, 0., 0., 4.08163248e-003, 0., 0., 0.,
          0., 0., 0., 4.08163248e-003, 0., 0., 0., 0., 0., 0.,
          4.08163248e-003, 8.16326495e-003, 0., 0., 0., 0., 0., 0., 0.,
          0., 0., 4.08163248e-003, 0., 0., 4.08163248e-003, 0., 0., 0.,
          0., 0., 0., 0., 0., 0., 4.08163248e-003, 8.16326495e-003, 0.,
          0., 0., 0., 0., 0., 0., 0., 0., 0., 0., 0., 0., 0., 0.,
          4.08163248e-003, 0. ]
      - [ 0., 0., 4.60829493e-003, 0., 0., 0., 9.21658985e-003, 0., 0.,
          0., 0., 0., 0., 0., 1.38248848e-002, 0., 0., 9.21658985e-003,
          0., 0., 0., 0., 0., 0., 0., 4.60829493e-003, 0.,
          4.60829493e-003, 0., 0., 0., 0., 0., 0., 0., 0., 0., 0., 0.,
          9.21658985e-003, 0., 0., 4.60829493e-003, 4.60829493e-003, 0.,
          0., 0., 0., 0., 0., 0., 0., 0., 0., 0., 4.60829493e-003,
          4.60829493e-003, 0., 0., 0., 0., 0., 0., 0., 2.30414756e-002,
          0., 0., 0., 4.60829493e-003, 0., 0., 4.60829493e-003, 0., 0.,
          0., 4.60829493e-003, 0., 0., 0., 4.60829493e-003, 0., 0.,
          4.60829493e-003, 0., 0., 0., 9.21658985e-003, 4.60829493e-003,
          0., 0., 0., 0., 1.38248848e-002, 0., 0., 4.60829493e-003, 0.,
          0., 0., 4.60829493e-003, 0., 0., 0., 0., 0., 4.60829493e-003,
          0., 0., 0., 0., 4.60829493e-003, 0., 0., 0., 0., 0., 0., 0.,
          0., 4.60829493e-003, 0., 0., 0., 4.60829493e-003,
          9.21658985e-003, 4.60829493e-003, 0., 0., 0., 4.60829493e-003,
          0., 0., 0., 2.30414756e-002, 0., 0., 4.60829493e-003, 0., 0.,
          0., 0., 0., 4.60829493e-003, 4.60829493e-003, 0.,
          4.60829493e-003, 4.60829493e-003, 4.60829493e-003, 0.,
          4.60829493e-003, 0., 0., 0., 0., 0., 0., 0., 0., 0.,
          4.60829493e-003, 4.60829493e-003, 4.60829493e-003, 0., 0.,
          4.60829493e-003, 9.21658985e-003, 0., 0., 0., 0.,
          9.21658985e-003, 0., 0., 4.60829493e-003, 0., 0.,
          4.60829493e-003, 0., 0., 0., 4.60829493e-003, 4.60829493e-003,
          0., 0., 4.60829493e-003, 0., 0., 9.21658985e-003, 0., 0., 0.,
          4.60829493e-003, 0., 0., 4.60829493e-003, 0., 0., 0., 0.,
          9.21658985e-003, 0., 0., 0., 4.60829493e-003, 0., 0., 0., 0.,
          0., 0., 0., 0., 0., 0., 0., 0., 0., 0., 0., 0., 0., 0., 0., 0.,
          0., 0., 0., 0., 4.60829493e-003, 9.21658985e-003, 0., 0., 0.,
          0., 0., 9.21658985e-003, 0., 4.60829493e-003, 0., 0., 0., 0.,
          4.60829493e-003, 0., 0., 0., 0., 0., 0., 0., 0., 0., 0., 0.,
          0., 0., 0., 0., 0., 0., 0., 0., 0., 0., 0., 0., 0., 0.,
          9.21658985e-003, 0., 0., 0., 0., 0., 0., 0., 0., 0., 0.,
          4.60829493e-003, 0., 0., 4.60829493e-003, 0., 0., 0., 0., 0.,
          0., 0., 0., 0., 4.60829493e-003, 0., 0., 0., 0., 0., 0., 0.,
          0., 0., 0., 0., 0., 0., 0., 0., 4.60829493e-003, 0., 0.,
          4.60829493e-003, 0., 0., 0., 0., 0., 0., 0., 0., 0., 0., 0.,
          0., 0., 0., 0., 0., 0., 0., 0., 0., 4.60829493e-003, 0., 0.,
          0., 0., 0., 0., 0., 0., 0., 0., 0., 9.21658985e-003, 0., 0.,
          0., 0., 9.21658985e-003, 0., 0., 0., 0., 0., 0., 0., 0., 0.,
          0., 0., 0., 0., 0., 0., 0., 0., 4.60829493e-003,
          9.21658985e-003, 4.60829493e-003, 0., 4.60829493e-003, 0., 0.,
          0., 0., 0., 0., 0., 0., 0., 0., 0., 0., 0., 0.,
          4.60829493e-003, 4.60829493e-003, 4.60829493e-003,
          4.60829493e-003, 0., 0., 0., 0., 0., 0., 0., 0., 0., 0., 0.,
          0., 0., 0., 4.60829493e-003, 0., 0., 0., 0., 0., 0., 0., 0.,
          0., 0., 0., 0., 4.60829493e-003, 0., 0., 0., 0., 0.,
          4.60829493e-003, 0., 0., 4.60829493e-003, 0., 0.,
          4.60829493e-003, 9.21658985e-003, 0., 0., 0., 0.,
          4.60829493e-003, 0., 0., 4.60829493e-003, 0., 9.21658985e-003,
          0., 0., 0., 0., 0., 0., 0., 0., 0., 4.60829493e-003, 0., 0.,
          0., 0., 0., 0., 0., 0., 0., 0., 0., 0., 4.60829493e-003, 0.,
          0., 4.60829493e-003, 0., 9.21658985e-003, 0., 0.,
          4.60829493e-003, 0., 0., 0., 0., 0., 9.21658985e-003, 0., 0.,
          0., 9.21658985e-003, 0., 0., 0., 0., 0., 9.21658985e-003,
          4.60829493e-003, 0., 0., 0., 0., 0., 0., 0., 0., 0., 0., 0.,
          0., 0., 0., 0., 0., 0., 0., 0., 0., 4.60829493e-003, 0., 0.,
          0., 4.60829493e-003, 0., 0., 0., 0., 0., 0., 0.,
          4.60829493e-003, 0., 4.60829493e-003, 0., 0., 0.,
          4.60829493e-003, 0., 0., 0., 4.60829493e-003, 0., 0., 0., 0.,
          0., 0., 0., 0., 0., 0., 0., 0., 0., 0., 0., 0., 0., 0., 0., 0.,
          0., 0., 0., 0., 0., 0., 0., 4.60829493e-003, 0.,
          9.21658985e-003, 0., 0., 0., 0., 0., 4.60829493e-003, 0., 0.,
          0., 0., 0., 4.60829493e-003, 0., 1.38248848e-002, 0., 0., 0.,
          0., 0., 0., 0., 0., 0., 0., 0., 0., 0., 0., 0.,
          4.60829493e-003, 0., 0., 0., 0., 9.21658985e-003, 0.,
          4.60829493e-003, 9.21658985e-003, 0., 0., 0., 9.21658985e-003,
          0., 4.60829493e-003, 4.60829493e-003, 0., 0., 0., 0.,
          4.60829493e-003, 0., 0., 0., 0., 0., 0., 0., 0., 0., 0., 0.,
          0., 0., 4.60829493e-003, 0., 0., 0., 0., 0., 0., 0., 0., 0.,
          0., 0., 0., 0., 0., 0., 4.60829493e-003, 0., 0., 0., 0., 0.,
          0., 0., 4.60829493e-003, 0., 0., 0., 0., 0., 0., 0., 0., 0.,
          0., 0., 0., 0., 0., 0., 0., 0., 0., 0., 0., 0., 0.,
          4.60829493e-003, 0., 0., 0., 4.60829493e-003, 0., 0., 0., 0.,
          0., 0., 0., 0., 0., 0., 0., 0., 4.60829493e-003,
          4.60829493e-003, 0., 4.60829493e-003, 0., 0., 0., 0., 0., 0.,
          0., 0., 0., 0., 0., 4.60829493e-003, 0., 0., 0., 0.,
          9.21658985e-003, 4.60829493e-003, 0., 0., 0., 4.60829493e-003,
          0., 4.60829493e-003, 9.21658985e-003, 0., 0., 0., 0., 0., 0.,
          0., 0., 0., 0., 0., 0., 0., 0., 0., 0., 0., 0., 0.,
          4.60829493e-003, 0., 0., 0., 4.60829493e-003, 0., 0., 0., 0.,
          0., 0., 0., 0., 4.60829493e-003, 1.38248848e-002, 0., 0., 0.,
          0., 0., 0., 9.21658985e-003, 0., 0., 0., 0., 0., 0., 0., 0.,
          0., 0., 4.60829493e-003, 0., 0., 4.60829493e-003, 0., 0., 0.,
          0., 0., 4.60829493e-003, 0., 9.21658985e-003, 0., 0., 0.,
          4.60829493e-003, 9.21658985e-003, 0., 0., 0., 0., 0.,
          4.60829493e-003, 0., 0., 0., 4.60829493e-003, 0., 0., 0., 0.,
          4.60829493e-003, 0., 0., 0., 0., 0., 0., 0., 0., 0., 0., 0.,
          0., 0., 0., 0., 0., 0., 0., 0., 0., 0., 0., 4.60829493e-003,
          9.21658985e-003, 0., 0., 0., 0., 0., 0., 0., 0., 0., 0.,
          4.60829493e-003, 0., 0., 0., 0., 0., 0., 0., 0., 0., 0., 0.,
          0., 0., 0., 9.21658985e-003, 0., 9.21658985e-003, 0.,
          4.60829493e-003, 0., 4.60829493e-003, 0., 0., 0.,
          4.60829493e-003, 0., 0., 0., 0., 0., 0., 0., 0., 0., 0., 0.,
          0., 0., 0., 4.60829493e-003, 0., 0., 0., 0., 0.,
          4.60829493e-003, 0., 0., 0., 0., 0., 0., 4.60829493e-003, 0.,
          4.60829493e-003, 0., 4.60829493e-003, 4.60829493e-003, 0., 0.,
          0., 0., 0., 4.60829493e-003, 4.60829493e-003, 0., 0., 0.,
          4.60829493e-003, 0., 0., 0., 0., 0., 0., 0., 0., 0., 0., 0.,
          0., 0., 0., 0., 0., 0., 4.60829493e-003, 0., 0., 0., 0., 0.,
          0., 4.60829493e-003, 0., 0., 0., 0., 0., 4.60829493e-003, 0.,
          0., 0., 4.60829493e-003, 0., 0., 0., 0., 0., 0., 0., 0., 0.,
          0., 4.60829493e-003, 0., 0., 0., 0., 0., 0., 0.,
          9.21658985e-003, 0., 0., 0., 0., 0., 0., 0., 0., 0., 0., 0.,
          0., 4.60829493e-003, 0., 0., 0., 0., 0., 0., 0., 0.,
          4.60829493e-003, 0., 0., 0., 0., 0., 0., 0., 0., 0., 0., 0.,
          0., 4.60829493e-003, 4.60829493e-003, 0., 0., 0., 0., 0. ]
      - [ 0., 0., 2.02429146e-002, 0., 0., 0., 8.09716620e-003, 0., 0.,
          0., 0., 0., 0., 0., 8.09716620e-003, 0., 0., 0.,
          4.04858310e-003, 0., 0., 0., 0., 0., 0., 8.09716620e-003, 0.,
          0., 0., 0., 0., 0., 0., 4.04858310e-003, 0., 0., 0., 0., 0.,
          0., 0., 4.04858310e-003, 8.09716620e-003, 0., 0., 0., 0., 0.,
          0., 0., 0., 0., 0., 0., 0., 0., 0., 4.04858310e-003, 0., 0.,
          0., 0., 0., 0., 1.21457493e-002, 8.09716620e-003, 0.,
          8.09716620e-003, 0., 0., 4.04858310e-003, 0., 8.09716620e-003,
          0., 4.04858310e-003, 0., 4.04858310e-003, 4.04858310e-003,
          4.04858310e-003, 4.04858310e-003, 4.04858310e-003, 0.,
          4.04858310e-003, 0., 0., 0., 0., 4.04858310e-003, 0., 0.,
          4.04858310e-003, 0., 4.04858310e-003, 0., 0., 0., 0., 0., 0.,
          4.04858310e-003, 0., 0., 4.04858310e-003, 0., 0., 0., 0.,
          4.04858310e-003, 0., 0., 0., 0., 0., 0., 0., 0., 0., 0., 0.,
          4.04858310e-003, 0., 0., 0., 0., 8.09716620e-003, 0., 0., 0.,
          0., 4.04858310e-003, 0., 0., 0., 0., 0., 0., 0., 0.,
          4.04858310e-003, 0., 4.04858310e-003, 0., 0., 4.04858310e-003,
          0., 0., 0., 4.04858310e-003, 0., 0., 0., 0., 0., 0., 0., 0.,
          0., 0., 0., 0., 0., 0., 0., 0., 4.04858310e-003,
          4.04858310e-003, 0., 0., 4.04858310e-003, 0., 8.09716620e-003,
          0., 0., 0., 0., 4.04858310e-003, 0., 0., 0., 0., 0., 0.,
          4.04858310e-003, 0., 0., 4.04858310e-003, 0., 8.09716620e-003,
          0., 0., 0., 0., 0., 0., 0., 0., 0., 1.21457493e-002, 0.,
          4.04858310e-003, 0., 0., 0., 1.21457493e-002, 0., 0., 0., 0.,
          0., 0., 0., 0., 0., 0., 0., 0., 0., 4.04858310e-003, 0.,
          4.04858310e-003, 8.09716620e-003, 0., 0., 0., 0., 0., 0., 0.,
          0., 1.61943324e-002, 0., 0., 4.04858310e-003, 0., 0., 0., 0.,
          0., 0., 0., 0., 0., 0., 0., 4.04858310e-003, 0., 0.,
          4.04858310e-003, 0., 4.04858310e-003, 0., 0., 0., 0.,
          8.09716620e-003, 0., 0., 0., 0., 4.04858310e-003, 0., 0., 0.,
          4.04858310e-003, 0., 0., 0., 0., 4.04858310e-003, 0., 0., 0.,
          4.04858310e-003, 0., 0., 0., 0., 0., 0., 4.04858310e-003, 0.,
          0., 0., 0., 8.09716620e-003, 0., 0., 0., 4.04858310e-003,
          4.04858310e-003, 0., 0., 0., 0., 0., 0., 0., 0., 0., 0.,
          4.04858310e-003, 4.04858310e-003, 0., 0., 4.04858310e-003, 0.,
          0., 0., 4.04858310e-003, 0., 0., 0., 0., 0., 0., 0., 0., 0.,
          0., 0., 0., 0., 0., 0., 0., 0., 0., 0., 4.04858310e-003, 0.,
          0., 0., 0., 0., 0., 4.04858310e-003, 8.09716620e-003, 0., 0.,
          0., 0., 0., 0., 4.04858310e-003, 8.09716620e-003, 0., 0.,
          4.04858310e-003, 0., 4.04858310e-003, 0., 0., 0., 0., 0., 0.,
          0., 4.04858310e-003, 0., 4.04858310e-003, 0., 0., 0., 0., 0.,
          0., 0., 4.04858310e-003, 8.09716620e-003, 0., 0., 0.,
          4.04858310e-003, 0., 0., 0., 0., 0., 0., 0., 4.04858310e-003,
          0., 0., 0., 4.04858310e-003, 0., 4.04858310e-003, 0.,
          4.04858310e-003, 0., 0., 0., 0., 0., 0., 0., 0., 0., 0., 0.,
          0., 0., 0., 0., 0., 0., 0., 0., 0., 0., 4.04858310e-003, 0.,
          0., 0., 0., 0., 0., 4.04858310e-003, 0., 0., 0., 0., 0., 0.,
          0., 0., 0., 4.04858310e-003, 0., 0., 4.04858310e-003, 0., 0.,
          4.04858310e-003, 0., 0., 0., 0., 4.04858310e-003, 0.,
          4.04858310e-003, 4.04858310e-003, 0., 4.04858310e-003, 0., 0.,
          0., 0., 0., 0., 0., 0., 0., 0., 0., 0., 0., 0., 0.,
          8.09716620e-003, 0., 4.04858310e-003, 0., 0., 4.04858310e-003,
          0., 0., 0., 0., 0., 0., 0., 0., 0., 0., 0., 0., 0., 0., 0., 0.,
          0., 0., 0., 0., 0., 0., 0., 0., 0., 4.04858310e-003, 0., 0.,
          0., 0., 0., 0., 0., 0., 0., 0., 0., 0., 0., 0., 0., 0., 0., 0.,
          8.09716620e-003, 0., 0., 0., 1.21457493e-002, 0., 0., 0., 0.,
          4.04858310e-003, 0., 0., 0., 0., 8.09716620e-003, 0., 0., 0.,
          0., 4.04858310e-003, 0., 0., 0., 4.04858310e-003, 0., 0., 0.,
          0., 0., 4.04858310e-003, 4.04858310e-003, 0., 0., 0., 0., 0.,
          0., 0., 0., 0., 0., 0., 8.09716620e-003, 0., 0., 0.,
          4.04858310e-003, 0., 0., 0., 4.04858310e-003, 0.,
          4.04858310e-003, 0., 0., 8.09716620e-003, 0., 0., 0., 0., 0.,
          0., 0., 4.04858310e-003, 4.04858310e-003, 0., 4.04858310e-003,
          0., 0., 0., 0., 0., 0., 0., 4.04858310e-003, 0., 0., 0., 0.,
          0., 4.04858310e-003, 0., 8.09716620e-003, 0., 8.09716620e-003,
          4.04858310e-003, 4.04858310e-003, 0., 0., 0., 8.09716620e-003,
          0., 0., 0., 0., 0., 0., 8.09716620e-003, 0., 4.04858310e-003,
          0., 0., 8.09716620e-003, 0., 0., 0., 0., 0., 0.,
          4.04858310e-003, 0., 0., 0., 0., 0., 0., 4.04858310e-003, 0.,
          0., 0., 0., 0., 0., 0., 0., 0., 0., 0., 8.09716620e-003, 0.,
          0., 0., 0., 0., 0., 0., 0., 0., 0., 0., 4.04858310e-003,
          4.04858310e-003, 0., 0., 0., 0., 0., 0., 0., 4.04858310e-003,
          0., 0., 0., 0., 4.04858310e-003, 0., 0., 0., 0., 0., 0., 0.,
          0., 8.09716620e-003, 0., 0., 4.04858310e-003, 4.04858310e-003,
          0., 0., 0., 0., 0., 0., 0., 4.04858310e-003, 0., 0., 0., 0.,
          4.04858310e-003, 4.04858310e-003, 0., 4.04858310e-003, 0., 0.,
          0., 0., 0., 0., 0., 0., 0., 0., 0., 4.04858310e-003, 0., 0.,
          0., 0., 0., 0., 0., 0., 0., 4.04858310e-003, 0.,
          4.04858310e-003, 0., 0., 4.04858310e-003, 0., 0., 0., 0.,
          4.04858310e-003, 8.09716620e-003, 0., 0., 0., 0., 0., 0.,
          8.09716620e-003, 0., 0., 0., 0., 8.09716620e-003, 0., 0., 0.,
          8.09716620e-003, 0., 4.04858310e-003, 4.04858310e-003,
          4.04858310e-003, 0., 0., 8.09716620e-003, 8.09716620e-003,
          4.04858310e-003, 4.04858310e-003, 0., 0., 0., 0., 0., 0.,
          1.21457493e-002, 0., 0., 0., 0., 0., 0., 0., 0., 0., 0.,
          4.04858310e-003, 0., 0., 0., 0., 0., 0., 0., 0., 0., 0.,
          4.04858310e-003, 0., 0., 4.04858310e-003, 0., 4.04858310e-003,
          0., 0., 0., 0., 4.04858310e-003, 4.04858310e-003, 0., 0., 0.,
          0., 0., 4.04858310e-003, 0., 0., 8.09716620e-003, 0., 0., 0.,
          0., 0., 0., 0., 0., 0., 0., 0., 4.04858310e-003, 0., 0., 0.,
          0., 0., 0., 0., 0., 0., 0., 0., 8.09716620e-003,
          4.04858310e-003, 0., 0., 0., 4.04858310e-003, 0., 0., 0., 0.,
          0., 8.09716620e-003, 0., 0., 0., 0., 0., 0., 0., 0., 0., 0.,
          0., 0., 0., 0., 4.04858310e-003, 8.09716620e-003,
          4.04858310e-003, 0., 0., 0., 0., 0., 0., 0., 0., 0., 0., 0.,
          0., 0., 0., 0., 0., 0., 0., 0., 0., 0., 0., 4.04858310e-003,
          0., 0., 0., 0., 0., 0., 0., 0., 0., 0., 0., 0., 0., 0., 0., 0.,
          0., 0., 0., 0., 0., 0., 0., 0., 8.09716620e-003, 0., 0., 0.,
          4.04858310e-003, 0., 0., 0., 0., 0., 0., 0., 0., 0., 0., 0.,
          4.04858310e-003, 0., 0., 0., 0., 4.04858310e-003, 0., 0., 0.,
          0., 8.09716620e-003, 0., 0., 0., 0., 0., 0., 4.04858310e-003,
          0., 4.04858310e-003, 0., 0., 0., 4.04858310e-003, 0., 0., 0.,
          4.04858310e-003, 0., 0., 0., 0., 0., 4.04858310e-003, 0.,
          4.04858310e-003, 0., 0., 0., 0., 0., 0., 4.04858310e-003, 0.,
          0., 0., 0., 0., 0., 0., 0., 0., 4.04858310e-003, 0., 0., 0.,
          4.04858310e-003, 0., 0., 0., 0., 0., 0., 0., 4.04858310e-003,
          0., 4.04858310e-003, 0., 0., 4.04858310e-003, 0., 0., 0., 0.,
          0., 0., 0., 4.04858310e-003, 8.09716620e-003, 0., 0., 0.,
          4.04858310e-003, 0. ]
      - [ 6.34920644e-003, 0., 3.17460322e-003, 0., 0., 0.,
          3.17460322e-003, 3.17460336e-002, 0., 3.17460322e-003, 0., 0.,
          3.17460322e-003, 0., 6.34920644e-003, 3.17460322e-003, 0.,
          3.17460322e-003, 3.17460322e-003, 0., 0., 0., 0., 0., 0.,
          3.17460322e-003, 0., 0., 0., 0., 0., 0., 0., 0., 0., 0., 0.,
          0., 0., 3.17460322e-003, 3.17460322e-003, 0., 0., 0.,
          3.17460322e-003, 0., 0., 0., 0., 0., 0., 0., 0., 0., 0., 0.,
          0., 3.17460322e-003, 0., 0., 0., 0., 0., 0., 9.52380989e-003,
          0., 0., 0., 0., 0., 0., 0., 3.17460322e-003, 0., 0., 0., 0.,
          0., 0., 3.17460322e-003, 0., 0., 3.17460322e-003,
          3.17460322e-003, 0., 0., 0., 0., 0., 6.34920644e-003, 0., 0.,
          0., 0., 6.34920644e-003, 0., 3.17460322e-003, 6.34920644e-003,
          0., 0., 3.17460322e-003, 0., 3.17460322e-003, 0., 0., 0., 0.,
          3.17460322e-003, 3.17460322e-003, 0., 0., 0., 0., 0., 0., 0.,
          0., 0., 0., 3.17460322e-003, 3.17460322e-003, 0., 0., 0.,
          6.34920644e-003, 0., 0., 0., 0., 3.17460322e-003, 0., 0.,
          6.34920644e-003, 0., 0., 3.17460322e-003, 3.17460322e-003, 0.,
          0., 3.17460322e-003, 0., 0., 6.34920644e-003, 3.17460322e-003,
          0., 3.17460322e-003, 3.17460322e-003, 6.34920644e-003, 0.,
          3.17460322e-003, 0., 0., 0., 9.52380989e-003, 0., 0., 0., 0.,
          0., 0., 0., 0., 0., 0., 3.17460322e-003, 3.17460322e-003, 0.,
          0., 3.17460322e-003, 0., 3.17460322e-003, 0., 0., 0., 0., 0.,
          0., 0., 0., 3.17460322e-003, 0., 0., 9.52380989e-003, 0., 0.,
          0., 0., 3.17460322e-003, 0., 6.34920644e-003, 3.17460322e-003,
          0., 0., 0., 0., 0., 3.17460322e-003, 0., 0., 6.34920644e-003,
          0., 0., 0., 6.34920644e-003, 0., 0., 0., 0., 0.,
          3.17460322e-003, 0., 0., 0., 0., 0., 0., 0., 0., 0., 0., 0.,
          0., 0., 0., 0., 0., 0., 0., 0., 6.34920644e-003,
          3.17460322e-003, 0., 3.17460322e-003, 0., 6.34920644e-003,
          6.34920644e-003, 3.17460322e-003, 3.17460322e-003, 0., 0., 0.,
          0., 0., 0., 3.17460322e-003, 0., 0., 0., 0., 3.17460322e-003,
          0., 0., 0., 3.17460322e-003, 3.17460322e-003, 0., 0., 0., 0.,
          6.34920644e-003, 0., 0., 0., 0., 0., 0., 0., 0.,
          6.34920644e-003, 0., 0., 0., 3.17460322e-003, 0., 0.,
          3.17460322e-003, 0., 0., 0., 0., 0., 0., 6.34920644e-003, 0.,
          0., 3.17460322e-003, 0., 0., 0., 3.17460322e-003, 0.,
          6.34920644e-003, 0., 0., 0., 0., 0., 0., 0., 0.,
          3.17460322e-003, 1.26984129e-002, 0., 0., 3.17460322e-003,
          3.17460322e-003, 0., 0., 0., 0., 0., 1.26984129e-002, 0., 0.,
          0., 0., 3.17460322e-003, 0., 0., 0., 0., 0., 0., 0., 0.,
          3.17460322e-003, 0., 3.17460322e-003, 0., 0., 0., 0.,
          3.17460322e-003, 0., 0., 0., 0., 0., 3.17460322e-003, 0.,
          3.17460322e-003, 3.17460322e-003, 0., 3.17460322e-003, 0.,
          3.17460322e-003, 0., 0., 0., 3.17460322e-003, 0., 0., 0., 0.,
          3.17460322e-003, 0., 0., 3.17460322e-003, 0., 6.34920644e-003,
          0., 0., 3.17460322e-003, 0., 0., 0., 0., 3.17460322e-003, 0.,
          0., 0., 0., 6.34920644e-003, 3.17460322e-003, 0., 0., 0., 0.,
          0., 0., 0., 0., 0., 0., 0., 0., 3.17460322e-003,
          3.17460322e-003, 3.17460322e-003, 0., 0., 0., 0., 0.,
          6.34920644e-003, 0., 0., 0., 0., 0., 0., 0., 0., 0., 0., 0.,
          0., 3.17460322e-003, 0., 0., 0., 0., 0., 0., 3.17460322e-003,
          0., 0., 6.34920644e-003, 0., 3.17460322e-003, 0.,
          6.34920644e-003, 0., 3.17460322e-003, 0., 0., 3.17460322e-003,
          0., 0., 3.17460322e-003, 3.17460322e-003, 3.17460322e-003, 0.,
          3.17460322e-003, 0., 0., 0., 3.17460322e-003, 3.17460322e-003,
          0., 0., 3.17460322e-003, 0., 0., 0., 0., 0., 0., 0., 0., 0.,
          0., 0., 0., 0., 0., 0., 0., 0., 3.17460322e-003, 0., 0., 0.,
          3.17460322e-003, 6.34920644e-003, 0., 6.34920644e-003, 0., 0.,
          0., 0., 3.17460322e-003, 0., 0., 0., 0., 0., 3.17460322e-003,
          0., 0., 0., 0., 0., 0., 0., 0., 3.17460322e-003,
          3.17460322e-003, 0., 0., 3.17460322e-003, 0., 0., 0.,
          3.17460322e-003, 0., 0., 0., 0., 3.17460322e-003, 0., 0., 0.,
          0., 0., 0., 0., 0., 0., 3.17460322e-003, 0., 0., 0.,
          9.52380989e-003, 0., 0., 0., 0., 0., 0., 0., 0., 0.,
          3.17460322e-003, 0., 0., 0., 0., 3.17460322e-003, 0.,
          3.17460322e-003, 0., 0., 0., 0., 0., 0., 0., 0., 0., 0., 0.,
          0., 0., 0., 0., 0., 0., 0., 0., 0., 3.17460322e-003, 0., 0.,
          0., 0., 0., 0., 3.17460322e-003, 3.17460322e-003, 0.,
          3.17460322e-003, 0., 0., 6.34920644e-003, 0., 0., 0., 0., 0.,
          0., 6.34920644e-003, 3.17460322e-003, 3.17460322e-003, 0.,
          3.17460322e-003, 0., 0., 0., 0., 0., 0., 3.17460322e-003, 0.,
          0., 0., 0., 0., 0., 0., 0., 6.34920644e-003, 0., 0., 0.,
          3.17460322e-003, 6.34920644e-003, 0., 3.17460322e-003,
          3.17460322e-003, 0., 0., 3.17460322e-003, 3.17460322e-003, 0.,
          9.52380989e-003, 0., 0., 3.17460322e-003, 0., 0.,
          6.34920644e-003, 0., 0., 0., 3.80952395e-002, 0., 0., 0., 0.,
          0., 3.17460322e-003, 0., 0., 3.17460322e-003, 6.34920644e-003,
          0., 0., 3.17460322e-003, 0., 0., 0., 0., 0., 0., 0., 0.,
          3.17460322e-003, 0., 0., 0., 3.17460322e-003, 0., 0., 0., 0.,
          0., 0., 0., 0., 0., 0., 0., 3.17460322e-003, 0., 0., 0., 0.,
          0., 0., 0., 0., 0., 0., 0., 0., 0., 0., 0., 0.,
          3.17460322e-003, 0., 3.17460322e-003, 0., 0., 0., 0., 0., 0.,
          0., 0., 0., 0., 0., 0., 3.17460322e-003, 0., 0.,
          6.34920644e-003, 3.17460322e-003, 3.17460322e-003, 0.,
          3.17460322e-003, 0., 0., 0., 0., 0., 0., 0., 0., 0., 0., 0.,
          3.17460322e-003, 0., 0., 0., 0., 0., 3.17460322e-003, 0., 0.,
          3.17460322e-003, 3.17460322e-003, 0., 3.17460322e-003,
          3.17460322e-003, 0., 3.17460322e-003, 0., 6.34920644e-003, 0.,
          0., 3.17460322e-003, 0., 0., 3.17460322e-003, 0., 0., 0., 0.,
          0., 0., 0., 0., 0., 0., 0., 0., 0., 0., 0., 0., 0.,
          3.17460322e-003, 0., 0., 0., 3.17460322e-003, 3.17460322e-003,
          6.34920644e-003, 0., 0., 0., 3.17460322e-003, 0., 0.,
          6.34920644e-003, 0., 3.17460322e-003, 0., 0., 9.52380989e-003,
          3.17460322e-003, 0., 0., 3.17460322e-003, 0., 0., 0., 0., 0.,
          0., 0., 0., 0., 0., 0., 3.17460322e-003, 0., 0., 0.,
          3.17460322e-003, 0., 0., 0., 0., 0., 3.17460322e-003,
          3.17460322e-003, 3.17460322e-003, 0., 3.17460322e-003, 0.,
          6.34920644e-003, 0., 3.17460322e-003, 0., 3.17460322e-003, 0.,
          0., 0., 0., 0., 0., 6.34920644e-003, 3.17460322e-003, 0., 0.,
          0., 0., 0., 3.17460322e-003, 0., 3.17460322e-003, 0.,
          3.17460322e-003, 0., 0., 0., 0., 0., 0., 6.34920644e-003, 0.,
          0., 0., 0., 3.17460322e-003, 0., 0., 0., 0., 3.17460322e-003,
          3.17460322e-003, 0., 6.34920644e-003, 0., 0., 0., 0., 0., 0.,
          6.34920644e-003, 0., 0., 0., 0., 6.34920644e-003, 0., 0.,
          3.17460322e-003, 0., 3.17460322e-003, 0., 0., 0., 0., 0.,
          3.17460322e-003, 0., 0., 0., 0., 0., 0., 0., 0., 0., 0.,
          3.17460322e-003, 0., 0., 0., 3.17460322e-003, 0., 0., 0., 0.,
          0., 3.17460322e-003, 0., 0., 0., 0., 0., 0., 0., 0., 0., 0.,
          3.17460322e-003, 0., 0., 0., 0., 0., 0., 3.17460322e-003, 0.,
          0., 0., 0., 3.17460322e-003, 0., 3.17460322e-003, 0., 0., 0.,
          0., 0., 0., 0., 0., 0., 0., 0., 0., 0., 0., 0., 0., 0., 0.,
          3.17460322e-003, 0., 0., 0., 0., 0., 0., 0., 0., 0.,
          3.17460322e-003, 0., 3.17460322e-003, 0., 3.17460322e-003, 0.,
          0., 0., 0., 0., 3.17460322e-003, 0., 0., 0., 0., 0.,
          3.17460322e-003, 0., 3.17460322e-003, 0., 0., 0.,
          3.17460322e-003, 0., 0., 0., 0., 0., 0., 0., 0., 0., 0., 0.,
          0., 3.17460322e-003, 3.17460322e-003, 3.17460322e-003, 0.,
          6.34920644e-003, 0., 0., 0., 0., 0., 0., 0., 9.52380989e-003,
          0., 0., 0., 0., 0., 0., 0., 0., 0., 0., 0., 0., 0.,
          6.34920644e-003, 0., 0., 0. ]
      - [ 0., 0., 2.17391290e-002, 0., 0., 0., 0., 0., 0., 0., 0., 0.,
          0., 0., 4.34782589e-003, 0., 0., 8.69565178e-003,
          4.34782589e-003, 0., 0., 0., 0., 0., 0., 4.34782589e-003, 0.,
          8.69565178e-003, 0., 0., 0., 0., 4.34782589e-003, 0., 0., 0.,
          0., 4.34782589e-003, 0., 4.34782589e-003, 0., 0., 0., 0., 0.,
          0., 4.34782589e-003, 0., 0., 0., 0., 0., 0., 0., 0., 0., 0.,
          4.34782589e-003, 0., 0., 0., 0., 0., 0., 3.04347817e-002, 0.,
          0., 0., 0., 0., 0., 0., 0., 0., 4.34782589e-003, 0., 0.,
          4.34782589e-003, 4.34782589e-003, 8.69565178e-003, 0., 0., 0.,
          4.34782589e-003, 0., 0., 8.69565178e-003, 0., 0.,
          4.34782589e-003, 0., 0., 0., 0., 0., 0., 0., 0., 0.,
          1.73913036e-002, 0., 0., 4.34782589e-003, 0., 0., 0., 0.,
          4.34782589e-003, 0., 0., 0., 0., 0., 0., 0., 0., 0., 0., 0.,
          0., 4.34782589e-003, 0., 0., 0., 0., 4.34782589e-003, 0., 0.,
          0., 0., 0., 0., 0., 8.69565178e-003, 0., 0., 0., 0.,
          4.34782589e-003, 0., 0., 0., 0., 4.34782589e-003, 0., 0.,
          4.34782589e-003, 4.34782589e-003, 0., 4.34782589e-003, 0., 0.,
          0., 0., 0., 0., 0., 0., 0., 0., 4.34782589e-003, 0., 0., 0.,
          0., 4.34782589e-003, 0., 0., 4.34782589e-003, 0.,
          4.34782589e-003, 0., 0., 0., 0., 0., 0., 0., 0., 0., 0., 0.,
          4.34782589e-003, 0., 0., 0., 0., 4.34782589e-003, 0., 0.,
          4.34782589e-003, 0., 0., 0., 0., 4.34782589e-003, 0.,
          4.34782589e-003, 4.34782589e-003, 8.69565178e-003, 0., 0., 0.,
          1.30434781e-002, 0., 0., 0., 0., 0., 0., 0., 0., 0., 0.,
          4.34782589e-003, 0., 0., 0., 0., 0., 0., 0., 0., 0., 0., 0.,
          0., 0., 0., 8.69565178e-003, 0., 0., 0., 0., 0., 0., 0., 0.,
          0., 0., 0., 0., 0., 0., 4.34782589e-003, 0., 0.,
          4.34782589e-003, 0., 0., 0., 0., 4.34782589e-003, 0.,
          1.30434781e-002, 0., 0., 0., 0., 8.69565178e-003, 0., 0., 0.,
          0., 0., 0., 0., 0., 0., 0., 0., 0., 0., 0., 0., 0., 0., 0., 0.,
          4.34782589e-003, 0., 0., 4.34782589e-003, 0., 0.,
          4.34782589e-003, 0., 0., 0., 0., 0., 0., 8.69565178e-003,
          4.34782589e-003, 0., 0., 0., 0., 0., 4.34782589e-003,
          8.69565178e-003, 0., 0., 0., 0., 0., 0., 0., 0., 0., 0.,
          4.34782589e-003, 0., 4.34782589e-003, 0., 0., 0., 0., 0., 0.,
          0., 0., 0., 0., 0., 0., 0., 0., 0., 0., 0., 0.,
          8.69565178e-003, 0., 0., 0., 8.69565178e-003, 0.,
          4.34782589e-003, 4.34782589e-003, 4.34782589e-003, 0., 0., 0.,
          8.69565178e-003, 4.34782589e-003, 0., 4.34782589e-003, 0.,
          4.34782589e-003, 0., 0., 0., 0., 0., 0., 0., 0., 0.,
          4.34782589e-003, 0., 0., 0., 0., 0., 0., 0., 4.34782589e-003,
          4.34782589e-003, 0., 0., 0., 4.34782589e-003, 0., 0., 0.,
          4.34782589e-003, 0., 0., 0., 0., 0., 0., 0., 4.34782589e-003,
          0., 0., 0., 0., 0., 0., 0., 0., 0., 0., 0., 0., 0., 0., 0., 0.,
          0., 4.34782589e-003, 0., 0., 0., 0., 0., 0., 0.,
          4.34782589e-003, 0., 0., 0., 0., 0., 0., 4.34782589e-003, 0.,
          0., 0., 0., 0., 4.34782589e-003, 0., 0., 0., 0., 0., 0.,
          4.34782589e-003, 0., 0., 0., 0., 8.69565178e-003, 0., 0., 0.,
          4.34782589e-003, 0., 0., 0., 0., 0., 0., 0., 4.34782589e-003,
          0., 0., 0., 0., 0., 0., 0., 0., 0., 0., 0., 0., 0., 0., 0., 0.,
          8.69565178e-003, 0., 4.34782589e-003, 0., 0., 0., 0.,
          4.34782589e-003, 0., 0., 0., 0., 4.34782589e-003, 0., 0., 0.,
          0., 8.69565178e-003, 0., 0., 8.69565178e-003, 0., 0.,
          8.69565178e-003, 0., 0., 0., 0., 0., 0., 0., 0.,
          4.34782589e-003, 0., 8.69565178e-003, 0., 0., 0., 0., 0., 0.,
          0., 0., 0., 0., 4.34782589e-003, 0., 0., 4.34782589e-003,
          8.69565178e-003, 0., 0., 0., 0., 0., 0., 0., 0.,
          4.34782589e-003, 4.34782589e-003, 0., 0., 0., 8.69565178e-003,
          8.69565178e-003, 0., 0., 0., 0., 0., 0., 0., 0., 0., 0., 0.,
          0., 0., 0., 0., 0., 0., 0., 0., 0., 0., 0., 4.34782589e-003,
          0., 0., 0., 4.34782589e-003, 4.34782589e-003, 0., 0.,
          4.34782589e-003, 0., 0., 0., 0., 4.34782589e-003, 0., 0., 0.,
          0., 0., 0., 0., 0., 4.34782589e-003, 0., 8.69565178e-003, 0.,
          0., 0., 0., 0., 0., 0., 0., 0., 0., 0., 0., 0., 0., 0., 0., 0.,
          0., 0., 0., 4.34782589e-003, 0., 4.34782589e-003,
          4.34782589e-003, 0., 0., 0., 0., 0., 0., 0., 0., 0., 0., 0.,
          4.34782589e-003, 0., 0., 0., 0., 0., 0., 4.34782589e-003, 0.,
          0., 4.34782589e-003, 0., 0., 0., 4.34782589e-003, 0., 0.,
          4.34782589e-003, 0., 0., 0., 0., 0., 0., 4.34782589e-003, 0.,
          4.34782589e-003, 0., 0., 0., 4.34782589e-003, 0., 0., 0., 0.,
          0., 0., 0., 0., 4.34782589e-003, 0., 0., 4.34782589e-003, 0.,
          0., 0., 0., 0., 0., 0., 0., 0., 0., 0., 0., 0., 0., 0., 0., 0.,
          0., 4.34782589e-003, 4.34782589e-003, 4.34782589e-003, 0., 0.,
          4.34782589e-003, 0., 0., 0., 0., 0., 0., 0., 0., 0., 0., 0.,
          0., 4.34782589e-003, 0., 4.34782589e-003, 0., 0., 0., 0., 0.,
          0., 0., 0., 0., 0., 0., 0., 0., 0., 0., 0., 0., 0., 0., 0., 0.,
          0., 0., 4.34782589e-003, 0., 8.69565178e-003, 0., 0.,
          8.69565178e-003, 0., 0., 0., 0., 0., 0., 0., 0., 0., 0.,
          4.34782589e-003, 0., 0., 0., 4.34782589e-003, 8.69565178e-003,
          0., 0., 0., 0., 0., 0., 0., 0., 0., 0., 0., 8.69565178e-003,
          8.69565178e-003, 4.34782589e-003, 0., 4.34782589e-003, 0., 0.,
          0., 0., 0., 0., 0., 0., 0., 0., 0., 0., 4.34782589e-003,
          4.34782589e-003, 0., 8.69565178e-003, 0., 0., 4.34782589e-003,
          0., 0., 0., 0., 0., 0., 0., 0., 0., 0., 4.34782589e-003, 0.,
          0., 0., 0., 0., 0., 0., 0., 0., 4.34782589e-003, 0.,
          8.69565178e-003, 0., 4.34782589e-003, 0., 4.34782589e-003, 0.,
          0., 0., 0., 0., 0., 0., 4.34782589e-003, 0., 4.34782589e-003,
          0., 0., 8.69565178e-003, 0., 0., 0., 0., 0., 0., 0., 0., 0.,
          0., 0., 0., 0., 0., 0., 1.30434781e-002, 0., 0., 0., 0., 0.,
          0., 0., 0., 0., 0., 0., 0., 0., 0., 0., 0., 0., 0., 0.,
          8.69565178e-003, 0., 0., 4.34782589e-003, 4.34782589e-003, 0.,
          0., 0., 0., 0., 0., 0., 0., 0., 0., 0., 0., 0., 0.,
          4.34782589e-003, 0., 0., 0., 0., 0., 0., 0., 4.34782589e-003,
          0., 0., 0., 8.69565178e-003, 0., 0., 0., 0., 0., 0., 0., 0.,
          0., 0., 0., 0., 8.69565178e-003, 0., 0., 0., 0., 0., 0.,
          4.34782589e-003, 4.34782589e-003, 0., 0., 0., 4.34782589e-003,
          0., 0., 0., 0., 0., 0., 0., 0., 0., 0., 0., 4.34782589e-003,
          0., 0., 0., 0., 0., 0., 0., 0., 8.69565178e-003, 0., 0., 0.,
          0., 0., 0., 0., 0., 0., 0., 0., 0., 0., 4.34782589e-003, 0.,
          4.34782589e-003, 4.34782589e-003, 0., 0., 0., 0., 0., 0.,
          4.34782589e-003, 8.69565178e-003, 8.69565178e-003, 0., 0., 0.,
          0., 0., 0., 0., 0., 0., 0., 0., 0., 0., 0., 0., 0.,
          4.34782589e-003, 0., 0., 0., 0., 0., 0., 0., 0., 0., 0.,
          4.34782589e-003, 0., 0., 1.30434781e-002, 0., 0., 0., 0., 0.,
          0., 0., 0., 4.34782589e-003, 0., 0., 0., 0., 0., 0.,
          1.73913036e-002, 0. ]
      - [ 0., 0., 1.10701108e-002, 0., 0., 0., 0., 0., 0., 0., 0., 0.,
          0., 0., 1.10701108e-002, 0., 0., 3.69003695e-003,
          3.69003695e-003, 0., 0., 0., 0., 0., 3.69003695e-003,
          3.69003695e-003, 0., 3.69003695e-003, 0., 0., 0.,
          3.69003695e-003, 0., 0., 0., 0., 0., 0., 0., 7.38007389e-003,
          7.38007389e-003, 0., 0., 3.69003695e-003, 3.69003695e-003,
          3.69003695e-003, 3.69003695e-003, 3.69003695e-003, 0., 0., 0.,
          0., 0., 7.38007389e-003, 0., 0., 3.69003695e-003,
          3.69003695e-003, 0., 0., 0., 0., 0., 0., 4.42804433e-002, 0.,
          0., 0., 0., 0., 0., 0., 0., 0., 3.69003695e-003, 0., 0.,
          7.38007389e-003, 3.69003695e-003, 3.69003695e-003,
          3.69003695e-003, 0., 0., 0., 0., 0., 3.69003695e-003, 0., 0.,
          0., 0., 0., 1.47601478e-002, 0., 0., 0., 0., 3.69003695e-003,
          0., 0., 3.69003695e-003, 0., 0., 0., 0., 0., 0.,
          7.38007389e-003, 0., 0., 0., 0., 0., 0., 0., 0., 0., 0., 0.,
          3.69003695e-003, 0., 0., 0., 0., 7.38007389e-003, 0., 0., 0.,
          0., 7.38007389e-003, 0., 0., 0., 3.69003695e-003, 0., 0., 0.,
          0., 3.69003695e-003, 0., 0., 0., 0., 0., 0., 0.,
          3.69003695e-003, 0., 0., 0., 0., 0., 0., 0., 0., 0.,
          3.69003695e-003, 0., 0., 0., 3.69003695e-003, 0.,
          3.69003695e-003, 0., 0., 3.69003695e-003, 0., 0.,
          3.69003695e-003, 0., 3.69003695e-003, 3.69003695e-003, 0., 0.,
          0., 3.69003695e-003, 0., 0., 0., 0., 0., 1.10701108e-002, 0.,
          0., 0., 0., 0., 3.69003695e-003, 0., 3.69003695e-003, 0., 0.,
          0., 0., 0., 0., 0., 3.69003695e-003, 0., 7.38007389e-003, 0.,
          0., 0., 3.69003695e-003, 0., 0., 0., 0., 0., 0., 0., 0., 0.,
          0., 0., 0., 0., 0., 0., 0., 3.69003695e-003, 0., 0., 0., 0.,
          0., 0., 3.69003695e-003, 3.69003695e-003, 7.38007389e-003, 0.,
          0., 0., 0., 0., 0., 0., 0., 0., 0., 0., 0., 0., 0.,
          3.69003695e-003, 0., 0., 0., 0., 0., 0., 0., 0., 0.,
          3.69003695e-003, 0., 0., 0., 3.69003695e-003, 3.69003695e-003,
          0., 0., 0., 3.69003695e-003, 0., 0., 0., 0., 0., 0., 0., 0.,
          3.69003695e-003, 0., 0., 0., 0., 0., 0., 0., 0.,
          3.69003695e-003, 3.69003695e-003, 0., 0., 3.69003695e-003, 0.,
          0., 0., 0., 0., 7.38007389e-003, 7.38007389e-003, 0.,
          3.69003695e-003, 0., 0., 0., 0., 3.69003695e-003,
          3.69003695e-003, 0., 0., 0., 0., 0., 0., 0., 0., 0., 0.,
          3.69003695e-003, 0., 0., 3.69003695e-003, 0., 3.69003695e-003,
          0., 0., 0., 0., 0., 3.69003695e-003, 0., 0., 0., 0.,
          3.69003695e-003, 0., 0., 0., 0., 0., 0., 0., 0.,
          3.69003695e-003, 0., 3.69003695e-003, 3.69003695e-003, 0., 0.,
          0., 0., 3.69003695e-003, 3.69003695e-003, 0., 0., 0.,
          3.69003695e-003, 0., 0., 0., 0., 0., 0., 0., 0., 0.,
          3.69003695e-003, 0., 0., 0., 0., 0., 0., 0., 0.,
          3.69003695e-003, 0., 0., 0., 0., 0., 0., 0., 0., 0.,
          3.69003695e-003, 0., 0., 0., 0., 0., 0., 0., 0.,
          3.69003695e-003, 0., 0., 0., 0., 0., 0., 0., 0., 0., 0., 0.,
          0., 0., 0., 3.69003695e-003, 0., 0., 0., 0., 0., 0., 0.,
          3.69003695e-003, 0., 0., 0., 3.69003695e-003, 0., 0.,
          3.69003695e-003, 0., 0., 0., 3.69003695e-003, 0., 0.,
          3.69003695e-003, 0., 0., 3.69003695e-003, 0., 3.69003695e-003,
          7.38007389e-003, 0., 0., 0., 0., 3.69003695e-003, 0., 0., 0.,
          0., 7.38007389e-003, 0., 0., 0., 0., 0., 0., 0., 0., 0., 0.,
          0., 0., 0., 0., 0., 0., 0., 0., 0., 0., 0., 0., 0.,
          7.38007389e-003, 3.69003695e-003, 0., 0., 0., 3.69003695e-003,
          0., 0., 0., 0., 0., 0., 3.69003695e-003, 0., 0., 0., 0.,
          3.69003695e-003, 0., 0., 3.69003695e-003, 0., 0., 0., 0., 0.,
          3.69003695e-003, 0., 0., 0., 0., 0., 0., 0., 0.,
          3.69003695e-003, 0., 0., 0., 0., 0., 0., 0., 0., 0.,
          7.38007389e-003, 0., 0., 0., 3.69003695e-003, 0., 0., 0., 0.,
          0., 0., 0., 0., 0., 7.38007389e-003, 0., 0., 0.,
          7.38007389e-003, 0., 3.69003695e-003, 0., 3.69003695e-003, 0.,
          0., 0., 0., 0., 0., 0., 0., 0., 0., 0., 0., 0., 0., 0., 0., 0.,
          0., 0., 7.38007389e-003, 0., 0., 0., 0., 3.69003695e-003, 0.,
          0., 3.69003695e-003, 0., 0., 0., 0., 7.38007389e-003, 0., 0.,
          0., 0., 0., 0., 1.10701108e-002, 0., 3.69003695e-003, 0., 0.,
          0., 3.69003695e-003, 0., 0., 0., 0., 0., 0., 0., 0., 0., 0.,
          0., 3.69003695e-003, 0., 7.38007389e-003, 0., 7.38007389e-003,
          0., 0., 3.69003695e-003, 3.69003695e-003, 0., 0., 0.,
          3.69003695e-003, 0., 1.10701108e-002, 3.69003695e-003, 0., 0.,
          0., 3.69003695e-003, 0., 0., 3.69003695e-003, 0., 0., 0.,
          3.69003695e-003, 0., 0., 0., 0., 0., 0., 0., 0.,
          3.69003695e-003, 3.69003695e-003, 3.69003695e-003, 0.,
          3.69003695e-003, 0., 0., 0., 3.69003695e-003, 0., 0., 0., 0.,
          0., 0., 0., 0., 0., 0., 3.69003695e-003, 0., 0., 0., 0., 0.,
          0., 0., 0., 0., 7.38007389e-003, 0., 0., 0., 0., 0., 0., 0.,
          0., 0., 0., 0., 0., 0., 0., 0., 0., 0., 0., 3.69003695e-003,
          7.38007389e-003, 3.69003695e-003, 0., 0., 0., 0., 0., 0., 0.,
          0., 0., 0., 0., 0., 0., 0., 3.69003695e-003, 3.69003695e-003,
          0., 3.69003695e-003, 0., 0., 0., 0., 0., 0., 0., 0., 0., 0.,
          0., 3.69003695e-003, 0., 0., 0., 0., 0., 0., 0., 0., 0., 0.,
          0., 1.10701108e-002, 7.38007389e-003, 3.69003695e-003, 0., 0.,
          3.69003695e-003, 0., 0., 0., 3.69003695e-003, 0., 0.,
          3.69003695e-003, 0., 0., 3.69003695e-003, 0., 0., 0., 0., 0.,
          0., 0., 0., 0., 7.38007389e-003, 0., 0., 3.69003695e-003, 0.,
          0., 0., 0., 0., 3.69003695e-003, 0., 0., 0., 0., 0., 0., 0.,
          3.69003695e-003, 0., 7.38007389e-003, 0., 0., 3.69003695e-003,
          0., 0., 0., 0., 0., 7.38007389e-003, 0., 0., 0., 0., 0., 0.,
          0., 0., 3.69003695e-003, 7.38007389e-003, 3.69003695e-003, 0.,
          0., 7.38007389e-003, 0., 7.38007389e-003, 0., 0., 0., 0., 0.,
          0., 0., 0., 0., 3.69003695e-003, 0., 3.69003695e-003, 0.,
          7.38007389e-003, 0., 0., 0., 0., 0., 0., 0., 0., 0., 0., 0.,
          0., 0., 0., 0., 0., 0., 0., 0., 0., 0., 0., 0.,
          3.69003695e-003, 7.38007389e-003, 0., 0., 0., 3.69003695e-003,
          0., 3.69003695e-003, 0., 0., 0., 0., 3.69003695e-003, 0., 0.,
          0., 0., 0., 0., 0., 0., 1.47601478e-002, 0., 0., 0.,
          1.47601478e-002, 0., 3.69003695e-003, 3.69003695e-003,
          7.38007389e-003, 0., 0., 0., 0., 0., 0., 0., 3.69003695e-003,
          0., 0., 0., 0., 0., 0., 0., 0., 0., 0., 0., 0., 0., 0.,
          7.38007389e-003, 0., 0., 0., 3.69003695e-003, 0., 0., 0., 0.,
          3.69003695e-003, 0., 0., 0., 0., 0., 0., 0., 1.10701108e-002,
          0., 0., 0., 0., 0., 0., 3.69003695e-003, 0., 0., 0., 0.,
          3.69003695e-003, 3.69003695e-003, 0., 0., 0., 0., 0., 0., 0.,
          0., 0., 7.38007389e-003, 0., 0., 0., 0., 0., 0., 0., 0., 0.,
          1.47601478e-002, 3.69003695e-003, 0., 0., 0., 0., 0., 0.,
          3.69003695e-003, 0., 3.69003695e-003, 0., 0., 0.,
          3.69003695e-003, 0., 0., 3.69003695e-003, 0., 0., 0., 0., 0.,
          0., 3.69003695e-003, 3.69003695e-003, 0., 0., 0., 0., 0., 0.,
          0., 0., 0., 0., 3.69003695e-003, 0., 0., 0., 0., 0., 0., 0.,
          0., 0., 0., 0., 0., 3.69003695e-003, 0., 0., 0., 0.,
          3.69003695e-003, 0., 0., 7.38007389e-003, 0., 0., 0., 0., 0.,
          0., 0., 0., 0., 0., 3.69003695e-003, 3.69003695e-003, 0., 0.,
          0., 1.47601478e-002, 0. ]
      - [ 0., 0., 1.07913669e-002, 0., 0., 0., 7.19424477e-003, 0., 0.,
          0., 0., 0., 0., 0., 7.19424477e-003, 0., 0., 7.19424477e-003,
          3.59712238e-003, 0., 0., 0., 0., 0., 0., 3.59712238e-003, 0.,
          0., 0., 0., 0., 0., 0., 0., 0., 3.59712238e-003, 0., 0., 0.,
          7.19424477e-003, 0., 3.59712238e-003, 0., 7.19424477e-003, 0.,
          0., 3.59712238e-003, 0., 0., 0., 3.59712238e-003, 0., 0., 0.,
          0., 0., 2.15827338e-002, 7.19424477e-003, 0., 0., 0., 0., 0.,
          0., 1.79856122e-002, 0., 0., 3.59712238e-003, 3.59712238e-003,
          0., 3.59712238e-003, 0., 3.59712238e-003, 0., 7.19424477e-003,
          0., 3.59712238e-003, 0., 0., 0., 0., 0., 3.59712238e-003, 0.,
          0., 0., 3.59712238e-003, 1.07913669e-002, 0., 0., 0., 0.,
          1.07913669e-002, 0., 0., 0., 0., 3.59712238e-003, 0., 0.,
          3.59712238e-003, 0., 3.59712238e-003, 0., 0., 0., 0., 0., 0.,
          0., 3.59712238e-003, 0., 0., 0., 0., 0., 0., 0., 0.,
          7.19424477e-003, 0., 0., 3.59712238e-003, 0., 3.59712238e-003,
          0., 0., 3.59712238e-003, 0., 3.59712238e-003, 0., 0., 0.,
          3.59712238e-003, 3.59712238e-003, 0., 0., 0., 7.19424477e-003,
          0., 0., 0., 0., 0., 0., 0., 0., 1.07913669e-002, 0.,
          3.59712238e-003, 0., 0., 0., 0., 0., 0., 0., 0., 0., 0., 0.,
          0., 0., 0., 3.59712238e-003, 3.59712238e-003, 0., 0., 0., 0.,
          7.19424477e-003, 0., 0., 0., 3.59712238e-003, 0.,
          3.59712238e-003, 0., 0., 0., 3.59712238e-003, 0.,
          3.59712238e-003, 0., 3.59712238e-003, 0., 3.59712238e-003,
          3.59712238e-003, 0., 0., 0., 0., 0., 0., 0., 0.,
          3.59712238e-003, 3.59712238e-003, 0., 7.19424477e-003, 0., 0.,
          0., 7.19424477e-003, 0., 0., 0., 0., 0., 0., 0., 0., 0., 0.,
          0., 0., 0., 0., 3.59712238e-003, 0., 0., 0., 0., 0., 0., 0.,
          0., 0., 0., 3.59712238e-003, 3.59712238e-003, 0., 0., 0., 0.,
          3.59712238e-003, 0., 0., 0., 0., 0., 0., 0., 0.,
          3.59712238e-003, 0., 0., 0., 0., 0., 0., 0., 3.59712238e-003,
          3.59712238e-003, 3.59712238e-003, 0., 0., 0., 1.07913669e-002,
          7.19424477e-003, 3.59712238e-003, 0., 0., 3.59712238e-003, 0.,
          0., 0., 0., 0., 0., 0., 0., 3.59712238e-003, 0., 0., 0., 0.,
          0., 0., 0., 0., 0., 0., 0., 0., 3.59712238e-003, 0., 0., 0.,
          0., 0., 0., 0., 0., 0., 0., 0., 0., 0., 0., 3.59712238e-003,
          7.19424477e-003, 0., 0., 3.59712238e-003, 0., 0., 0., 0., 0.,
          0., 3.59712238e-003, 0., 7.19424477e-003, 3.59712238e-003, 0.,
          0., 0., 0., 0., 0., 0., 0., 0., 0., 0., 0., 3.59712238e-003,
          3.59712238e-003, 0., 0., 0., 0., 0., 3.59712238e-003, 0.,
          3.59712238e-003, 0., 0., 7.19424477e-003, 0., 0., 0., 0., 0.,
          0., 0., 0., 0., 3.59712238e-003, 0., 0., 3.59712238e-003, 0.,
          0., 0., 0., 0., 0., 0., 0., 0., 0., 0., 0., 0.,
          3.59712238e-003, 3.59712238e-003, 3.59712238e-003, 0., 0., 0.,
          0., 3.59712238e-003, 0., 0., 3.59712238e-003, 0., 0., 0., 0.,
          0., 0., 0., 3.59712238e-003, 0., 3.59712238e-003, 0.,
          3.59712238e-003, 0., 0., 0., 3.59712238e-003, 0.,
          3.59712238e-003, 0., 0., 0., 0., 0., 0., 0., 0.,
          3.59712238e-003, 3.59712238e-003, 0., 0., 0., 0., 0.,
          3.59712238e-003, 0., 0., 0., 0., 0., 0., 3.59712238e-003, 0.,
          0., 0., 3.59712238e-003, 0., 0., 0., 0., 0., 3.59712238e-003,
          0., 0., 3.59712238e-003, 0., 0., 0., 0., 7.19424477e-003, 0.,
          0., 3.59712238e-003, 0., 0., 0., 0., 0., 0., 0., 0., 0., 0.,
          0., 0., 0., 0., 0., 0., 0., 0., 0., 0., 0., 0., 0., 0.,
          7.19424477e-003, 7.19424477e-003, 0., 0., 0., 3.59712238e-003,
          3.59712238e-003, 0., 0., 0., 0., 0., 0., 0., 0., 0., 0., 0.,
          0., 0., 0., 3.59712238e-003, 0., 0., 0., 0., 0., 0.,
          1.79856122e-002, 0., 0., 0., 0., 0., 0., 0., 0., 0., 0., 0.,
          0., 0., 0., 0., 0., 0., 0., 0., 3.59712238e-003, 0.,
          7.19424477e-003, 0., 3.59712238e-003, 0., 0., 0., 0., 0.,
          7.19424477e-003, 0., 7.19424477e-003, 0., 0., 0.,
          3.59712238e-003, 0., 0., 0., 3.59712238e-003, 0., 0., 0.,
          3.59712238e-003, 0., 0., 0., 7.19424477e-003, 0., 0., 0., 0.,
          0., 0., 0., 0., 0., 0., 0., 3.59712238e-003, 0., 0., 0.,
          3.59712238e-003, 3.59712238e-003, 0., 0., 3.59712238e-003, 0.,
          0., 0., 0., 3.59712238e-003, 0., 0., 3.59712238e-003, 0., 0.,
          0., 0., 0., 3.59712238e-003, 0., 0., 0., 3.59712238e-003, 0.,
          0., 0., 0., 0., 0., 0., 0., 0., 0., 0., 0., 0.,
          7.19424477e-003, 0., 7.19424477e-003, 0., 3.59712238e-003,
          3.59712238e-003, 0., 3.59712238e-003, 0., 0., 0., 0.,
          7.19424477e-003, 0., 0., 3.59712238e-003, 0., 3.59712238e-003,
          0., 0., 7.19424477e-003, 0., 0., 0., 0., 0., 0.,
          3.59712238e-003, 0., 0., 3.59712238e-003, 0., 0.,
          3.59712238e-003, 3.59712238e-003, 0., 0., 0., 0., 0., 0.,
          7.19424477e-003, 0., 0., 3.59712238e-003, 0., 0.,
          3.59712238e-003, 3.59712238e-003, 0., 7.19424477e-003, 0., 0.,
          0., 0., 0., 0., 3.59712238e-003, 0., 0., 0., 0.,
          3.59712238e-003, 0., 0., 0., 0., 0., 0., 0., 0., 0., 0., 0.,
          0., 0., 0., 0., 0., 0., 0., 3.59712238e-003, 3.59712238e-003,
          3.59712238e-003, 0., 3.59712238e-003, 0., 0., 0., 0., 0., 0.,
          0., 7.19424477e-003, 0., 0., 0., 3.59712238e-003,
          3.59712238e-003, 0., 0., 3.59712238e-003, 0., 0., 0., 0., 0.,
          0., 0., 0., 0., 0., 0., 7.19424477e-003, 0., 0., 0., 0., 0.,
          0., 0., 0., 0., 3.59712238e-003, 0., 0., 7.19424477e-003,
          7.19424477e-003, 3.59712238e-003, 0., 7.19424477e-003, 0., 0.,
          0., 0., 0., 0., 0., 0., 0., 0., 3.59712238e-003, 0., 0., 0.,
          0., 0., 0., 0., 0., 7.19424477e-003, 0., 0., 0., 0., 0., 0.,
          0., 3.59712238e-003, 7.19424477e-003, 0., 0., 0., 0., 0., 0.,
          0., 7.19424477e-003, 0., 3.59712238e-003, 0., 0.,
          3.59712238e-003, 3.59712238e-003, 0., 0., 3.59712238e-003, 0.,
          3.59712238e-003, 0., 0., 0., 0., 0., 0., 0., 0.,
          7.19424477e-003, 3.59712238e-003, 3.59712238e-003, 0.,
          3.59712238e-003, 0., 0., 7.19424477e-003, 0., 0., 0., 0., 0.,
          0., 0., 0., 0., 0., 0., 3.59712238e-003, 0., 3.59712238e-003,
          3.59712238e-003, 0., 0., 0., 0., 0., 0., 0., 0., 0., 0., 0.,
          3.59712238e-003, 0., 0., 0., 0., 0., 0., 0., 0., 0., 0., 0.,
          0., 0., 0., 0., 0., 0., 0., 0., 0., 0., 0., 3.59712238e-003,
          0., 1.07913669e-002, 0., 3.59712238e-003, 0., 0., 0., 0., 0.,
          0., 0., 0., 3.59712238e-003, 0., 3.59712238e-003, 0.,
          7.19424477e-003, 0., 0., 0., 0., 0., 0., 0., 3.59712238e-003,
          0., 0., 0., 0., 0., 0., 3.59712238e-003, 0., 0., 0.,
          3.59712238e-003, 0., 0., 0., 0., 0., 0., 0., 0., 0., 0., 0.,
          0., 3.59712238e-003, 0., 0., 0., 0., 0., 0., 0.,
          1.07913669e-002, 0., 0., 0., 0., 0., 0., 0., 0., 0., 0., 0.,
          0., 0., 0., 0., 3.59712238e-003, 0., 0., 0., 0., 0., 0., 0.,
          3.59712238e-003, 0., 0., 0., 0., 3.59712238e-003, 0., 0.,
          3.59712238e-003, 3.59712238e-003, 0., 0., 0., 0., 0., 0.,
          7.19424477e-003, 0., 0., 3.59712238e-003, 0., 7.19424477e-003,
          0., 3.59712238e-003, 0., 0., 3.59712238e-003, 3.59712238e-003,
          0., 0., 0., 0., 0., 3.59712238e-003, 7.19424477e-003, 0., 0.,
          0., 0., 0., 0., 7.19424477e-003, 0., 0., 0., 0., 0., 0., 0.,
          0., 0., 0., 3.59712238e-003, 3.59712238e-003, 0., 0., 0., 0.,
          0., 0., 0., 0., 0., 0., 0., 0., 3.59712238e-003, 0., 0., 0.,
          0., 0., 0., 0., 3.59712238e-003, 0., 0., 1.07913669e-002, 0.,
          0., 0., 0., 0., 0. ]
      - [ 0., 0., 9.09090880e-003, 0., 0., 0., 4.54545440e-003, 0., 0.,
          0., 0., 0., 4.54545440e-003, 0., 1.36363637e-002, 0., 0.,
          4.54545440e-003, 4.54545440e-003, 0., 0., 0., 0., 0., 0.,
          4.54545440e-003, 0., 4.54545440e-003, 0., 0., 0., 0., 0., 0.,
          0., 0., 0., 0., 0., 1.36363637e-002, 4.54545440e-003, 0., 0.,
          4.54545440e-003, 1.36363637e-002, 0., 0., 1.36363637e-002, 0.,
          0., 0., 0., 0., 4.54545440e-003, 0., 0., 0., 4.54545440e-003,
          0., 0., 0., 0., 0., 0., 3.63636352e-002, 0., 0.,
          4.54545440e-003, 0., 0., 9.09090880e-003, 0., 9.09090880e-003,
          0., 4.54545440e-003, 0., 0., 4.54545440e-003, 0., 0., 0., 0.,
          9.09090880e-003, 0., 0., 0., 0., 4.54545440e-003, 0., 0., 0.,
          0., 4.54545440e-003, 0., 0., 0., 0., 4.54545440e-003, 0.,
          4.54545440e-003, 0., 0., 4.54545440e-003, 0., 0., 0., 0., 0.,
          0., 0., 0., 0., 0., 0., 0., 0., 0., 0., 0., 4.54545440e-003,
          0., 0., 9.09090880e-003, 0., 9.09090880e-003, 0., 0.,
          4.54545440e-003, 0., 4.54545440e-003, 0., 4.54545440e-003, 0.,
          4.54545440e-003, 0., 0., 0., 0., 0., 4.54545440e-003, 0.,
