%YAML:1.0
my_svm: !!opencv-ml-svm
   svm_type: C_SVC
   kernel: { type:RBF, gamma:1. }
   C: 1.
   term_criteria: { epsilon:1.1920928955078125e-007, iterations:1000 }
   var_all: 1000
   var_count: 1000
   class_count: 2
   class_labels: !!opencv-matrix
      rows: 1
      cols: 2
      dt: i
      data: [ 0, 1 ]
   sv_total: 102
   support_vectors:
      - [ 0., 0., 0., 0., 7.57575780e-003, 0., 7.57575780e-003,
          3.78787890e-003, 0., 0., 0., 0., 0., 0., 0., 0., 0., 0., 0.,
          0., 3.78787890e-003, 0., 3.78787890e-003, 3.78787890e-003, 0.,
          0., 3.78787890e-003, 3.78787890e-003, 7.57575780e-003, 0., 0.,
          0., 0., 7.57575780e-003, 0., 0., 0., 0., 0., 0., 0., 0.,
          3.78787890e-003, 0., 0., 0., 0., 0., 0., 3.78787890e-003,
          3.78787890e-003, 0., 3.78787890e-003, 0., 0., 0., 0.,
          7.57575780e-003, 0., 0., 0., 1.13636367e-002, 0., 0., 0., 0.,
          0., 0., 0., 0., 0., 3.78787890e-003, 0., 0., 0., 0., 0., 0.,
          0., 3.78787890e-003, 3.78787890e-003, 0., 0., 7.57575780e-003,
          0., 0., 0., 0., 0., 0., 0., 3.78787890e-003, 0., 0., 0., 0.,
          0., 0., 0., 7.57575780e-003, 0., 0., 0., 0., 3.78787890e-003,
          0., 0., 0., 3.78787890e-003, 0., 0., 1.89393945e-002, 0.,
          7.57575780e-003, 0., 0., 0., 3.78787890e-003, 0., 0., 0., 0.,
          0., 0., 0., 0., 0., 0., 1.13636367e-002, 3.78787890e-003,
          3.78787890e-003, 3.78787890e-003, 0., 0., 0., 0.,
          3.78787890e-003, 0., 3.78787890e-003, 0., 0., 0., 0., 0., 0.,
          0., 0., 0., 0., 3.78787890e-003, 0., 0., 3.78787890e-003,
          3.78787890e-003, 0., 0., 0., 7.57575780e-003, 0.,
          3.78787890e-003, 0., 0., 3.78787890e-003, 0., 0., 0.,
          7.57575780e-003, 0., 0., 0., 0., 0., 0., 0., 0., 0., 0., 0.,
          3.78787890e-003, 7.57575780e-003, 0., 1.51515156e-002, 0.,
          3.78787890e-003, 0., 0., 0., 0., 0., 3.78787890e-003, 0., 0.,
          0., 0., 3.78787890e-003, 0., 0., 3.78787890e-003, 0., 0., 0.,
          0., 3.78787890e-003, 0., 0., 3.78787890e-003, 0., 0., 0., 0.,
          0., 3.78787890e-003, 0., 0., 0., 0., 0., 0., 0., 0., 0.,
          3.78787890e-003, 3.78787890e-003, 0., 0., 0., 3.78787890e-003,
          0., 0., 0., 0., 0., 1.13636367e-002, 0., 3.78787890e-003, 0.,
          0., 0., 0., 0., 7.57575780e-003, 0., 0., 7.57575780e-003, 0.,
          0., 3.78787890e-003, 0., 0., 0., 3.78787890e-003, 0., 0., 0.,
          3.78787890e-003, 0., 0., 0., 0., 1.13636367e-002, 0., 0., 0.,
          3.78787890e-003, 0., 0., 0., 0., 0., 0., 0., 0., 0., 0., 0.,
          3.78787890e-003, 0., 0., 0., 0., 0., 0., 0., 0., 0.,
          7.57575780e-003, 0., 0., 3.78787890e-003, 3.78787890e-003, 0.,
          0., 3.78787890e-003, 3.78787890e-003, 0., 0., 0., 0., 0., 0.,
          0., 0., 0., 3.78787890e-003, 0., 3.78787890e-003, 0., 0.,
          3.78787890e-003, 7.57575780e-003, 0., 0., 3.78787890e-003, 0.,
          0., 0., 0., 0., 0., 0., 0., 0., 0., 0., 0., 0., 0., 0., 0., 0.,
          0., 0., 3.78787890e-003, 0., 0., 0., 7.57575780e-003, 0., 0.,
          0., 0., 0., 3.78787890e-003, 0., 3.78787890e-003, 0., 0., 0.,
          0., 0., 3.78787890e-003, 0., 0., 3.78787890e-003, 0., 0.,
          3.78787890e-003, 0., 0., 1.13636367e-002, 0., 3.78787890e-003,
          0., 0., 0., 0., 0., 0., 0., 0., 0., 3.78787890e-003, 0., 0.,
          3.78787890e-003, 0., 0., 0., 0., 0., 0., 0., 0.,
          3.78787890e-003, 7.57575780e-003, 0., 0., 0., 0., 0., 0., 0.,
          0., 0., 3.78787890e-003, 0., 7.57575780e-003, 0., 0., 0., 0.,
          0., 0., 3.78787890e-003, 0., 0., 0., 3.78787890e-003, 0., 0.,
          3.78787890e-003, 0., 0., 3.78787890e-003, 0., 0.,
          7.57575780e-003, 0., 0., 0., 0., 0., 0., 0., 0.,
          3.78787890e-003, 0., 0., 0., 3.78787890e-003, 0., 0.,
          3.78787890e-003, 0., 0., 0., 3.78787890e-003, 0., 0., 0.,
          3.78787890e-003, 0., 0., 0., 0., 3.78787890e-003, 0.,
          3.78787890e-003, 0., 0., 7.57575780e-003, 0., 0., 0., 0., 0.,
          7.57575780e-003, 0., 0., 0., 0., 7.57575780e-003, 0., 0., 0.,
          0., 0., 0., 3.78787890e-003, 0., 0., 0., 0., 0., 0., 0., 0.,
          0., 0., 0., 0., 3.78787890e-003, 0., 0., 0., 3.78787890e-003,
          0., 0., 7.57575780e-003, 3.78787890e-003, 0., 3.78787890e-003,
          0., 7.57575780e-003, 0., 0., 0., 0., 0., 0., 0., 0., 0.,
          3.78787890e-003, 0., 0., 3.78787890e-003, 7.57575780e-003, 0.,
          0., 0., 0., 0., 0., 0., 0., 0., 0., 0., 0., 3.78787890e-003,
          0., 3.78787890e-003, 0., 0., 0., 0., 0., 0., 3.78787890e-003,
          0., 0., 0., 0., 0., 0., 0., 0., 0., 3.78787890e-003, 0., 0.,
          0., 0., 0., 0., 0., 3.78787890e-003, 0., 0., 0.,
          3.78787890e-003, 3.78787890e-003, 0., 0., 3.78787890e-003, 0.,
          0., 0., 0., 0., 0., 0., 0., 0., 0., 0., 3.78787890e-003, 0.,
          0., 0., 0., 0., 0., 3.78787890e-003, 0., 7.57575780e-003, 0.,
          0., 7.57575780e-003, 0., 0., 0., 0., 0., 0., 0., 0., 0., 0.,
          0., 3.78787890e-003, 0., 3.78787890e-003, 0., 0., 0., 0., 0.,
          0., 0., 0., 0., 0., 0., 0., 3.78787890e-003, 0., 0., 0., 0.,
          3.78787890e-003, 7.57575780e-003, 0., 3.78787890e-003, 0.,
          3.78787890e-003, 0., 0., 3.78787890e-003, 0., 3.78787890e-003,
          0., 0., 0., 0., 0., 0., 0., 3.78787890e-003, 0., 0., 0.,
          7.57575780e-003, 0., 0., 3.78787890e-003, 0., 0., 0., 0., 0.,
          0., 0., 1.51515156e-002, 0., 3.78787890e-003, 0., 0.,
          7.57575780e-003, 0., 0., 0., 0., 3.78787890e-003,
          3.78787890e-003, 0., 3.78787890e-003, 0., 3.78787890e-003, 0.,
          0., 0., 0., 0., 3.78787890e-003, 0., 0., 0., 0., 0., 0., 0.,
          0., 0., 3.78787890e-003, 0., 0., 0., 0., 0., 0., 0., 0., 0.,
          0., 0., 3.78787890e-003, 7.57575780e-003, 0., 0., 0., 0.,
          3.78787890e-003, 0., 0., 0., 0., 0., 3.78787890e-003, 0., 0.,
          3.78787890e-003, 0., 0., 0., 0., 0., 0., 0., 0., 0., 0.,
          7.57575780e-003, 0., 0., 0., 0., 0., 0., 0., 0., 0.,
          3.78787890e-003, 0., 0., 0., 3.78787890e-003, 0., 0., 0.,
          3.78787890e-003, 0., 0., 0., 0., 0., 0., 0., 0., 0., 0., 0.,
          0., 0., 3.78787890e-003, 0., 0., 0., 0., 3.78787890e-003,
          3.78787890e-003, 0., 0., 0., 3.78787890e-003, 0.,
          7.57575780e-003, 0., 3.78787890e-003, 0., 0., 0.,
          3.78787890e-003, 3.78787890e-003, 3.78787890e-003, 0., 0., 0.,
          0., 3.78787890e-003, 0., 0., 0., 0., 0., 0., 0., 0., 0., 0.,
          0., 0., 0., 0., 0., 0., 0., 0., 0., 3.78787890e-003,
          7.57575780e-003, 0., 0., 0., 0., 0., 3.78787890e-003,
          7.57575780e-003, 0., 0., 0., 0., 0., 0., 0., 0., 0., 0.,
          3.78787890e-003, 0., 7.57575780e-003, 0., 3.78787890e-003, 0.,
          0., 0., 0., 0., 0., 0., 3.78787890e-003, 3.78787890e-003, 0.,
          3.78787890e-003, 0., 0., 0., 0., 0., 0., 0., 3.78787890e-003,
          0., 0., 0., 0., 3.78787890e-003, 0., 0., 0., 0., 0., 0., 0.,
          0., 0., 0., 0., 0., 0., 0., 0., 0., 0., 0., 0.,
          3.78787890e-003, 0., 3.78787890e-003, 0., 3.78787890e-003, 0.,
          0., 0., 0., 0., 0., 0., 0., 0., 0., 0., 0., 0., 0., 0., 0., 0.,
          0., 0., 0., 0., 0., 0., 0., 0., 0., 0., 0., 0.,
          3.78787890e-003, 0., 0., 0., 3.78787890e-003, 0., 0., 0., 0.,
          0., 0., 7.57575780e-003, 0., 0., 0., 7.57575780e-003, 0., 0.,
          0., 0., 0., 0., 0., 0., 3.78787890e-003, 0., 0., 0., 0., 0.,
          0., 0., 0., 3.78787890e-003, 0., 3.78787890e-003,
          3.78787890e-003, 0., 0., 0., 0., 3.78787890e-003, 0., 0., 0.,
          0., 0., 0., 0., 0., 0., 0., 0., 0., 0., 0., 3.78787890e-003,
          3.78787890e-003, 0., 0., 0., 0., 0., 0., 0., 0., 0., 0.,
          3.78787890e-003, 0., 0., 0., 0., 0., 3.78787890e-003, 0., 0.,
          0., 0., 0., 0., 3.78787890e-003, 0., 0., 0., 0., 0.,
          1.13636367e-002, 3.78787890e-003, 0., 0., 3.78787890e-003, 0.,
          0., 0., 0., 0., 0., 0., 3.78787890e-003, 3.78787890e-003, 0.,
          3.78787890e-003, 1.13636367e-002, 0., 0., 0., 3.78787890e-003,
          0. ]
      - [ 0., 0., 0., 0., 0., 0., 3.55871883e-003, 0., 0.,
          3.55871883e-003, 3.55871883e-003, 0., 0., 0., 0., 0.,
          3.55871883e-003, 0., 0., 3.55871883e-003, 0., 0., 0., 0.,
          3.55871883e-003, 3.55871883e-003, 0., 3.55871883e-003,
          3.55871883e-003, 0., 0., 0., 0., 3.55871883e-003, 0.,
          3.55871883e-003, 0., 0., 1.42348753e-002, 0., 0., 0.,
          3.55871883e-003, 0., 0., 0., 0., 3.55871883e-003,
          3.55871883e-003, 0., 0., 0., 0., 3.55871883e-003,
          3.55871883e-003, 3.55871883e-003, 0., 7.11743766e-003, 0.,
          3.55871883e-003, 0., 3.55871883e-003, 0., 3.55871883e-003, 0.,
          3.55871883e-003, 0., 0., 3.55871883e-003, 3.55871883e-003,
          3.55871883e-003, 0., 3.55871883e-003, 3.55871883e-003, 0., 0.,
          0., 0., 0., 3.55871883e-003, 0., 0., 0., 0., 0., 0., 0., 0.,
          0., 0., 3.55871883e-003, 0., 0., 0., 0., 0., 0., 0., 0., 0.,
          0., 0., 0., 0., 0., 0., 0., 3.55871883e-003, 3.55871883e-003,
          0., 0., 0., 0., 0., 0., 0., 0., 3.55871883e-003,
          3.55871883e-003, 0., 0., 0., 0., 0., 0., 0., 0.,
          7.11743766e-003, 3.55871883e-003, 0., 3.55871883e-003, 0., 0.,
          0., 3.55871883e-003, 0., 3.55871883e-003, 0., 3.55871883e-003,
          0., 3.55871883e-003, 0., 0., 0., 0., 0., 0., 3.55871883e-003,
          0., 0., 0., 0., 1.06761567e-002, 0., 0., 0., 0., 0., 0., 0.,
          0., 0., 3.55871883e-003, 0., 0., 0., 7.11743766e-003, 0., 0.,
          0., 0., 7.11743766e-003, 3.55871883e-003, 0., 0., 0.,
          1.06761567e-002, 0., 0., 0., 0., 0., 3.55871883e-003, 0., 0.,
          0., 0., 0., 0., 7.11743766e-003, 0., 7.11743766e-003, 0., 0.,
          3.55871883e-003, 0., 0., 0., 0., 0., 0., 0., 0., 0., 0.,
          7.11743766e-003, 0., 3.55871883e-003, 0., 3.55871883e-003, 0.,
          0., 0., 0., 0., 0., 0., 0., 0., 0., 0., 0., 0., 0., 0., 0., 0.,
          0., 0., 0., 0., 0., 0., 0., 3.55871883e-003, 0., 0., 0., 0.,
          0., 7.11743766e-003, 0., 0., 0., 3.55871883e-003, 0., 0., 0.,
          0., 0., 7.11743766e-003, 0., 0., 0., 0., 0., 0., 0., 0.,
          3.55871883e-003, 0., 0., 0., 7.11743766e-003, 0., 0., 0., 0.,
          0., 0., 0., 0., 0., 0., 0., 0., 0., 3.55871883e-003, 0., 0.,
          0., 0., 0., 3.55871883e-003, 3.55871883e-003, 3.55871883e-003,
          0., 3.55871883e-003, 0., 3.55871883e-003, 0., 0.,
          3.55871883e-003, 3.55871883e-003, 0., 0., 7.11743766e-003, 0.,
          3.55871883e-003, 7.11743766e-003, 0., 0., 0., 0., 0.,
          3.55871883e-003, 0., 0., 0., 3.55871883e-003, 1.42348753e-002,
          0., 3.55871883e-003, 0., 0., 0., 0., 3.55871883e-003,
          3.55871883e-003, 0., 0., 0., 3.55871883e-003, 0., 0.,
          3.55871883e-003, 3.55871883e-003, 0., 0., 0., 3.91459055e-002,
          7.11743766e-003, 3.55871883e-003, 0., 0., 0., 3.55871883e-003,
          0., 0., 0., 0., 0., 3.55871883e-003, 0., 0., 0.,
          7.11743766e-003, 0., 3.55871883e-003, 0., 3.55871883e-003, 0.,
          0., 0., 3.55871883e-003, 0., 0., 0., 0., 0., 0., 0., 0., 0.,
          0., 0., 0., 3.55871883e-003, 0., 3.55871883e-003,
          3.55871883e-003, 0., 3.55871883e-003, 0., 0., 0., 0., 0., 0.,
          3.55871883e-003, 3.55871883e-003, 0., 3.55871883e-003, 0.,
          3.55871883e-003, 0., 7.11743766e-003, 0., 0., 0., 0., 0., 0.,
          0., 3.55871883e-003, 3.55871883e-003, 3.55871883e-003, 0., 0.,
          0., 0., 0., 0., 0., 7.11743766e-003, 3.55871883e-003, 0., 0.,
          0., 0., 0., 0., 0., 3.55871883e-003, 0., 0., 7.11743766e-003,
          0., 0., 3.55871883e-003, 3.55871883e-003, 0., 0., 0., 0., 0.,
          0., 0., 0., 0., 0., 0., 0., 0., 0., 0., 0., 0., 0., 0.,
          3.55871883e-003, 0., 3.55871883e-003, 3.55871883e-003, 0.,
          3.55871883e-003, 0., 1.06761567e-002, 0., 0., 0., 0., 0., 0.,
          0., 0., 0., 3.55871883e-003, 0., 0., 0., 0., 0., 0., 0., 0.,
          0., 0., 3.55871883e-003, 0., 0., 0., 0., 0., 0.,
          3.55871883e-003, 0., 0., 0., 0., 0., 0., 0., 0.,
          3.55871883e-003, 0., 0., 3.55871883e-003, 3.55871883e-003, 0.,
          0., 0., 0., 0., 0., 0., 0., 0., 0., 0., 3.55871883e-003, 0.,
          0., 0., 0., 0., 0., 1.42348753e-002, 3.55871883e-003, 0., 0.,
          0., 0., 3.55871883e-003, 0., 0., 0., 1.06761567e-002, 0., 0.,
          0., 0., 2.84697507e-002, 0., 0., 0., 0., 0., 3.55871883e-003,
          0., 0., 1.06761567e-002, 0., 3.55871883e-003, 0., 0., 0., 0.,
          0., 7.11743766e-003, 0., 0., 0., 0., 0., 0., 3.55871883e-003,
          0., 0., 0., 0., 0., 0., 0., 0., 3.55871883e-003, 0., 0., 0.,
          0., 0., 0., 0., 0., 3.55871883e-003, 0., 0., 7.11743766e-003,
          0., 0., 0., 0., 0., 0., 3.55871883e-003, 7.11743766e-003, 0.,
          0., 0., 0., 1.06761567e-002, 0., 0., 0., 0., 0., 0., 0., 0.,
          1.06761567e-002, 3.55871883e-003, 0., 0., 7.11743766e-003, 0.,
          0., 0., 0., 0., 0., 0., 3.55871883e-003, 0., 0., 0., 0., 0.,
          0., 0., 0., 3.55871883e-003, 0., 3.55871883e-003,
          7.11743766e-003, 3.55871883e-003, 0., 0., 3.55871883e-003, 0.,
          0., 0., 7.11743766e-003, 0., 0., 0., 0., 0., 0.,
          3.55871883e-003, 3.55871883e-003, 0., 0., 0., 7.11743766e-003,
          0., 0., 0., 0., 0., 0., 3.55871883e-003, 3.55871883e-003, 0.,
          0., 7.11743766e-003, 0., 0., 0., 0., 7.11743766e-003, 0., 0.,
          3.55871883e-003, 0., 3.55871883e-003, 0., 0., 3.55871883e-003,
          0., 0., 0., 0., 0., 0., 0., 0., 0., 7.11743766e-003, 0., 0.,
          0., 0., 0., 0., 0., 3.55871883e-003, 0., 0., 0., 0.,
          1.06761567e-002, 0., 0., 0., 0., 0., 0., 3.55871883e-003, 0.,
          0., 0., 0., 0., 0., 0., 0., 0., 3.55871883e-003, 0., 0., 0.,
          0., 0., 0., 0., 3.55871883e-003, 0., 0., 0., 0., 0., 0., 0.,
          7.11743766e-003, 3.55871883e-003, 0., 0., 0., 0., 0., 0., 0.,
          0., 3.55871883e-003, 0., 0., 0., 0., 0., 0., 0., 0., 0., 0.,
          0., 0., 0., 0., 0., 0., 0., 3.55871883e-003, 0., 0., 0.,
          3.55871883e-003, 0., 0., 3.55871883e-003, 0., 0.,
          7.11743766e-003, 3.55871883e-003, 0., 0., 0., 0., 0., 0.,
          3.55871883e-003, 0., 0., 0., 0., 0., 3.55871883e-003, 0., 0.,
          0., 0., 0., 0., 0., 0., 0., 7.11743766e-003, 3.55871883e-003,
          0., 0., 0., 0., 0., 0., 0., 3.55871883e-003, 0., 0., 0., 0.,
          0., 0., 0., 1.06761567e-002, 0., 0., 0., 0., 0., 0., 0., 0.,
          3.55871883e-003, 0., 0., 0., 0., 0., 0., 0., 3.55871883e-003,
          1.42348753e-002, 0., 7.11743766e-003, 0., 0., 3.55871883e-003,
          0., 0., 0., 0., 3.55871883e-003, 3.55871883e-003, 0., 0., 0.,
          0., 0., 0., 0., 0., 0., 0., 0., 0., 0., 0., 1.06761567e-002,
          0., 0., 0., 3.55871883e-003, 0., 0., 0., 0., 0., 0., 0., 0.,
          0., 0., 0., 0., 0., 0., 0., 0., 3.55871883e-003,
          7.11743766e-003, 3.55871883e-003, 0., 0., 0., 0., 0., 0., 0.,
          0., 0., 0., 0., 0., 0., 0., 0., 0., 0., 0., 0.,
          3.55871883e-003, 0., 0., 0., 3.55871883e-003, 0., 0., 0.,
          3.55871883e-003, 0., 0., 0., 3.55871883e-003, 0., 0., 0.,
          3.55871883e-003, 0., 0., 0., 0., 0., 0., 0., 0., 0., 0., 0.,
          0., 0., 0., 0., 0., 0., 0., 0., 0., 0., 0., 0., 0., 0., 0., 0.,
          0., 0., 0., 0., 3.55871883e-003, 0., 0., 0., 0., 0., 0., 0.,
          0., 0., 0., 0., 0., 0., 3.55871883e-003, 0., 0., 0., 0., 0.,
          0., 0., 0., 0., 0., 0., 0., 0., 0., 0., 0., 0., 0., 0., 0., 0.,
          0., 0., 3.55871883e-003, 0., 0., 0., 0., 0., 0.,
          3.55871883e-003, 0., 3.55871883e-003, 0., 3.55871883e-003, 0.,
          0., 0., 0., 3.55871883e-003, 0., 0., 0., 0., 0., 0., 0., 0.,
          0., 0., 0., 0., 0., 0., 0., 0., 0., 0. ]
      - [ 0., 1.39534883e-002, 0., 0., 0., 0., 0., 0., 0., 0., 0., 0.,
          0., 0., 0., 0., 0., 0., 0., 0., 0., 0., 9.30232555e-003, 0.,
          4.65116277e-003, 0., 0., 4.65116277e-003, 0., 0., 0., 0., 0.,
          4.65116277e-003, 4.65116277e-003, 0., 0., 0., 4.65116277e-003,
          0., 0., 0., 4.65116277e-003, 0., 0., 0., 0., 0.,
          4.65116277e-003, 0., 0., 0., 0., 4.65116277e-003,
          4.65116277e-003, 4.65116277e-003, 0., 4.65116277e-003, 0.,
          4.65116277e-003, 0., 4.65116277e-003, 0., 9.30232555e-003, 0.,
          4.65116277e-003, 0., 0., 0., 0., 0., 0., 4.65116277e-003, 0.,
          0., 0., 0., 0., 0., 4.65116277e-003, 0., 0., 0., 0.,
          4.65116277e-003, 0., 0., 0., 0., 0., 4.65116277e-003, 0., 0.,
          0., 0., 0., 0., 0., 0., 0., 4.65116277e-003, 0., 0., 0.,
          4.65116277e-003, 0., 0., 4.65116277e-003, 9.30232555e-003, 0.,
          0., 0., 0., 0., 0., 0., 0., 4.65116277e-003, 0., 0., 0., 0.,
          4.65116277e-003, 0., 4.65116277e-003, 0., 0., 4.65116277e-003,
          4.65116277e-003, 4.65116277e-003, 4.65116277e-003,
          4.65116277e-003, 0., 0., 0., 0., 0., 9.30232555e-003,
          4.65116277e-003, 0., 4.65116277e-003, 0., 0., 0., 0., 0., 0.,
          0., 0., 0., 0., 0., 4.65116277e-003, 0., 0., 0., 0., 0., 0.,
          4.65116277e-003, 9.30232555e-003, 0., 0., 0., 9.30232555e-003,
          0., 9.30232555e-003, 0., 0., 0., 0., 4.65116277e-003,
          4.65116277e-003, 0., 0., 0., 0., 0., 0., 0., 0., 0., 0., 0.,
          0., 0., 0., 0., 0., 0., 0., 0., 4.65116277e-003, 0., 0., 0.,
          0., 0., 0., 0., 0., 0., 4.65116277e-003, 0., 9.30232555e-003,
          4.65116277e-003, 0., 9.30232555e-003, 0., 4.65116277e-003, 0.,
          0., 0., 0., 0., 0., 0., 0., 0., 0., 0., 0., 0., 0., 0., 0., 0.,
          0., 0., 0., 0., 0., 0., 0., 9.30232555e-003, 0., 0., 0., 0.,
          0., 4.65116277e-003, 0., 0., 4.65116277e-003, 0., 0., 0., 0.,
          4.65116277e-003, 0., 4.65116277e-003, 0., 0., 0.,
          1.39534883e-002, 0., 0., 0., 0., 4.65116277e-003, 0., 0., 0.,
          4.65116277e-003, 4.65116277e-003, 0., 0., 0., 0., 0., 0., 0.,
          0., 0., 0., 0., 0., 4.65116277e-003, 0., 0., 0., 0., 0.,
          4.65116277e-003, 0., 4.65116277e-003, 0., 0., 4.65116277e-003,
          0., 4.65116277e-003, 0., 0., 0., 0., 0., 1.39534883e-002, 0.,
          4.65116277e-003, 9.30232555e-003, 4.65116277e-003, 0., 0., 0.,
          4.65116277e-003, 0., 0., 0., 0., 9.30232555e-003, 0., 0., 0.,
          0., 0., 0., 4.65116277e-003, 0., 0., 0., 0., 0., 0.,
          4.65116277e-003, 0., 0., 0., 0., 0., 0., 0., 0.,
          4.65116277e-003, 0., 0., 0., 4.65116277e-003, 0., 0., 0., 0.,
          0., 0., 4.65116277e-003, 0., 0., 9.30232555e-003, 0.,
          4.65116277e-003, 0., 0., 0., 0., 0., 4.65116277e-003, 0., 0.,
          0., 4.65116277e-003, 0., 0., 9.30232555e-003, 0., 0., 0., 0.,
          0., 0., 0., 4.65116277e-003, 9.30232555e-003, 0., 0., 0., 0.,
          0., 0., 0., 0., 0., 4.65116277e-003, 0., 4.65116277e-003, 0.,
          9.30232555e-003, 0., 0., 0., 0., 0., 0., 0., 0., 0.,
          4.65116277e-003, 4.65116277e-003, 4.65116277e-003, 0., 0., 0.,
          0., 0., 0., 4.65116277e-003, 0., 9.30232555e-003, 0., 0., 0.,
          0., 0., 0., 0., 4.65116277e-003, 0., 0., 4.65116277e-003,
          9.30232555e-003, 0., 0., 4.65116277e-003, 0., 0.,
          4.65116277e-003, 9.30232555e-003, 4.65116277e-003, 0., 0.,
          4.65116277e-003, 0., 0., 0., 0., 0., 0., 0., 9.30232555e-003,
          9.30232555e-003, 0., 0., 0., 0., 0., 0., 0., 4.65116277e-003,
          0., 2.79069766e-002, 0., 0., 0., 0., 0., 0., 0., 0., 0., 0.,
          0., 0., 0., 0., 0., 0., 0., 0., 0., 4.65116277e-003,
          9.30232555e-003, 0., 0., 0., 0., 0., 0., 0., 0., 0., 0., 0.,
          0., 0., 0., 0., 0., 0., 0., 0., 4.65116277e-003, 0., 0., 0.,
          0., 0., 0., 0., 0., 0., 0., 0., 0., 0., 4.65116277e-003, 0.,
          0., 0., 0., 0., 4.65116277e-003, 0., 0., 0., 0., 0., 0., 0.,
          0., 9.30232555e-003, 0., 0., 0., 0., 0., 0., 0., 0., 0., 0.,
          4.65116277e-003, 0., 0., 0., 0., 9.30232555e-003, 0., 0., 0.,
          0., 0., 4.65116277e-003, 0., 0., 0., 0., 0., 0., 0., 0., 0.,
          0., 0., 4.65116277e-003, 0., 0., 0., 4.65116277e-003, 0., 0.,
          0., 0., 0., 0., 0., 0., 4.65116277e-003, 0., 0., 0., 0., 0.,
          0., 0., 0., 0., 0., 4.65116277e-003, 0., 0., 0., 0., 0., 0.,
          0., 0., 0., 0., 0., 0., 0., 0., 0., 0., 0., 0., 0., 0., 0., 0.,
          0., 0., 0., 0., 0., 0., 0., 0., 0., 0., 0., 0., 0., 0., 0.,
          4.65116277e-003, 9.30232555e-003, 0., 0., 0., 0., 0., 0., 0.,
          0., 0., 0., 0., 4.65116277e-003, 0., 4.65116277e-003, 0., 0.,
          0., 0., 4.65116277e-003, 0., 0., 0., 0., 0., 0., 0.,
          4.65116277e-003, 0., 0., 9.30232555e-003, 0., 4.65116277e-003,
          0., 0., 1.39534883e-002, 0., 9.30232555e-003, 0., 0.,
          4.65116277e-003, 0., 0., 4.65116277e-003, 0., 4.65116277e-003,
          0., 0., 0., 0., 0., 0., 0., 0., 0., 0., 0., 0., 0., 0.,
          4.65116277e-003, 4.65116277e-003, 0., 0., 0., 0.,
          1.39534883e-002, 0., 0., 0., 0., 0., 0., 0., 0., 0., 0., 0.,
          0., 0., 0., 0., 0., 4.65116277e-003, 0., 0., 0., 0., 0., 0.,
          0., 0., 0., 0., 0., 0., 0., 0., 0., 4.65116277e-003, 0., 0.,
          0., 0., 0., 0., 4.65116277e-003, 0., 0., 0., 0., 0., 0., 0.,
          0., 4.65116277e-003, 0., 0., 4.65116277e-003, 0., 0., 0., 0.,
          0., 0., 0., 0., 0., 0., 0., 0., 4.65116277e-003, 0., 0.,
          4.65116277e-003, 0., 0., 0., 0., 4.65116277e-003,
          4.65116277e-003, 0., 0., 0., 0., 4.65116277e-003, 0., 0., 0.,
          0., 4.65116277e-003, 4.65116277e-003, 9.30232555e-003,
          9.30232555e-003, 0., 0., 0., 0., 0., 0., 0., 0.,
          4.65116277e-003, 0., 0., 0., 0., 0., 0., 0., 0., 0., 0., 0.,
          0., 0., 0., 0., 0., 0., 0., 0., 4.65116277e-003, 0., 0., 0.,
          0., 0., 0., 0., 0., 0., 0., 0., 0., 0., 0., 4.65116277e-003,
          0., 0., 0., 0., 0., 0., 0., 0., 0., 4.65116277e-003, 0., 0.,
          0., 0., 0., 0., 0., 0., 4.65116277e-003, 4.65116277e-003, 0.,
          0., 0., 0., 1.39534883e-002, 0., 0., 0., 0., 0., 0., 0., 0.,
          0., 0., 0., 0., 0., 0., 0., 0., 0., 0., 0., 0.,
          4.65116277e-003, 0., 0., 0., 0., 0., 4.65116277e-003, 0., 0.,
          0., 0., 4.65116277e-003, 0., 0., 0., 0., 0., 0., 0., 0., 0.,
          0., 0., 0., 0., 0., 0., 0., 0., 0., 0., 0., 0., 0., 0., 0., 0.,
          0., 0., 0., 0., 0., 0., 0., 0., 4.65116277e-003, 0., 0., 0.,
          0., 0., 0., 0., 0., 0., 0., 0., 0., 0., 0., 0., 0., 0., 0., 0.,
          4.65116277e-003, 0., 0., 0., 0., 0., 0., 0., 0., 0., 0., 0.,
          4.65116277e-003, 0., 0., 0., 0., 0., 0., 0., 0., 0.,
          4.65116277e-003, 0., 0., 0., 4.65116277e-003, 0., 0., 0., 0.,
          4.65116277e-003, 0., 0., 0., 0., 0., 0., 0., 0., 0., 0., 0.,
          0., 0., 0., 0., 4.65116277e-003, 0., 0., 0., 0.,
          4.65116277e-003, 0., 4.65116277e-003, 0., 0., 0., 0.,
          9.30232555e-003, 0., 0., 0., 0., 0., 0., 0., 0.,
          4.65116277e-003, 0., 0., 9.30232555e-003, 0., 0.,
          4.65116277e-003, 0., 0., 0. ]
      - [ 0., 0., 0., 0., 3.18471342e-003, 0., 0., 3.18471342e-003, 0.,
          6.36942685e-003, 0., 0., 0., 0., 0., 0., 0., 0., 0.,
          3.18471342e-003, 0., 0., 3.18471342e-003, 3.18471342e-003, 0.,
          6.36942685e-003, 0., 6.36942685e-003, 9.55414027e-003, 0., 0.,
          0., 3.18471342e-003, 3.18471342e-003, 3.18471342e-003, 0., 0.,
          0., 0., 0., 0., 0., 0., 0., 0., 0., 0., 9.55414027e-003,
          3.18471342e-003, 9.55414027e-003, 0., 0., 0., 3.18471342e-003,
          6.36942685e-003, 6.36942685e-003, 0., 9.55414027e-003, 0.,
          3.18471342e-003, 3.18471342e-003, 0., 3.18471342e-003, 0.,
          3.18471342e-003, 0., 0., 0., 0., 0., 0., 0., 0.,
          3.18471342e-003, 0., 0., 0., 0., 6.36942685e-003, 0., 0., 0.,
          0., 0., 0., 0., 0., 0., 0., 0., 0., 0., 0., 0., 0., 0., 0., 0.,
          0., 3.18471342e-003, 0., 0., 0., 3.18471342e-003,
          3.18471342e-003, 0., 3.18471342e-003, 0., 0., 3.18471342e-003,
          0., 6.36942685e-003, 0., 0., 0., 0., 0., 3.18471342e-003,
          3.18471342e-003, 0., 0., 0., 3.18471342e-003, 3.18471342e-003,
          0., 0., 0., 3.18471342e-003, 3.18471342e-003, 0.,
          3.18471342e-003, 0., 0., 0., 0., 0., 3.18471342e-003, 0., 0.,
          0., 3.18471342e-003, 0., 0., 0., 0., 0., 0., 0., 0., 0., 0.,
          0., 3.18471342e-003, 0., 0., 0., 0., 0., 0., 6.36942685e-003,
          0., 0., 0., 0., 0., 0., 3.18471342e-003, 0., 0., 0., 0., 0.,
          3.18471342e-003, 0., 3.18471342e-003, 0., 6.36942685e-003, 0.,
          0., 0., 0., 3.18471342e-003, 3.18471342e-003, 0.,
          3.18471342e-003, 0., 0., 0., 0., 6.36942685e-003, 0., 0., 0.,
          0., 3.18471342e-003, 0., 0., 3.18471342e-003, 0.,
          6.36942685e-003, 0., 0., 0., 0., 9.55414027e-003,
          3.18471342e-003, 0., 3.18471342e-003, 0., 0., 0.,
          3.18471342e-003, 0., 0., 0., 3.18471342e-003, 3.18471342e-003,
          9.55414027e-003, 0., 0., 0., 3.18471342e-003, 0., 0., 0., 0.,
          6.36942685e-003, 0., 0., 0., 0., 0., 0., 0., 3.18471342e-003,
          0., 0., 0., 0., 0., 6.36942685e-003, 0., 0., 0., 0., 0.,
          3.18471342e-003, 0., 0., 0., 3.18471342e-003, 0., 0., 0., 0.,
          0., 0., 0., 0., 0., 3.18471342e-003, 0., 0., 3.18471342e-003,
          0., 0., 0., 0., 6.36942685e-003, 0., 0., 0., 0.,
          6.36942685e-003, 0., 6.36942685e-003, 0., 0., 0., 0., 0., 0.,
          0., 0., 0., 3.18471342e-003, 0., 0., 3.18471342e-003, 0.,
          3.18471342e-003, 0., 6.36942685e-003, 0., 3.18471342e-003, 0.,
          3.18471342e-003, 0., 0., 3.18471342e-003, 0., 0.,
          3.18471342e-003, 0., 3.18471342e-003, 3.18471342e-003, 0.,
          3.18471342e-003, 0., 6.36942685e-003, 0., 0., 0., 0., 0., 0.,
          0., 3.18471342e-003, 3.18471342e-003, 0., 0., 0., 0., 0., 0.,
          0., 0., 0., 0., 0., 1.91082805e-002, 3.18471342e-003,
          3.18471342e-003, 0., 0., 0., 3.18471342e-003, 3.18471342e-003,
          0., 6.36942685e-003, 0., 0., 3.18471342e-003, 0.,
          6.36942685e-003, 0., 3.18471342e-003, 0., 3.18471342e-003, 0.,
          6.36942685e-003, 0., 0., 0., 3.18471342e-003, 0., 0., 0.,
          3.18471342e-003, 0., 0., 3.18471342e-003, 0., 0.,
          6.36942685e-003, 0., 0., 0., 0., 0., 0., 0., 0., 0.,
          3.18471342e-003, 0., 0., 3.18471342e-003, 0., 0., 0., 0.,
          3.18471342e-003, 0., 3.18471342e-003, 0., 3.18471342e-003, 0.,
          0., 0., 0., 0., 3.18471342e-003, 0., 0., 0., 0., 0., 0., 0.,
          0., 0., 0., 3.18471342e-003, 0., 3.18471342e-003, 0., 0., 0.,
          0., 0., 0., 6.36942685e-003, 3.18471342e-003, 3.18471342e-003,
          0., 3.18471342e-003, 0., 0., 0., 0., 0., 0., 3.18471342e-003,
          0., 0., 0., 3.18471342e-003, 3.18471342e-003, 0., 0., 0., 0.,
          0., 0., 0., 0., 3.18471342e-003, 0., 0., 3.18471342e-003, 0.,
          3.18471342e-003, 0., 3.18471342e-003, 0., 0., 0., 0.,
          3.18471342e-003, 0., 0., 0., 0., 0., 0., 3.18471342e-003, 0.,
          3.18471342e-003, 0., 0., 0., 0., 0., 0., 0., 0., 0., 0., 0.,
          0., 3.18471342e-003, 0., 0., 0., 0., 3.18471342e-003, 0., 0.,
          0., 0., 0., 0., 0., 6.36942685e-003, 0., 0., 6.36942685e-003,
          3.18471342e-003, 0., 0., 0., 0., 3.18471342e-003, 0., 0., 0.,
          0., 0., 0., 3.18471342e-003, 0., 0., 0., 0., 0., 0.,
          3.18471342e-003, 3.18471342e-003, 0., 0., 0., 0., 0., 0., 0.,
          0., 0., 0., 0., 0., 0., 3.18471342e-003, 0., 0., 0., 0., 0.,
          3.18471342e-003, 0., 3.18471342e-003, 6.36942685e-003, 0.,
          3.18471342e-003, 0., 0., 3.18471342e-003, 0., 3.18471342e-003,
          6.36942685e-003, 0., 0., 0., 1.59235671e-002, 3.18471342e-003,
          0., 0., 0., 0., 0., 0., 6.36942685e-003, 0., 0., 0., 0.,
          6.36942685e-003, 0., 0., 0., 0., 0., 0., 0., 3.18471342e-003,
          0., 0., 3.18471342e-003, 0., 0., 0., 0., 0., 3.18471342e-003,
          0., 3.18471342e-003, 0., 0., 0., 0., 3.18471342e-003,
          3.18471342e-003, 0., 0., 0., 0., 0., 0., 0., 0.,
          3.18471342e-003, 0., 0., 0., 0., 0., 3.18471342e-003, 0.,
          6.36942685e-003, 0., 0., 0., 0., 0., 0., 0., 6.36942685e-003,
          0., 0., 0., 0., 9.55414027e-003, 3.18471342e-003,
          3.18471342e-003, 0., 0., 0., 0., 0., 0., 0., 0., 0., 0., 0.,
          0., 0., 0., 3.18471342e-003, 0., 0., 0., 0., 1.59235671e-002,
          0., 0., 0., 0., 0., 0., 0., 3.18471342e-003, 0., 0.,
          3.18471342e-003, 0., 6.36942685e-003, 0., 0., 3.18471342e-003,
          0., 0., 3.18471342e-003, 0., 0., 0., 0., 9.55414027e-003,
          3.18471342e-003, 0., 0., 3.18471342e-003, 0., 0., 0., 0., 0.,
          6.36942685e-003, 0., 3.18471342e-003, 0., 0., 3.18471342e-003,
          0., 0., 0., 3.18471342e-003, 0., 0., 0., 3.18471342e-003, 0.,
          0., 0., 0., 0., 0., 0., 0., 0., 0., 0., 0., 0., 0., 0.,
          2.22929940e-002, 3.18471342e-003, 0., 3.18471342e-003, 0., 0.,
          0., 0., 0., 0., 0., 0., 0., 0., 0., 0., 0., 3.18471342e-003,
          0., 0., 0., 0., 3.18471342e-003, 0., 0., 3.18471342e-003, 0.,
          0., 0., 0., 0., 0., 0., 3.18471342e-003, 0., 3.18471342e-003,
          0., 0., 0., 0., 0., 0., 0., 0., 3.18471342e-003, 0., 0., 0.,
          0., 3.18471342e-003, 0., 0., 0., 0., 0., 6.36942685e-003, 0.,
          3.18471342e-003, 6.36942685e-003, 3.18471342e-003, 0.,
          9.55414027e-003, 0., 3.18471342e-003, 0., 0., 0., 0., 0., 0.,
          0., 0., 0., 3.18471342e-003, 9.55414027e-003, 3.18471342e-003,
          0., 0., 3.18471342e-003, 3.18471342e-003, 0., 0., 0.,
          3.18471342e-003, 6.36942685e-003, 0., 0., 0., 0., 0., 0., 0.,
          0., 0., 0., 6.36942685e-003, 0., 0., 0., 0., 0., 0., 0., 0.,
          6.36942685e-003, 3.18471342e-003, 0., 0., 0., 0., 0., 0., 0.,
          0., 9.55414027e-003, 0., 0., 0., 3.18471342e-003,
          3.18471342e-003, 0., 0., 0., 0., 0., 3.18471342e-003, 0., 0.,
          0., 0., 0., 0., 0., 0., 0., 0., 0., 0., 0., 0., 0., 0., 0., 0.,
          0., 3.18471342e-003, 0., 0., 0., 3.18471342e-003, 0., 0.,
          3.18471342e-003, 0., 0., 0., 0., 0., 0., 0., 0., 0.,
          3.18471342e-003, 9.55414027e-003, 0., 0., 0., 0.,
          3.18471342e-003, 0., 0., 0., 0., 0., 0., 3.18471342e-003, 0.,
          0., 0., 3.18471342e-003, 0., 0., 0., 0., 0., 0., 0.,
          3.18471342e-003, 0., 0., 0., 0., 0., 0., 0., 3.18471342e-003,
          0., 0., 0., 0., 0., 0., 0., 0., 3.18471342e-003, 0.,
          3.18471342e-003, 0., 3.18471342e-003, 0., 3.18471342e-003, 0.,
          0., 0., 0., 0., 0., 0., 0., 3.18471342e-003, 0., 0., 0.,
          3.18471342e-003, 0., 0., 3.18471342e-003, 0., 0., 0.,
          3.18471342e-003, 0., 0., 0., 0., 0., 0., 0., 0., 0., 0., 0.,
          0., 0., 3.18471342e-003, 0., 0., 0., 0., 0., 0.,
          3.18471342e-003, 3.18471342e-003, 0., 3.18471342e-003, 0., 0.,
          0., 0., 0., 0., 0., 0., 0., 0., 0., 3.18471342e-003, 0., 0.,
          0., 3.18471342e-003, 0., 0., 0., 0., 3.18471342e-003, 0., 0.,
          0., 0., 0., 0., 0., 0., 0., 0., 3.18471342e-003,
          9.55414027e-003, 0., 0., 0., 0., 0., 0., 3.18471342e-003, 0.,
          0., 0., 0., 0., 3.18471342e-003, 0., 3.18471342e-003, 0. ]
      - [ 0., 4.67289705e-003, 0., 0., 0., 0., 4.67289705e-003, 0., 0.,
          0., 0., 0., 0., 0., 0., 0., 0., 0., 0., 0., 0., 0.,
          4.67289705e-003, 0., 9.34579410e-003, 0., 0., 4.67289705e-003,
          4.67289705e-003, 0., 0., 0., 0., 4.67289705e-003, 0., 0., 0.,
          0., 1.86915882e-002, 0., 0., 0., 9.34579410e-003, 0., 0., 0.,
          0., 4.67289705e-003, 0., 0., 0., 0., 4.67289705e-003,
          4.67289705e-003, 0., 9.34579410e-003, 0., 4.67289705e-003, 0.,
          0., 0., 9.34579410e-003, 4.67289705e-003, 9.34579410e-003, 0.,
          4.67289705e-003, 0., 0., 0., 0., 0., 0., 4.67289705e-003, 0.,
          0., 0., 0., 0., 0., 4.67289705e-003, 0., 0., 9.34579410e-003,
          0., 0., 0., 0., 0., 0., 0., 9.34579410e-003, 0., 0., 0., 0.,
          0., 0., 0., 0., 0., 0., 0., 0., 4.67289705e-003, 0., 0., 0.,
          4.67289705e-003, 0., 0., 0., 0., 0., 0., 0., 0., 0., 0., 0.,
          0., 0., 0., 0., 0., 0., 0., 4.67289705e-003, 4.67289705e-003,
          4.67289705e-003, 0., 4.67289705e-003, 0., 4.67289705e-003, 0.,
          9.34579410e-003, 0., 4.67289705e-003, 4.67289705e-003, 0., 0.,
          0., 0., 0., 0., 0., 0., 0., 4.67289705e-003, 0., 0., 0., 0.,
          0., 0., 0., 0., 0., 0., 0., 4.67289705e-003, 0., 0., 0., 0.,
          0., 0., 9.34579410e-003, 0., 0., 0., 0., 4.67289705e-003,
          4.67289705e-003, 0., 0., 0., 4.67289705e-003, 0., 0., 0., 0.,
          0., 0., 0., 0., 0., 0., 0., 0., 9.34579410e-003, 0.,
          4.67289705e-003, 0., 0., 0., 0., 0., 0., 0., 0., 0., 0., 0.,
          0., 0., 0., 0., 9.34579410e-003, 0., 0., 0., 0., 0., 0., 0.,
          0., 0., 0., 0., 0., 0., 0., 0., 0., 0., 0., 0., 0., 0., 0., 0.,
          0., 0., 0., 4.67289705e-003, 0., 0., 0., 0., 0., 0., 0., 0.,
          4.67289705e-003, 0., 0., 0., 0., 0., 9.34579410e-003,
          9.34579410e-003, 0., 0., 0., 4.67289705e-003, 0., 0., 0., 0.,
          4.67289705e-003, 0., 0., 0., 4.67289705e-003, 0., 0., 0., 0.,
          0., 0., 0., 4.67289705e-003, 0., 0., 0., 0., 0.,
          4.67289705e-003, 0., 0., 0., 0., 0., 4.67289705e-003, 0.,
          4.67289705e-003, 0., 0., 0., 0., 0., 0., 0., 0., 0., 0.,
          1.86915882e-002, 0., 4.67289705e-003, 9.34579410e-003, 0., 0.,
          0., 4.67289705e-003, 4.67289705e-003, 4.67289705e-003, 0., 0.,
          0., 4.67289705e-003, 0., 0., 0., 0., 0., 0., 0., 0., 0., 0.,
          0., 0., 0., 4.67289705e-003, 0., 4.67289705e-003, 0., 0., 0.,
          0., 0., 0., 4.67289705e-003, 0., 0., 0., 4.67289705e-003, 0.,
          0., 0., 0., 0., 4.67289705e-003, 0., 0., 0., 4.67289705e-003,
          0., 0., 0., 0., 0., 0., 0., 4.67289705e-003, 0., 0., 0.,
          4.67289705e-003, 0., 0., 0., 0., 0., 4.67289705e-003, 0., 0.,
          0., 0., 0., 4.67289705e-003, 0., 0., 0., 0., 0., 0., 0., 0.,
          0., 0., 0., 0., 0., 9.34579410e-003, 0., 0., 0., 0., 0., 0.,
          0., 0., 0., 4.67289705e-003, 9.34579410e-003, 1.40186911e-002,
          0., 0., 0., 0., 0., 0., 4.67289705e-003, 0., 0., 0., 0., 0.,
          0., 4.67289705e-003, 0., 0., 4.67289705e-003, 0., 0.,
          9.34579410e-003, 9.34579410e-003, 0., 4.67289705e-003,
          4.67289705e-003, 0., 0., 9.34579410e-003, 4.67289705e-003,
          4.67289705e-003, 0., 0., 0., 0., 0., 0., 0., 0., 0.,
          4.67289705e-003, 0., 0., 0., 0., 0., 0., 0., 9.34579410e-003,
          4.67289705e-003, 4.67289705e-003, 0., 2.33644843e-002, 0., 0.,
          0., 0., 0., 0., 0., 0., 0., 0., 0., 0., 0., 0., 0., 0., 0., 0.,
          4.67289705e-003, 0., 9.34579410e-003, 0., 0., 0.,
          4.67289705e-003, 0., 0., 0., 0., 0., 0., 0., 0., 0., 0., 0.,
          0., 0., 0., 0., 9.34579410e-003, 0., 0., 0., 0., 0., 0., 0.,
          0., 0., 0., 0., 4.67289705e-003, 0., 0., 0., 0., 0., 0.,
          1.40186911e-002, 4.67289705e-003, 0., 9.34579410e-003, 0., 0.,
          0., 0., 0., 0., 4.67289705e-003, 0., 0., 0., 0., 0., 0., 0.,
          0., 0., 0., 0., 0., 0., 0., 0., 4.67289705e-003, 0., 0., 0.,
          0., 0., 0., 0., 0., 0., 0., 0., 0., 0., 0., 0., 0., 0., 0., 0.,
          0., 0., 4.67289705e-003, 0., 0., 0., 0., 0., 0., 0., 0.,
          4.67289705e-003, 0., 0., 0., 0., 0., 0., 0., 0., 0., 0.,
          4.67289705e-003, 4.67289705e-003, 0., 0., 0., 0., 0., 0., 0.,
          0., 0., 0., 0., 0., 0., 0., 0., 0., 9.34579410e-003, 0., 0.,
          0., 0., 0., 0., 0., 0., 0., 0., 0., 0., 0., 0., 0., 0., 0., 0.,
          0., 9.34579410e-003, 4.67289705e-003, 0., 0., 0., 0., 0., 0.,
          0., 0., 0., 0., 0., 4.67289705e-003, 0., 4.67289705e-003, 0.,
          0., 0., 0., 4.67289705e-003, 0., 0., 0., 0., 0., 0.,
          4.67289705e-003, 0., 0., 0., 9.34579410e-003, 4.67289705e-003,
          0., 0., 0., 9.34579410e-003, 0., 9.34579410e-003, 0., 0.,
          4.67289705e-003, 0., 0., 4.67289705e-003, 0., 0., 0., 0., 0.,
          0., 0., 0., 0., 4.67289705e-003, 0., 0., 0., 0., 0., 0.,
          4.67289705e-003, 4.67289705e-003, 0., 0., 0., 0.,
          1.40186911e-002, 0., 0., 0., 0., 0., 0., 9.34579410e-003, 0.,
          0., 0., 0., 0., 0., 0., 0., 0., 4.67289705e-003, 0., 0., 0.,
          0., 0., 0., 0., 0., 0., 0., 0., 0., 0., 0., 0., 0.,
          4.67289705e-003, 0., 0., 0., 0., 0., 4.67289705e-003, 0., 0.,
          0., 0., 0., 0., 0., 0., 9.34579410e-003, 0., 0., 0., 0., 0.,
          0., 0., 0., 0., 0., 4.67289705e-003, 4.67289705e-003, 0., 0.,
          0., 9.34579410e-003, 0., 0., 4.67289705e-003, 0., 0.,
          9.34579410e-003, 4.67289705e-003, 0., 0., 0., 0., 0., 0.,
          4.67289705e-003, 0., 0., 4.67289705e-003, 0., 0., 0.,
          4.67289705e-003, 4.67289705e-003, 0., 0., 4.67289705e-003,
          4.67289705e-003, 0., 0., 0., 0., 0., 0., 0., 0., 0., 0.,
          4.67289705e-003, 0., 0., 0., 0., 0., 0., 0., 0., 0.,
          9.34579410e-003, 9.34579410e-003, 0., 0., 4.67289705e-003, 0.,
          0., 0., 0., 0., 0., 0., 0., 0., 0., 0., 0., 0., 0., 0., 0., 0.,
          0., 0., 0., 0., 0., 0., 0., 4.67289705e-003, 0.,
          4.67289705e-003, 0., 0., 0., 0., 0., 0., 4.67289705e-003, 0.,
          0., 0., 0., 0., 4.67289705e-003, 0., 0., 0., 0., 0., 0., 0.,
          4.67289705e-003, 0., 0., 0., 0., 0., 0., 0., 0.,
          9.34579410e-003, 0., 0., 0., 9.34579410e-003, 0., 0., 0., 0.,
          0., 0., 0., 0., 4.67289705e-003, 0., 0., 0., 0., 0., 0., 0.,
          0., 0., 0., 0., 0., 0., 0., 4.67289705e-003, 0.,
          4.67289705e-003, 0., 0., 0., 0., 0., 0., 0., 9.34579410e-003,
          0., 0., 0., 0., 0., 0., 0., 0., 0., 0., 0., 0., 0., 0., 0.,
          4.67289705e-003, 0., 0., 0., 0., 4.67289705e-003, 0., 0., 0.,
          0., 0., 0., 0., 0., 0., 0., 0., 0., 0., 0., 0., 0., 0., 0., 0.,
          0., 0., 0., 0., 0., 0., 0., 0., 0., 4.67289705e-003, 0., 0.,
          0., 0., 0., 0., 0., 4.67289705e-003, 0., 0., 0., 0., 0.,
          4.67289705e-003, 0., 0., 0., 0., 0., 0., 0., 0., 0.,
          4.67289705e-003, 0., 0., 0., 4.67289705e-003, 0., 0.,
          4.67289705e-003, 0., 0., 0., 0., 0., 0., 0., 0., 0., 0., 0.,
          0., 0., 0., 0., 0., 0., 0., 4.67289705e-003, 0.,
          4.67289705e-003, 0., 0., 0., 0., 0., 0. ]
      - [ 0., 1.15830116e-002, 0., 0., 0., 0., 0., 0., 0., 0., 0., 0.,
          0., 0., 0., 0., 0., 0., 0., 3.86100379e-003, 0., 0., 0.,
          3.86100379e-003, 0., 0., 0., 1.15830116e-002, 0., 0., 0., 0.,
          0., 0., 0., 0., 0., 0., 3.86100379e-003, 0., 3.86100379e-003,
          0., 0., 0., 0., 0., 0., 3.86100379e-003, 0., 0.,
          3.86100379e-003, 0., 0., 3.86100379e-003, 3.86100379e-003,
          7.72200758e-003, 0., 7.72200758e-003, 0., 3.86100379e-003, 0.,
          0., 0., 3.86100379e-003, 0., 0., 0., 0., 3.86100379e-003,
          3.86100379e-003, 0., 0., 3.86100379e-003, 0., 0.,
          3.86100379e-003, 0., 0., 0., 3.86100379e-003, 0., 0.,
          7.72200758e-003, 0., 0., 0., 0., 0., 0., 0., 3.86100379e-003,
          0., 0., 0., 3.86100379e-003, 0., 0., 0., 0., 0., 0.,
          7.72200758e-003, 0., 0., 3.86100379e-003, 0., 3.86100379e-003,
          3.86100379e-003, 0., 0., 0., 0., 0., 0., 0., 0., 0.,
          3.86100379e-003, 0., 0., 0., 0., 3.86100379e-003,
          3.86100379e-003, 0., 0., 0., 3.86100379e-003, 7.72200758e-003,
          3.86100379e-003, 7.72200758e-003, 0., 3.86100379e-003, 0.,
          7.72200758e-003, 0., 7.72200758e-003, 3.86100379e-003, 0., 0.,
          3.86100379e-003, 0., 0., 0., 0., 0., 3.86100379e-003, 0., 0.,
          0., 0., 0., 7.72200758e-003, 0., 0., 0., 0., 0., 0., 0., 0.,
          0., 0., 0., 0., 0., 7.72200758e-003, 0., 0., 0., 0.,
          3.86100379e-003, 3.86100379e-003, 0., 0., 0., 0., 0., 0., 0.,
          0., 0., 0., 0., 3.86100379e-003, 0., 0., 0., 0.,
          7.72200758e-003, 0., 0., 3.86100379e-003, 0., 3.86100379e-003,
          0., 0., 0., 0., 0., 0., 0., 3.86100379e-003, 3.86100379e-003,
          7.72200758e-003, 0., 0., 3.86100379e-003, 0., 3.86100379e-003,
          0., 0., 0., 0., 0., 0., 0., 0., 0., 0., 0., 0., 0., 0., 0., 0.,
          0., 0., 0., 0., 0., 0., 0., 0., 7.72200758e-003, 0., 0., 0.,
          0., 3.86100379e-003, 0., 0., 0., 3.86100379e-003, 0., 0., 0.,
          0., 0., 3.86100379e-003, 7.72200758e-003, 0., 0., 0., 0., 0.,
          0., 0., 0., 3.86100379e-003, 0., 0., 0., 0., 0., 0., 0.,
          3.86100379e-003, 0., 0., 0., 0., 0., 0., 0., 0., 0.,
          3.86100379e-003, 0., 0., 0., 0., 0., 0., 3.86100379e-003, 0.,
          0., 7.72200758e-003, 0., 0., 0., 0., 0., 0., 0., 0.,
          3.86100379e-003, 0., 0., 7.72200758e-003, 0., 0.,
          3.86100379e-003, 0., 3.86100379e-003, 0., 0., 3.86100379e-003,
          0., 3.86100379e-003, 0., 0., 0., 0., 0., 0., 0., 0.,
          3.86100379e-003, 0., 0., 0., 0., 3.86100379e-003, 0., 0.,
          3.86100379e-003, 0., 0., 0., 0., 7.72200758e-003,
          3.86100379e-003, 3.86100379e-003, 0., 0., 3.86100379e-003, 0.,
          0., 0., 0., 0., 0., 0., 0., 0., 1.15830116e-002, 0., 0., 0.,
          7.72200758e-003, 0., 0., 0., 0., 0., 0., 0., 0., 0., 0., 0.,
          0., 0., 7.72200758e-003, 0., 0., 3.86100379e-003, 0., 0.,
          3.86100379e-003, 0., 0., 0., 0., 0., 0., 0., 0.,
          3.86100379e-003, 0., 0., 0., 0., 0., 3.86100379e-003, 0., 0.,
          0., 0., 0., 0., 0., 0., 0., 7.72200758e-003, 7.72200758e-003,
          0., 0., 0., 0., 0., 0., 3.86100379e-003, 3.86100379e-003,
          7.72200758e-003, 0., 0., 0., 0., 0., 0., 0., 0.,
          7.72200758e-003, 0., 0., 0., 3.86100379e-003, 0.,
          3.86100379e-003, 0., 0., 3.86100379e-003, 0., 0., 0., 0., 0.,
          3.86100379e-003, 0., 0., 0., 0., 3.86100379e-003, 0., 0., 0.,
          0., 0., 0., 0., 3.86100379e-003, 0., 0., 0., 0.,
          7.72200758e-003, 0., 0., 3.86100379e-003, 0., 0., 0., 0., 0.,
          0., 0., 0., 0., 0., 0., 0., 0., 0., 0., 3.86100379e-003,
          3.86100379e-003, 0., 0., 0., 0., 0., 0., 0., 0., 0., 0., 0.,
          0., 0., 0., 0., 0., 0., 0., 0., 3.86100379e-003, 0., 0., 0.,
          0., 0., 3.86100379e-003, 0., 0., 0., 0., 0., 0., 0., 0., 0.,
          0., 0., 0., 0., 3.86100379e-003, 3.86100379e-003, 0., 0., 0.,
          0., 0., 0., 0., 0., 0., 3.86100379e-003, 0., 0., 0., 0., 0.,
          0., 0., 0., 0., 0., 0., 0., 0., 0., 3.86100379e-003,
          7.72200758e-003, 0., 0., 0., 0., 7.72200758e-003, 0., 0., 0.,
          0., 7.72200758e-003, 0., 0., 0., 0., 0., 0., 3.86100379e-003,
          0., 0., 3.86100379e-003, 3.86100379e-003, 0., 0., 0., 0., 0.,
          0., 0., 0., 0., 0., 0., 0., 0., 0., 0., 0., 0., 0.,
          3.86100379e-003, 0., 0., 0., 0., 0., 0., 3.86100379e-003, 0.,
          0., 0., 3.86100379e-003, 3.86100379e-003, 3.86100379e-003, 0.,
          0., 0., 0., 0., 1.15830116e-002, 0., 0., 0., 0., 0., 0., 0.,
          0., 0., 0., 0., 0., 0., 0., 0., 0., 0., 0., 3.86100379e-003,
          3.86100379e-003, 0., 0., 0., 0., 0., 0., 0., 3.86100379e-003,
          0., 0., 0., 0., 7.72200758e-003, 0., 3.86100379e-003, 0., 0.,
          3.86100379e-003, 0., 1.15830116e-002, 0., 0., 0., 0., 0., 0.,
          7.72200758e-003, 0., 0., 0., 7.72200758e-003, 0.,
          3.86100379e-003, 0., 0., 0., 0., 0., 3.86100379e-003, 0.,
          3.86100379e-003, 0., 0., 7.72200758e-003, 0., 3.86100379e-003,
          0., 7.72200758e-003, 0., 3.86100379e-003, 0., 0., 0.,
          3.86100379e-003, 0., 3.86100379e-003, 0., 0., 0., 0.,
          1.54440152e-002, 0., 0., 0., 0., 7.72200758e-003,
          3.86100379e-003, 0., 0., 0., 0., 0., 0., 0., 0., 0., 0., 0.,
          0., 0., 0., 0., 7.72200758e-003, 7.72200758e-003, 0.,
          3.86100379e-003, 3.86100379e-003, 0., 0., 0., 0., 0., 0., 0.,
          0., 3.86100379e-003, 0., 0., 0., 3.86100379e-003, 0., 0., 0.,
          0., 0., 0., 0., 0., 0., 7.72200758e-003, 0., 0., 0., 0., 0.,
          0., 0., 0., 1.15830116e-002, 0., 0., 0., 0., 0., 0., 0., 0.,
          7.72200758e-003, 0., 0., 0., 3.86100379e-003, 0.,
          3.86100379e-003, 3.86100379e-003, 0., 0., 0., 3.86100379e-003,
          0., 1.15830116e-002, 0., 0., 3.86100379e-003, 0.,
          3.86100379e-003, 0., 0., 0., 0., 0., 3.86100379e-003, 0., 0.,
          0., 0., 0., 0., 0., 3.86100379e-003, 0., 7.72200758e-003, 0.,
          0., 0., 3.86100379e-003, 0., 0., 3.86100379e-003, 0., 0., 0.,
          0., 0., 0., 0., 0., 0., 7.72200758e-003, 3.86100379e-003, 0.,
          0., 0., 3.86100379e-003, 0., 0., 0., 0., 0., 0., 0., 0., 0.,
          0., 0., 0., 0., 0., 0., 0., 0., 3.86100379e-003, 0., 0., 0.,
          0., 0., 3.86100379e-003, 0., 0., 0., 0., 0., 0., 0., 0.,
          1.15830116e-002, 0., 0., 0., 0., 0., 1.15830116e-002, 0., 0.,
          3.86100379e-003, 0., 0., 0., 0., 0., 0., 0., 0., 0.,
          3.86100379e-003, 0., 0., 0., 3.86100379e-003, 0., 0.,
          3.86100379e-003, 0., 0., 0., 0., 0., 0., 0., 0., 0.,
          3.86100379e-003, 0., 0., 0., 0., 0., 0., 0., 0., 0., 0., 0.,
          0., 3.86100379e-003, 0., 3.86100379e-003, 0., 7.72200758e-003,
          0., 3.86100379e-003, 0., 0., 0., 0., 0., 3.86100379e-003, 0.,
          0., 0., 0., 0., 3.86100379e-003, 0., 0., 3.86100379e-003, 0.,
          3.86100379e-003, 0., 0., 0., 0., 0., 0., 0., 0., 0., 0., 0.,
          0., 3.86100379e-003, 0., 0., 0., 0., 0., 0., 3.86100379e-003,
          0., 3.86100379e-003, 7.72200758e-003, 0., 0., 0., 0., 0., 0.,
          7.72200758e-003, 3.86100379e-003, 0., 0., 0., 0., 0., 0., 0.,
          0., 0., 0., 0., 0., 0., 0., 7.72200758e-003, 0.,
          3.86100379e-003, 0., 0., 0., 3.86100379e-003, 0., 0., 0., 0.,
          0., 0., 0., 0., 0., 0., 3.86100379e-003, 0., 3.86100379e-003,
          0., 0., 0., 0., 3.86100379e-003, 0., 7.72200758e-003, 0., 0.,
          0., 0., 0., 0., 3.86100379e-003, 0., 0., 0., 0., 0., 0., 0.,
          0., 0., 0., 0., 0., 0., 0., 3.86100379e-003, 0.,
          3.86100379e-003, 0. ]
      - [ 0., 4.50450461e-003, 0., 0., 0., 0., 0., 0., 0., 0., 0., 0.,
          0., 0., 0., 0., 0., 4.50450461e-003, 0., 4.50450461e-003, 0.,
          0., 4.50450461e-003, 4.50450461e-003, 4.50450461e-003, 0., 0.,
          4.50450461e-003, 9.00900923e-003, 0., 0., 0., 0., 0., 0., 0.,
          0., 0., 4.50450461e-003, 0., 0., 4.50450461e-003, 0.,
          4.50450461e-003, 0., 0., 0., 4.50450461e-003, 0., 0.,
          4.50450461e-003, 0., 0., 4.50450461e-003, 4.50450461e-003, 0.,
          9.00900923e-003, 4.50450461e-003, 0., 4.50450461e-003, 0., 0.,
          0., 4.50450461e-003, 0., 0., 0., 0., 0., 0., 0., 0.,
          4.50450461e-003, 0., 0., 4.50450461e-003, 0., 0., 0., 0., 0.,
          0., 0., 0., 0., 0., 0., 0., 0., 0., 0., 0., 0., 0., 0., 0., 0.,
          0., 0., 0., 0., 4.50450461e-003, 0., 0., 4.50450461e-003,
          4.50450461e-003, 4.50450461e-003, 9.00900923e-003, 0., 0.,
          4.50450461e-003, 0., 0., 0., 0., 4.50450461e-003, 0.,
          4.50450461e-003, 0., 0., 0., 0., 0., 0., 0., 0., 0., 0.,
          4.50450461e-003, 4.50450461e-003, 0., 0., 0., 0.,
          9.00900923e-003, 0., 9.00900923e-003, 0., 0., 0.,
          9.00900923e-003, 0., 0., 0., 0., 0., 0., 4.50450461e-003, 0.,
          0., 0., 0., 0., 0., 0., 0., 0., 0., 0., 4.50450461e-003, 0.,
          0., 0., 0., 0., 0., 1.35135138e-002, 0., 0., 0., 0., 0., 0.,
          0., 0., 0., 4.50450461e-003, 0., 0., 0., 0., 0.,
          4.50450461e-003, 0., 0., 0., 0., 0., 0., 9.00900923e-003, 0.,
          0., 0., 0., 0., 0., 0., 0., 0., 0., 0., 0., 0., 0.,
          9.00900923e-003, 4.50450461e-003, 0., 4.50450461e-003, 0.,
          9.00900923e-003, 0., 0., 0., 0., 0., 0., 0., 0., 0., 0., 0.,
          0., 0., 0., 0., 0., 9.00900923e-003, 0., 0., 0., 0., 0., 0.,
          0., 4.50450461e-003, 0., 0., 0., 0., 0., 0., 0., 0., 0., 0.,
          0., 0., 0., 4.50450461e-003, 9.00900923e-003, 4.50450461e-003,
          0., 0., 4.50450461e-003, 0., 0., 0., 0., 0., 4.50450461e-003,
          0., 0., 0., 9.00900923e-003, 0., 0., 0., 0., 0., 0., 0., 0.,
          0., 0., 0., 0., 0., 4.50450461e-003, 0., 0., 0., 0., 0., 0.,
          0., 4.50450461e-003, 0., 4.50450461e-003, 0., 0., 0., 0.,
          4.50450461e-003, 9.00900923e-003, 0., 0., 4.50450461e-003, 0.,
          0., 4.50450461e-003, 0., 0., 9.00900923e-003, 4.50450461e-003,
          4.50450461e-003, 0., 0., 4.50450461e-003, 0., 4.50450461e-003,
          0., 0., 4.50450461e-003, 0., 0., 0., 4.50450461e-003, 0.,
          9.00900923e-003, 0., 0., 0., 0., 0., 0., 9.00900923e-003, 0.,
          0., 0., 0., 0., 9.00900923e-003, 4.50450461e-003,
          4.50450461e-003, 0., 0., 4.50450461e-003, 0., 0., 0., 0., 0.,
          0., 0., 0., 0., 0., 0., 0., 0., 0., 0., 0., 0., 0., 0., 0., 0.,
          0., 0., 0., 0., 0., 0., 4.50450461e-003, 0., 0.,
          4.50450461e-003, 0., 0., 4.50450461e-003, 0., 0., 0., 0., 0.,
          0., 0., 0., 0., 0., 0., 0., 0., 4.50450461e-003, 0., 0., 0.,
          0., 0., 0., 0., 9.00900923e-003, 0., 0., 4.50450461e-003,
          9.00900923e-003, 0., 0., 0., 0., 0., 4.50450461e-003,
          4.50450461e-003, 4.50450461e-003, 4.50450461e-003, 0., 0., 0.,
          0., 0., 0., 4.50450461e-003, 0., 9.00900923e-003, 0., 0., 0.,
          0., 0., 4.50450461e-003, 0., 0., 0., 0., 0., 0., 0.,
          4.50450461e-003, 4.50450461e-003, 0., 0., 0., 0., 0., 0., 0.,
          0., 0., 0., 0., 0., 4.50450461e-003, 0., 0., 0., 0.,
          4.50450461e-003, 0., 0., 0., 0., 0., 4.50450461e-003, 0., 0.,
          4.50450461e-003, 0., 0., 0., 0., 0., 0., 0., 0., 0.,
          4.50450461e-003, 0., 0., 0., 0., 0., 4.50450461e-003, 0., 0.,
          0., 0., 0., 0., 0., 0., 0., 0., 0., 0., 0., 0.,
          4.50450461e-003, 4.50450461e-003, 0., 0., 4.50450461e-003, 0.,
          4.50450461e-003, 0., 0., 0., 0., 0., 0., 0., 0., 0., 0.,
          4.50450461e-003, 0., 0., 9.00900923e-003, 9.00900923e-003, 0.,
          4.50450461e-003, 0., 0., 0., 0., 0., 0., 0., 0., 0., 0., 0.,
          0., 0., 0., 0., 0., 0., 4.50450461e-003, 0., 0., 0., 0.,
          4.50450461e-003, 0., 0., 4.50450461e-003, 4.50450461e-003, 0.,
          0., 0., 0., 0., 0., 4.50450461e-003, 0., 0., 0., 0., 0., 0.,
          0., 4.50450461e-003, 0., 4.50450461e-003, 0., 0., 0., 0., 0.,
          0., 0., 4.50450461e-003, 0., 4.50450461e-003, 0., 0., 0., 0.,
          0., 0., 0., 0., 0., 4.50450461e-003, 4.50450461e-003, 0., 0.,
          0., 4.50450461e-003, 0., 4.50450461e-003, 0., 0., 0.,
          4.50450461e-003, 4.50450461e-003, 0., 0., 0., 0., 0., 0.,
          9.00900923e-003, 0., 0., 0., 9.00900923e-003, 0., 0., 0., 0.,
          4.50450461e-003, 0., 0., 0., 0., 0., 0., 0., 0., 0.,
          4.50450461e-003, 0., 4.50450461e-003, 0., 0., 0., 0., 0., 0.,
          4.50450461e-003, 0., 0., 4.50450461e-003, 0., 4.50450461e-003,
          0., 4.50450461e-003, 0., 0., 0., 0., 4.50450461e-003, 0., 0.,
          0., 0., 0., 0., 1.80180185e-002, 0., 0., 0., 0., 0.,
          4.50450461e-003, 0., 0., 0., 0., 0., 0., 4.50450461e-003, 0.,
          0., 0., 4.50450461e-003, 0., 4.50450461e-003, 0.,
          4.50450461e-003, 0., 0., 0., 0., 0., 4.50450461e-003, 0., 0.,
          0., 0., 0., 0., 9.00900923e-003, 0., 0., 0., 0., 0., 0.,
          4.50450461e-003, 0., 0., 0., 0., 0., 0., 0., 0., 0., 0., 0.,
          4.50450461e-003, 0., 0., 0., 4.50450461e-003, 0., 0., 0., 0.,
          0., 0., 0., 0., 0., 0., 0., 4.50450461e-003, 0., 0., 0.,
          9.00900923e-003, 0., 0., 0., 0., 0., 0., 0., 0., 0., 0., 0.,
          0., 0., 0., 0., 0., 0., 0., 0., 0., 0., 0., 0., 0., 0., 0., 0.,
          0., 0., 0., 0., 0., 0., 4.50450461e-003, 9.00900923e-003, 0.,
          0., 0., 0., 0., 1.80180185e-002, 0., 0., 0., 4.50450461e-003,
          9.00900923e-003, 0., 0., 0., 0., 4.50450461e-003,
          4.50450461e-003, 0., 4.50450461e-003, 0., 0., 0., 0., 0.,
          4.50450461e-003, 0., 0., 4.50450461e-003, 0., 0.,
          4.50450461e-003, 0., 0., 0., 0., 4.50450461e-003, 0., 0., 0.,
          0., 0., 0., 0., 0., 9.00900923e-003, 0., 0., 0.,
          4.50450461e-003, 0., 0., 0., 4.50450461e-003, 0., 0., 0., 0.,
          0., 0., 0., 0., 0., 0., 4.50450461e-003, 0., 0., 0.,
          4.50450461e-003, 0., 0., 0., 0., 0., 0., 0., 0., 0., 0., 0.,
          0., 0., 4.50450461e-003, 0., 0., 0., 0., 0., 0., 0., 0.,
          4.50450461e-003, 0., 0., 0., 0., 4.50450461e-003, 0., 0., 0.,
          0., 4.50450461e-003, 4.50450461e-003, 0., 0., 0., 0., 0.,
          4.50450461e-003, 0., 0., 0., 0., 0., 0., 0., 4.50450461e-003,
          0., 0., 0., 0., 0., 0., 0., 0., 0., 0., 0., 0., 0., 0.,
          4.50450461e-003, 0., 0., 0., 4.50450461e-003, 0.,
          1.35135138e-002, 0., 0., 0., 0., 0., 0., 0., 0., 0., 0., 0.,
          4.50450461e-003, 0., 0., 0., 0., 0., 0., 0., 0., 0., 0., 0.,
          0., 0., 4.50450461e-003, 0., 0., 0., 0., 0., 0., 0., 0., 0.,
          4.50450461e-003, 0., 0., 0., 0., 0., 0., 0., 0., 0., 0., 0.,
          0., 0., 0., 0., 0., 0., 0., 0., 4.50450461e-003,
          4.50450461e-003, 0., 0., 4.50450461e-003, 0., 0., 0., 0.,
          9.00900923e-003, 0., 0., 0., 4.50450461e-003, 0., 0., 0., 0.,
          0., 0., 0., 0., 0., 0., 4.50450461e-003, 0., 9.00900923e-003,
          0., 0., 0., 0., 0., 0., 4.50450461e-003, 0., 0., 0., 0., 0.,
          0., 0., 0., 9.00900923e-003, 0., 0., 0., 0., 0., 0., 0., 0.,
          0., 0., 0., 0., 0., 0., 4.50450461e-003, 0. ]
      - [ 0., 7.11743766e-003, 0., 0., 0., 0., 7.11743766e-003,
          3.55871883e-003, 0., 0., 0., 0., 0., 0., 0., 0., 0., 0., 0.,
          7.11743766e-003, 3.55871883e-003, 0., 0., 0., 3.55871883e-003,
          3.55871883e-003, 0., 0., 3.55871883e-003, 0., 0., 0., 0., 0.,
          0., 3.55871883e-003, 0., 0., 1.77935939e-002, 0.,
          3.55871883e-003, 0., 0., 0., 0., 0., 0., 3.55871883e-003, 0.,
          0., 0., 0., 3.55871883e-003, 3.55871883e-003, 0.,
          3.55871883e-003, 3.55871883e-003, 7.11743766e-003, 0., 0., 0.,
          3.55871883e-003, 0., 7.11743766e-003, 0., 1.06761567e-002, 0.,
          0., 0., 0., 0., 0., 3.55871883e-003, 0., 0., 0., 0., 0., 0.,
          3.55871883e-003, 0., 0., 0., 0., 3.55871883e-003, 0., 0., 0.,
          0., 0., 0., 0., 0., 0., 0., 0., 0., 0., 0., 0.,
          3.55871883e-003, 0., 0., 0., 0., 0., 0., 3.55871883e-003,
          3.55871883e-003, 0., 0., 3.55871883e-003, 0., 0., 0., 0., 0.,
          3.55871883e-003, 0., 0., 0., 0., 3.55871883e-003,
          3.55871883e-003, 3.55871883e-003, 0., 3.55871883e-003,
          3.55871883e-003, 3.55871883e-003, 3.55871883e-003,
          3.55871883e-003, 0., 0., 0., 3.55871883e-003, 0., 0., 0.,
          7.11743766e-003, 0., 0., 0., 0., 0., 0., 0., 0., 0., 0.,
          3.55871883e-003, 0., 0., 0., 0., 0., 0., 3.55871883e-003, 0.,
          0., 3.55871883e-003, 7.11743766e-003, 0., 0., 0., 0., 0.,
          7.11743766e-003, 0., 0., 0., 0., 3.55871883e-003, 0., 0.,
          3.55871883e-003, 0., 0., 0., 0., 0., 0., 0., 3.55871883e-003,
          0., 0., 0., 0., 0., 0., 3.55871883e-003, 0., 3.55871883e-003,
          7.11743766e-003, 0., 0., 0., 0., 0., 0., 0., 0., 0.,
          7.11743766e-003, 0., 7.11743766e-003, 7.11743766e-003, 0.,
          3.55871883e-003, 0., 1.06761567e-002, 0., 0., 0., 0., 0., 0.,
          3.55871883e-003, 0., 0., 0., 0., 0., 0., 0., 0., 0., 0., 0.,
          0., 0., 0., 0., 0., 0., 0., 0., 0., 0., 0., 0., 0., 0., 0., 0.,
          3.55871883e-003, 0., 3.55871883e-003, 0., 3.55871883e-003,
          3.55871883e-003, 3.55871883e-003, 0., 0., 3.55871883e-003,
          7.11743766e-003, 0., 0., 3.55871883e-003, 0., 0., 0., 0., 0.,
          3.55871883e-003, 0., 0., 0., 0., 0., 0., 0., 0., 0.,
          3.55871883e-003, 0., 0., 0., 0., 0., 0., 0., 0., 0.,
          3.55871883e-003, 0., 3.55871883e-003, 0., 0., 3.55871883e-003,
          0., 0., 0., 7.11743766e-003, 0., 0., 0., 1.06761567e-002, 0.,
          0., 7.11743766e-003, 0., 0., 0., 3.55871883e-003,
          3.55871883e-003, 0., 0., 0., 0., 1.42348753e-002, 0., 0.,
          3.55871883e-003, 0., 0., 3.55871883e-003, 0., 0., 0., 0., 0.,
          0., 0., 3.55871883e-003, 0., 0., 3.55871883e-003,
          3.55871883e-003, 0., 0., 7.11743766e-003, 7.11743766e-003,
          3.55871883e-003, 0., 0., 3.55871883e-003, 3.55871883e-003, 0.,
          0., 0., 0., 0., 7.11743766e-003, 0., 7.11743766e-003, 0.,
          7.11743766e-003, 0., 0., 0., 0., 0., 0., 0., 0., 0., 0., 0.,
          0., 3.55871883e-003, 0., 3.55871883e-003, 0., 0., 0., 0., 0.,
          0., 0., 0., 3.55871883e-003, 3.55871883e-003, 0., 0., 0., 0.,
          0., 0., 0., 0., 0., 3.55871883e-003, 3.55871883e-003, 0., 0.,
          0., 3.55871883e-003, 0., 0., 0., 0., 0., 0., 0., 0., 0.,
          1.06761567e-002, 0., 0., 0., 0., 0., 0., 3.55871883e-003,
          3.55871883e-003, 0., 0., 0., 0., 0., 0., 0., 0.,
          3.55871883e-003, 0., 0., 3.55871883e-003, 3.55871883e-003, 0.,
          0., 0., 0., 0., 7.11743766e-003, 3.55871883e-003, 0., 0., 0.,
          0., 3.55871883e-003, 0., 0., 0., 0., 0., 0., 3.55871883e-003,
          0., 0., 0., 0., 0., 0., 3.55871883e-003, 0., 3.55871883e-003,
          0., 1.42348753e-002, 0., 3.55871883e-003, 0., 0., 0., 0., 0.,
          0., 0., 3.55871883e-003, 3.55871883e-003, 0., 0., 0., 0., 0.,
          0., 0., 0., 0., 0., 0., 0., 0., 0., 3.55871883e-003, 0., 0.,
          0., 0., 0., 0., 0., 0., 0., 0., 0., 0., 0., 3.55871883e-003,
          0., 0., 0., 0., 0., 3.55871883e-003, 0., 0., 0., 0., 0., 0.,
          3.55871883e-003, 0., 0., 0., 0., 0., 0., 7.11743766e-003,
          7.11743766e-003, 0., 0., 0., 0., 3.55871883e-003, 0., 0., 0.,
          7.11743766e-003, 3.55871883e-003, 0., 3.55871883e-003, 0.,
          3.55871883e-003, 0., 0., 0., 0., 0., 0., 0., 0.,
          3.55871883e-003, 0., 3.55871883e-003, 1.77935939e-002, 0., 0.,
          0., 7.11743766e-003, 7.11743766e-003, 3.55871883e-003, 0., 0.,
          7.11743766e-003, 3.55871883e-003, 0., 0., 0., 0., 0., 0., 0.,
          0., 0., 0., 0., 1.06761567e-002, 0., 0., 0., 0., 0., 0., 0.,
          0., 0., 0., 0., 0., 0., 0., 0., 0., 0., 0., 3.55871883e-003,
          0., 0., 0., 0., 0., 0., 0., 0., 0., 0., 0., 0., 0., 0.,
          3.55871883e-003, 3.55871883e-003, 0., 1.06761567e-002,
          3.55871883e-003, 0., 0., 0., 0., 0., 0., 3.55871883e-003,
          3.55871883e-003, 0., 0., 0., 0., 0., 0., 0., 0.,
          3.55871883e-003, 3.55871883e-003, 3.55871883e-003,
          3.55871883e-003, 0., 0., 0., 0., 0., 0., 0., 0., 0.,
          3.55871883e-003, 0., 0., 0., 0., 3.55871883e-003, 0., 0., 0.,
          7.11743766e-003, 0., 0., 0., 0., 0., 0., 0., 0., 0., 0.,
          7.11743766e-003, 7.11743766e-003, 0., 0., 0., 1.42348753e-002,
          0., 1.42348753e-002, 0., 0., 0., 0., 0., 0., 3.55871883e-003,
          0., 0., 0., 0., 0., 0., 0., 0., 3.55871883e-003, 0., 0., 0.,
          0., 0., 0., 0., 3.55871883e-003, 0., 0., 0., 0., 0., 0., 0.,
          0., 0., 0., 0., 3.55871883e-003, 3.55871883e-003, 0., 0., 0.,
          0., 0., 0., 0., 3.55871883e-003, 0., 0., 0., 0., 0., 0., 0.,
          0., 0., 0., 0., 0., 0., 3.55871883e-003, 0., 0.,
          1.06761567e-002, 0., 0., 0., 0., 3.55871883e-003, 0., 0., 0.,
          0., 0., 0., 0., 0., 0., 0., 0., 0., 0., 0., 0., 0., 0., 0., 0.,
          3.55871883e-003, 0., 3.55871883e-003, 0., 0., 0., 0., 0., 0.,
          0., 3.55871883e-003, 0., 3.55871883e-003, 7.11743766e-003, 0.,
          7.11743766e-003, 3.55871883e-003, 0., 0., 3.55871883e-003, 0.,
          3.55871883e-003, 0., 0., 0., 0., 0., 0., 7.11743766e-003,
          3.55871883e-003, 0., 0., 0., 0., 0., 0., 0., 7.11743766e-003,
          0., 0., 0., 0., 0., 0., 3.55871883e-003, 0., 3.55871883e-003,
          0., 0., 0., 3.55871883e-003, 0., 0., 3.55871883e-003,
          7.11743766e-003, 3.55871883e-003, 0., 0., 0., 0., 0., 0.,
          7.11743766e-003, 3.55871883e-003, 0., 0., 0., 0., 0., 0., 0.,
          3.55871883e-003, 3.55871883e-003, 7.11743766e-003, 0., 0., 0.,
          7.11743766e-003, 0., 0., 0., 0., 0., 3.55871883e-003, 0., 0.,
          0., 0., 0., 3.55871883e-003, 0., 0., 0., 0., 3.55871883e-003,
          0., 0., 0., 3.55871883e-003, 0., 0., 0., 0., 0., 0., 0.,
          3.55871883e-003, 7.11743766e-003, 0., 0., 0., 0., 0., 0., 0.,
          3.55871883e-003, 0., 0., 0., 3.55871883e-003, 0., 0., 0., 0.,
          0., 0., 0., 0., 0., 0., 0., 0., 0., 0., 0., 0., 0., 0., 0., 0.,
          0., 0., 0., 3.55871883e-003, 0., 0., 3.55871883e-003,
          3.55871883e-003, 0., 3.55871883e-003, 0., 0., 0., 0., 0., 0.,
          0., 0., 0., 0., 0., 0., 0., 0., 0., 0., 0., 0., 0., 0., 0., 0.,
          0., 0., 3.55871883e-003, 0., 0., 0., 3.55871883e-003, 0., 0.,
          0., 0., 0., 3.55871883e-003, 0., 0., 0., 0., 0., 0., 0., 0.,
          0., 0., 0., 0., 0., 0., 0., 0., 0., 3.55871883e-003, 0., 0.,
          0., 0., 0., 0., 0., 3.55871883e-003, 0., 3.55871883e-003, 0.,
          0., 0., 0., 3.55871883e-003, 0., 0., 0., 3.55871883e-003, 0.,
          0., 0., 0., 0., 3.55871883e-003, 0., 3.55871883e-003, 0., 0.,
          0., 0., 3.55871883e-003, 0., 0., 0., 3.55871883e-003, 0., 0.,
          0., 0., 3.55871883e-003, 0., 3.55871883e-003, 0., 0., 0., 0.,
          0., 0., 0., 0., 0., 3.55871883e-003, 0., 0., 0., 0., 0., 0. ]
      - [ 0., 4.65116277e-003, 0., 0., 0., 0., 0., 0., 0., 0., 0., 0.,
          0., 0., 0., 0., 0., 0., 0., 4.65116277e-003, 0., 0.,
          4.65116277e-003, 0., 9.30232555e-003, 0., 0., 4.65116277e-003,
          1.39534883e-002, 0., 0., 0., 0., 4.65116277e-003, 0., 0., 0.,
          0., 2.32558139e-002, 0., 0., 0., 4.65116277e-003, 0., 0., 0.,
          0., 0., 0., 0., 0., 0., 0., 4.65116277e-003, 0.,
          4.65116277e-003, 0., 9.30232555e-003, 0., 0., 0.,
          4.65116277e-003, 0., 9.30232555e-003, 0., 4.65116277e-003, 0.,
          0., 9.30232555e-003, 0., 0., 0., 0., 0., 0., 0., 0., 0., 0.,
          4.65116277e-003, 0., 0., 1.39534883e-002, 0., 4.65116277e-003,
          0., 0., 0., 0., 0., 9.30232555e-003, 0., 0., 0., 0., 0., 0.,
          0., 0., 0., 0., 0., 0., 0., 4.65116277e-003, 0., 0., 0., 0.,
          0., 0., 4.65116277e-003, 0., 0., 4.65116277e-003, 0., 0., 0.,
          4.65116277e-003, 0., 0., 0., 4.65116277e-003, 4.65116277e-003,
          0., 0., 0., 4.65116277e-003, 4.65116277e-003, 4.65116277e-003,
          4.65116277e-003, 0., 0., 0., 0., 0., 0., 4.65116277e-003, 0.,
          0., 0., 0., 0., 0., 0., 0., 0., 4.65116277e-003, 0., 0., 0.,
          0., 9.30232555e-003, 0., 0., 0., 0., 0., 0., 4.65116277e-003,
          0., 0., 0., 0., 0., 0., 9.30232555e-003, 0., 0., 0., 0.,
          4.65116277e-003, 0., 0., 0., 0., 9.30232555e-003, 0., 0.,
          4.65116277e-003, 0., 0., 1.39534883e-002, 0., 0., 0., 0., 0.,
          0., 4.65116277e-003, 0., 4.65116277e-003, 0., 0., 0., 0., 0.,
          0., 0., 0., 0., 0., 0., 0., 0., 0., 0., 9.30232555e-003, 0.,
          4.65116277e-003, 0., 0., 0., 0., 0., 0., 0., 0., 0., 0., 0.,
          0., 0., 0., 0., 0., 4.65116277e-003, 0., 0., 0., 0., 0., 0.,
          0., 4.65116277e-003, 0., 0., 0., 0., 0., 4.65116277e-003, 0.,
          0., 0., 0., 0., 0., 0., 0., 0., 4.65116277e-003, 0., 0., 0.,
          0., 0., 0., 0., 0., 4.65116277e-003, 0., 0., 0.,
          9.30232555e-003, 0., 0., 0., 0., 0., 0., 0., 0., 0., 0., 0.,
          0., 0., 4.65116277e-003, 0., 0., 0., 0., 0., 4.65116277e-003,
          0., 4.65116277e-003, 0., 4.65116277e-003, 0., 0., 0., 0., 0.,
          0., 0., 0., 1.86046511e-002, 0., 4.65116277e-003,
          9.30232555e-003, 0., 0., 4.65116277e-003, 0., 4.65116277e-003,
          4.65116277e-003, 0., 0., 0., 4.65116277e-003, 0., 0., 0., 0.,
          0., 0., 0., 0., 0., 0., 0., 0., 0., 4.65116277e-003, 0.,
          4.65116277e-003, 0., 0., 0., 0., 0., 0., 4.65116277e-003, 0.,
          0., 0., 4.65116277e-003, 0., 0., 0., 0., 0., 0., 0., 0., 0.,
          1.39534883e-002, 0., 0., 0., 4.65116277e-003, 0., 0., 0.,
          4.65116277e-003, 0., 0., 0., 0., 0., 0., 0., 0., 0.,
          4.65116277e-003, 0., 0., 0., 0., 9.30232555e-003, 0., 0., 0.,
          0., 0., 0., 0., 0., 4.65116277e-003, 0., 0., 0., 0., 0.,
          4.65116277e-003, 0., 0., 0., 0., 0., 0., 0., 0., 0.,
          4.65116277e-003, 4.65116277e-003, 9.30232555e-003, 0., 0., 0.,
          0., 0., 0., 4.65116277e-003, 0., 4.65116277e-003, 0., 0., 0.,
          0., 0., 0., 0., 4.65116277e-003, 4.65116277e-003, 0.,
          4.65116277e-003, 9.30232555e-003, 0., 4.65116277e-003,
          4.65116277e-003, 0., 0., 4.65116277e-003, 0., 0., 0., 0., 0.,
          0., 0., 0., 0., 0., 0., 0., 0., 0., 0., 0., 4.65116277e-003,
          0., 0., 9.30232555e-003, 0., 4.65116277e-003, 0.,
          9.30232555e-003, 0., 0., 0., 0., 0., 0., 0., 0., 0.,
          4.65116277e-003, 0., 0., 0., 0., 0., 0., 0., 0., 0.,
          4.65116277e-003, 9.30232555e-003, 0., 0., 0., 0., 0., 0., 0.,
          0., 0., 0., 0., 0., 0., 0., 0., 0., 0., 0., 0.,
          4.65116277e-003, 0., 0., 1.39534883e-002, 0., 4.65116277e-003,
          0., 0., 0., 0., 0., 0., 4.65116277e-003, 0., 0., 0., 0., 0.,
          0., 9.30232555e-003, 4.65116277e-003, 0., 4.65116277e-003, 0.,
          0., 0., 0., 0., 0., 9.30232555e-003, 0., 0., 1.39534883e-002,
          0., 0., 0., 0., 0., 0., 0., 0., 0., 0., 0., 0.,
          4.65116277e-003, 0., 0., 0., 0., 0., 0., 0., 0., 0., 0., 0.,
          0., 0., 0., 0., 0., 0., 0., 0., 0., 0., 4.65116277e-003, 0.,
          0., 0., 0., 0., 0., 4.65116277e-003, 0., 0., 0., 0., 0., 0.,
          0., 0., 0., 0., 0., 0., 4.65116277e-003, 4.65116277e-003,
          4.65116277e-003, 0., 0., 0., 0., 0., 0., 0., 0., 0., 0., 0.,
          0., 0., 0., 0., 4.65116277e-003, 0., 0., 0., 0., 0., 0., 0.,
          0., 4.65116277e-003, 0., 0., 0., 0., 0., 0., 0.,
          4.65116277e-003, 0., 9.30232555e-003, 4.65116277e-003,
          4.65116277e-003, 0., 0., 0., 0., 0., 0., 0., 0., 0., 0., 0.,
          4.65116277e-003, 0., 4.65116277e-003, 0., 0., 0., 0.,
          9.30232555e-003, 0., 0., 0., 0., 0., 0., 4.65116277e-003, 0.,
          0., 0., 4.65116277e-003, 0., 0., 0., 0., 4.65116277e-003, 0.,
          0., 4.65116277e-003, 0., 4.65116277e-003, 0., 0.,
          9.30232555e-003, 4.65116277e-003, 4.65116277e-003, 0., 0., 0.,
          0., 0., 0., 0., 4.65116277e-003, 0., 0., 0., 0., 0., 0.,
          9.30232555e-003, 4.65116277e-003, 0., 0., 0., 0.,
          1.86046511e-002, 0., 0., 0., 0., 0., 0., 9.30232555e-003,
          4.65116277e-003, 0., 0., 0., 0., 0., 0., 0., 0.,
          4.65116277e-003, 0., 0., 0., 0., 0., 0., 0., 4.65116277e-003,
          0., 0., 0., 0., 0., 0., 0., 9.30232555e-003, 0., 0., 0., 0.,
          0., 0., 0., 0., 0., 0., 0., 0., 0., 0., 0., 0., 0., 0., 0., 0.,
          0., 0., 0., 0., 0., 0., 4.65116277e-003, 4.65116277e-003, 0.,
          0., 0., 4.65116277e-003, 0., 0., 0., 0., 0., 0., 0., 0.,
          4.65116277e-003, 0., 0., 0., 0., 4.65116277e-003, 0.,
          4.65116277e-003, 4.65116277e-003, 0., 0., 0., 4.65116277e-003,
          0., 0., 0., 0., 0., 0., 0., 0., 0., 0., 0., 0., 0., 0., 0., 0.,
          0., 0., 0., 0., 0., 0., 0., 0., 0., 4.65116277e-003, 0., 0.,
          0., 0., 0., 0., 0., 0., 4.65116277e-003, 0., 0., 0., 0., 0.,
          0., 0., 0., 0., 0., 0., 0., 0., 4.65116277e-003, 0., 0., 0.,
          0., 0., 4.65116277e-003, 0., 0., 0., 0., 0., 0., 0., 0.,
          4.65116277e-003, 4.65116277e-003, 0., 0., 0., 0., 0., 0., 0.,
          0., 0., 0., 0., 0., 4.65116277e-003, 0., 0., 0., 0., 0., 0.,
          0., 0., 4.65116277e-003, 0., 0., 0., 9.30232555e-003, 0., 0.,
          0., 0., 0., 0., 0., 0., 4.65116277e-003, 0., 4.65116277e-003,
          0., 0., 0., 0., 0., 0., 0., 0., 0., 0., 0., 0., 0., 0.,
          4.65116277e-003, 0., 0., 0., 4.65116277e-003, 0., 0., 0.,
          4.65116277e-003, 0., 0., 0., 0., 0., 0., 0., 0., 0., 0., 0.,
          0., 4.65116277e-003, 0., 0., 0., 0., 0., 0., 4.65116277e-003,
          4.65116277e-003, 0., 0., 0., 0., 0., 0., 0., 0., 0., 0., 0.,
          0., 0., 0., 0., 0., 0., 0., 0., 0., 0., 0., 0., 0., 0., 0., 0.,
          0., 0., 0., 0., 0., 0., 0., 0., 0., 4.65116277e-003, 0., 0.,
          0., 4.65116277e-003, 0., 0., 0., 0., 0., 0., 0., 0., 0., 0.,
          0., 4.65116277e-003, 0., 0., 0., 4.65116277e-003, 0., 0.,
          4.65116277e-003, 0., 4.65116277e-003, 0., 4.65116277e-003, 0.,
          0., 0., 0., 4.65116277e-003, 0., 0., 0., 0., 0., 0., 0., 0.,
          0., 4.65116277e-003, 4.65116277e-003, 4.65116277e-003, 0., 0.,
          0., 0., 0., 0. ]
      - [ 0., 3.53356893e-003, 0., 3.53356893e-003, 0., 0.,
          3.53356893e-003, 3.53356893e-003, 0., 3.53356893e-003,
          3.53356893e-003, 0., 0., 0., 0., 0., 0., 0., 0., 0., 0.,
          3.53356893e-003, 0., 0., 0., 0., 0., 3.53356893e-003,
          3.53356893e-003, 0., 0., 0., 0., 3.53356893e-003,
          3.53356893e-003, 0., 0., 0., 3.53356893e-003, 0., 0., 0., 0.,
          0., 0., 0., 0., 3.53356893e-003, 0., 0., 0., 0., 0., 0., 0.,
          3.53356893e-003, 0., 3.53356893e-003, 0., 1.06007066e-002, 0.,
          7.06713786e-003, 0., 1.06007066e-002, 0., 3.53356893e-003,
          3.53356893e-003, 0., 0., 0., 0., 0., 7.06713786e-003,
          7.06713786e-003, 0., 0., 0., 0., 0., 3.53356893e-003, 0., 0.,
          0., 1.06007066e-002, 0., 0., 0., 0., 3.53356893e-003, 0.,
          3.53356893e-003, 7.06713786e-003, 0., 0., 0., 0.,
          3.53356893e-003, 0., 0., 3.53356893e-003, 0., 7.06713786e-003,
          0., 0., 0., 0., 3.53356893e-003, 0., 0., 0., 0., 0., 0., 0.,
          0., 0., 0., 0., 0., 0., 0., 0., 0., 3.53356893e-003,
          3.53356893e-003, 0., 0., 0., 0., 3.53356893e-003,
          3.53356893e-003, 0., 0., 0., 0., 0., 3.53356893e-003, 0.,
          3.53356893e-003, 0., 3.53356893e-003, 3.53356893e-003, 0., 0.,
          0., 0., 0., 0., 0., 3.53356893e-003, 0., 0., 3.53356893e-003,
          3.53356893e-003, 0., 0., 0., 0., 0., 3.53356893e-003,
          3.53356893e-003, 0., 0., 0., 7.06713786e-003, 0.,
          3.53356893e-003, 3.53356893e-003, 0., 0., 0., 0.,
          3.53356893e-003, 0., 0., 0., 7.06713786e-003, 0., 0., 0., 0.,
          0., 0., 0., 0., 0., 0., 0., 0., 7.06713786e-003, 0., 0., 0.,
          0., 3.53356893e-003, 3.53356893e-003, 0., 0., 0.,
          3.53356893e-003, 0., 0., 7.06713786e-003, 0., 7.06713786e-003,
          0., 0., 0., 0., 0., 0., 0., 0., 0., 0., 0., 0., 0., 0., 0., 0.,
          1.41342757e-002, 0., 0., 0., 0., 3.53356893e-003, 0., 0., 0.,
          0., 0., 0., 0., 3.53356893e-003, 0., 0., 0., 0., 0.,
          3.53356893e-003, 0., 0., 0., 0., 0., 3.53356893e-003, 0., 0.,
          3.53356893e-003, 0., 0., 0., 0., 0., 0., 0., 0., 0., 0., 0.,
          0., 0., 7.06713786e-003, 3.53356893e-003, 0., 0., 0.,
          7.06713786e-003, 0., 0., 0., 0., 0., 0., 3.53356893e-003, 0.,
          0., 0., 0., 0., 0., 3.53356893e-003, 0., 0., 1.41342757e-002,
          0., 0., 0., 0., 0., 0., 3.53356893e-003, 0., 0., 0.,
          3.53356893e-003, 0., 0., 3.53356893e-003, 0., 0., 0., 0.,
          7.06713786e-003, 0., 0., 3.53356893e-003, 0., 7.06713786e-003,
          0., 0., 0., 0., 0., 0., 0., 3.53356893e-003, 3.53356893e-003,
          0., 0., 0., 0., 0., 0., 7.06713786e-003, 3.53356893e-003, 0.,
          0., 0., 7.06713786e-003, 0., 3.53356893e-003, 3.53356893e-003,
          3.53356893e-003, 3.53356893e-003, 3.53356893e-003, 0., 0., 0.,
          0., 0., 3.53356893e-003, 0., 0., 0., 3.53356893e-003, 0.,
          3.53356893e-003, 0., 0., 0., 0., 3.53356893e-003, 0., 0., 0.,
          0., 0., 0., 0., 3.53356893e-003, 0., 0., 0., 0.,
          3.53356893e-003, 0., 0., 0., 0., 3.53356893e-003, 0., 0., 0.,
          0., 0., 0., 0., 0., 0., 0., 0., 0., 7.06713786e-003,
          7.06713786e-003, 0., 0., 0., 0., 0., 0., 0., 0.,
          7.06713786e-003, 3.53356893e-003, 0., 0., 0., 0., 0., 0., 0.,
          1.06007066e-002, 0., 3.53356893e-003, 0., 0., 0., 0.,
          3.53356893e-003, 3.53356893e-003, 0., 3.53356893e-003, 0., 0.,
          0., 3.53356893e-003, 0., 3.53356893e-003, 0., 0., 0., 0., 0.,
          0., 0., 3.53356893e-003, 0., 0., 0., 0., 0., 0., 0.,
          7.06713786e-003, 3.53356893e-003, 3.53356893e-003, 0., 0.,
          7.06713786e-003, 0., 0., 0., 0., 0., 0., 3.53356893e-003, 0.,
          3.53356893e-003, 0., 0., 0., 0., 0., 0., 7.06713786e-003, 0.,
          7.06713786e-003, 0., 0., 0., 0., 0., 0., 0., 3.53356893e-003,
          3.53356893e-003, 7.06713786e-003, 0., 3.53356893e-003,
          1.06007066e-002, 0., 0., 0., 0., 3.53356893e-003, 0., 0., 0.,
          3.53356893e-003, 0., 0., 0., 0., 0., 0., 0., 0., 0., 0., 0.,
          0., 0., 0., 0., 0., 0., 0., 0., 0., 0., 0., 0., 0., 0., 0.,
          3.53356893e-003, 7.06713786e-003, 0., 0., 0., 0., 0., 0., 0.,
          0., 0., 0., 0., 3.53356893e-003, 0., 7.06713786e-003, 0., 0.,
          0., 0., 0., 3.53356893e-003, 7.06713786e-003, 0.,
          1.76678449e-002, 0., 3.53356893e-003, 0., 0., 0., 0.,
          3.53356893e-003, 7.06713786e-003, 0., 0., 0., 0., 0., 0., 0.,
          7.06713786e-003, 7.06713786e-003, 0., 0., 3.53356893e-003,
          3.53356893e-003, 0., 0., 0., 0., 0., 0., 0., 0., 0., 0., 0.,
          0., 0., 0., 0., 0., 0., 0., 0., 0., 0., 3.53356893e-003,
          7.06713786e-003, 3.53356893e-003, 0., 7.06713786e-003, 0.,
          2.12014131e-002, 3.53356893e-003, 0., 0., 0., 0., 0., 0., 0.,
          0., 0., 3.53356893e-003, 0., 7.06713786e-003, 0., 0., 0., 0.,
          0., 0., 0., 3.53356893e-003, 0., 0., 0., 0., 0., 0., 0., 0.,
          0., 3.53356893e-003, 0., 0., 0., 3.53356893e-003, 0.,
          3.53356893e-003, 0., 0., 0., 3.53356893e-003, 0., 0.,
          3.53356893e-003, 0., 0., 0., 0., 0., 0., 0., 0.,
          1.06007066e-002, 0., 0., 3.53356893e-003, 0., 0., 0., 0.,
          3.53356893e-003, 0., 0., 7.06713786e-003, 0., 0., 0.,
          3.53356893e-003, 3.53356893e-003, 0., 0., 0., 3.53356893e-003,
          3.53356893e-003, 0., 0., 7.06713786e-003, 3.53356893e-003,
          3.53356893e-003, 0., 0., 0., 0., 0., 0., 0., 0., 0.,
          3.53356893e-003, 0., 0., 0., 0., 3.53356893e-003, 0., 0., 0.,
          0., 0., 0., 0., 0., 0., 0., 0., 0., 0., 3.53356893e-003, 0.,
          0., 0., 0., 0., 0., 0., 0., 7.06713786e-003, 0., 0., 0., 0.,
          3.53356893e-003, 0., 0., 0., 0., 0., 0., 0., 0., 0., 0.,
          3.53356893e-003, 0., 0., 0., 0., 0., 3.53356893e-003, 0., 0.,
          0., 0., 0., 0., 0., 0., 0., 0., 0., 0., 0., 0., 0., 0., 0., 0.,
          3.53356893e-003, 0., 0., 0., 0., 0., 0., 3.53356893e-003, 0.,
          0., 3.53356893e-003, 0., 7.06713786e-003, 0., 0.,
          3.53356893e-003, 3.53356893e-003, 0., 0., 3.53356893e-003, 0.,
          3.53356893e-003, 0., 0., 0., 0., 3.53356893e-003, 0., 0., 0.,
          0., 3.53356893e-003, 0., 0., 0., 0., 0., 3.53356893e-003,
          3.53356893e-003, 0., 0., 3.53356893e-003, 1.41342757e-002, 0.,
          0., 0., 0., 0., 0., 0., 0., 0., 0., 0., 0., 0., 0., 0.,
          3.53356893e-003, 3.53356893e-003, 0., 0., 3.53356893e-003, 0.,
          0., 0., 0., 0., 0., 0., 0., 3.53356893e-003, 0., 0.,
          3.53356893e-003, 0., 0., 7.06713786e-003, 0., 0., 0., 0., 0.,
          3.53356893e-003, 0., 0., 0., 0., 0., 0., 0., 0., 0.,
          3.53356893e-003, 3.53356893e-003, 0., 0., 0., 0., 0., 0., 0.,
          3.53356893e-003, 0., 0., 0., 3.53356893e-003, 3.53356893e-003,
          0., 0., 0., 0., 0., 0., 0., 7.06713786e-003, 0., 0., 0., 0.,
          0., 0., 0., 0., 0., 0., 0., 0., 0., 0., 3.53356893e-003, 0.,
          0., 0., 0., 0., 0., 0., 0., 0., 0., 0., 0., 0., 0.,
          3.53356893e-003, 0., 0., 0., 0., 0., 0., 0., 3.53356893e-003,
          0., 0., 0., 3.53356893e-003, 0., 0., 0., 0., 7.06713786e-003,
          0., 0., 7.06713786e-003, 0., 0., 0., 3.53356893e-003, 0., 0.,
          0., 0., 0., 0., 0., 0., 0., 0., 0., 3.53356893e-003, 0., 0.,
          0., 0., 0., 0., 3.53356893e-003, 0., 0., 0., 0., 0., 0., 0.,
          0., 0., 0., 0., 0., 0., 0., 0., 0., 0., 0., 3.53356893e-003,
          0., 0., 3.53356893e-003, 0., 0., 0., 3.53356893e-003, 0., 0.,
          0., 0., 0., 0., 0., 0., 0., 0., 0., 0., 3.53356893e-003, 0.,
          0., 0., 0., 0., 0., 0., 0., 3.53356893e-003, 0., 0., 0., 0.,
          0., 0., 0., 3.53356893e-003, 1.06007066e-002, 0., 0., 0., 0.,
          0., 0., 0., 0., 0., 0., 3.53356893e-003, 0., 0., 0.,
          1.06007066e-002, 0. ]
      - [ 0., 0., 0., 0., 3.07692308e-003, 3.07692308e-003,
          6.15384616e-003, 3.07692308e-003, 0., 0., 0., 0., 0., 0., 0.,
          0., 3.07692308e-003, 0., 0., 0., 0., 0., 0., 0.,
          3.07692308e-003, 0., 6.15384616e-003, 0., 9.23076924e-003, 0.,
          0., 0., 0., 3.07692308e-003, 0., 3.07692308e-003, 0., 0.,
          3.07692308e-003, 0., 0., 0., 0., 0., 0., 0., 0., 0.,
          6.15384616e-003, 9.23076924e-003, 0., 0., 0., 0., 0.,
          6.15384616e-003, 0., 0., 0., 9.23076924e-003, 0.,
          3.07692308e-003, 0., 0., 0., 0., 3.07692308e-003,
          9.23076924e-003, 3.07692308e-003, 0., 0., 3.07692308e-003, 0.,
          3.07692308e-003, 0., 0., 0., 0., 0., 3.07692308e-003,
          6.15384616e-003, 0., 0., 6.15384616e-003, 9.23076924e-003, 0.,
          0., 0., 0., 3.07692308e-003, 0., 9.23076924e-003, 0., 0., 0.,
          0., 0., 3.07692308e-003, 0., 1.23076923e-002, 3.07692308e-003,
          0., 0., 0., 3.07692308e-003, 0., 3.07692308e-003, 0., 0., 0.,
          0., 6.15384616e-003, 0., 3.07692308e-003, 0., 0., 0., 0.,
          3.07692308e-003, 0., 0., 0., 0., 0., 0., 0., 3.07692308e-003,
          3.07692308e-003, 9.23076924e-003, 0., 0., 6.15384616e-003, 0.,
          0., 3.07692308e-003, 0., 0., 0., 6.15384616e-003, 0., 0., 0.,
          0., 0., 0., 0., 0., 0., 0., 0., 0., 0., 0., 0., 0., 0., 0., 0.,
          3.07692308e-003, 0., 0., 0., 0., 0., 3.07692308e-003,
          3.07692308e-003, 3.07692308e-003, 0., 0., 0., 0., 0., 0., 0.,
          0., 0., 3.07692308e-003, 0., 9.23076924e-003, 0., 0.,
          6.15384616e-003, 0., 0., 0., 0., 0., 3.07692308e-003,
          3.07692308e-003, 3.07692308e-003, 0., 0., 0., 0., 0., 0., 0.,
          0., 0., 0., 0., 0., 0., 0., 9.23076924e-003, 0.,
          3.07692308e-003, 6.15384616e-003, 3.07692308e-003,
          6.15384616e-003, 0., 3.07692308e-003, 6.15384616e-003, 0., 0.,
          0., 0., 0., 0., 0., 0., 6.15384616e-003, 0., 0., 0.,
          3.07692308e-003, 3.07692308e-003, 0., 0., 0., 0., 0.,
          6.15384616e-003, 0., 0., 0., 0., 0., 0., 0., 3.07692308e-003,
          0., 0., 0., 0., 0., 3.07692308e-003, 0., 0., 0.,
          3.07692308e-003, 0., 0., 0., 6.15384616e-003, 0., 0., 0.,
          3.07692308e-003, 3.07692308e-003, 0., 0., 0., 3.07692308e-003,
          0., 0., 0., 3.07692308e-003, 0., 3.07692308e-003, 0., 0., 0.,
          3.07692308e-003, 0., 0., 0., 0., 0., 0., 0., 0., 0., 0., 0.,
          6.15384616e-003, 0., 3.07692308e-003, 0., 0., 0.,
          3.07692308e-003, 6.15384616e-003, 0., 0., 0., 0., 0., 0.,
          6.15384616e-003, 0., 0., 0., 3.07692308e-003, 0., 0., 0., 0.,
          0., 3.07692308e-003, 0., 0., 0., 0., 0., 0., 0., 0., 0., 0.,
          0., 0., 0., 0., 0., 0., 0., 0., 0., 0., 0., 0.,
          3.07692308e-003, 0., 0., 0., 0., 3.07692308e-003, 0.,
          3.07692308e-003, 0., 0., 3.07692308e-003, 9.23076924e-003,
          3.07692308e-003, 0., 0., 0., 3.07692308e-003, 0., 0., 0., 0.,
          1.23076923e-002, 3.07692308e-003, 0., 0., 0., 0., 0., 0., 0.,
          0., 0., 0., 0., 0., 0., 0., 0., 0., 0., 3.07692308e-003, 0.,
          0., 0., 0., 0., 0., 0., 3.07692308e-003, 3.07692308e-003,
          3.07692308e-003, 0., 3.07692308e-003, 0., 0., 0., 0., 0., 0.,
          0., 0., 0., 0., 0., 3.07692308e-003, 0., 0., 0.,
          3.07692308e-003, 0., 0., 3.07692308e-003, 0., 0., 0., 0., 0.,
          0., 0., 3.07692308e-003, 0., 3.07692308e-003, 0., 0., 0.,
          9.23076924e-003, 0., 0., 0., 0., 0., 0., 0., 0., 0., 0., 0.,
          3.07692308e-003, 0., 0., 3.07692308e-003, 0., 3.07692308e-003,
          0., 6.15384616e-003, 6.15384616e-003, 0., 0., 0., 0.,
          3.07692308e-003, 0., 0., 3.07692308e-003, 0., 9.23076924e-003,
          0., 0., 0., 0., 0., 0., 0., 0., 3.07692308e-003, 0., 0., 0.,
          0., 0., 0., 0., 0., 0., 0., 0., 0., 0., 0., 0., 0., 0., 0., 0.,
          0., 0., 0., 0., 0., 0., 0., 0., 3.07692308e-003, 0., 0., 0.,
          3.07692308e-003, 0., 3.07692308e-003, 3.07692308e-003,
          6.15384616e-003, 3.07692308e-003, 0., 0., 0., 0., 0., 0., 0.,
          0., 0., 0., 0., 0., 0., 3.07692308e-003, 3.07692308e-003, 0.,
          0., 0., 0., 0., 0., 0., 0., 0., 0., 0., 3.07692308e-003, 0.,
          3.07692308e-003, 0., 0., 0., 0., 0., 0., 0., 0.,
          3.07692308e-003, 0., 3.07692308e-003, 1.23076923e-002,
          3.07692308e-003, 0., 0., 0., 3.07692308e-003, 0., 0., 0., 0.,
          0., 0., 0., 3.07692308e-003, 3.07692308e-003, 0., 0., 0., 0.,
          0., 0., 3.07692308e-003, 0., 0., 0., 0., 0., 0., 0., 0.,
          3.07692308e-003, 0., 0., 3.07692308e-003, 0., 0., 0., 0., 0.,
          3.07692308e-003, 3.07692308e-003, 0., 0., 0., 0., 0., 0., 0.,
          0., 0., 0., 3.07692308e-003, 3.07692308e-003, 0., 0., 0.,
          3.07692308e-003, 0., 0., 3.07692308e-003, 0., 0.,
          6.15384616e-003, 3.07692308e-003, 0., 0., 0., 0.,
          3.07692308e-003, 0., 0., 0., 0., 0., 0., 0., 3.07692308e-003,
          3.07692308e-003, 6.15384616e-003, 6.15384616e-003,
          3.07692308e-003, 0., 3.07692308e-003, 0., 0., 3.07692308e-003,
          0., 3.07692308e-003, 0., 0., 0., 0., 0., 0., 0.,
          6.15384616e-003, 0., 0., 0., 9.23076924e-003, 0., 0.,
          3.07692308e-003, 3.07692308e-003, 0., 0., 0., 9.23076924e-003,
          0., 0., 0., 3.07692308e-003, 3.07692308e-003, 0., 0., 0., 0.,
          0., 3.07692308e-003, 0., 0., 3.07692308e-003, 0.,
          9.23076924e-003, 0., 0., 0., 0., 0., 0., 0., 0., 0., 0., 0.,
          3.07692308e-003, 3.07692308e-003, 0., 0., 0., 0., 0., 0., 0.,
          0., 0., 3.07692308e-003, 0., 0., 0., 6.15384616e-003, 0., 0.,
          0., 3.07692308e-003, 0., 0., 0., 0., 0., 0., 0., 0., 0., 0.,
          0., 0., 0., 3.07692308e-003, 0., 0., 0., 0., 0., 0.,
          3.07692308e-003, 0., 0., 0., 1.23076923e-002, 0., 0., 0.,
          3.07692308e-003, 0., 0., 3.07692308e-003, 0., 0.,
          6.15384616e-003, 0., 0., 0., 9.23076924e-003, 0.,
          3.07692308e-003, 0., 6.15384616e-003, 0., 0., 0., 0., 0., 0.,
          0., 0., 0., 0., 0., 0., 0., 0., 0., 0., 0., 0.,
          9.23076924e-003, 6.15384616e-003, 0., 0., 0., 0., 0.,
          6.15384616e-003, 0., 3.07692308e-003, 0., 0., 0.,
          6.15384616e-003, 6.15384616e-003, 0., 0., 0., 0., 0., 0.,
          3.07692308e-003, 0., 0., 3.07692308e-003, 6.15384616e-003, 0.,
          0., 0., 0., 0., 0., 0., 0., 0., 0., 0., 0., 0., 0., 0.,
          9.23076924e-003, 3.07692308e-003, 3.07692308e-003, 0., 0., 0.,
          3.07692308e-003, 6.15384616e-003, 0., 6.15384616e-003, 0., 0.,
          0., 0., 0., 0., 0., 6.15384616e-003, 0., 0., 3.07692308e-003,
          0., 0., 0., 0., 0., 0., 0., 0., 0., 0., 3.07692308e-003, 0.,
          3.07692308e-003, 0., 0., 0., 0., 0., 0., 0., 3.07692308e-003,
          0., 0., 0., 3.07692308e-003, 3.07692308e-003, 0., 0., 0., 0.,
          0., 0., 3.07692308e-003, 0., 0., 0., 0., 0., 0., 0., 0., 0.,
          0., 3.07692308e-003, 0., 0., 0., 1.53846154e-002, 0.,
          3.07692308e-003, 0., 0., 0., 0., 0., 0., 6.15384616e-003, 0.,
          0., 3.07692308e-003, 0., 0., 0., 0., 0., 0., 0., 0., 0., 0.,
          0., 0., 0., 0., 0., 0., 0., 0., 0., 6.15384616e-003, 0., 0.,
          0., 6.15384616e-003, 0., 0., 0., 0., 3.07692308e-003, 0.,
          3.07692308e-003, 0., 0., 0., 6.15384616e-003, 0., 0., 0., 0.,
          3.07692308e-003, 0., 3.07692308e-003, 0., 3.07692308e-003,
          6.15384616e-003, 0., 0., 0., 0., 0., 6.15384616e-003, 0., 0.,
          6.15384616e-003, 0., 0., 0., 0., 0., 0., 0., 0., 0., 0., 0.,
          3.07692308e-003, 0., 0., 0., 0., 0., 0., 0., 0., 0.,
          6.15384616e-003, 6.15384616e-003, 0., 0., 0., 0., 0., 0., 0.,
          0., 0., 0., 0., 0., 0., 0., 0., 0., 0., 0., 0., 0., 0., 0.,
          3.07692308e-003, 3.07692308e-003, 0., 0., 0., 0., 0.,
          3.07692308e-003, 0., 0., 0., 0., 1.84615385e-002, 0., 0., 0.,
          0., 0., 0., 0., 0., 0., 0., 6.15384616e-003, 0., 0., 0.,
          1.53846154e-002, 0. ]
      - [ 0., 9.04977415e-003, 0., 0., 0., 0., 4.52488707e-003, 0., 0.,
          0., 4.52488707e-003, 0., 0., 0., 0., 0., 0., 0., 0.,
          4.52488707e-003, 0., 0., 0., 0., 0., 0., 0., 1.35746617e-002,
          4.52488707e-003, 0., 0., 0., 0., 4.52488707e-003, 0., 0., 0.,
          0., 0., 0., 0., 0., 0., 0., 0., 0., 0., 9.04977415e-003, 0.,
          0., 0., 0., 0., 4.52488707e-003, 0., 4.52488707e-003, 0.,
          4.52488707e-003, 0., 4.52488707e-003, 0., 0., 0.,
          9.04977415e-003, 0., 4.52488707e-003, 0., 0., 4.52488707e-003,
          0., 0., 0., 4.52488707e-003, 0., 0., 0., 0., 0., 0.,
          4.52488707e-003, 0., 0., 0., 0., 4.52488707e-003, 0., 0., 0.,
          0., 0., 9.04977415e-003, 0., 0., 0., 0., 0., 0., 0., 0., 0.,
          9.04977415e-003, 0., 0., 0., 0., 0., 4.52488707e-003,
          4.52488707e-003, 0., 0., 0., 0., 0., 0., 0., 0., 0., 0., 0.,
          0., 0., 0., 0., 0., 4.52488707e-003, 0., 0., 4.52488707e-003,
          0., 0., 0., 4.52488707e-003, 0., 0., 4.52488707e-003, 0., 0.,
          0., 4.52488707e-003, 0., 0., 0., 0., 0., 0., 0., 0., 0., 0.,
          4.52488707e-003, 0., 0., 4.52488707e-003, 0., 0., 0., 0., 0.,
          0., 4.52488707e-003, 0., 0., 4.52488707e-003, 0., 0., 0.,
          9.04977415e-003, 0., 0., 0., 0., 9.04977415e-003,
          4.52488707e-003, 0., 0., 0., 4.52488707e-003, 0., 0., 0., 0.,
          0., 4.52488707e-003, 4.52488707e-003, 0., 0., 0., 0., 0.,
          4.52488707e-003, 0., 4.52488707e-003, 0., 0., 4.52488707e-003,
          0., 0., 0., 0., 0., 0., 0., 4.52488707e-003, 4.52488707e-003,
          9.04977415e-003, 4.52488707e-003, 0., 4.52488707e-003, 0., 0.,
          0., 4.52488707e-003, 0., 0., 0., 0., 0., 0., 0., 0., 0., 0.,
          0., 0., 0., 0., 0., 0., 0., 0., 0., 0., 0., 0.,
          4.52488707e-003, 0., 0., 0., 0., 0., 4.52488707e-003, 0., 0.,
          4.52488707e-003, 0., 0., 0., 0., 0., 9.04977415e-003,
          4.52488707e-003, 0., 0., 0., 4.52488707e-003, 0., 0., 0., 0.,
          0., 0., 0., 4.52488707e-003, 4.52488707e-003, 0., 0., 0., 0.,
          0., 0., 0., 0., 0., 0., 0., 0., 0., 4.52488707e-003, 0., 0.,
          0., 0., 0., 4.52488707e-003, 4.52488707e-003, 4.52488707e-003,
          0., 0., 0., 0., 0., 0., 0., 0., 0., 0., 1.35746617e-002, 0.,
          0., 4.52488707e-003, 4.52488707e-003, 0., 4.52488707e-003, 0.,
          4.52488707e-003, 4.52488707e-003, 0., 0., 0., 4.52488707e-003,
          0., 0., 0., 0., 0., 0., 0., 0., 0., 0., 0., 0., 0., 0., 0.,
          4.52488707e-003, 0., 0., 0., 0., 0., 4.52488707e-003,
          4.52488707e-003, 4.52488707e-003, 0., 0., 4.52488707e-003, 0.,
          0., 0., 0., 0., 0., 0., 0., 0., 1.35746617e-002, 0.,
          4.52488707e-003, 0., 0., 0., 0., 0., 4.52488707e-003, 0., 0.,
          0., 4.52488707e-003, 0., 0., 4.52488707e-003, 0., 0., 0., 0.,
          0., 0., 0., 0., 4.52488707e-003, 0., 0., 0., 4.52488707e-003,
          0., 0., 0., 0., 0., 4.52488707e-003, 0., 0., 0.,
          1.35746617e-002, 0., 0., 0., 0., 0., 0., 0., 4.52488707e-003,
          0., 0., 4.52488707e-003, 9.04977415e-003, 0., 0., 0., 0., 0.,
          0., 0., 4.52488707e-003, 4.52488707e-003, 0., 0., 0., 0., 0.,
          0., 4.52488707e-003, 0., 0., 0., 9.04977415e-003, 0., 0., 0.,
          4.52488707e-003, 0., 0., 1.35746617e-002, 0., 0., 0., 0., 0.,
          4.52488707e-003, 0., 0., 0., 4.52488707e-003, 0.,
          4.52488707e-003, 0., 0., 0., 0., 4.52488707e-003, 0.,
          4.52488707e-003, 0., 0., 0., 0., 9.04977415e-003, 0., 0., 0.,
          0., 0., 0., 0., 0., 4.52488707e-003, 4.52488707e-003, 0., 0.,
          0., 0., 0., 0., 0., 0., 4.52488707e-003, 0., 4.52488707e-003,
          0., 0., 0., 9.04977415e-003, 0., 0., 0., 0., 0., 0., 0., 0.,
          0., 0., 0., 0., 0., 0., 4.52488707e-003, 0., 0., 0.,
          4.52488707e-003, 0., 4.52488707e-003, 0., 0., 0.,
          4.52488707e-003, 0., 0., 4.52488707e-003, 0., 4.52488707e-003,
          0., 0., 0., 0., 0., 4.52488707e-003, 0., 4.52488707e-003, 0.,
          0., 0., 0., 0., 0., 0., 0., 0., 0., 0., 0., 0., 0., 0., 0., 0.,
          0., 0., 1.35746617e-002, 0., 0., 4.52488707e-003, 0., 0., 0.,
          0., 0., 0., 0., 0., 0., 0., 0., 0., 0., 0., 0., 0., 0.,
          4.52488707e-003, 0., 0., 4.52488707e-003, 4.52488707e-003, 0.,
          0., 0., 0., 0., 0., 0., 0., 4.52488707e-003, 0., 0.,
          4.52488707e-003, 0., 0., 0., 0., 0., 0., 0., 4.52488707e-003,
          4.52488707e-003, 0., 0., 0., 0., 4.52488707e-003, 0., 0., 0.,
          0., 0., 0., 0., 0., 0., 0., 0., 1.35746617e-002, 0., 0., 0.,
          0., 0., 0., 0., 0., 0., 0., 0., 0., 4.52488707e-003, 0., 0.,
          0., 0., 0., 4.52488707e-003, 0., 4.52488707e-003, 0.,
          4.52488707e-003, 0., 0., 0., 0., 0., 0., 0., 0., 0.,
          4.52488707e-003, 0., 4.52488707e-003, 0., 0., 0., 0.,
          4.52488707e-003, 0., 0., 0., 0., 0., 0., 4.52488707e-003, 0.,
          0., 0., 4.52488707e-003, 0., 4.52488707e-003, 0., 0.,
          9.04977415e-003, 0., 4.52488707e-003, 4.52488707e-003, 0.,
          4.52488707e-003, 0., 0., 0., 0., 4.52488707e-003, 0., 0., 0.,
          0., 0., 0., 0., 4.52488707e-003, 0., 0., 0., 0., 0., 0.,
          2.26244349e-002, 4.52488707e-003, 0., 0., 0., 4.52488707e-003,
          9.04977415e-003, 0., 0., 0., 0., 0., 0., 4.52488707e-003, 0.,
          0., 0., 0., 0., 0., 0., 0., 0., 0., 0., 0., 0., 0., 0., 0., 0.,
          4.52488707e-003, 0., 0., 0., 0., 0., 0., 0., 4.52488707e-003,
          0., 0., 0., 0., 0., 0., 0., 0., 0., 0., 0., 0., 0., 0., 0., 0.,
          0., 0., 0., 0., 0., 0., 0., 4.52488707e-003, 0., 0., 0.,
          4.52488707e-003, 0., 0., 0., 0., 0., 0., 4.52488707e-003, 0.,
          0., 4.52488707e-003, 4.52488707e-003, 4.52488707e-003, 0., 0.,
          0., 0., 0., 4.52488707e-003, 0., 0., 4.52488707e-003, 0., 0.,
          0., 0., 0., 0., 0., 4.52488707e-003, 0., 0., 0., 0., 0.,
          4.52488707e-003, 0., 0., 0., 4.52488707e-003, 0., 0., 0., 0.,
          0., 0., 0., 0., 0., 4.52488707e-003, 0., 4.52488707e-003, 0.,
          0., 0., 0., 0., 0., 0., 0., 0., 0., 0., 0., 0., 0., 0., 0.,
          9.04977415e-003, 0., 0., 0., 0., 0., 4.52488707e-003, 0., 0.,
          0., 0., 0., 4.52488707e-003, 0., 0., 0., 0., 0., 0., 0., 0.,
          4.52488707e-003, 4.52488707e-003, 0., 0., 0., 0., 0., 0., 0.,
          0., 4.52488707e-003, 0., 0., 0., 9.04977415e-003, 0., 0., 0.,
          0., 0., 0., 0., 0., 0., 0., 0., 0., 4.52488707e-003, 0., 0.,
          0., 0., 0., 0., 0., 0., 9.04977415e-003, 0., 0., 0., 0., 0.,
          0., 0., 0., 0., 0., 0., 0., 0., 0., 0., 0., 4.52488707e-003,
          0., 0., 0., 0., 0., 0., 0., 4.52488707e-003, 0., 0., 0., 0.,
          0., 9.04977415e-003, 0., 0., 0., 0., 0., 0., 0., 0., 0.,
          4.52488707e-003, 0., 0., 0., 0., 0., 0., 0., 4.52488707e-003,
          0., 0., 0., 0., 0., 0., 4.52488707e-003, 0., 4.52488707e-003,
          0., 0., 4.52488707e-003, 0., 0., 0., 0., 4.52488707e-003, 0.,
          0., 0., 0., 0., 0., 0., 0., 0., 0., 0., 0., 0., 0., 0.,
          4.52488707e-003, 4.52488707e-003, 0., 0., 0., 0., 0., 0., 0.,
          0., 0., 0., 0., 0., 4.52488707e-003, 0., 0., 0., 0., 0., 0.,
          0., 0., 0., 4.52488707e-003, 0., 4.52488707e-003, 0., 0., 0.,
          0., 0., 0., 4.52488707e-003, 0., 9.04977415e-003, 0., 0., 0.,
          0., 4.52488707e-003, 0., 0., 0., 0., 9.04977415e-003, 0., 0.,
          4.52488707e-003, 0., 0., 0. ]
      - [ 0., 0., 0., 0., 0., 0., 0., 4.25531901e-003, 0.,
          1.27659570e-002, 0., 0., 0., 0., 0., 0., 0., 0., 0.,
          4.25531901e-003, 0., 0., 8.51063803e-003, 0., 4.25531901e-003,
          0., 0., 0., 8.51063803e-003, 0., 0., 0., 0., 4.25531901e-003,
          0., 0., 0., 0., 4.25531901e-003, 0., 0., 4.25531901e-003,
          4.25531901e-003, 0., 0., 0., 0., 4.25531901e-003,
          4.25531901e-003, 8.51063803e-003, 4.25531901e-003, 0., 0.,
          4.25531901e-003, 4.25531901e-003, 0., 0., 0., 0., 0., 0., 0.,
          0., 8.51063803e-003, 0., 4.25531901e-003, 0., 0., 0., 0., 0.,
          0., 0., 0., 0., 0., 0., 0., 0., 0., 0., 0., 8.51063803e-003,
          0., 0., 0., 0., 0., 0., 0., 4.25531901e-003, 0., 0., 0., 0.,
          0., 0., 0., 0., 0., 0., 0., 0., 0., 8.51063803e-003, 0., 0.,
          0., 4.25531901e-003, 0., 0., 4.25531901e-003, 0., 0.,
          4.25531901e-003, 0., 0., 4.25531901e-003, 0., 0., 0., 0., 0.,
          0., 0., 0., 0., 4.25531901e-003, 8.51063803e-003,
          4.25531901e-003, 0., 0., 0., 0., 0., 0., 0., 0., 0., 0.,
          4.25531901e-003, 0., 0., 0., 0., 0., 0., 4.25531901e-003, 0.,
          4.25531901e-003, 0., 0., 0., 0., 0., 0., 0., 0., 0.,
          4.25531901e-003, 4.25531901e-003, 0., 4.25531901e-003, 0., 0.,
          0., 8.51063803e-003, 0., 0., 0., 0., 8.51063803e-003,
          4.25531901e-003, 0., 0., 0., 0., 0., 0., 0., 0., 0.,
          4.25531901e-003, 0., 0., 0., 0., 0., 0., 0., 0., 0.,
          4.25531901e-003, 0., 4.25531901e-003, 0., 0., 0., 0., 0., 0.,
          0., 0., 0., 8.51063803e-003, 4.25531901e-003, 0., 0., 0., 0.,
          0., 4.25531901e-003, 0., 0., 0., 0., 0., 0., 0., 0., 0., 0.,
          0., 0., 0., 0., 0., 0., 0., 0., 0., 0., 0., 0.,
          4.25531901e-003, 0., 0., 0., 0., 0., 1.27659570e-002, 0., 0.,
          0., 0., 0., 0., 0., 0., 4.25531901e-003, 4.25531901e-003, 0.,
          0., 4.25531901e-003, 2.55319141e-002, 0., 0., 0., 0., 0., 0.,
          0., 0., 4.25531901e-003, 0., 0., 0., 0., 4.25531901e-003, 0.,
          0., 0., 0., 0., 0., 0., 0., 0., 0., 0., 0., 0., 0.,
          4.25531901e-003, 0., 0., 0., 0., 4.25531901e-003, 0., 0., 0.,
          0., 0., 0., 0., 1.27659570e-002, 0., 0., 4.25531901e-003, 0.,
          0., 0., 0., 4.25531901e-003, 0., 0., 0., 0., 4.25531901e-003,
          0., 0., 4.25531901e-003, 0., 0., 0., 4.25531901e-003, 0., 0.,
          0., 0., 0., 0., 4.25531901e-003, 0., 0., 0., 0., 0., 0., 0.,
          8.51063803e-003, 4.25531901e-003, 4.25531901e-003, 0., 0.,
          4.25531901e-003, 0., 0., 0., 0., 0., 4.25531901e-003,
          4.25531901e-003, 0., 0., 1.27659570e-002, 0., 0., 0., 0., 0.,
          0., 4.25531901e-003, 4.25531901e-003, 0., 0., 0., 0.,
          4.25531901e-003, 0., 8.51063803e-003, 0., 0., 0., 0., 0., 0.,
          0., 4.25531901e-003, 0., 8.51063803e-003, 0., 0.,
          4.25531901e-003, 0., 0., 4.25531901e-003, 0., 0.,
          4.25531901e-003, 4.25531901e-003, 0., 0., 4.25531901e-003, 0.,
          0., 0., 0., 0., 0., 0., 0., 0., 0., 0., 1.27659570e-002, 0.,
          4.25531901e-003, 0., 0., 0., 0., 0., 8.51063803e-003,
          4.25531901e-003, 0., 0., 0., 0., 4.25531901e-003, 0., 0., 0.,
          0., 0., 0., 8.51063803e-003, 0., 8.51063803e-003,
          4.25531901e-003, 0., 0., 4.25531901e-003, 8.51063803e-003,
          4.25531901e-003, 0., 0., 4.25531901e-003, 8.51063803e-003, 0.,
          0., 0., 0., 0., 0., 0., 0., 0., 0., 8.51063803e-003, 0., 0.,
          0., 0., 4.25531901e-003, 0., 8.51063803e-003, 0.,
          4.25531901e-003, 0., 0., 0., 0., 0., 0., 0., 0., 0., 0., 0.,
          0., 0., 0., 0., 0., 0., 0., 8.51063803e-003, 0., 0., 0., 0.,
          0., 0., 0., 0., 0., 0., 0., 0., 0., 0., 0., 4.25531901e-003,
          0., 0., 0., 4.25531901e-003, 0., 0., 0., 0., 8.51063803e-003,
          0., 0., 0., 0., 0., 0., 0., 0., 4.25531901e-003, 0., 0., 0.,
          0., 0., 0., 0., 0., 0., 0., 0., 0., 0., 0., 1.70212761e-002,
          4.25531901e-003, 0., 0., 0., 0., 0., 0., 0., 0., 0., 0.,
          4.25531901e-003, 4.25531901e-003, 0., 0., 4.25531901e-003, 0.,
          4.25531901e-003, 0., 0., 4.25531901e-003, 8.51063803e-003, 0.,
          0., 0., 0., 0., 0., 0., 0., 0., 0., 0., 4.25531901e-003, 0.,
          4.25531901e-003, 4.25531901e-003, 4.25531901e-003, 0., 0., 0.,
          0., 0., 0., 0., 0., 0., 0., 0., 8.51063803e-003, 0., 0., 0.,
          0., 0., 0., 0., 4.25531901e-003, 4.25531901e-003, 0., 0., 0.,
          0., 0., 0., 0., 0., 0., 0., 0., 0., 0., 0., 0., 0., 0., 0., 0.,
          0., 0., 0., 0., 0., 0., 4.25531901e-003, 0., 0., 0., 0., 0.,
          0., 0., 0., 0., 4.25531901e-003, 0., 8.51063803e-003, 0., 0.,
          0., 0., 0., 0., 8.51063803e-003, 0., 0., 4.25531901e-003, 0.,
          0., 0., 0., 0., 0., 0., 0., 4.25531901e-003, 0., 0., 0., 0.,
          0., 0., 8.51063803e-003, 4.25531901e-003, 0., 0.,
          8.51063803e-003, 0., 4.25531901e-003, 0., 0., 8.51063803e-003,
          0., 4.25531901e-003, 0., 0., 4.25531901e-003, 0., 0., 0., 0.,
          0., 0., 4.25531901e-003, 0., 0., 0., 0., 0., 0.,
          4.25531901e-003, 0., 0., 0., 0., 0., 8.51063803e-003,
          4.25531901e-003, 0., 0., 0., 0., 4.25531901e-003, 0., 0., 0.,
          0., 0., 0., 4.25531901e-003, 4.25531901e-003, 0.,
          4.25531901e-003, 0., 0., 0., 0., 0., 0., 0., 0.,
          4.25531901e-003, 8.51063803e-003, 0., 0., 0., 0., 0., 0., 0.,
          0., 0., 0., 0., 0., 8.51063803e-003, 4.25531901e-003, 0., 0.,
          0., 0., 0., 0., 0., 0., 0., 0., 0., 0., 0., 0.,
          4.25531901e-003, 0., 0., 4.25531901e-003, 0., 0., 0., 0., 0.,
          0., 0., 4.25531901e-003, 0., 0., 0., 0., 4.25531901e-003, 0.,
          0., 4.25531901e-003, 0., 0., 4.25531901e-003, 4.25531901e-003,
          8.51063803e-003, 0., 0., 0., 0., 0., 4.25531901e-003, 0., 0.,
          0., 0., 0., 4.25531901e-003, 4.25531901e-003, 4.25531901e-003,
          0., 0., 0., 0., 0., 0., 0., 0., 8.51063803e-003, 0., 0., 0.,
          0., 0., 4.25531901e-003, 0., 4.25531901e-003, 0., 0., 0.,
          4.25531901e-003, 0., 0., 4.25531901e-003, 1.27659570e-002, 0.,
          0., 0., 4.25531901e-003, 4.25531901e-003, 0., 0., 0.,
          4.25531901e-003, 0., 0., 0., 0., 0., 0., 0., 0., 0., 0., 0.,
          0., 0., 8.51063803e-003, 0., 0., 0., 0., 4.25531901e-003,
          4.25531901e-003, 0., 0., 0., 0., 0., 0., 0., 0.,
          4.25531901e-003, 0., 0., 0., 0., 0., 0., 0., 0., 0., 0., 0.,
          0., 0., 0., 4.25531901e-003, 0., 0., 0., 0., 4.25531901e-003,
          0., 0., 4.25531901e-003, 0., 0., 0., 4.25531901e-003, 0., 0.,
          0., 0., 0., 0., 0., 0., 0., 0., 0., 0., 0., 0., 0., 0., 0., 0.,
          0., 0., 0., 0., 0., 0., 0., 4.25531901e-003, 0., 0., 0., 0.,
          0., 0., 0., 0., 0., 0., 0., 0., 0., 0., 0., 0., 0., 0., 0., 0.,
          0., 0., 0., 0., 0., 0., 0., 0., 4.25531901e-003, 0., 0.,
          4.25531901e-003, 0., 0., 0., 0., 0., 0., 4.25531901e-003, 0.,
          0., 4.25531901e-003, 0., 0., 0., 0., 0., 0., 0., 0.,
          4.25531901e-003, 0., 0., 0., 0., 0., 0., 0., 0., 0., 0.,
          4.25531901e-003, 0., 0., 0., 4.25531901e-003, 0., 0., 0., 0.,
          0., 0., 0., 0., 0., 0., 0., 0., 0., 0., 0., 0., 0., 0., 0., 0.,
          0., 0., 0., 0., 0., 0., 0., 0., 0., 0., 0., 4.25531901e-003,
          0., 0., 0., 0., 0., 0., 0., 0., 0., 0., 0., 4.25531901e-003,
          0., 0., 0., 0., 4.25531901e-003, 0. ]
      - [ 0., 9.43396240e-003, 0., 0., 0., 0., 0., 0., 0., 0., 0., 0.,
          0., 0., 0., 0., 0., 0., 0., 4.71698120e-003, 4.71698120e-003,
          0., 0., 0., 0., 0., 0., 0., 4.71698120e-003, 0., 0., 0., 0.,
          4.71698120e-003, 0., 4.71698120e-003, 0., 0., 9.43396240e-003,
          0., 0., 0., 4.71698120e-003, 0., 0., 0., 0., 4.71698120e-003,
          0., 0., 0., 0., 0., 4.71698120e-003, 0., 4.71698120e-003, 0.,
          0., 0., 0., 0., 0., 0., 9.43396240e-003, 0., 9.43396240e-003,
          0., 0., 0., 0., 0., 0., 0., 0., 0., 0., 0., 0., 0.,
          4.71698120e-003, 0., 0., 0., 0., 0., 0., 0., 0., 0., 0., 0.,
          0., 0., 0., 0., 0., 0., 0., 0., 0., 4.71698120e-003, 0., 0.,
          0., 0., 0., 4.71698120e-003, 9.43396240e-003, 4.71698120e-003,
