%YAML:1.0
my_svm: !!opencv-ml-svm
   svm_type: C_SVC
   kernel: { type:RBF, gamma:1. }
   C: 1.
   term_criteria: { epsilon:1.1920928955078125e-007, iterations:1000 }
   var_all: 1000
   var_count: 1000
   class_count: 2
   class_labels: !!opencv-matrix
      rows: 1
      cols: 2
      dt: i
      data: [ 0, 1 ]
   sv_total: 103
   support_vectors:
      - [ 0., 0., 1.49812736e-002, 0., 0., 0., 3.74531839e-003, 0., 0.,
          0., 0., 0., 0., 0., 7.49063678e-003, 0., 0., 3.74531839e-003,
          0., 0., 0., 0., 3.74531839e-003, 0., 0., 3.74531839e-003,
          3.74531839e-003, 0., 0., 0., 0., 0., 0., 0., 3.74531839e-003,
          0., 0., 0., 0., 0., 0., 0., 3.74531839e-003, 3.74531839e-003,
          7.49063678e-003, 0., 0., 0., 0., 0., 0., 0., 0.,
          3.74531839e-003, 0., 3.74531839e-003, 7.49063678e-003, 0., 0.,
          0., 0., 3.74531839e-003, 0., 0., 7.49063678e-003, 0., 0., 0.,
          0., 0., 3.74531839e-003, 0., 3.74531839e-003, 0., 0., 0., 0.,
          0., 0., 3.74531839e-003, 0., 0., 3.74531839e-003, 0., 0., 0.,
          3.74531839e-003, 3.74531839e-003, 0., 0., 0., 0., 0., 0.,
          3.74531839e-003, 0., 0., 0., 0., 7.49063678e-003, 0., 0., 0.,
          0., 0., 0., 0., 0., 0., 0., 0., 0., 0., 3.74531839e-003, 0.,
          0., 0., 0., 0., 7.49063678e-003, 3.74531839e-003, 0., 0., 0.,
          0., 0., 0., 0., 3.74531839e-003, 7.49063678e-003, 0., 0., 0.,
          3.74531839e-003, 0., 0., 3.74531839e-003, 0., 3.74531839e-003,
          0., 0., 3.74531839e-003, 1.12359552e-002, 0., 0.,
          3.74531839e-003, 7.49063678e-003, 7.49063678e-003, 0., 0., 0.,
          0., 3.74531839e-003, 0., 0., 0., 0., 0., 0., 0.,
          3.74531839e-003, 7.49063678e-003, 0., 0., 3.74531839e-003, 0.,
          0., 7.49063678e-003, 0., 0., 0., 0., 0., 0., 0.,
          7.49063678e-003, 0., 0., 0., 0., 0., 3.74531839e-003, 0., 0.,
          0., 0., 0., 3.74531839e-003, 0., 0., 0., 0., 0., 0., 0., 0.,
          0., 3.74531839e-003, 0., 0., 0., 0., 0., 1.12359552e-002, 0.,
          0., 0., 0., 0., 0., 0., 0., 0., 0., 0., 0., 7.49063678e-003,
          0., 0., 3.74531839e-003, 3.74531839e-003, 0., 0., 0.,
          3.74531839e-003, 0., 3.74531839e-003, 0., 0., 3.74531839e-003,
          0., 0., 0., 0., 0., 3.74531839e-003, 0., 0., 0., 0., 0.,
          3.74531839e-003, 7.49063678e-003, 0., 0., 0., 0.,
          7.49063678e-003, 0., 0., 3.74531839e-003, 3.74531839e-003,
          3.74531839e-003, 0., 0., 0., 0., 0., 0., 3.74531839e-003, 0.,
          3.74531839e-003, 0., 0., 0., 0., 0., 0., 0., 0., 0., 0., 0.,
          0., 7.49063678e-003, 0., 7.49063678e-003, 0., 0.,
          7.49063678e-003, 0., 3.74531839e-003, 0., 0., 3.74531839e-003,
          0., 0., 0., 0., 0., 0., 7.49063678e-003, 3.74531839e-003, 0.,
          3.74531839e-003, 0., 0., 0., 3.74531839e-003, 3.74531839e-003,
          0., 0., 0., 0., 0., 3.74531839e-003, 0., 0., 3.74531839e-003,
          0., 0., 3.74531839e-003, 0., 3.74531839e-003, 0., 0.,
          3.74531839e-003, 0., 0., 0., 0., 0., 0., 0., 0., 0., 0.,
          3.74531839e-003, 0., 0., 3.74531839e-003, 3.74531839e-003, 0.,
          0., 0., 0., 0., 0., 0., 0., 0., 0., 0., 0., 0.,
          3.74531839e-003, 0., 0., 0., 0., 0., 0., 0., 0., 0., 0., 0.,
          0., 1.49812736e-002, 0., 0., 3.74531839e-003, 0., 0., 0., 0.,
          0., 0., 0., 0., 0., 0., 3.74531839e-003, 3.74531839e-003, 0.,
          7.49063678e-003, 0., 3.74531839e-003, 0., 0., 0., 0., 0., 0.,
          3.74531839e-003, 0., 0., 0., 3.74531839e-003, 0., 0., 0., 0.,
          0., 3.74531839e-003, 0., 0., 0., 0., 0., 0., 0.,
          3.74531839e-003, 0., 0., 0., 0., 0., 0., 0., 0., 0.,
          7.49063678e-003, 0., 0., 1.49812736e-002, 0., 0., 0.,
          3.74531839e-003, 0., 3.74531839e-003, 0., 3.74531839e-003, 0.,
          0., 0., 0., 0., 0., 0., 1.49812736e-002, 0., 0., 0., 0., 0.,
          0., 3.74531839e-003, 0., 0., 0., 0., 0., 3.74531839e-003, 0.,
          0., 0., 0., 3.74531839e-003, 0., 0., 0., 0., 0., 0., 0., 0.,
          0., 0., 0., 0., 0., 0., 0., 0., 0., 0., 0., 0., 0.,
          2.62172297e-002, 0., 0., 0., 0., 3.74531839e-003, 0., 0., 0.,
          0., 0., 0., 0., 0., 0., 0., 3.74531839e-003, 3.74531839e-003,
          0., 0., 0., 0., 0., 0., 0., 0., 0., 0., 0., 0., 0.,
          7.49063678e-003, 0., 0., 0., 0., 0., 0., 3.74531839e-003, 0.,
          0., 0., 3.74531839e-003, 0., 0., 0., 0., 0., 0., 0.,
          3.74531839e-003, 0., 0., 0., 0., 3.74531839e-003,
          3.74531839e-003, 0., 0., 0., 0., 3.74531839e-003, 0., 0., 0.,
          3.74531839e-003, 3.74531839e-003, 7.49063678e-003,
          7.49063678e-003, 0., 0., 0., 0., 0., 0., 3.74531839e-003, 0.,
          0., 0., 0., 0., 7.49063678e-003, 0., 0., 0., 0.,
          3.74531839e-003, 0., 0., 0., 3.74531839e-003, 0., 0., 0., 0.,
          0., 3.74531839e-003, 0., 0., 0., 0., 0., 3.74531839e-003, 0.,
          0., 0., 7.49063678e-003, 0., 0., 0., 0., 0., 0., 0.,
          3.74531839e-003, 0., 7.49063678e-003, 0., 0., 0., 0., 0., 0.,
          0., 0., 3.74531839e-003, 0., 0., 0., 0., 0., 0., 0., 0., 0.,
          3.74531839e-003, 0., 0., 0., 0., 0., 0., 3.74531839e-003, 0.,
          0., 7.49063678e-003, 0., 0., 0., 0., 0., 0., 0., 0., 0., 0.,
          0., 0., 0., 0., 0., 3.74531839e-003, 0., 0., 3.74531839e-003,
          0., 0., 0., 0., 0., 0., 0., 0., 0., 0., 0., 0., 0., 0., 0., 0.,
          0., 1.49812736e-002, 0., 7.49063678e-003, 0., 0., 0., 0., 0.,
          0., 0., 0., 0., 0., 0., 0., 0., 0., 0., 0., 0., 0.,
          3.74531839e-003, 0., 3.74531839e-003, 3.74531839e-003, 0., 0.,
          0., 0., 0., 0., 3.74531839e-003, 0., 0., 0., 0.,
          3.74531839e-003, 3.74531839e-003, 0., 3.74531839e-003, 0.,
          3.74531839e-003, 0., 0., 0., 0., 0., 0., 3.74531839e-003, 0.,
          0., 0., 3.74531839e-003, 0., 0., 1.12359552e-002, 0., 0., 0.,
          0., 0., 0., 0., 0., 0., 0., 0., 0., 7.49063678e-003,
          1.12359552e-002, 0., 3.74531839e-003, 7.49063678e-003, 0., 0.,
          0., 0., 0., 0., 0., 0., 0., 0., 0., 0., 3.74531839e-003, 0.,
          0., 0., 0., 0., 0., 0., 0., 0., 0., 0., 0., 0., 0., 0., 0., 0.,
          0., 0., 0., 3.74531839e-003, 3.74531839e-003, 0., 0., 0.,
          7.49063678e-003, 0., 3.74531839e-003, 0., 0., 7.49063678e-003,
          3.74531839e-003, 0., 0., 0., 0., 0., 0., 0., 0., 0.,
          3.74531839e-003, 0., 0., 3.74531839e-003, 0., 0., 0., 0., 0.,
          0., 3.74531839e-003, 0., 0., 0., 0., 0., 0., 0., 0., 0.,
          3.74531839e-003, 0., 0., 0., 0., 0., 0., 0., 0., 0., 0., 0.,
          0., 0., 0., 0., 0., 0., 0., 0., 0., 0., 0., 0., 0., 0., 0., 0.,
          0., 0., 1.12359552e-002, 0., 0., 0., 0., 3.74531839e-003, 0.,
          0., 0., 0., 7.49063678e-003, 0., 0., 0., 0., 0., 0., 0., 0.,
          0., 7.49063678e-003, 0., 0., 0., 0., 0., 0., 0., 0., 0., 0.,
          0., 0., 0., 0., 0., 0., 0., 0., 0., 0., 0., 7.49063678e-003,
          0., 0., 3.74531839e-003, 0., 0., 0., 0., 0., 0., 0.,
          1.12359552e-002, 0., 0., 3.37078646e-002, 0., 0., 0., 0., 0.,
          3.74531839e-003, 0., 0., 0., 0., 3.74531839e-003, 0., 0.,
          3.74531839e-003, 0., 0., 0., 0., 0., 0., 0., 0., 0., 0., 0.,
          0., 0., 0., 0., 0., 0., 0., 0., 0., 0., 0., 0., 0., 0.,
          1.87265910e-002, 0., 0., 0., 0., 0., 0., 3.74531839e-003, 0.,
          3.74531839e-003, 0., 3.74531839e-003, 3.74531839e-003, 0., 0.,
          0., 0., 0., 0., 0., 0., 0., 0., 3.74531839e-003, 0.,
          7.49063678e-003, 0., 0., 0., 0., 0., 0., 3.74531839e-003, 0.,
          0., 0., 0., 0., 0., 0., 0., 0., 0., 0., 0., 0., 0.,
          7.49063678e-003, 0., 0., 0., 0., 0., 0., 0., 0.,
          3.74531839e-003, 0., 0., 7.49063678e-003, 0., 0.,
          3.74531839e-003, 0., 0., 0., 3.74531839e-003, 0., 0.,
          3.74531839e-003, 0., 0., 0., 0. ]
      - [ 0., 0., 3.80228134e-003, 0., 0., 0., 0., 0., 0., 0., 0., 0.,
          3.80228134e-003, 0., 7.60456268e-003, 0., 0., 3.80228134e-003,
          0., 3.80228134e-003, 0., 0., 0., 3.80228134e-003, 0.,
          3.80228134e-003, 3.80228134e-003, 0., 0., 0., 0., 0., 0., 0.,
          3.80228134e-003, 0., 0., 0., 0., 0., 0., 0., 3.80228134e-003,
          0., 0., 0., 3.80228134e-003, 3.80228134e-003, 0., 0., 0., 0.,
          0., 0., 0., 3.80228134e-003, 3.80228134e-003, 0., 0.,
          3.80228134e-003, 0., 0., 0., 0., 1.90114062e-002,
          7.60456268e-003, 0., 3.80228134e-003, 0., 0., 3.80228134e-003,
          0., 0., 0., 0., 0., 0., 0., 7.60456268e-003, 3.80228134e-003,
          0., 0., 0., 0., 0., 0., 3.80228134e-003, 0., 0.,
          3.80228134e-003, 3.80228134e-003, 0., 7.60456268e-003, 0.,
          3.80228134e-003, 0., 0., 7.60456268e-003, 0., 7.60456268e-003,
          0., 0., 0., 0., 0., 0., 0., 0., 0., 0., 0., 0., 0., 0., 0., 0.,
          0., 0., 0., 0., 3.80228134e-003, 0., 0., 0., 3.80228134e-003,
          0., 3.80228134e-003, 0., 0., 3.80228134e-003, 0.,
          3.80228134e-003, 3.80228134e-003, 3.80228134e-003,
          3.80228134e-003, 3.80228134e-003, 3.80228134e-003, 0., 0., 0.,
          0., 3.80228134e-003, 7.60456268e-003, 0., 0., 0., 0., 0., 0.,
          0., 0., 0., 0., 0., 0., 0., 0., 0., 0., 0., 3.80228134e-003,
          7.60456268e-003, 0., 0., 0., 0., 0., 3.80228134e-003, 0.,
          3.80228134e-003, 0., 0., 0., 0., 0., 0., 3.80228134e-003, 0.,
          0., 3.80228134e-003, 0., 0., 3.80228134e-003, 0., 0.,
          3.80228134e-003, 0., 3.80228134e-003, 0., 0., 0., 0., 0., 0.,
          0., 3.80228134e-003, 0., 7.60456268e-003, 0., 0., 0., 0.,
          3.80228134e-003, 1.14068445e-002, 0., 3.80228134e-003, 0., 0.,
          0., 0., 0., 0., 0., 0., 0., 0., 0., 0., 0., 0.,
          7.60456268e-003, 0., 0., 0., 7.60456268e-003, 0.,
          3.80228134e-003, 0., 0., 1.52091254e-002, 0., 0., 0., 0., 0.,
          1.14068445e-002, 0., 0., 0., 0., 0., 3.80228134e-003, 0., 0.,
          0., 0., 0., 7.60456268e-003, 0., 0., 0., 3.80228134e-003, 0.,
          0., 0., 0., 0., 3.80228134e-003, 3.80228134e-003, 0., 0.,
          7.60456268e-003, 0., 0., 0., 0., 0., 0., 3.80228134e-003, 0.,
          3.80228134e-003, 0., 0., 0., 3.80228134e-003, 0.,
          3.80228134e-003, 0., 0., 0., 3.80228134e-003, 0.,
          3.80228134e-003, 0., 7.60456268e-003, 0., 0., 0.,
          3.80228134e-003, 0., 0., 1.52091254e-002, 0., 0.,
          7.60456268e-003, 0., 0., 0., 0., 0., 3.80228134e-003, 0., 0.,
          3.80228134e-003, 3.80228134e-003, 3.80228134e-003, 0., 0., 0.,
          0., 0., 3.80228134e-003, 0., 3.80228134e-003, 0., 0., 0., 0.,
          0., 0., 0., 0., 0., 0., 0., 0., 0., 0., 0., 0.,
          3.80228134e-003, 7.60456268e-003, 3.80228134e-003, 0., 0.,
          3.80228134e-003, 0., 0., 0., 0., 0., 0., 0., 0.,
          7.60456268e-003, 0., 0., 0., 0., 0., 0., 0., 0., 0., 0., 0.,
          0., 0., 1.14068445e-002, 0., 0., 3.80228134e-003, 0., 0., 0.,
          0., 3.80228134e-003, 3.80228134e-003, 0., 3.80228134e-003, 0.,
          3.80228134e-003, 0., 0., 0., 3.80228134e-003, 0.,
          3.80228134e-003, 0., 0., 0., 0., 0., 0., 7.60456268e-003, 0.,
          0., 0., 0., 0., 0., 0., 0., 0., 0., 0., 0., 0., 0., 0., 0., 0.,
          0., 0., 0., 0., 0., 0., 0., 0., 0., 0., 3.80228134e-003, 0.,
          3.80228134e-003, 7.60456268e-003, 0., 0., 0., 0., 0., 0., 0.,
          3.80228134e-003, 0., 0., 0., 0., 0., 0., 0., 0., 0., 0., 0.,
          0., 0., 0., 0., 7.60456268e-003, 0., 0., 0., 0., 0., 0., 0.,
          0., 0., 0., 0., 0., 0., 0., 0., 0., 0., 0., 0., 0.,
          3.80228134e-003, 0., 0., 3.80228134e-003, 0., 0., 0., 0.,
          3.80228134e-003, 0., 0., 7.60456268e-003, 0., 0., 0., 0., 0.,
          0., 0., 0., 0., 0., 0., 0., 0., 0., 0., 3.80228134e-003,
          3.80228134e-003, 0., 0., 3.80228134e-003, 0., 0., 0., 0., 0.,
          0., 0., 0., 0., 0., 0., 0., 3.80228134e-003, 0., 0., 0., 0.,
          3.80228134e-003, 0., 0., 0., 7.60456268e-003, 0., 0., 0., 0.,
          0., 0., 0., 0., 0., 3.80228134e-003, 0., 0., 0., 0., 0., 0.,
          0., 0., 3.80228134e-003, 0., 0., 0., 0., 3.80228134e-003, 0.,
          0., 0., 0., 0., 0., 0., 0., 0., 0., 0., 0., 0., 0., 0., 0., 0.,
          0., 0., 3.80228134e-003, 0., 0., 0., 3.80228134e-003, 0., 0.,
          0., 0., 3.80228134e-003, 0., 0., 0., 0., 0., 0.,
          3.80228134e-003, 0., 7.60456268e-003, 0., 0., 0., 0., 0., 0.,
          0., 0., 0., 3.80228134e-003, 0., 3.80228134e-003, 0.,
          3.80228134e-003, 0., 0., 0., 3.80228134e-003, 0.,
          3.80228134e-003, 3.80228134e-003, 0., 0., 0., 0., 0., 0.,
          7.60456268e-003, 0., 0., 0., 0., 0., 0., 0., 0., 0.,
          3.80228134e-003, 0., 0., 7.60456268e-003, 0., 0., 0., 0.,
          3.80228134e-003, 0., 0., 0., 0., 7.60456268e-003, 0., 0., 0.,
          0., 0., 0., 0., 0., 3.80228134e-003, 0., 0., 0., 0., 0., 0.,
          0., 0., 7.60456268e-003, 3.80228134e-003, 0., 0.,
          3.80228134e-003, 0., 0., 0., 0., 7.60456268e-003, 0.,
          3.80228134e-003, 0., 0., 0., 0., 0., 0., 0., 3.80228134e-003,
          0., 0., 0., 0., 0., 0., 7.60456268e-003, 0., 0., 0.,
          3.80228134e-003, 0., 0., 0., 0., 0., 0., 0., 0., 0.,
          3.80228134e-003, 0., 0., 0., 0., 0., 0., 0., 0., 0.,
          3.80228134e-003, 0., 0., 0., 0., 0., 0., 0., 0., 0., 0., 0.,
          0., 0., 1.52091254e-002, 0., 0., 0., 0., 0., 0., 0.,
          3.80228134e-003, 3.80228134e-003, 0., 0., 0., 0.,
          1.14068445e-002, 0., 0., 7.60456268e-003, 0., 3.80228134e-003,
          0., 0., 0., 0., 0., 0., 0., 0., 0., 0., 3.80228134e-003, 0.,
          0., 0., 0., 0., 0., 0., 0., 0., 0., 3.80228134e-003, 0.,
          3.80228134e-003, 0., 0., 0., 0., 0., 0., 0., 0., 0., 0., 0.,
          7.60456268e-003, 3.80228134e-003, 0., 7.60456268e-003, 0., 0.,
          7.60456268e-003, 3.80228134e-003, 0., 0., 0., 0., 0., 0., 0.,
          3.80228134e-003, 3.80228134e-003, 0., 0., 0., 7.60456268e-003,
          0., 0., 0., 0., 0., 0., 0., 0., 0., 0., 0., 0., 0., 0., 0., 0.,
          7.60456268e-003, 0., 0., 0., 0., 0., 3.80228134e-003, 0., 0.,
          7.60456268e-003, 0., 0., 0., 0., 0., 3.80228134e-003, 0., 0.,
          0., 0., 0., 0., 0., 0., 0., 0., 0., 0., 3.80228134e-003,
          3.80228134e-003, 0., 0., 0., 0., 0., 3.80228134e-003, 0.,
          3.80228134e-003, 0., 0., 0., 0., 0., 0., 0., 0., 0., 0.,
          3.80228134e-003, 0., 7.60456268e-003, 3.80228134e-003, 0., 0.,
          3.80228134e-003, 0., 0., 0., 0., 0., 0., 0., 3.80228134e-003,
          0., 0., 0., 0., 0., 0., 0., 0., 0., 0., 0., 0.,
          3.80228134e-003, 0., 0., 0., 0., 0., 0., 7.60456268e-003,
          1.52091254e-002, 3.80228134e-003, 0., 3.80228134e-003, 0., 0.,
          0., 0., 0., 3.80228134e-003, 0., 3.80228134e-003, 0., 0., 0.,
          0., 0., 3.80228134e-003, 0., 0., 0., 0., 3.80228134e-003, 0.,
          0., 0., 0., 0., 0., 0., 0., 0., 0., 3.80228134e-003, 0., 0.,
          0., 0., 3.80228134e-003, 0., 3.80228134e-003, 0., 0., 0., 0.,
          0., 0., 0., 0., 0., 0., 0., 3.80228134e-003, 0.,
          3.80228134e-003, 0., 0., 0., 0., 3.80228134e-003, 0., 0., 0.,
          0., 0., 0., 3.80228134e-003, 0., 0., 0., 0., 0., 0., 0.,
          3.80228134e-003, 3.80228134e-003, 0., 0., 0., 0., 0., 0., 0.,
          0., 0., 0., 3.80228134e-003, 0., 3.80228134e-003, 0.,
          3.80228134e-003, 0., 0., 0., 0., 0., 0., 0., 0.,
          3.80228134e-003, 3.80228134e-003, 0., 7.60456268e-003, 0., 0.,
          0., 0., 0., 0., 0., 0., 7.60456268e-003, 3.80228134e-003, 0.,
          0., 1.14068445e-002, 0. ]
      - [ 0., 0., 0., 0., 0., 0., 3.25732888e-003, 0., 0., 0., 0., 0.,
          0., 0., 6.51465775e-003, 0., 3.25732888e-003, 3.25732888e-003,
          0., 0., 0., 0., 0., 0., 0., 3.25732888e-003, 3.25732888e-003,
          0., 0., 0., 0., 3.25732888e-003, 3.25732888e-003, 0., 0., 0.,
          3.25732888e-003, 9.77198686e-003, 0., 3.25732888e-003, 0., 0.,
          0., 0., 3.25732888e-003, 3.25732888e-003, 0., 3.25732888e-003,
          0., 0., 0., 0., 0., 0., 3.25732888e-003, 3.25732888e-003,
          3.25732888e-003, 3.25732888e-003, 0., 3.25732888e-003, 0., 0.,
          0., 0., 3.25732888e-003, 6.51465775e-003, 0., 6.51465775e-003,
          0., 0., 0., 0., 0., 0., 0., 0., 0., 0., 3.25732888e-003, 0.,
          0., 0., 6.51465775e-003, 0., 0., 0., 0., 3.25732888e-003, 0.,
          3.25732888e-003, 0., 0., 0., 0., 6.51465775e-003, 0., 0.,
          6.51465775e-003, 0., 9.77198686e-003, 0., 0., 0., 0., 0., 0.,
          0., 0., 0., 0., 0., 0., 0., 9.77198686e-003, 9.77198686e-003,
          0., 0., 0., 3.25732888e-003, 3.25732888e-003, 3.25732888e-003,
          0., 3.25732888e-003, 0., 3.25732888e-003, 0., 0., 0., 0.,
          3.25732888e-003, 0., 0., 0., 3.25732888e-003, 0., 0.,
          6.51465775e-003, 0., 6.51465775e-003, 0., 0., 0.,
          9.77198686e-003, 0., 0., 0., 1.30293155e-002, 9.77198686e-003,
          0., 0., 0., 0., 6.51465775e-003, 0., 0., 0., 0., 0.,
          3.25732888e-003, 0., 0., 0., 0., 0., 6.51465775e-003, 0., 0.,
          0., 0., 0., 3.25732888e-003, 0., 0., 6.51465775e-003, 0., 0.,
          3.25732888e-003, 0., 0., 0., 0., 3.25732888e-003,
          6.51465775e-003, 0., 0., 0., 0., 6.51465775e-003, 0., 0., 0.,
          0., 0., 0., 0., 0., 0., 3.25732888e-003, 0., 0., 0., 0., 0.,
          1.62866451e-002, 3.25732888e-003, 0., 0., 0., 0., 0., 0., 0.,
          0., 0., 0., 0., 0., 0., 0., 0., 0., 0., 0., 0., 0., 0.,
          1.95439737e-002, 6.51465775e-003, 0., 0., 0., 0., 0.,
          3.25732888e-003, 0., 0., 0., 0., 0., 0., 0., 0., 0., 0., 0.,
          0., 0., 3.25732888e-003, 0., 0., 3.25732888e-003,
          6.51465775e-003, 0., 0., 3.25732888e-003, 0., 0., 0., 0., 0.,
          0., 3.25732888e-003, 0., 0., 0., 0., 0., 0., 0., 0., 0., 0.,
          0., 0., 6.51465775e-003, 0., 0., 0., 0., 3.25732888e-003,
          3.25732888e-003, 3.25732888e-003, 0., 0., 3.25732888e-003, 0.,
          0., 6.51465775e-003, 6.51465775e-003, 3.25732888e-003, 0.,
          3.25732888e-003, 0., 0., 0., 0., 0., 0., 0., 3.25732888e-003,
          3.25732888e-003, 6.51465775e-003, 0., 3.25732888e-003,
          3.25732888e-003, 0., 3.25732888e-003, 0., 0., 3.25732888e-003,
          0., 3.25732888e-003, 0., 0., 0., 0., 0., 0., 0., 0., 0., 0.,
          0., 0., 0., 0., 0., 0., 6.51465775e-003, 0., 3.25732888e-003,
          0., 0., 0., 0., 0., 0., 0., 3.25732888e-003, 0., 0., 0., 0.,
          0., 6.51465775e-003, 0., 0., 0., 0., 0., 0., 0., 0.,
          3.25732888e-003, 0., 0., 0., 0., 3.25732888e-003, 0., 0.,
          3.25732888e-003, 0., 0., 0., 0., 0., 6.51465775e-003, 0., 0.,
          6.51465775e-003, 0., 3.25732888e-003, 0., 1.62866451e-002, 0.,
          0., 0., 0., 0., 0., 0., 0., 0., 3.25732888e-003, 0.,
          3.25732888e-003, 0., 0., 0., 0., 0., 0., 0., 0., 0., 0., 0.,
          0., 0., 0., 0., 0., 0., 0., 0., 0., 3.25732888e-003, 0., 0.,
          0., 0., 0., 0., 0., 1.62866451e-002, 0., 0., 0., 0., 0., 0.,
          3.25732888e-003, 0., 3.25732888e-003, 0., 0., 0., 0.,
          3.25732888e-003, 0., 3.25732888e-003, 0., 0., 0., 0., 0., 0.,
          0., 0., 0., 0., 0., 0., 0., 0., 0., 0., 0., 3.25732888e-003,
          0., 0., 0., 0., 0., 0., 0., 0., 0., 9.77198686e-003, 0., 0.,
          0., 3.25732888e-003, 0., 0., 0., 0., 3.25732888e-003,
          3.25732888e-003, 0., 9.77198686e-003, 0., 3.25732888e-003, 0.,
          0., 0., 0., 0., 0., 0., 0., 0., 3.25732888e-003, 0., 0.,
          3.25732888e-003, 6.51465775e-003, 3.25732888e-003, 0., 0.,
          3.25732888e-003, 0., 0., 0., 0., 0., 3.25732888e-003, 0.,
          3.25732888e-003, 0., 0., 0., 0., 0., 0., 0., 0., 0., 0., 0.,
          0., 0., 1.62866451e-002, 0., 0., 0., 3.25732888e-003,
          3.25732888e-003, 0., 0., 3.25732888e-003, 0., 0., 0., 0.,
          3.25732888e-003, 3.25732888e-003, 0., 0., 3.25732888e-003, 0.,
          3.25732888e-003, 0., 0., 0., 0., 3.25732888e-003,
          3.25732888e-003, 6.51465775e-003, 0., 0., 0., 0., 0., 0., 0.,
          3.25732888e-003, 0., 0., 0., 3.25732888e-003, 6.51465775e-003,
          0., 0., 0., 0., 0., 0., 0., 0., 6.51465775e-003, 0., 0.,
          3.25732888e-003, 3.25732888e-003, 0., 0., 0., 0.,
          3.25732888e-003, 0., 6.51465775e-003, 3.25732888e-003, 0., 0.,
          0., 0., 0., 0., 0., 0., 0., 3.25732888e-003, 0., 0., 0., 0.,
          0., 0., 0., 0., 0., 3.25732888e-003, 0., 0., 0., 0., 0., 0.,
          0., 3.25732888e-003, 0., 3.25732888e-003, 0., 0., 0., 0., 0.,
          0., 0., 0., 0., 3.25732888e-003, 0., 0., 0., 0., 0., 0., 0.,
          0., 0., 0., 0., 0., 0., 0., 0., 0., 0., 0., 3.25732888e-003,
          0., 0., 3.25732888e-003, 0., 0., 0., 0., 0., 0.,
          3.25732888e-003, 0., 0., 0., 0., 0., 0., 0., 0., 0., 0.,
          9.77198686e-003, 0., 3.25732888e-003, 0., 0., 0., 0., 0., 0.,
          0., 3.25732888e-003, 0., 0., 3.25732888e-003, 0., 0., 0., 0.,
          0., 3.25732888e-003, 3.25732888e-003, 0., 0., 0.,
          3.25732888e-003, 0., 0., 0., 0., 3.25732888e-003, 0.,
          3.25732888e-003, 0., 0., 0., 3.25732888e-003, 3.25732888e-003,
          3.25732888e-003, 0., 3.25732888e-003, 0., 0., 0., 0., 0., 0.,
          0., 0., 3.25732888e-003, 0., 0., 0., 0., 0., 0.,
          3.25732888e-003, 3.25732888e-003, 0., 0., 0., 0., 0., 0.,
          3.25732888e-003, 0., 0., 0., 0., 3.25732888e-003, 0., 0.,
          9.77198686e-003, 3.25732888e-003, 0., 0., 0., 0., 0., 0., 0.,
          0., 0., 0., 3.25732888e-003, 0., 3.25732888e-003,
          3.25732888e-003, 0., 0., 0., 0., 0., 3.25732888e-003, 0., 0.,
          3.25732888e-003, 3.25732888e-003, 0., 1.30293155e-002,
          6.51465775e-003, 0., 0., 0., 0., 0., 0., 0., 6.51465775e-003,
          0., 0., 0., 0., 0., 0., 0., 0., 0., 0., 0., 0., 0., 0., 0.,
          6.51465775e-003, 0., 0., 0., 0., 0., 0., 3.25732888e-003, 0.,
          0., 0., 0., 0., 0., 0., 0., 0., 0., 0., 3.25732888e-003, 0.,
          0., 0., 0., 0., 0., 0., 0., 0., 0., 0., 0., 0., 0., 0., 0., 0.,
          0., 6.51465775e-003, 0., 0., 0., 3.25732888e-003, 0., 0., 0.,
          0., 0., 0., 0., 0., 0., 0., 0., 6.51465775e-003,
          3.25732888e-003, 0., 0., 0., 3.25732888e-003, 0., 0., 0., 0.,
          0., 0., 0., 0., 0., 0., 0., 0., 0., 0., 6.51465775e-003, 0.,
          0., 0., 0., 3.25732888e-003, 6.51465775e-003, 0., 0., 0., 0.,
          0., 0., 0., 0., 0., 0., 0., 0., 0., 0., 0., 0., 0.,
          3.25732888e-003, 9.77198686e-003, 0., 0., 9.77198686e-003, 0.,
          0., 0., 0., 6.51465775e-003, 0., 0., 6.51465775e-003, 0., 0.,
          3.25732888e-003, 0., 0., 3.25732888e-003, 0., 0., 0., 0., 0.,
          0., 0., 6.51465775e-003, 3.25732888e-003, 0., 3.25732888e-003,
          3.25732888e-003, 0., 0., 6.51465775e-003, 0., 0., 0.,
          3.25732888e-003, 0., 0., 0., 0., 0., 0., 0., 0.,
          3.25732888e-003, 0., 3.25732888e-003, 0., 6.51465775e-003,
          3.25732888e-003, 3.25732888e-003, 0., 6.51465775e-003, 0., 0.,
          0., 0., 0., 0., 6.51465775e-003, 0., 6.51465775e-003,
          3.25732888e-003, 0., 0., 0., 0., 0., 0., 0., 0., 0., 0., 0.,
          0., 3.25732888e-003, 0., 0., 0., 0., 0., 0., 6.51465775e-003,
          0., 0., 0., 0., 0., 0., 0., 0., 0., 0., 0., 0., 0., 0., 0., 0.,
          0., 0., 0., 0., 0., 0., 0., 6.51465775e-003, 6.51465775e-003,
          3.25732888e-003, 0., 0., 0., 0., 0., 0., 0., 0., 0.,
          3.25732888e-003, 3.25732888e-003, 0., 0., 0., 0. ]
      - [ 0., 0., 5.61797759e-003, 0., 0., 0., 0., 5.61797759e-003, 0.,
          0., 0., 0., 0., 0., 5.61797759e-003, 0., 2.80898879e-003,
          5.61797759e-003, 0., 0., 0., 0., 0., 0., 0., 2.80898879e-003,
          2.80898879e-003, 0., 0., 0., 0., 0., 2.80898879e-003, 0.,
          2.80898879e-003, 0., 0., 5.61797759e-003, 0., 2.80898879e-003,
          0., 0., 2.80898879e-003, 2.80898879e-003, 5.61797759e-003, 0.,
          0., 0., 0., 2.80898879e-003, 0., 0., 0., 0., 0.,
          2.80898879e-003, 8.42696615e-003, 2.80898879e-003, 0., 0., 0.,
          0., 0., 0., 0., 0., 0., 0., 0., 0., 2.80898879e-003, 0.,
          2.80898879e-003, 0., 0., 0., 0., 0., 0., 0., 0., 0.,
          2.80898879e-003, 0., 0., 0., 2.80898879e-003, 2.80898879e-003,
          2.80898879e-003, 0., 5.61797759e-003, 0., 5.61797759e-003, 0.,
          5.61797759e-003, 0., 0., 2.80898879e-003, 0., 2.80898879e-003,
          0., 0., 0., 5.61797759e-003, 0., 0., 0., 0., 0., 0., 0., 0.,
          0., 8.42696615e-003, 0., 0., 0., 0., 2.80898879e-003,
          2.80898879e-003, 0., 0., 0., 0., 5.61797759e-003, 0., 0., 0.,
          2.80898879e-003, 2.80898879e-003, 0., 0., 2.80898879e-003,
          5.61797759e-003, 0., 2.80898879e-003, 5.61797759e-003, 0.,
          2.80898879e-003, 0., 0., 0., 1.40449442e-002, 0., 0.,
          2.80898879e-003, 2.80898879e-003, 5.61797759e-003, 0.,
          5.61797759e-003, 0., 0., 5.61797759e-003, 5.61797759e-003, 0.,
          0., 0., 0., 0., 0., 0., 0., 0., 0., 0., 0., 0.,
          2.80898879e-003, 2.80898879e-003, 0., 0., 0., 0., 0., 0.,
          2.80898879e-003, 2.80898879e-003, 0., 0., 0., 0., 0., 0., 0.,
          2.80898879e-003, 0., 0., 5.61797759e-003, 0., 0., 0.,
          5.61797759e-003, 0., 0., 0., 0., 1.68539323e-002,
          8.42696615e-003, 0., 0., 0., 0., 0., 2.80898879e-003,
          2.80898879e-003, 2.80898879e-003, 0., 0., 0., 0., 0., 0., 0.,
          0., 2.80898879e-003, 0., 5.61797759e-003, 0., 0., 0.,
          5.61797759e-003, 5.61797759e-003, 0., 0., 0., 0., 0.,
          2.80898879e-003, 0., 5.61797759e-003, 2.80898879e-003, 0., 0.,
          2.80898879e-003, 0., 5.61797759e-003, 0., 8.42696615e-003, 0.,
          2.80898879e-003, 0., 0., 5.61797759e-003, 0., 0., 0., 0.,
          5.61797759e-003, 0., 0., 0., 2.80898879e-003, 2.80898879e-003,
          0., 0., 0., 0., 0., 8.42696615e-003, 0., 0., 2.80898879e-003,
          0., 0., 0., 0., 0., 0., 0., 0., 0., 0., 0., 0.,
          5.61797759e-003, 0., 5.61797759e-003, 0., 0., 0.,
          2.80898879e-003, 0., 0., 0., 1.40449442e-002, 0., 0., 0., 0.,
          0., 0., 0., 0., 0., 0., 2.80898879e-003, 0., 0.,
          2.80898879e-003, 2.80898879e-003, 2.80898879e-003,
          2.80898879e-003, 0., 0., 0., 0., 0., 0., 0., 0., 0., 0., 0.,
          0., 0., 0., 0., 0., 0., 0., 0., 0., 0., 0., 0., 0., 0., 0.,
          2.80898879e-003, 0., 0., 0., 0., 0., 0., 2.80898879e-003, 0.,
          0., 0., 0., 0., 0., 0., 5.61797759e-003, 5.61797759e-003,
          2.80898879e-003, 0., 0., 0., 0., 2.80898879e-003, 0., 0., 0.,
          0., 0., 0., 0., 5.61797759e-003, 0., 0., 0., 0., 0., 0., 0.,
          2.80898879e-003, 2.80898879e-003, 0., 0., 0., 0.,
          2.80898879e-003, 0., 0., 1.12359552e-002, 0., 5.61797759e-003,
          0., 0., 0., 0., 0., 0., 0., 0., 2.80898879e-003, 0., 0., 0.,
          8.42696615e-003, 0., 0., 0., 2.80898879e-003, 0.,
          1.12359552e-002, 0., 0., 0., 2.80898879e-003, 0., 0., 0., 0.,
          0., 0., 0., 0., 0., 0., 0., 2.80898879e-003, 0., 0.,
          4.77528088e-002, 0., 0., 0., 0., 0., 0., 0., 0.,
          2.80898879e-003, 0., 0., 0., 0., 0., 0., 1.12359552e-002, 0.,
          0., 2.80898879e-003, 0., 0., 0., 0., 2.80898879e-003, 0., 0.,
          0., 0., 0., 0., 0., 0., 0., 0., 0., 0., 0., 0., 0., 0., 0., 0.,
          0., 0., 0., 0., 0., 5.61797759e-003, 0., 0., 0., 0., 0., 0.,
          0., 2.80898879e-003, 0., 0., 0., 0., 0., 2.80898879e-003, 0.,
          0., 0., 5.61797759e-003, 0., 0., 0., 0., 0., 0.,
          2.80898879e-003, 0., 0., 5.61797759e-003, 0., 0., 0., 0., 0.,
          0., 0., 0., 0., 0., 1.12359552e-002, 0., 0., 0., 0., 0., 0.,
          8.42696615e-003, 0., 0., 0., 2.80898879e-003, 0., 0., 0., 0.,
          0., 5.61797759e-003, 0., 0., 0., 0., 0., 2.80898879e-003, 0.,
          0., 0., 0., 2.80898879e-003, 0., 2.80898879e-003,
          8.42696615e-003, 0., 0., 0., 0., 0., 2.80898879e-003, 0., 0.,
          0., 0., 0., 0., 0., 2.80898879e-003, 0., 0., 0., 0.,
          1.68539323e-002, 0., 0., 0., 2.80898879e-003, 0., 0.,
          2.80898879e-003, 0., 0., 0., 0., 0., 0., 0., 0., 0., 0., 0.,
          8.42696615e-003, 2.80898879e-003, 2.80898879e-003, 0.,
          2.80898879e-003, 0., 0., 0., 0., 0., 0., 0., 0., 0., 0., 0.,
          2.80898879e-003, 0., 0., 0., 0., 0., 0., 0., 0.,
          2.80898879e-003, 0., 2.80898879e-003, 0., 0., 2.80898879e-003,
          0., 0., 0., 5.61797759e-003, 0., 0., 2.80898879e-003, 0., 0.,
          0., 0., 2.80898879e-003, 0., 1.96629222e-002, 0., 0., 0., 0.,
          0., 0., 0., 0., 0., 0., 0., 0., 0., 0., 0., 0., 0., 0., 0., 0.,
          0., 5.61797759e-003, 0., 0., 0., 0., 0., 0., 0., 0., 0., 0.,
          0., 0., 0., 0., 0., 0., 0., 2.80898879e-003, 0., 0., 0., 0.,
          8.42696615e-003, 0., 0., 5.61797759e-003, 0., 0., 0., 0., 0.,
          0., 0., 0., 0., 2.80898879e-003, 5.61797759e-003, 0., 0.,
          2.80898879e-003, 0., 0., 0., 0., 0., 0., 0., 0., 0., 0.,
          2.80898879e-003, 0., 2.80898879e-003, 0., 5.61797759e-003, 0.,
          5.61797759e-003, 0., 0., 0., 0., 0., 0., 2.80898879e-003, 0.,
          0., 0., 0., 0., 0., 5.61797759e-003, 2.80898879e-003,
          2.80898879e-003, 0., 0., 0., 2.80898879e-003, 0., 0., 0., 0.,
          0., 0., 0., 5.61797759e-003, 0., 2.80898879e-003,
          5.61797759e-003, 0., 2.80898879e-003, 0., 0., 0., 0., 0., 0.,
          0., 0., 0., 0., 5.61797759e-003, 2.80898879e-003, 0., 0., 0.,
          0., 0., 0., 0., 0., 0., 2.80898879e-003, 0., 8.42696615e-003,
          0., 0., 0., 0., 0., 0., 5.61797759e-003, 2.80898879e-003, 0.,
          0., 0., 0., 2.80898879e-003, 0., 0., 0., 0., 2.80898879e-003,
          2.80898879e-003, 0., 0., 0., 0., 0., 0., 0., 2.80898879e-003,
          0., 0., 0., 0., 5.61797759e-003, 0., 0., 0., 0., 0.,
          2.80898879e-003, 0., 0., 0., 5.61797759e-003, 0., 0., 0., 0.,
          0., 0., 2.80898879e-003, 0., 2.80898879e-003, 0., 0., 0., 0.,
          0., 0., 5.61797759e-003, 0., 0., 0., 0., 5.61797759e-003, 0.,
          0., 2.80898879e-003, 0., 0., 0., 0., 0., 0., 0., 0., 0., 0.,
          0., 2.80898879e-003, 8.42696615e-003, 2.80898879e-003, 0., 0.,
          2.80898879e-003, 2.80898879e-003, 0., 5.61797759e-003, 0., 0.,
          5.61797759e-003, 0., 0., 0., 2.80898879e-003, 0., 0., 0., 0.,
          0., 2.80898879e-003, 0., 0., 0., 0., 2.80898879e-003, 0., 0.,
          0., 0., 0., 0., 0., 0., 0., 0., 2.80898879e-003, 0., 0., 0.,
          0., 0., 5.61797759e-003, 0., 0., 5.61797759e-003, 0., 0.,
          2.80898879e-003, 0., 0., 0., 0., 5.61797759e-003, 0., 0.,
          2.24719103e-002, 0., 0., 0., 0., 0., 0., 0., 0., 0., 0., 0.,
          0., 0., 2.80898879e-003, 0., 0., 0., 0., 0., 2.80898879e-003,
          0., 0., 0., 0., 0., 0., 0., 0., 0., 0., 0., 0., 0., 0., 0., 0.,
          0., 0., 0., 2.80898879e-003, 0., 0., 0., 0., 0., 0., 0., 0.,
          5.61797759e-003, 0., 0., 0., 0., 0., 0., 2.80898879e-003, 0.,
          0., 0., 0., 0., 0., 0., 0., 5.61797759e-003, 0.,
          5.61797759e-003, 0., 0., 0., 0., 5.61797759e-003, 0., 0., 0.,
          0., 0., 0., 0., 0., 0., 2.80898879e-003, 0., 0.,
          2.80898879e-003, 0., 2.80898879e-003, 0., 0., 0., 0., 0., 0.,
          0., 2.80898879e-003, 5.61797759e-003, 0., 0., 0.,
          2.80898879e-003, 0., 0., 0., 0., 0., 0., 0., 5.61797759e-003,
          5.61797759e-003, 0., 0., 0., 0. ]
      - [ 0., 0., 7.57575780e-003, 0., 0., 0., 3.78787890e-003, 0., 0.,
          0., 0., 0., 0., 0., 7.57575780e-003, 0., 0., 3.78787890e-003,
          0., 0., 0., 0., 0., 0., 0., 3.78787890e-003, 3.78787890e-003,
          3.78787890e-003, 0., 0., 0., 0., 0., 0., 0., 0., 0., 0., 0.,
          0., 0., 0., 0., 7.57575780e-003, 1.13636367e-002, 0., 0.,
          3.78787890e-003, 0., 0., 0., 0., 0., 3.78787890e-003, 0.,
          1.13636367e-002, 0., 3.78787890e-003, 0., 0., 0., 0., 0., 0.,
          1.13636367e-002, 0., 0., 3.78787890e-003, 0., 0.,
          7.57575780e-003, 0., 0., 0., 0., 0., 0., 0., 3.78787890e-003,
          0., 0., 0., 0., 0., 0., 0., 3.78787890e-003, 3.78787890e-003,
          0., 0., 3.78787890e-003, 0., 3.78787890e-003, 3.78787890e-003,
          7.57575780e-003, 3.78787890e-003, 0., 3.78787890e-003, 0.,
          1.89393945e-002, 0., 0., 0., 0., 0., 0., 0., 0., 0., 0., 0.,
          0., 0., 1.51515156e-002, 0., 0., 0., 0., 0., 7.57575780e-003,
          0., 0., 0., 0., 0., 0., 0., 0., 0., 7.57575780e-003, 0., 0.,
          0., 0., 0., 7.57575780e-003, 3.78787890e-003, 0., 0., 0., 0.,
          0., 7.57575780e-003, 0., 0., 3.78787890e-003, 1.13636367e-002,
          0., 0., 0., 0., 0., 0., 0., 0., 0., 0., 0., 0., 0., 0., 0., 0.,
          0., 3.78787890e-003, 0., 0., 7.57575780e-003, 0., 0., 0., 0.,
          0., 0., 0., 0., 0., 0., 0., 0., 0., 3.78787890e-003, 0., 0.,
          0., 3.78787890e-003, 0., 3.78787890e-003, 0., 0., 0., 0., 0.,
          3.78787890e-003, 0., 0., 7.57575780e-003, 3.78787890e-003, 0.,
          0., 0., 0., 0., 1.89393945e-002, 0., 0., 0., 0., 0., 0., 0.,
          0., 0., 0., 0., 0., 0., 0., 0., 0., 3.78787890e-003,
          3.78787890e-003, 0., 0., 3.78787890e-003, 0., 0.,
          3.78787890e-003, 0., 7.57575780e-003, 0., 0., 0., 0., 0., 0.,
          0., 0., 3.78787890e-003, 0., 0., 3.78787890e-003, 0., 0., 0.,
          0., 0., 0., 0., 3.78787890e-003, 0., 3.78787890e-003,
          3.78787890e-003, 0., 0., 0., 0., 0., 3.78787890e-003,
          3.78787890e-003, 0., 3.78787890e-003, 0., 0., 0., 0., 0., 0.,
          3.78787890e-003, 0., 0., 0., 3.78787890e-003, 0.,
          3.78787890e-003, 0., 3.78787890e-003, 0., 0., 0.,
          3.78787890e-003, 0., 0., 0., 0., 0., 0., 0., 0., 0., 0., 0.,
          3.78787890e-003, 0., 0., 0., 0., 0., 0., 0., 3.78787890e-003,
          7.57575780e-003, 0., 0., 0., 3.78787890e-003, 0., 0., 0.,
          3.78787890e-003, 0., 0., 0., 3.78787890e-003, 0., 0.,
          7.57575780e-003, 0., 0., 0., 0., 0., 0., 0., 0., 0., 0.,
          3.78787890e-003, 0., 0., 0., 7.57575780e-003, 0., 0., 0., 0.,
          7.57575780e-003, 0., 3.78787890e-003, 0., 0., 0., 0.,
          3.78787890e-003, 7.57575780e-003, 0., 0., 3.78787890e-003, 0.,
          0., 0., 0., 0., 0., 0., 0., 0., 0., 3.78787890e-003, 0., 0.,
          3.78787890e-003, 0., 0., 0., 0., 0., 3.78787890e-003, 0., 0.,
          0., 3.78787890e-003, 3.78787890e-003, 0., 0., 3.78787890e-003,
          0., 3.78787890e-003, 0., 0., 0., 0., 0., 0., 3.78787890e-003,
          0., 3.78787890e-003, 0., 3.78787890e-003, 0., 0., 0., 0., 0.,
          0., 0., 0., 0., 0., 0., 0., 0., 3.78787890e-003, 0., 0., 0.,
          0., 0., 0., 0., 0., 0., 7.57575780e-003, 0., 0.,
          7.57575780e-003, 0., 0., 0., 0., 0., 0., 0., 0., 0.,
          3.78787890e-003, 0., 0., 0., 0., 0., 0., 0., 0., 0., 0., 0.,
          0., 0., 0., 0., 0., 0., 0., 0., 0., 0., 0., 0., 0., 0., 0., 0.,
          0., 0., 0., 0., 0., 0., 0., 0., 0., 0., 0., 0., 0., 0., 0.,
          3.78787890e-003, 0., 0., 7.57575780e-003, 0., 0., 0., 0., 0.,
          0., 0., 0., 0., 3.78787890e-003, 0., 0., 0., 0., 0., 0., 0.,
          0., 0., 0., 0., 0., 0., 0., 0., 0., 0., 0., 0., 0.,
          1.89393945e-002, 0., 0., 0., 0., 0., 0., 0., 0., 0., 0.,
          1.13636367e-002, 0., 0., 0., 3.78787890e-003, 0., 0., 0., 0.,
          0., 0., 0., 0., 0., 7.57575780e-003, 0., 3.78787890e-003, 0.,
          3.78787890e-003, 0., 0., 0., 0., 0., 3.78787890e-003, 0.,
          7.57575780e-003, 0., 0., 0., 0., 0., 0., 0., 0., 0., 0., 0.,
          0., 1.13636367e-002, 0., 0., 0., 7.57575780e-003, 0., 0., 0.,
          0., 3.78787890e-003, 0., 0., 3.78787890e-003, 0., 0., 0., 0.,
          0., 0., 0., 0., 3.78787890e-003, 0., 0., 0., 0., 0., 0., 0.,
          0., 0., 0., 0., 7.57575780e-003, 0., 3.78787890e-003, 0., 0.,
          0., 0., 0., 3.78787890e-003, 0., 3.78787890e-003, 0., 0., 0.,
          0., 0., 3.78787890e-003, 0., 0., 0., 0., 0., 0.,
          3.78787890e-003, 0., 0., 0., 0., 3.78787890e-003, 0., 0.,
          1.13636367e-002, 0., 0., 0., 0., 0., 0., 0., 0., 0., 0., 0.,
          0., 0., 0., 0., 3.78787890e-003, 0., 0., 3.78787890e-003, 0.,
          3.78787890e-003, 0., 3.78787890e-003, 0., 0., 0., 0., 0., 0.,
          0., 0., 3.78787890e-003, 0., 0., 0., 0., 0., 0.,
          3.78787890e-003, 0., 0., 0., 3.78787890e-003, 0., 0., 0.,
          3.78787890e-003, 0., 0., 0., 0., 0., 0., 0., 0., 0., 0., 0.,
          3.78787890e-003, 3.78787890e-003, 3.78787890e-003, 0., 0., 0.,
          0., 0., 0., 0., 0., 0., 0., 0., 1.13636367e-002,
          3.78787890e-003, 0., 3.78787890e-003, 0., 3.78787890e-003, 0.,
          0., 0., 0., 0., 0., 3.78787890e-003, 0., 0., 0., 0., 0., 0.,
          7.57575780e-003, 3.78787890e-003, 0., 0., 0., 0., 0., 0., 0.,
          7.57575780e-003, 0., 0., 0., 3.78787890e-003, 1.13636367e-002,
          0., 1.13636367e-002, 7.57575780e-003, 0., 0., 0., 0., 0., 0.,
          0., 0., 0., 3.78787890e-003, 3.78787890e-003, 0.,
          3.78787890e-003, 0., 0., 0., 0., 0., 0., 0., 0., 0., 0., 0.,
          0., 0., 0., 0., 0., 0., 0., 0., 1.13636367e-002, 0.,
          7.57575780e-003, 0., 0., 0., 3.78787890e-003, 0., 0., 0., 0.,
          7.57575780e-003, 3.78787890e-003, 0., 0., 0., 0., 0., 0., 0.,
          0., 0., 0., 0., 0., 1.13636367e-002, 0., 0., 0., 0., 0., 0.,
          0., 0., 0., 0., 0., 0., 0., 0., 0., 0., 3.78787890e-003, 0.,
          0., 0., 0., 0., 0., 0., 0., 3.78787890e-003, 0., 0.,
          3.78787890e-003, 0., 0., 0., 0., 0., 0., 0., 0., 0., 0., 0.,
          0., 0., 0., 0., 3.78787890e-003, 0., 1.13636367e-002,
          3.78787890e-003, 0., 0., 0., 0., 0., 0., 0., 0., 0., 0., 0.,
          0., 0., 0., 0., 0., 0., 0., 3.03030312e-002, 3.78787890e-003,
          0., 0., 0., 3.78787890e-003, 3.78787890e-003, 0., 0., 0., 0.,
          0., 0., 0., 0., 0., 0., 3.78787890e-003, 0., 0., 0.,
          3.78787890e-003, 0., 0., 0., 0., 0., 0., 0., 0., 0., 0., 0.,
          1.13636367e-002, 0., 0., 1.13636367e-002, 0., 0., 0., 0., 0.,
          7.57575780e-003, 0., 0., 0., 0., 0., 0., 0., 3.78787890e-003,
          0., 0., 0., 0., 3.78787890e-003, 3.78787890e-003, 0., 0., 0.,
          0., 0., 0., 0., 0., 0., 0., 0., 0., 0., 0., 0., 0., 0., 0.,
          3.78787890e-003, 7.57575780e-003, 0., 0., 0., 0., 0., 0., 0.,
          0., 3.78787890e-003, 0., 3.78787890e-003, 0., 0., 0., 0., 0.,
          0., 0., 0., 0., 0., 0., 0., 0., 3.78787890e-003, 0., 0., 0.,
          0., 0., 0., 3.78787890e-003, 0., 0., 0., 0., 0., 0., 0., 0.,
          0., 0., 0., 0., 1.51515156e-002, 0., 7.57575780e-003, 0., 0.,
          0., 0., 0., 0., 0., 0., 1.13636367e-002, 3.78787890e-003, 0.,
          0., 0., 0., 7.57575780e-003, 0., 0., 0., 0., 0., 0., 0., 0.,
          0., 0., 0. ]
      - [ 3.67647060e-003, 0., 1.10294120e-002, 0., 0., 0.,
          3.67647060e-003, 7.35294120e-003, 0., 0., 0., 0., 0., 0.,
          7.35294120e-003, 0., 0., 1.10294120e-002, 0., 0., 0., 0., 0.,
          0., 0., 0., 3.67647060e-003, 0., 0., 0., 0., 0.,
          3.67647060e-003, 0., 0., 0., 0., 0., 0., 7.35294120e-003, 0.,
          0., 3.67647060e-003, 3.67647060e-003, 3.67647060e-003, 0., 0.,
          0., 0., 0., 0., 0., 0., 0., 0., 3.67647060e-003,
          1.47058824e-002, 3.67647060e-003, 0., 0., 0., 0., 0., 0., 0.,
          0., 0., 3.67647060e-003, 7.35294120e-003, 0., 0., 0., 0., 0.,
          0., 0., 0., 0., 0., 3.67647060e-003, 3.67647060e-003, 0., 0.,
          0., 0., 0., 7.35294120e-003, 3.67647060e-003, 0., 0., 0., 0.,
          0., 0., 3.67647060e-003, 0., 0., 0., 0., 1.83823537e-002, 0.,
          0., 0., 0., 0., 0., 0., 0., 0., 0., 0., 0., 0.,
          7.35294120e-003, 0., 0., 0., 0., 0., 0., 0., 0.,
          3.67647060e-003, 0., 7.35294120e-003, 0., 0., 0., 0.,
          3.67647060e-003, 0., 0., 0., 3.67647060e-003, 0., 0.,
          1.10294120e-002, 0., 0., 0., 0., 0., 1.83823537e-002, 0., 0.,
          0., 7.35294120e-003, 3.67647060e-003, 0., 0., 0., 0., 0.,
          7.35294120e-003, 0., 0., 0., 0., 0., 0., 3.67647060e-003, 0.,
          0., 3.67647060e-003, 0., 0., 0., 1.10294120e-002, 0.,
          3.67647060e-003, 0., 0., 0., 0., 0., 0., 3.67647060e-003, 0.,
          0., 3.67647060e-003, 0., 3.67647060e-003, 0., 0., 0., 0., 0.,
          3.67647060e-003, 0., 0., 0., 0., 0., 3.67647060e-003,
          3.67647060e-003, 0., 0., 1.10294120e-002, 0., 0., 0., 0.,
          3.67647060e-003, 7.35294120e-003, 0., 0., 0., 0., 0., 0., 0.,
          0., 0., 0., 0., 0., 3.67647060e-003, 0., 0., 0., 0.,
          3.67647060e-003, 0., 3.67647060e-003, 0., 0., 0.,
          7.35294120e-003, 0., 3.67647060e-003, 0., 0., 0., 0., 0., 0.,
          0., 3.67647060e-003, 0., 0., 0., 0., 3.67647060e-003, 0., 0.,
          0., 0., 0., 0., 0., 0., 3.67647060e-003, 3.67647060e-003, 0.,
          0., 0., 0., 0., 3.67647060e-003, 3.67647060e-003, 0.,
          3.67647060e-003, 0., 0., 0., 0., 0., 0., 0., 0.,
          3.67647060e-003, 0., 3.67647060e-003, 0., 3.67647060e-003, 0.,
          3.67647060e-003, 0., 0., 0., 3.67647060e-003, 0., 0., 0.,
          1.10294120e-002, 0., 0., 0., 0., 0., 0., 7.35294120e-003,
          7.35294120e-003, 0., 3.67647060e-003, 3.67647060e-003, 0., 0.,
          3.67647060e-003, 0., 3.67647060e-003, 0., 0., 3.67647060e-003,
          0., 0., 0., 0., 3.67647060e-003, 3.67647060e-003, 0.,
          3.67647060e-003, 0., 1.10294120e-002, 0., 0., 0., 0., 0., 0.,
          0., 0., 0., 0., 0., 0., 0., 0., 7.35294120e-003, 0., 0., 0.,
          3.67647060e-003, 0., 0., 3.67647060e-003, 0., 0., 0., 0., 0.,
          0., 0., 7.35294120e-003, 7.35294120e-003, 3.67647060e-003, 0.,
          0., 0., 0., 0., 0., 0., 0., 0., 0., 0., 0., 1.47058824e-002,
          0., 0., 0., 0., 0., 3.67647060e-003, 0., 0., 3.67647060e-003,
          0., 0., 0., 0., 0., 0., 0., 3.67647060e-003, 3.67647060e-003,
          3.67647060e-003, 0., 0., 0., 0., 0., 0., 3.67647060e-003, 0.,
          0., 0., 0., 0., 7.35294120e-003, 0., 0., 0., 0., 0., 0., 0.,
          0., 0., 0., 0., 3.67647060e-003, 0., 0., 0., 0., 0., 0., 0.,
          0., 0., 7.35294120e-003, 0., 0., 7.35294120e-003, 0., 0., 0.,
          0., 0., 3.67647060e-003, 0., 0., 3.67647060e-003, 0., 0., 0.,
          0., 0., 0., 0., 0., 0., 0., 0., 0., 0., 0., 0., 0., 0., 0., 0.,
          0., 0., 0., 0., 0., 0., 0., 0., 0., 0., 0., 0., 0., 0., 0., 0.,
          3.67647060e-003, 0., 0., 0., 0., 0., 0., 0., 0., 0., 0.,
          1.10294120e-002, 0., 0., 0., 0., 7.35294120e-003, 0., 0., 0.,
          0., 0., 0., 3.67647060e-003, 0., 0., 0., 3.67647060e-003,
          3.67647060e-003, 0., 0., 3.67647060e-003, 0., 0., 0., 0., 0.,
          0., 0., 0., 0., 0., 1.10294120e-002, 0., 0., 0., 0., 0., 0.,
          3.67647060e-003, 0., 0., 0., 3.67647060e-003, 0., 0., 0., 0.,
          0., 0., 0., 0., 0., 0., 0., 0., 0., 0., 0., 0., 0., 0., 0.,
          3.67647060e-003, 0., 0., 3.67647060e-003, 3.67647060e-003,
          3.67647060e-003, 3.67647060e-003, 0., 0., 0., 0., 0., 0., 0.,
          3.67647060e-003, 0., 0., 0., 0., 1.10294120e-002, 0., 0.,
          3.67647060e-003, 0., 3.67647060e-003, 0., 0., 0.,
          7.35294120e-003, 0., 0., 0., 0., 0., 0., 0., 0., 0.,
          1.47058824e-002, 3.67647060e-003, 3.67647060e-003, 0.,
          7.35294120e-003, 0., 0., 0., 0., 0., 0., 0., 0., 0.,
          7.35294120e-003, 0., 3.67647060e-003, 0., 0., 0., 0., 0., 0.,
          0., 0., 0., 0., 0., 0., 0., 0., 3.67647060e-003, 0., 0., 0.,
          3.67647060e-003, 0., 0., 0., 0., 0., 0., 3.67647060e-003, 0.,
          0., 3.67647060e-003, 0., 3.67647060e-003, 0., 0., 0., 0., 0.,
          0., 0., 0., 0., 0., 0., 0., 0., 7.35294120e-003, 0., 0.,
          3.67647060e-003, 0., 0., 0., 0., 0., 0., 3.67647060e-003, 0.,
          0., 0., 0., 0., 0., 0., 0., 0., 0., 0., 0., 3.67647060e-003,
          0., 0., 0., 0., 0., 0., 0., 3.67647060e-003, 0., 0., 0., 0.,
          0., 0., 3.67647060e-003, 0., 0., 0., 0., 0., 0., 0., 0., 0.,
          0., 0., 0., 0., 0., 0., 0., 0., 3.67647060e-003,
          3.67647060e-003, 0., 0., 0., 0., 3.67647060e-003, 0., 0., 0.,
          0., 0., 3.67647060e-003, 3.67647060e-003, 0., 0., 0., 0., 0.,
          0., 1.10294120e-002, 0., 0., 0., 0., 0., 3.67647060e-003, 0.,
          1.10294120e-002, 3.67647060e-003, 3.67647060e-003, 0., 0.,
          7.35294120e-003, 7.35294120e-003, 0., 3.67647060e-003,
          7.35294120e-003, 0., 0., 3.67647060e-003, 0., 0., 0., 0., 0.,
          0., 0., 0., 0., 3.67647060e-003, 0., 0., 0., 0., 0., 0., 0.,
          0., 0., 3.67647060e-003, 0., 0., 3.67647060e-003, 0.,
          3.67647060e-003, 0., 0., 0., 0., 3.67647060e-003,
          3.67647060e-003, 3.67647060e-003, 0., 0., 0., 3.67647060e-003,
          0., 0., 0., 0., 3.67647060e-003, 3.67647060e-003, 0., 0., 0.,
          0., 0., 0., 0., 0., 0., 0., 0., 0., 3.67647060e-003, 0., 0.,
          0., 0., 0., 0., 0., 0., 3.67647060e-003, 0., 0., 0., 0., 0.,
          0., 0., 0., 0., 3.67647060e-003, 0., 0., 0., 0., 0., 0., 0.,
          0., 0., 0., 0., 1.10294120e-002, 0., 0., 0., 0., 0., 0., 0.,
          0., 0., 0., 0., 0., 0., 0., 0., 7.35294120e-003, 0., 0., 0.,
          3.67647060e-003, 0., 0., 0., 0., 0., 0., 0., 0., 0.,
          3.67647060e-003, 0., 0., 0., 0., 0., 1.83823537e-002,
          3.67647060e-003, 0., 0., 0., 3.67647060e-003, 0., 0., 0., 0.,
          0., 0., 3.67647060e-003, 0., 0., 0., 0., 0., 0., 0., 0., 0.,
          0., 0., 0., 7.35294120e-003, 0., 0., 3.67647060e-003, 0., 0.,
          0., 7.35294120e-003, 1.10294120e-002, 0., 0., 7.35294120e-003,
          0., 0., 0., 0., 0., 0., 0., 0., 0., 0., 0., 0., 0.,
          3.67647060e-003, 0., 0., 0., 0., 7.35294120e-003, 0., 0., 0.,
          0., 0., 0., 0., 0., 0., 0., 0., 0., 0., 0., 0., 0., 0., 0., 0.,
          0., 3.67647060e-003, 0., 0., 0., 0., 0., 0., 0., 0.,
          3.67647060e-003, 0., 0., 0., 0., 0., 0., 0., 0., 0., 0., 0.,
          0., 0., 0., 0., 7.35294120e-003, 0., 0., 0., 0., 0.,
          7.35294120e-003, 0., 0., 0., 0., 0., 0., 0., 0., 0., 0.,
          3.67647060e-003, 0., 0., 7.35294120e-003, 0., 3.67647060e-003,
          0., 0., 0., 0., 0., 0., 0., 7.35294120e-003, 0.,
          3.67647060e-003, 0., 0., 0., 0., 3.67647060e-003, 0., 0., 0.,
          0., 0., 3.67647060e-003, 3.67647060e-003, 3.67647060e-003, 0.,
          0., 0. ]
      - [ 0., 0., 0., 0., 0., 0., 6.87285233e-003, 3.43642617e-003, 0.,
          0., 0., 0., 0., 0., 3.43642617e-003, 0., 0., 3.43642617e-003,
          0., 0., 0., 0., 3.43642617e-003, 0., 0., 3.43642617e-003,
          3.43642617e-003, 0., 0., 0., 0., 0., 0., 0., 0., 0., 0., 0.,
          0., 0., 0., 0., 0., 0., 3.43642617e-003, 0., 0., 0., 0., 0.,
          0., 0., 0., 3.43642617e-003, 3.43642617e-003, 3.43642617e-003,
          0., 0., 0., 0., 0., 0., 0., 0., 1.71821304e-002, 0., 0.,
          3.43642617e-003, 0., 0., 3.43642617e-003, 0., 0., 0., 0., 0.,
          0., 0., 0., 3.43642617e-003, 0., 0., 3.43642617e-003, 0., 0.,
          0., 3.43642617e-003, 6.87285233e-003, 0., 0., 0., 0.,
          3.43642617e-003, 0., 6.87285233e-003, 0., 0., 6.87285233e-003,
          0., 6.87285233e-003, 0., 0., 0., 0., 0., 0., 0.,
          3.43642617e-003, 0., 0., 0., 0., 0., 1.03092790e-002, 0., 0.,
          0., 0., 0., 6.87285233e-003, 3.43642617e-003, 0.,
          1.03092790e-002, 0., 3.43642617e-003, 0., 0., 0.,
          3.43642617e-003, 6.87285233e-003, 0., 0., 0., 0., 0., 0., 0.,
          0., 3.43642617e-003, 0., 0., 6.87285233e-003, 3.09278350e-002,
          0., 0., 3.43642617e-003, 1.03092790e-002, 3.43642617e-003, 0.,
          0., 0., 0., 3.43642617e-003, 0., 0., 0., 0., 0., 0., 0., 0.,
          0., 0., 3.43642617e-003, 3.43642617e-003, 0., 0.,
          6.87285233e-003, 0., 0., 0., 0., 0., 0., 0., 0., 0., 0., 0.,
          0., 3.43642617e-003, 6.87285233e-003, 3.43642617e-003, 0.,
          3.43642617e-003, 0., 0., 3.43642617e-003, 0., 0., 0.,
          3.43642617e-003, 0., 0., 0., 3.43642617e-003, 0.,
          3.43642617e-003, 0., 0., 0., 0., 0., 0., 3.43642617e-003, 0.,
          0., 0., 0., 0., 0., 0., 0., 0., 0., 0., 0., 0., 0.,
          3.43642617e-003, 0., 3.43642617e-003, 0., 0., 3.43642617e-003,
          0., 0., 0., 0., 1.37457047e-002, 0., 0., 0., 0., 0.,
          3.43642617e-003, 0., 0., 3.43642617e-003, 0., 0.,
          6.87285233e-003, 0., 0., 0., 0., 0., 0., 0., 0.,
          3.43642617e-003, 0., 6.87285233e-003, 0., 0., 0., 0., 0.,
          6.87285233e-003, 0., 0., 3.43642617e-003, 0., 0., 0., 0., 0.,
          0., 3.43642617e-003, 0., 3.43642617e-003, 0., 0., 0., 0., 0.,
          6.87285233e-003, 0., 0., 1.03092790e-002, 3.43642617e-003,
          3.43642617e-003, 0., 0., 3.43642617e-003, 0., 0., 0., 0., 0.,
          0., 3.43642617e-003, 6.87285233e-003, 0., 0., 0., 0., 0., 0.,
          3.43642617e-003, 0., 0., 0., 0., 0., 6.87285233e-003, 0.,
          3.43642617e-003, 0., 3.43642617e-003, 0., 3.43642617e-003, 0.,
          0., 3.43642617e-003, 0., 3.43642617e-003, 0., 0., 0., 0., 0.,
          0., 0., 0., 0., 0., 3.43642617e-003, 0., 0., 0., 0., 0., 0.,
          0., 0., 0., 0., 0., 0., 0., 0., 0., 0., 3.43642617e-003,
          3.43642617e-003, 0., 0., 0., 0., 0., 0., 0., 0., 0., 0., 0.,
          0., 2.06185579e-002, 0., 0., 3.43642617e-003, 3.43642617e-003,
          0., 0., 0., 0., 0., 0., 0., 0., 0., 0., 0., 0.,
          6.87285233e-003, 0., 3.43642617e-003, 0., 0., 0., 0., 0., 0.,
          6.87285233e-003, 0., 3.43642617e-003, 0., 3.43642617e-003, 0.,
          3.43642617e-003, 0., 0., 0., 3.43642617e-003, 0., 0., 0., 0.,
          0., 0., 0., 3.43642617e-003, 0., 0., 0., 0., 0., 0., 0., 0.,
          0., 6.87285233e-003, 0., 0., 6.87285233e-003, 0., 0., 0., 0.,
          0., 0., 0., 3.43642617e-003, 0., 0., 0., 0., 0., 0., 0.,
          3.43642617e-003, 0., 0., 0., 0., 0., 0., 0., 0., 0., 0., 0.,
          0., 0., 0., 0., 0., 0., 0., 0., 3.43642617e-003, 0., 0., 0.,
          0., 0., 0., 0., 0., 0., 0., 0., 0., 0., 0., 0., 0.,
          3.43642617e-003, 3.43642617e-003, 0., 2.40549836e-002, 0., 0.,
          0., 0., 0., 0., 0., 0., 0., 0., 0., 3.43642617e-003, 0., 0.,
          0., 3.43642617e-003, 0., 0., 0., 3.43642617e-003, 0., 0., 0.,
          0., 0., 0., 0., 0., 0., 0., 6.87285233e-003, 0., 0., 0.,
          3.43642617e-003, 0., 0., 3.43642617e-003, 0., 0., 0.,
          3.43642617e-003, 0., 0., 0., 0., 0., 0., 0., 3.43642617e-003,
          0., 0., 0., 0., 0., 3.43642617e-003, 0., 0., 0., 0.,
          3.43642617e-003, 0., 0., 0., 3.43642617e-003, 3.43642617e-003,
          0., 3.43642617e-003, 0., 0., 0., 0., 0., 0., 0.,
          6.87285233e-003, 0., 0., 0., 0., 2.74914093e-002, 0., 0., 0.,
          0., 3.43642617e-003, 0., 0., 0., 0., 0., 0., 3.43642617e-003,
          0., 0., 0., 0., 0., 0., 0., 0., 3.43642617e-003, 0., 0., 0.,
          0., 0., 0., 0., 0., 3.43642617e-003, 3.43642617e-003, 0., 0.,
          0., 3.43642617e-003, 0., 0., 0., 0., 0., 6.87285233e-003, 0.,
          3.43642617e-003, 0., 0., 6.87285233e-003, 0., 0.,
          6.87285233e-003, 6.87285233e-003, 6.87285233e-003, 0., 0.,
          3.43642617e-003, 0., 0., 3.43642617e-003, 0., 0., 0.,
          3.43642617e-003, 0., 0., 3.43642617e-003, 0., 0., 0., 0., 0.,
          0., 0., 0., 0., 0., 0., 0., 0., 0., 0., 3.43642617e-003, 0.,
          0., 3.43642617e-003, 0., 3.43642617e-003, 0., 0., 0., 0., 0.,
          0., 0., 0., 0., 0., 0., 0., 3.43642617e-003, 0., 0.,
          6.87285233e-003, 0., 3.43642617e-003, 0., 0., 0., 0., 0., 0.,
          0., 0., 0., 0., 0., 0., 0., 0., 0., 0., 0., 0.,
          6.87285233e-003, 0., 6.87285233e-003, 0., 0., 0., 0.,
          3.43642617e-003, 0., 0., 3.43642617e-003, 3.43642617e-003, 0.,
          0., 3.43642617e-003, 3.43642617e-003, 0., 0., 3.43642617e-003,
          0., 3.43642617e-003, 0., 0., 0., 0., 0., 0., 6.87285233e-003,
          0., 0., 0., 0., 0., 0., 6.87285233e-003, 0., 0., 0., 0., 0.,
          0., 0., 3.43642617e-003, 0., 0., 0., 0., 0., 6.87285233e-003,
          0., 3.43642617e-003, 3.43642617e-003, 0., 0., 0., 0., 0., 0.,
          0., 0., 0., 0., 0., 0., 3.43642617e-003, 0., 0., 0., 0., 0.,
          0., 3.43642617e-003, 0., 0., 0., 0., 0., 0., 0., 0., 0., 0.,
          0., 0., 3.43642617e-003, 3.43642617e-003, 3.43642617e-003, 0.,
          0., 3.43642617e-003, 1.03092790e-002, 0., 0., 0., 0.,
          3.43642617e-003, 3.43642617e-003, 0., 0., 0., 0., 0., 0., 0.,
          0., 0., 3.43642617e-003, 0., 0., 6.87285233e-003, 0., 0.,
          3.43642617e-003, 0., 0., 0., 0., 0., 0., 0., 0.,
          3.43642617e-003, 0., 0., 0., 0., 3.43642617e-003, 0., 0., 0.,
          0., 0., 0., 0., 0., 0., 0., 0., 0., 0., 0., 0., 0., 0., 0., 0.,
          0., 0., 0., 0., 0., 0., 0., 0., 0., 3.43642617e-003, 0., 0.,
          0., 0., 0., 0., 0., 0., 0., 3.43642617e-003, 6.87285233e-003,
          0., 0., 0., 0., 0., 0., 0., 0., 0., 1.71821304e-002, 0., 0.,
          0., 0., 0., 0., 0., 0., 0., 0., 0., 0., 0., 0., 0., 0., 0., 0.,
          0., 0., 3.43642617e-003, 6.87285233e-003, 0., 0.,
          6.87285233e-003, 0., 0., 0., 0., 0., 0., 0., 6.87285233e-003,
          3.43642617e-003, 0., 3.09278350e-002, 0., 0., 0., 0., 0., 0.,
          0., 0., 0., 0., 0., 0., 0., 3.43642617e-003, 0., 0., 0., 0.,
          0., 0., 0., 0., 0., 0., 0., 0., 0., 0., 0., 0., 0., 0., 0., 0.,
          6.87285233e-003, 0., 0., 0., 0., 6.87285233e-003, 0., 0., 0.,
          0., 0., 0., 3.43642617e-003, 0., 3.43642617e-003, 0., 0.,
          3.43642617e-003, 0., 3.43642617e-003, 0., 0., 0., 0., 0., 0.,
          0., 0., 3.43642617e-003, 0., 1.37457047e-002, 0., 0., 0., 0.,
          0., 0., 6.87285233e-003, 0., 0., 0., 0., 0., 0., 0., 0., 0.,
          0., 0., 0., 3.43642617e-003, 0., 1.03092790e-002, 0., 0., 0.,
          0., 0., 0., 0., 0., 3.43642617e-003, 3.43642617e-003, 0.,
          3.43642617e-003, 0., 0., 0., 0., 0., 0., 0., 0., 0., 0., 0.,
          0., 3.43642617e-003, 0. ]
      - [ 0., 0., 8.13008100e-003, 0., 4.06504050e-003, 0., 0., 0., 0.,
          0., 0., 0., 0., 0., 8.13008100e-003, 0., 0., 8.13008100e-003,
          0., 4.06504050e-003, 0., 0., 0., 0., 0., 8.13008100e-003,
          4.06504050e-003, 0., 0., 0., 0., 0., 4.06504050e-003, 0., 0.,
          0., 0., 0., 0., 4.06504050e-003, 0., 0., 0., 0.,
          4.06504050e-003, 0., 0., 0., 0., 0., 0., 0., 0.,
          4.06504050e-003, 0., 4.06504050e-003, 4.06504050e-003,
          4.06504050e-003, 0., 0., 0., 0., 0., 0., 2.03252025e-002, 0.,
          0., 8.13008100e-003, 0., 4.06504050e-003, 0., 0., 0., 0., 0.,
          0., 0., 0., 0., 0., 4.06504050e-003, 0., 0., 0., 0., 0.,
          4.06504050e-003, 0., 0., 4.06504050e-003, 0., 0., 0.,
          4.06504050e-003, 4.06504050e-003, 0., 0., 4.06504050e-003, 0.,
          4.06504050e-003, 4.06504050e-003, 0., 0., 0., 0., 0., 0.,
          4.06504050e-003, 0., 0., 4.06504050e-003, 0., 0.,
          2.03252025e-002, 0., 0., 8.13008100e-003, 0., 0.,
          4.06504050e-003, 0., 0., 0., 0., 4.06504050e-003, 0., 0., 0.,
          0., 8.13008100e-003, 0., 0., 4.06504050e-003, 8.13008100e-003,
          0., 4.06504050e-003, 8.13008100e-003, 0., 0., 0., 0.,
          4.06504050e-003, 4.06504050e-003, 0., 0., 0., 0., 0., 0., 0.,
          0., 0., 0., 0., 0., 0., 0., 0., 0., 0., 0., 0., 0., 0.,
          4.06504050e-003, 0., 0., 8.13008100e-003, 0., 0., 0., 0., 0.,
          0., 0., 0., 0., 0., 0., 0., 0., 0., 4.06504050e-003, 0., 0.,
          0., 0., 4.06504050e-003, 0., 0., 0., 0., 0., 0., 0.,
          4.06504050e-003, 0., 0., 0., 0., 0., 0., 0., 4.06504050e-003,
          0., 0., 0., 0., 0., 0., 0., 4.06504050e-003, 0.,
          4.06504050e-003, 0., 0., 8.13008100e-003, 0., 0., 0., 0., 0.,
          0., 0., 4.06504050e-003, 0., 0., 4.06504050e-003, 0.,
          8.13008100e-003, 0., 0., 0., 0., 0., 4.06504050e-003, 0.,
          4.06504050e-003, 0., 0., 0., 4.06504050e-003, 0., 0., 0., 0.,
          0., 8.13008100e-003, 0., 8.13008100e-003, 0., 4.06504050e-003,
          4.06504050e-003, 0., 0., 0., 0., 0., 0., 4.06504050e-003, 0.,
          8.13008100e-003, 0., 4.06504050e-003, 0., 0., 0., 0.,
          4.06504050e-003, 0., 4.06504050e-003, 0., 0., 0.,
          4.06504050e-003, 0., 4.06504050e-003, 0., 0., 1.21951215e-002,
          4.06504050e-003, 0., 0., 0., 8.13008100e-003, 0., 0., 0., 0.,
          0., 0., 0., 4.06504050e-003, 0., 0., 0., 0., 0.,
          4.06504050e-003, 0., 8.13008100e-003, 8.13008100e-003, 0., 0.,
          0., 4.06504050e-003, 0., 0., 4.06504050e-003, 0., 0., 0., 0.,
          0., 0., 0., 4.06504050e-003, 0., 0., 0., 0., 0., 0., 0., 0.,
          0., 0., 0., 0., 0., 4.06504050e-003, 0., 4.06504050e-003, 0.,
          0., 0., 8.13008100e-003, 0., 0., 4.06504050e-003, 0., 0., 0.,
          8.13008100e-003, 4.06504050e-003, 0., 0., 4.06504050e-003, 0.,
          0., 0., 0., 0., 0., 0., 0., 0., 0., 1.21951215e-002, 0., 0.,
          4.06504050e-003, 0., 0., 4.06504050e-003, 0., 0.,
          4.06504050e-003, 0., 0., 0., 0., 0., 0., 0., 8.13008100e-003,
          0., 4.06504050e-003, 0., 0., 0., 0., 0., 0., 4.06504050e-003,
          0., 0., 0., 4.06504050e-003, 0., 4.06504050e-003, 0., 0., 0.,
          4.06504050e-003, 4.06504050e-003, 0., 0., 0., 0., 0., 0., 0.,
          0., 0., 0., 0., 0., 0., 0., 0., 0., 4.06504050e-003, 0., 0.,
          4.06504050e-003, 0., 0., 0., 0., 0., 0., 0., 0., 0.,
          4.06504050e-003, 0., 0., 0., 0., 0., 0., 0., 4.06504050e-003,
          0., 0., 0., 0., 4.06504050e-003, 0., 4.06504050e-003, 0., 0.,
          0., 0., 0., 0., 0., 0., 0., 0., 0., 0., 0., 0., 0., 0., 0., 0.,
          0., 0., 0., 0., 0., 0., 0., 4.06504050e-003, 0., 0., 0., 0.,
          2.03252025e-002, 0., 0., 0., 0., 0., 0., 0., 0., 0.,
          4.06504050e-003, 0., 4.06504050e-003, 0., 0., 0., 0.,
          4.06504050e-003, 0., 0., 0., 4.06504050e-003, 0., 0., 0., 0.,
          0., 0., 0., 0., 0., 1.21951215e-002, 0., 0., 0., 0., 0., 0.,
          0., 0., 0., 0., 0., 0., 0., 0., 4.06504050e-003, 0., 0., 0.,
          1.21951215e-002, 0., 0., 0., 0., 0., 1.21951215e-002, 0.,
          4.06504050e-003, 0., 0., 4.06504050e-003, 0., 0., 0., 0.,
          4.06504050e-003, 0., 4.06504050e-003, 0., 0., 0., 0., 0., 0.,
          4.06504050e-003, 0., 0., 0., 0., 0., 0., 0., 0., 0., 0., 0.,
          0., 0., 0., 0., 0., 4.06504050e-003, 4.06504050e-003, 0., 0.,
          0., 0., 0., 0., 0., 0., 0., 0., 0., 0., 0., 0., 0., 0., 0., 0.,
          0., 0., 8.13008100e-003, 0., 4.06504050e-003, 0., 0., 0., 0.,
          0., 0., 0., 0., 0., 0., 0., 0., 0., 8.13008100e-003, 0., 0.,
          0., 0., 0., 0., 0., 0., 0., 0., 0., 4.06504050e-003, 0., 0.,
          1.21951215e-002, 0., 4.06504050e-003, 0., 0., 0., 0., 0., 0.,
          0., 0., 0., 0., 0., 0., 0., 0., 0., 0., 4.06504050e-003, 0.,
          0., 0., 4.06504050e-003, 0., 0., 0., 0., 0., 0., 0., 0.,
          4.06504050e-003, 4.06504050e-003, 4.06504050e-003, 0., 0., 0.,
          0., 4.06504050e-003, 0., 0., 0., 0., 0., 0., 0., 0., 0., 0.,
          0., 0., 0., 0., 0., 0., 0., 0., 4.06504050e-003, 0., 0., 0.,
          0., 0., 0., 4.06504050e-003, 0., 0., 0., 0., 0.,
          4.06504050e-003, 0., 0., 0., 0., 0., 0., 4.06504050e-003, 0.,
          0., 0., 0., 0., 0., 4.06504050e-003, 0., 0., 0., 0., 0., 0.,
          8.13008100e-003, 0., 0., 0., 0., 0., 0., 0., 4.06504050e-003,
          4.06504050e-003, 0., 0., 0., 0., 1.21951215e-002, 0.,
          4.06504050e-003, 4.06504050e-003, 0., 0., 0., 0., 0., 0., 0.,
          0., 0., 4.06504050e-003, 0., 0., 0., 0., 0., 0., 0., 0., 0.,
          0., 0., 0., 4.06504050e-003, 8.13008100e-003, 0.,
          4.06504050e-003, 0., 0., 4.06504050e-003, 0., 0., 0.,
          4.06504050e-003, 8.13008100e-003, 8.13008100e-003, 0., 0., 0.,
          4.06504050e-003, 0., 0., 0., 0., 4.06504050e-003,
          4.06504050e-003, 0., 0., 0., 0., 0., 0., 0., 4.06504050e-003,
          4.06504050e-003, 0., 0., 0., 4.06504050e-003, 0., 0., 0., 0.,
          0., 0., 0., 0., 0., 0., 0., 8.13008100e-003, 0., 0., 0., 0.,
          4.06504050e-003, 0., 0., 0., 0., 0., 0., 0., 0., 0., 0., 0.,
          0., 0., 0., 4.06504050e-003, 0., 0., 0., 0., 0., 0., 0., 0.,
          0., 0., 0., 0., 4.06504050e-003, 0., 8.13008100e-003, 0., 0.,
          0., 0., 4.06504050e-003, 0., 0., 0., 0., 0., 0., 0., 0., 0.,
          0., 0., 0., 0., 0., 2.43902430e-002, 0., 0., 0., 0., 0., 0.,
          0., 0., 0., 0., 0., 0., 0., 0., 0., 0., 0., 0., 0., 0., 0., 0.,
          0., 0., 0., 0., 0., 0., 0., 0., 0., 0., 8.13008100e-003, 0.,
          0., 8.13008100e-003, 0., 0., 0., 0., 0., 4.06504050e-003, 0.,
          0., 0., 0., 0., 0., 0., 8.13008100e-003, 0., 0., 0., 0., 0.,
          0., 0., 0., 0., 0., 0., 0., 0., 0., 0., 8.13008100e-003,
          4.06504050e-003, 0., 0., 0., 0., 0., 0., 0., 4.06504050e-003,
          4.06504050e-003, 0., 0., 4.06504050e-003, 0., 0., 0., 0., 0.,
          4.06504050e-003, 0., 4.06504050e-003, 4.06504050e-003, 0., 0.,
          0., 0., 0., 0., 0., 0., 0., 0., 0., 0., 2.03252025e-002, 0.,
          0., 0., 0., 0., 0., 0., 0., 0., 4.06504050e-003, 0., 0., 0.,
          0., 0., 0., 0., 0., 0., 0., 0., 8.13008100e-003, 0., 0., 0.,
          0., 0., 0., 0., 0., 0., 0., 0., 4.06504050e-003, 0., 0.,
          4.06504050e-003, 0., 0., 0., 0., 0., 0., 0., 0., 0.,
          4.06504050e-003, 0. ]
      - [ 0., 0., 1.06761567e-002, 0., 0., 0., 3.55871883e-003, 0., 0.,
          0., 0., 0., 0., 0., 7.11743766e-003, 0., 0., 3.55871883e-003,
          0., 0., 0., 0., 0., 3.55871883e-003, 0., 3.55871883e-003,
          3.55871883e-003, 3.55871883e-003, 0., 0., 0., 0., 0., 0.,
          3.55871883e-003, 0., 0., 0., 0., 3.55871883e-003, 0.,
          3.55871883e-003, 0., 7.11743766e-003, 3.55871883e-003, 0.,
          3.55871883e-003, 0., 0., 0., 0., 0., 0., 0., 0.,
          3.55871883e-003, 7.11743766e-003, 7.11743766e-003, 0., 0., 0.,
          0., 0., 0., 3.55871883e-003, 0., 0., 3.55871883e-003, 0., 0.,
          7.11743766e-003, 0., 3.55871883e-003, 0., 0., 0., 0., 0.,
          3.55871883e-003, 3.55871883e-003, 0., 3.55871883e-003, 0., 0.,
          0., 0., 7.11743766e-003, 7.11743766e-003, 0., 0.,
          3.55871883e-003, 0., 0., 0., 3.55871883e-003, 0., 0., 0., 0.,
          7.11743766e-003, 0., 0., 0., 0., 0., 0., 0., 3.55871883e-003,
          3.55871883e-003, 0., 3.55871883e-003, 0., 0., 1.42348753e-002,
          0., 0., 0., 0., 0., 0., 3.55871883e-003, 0., 7.11743766e-003,
          0., 0., 0., 0., 0., 0., 7.11743766e-003, 0., 3.55871883e-003,
          0., 0., 0., 3.55871883e-003, 3.55871883e-003, 0., 0., 0., 0.,
          3.55871883e-003, 7.11743766e-003, 0., 0., 0., 0.,
          7.11743766e-003, 0., 0., 0., 0., 0., 0., 0., 0., 0., 0., 0.,
          0., 1.06761567e-002, 3.55871883e-003, 3.55871883e-003, 0., 0.,
          0., 0., 7.11743766e-003, 3.55871883e-003, 0., 0., 0., 0., 0.,
          0., 0., 0., 0., 0., 0., 0., 0., 7.11743766e-003, 0., 0., 0.,
          0., 3.55871883e-003, 0., 0., 0., 3.55871883e-003, 0., 0., 0.,
          0., 0., 3.55871883e-003, 0., 0., 0., 0., 3.55871883e-003,
          1.06761567e-002, 0., 0., 0., 0., 0., 0., 0., 0.,
          3.55871883e-003, 0., 0., 0., 7.11743766e-003, 0., 0.,
          7.11743766e-003, 0., 0., 0., 0., 7.11743766e-003, 0., 0.,
          3.55871883e-003, 0., 3.55871883e-003, 0., 0., 0., 0., 0., 0.,
          0., 3.55871883e-003, 0., 0., 0., 0., 7.11743766e-003, 0., 0.,
          0., 0., 3.55871883e-003, 0., 3.55871883e-003, 0.,
          3.55871883e-003, 3.55871883e-003, 0., 0., 0., 0.,
          3.55871883e-003, 0., 3.55871883e-003, 0., 7.11743766e-003, 0.,
          3.55871883e-003, 0., 0., 0., 0., 0., 0., 0., 0., 0., 0.,
          7.11743766e-003, 0., 7.11743766e-003, 0., 0., 7.11743766e-003,
          0., 0., 0., 0., 7.11743766e-003, 0., 0., 0., 0., 0., 0.,
          1.06761567e-002, 0., 0., 3.55871883e-003, 3.55871883e-003, 0.,
          0., 0., 0., 1.06761567e-002, 0., 0., 3.55871883e-003, 0.,
          3.55871883e-003, 0., 0., 0., 0., 0., 3.55871883e-003, 0., 0.,
          0., 0., 3.55871883e-003, 0., 0., 0., 0., 0., 0.,
          7.11743766e-003, 0., 0., 0., 0., 3.55871883e-003, 0., 0., 0.,
          3.55871883e-003, 0., 0., 0., 0., 0., 3.55871883e-003, 0., 0.,
          0., 0., 0., 3.55871883e-003, 0., 0., 0., 0., 0., 0.,
          3.55871883e-003, 0., 0., 3.55871883e-003, 0., 0., 0.,
          7.11743766e-003, 0., 0., 3.55871883e-003, 3.55871883e-003, 0.,
          0., 0., 1.06761567e-002, 3.55871883e-003, 0., 0., 0., 0., 0.,
          0., 0., 1.06761567e-002, 0., 7.11743766e-003, 0., 0., 0., 0.,
          0., 0., 0., 0., 0., 0., 3.55871883e-003, 0., 0., 0.,
          3.55871883e-003, 0., 3.55871883e-003, 0., 0., 0., 0., 0., 0.,
          0., 3.55871883e-003, 0., 0., 0., 0., 0., 0., 0., 0., 0., 0.,
          0., 0., 3.55871883e-003, 0., 0., 0., 0., 0., 0., 0., 0., 0.,
          0., 0., 0., 0., 0., 0., 3.55871883e-003, 0., 3.55871883e-003,
          0., 0., 0., 0., 0., 0., 3.55871883e-003, 0., 0., 0.,
          3.55871883e-003, 0., 0., 0., 0., 0., 0., 0., 0., 0., 0., 0.,
          0., 0., 0., 0., 3.55871883e-003, 0., 0., 0., 0., 0., 0., 0.,
          0., 0., 0., 2.13523135e-002, 0., 0., 0., 0., 3.55871883e-003,
          0., 0., 0., 0., 3.55871883e-003, 0., 3.55871883e-003, 0., 0.,
          0., 3.55871883e-003, 0., 0., 0., 7.11743766e-003,
          3.55871883e-003, 0., 0., 0., 0., 0., 0., 3.55871883e-003, 0.,
          0., 0., 0., 0., 0., 0., 0., 0., 7.11743766e-003, 0.,
          3.55871883e-003, 0., 3.55871883e-003, 0., 0., 0., 0., 0.,
          3.55871883e-003, 0., 7.11743766e-003, 0., 0., 0., 0., 0., 0.,
          0., 3.55871883e-003, 0., 7.11743766e-003, 0., 0., 0., 0., 0.,
          3.55871883e-003, 0., 3.55871883e-003, 0., 0., 0., 0., 0., 0.,
          0., 0., 0., 3.55871883e-003, 0., 0., 7.11743766e-003, 0., 0.,
          0., 3.55871883e-003, 0., 1.06761567e-002, 0., 0.,
          7.11743766e-003, 3.55871883e-003, 0., 0., 0., 0.,
          3.55871883e-003, 0., 0., 0., 0., 0., 3.55871883e-003, 0.,
          7.11743766e-003, 0., 0., 0., 0., 0., 0., 0., 3.55871883e-003,
          0., 0., 0., 3.55871883e-003, 0., 0., 0., 0., 0., 0., 0.,
          3.55871883e-003, 0., 0., 0., 0., 0., 0., 0., 0., 0.,
          3.55871883e-003, 0., 0., 0., 0., 0., 0., 0., 3.55871883e-003,
          0., 0., 7.11743766e-003, 0., 3.55871883e-003, 0., 0., 0., 0.,
          0., 0., 0., 0., 0., 0., 0., 0., 0., 3.55871883e-003, 0., 0.,
          0., 0., 0., 0., 0., 0., 0., 0., 0., 0., 0., 0., 0.,
          3.55871883e-003, 0., 0., 0., 0., 1.06761567e-002, 0.,
          3.55871883e-003, 0., 0., 0., 0., 0., 0., 0., 3.55871883e-003,
          0., 0., 0., 0., 0., 0., 0., 0., 0., 0., 0., 0., 0., 0., 0., 0.,
          0., 0., 0., 0., 0., 3.55871883e-003, 0., 0., 3.55871883e-003,
          7.11743766e-003, 0., 0., 0., 0., 3.55871883e-003, 0., 0., 0.,
          0., 0., 0., 7.11743766e-003, 0., 0., 0., 0., 0., 0.,
          3.55871883e-003, 3.55871883e-003, 0., 0., 0., 0., 0., 0.,
          1.06761567e-002, 0., 3.55871883e-003, 0., 0., 7.11743766e-003,
          7.11743766e-003, 0., 0., 3.55871883e-003, 0., 0., 0., 0., 0.,
          0., 0., 0., 0., 0., 0., 0., 3.55871883e-003, 0., 0., 0., 0.,
          0., 0., 0., 0., 0., 3.55871883e-003, 0., 0., 0., 0., 0., 0.,
          0., 0., 0., 1.06761567e-002, 0., 0., 0., 0., 0., 0., 0.,
          3.55871883e-003, 0., 0., 3.55871883e-003, 3.55871883e-003, 0.,
          0., 0., 0., 0., 0., 0., 7.11743766e-003, 0., 0., 0., 0.,
          3.55871883e-003, 0., 0., 0., 0., 0., 0., 0., 0.,
          3.55871883e-003, 0., 0., 0., 0., 0., 0., 0., 1.77935939e-002,
          0., 0., 0., 0., 0., 0., 0., 0., 7.11743766e-003, 0., 0., 0.,
          0., 0., 0., 0., 0., 0., 0., 0., 0., 0., 3.55871883e-003, 0.,
          0., 0., 0., 0., 0., 3.55871883e-003, 3.55871883e-003, 0., 0.,
          0., 3.55871883e-003, 0., 0., 0., 0., 0., 0., 0., 0., 0., 0.,
          0., 0., 3.55871883e-003, 3.55871883e-003, 7.11743766e-003,
          3.55871883e-003, 0., 0., 7.11743766e-003, 0., 0., 0., 0., 0.,
          0., 0., 0., 0., 0., 0., 0., 0., 0., 0., 0., 0., 0., 0., 0.,
          3.55871883e-003, 0., 3.55871883e-003, 0., 0., 0., 0., 0.,
          3.55871883e-003, 3.55871883e-003, 0., 0., 0., 0., 0., 0., 0.,
          3.55871883e-003, 0., 3.55871883e-003, 0., 0., 0., 0., 0.,
          7.11743766e-003, 0., 0., 0., 0., 0., 0., 0., 0., 0., 0., 0.,
          0., 0., 0., 0., 7.11743766e-003, 0., 0., 0., 3.55871883e-003,
          3.55871883e-003, 0., 0., 0., 0., 3.55871883e-003, 0., 0., 0.,
          0., 0., 3.55871883e-003, 0., 0., 3.55871883e-003, 0., 0., 0.,
          0., 0., 0., 0., 0., 0., 0., 0., 0., 0., 3.55871883e-003, 0.,
          7.11743766e-003, 0., 0., 0., 0., 0., 0., 0., 0., 0., 0., 0.,
          0., 0., 0., 0., 0., 3.55871883e-003, 0., 0., 0.,
          3.55871883e-003, 3.55871883e-003, 0., 0., 0., 0., 0., 0., 0.,
          3.55871883e-003, 3.55871883e-003, 7.11743766e-003, 0.,
          3.55871883e-003, 7.11743766e-003, 0., 0., 0., 0., 0., 0., 0.,
          0., 3.55871883e-003, 0., 0., 3.55871883e-003, 0. ]
      - [ 0., 0., 5.60224103e-003, 0., 0., 0., 5.60224103e-003, 0., 0.,
          0., 0., 0., 0., 0., 5.60224103e-003, 0., 0., 5.60224103e-003,
          0., 0., 0., 0., 0., 0., 0., 2.80112051e-003, 2.80112051e-003,
          0., 5.60224103e-003, 0., 0., 2.80112051e-003, 2.80112051e-003,
          0., 0., 0., 0., 0., 0., 0., 0., 0., 2.80112051e-003,
          2.80112051e-003, 2.80112051e-003, 0., 0., 2.80112051e-003, 0.,
          0., 0., 0., 0., 2.80112051e-003, 0., 2.80112051e-003,
          2.80112051e-003, 2.80112051e-003, 0., 2.80112051e-003, 0., 0.,
          0., 0., 1.12044821e-002, 0., 0., 2.80112051e-003, 0., 0.,
          2.80112051e-003, 0., 0., 0., 0., 0., 0., 0., 2.80112051e-003,
          0., 0., 0., 0., 0., 0., 0., 5.60224103e-003, 2.80112051e-003,
          0., 0., 2.80112051e-003, 0., 5.60224103e-003, 0.,
          2.80112051e-003, 0., 0., 5.60224103e-003, 0., 1.40056023e-002,
          0., 0., 0., 0., 0., 0., 0., 0., 0., 0., 0., 0., 0., 0., 0., 0.,
          0., 0., 0., 0., 5.60224103e-003, 0., 2.80112051e-003, 0., 0.,
          0., 0., 0., 0., 2.80112051e-003, 0., 0., 1.40056023e-002,
          2.80112051e-003, 0., 5.60224103e-003, 0., 0., 5.60224103e-003,
          0., 0., 0., 1.12044821e-002, 0., 0., 0., 0., 2.80112051e-003,
          0., 0., 0., 0., 0., 5.60224103e-003, 0., 0., 0., 0., 0., 0.,
          0., 5.60224103e-003, 0., 0., 2.80112051e-003, 0., 0.,
          1.40056023e-002, 2.80112051e-003, 0., 0., 0., 0., 0., 0., 0.,
          0., 0., 0., 0., 0., 2.80112051e-003, 0., 0., 2.80112051e-003,
          0., 0., 5.60224103e-003, 1.12044821e-002, 0., 0., 0., 0., 0.,
          0., 0., 0., 5.60224103e-003, 0., 0., 0., 0., 0.,
          8.40336177e-003, 2.80112051e-003, 0., 0., 0., 0., 0., 0., 0.,
          0., 0., 0., 0., 2.80112051e-003, 2.80112051e-003, 0.,
          5.60224103e-003, 2.80112051e-003, 2.80112051e-003, 0.,
          2.80112051e-003, 2.80112051e-003, 0., 0., 2.80112051e-003, 0.,
          8.40336177e-003, 0., 0., 0., 2.80112051e-003, 0., 0., 0.,
          8.40336177e-003, 0., 0., 0., 2.80112051e-003, 0., 0., 0., 0.,
          0., 2.80112051e-003, 0., 0., 0., 2.80112051e-003, 0., 0., 0.,
          0., 0., 0., 0., 2.80112051e-003, 0., 2.80112051e-003, 0., 0.,
          0., 0., 0., 0., 0., 0., 0., 0., 0., 0., 2.80112051e-003, 0.,
          0., 0., 0., 0., 2.80112051e-003, 0., 0., 0., 1.40056023e-002,
          0., 0., 0., 0., 0., 0., 2.80112051e-003, 5.60224103e-003, 0.,
          0., 0., 5.60224103e-003, 0., 0., 0., 8.40336177e-003, 0.,
          2.80112051e-003, 2.80112051e-003, 0., 2.80112051e-003,
          2.80112051e-003, 2.80112051e-003, 0., 2.80112051e-003, 0.,
          2.80112051e-003, 0., 2.80112051e-003, 0., 0., 0., 0., 0., 0.,
          0., 8.40336177e-003, 0., 0., 0., 0., 0., 0., 0., 0., 0.,
          2.80112051e-003, 0., 0., 0., 0., 0., 0., 0., 0., 0., 0., 0.,
          2.80112051e-003, 2.80112051e-003, 2.80112051e-003, 0.,
          2.80112051e-003, 0., 0., 0., 0., 0., 0., 0., 0., 0., 0.,
          8.40336177e-003, 0., 0., 0., 0., 0., 2.80112051e-003, 0.,
          2.80112051e-003, 2.80112051e-003, 0., 0., 0., 0., 0., 0., 0.,
          5.60224103e-003, 2.80112051e-003, 2.80112051e-003,
          2.80112051e-003, 0., 0., 0., 0., 0., 2.80112051e-003, 0.,
          5.60224103e-003, 0., 0., 0., 0., 0., 0., 0., 0., 0., 0., 0.,
          0., 0., 0., 0., 0., 0., 0., 0., 0., 0., 0., 0., 0., 0.,
          5.60224103e-003, 0., 0., 8.40336177e-003, 0., 0., 0., 0., 0.,
          0., 0., 0., 0., 0., 0., 0., 0., 0., 0., 5.60224103e-003, 0.,
          0., 0., 0., 0., 0., 5.60224103e-003, 0., 2.80112051e-003, 0.,
          0., 0., 0., 0., 0., 0., 0., 0., 0., 0., 0., 0., 0., 0., 0., 0.,
          0., 0., 0., 0., 0., 2.80112051e-003, 0., 2.80112051e-003, 0.,
          0., 5.60224103e-003, 0., 0., 8.40336177e-003, 0., 0., 0., 0.,
          2.80112051e-003, 0., 0., 0., 0., 2.80112051e-003, 0.,
          5.60224103e-003, 0., 0., 0., 5.60224103e-003, 0.,
          2.80112051e-003, 0., 0., 0., 0., 0., 0., 0., 0., 0., 0., 0.,
          0., 1.40056023e-002, 0., 0., 0., 0., 0., 0., 5.60224103e-003,
          0., 0., 0., 8.40336177e-003, 0., 0., 0., 0., 0., 0., 0., 0.,
          0., 0., 0., 0., 0., 2.80112051e-003, 0., 2.80112051e-003, 0.,
          2.80112051e-003, 2.80112051e-003, 2.80112051e-003, 0., 0., 0.,
          2.80112051e-003, 0., 0., 0., 0., 0., 2.80112051e-003, 0., 0.,
          0., 2.80112051e-003, 0., 0., 0., 0., 1.40056023e-002, 0., 0.,
          0., 0., 0., 0., 2.80112051e-003, 0., 5.60224103e-003, 0., 0.,
          2.80112051e-003, 0., 0., 0., 0., 0., 0., 1.40056023e-002,
          2.80112051e-003, 2.80112051e-003, 0., 5.60224103e-003, 0., 0.,
          0., 0., 0., 0., 2.80112051e-003, 0., 0., 0., 0.,
          2.80112051e-003, 0., 2.80112051e-003, 0., 0., 0.,
          2.80112051e-003, 0., 0., 0., 0., 0., 0., 0., 2.80112051e-003,
          0., 0., 0., 0., 0., 0., 0., 2.80112051e-003, 0., 0., 0.,
          2.80112051e-003, 0., 7.84313753e-002, 2.80112051e-003, 0.,
          2.80112051e-003, 0., 2.80112051e-003, 0., 0., 0., 0., 0., 0.,
          0., 0., 0., 0., 0., 0., 0., 0., 0., 0., 0., 0., 0., 0., 0., 0.,
          0., 0., 0., 0., 0., 0., 0., 0., 0., 0., 0., 0.,
          2.80112051e-003, 0., 0., 0., 0., 0., 0., 0., 0., 0., 0., 0.,
          2.80112051e-003, 0., 0., 0., 0., 0., 0., 0., 0., 0., 0., 0.,
          0., 0., 0., 0., 0., 2.80112051e-003, 0., 0., 0., 0., 0.,
          2.80112051e-003, 0., 2.80112051e-003, 0., 2.80112051e-003, 0.,
          0., 0., 0., 0., 0., 2.80112051e-003, 0., 0., 0., 0., 0., 0.,
          2.80112051e-003, 5.60224103e-003, 0., 0., 0., 0., 0., 0., 0.,
          0., 0., 0., 0., 0., 2.80112051e-003, 8.40336177e-003, 0.,
          2.80112051e-003, 0., 0., 2.80112051e-003, 0., 0., 0., 0., 0.,
          0., 0., 2.80112051e-003, 0., 5.60224103e-003, 2.80112051e-003,
          0., 0., 0., 0., 0., 0., 0., 0., 0., 0., 0., 0., 0., 0., 0., 0.,
          0., 0., 8.40336177e-003, 2.80112051e-003, 0., 0., 0., 0.,
          5.60224103e-003, 0., 0., 0., 0., 0., 2.80112051e-003, 0., 0.,
          0., 0., 2.80112051e-003, 0., 0., 2.80112051e-003,
          2.80112051e-003, 2.80112051e-003, 0., 0., 8.40336177e-003, 0.,
          0., 0., 0., 0., 0., 0., 0., 0., 0., 0., 0., 0., 0., 0., 0.,
          5.60224103e-003, 0., 2.80112051e-003, 0., 0., 0., 0.,
          2.80112051e-003, 0., 5.60224103e-003, 0., 0., 0.,
          2.80112051e-003, 5.60224103e-003, 0., 0., 0., 0., 0., 0., 0.,
          0., 0., 0., 0., 0., 0., 2.80112051e-003, 5.60224103e-003,
          5.60224103e-003, 0., 0., 0., 2.80112051e-003, 0., 0.,
          5.60224103e-003, 0., 0., 8.40336177e-003, 0., 0., 0.,
          2.80112047e-002, 0., 0., 0., 0., 0., 8.40336177e-003, 0., 0.,
          0., 0., 0., 0., 0., 0., 0., 0., 0., 2.80112051e-003, 0., 0.,
          0., 0., 0., 0., 0., 1.12044821e-002, 0., 2.80112051e-003, 0.,
          0., 0., 0., 0., 2.80112051e-003, 0., 0., 0., 5.60224103e-003,
          1.12044821e-002, 0., 0., 1.40056023e-002, 0., 0., 0., 0., 0.,
          0., 0., 0., 0., 0., 0., 0., 0., 0., 0., 0., 0., 0., 0., 0., 0.,
          0., 0., 0., 2.80112051e-003, 0., 0., 0., 0., 0., 0., 0., 0.,
          0., 0., 0., 0., 0., 2.80112051e-003, 2.80112051e-003, 0., 0.,
          0., 0., 0., 0., 0., 0., 2.80112051e-003, 0., 0., 0., 0., 0.,
          0., 2.80112051e-003, 0., 0., 0., 0., 0., 0., 2.80112051e-003,
          0., 2.80112051e-003, 0., 0., 0., 0., 0., 2.80112051e-003, 0.,
          0., 0., 8.40336177e-003, 0., 0., 0., 0., 0., 0.,
          5.60224103e-003, 0., 0., 0., 2.80112051e-003, 2.80112051e-003,
          0., 0., 0., 0., 0., 0., 0., 0., 2.80112051e-003, 0., 0.,
          2.80112051e-003, 0., 0., 2.80112051e-003, 0., 0., 0., 0., 0.,
          0., 0., 5.60224103e-003, 0., 0., 0. ]
      - [ 3.58422939e-003, 0., 7.16845877e-003, 0., 0., 0.,
          1.07526882e-002, 0., 0., 0., 0., 0., 0., 0., 3.58422939e-003,
          0., 0., 1.07526882e-002, 0., 0., 0., 0., 0., 3.58422939e-003,
          0., 3.58422939e-003, 3.58422939e-003, 3.58422939e-003, 0., 0.,
          0., 0., 3.58422939e-003, 0., 0., 0., 0., 0., 0., 0., 0., 0.,
          0., 7.16845877e-003, 3.58422939e-003, 0., 0., 0., 0., 0., 0.,
          0., 0., 0., 0., 7.16845877e-003, 0., 3.58422939e-003, 0., 0.,
          0., 0., 0., 0., 1.43369175e-002, 3.58422939e-003, 0.,
          3.58422939e-003, 0., 0., 1.07526882e-002, 0., 0., 0., 0.,
          7.16845877e-003, 0., 0., 3.58422939e-003, 3.58422939e-003, 0.,
          0., 3.58422939e-003, 0., 0., 0., 1.07526882e-002,
          3.58422939e-003, 0., 0., 0., 0., 3.58422939e-003, 0.,
          7.16845877e-003, 3.58422939e-003, 0., 0., 3.58422939e-003,
          2.50896066e-002, 7.16845877e-003, 0., 0., 0., 0., 0., 0., 0.,
          0., 0., 0., 0., 0., 2.15053763e-002, 0., 0., 7.16845877e-003,
          0., 0., 0., 0., 0., 1.07526882e-002, 0., 0., 0., 0., 0., 0.,
          0., 0., 0., 0., 0., 0., 7.16845877e-003, 0., 0.,
          3.58422939e-003, 0., 0., 3.58422939e-003, 3.58422939e-003, 0.,
          0., 0., 7.16845877e-003, 3.58422939e-003, 0., 0., 0., 0., 0.,
          0., 0., 0., 0., 0., 0., 0., 0., 3.58422939e-003, 0., 0., 0.,
          0., 0., 7.16845877e-003, 3.58422939e-003, 0., 0., 0., 0., 0.,
          0., 0., 3.58422939e-003, 0., 0., 0., 0., 7.16845877e-003, 0.,
          0., 0., 0., 0., 3.58422939e-003, 0., 0., 0., 3.58422939e-003,
          0., 0., 0., 3.58422939e-003, 3.58422939e-003, 3.58422939e-003,
          0., 0., 0., 0., 0., 3.58422939e-003, 0., 0., 0., 0., 0., 0.,
          0., 0., 0., 0., 0., 0., 7.16845877e-003, 0., 0., 0.,
          3.58422939e-003, 0., 0., 0., 0., 0., 0., 7.16845877e-003, 0.,
          1.43369175e-002, 0., 0., 3.58422939e-003, 3.58422939e-003, 0.,
          7.16845877e-003, 0., 0., 0., 0., 0., 0., 0., 0., 0., 0., 0.,
          0., 0., 0., 0., 3.58422939e-003, 0., 0., 0., 0., 0., 0., 0.,
          0., 3.58422939e-003, 7.16845877e-003, 0., 3.58422939e-003, 0.,
          0., 0., 0., 0., 0., 0., 0., 3.58422939e-003, 0., 0., 0.,
          1.07526882e-002, 0., 0., 0., 3.58422939e-003, 3.58422939e-003,
          0., 0., 1.43369175e-002, 0., 0., 0., 0., 0., 3.58422939e-003,
          7.16845877e-003, 0., 0., 0., 0., 0., 0., 0., 3.58422939e-003,
          0., 3.58422939e-003, 0., 3.58422939e-003, 0., 3.58422939e-003,
          0., 0., 0., 3.58422939e-003, 0., 7.16845877e-003, 0.,
          3.58422939e-003, 0., 0., 0., 0., 0., 0., 0., 0., 0., 0., 0.,
          0., 0., 0., 1.07526882e-002, 0., 0., 0., 0., 0., 0., 0.,
          3.58422939e-003, 0., 0., 0., 0., 0., 0., 0., 0., 0., 0., 0.,
          0., 0., 0., 7.16845877e-003, 0., 0., 0., 0., 0., 0.,
          3.58422939e-003, 0., 0., 3.58422939e-003, 0., 0., 0., 0.,
          3.58422939e-003, 3.58422939e-003, 0., 0., 0., 0.,
          3.58422939e-003, 0., 0., 7.16845877e-003, 0., 3.58422939e-003,
          0., 3.58422939e-003, 0., 0., 0., 0., 0., 0., 3.58422939e-003,
          0., 3.58422939e-003, 0., 7.16845877e-003, 0., 0., 0., 0., 0.,
          0., 0., 0., 0., 0., 0., 0., 0., 0., 0., 0., 0., 0., 0., 0., 0.,
          7.16845877e-003, 0., 0., 3.58422939e-003, 0., 0., 0., 0., 0.,
          0., 0., 0., 0., 0., 0., 0., 0., 0., 0., 7.16845877e-003, 0.,
          0., 0., 0., 0., 0., 0., 0., 0., 0., 0., 0., 0., 0., 0., 0., 0.,
          0., 0., 0., 0., 0., 0., 0., 0., 0., 0., 0., 3.58422939e-003,
          0., 0., 0., 0., 0., 0., 0., 0., 0., 0., 1.43369175e-002, 0.,
          0., 0., 0., 0., 0., 0., 0., 0., 3.58422939e-003, 0.,
          3.58422939e-003, 0., 0., 0., 3.58422939e-003, 0., 0., 0., 0.,
          0., 0., 0., 0., 0., 0., 0., 0., 0., 0., 1.07526882e-002, 0.,
          0., 0., 0., 0., 0., 0., 0., 0., 0., 7.16845877e-003, 0., 0.,
          0., 0., 0., 0., 3.58422939e-003, 3.58422939e-003, 0., 0., 0.,
          0., 3.58422939e-003, 0., 0., 1.07526882e-002, 0., 0.,
          3.58422939e-003, 0., 0., 0., 0., 3.58422939e-003,
          7.16845877e-003, 3.58422939e-003, 0., 0., 0., 3.58422939e-003,
          0., 0., 0., 3.58422939e-003, 0., 0., 0., 0., 7.16845877e-003,
          0., 0., 0., 0., 0., 0., 0., 0., 3.58422939e-003, 0., 0., 0.,
          0., 0., 3.58422939e-003, 0., 0., 0., 0., 3.58422939e-003, 0.,
          0., 3.58422939e-003, 0., 3.58422939e-003, 0., 0., 0., 0., 0.,
          0., 0., 3.58422939e-003, 0., 3.58422939e-003, 0., 0., 0., 0.,
          0., 3.58422939e-003, 0., 0., 3.58422939e-003, 0., 0., 0., 0.,
          0., 0., 0., 0., 0., 3.58422939e-003, 0., 0., 0., 0., 0., 0.,
          3.58422939e-003, 0., 0., 0., 3.58422939e-003, 3.58422939e-003,
          0., 0., 0., 0., 0., 0., 0., 0., 0., 0., 0., 0., 0.,
          1.43369175e-002, 0., 0., 0., 0., 0., 0., 0., 0., 0., 0., 0.,
          0., 0., 0., 0., 0., 0., 0., 0., 0., 0., 0., 3.58422939e-003,
          0., 0., 0., 0., 0., 3.58422939e-003, 0., 0., 0., 0., 0., 0.,
          0., 0., 0., 0., 0., 0., 0., 0., 0., 0., 0., 0., 0., 0., 0., 0.,
          0., 7.16845877e-003, 0., 0., 0., 0., 3.58422939e-003, 0., 0.,
          0., 3.58422939e-003, 3.58422939e-003, 0., 0., 0., 0., 0.,
          7.16845877e-003, 0., 0., 0., 0., 0., 0., 3.58422939e-003, 0.,
          0., 0., 0., 0., 0., 0., 0., 3.58422939e-003, 0., 0., 0.,
          3.58422939e-003, 7.16845877e-003, 0., 1.07526882e-002,
          7.16845877e-003, 0., 0., 0., 0., 0., 0., 0., 0., 0., 0.,
          3.58422939e-003, 0., 3.58422939e-003, 0., 0., 0., 0., 0., 0.,
          3.58422939e-003, 0., 0., 0., 7.16845877e-003, 0.,
          3.58422939e-003, 0., 0., 0., 0., 0., 0., 3.58422939e-003,
          7.16845877e-003, 0., 0., 0., 0., 0., 0., 3.58422939e-003, 0.,
          0., 3.58422939e-003, 3.58422939e-003, 0., 0., 0., 0., 0., 0.,
          0., 3.58422939e-003, 0., 0., 0., 0., 1.07526882e-002, 0., 0.,
          3.58422939e-003, 0., 0., 0., 0., 0., 0., 0., 0., 0., 0., 0.,
          0., 0., 1.07526882e-002, 0., 0., 0., 0., 0., 0., 0., 0., 0.,
          0., 0., 0., 0., 3.58422939e-003, 3.58422939e-003, 0., 0., 0.,
          0., 0., 0., 0., 0., 0., 0., 0., 0., 3.58422939e-003,
          7.16845877e-003, 1.07526882e-002, 3.58422939e-003, 0., 0., 0.,
          0., 0., 0., 0., 0., 3.58422939e-003, 0., 0., 0., 0., 0., 0.,
          0., 3.58422939e-003, 0., 1.43369175e-002, 3.58422939e-003, 0.,
          0., 0., 0., 3.58422939e-003, 0., 0., 0., 0., 0., 0., 0., 0.,
          0., 0., 0., 3.58422939e-003, 0., 0., 0., 0., 0., 0.,
          3.58422939e-003, 0., 0., 0., 0., 0., 0., 0., 1.43369175e-002,
          0., 0., 1.79211460e-002, 0., 0., 0., 0., 0., 0., 0., 0., 0.,
          0., 0., 0., 0., 3.58422939e-003, 0., 0., 0., 0., 0., 0., 0.,
          0., 0., 0., 3.58422939e-003, 0., 0., 0., 0., 0., 0., 0., 0.,
          0., 0., 0., 0., 0., 0., 3.58422939e-003, 0., 0., 0., 0., 0.,
          0., 0., 0., 3.58422939e-003, 0., 0., 0., 0., 0., 0., 0.,
          3.58422939e-003, 0., 0., 0., 0., 0., 0., 0., 7.16845877e-003,
          0., 0., 0., 0., 0., 3.58422939e-003, 0., 0., 0., 0., 0., 0.,
          0., 3.58422939e-003, 0., 0., 3.58422939e-003, 0., 0., 0., 0.,
          0., 0., 0., 0., 0., 0., 0., 0., 0., 1.07526882e-002,
          7.16845877e-003, 0., 3.58422939e-003, 0., 0., 0., 0., 0., 0.,
          0., 0., 7.16845877e-003, 3.58422939e-003, 0., 0., 0., 0. ]
      - [ 0., 0., 6.13496918e-003, 0., 0., 0., 0., 9.20245424e-003, 0.,
          0., 0., 0., 0., 0., 6.13496918e-003, 0., 0., 6.13496918e-003,
          0., 0., 0., 0., 0., 0., 0., 3.06748459e-003, 3.06748459e-003,
          0., 3.06748459e-003, 0., 0., 0., 0., 0., 0., 0., 0., 0., 0.,
          0., 0., 3.06748459e-003, 0., 0., 6.13496918e-003, 0.,
          3.06748459e-003, 0., 0., 0., 3.06748459e-003, 0., 0., 0., 0.,
          3.06748459e-003, 3.06748459e-003, 3.06748459e-003, 0., 0., 0.,
          0., 0., 0., 2.14723926e-002, 0., 0., 3.06748459e-003, 0.,
          3.06748459e-003, 0., 0., 0., 0., 0., 0., 0., 0.,
          6.13496918e-003, 3.06748459e-003, 0., 0., 3.06748459e-003, 0.,
          0., 0., 3.06748459e-003, 3.06748459e-003, 0., 0., 0., 0.,
          3.06748459e-003, 3.06748459e-003, 3.06748459e-003, 0., 0.,
          6.13496918e-003, 0., 3.06748459e-003, 6.13496918e-003, 0., 0.,
          0., 0., 0., 0., 6.13496918e-003, 3.06748459e-003, 0., 0., 0.,
          0., 3.06748459e-003, 0., 3.06748459e-003, 0., 0., 0.,
          3.06748459e-003, 0., 0., 6.13496918e-003, 0., 3.06748459e-003,
          0., 0., 0., 0., 3.06748459e-003, 0., 0., 3.06748459e-003,
          3.06748459e-003, 3.06748459e-003, 3.06748459e-003, 0., 0.,
          3.06748459e-003, 0., 0., 6.13496918e-003, 1.84049085e-002, 0.,
          0., 0., 9.20245424e-003, 0., 0., 0., 0., 0., 0.,
          9.20245424e-003, 0., 0., 0., 0., 0., 0., 0., 0., 0., 0., 0.,
          0., 0., 6.13496918e-003, 0., 0., 0., 0., 0., 3.06748459e-003,
          0., 0., 3.06748459e-003, 0., 0., 0., 0., 0., 3.06748459e-003,
          0., 0., 0., 0., 3.06748459e-003, 9.20245424e-003,
          6.13496918e-003, 0., 3.06748459e-003, 0., 0., 0.,
          3.06748459e-003, 0., 0., 0., 0., 0., 0., 0., 9.20245424e-003,
          3.06748459e-003, 0., 0., 0., 0., 0., 0., 0., 0., 0., 0., 0.,
          3.06748459e-003, 0., 0., 3.06748459e-003, 6.13496918e-003,
          3.06748459e-003, 0., 0., 3.06748459e-003, 0., 0.,
          3.06748459e-003, 0., 3.06748459e-003, 0., 0., 6.13496918e-003,
          0., 0., 3.06748459e-003, 0., 3.06748459e-003, 3.06748459e-003,
          0., 0., 6.13496918e-003, 3.06748459e-003, 0., 3.06748459e-003,
          0., 0., 9.20245424e-003, 0., 3.06748459e-003, 0.,
          3.06748459e-003, 0., 0., 0., 0., 0., 0., 0., 3.06748459e-003,
          0., 6.13496918e-003, 0., 0., 0., 0., 0., 0., 0., 0.,
          6.13496918e-003, 0., 0., 0., 0., 0., 6.13496918e-003, 0., 0.,
          9.20245424e-003, 3.06748459e-003, 0., 0., 0., 3.06748459e-003,
          0., 0., 0., 0., 0., 0., 3.06748459e-003, 3.06748459e-003, 0.,
          0., 3.06748459e-003, 0., 0., 0., 0., 0., 6.13496918e-003, 0.,
          6.13496918e-003, 0., 0., 0., 3.06748459e-003, 0.,
          3.06748459e-003, 0., 0., 0., 0., 3.06748459e-003, 0.,
          3.06748459e-003, 0., 0., 0., 0., 0., 0., 0., 0., 0., 0.,
          3.06748459e-003, 3.06748459e-003, 0., 3.06748459e-003, 0.,
          3.06748459e-003, 0., 0., 3.06748459e-003, 3.06748459e-003, 0.,
          0., 0., 3.06748459e-003, 3.06748459e-003, 0., 0., 0., 0., 0.,
          3.06748459e-003, 0., 0., 0., 0., 0., 0., 0., 0., 0., 0.,
          6.13496918e-003, 0., 0., 3.06748459e-003, 0., 0., 0., 0.,
          3.06748459e-003, 3.06748459e-003, 0., 0., 0., 0., 0., 0., 0.,
          0., 0., 0., 0., 0., 0., 0., 3.06748459e-003, 0.,
          3.06748459e-003, 0., 0., 0., 0., 0., 1.22699384e-002, 0., 0.,
          0., 0., 0., 0., 0., 0., 0., 0., 0., 3.06748459e-003, 0., 0.,
          0., 0., 3.06748459e-003, 0., 0., 0., 0., 0., 0., 0.,
          1.53374225e-002, 0., 0., 0., 0., 0., 0., 0., 0., 0., 0., 0.,
          0., 0., 0., 0., 3.06748459e-003, 0., 0., 0., 0., 0., 0., 0.,
          0., 0., 0., 0., 0., 0., 0., 0., 0., 0., 0., 0., 0., 0., 0., 0.,
          3.06748459e-003, 0., 3.06748459e-003, 0., 0., 3.06748459e-003,
          0., 0., 3.06748459e-003, 0., 0., 3.06748459e-003, 0., 0., 0.,
          0., 9.20245424e-003, 0., 0., 0., 0., 6.13496918e-003, 0., 0.,
          0., 0., 0., 0., 0., 0., 0., 0., 3.06748459e-003,
          3.06748459e-003, 0., 0., 3.06748459e-003, 3.06748459e-003, 0.,
          0., 0., 0., 0., 0., 0., 0., 0., 9.20245424e-003, 0., 0., 0.,
          0., 0., 0., 0., 0., 0., 0., 3.06748459e-003, 0., 0., 0., 0.,
          0., 0., 0., 0., 0., 0., 0., 0., 0., 0., 0., 3.06748459e-003,
          0., 0., 3.06748459e-003, 3.06748459e-003, 0., 0., 0.,
          3.06748459e-003, 0., 9.20245424e-003, 0., 0., 0., 0., 0., 0.,
          0., 0., 0., 3.06748459e-003, 0., 3.06748459e-003,
          3.06748459e-003, 0., 0., 0., 3.06748459e-003, 0., 0.,
          3.06748459e-003, 0., 3.06748459e-003, 0., 0., 3.06748459e-003,
          0., 0., 0., 0., 0., 0., 3.06748459e-003, 0., 3.06748459e-003,
          0., 0., 0., 0., 0., 0., 0., 0., 0., 0., 0., 6.13496918e-003,
          0., 3.06748459e-003, 0., 0., 0., 0., 0., 6.13496918e-003, 0.,
          6.13496918e-003, 3.06748459e-003, 0., 3.06748459e-003, 0., 0.,
          0., 0., 3.06748459e-003, 0., 3.06748459e-003, 3.06748459e-003,
          0., 0., 0., 0., 0., 0., 3.06748459e-003, 0., 9.20245424e-003,
          9.20245424e-003, 0., 3.06748459e-003, 0., 0., 0., 0., 0., 0.,
          0., 0., 0., 0., 0., 0., 0., 0., 0., 0., 3.06748459e-003, 0.,
          0., 0., 0., 0., 0., 3.06748459e-003, 0., 0., 0., 0., 0., 0.,
          3.06748459e-003, 0., 0., 0., 0., 0., 3.06748459e-003, 0., 0.,
          0., 0., 0., 0., 0., 0., 0., 0., 0., 0., 0., 0., 0., 0., 0.,
          3.06748459e-003, 0., 0., 0., 0., 0., 0., 0., 3.06748459e-003,
          0., 0., 0., 0., 3.06748459e-003, 0., 3.06748459e-003,
          3.06748459e-003, 0., 0., 3.06748459e-003, 0., 6.13496918e-003,
          1.22699384e-002, 0., 0., 0., 0., 0., 6.13496918e-003, 0., 0.,
          0., 0., 0., 0., 6.13496918e-003, 0., 0., 0., 0., 0., 0., 0.,
          0., 3.06748459e-003, 0., 0., 0., 3.06748459e-003,
          6.13496918e-003, 3.06748459e-003, 3.06748459e-003,
          3.06748459e-003, 0., 0., 0., 0., 0., 0., 0., 0., 0.,
          3.06748459e-003, 0., 0., 0., 0., 0., 0., 0., 0., 0.,
          3.06748459e-003, 0., 0., 3.06748459e-003, 0., 0.,
          3.06748459e-003, 0., 0., 0., 0., 0., 0., 9.20245424e-003,
          3.06748459e-003, 0., 0., 0., 6.13496918e-003, 3.06748459e-003,
          0., 0., 0., 0., 6.13496918e-003, 3.06748459e-003, 0., 0., 0.,
          0., 0., 0., 0., 0., 3.06748459e-003, 3.06748459e-003, 0., 0.,
          1.22699384e-002, 0., 0., 0., 0., 3.06748459e-003, 0., 0., 0.,
          0., 0., 0., 0., 0., 0., 0., 0., 3.06748459e-003, 0., 0., 0.,
          0., 0., 9.20245424e-003, 0., 0., 3.06748459e-003, 0., 0., 0.,
          0., 0., 0., 0., 3.06748459e-003, 0., 0., 0., 0., 0., 0., 0.,
          0., 0., 0., 0., 6.13496918e-003, 3.06748459e-003, 0., 0., 0.,
          0., 3.06748459e-003, 0., 0., 0., 0., 3.06748459e-003, 0., 0.,
          0., 1.84049085e-002, 0., 0., 0., 3.06748459e-003, 0.,
          3.06748459e-003, 0., 0., 0., 0., 0., 0., 0., 0., 0., 0., 0.,
          0., 0., 0., 0., 0., 3.06748459e-003, 3.06748459e-003, 0.,
          3.06748459e-003, 3.06748459e-003, 0., 0., 0., 0., 0., 0., 0.,
          0., 0., 3.06748459e-003, 0., 6.13496918e-003, 3.06748459e-003,
          0., 9.20245424e-003, 0., 0., 0., 0., 0., 3.06748459e-003, 0.,
          6.13496918e-003, 0., 0., 0., 0., 0., 0., 0., 0., 0., 0., 0.,
          0., 0., 0., 0., 0., 0., 0., 0., 0., 0., 3.06748459e-003,
          3.06748459e-003, 0., 0., 0., 3.06748459e-003, 0., 0., 0., 0.,
          1.53374225e-002, 0., 0., 0., 0., 0., 0., 3.06748459e-003, 0.,
          3.06748459e-003, 0., 0., 0., 0., 0., 0., 0., 3.06748459e-003,
          0., 0., 0., 0., 0., 0., 0., 0., 0., 0., 0., 0., 0.,
          3.06748459e-003, 6.13496918e-003, 0., 0., 0., 0., 0., 0., 0.,
          0., 0., 3.06748459e-003, 0., 3.06748459e-003, 3.06748459e-003,
          0., 0., 0., 0., 0., 0., 0., 0., 0., 0., 6.13496918e-003,
          6.13496918e-003, 0., 6.13496918e-003, 3.06748459e-003, 0., 0.,
          0., 0., 0., 3.06748459e-003, 0., 3.06748459e-003, 0.,
          6.13496918e-003, 0., 3.06748459e-003, 0. ]
      - [ 0., 0., 0., 0., 0., 0., 3.61010828e-003, 3.61010828e-003, 0.,
          0., 0., 0., 0., 3.61010828e-003, 7.22021656e-003, 0., 0.,
          3.61010828e-003, 0., 0., 0., 0., 3.61010828e-003, 0., 0.,
          3.61010828e-003, 0., 0., 0., 0., 0., 0., 0., 0.,
          3.61010828e-003, 0., 0., 3.61010828e-003, 0., 7.22021656e-003,
          0., 3.61010828e-003, 0., 3.61010828e-003, 3.61010828e-003, 0.,
          3.61010828e-003, 3.61010828e-003, 0., 0., 0., 0., 0., 0., 0.,
          0., 7.22021656e-003, 0., 0., 0., 0., 0., 0., 0.,
          1.80505421e-002, 0., 0., 0., 0., 3.61010828e-003, 0., 0.,
          3.61010828e-003, 0., 0., 0., 0., 0., 3.61010828e-003,
          3.61010828e-003, 0., 0., 0., 0., 0., 0., 7.22021656e-003, 0.,
          0., 3.61010828e-003, 3.61010828e-003, 0., 0., 3.61010828e-003,
          3.61010828e-003, 0., 0., 3.61010828e-003, 0., 1.44404331e-002,
          0., 0., 0., 0., 0., 0., 0., 7.22021656e-003, 0., 0.,
          7.22021656e-003, 0., 0., 0., 0., 0., 0., 0., 0., 0.,
          3.61010828e-003, 7.22021656e-003, 3.61010828e-003, 0., 0., 0.,
          0., 0., 0., 0., 0., 1.08303251e-002, 0., 0., 7.22021656e-003,
          0., 0., 0., 0., 0., 0., 0., 3.61010828e-003, 0.,
          3.61010828e-003, 0., 0., 0., 0., 0., 3.61010828e-003, 0., 0.,
          0., 0., 0., 0., 0., 0., 0., 0., 0., 0., 0., 0., 0., 0.,
          7.22021656e-003, 0., 0., 0., 0., 0., 0., 0., 0., 0., 0., 0.,
          1.08303251e-002, 0., 0., 1.44404331e-002, 0., 3.61010828e-003,
          0., 0., 0., 0., 0., 0., 3.61010828e-003, 0., 0., 0.,
          3.61010828e-003, 0., 0., 0., 0., 0., 0., 3.61010828e-003, 0.,
          0., 0., 0., 0., 0., 0., 0., 0., 0., 0., 0., 0., 0., 0., 0., 0.,
          3.61010828e-003, 0., 0., 0., 3.61010828e-003, 0., 0.,
          7.22021656e-003, 0., 3.61010828e-003, 0., 0., 0., 0., 0., 0.,
          0., 0., 3.61010828e-003, 0., 3.61010828e-003, 7.22021656e-003,
          0., 0., 3.61010828e-003, 0., 0., 7.22021656e-003, 0.,
          3.61010828e-003, 0., 3.61010828e-003, 7.22021656e-003, 0., 0.,
          0., 0., 0., 1.08303251e-002, 3.61010828e-003, 0.,
          7.22021656e-003, 0., 0., 0., 0., 0., 0., 0., 0., 0.,
          3.61010828e-003, 0., 0., 7.22021656e-003, 0., 0., 0., 0.,
          7.22021656e-003, 0., 0., 0., 0., 1.08303251e-002, 0., 0., 0.,
          0., 0., 0., 0., 3.61010828e-003, 0., 0., 1.08303251e-002, 0.,
          0., 0., 0., 0., 0., 0., 7.22021656e-003, 0., 0., 0., 0., 0.,
          0., 0., 3.61010828e-003, 0., 3.61010828e-003, 0., 0., 0., 0.,
          0., 0., 0., 0., 0., 1.08303251e-002, 0., 0., 0., 0., 0., 0.,
          0., 7.22021656e-003, 7.22021656e-003, 0., 0., 0., 0., 0., 0.,
          3.61010828e-003, 0., 0., 0., 0., 3.61010828e-003, 0.,
          7.22021656e-003, 0., 0., 0., 3.61010828e-003, 0., 0., 0.,
          3.61010828e-003, 0., 0., 0., 1.08303251e-002, 3.61010828e-003,
          0., 3.61010828e-003, 0., 0., 0., 0., 1.08303251e-002,
          3.61010828e-003, 0., 0., 0., 3.61010828e-003, 3.61010828e-003,
          0., 0., 3.61010828e-003, 0., 3.61010828e-003, 0., 0., 0., 0.,
          0., 0., 0., 0., 3.61010828e-003, 0., 3.61010828e-003,
          3.61010828e-003, 0., 0., 0., 0., 7.22021656e-003, 0., 0., 0.,
          0., 0., 0., 0., 0., 0., 0., 0., 0., 0., 0., 0., 0., 0., 0., 0.,
          3.61010828e-003, 7.22021656e-003, 0., 0., 3.61010828e-003, 0.,
          0., 0., 0., 0., 0., 0., 0., 0., 0., 0., 0., 3.61010828e-003,
          0., 0., 0., 0., 0., 0., 0., 0., 0., 0., 0., 0., 0., 0., 0.,
          7.22021656e-003, 0., 0., 0., 0., 0., 0., 0., 0., 0., 0., 0.,
          0., 0., 0., 0., 0., 0., 0., 3.61010828e-003, 0., 0., 0., 0.,
          1.08303251e-002, 0., 0., 0., 0., 0., 0., 0., 0., 0., 0., 0.,
          3.61010828e-003, 0., 0., 0., 0., 0., 0., 0., 1.44404331e-002,
          3.61010828e-003, 0., 0., 0., 0., 0., 0., 0., 3.61010828e-003,
          0., 0., 0., 0., 0., 0., 0., 0., 3.61010828e-003, 0., 0., 0.,
          3.61010828e-003, 0., 1.08303251e-002, 0., 3.61010828e-003, 0.,
          0., 0., 3.61010828e-003, 0., 0., 0., 0., 0., 7.22021656e-003,
          0., 1.80505421e-002, 0., 0., 0., 0., 0., 0., 0.,
          3.61010828e-003, 7.22021656e-003, 7.22021656e-003, 0., 0., 0.,
          0., 0., 3.61010828e-003, 7.22021656e-003, 0., 0., 0., 0., 0.,
          0., 0., 0., 3.61010828e-003, 0., 0., 0., 0., 0., 0., 0.,
          3.61010828e-003, 3.61010828e-003, 0., 0., 0., 0., 0., 0., 0.,
          0., 3.61010828e-003, 0., 3.61010828e-003, 0., 0., 0., 0., 0.,
          0., 3.61010828e-003, 0., 0., 0., 0., 3.61010828e-003, 0., 0.,
          0., 0., 0., 0., 0., 0., 0., 0., 3.61010828e-003, 0., 0.,
          3.61010828e-003, 0., 7.22021656e-003, 0., 0., 0., 0., 0., 0.,
          0., 0., 0., 3.61010828e-003, 0., 0., 0., 0., 0., 0., 0., 0.,
          0., 0., 0., 0., 0., 0., 0., 0., 0., 0., 0., 0., 0., 0., 0., 0.,
          0., 0., 0., 0., 0., 0., 0., 0., 0., 0., 3.61010828e-003, 0.,
          7.22021656e-003, 0., 0., 0., 0., 0., 0., 0., 0., 0., 0., 0.,
          0., 0., 0., 0., 0., 0., 0., 0., 0., 0., 0., 0.,
          3.61010828e-003, 0., 0., 0., 0., 0., 0., 3.61010828e-003, 0.,
          0., 0., 3.61010828e-003, 0., 0., 0., 0., 3.61010828e-003, 0.,
          0., 0., 3.61010828e-003, 0., 0., 3.61010828e-003, 0., 0., 0.,
          3.61010828e-003, 0., 0., 0., 3.61010828e-003, 0., 0.,
          3.61010828e-003, 0., 0., 0., 0., 0., 0., 0., 0., 0.,
          3.61010828e-003, 0., 0., 0., 1.08303251e-002, 0., 0.,
          3.61010828e-003, 0., 0., 0., 0., 0., 0., 0., 0., 0.,
          3.61010828e-003, 0., 0., 3.61010828e-003, 0., 0., 0., 0., 0.,
          0., 7.22021656e-003, 3.61010828e-003, 0., 0., 0., 0.,
          3.61010828e-003, 0., 0., 0., 0., 0., 0., 0., 3.61010828e-003,
          7.22021656e-003, 0., 0., 0., 0., 0., 3.61010828e-003, 0., 0.,
          0., 3.61010828e-003, 0., 0., 0., 0., 0., 0., 0., 0.,
          3.61010828e-003, 0., 3.61010828e-003, 0., 0., 0., 0., 0., 0.,
          0., 7.22021656e-003, 0., 0., 3.61010828e-003, 3.61010828e-003,
          0., 7.22021656e-003, 0., 0., 0., 0., 3.61010828e-003, 0., 0.,
          0., 0., 3.61010828e-003, 0., 0., 0., 3.61010828e-003, 0., 0.,
          1.08303251e-002, 0., 3.61010828e-003, 0., 7.22021656e-003,
          7.22021656e-003, 0., 0., 0., 0., 3.61010828e-003, 0., 0., 0.,
          0., 0., 0., 0., 0., 7.22021656e-003, 0., 0., 0., 0., 0., 0.,
          0., 0., 0., 0., 0., 0., 0., 0., 0., 0., 3.61010828e-003, 0.,
          1.44404331e-002, 0., 0., 0., 0., 0., 0., 0., 0., 0., 0., 0.,
          0., 0., 0., 0., 0., 0., 0., 0., 0., 0., 0., 0., 0.,
          1.08303251e-002, 0., 0., 0., 0., 0., 0., 0., 1.80505421e-002,
          0., 0., 3.61010828e-003, 0., 0., 0., 0., 0., 0., 0., 0., 0.,
          0., 0., 0., 0., 3.61010828e-003, 0., 0., 0., 0.,
          3.61010828e-003, 0., 0., 0., 0., 0., 0., 0., 0., 0., 0.,
          3.61010828e-003, 0., 0., 0., 3.61010828e-003, 0.,
          7.22021656e-003, 0., 0., 0., 0., 0., 0., 3.61010828e-003, 0.,
          0., 3.61010828e-003, 7.22021656e-003, 0., 0., 0., 0., 0., 0.,
          0., 0., 0., 0., 0., 0., 0., 0., 0., 3.61010828e-003, 0.,
          7.22021656e-003, 0., 0., 0., 0., 0., 0., 7.22021656e-003, 0.,
          0., 0., 0., 0., 0., 0., 0., 0., 3.61010828e-003, 0., 0., 0.,
          3.61010828e-003, 0., 0., 0., 3.61010828e-003, 0., 0., 0.,
          3.61010828e-003, 3.61010828e-003, 3.61010828e-003,
          3.61010828e-003, 0., 3.61010828e-003, 0., 0., 0., 0., 0., 0.,
          0., 0., 0., 0., 0., 0., 0., 3.61010828e-003 ]
      - [ 0., 0., 0., 0., 0., 0., 6.60066027e-003, 0., 0., 0., 0., 0.,
          0., 0., 0., 0., 0., 3.30033014e-003, 0., 0., 0., 0., 0.,
          3.30033014e-003, 0., 3.30033014e-003, 3.30033014e-003, 0., 0.,
          0., 0., 0., 0., 0., 0., 0., 0., 6.60066027e-003, 0.,
          3.30033014e-003, 0., 0., 9.90099087e-003, 9.90099087e-003,
          3.30033014e-003, 0., 3.30033014e-003, 0., 0., 0., 0., 0., 0.,
