%YAML:1.0
my_svm: !!opencv-ml-svm
   svm_type: C_SVC
   kernel: { type:RBF, gamma:1. }
   C: 1.
   term_criteria: { epsilon:1.1920928955078125e-007, iterations:1000 }
   var_all: 1000
   var_count: 1000
   class_count: 2
   class_labels: !!opencv-matrix
      rows: 1
      cols: 2
      dt: i
      data: [ 0, 1 ]
   sv_total: 102
   support_vectors:
      - [ 0., 0., 8.29875562e-003, 0., 0., 0., 2.07468886e-002, 0., 0.,
          0., 0., 0., 0., 0., 0., 4.14937781e-003, 0., 0., 0., 0., 0.,
          0., 0., 0., 0., 0., 0., 0., 0., 0., 4.14937781e-003, 0., 0.,
          0., 4.14937781e-003, 0., 0., 0., 0., 8.29875562e-003, 0., 0.,
          0., 4.14937781e-003, 0., 0., 0., 0., 0., 0., 0., 0., 0., 0.,
          4.14937781e-003, 0., 8.29875562e-003, 0., 4.14937781e-003, 0.,
          0., 0., 0., 0., 2.07468886e-002, 4.14937781e-003, 0., 0., 0.,
          0., 0., 0., 0., 0., 0., 8.29875562e-003, 0., 0., 0., 0., 0.,
          0., 0., 0., 4.14937781e-003, 0., 0., 0., 0., 0., 0., 0.,
          4.14937781e-003, 0., 0., 4.14937781e-003, 0., 0.,
          8.29875562e-003, 8.29875562e-003, 0., 0., 0., 0., 0., 0., 0.,
          0., 0., 0., 0., 4.14937781e-003, 0., 4.14937781e-003,
          1.24481339e-002, 0., 0., 0., 0., 4.14937781e-003, 0., 0., 0.,
          0., 0., 0., 4.14937781e-003, 0., 0., 0., 0., 0., 0.,
          4.14937781e-003, 4.14937781e-003, 4.14937781e-003, 0., 0.,
          8.29875562e-003, 0., 4.14937781e-003, 0., 3.31950225e-002, 0.,
          0., 4.14937781e-003, 0., 0., 0., 0., 0., 0., 0., 0.,
          4.14937781e-003, 0., 0., 0., 0., 8.29875562e-003, 0.,
          4.14937781e-003, 0., 0., 0., 0., 0., 0., 0., 0., 0., 0., 0.,
          4.14937781e-003, 0., 0., 0., 0., 0., 0., 0., 0.,
          1.24481339e-002, 1.65975112e-002, 0., 0., 0., 0., 0.,
          4.14937781e-003, 0., 0., 0., 4.14937781e-003, 0., 0.,
          4.14937781e-003, 0., 0., 0., 0., 0., 0., 2.07468886e-002, 0.,
          0., 0., 0., 0., 0., 0., 0., 0., 0., 0., 4.14937781e-003, 0.,
          0., 0., 0., 0., 0., 0., 0., 4.14937781e-003, 0., 0., 0., 0.,
          8.29875562e-003, 0., 0., 0., 0., 0., 4.14937781e-003, 0., 0.,
          4.14937781e-003, 8.29875562e-003, 0., 0., 0., 0.,
          4.14937781e-003, 0., 4.14937781e-003, 4.14937781e-003, 0.,
          4.14937781e-003, 0., 0., 4.14937781e-003, 0., 0., 0., 0., 0.,
          0., 0., 0., 0., 0., 0., 0., 0., 0., 0., 0., 0., 0., 0., 0., 0.,
          8.29875562e-003, 0., 4.14937781e-003, 0., 0., 8.29875562e-003,
          0., 0., 0., 0., 1.24481339e-002, 0., 0., 0., 0., 0., 0.,
          8.29875562e-003, 0., 0., 0., 4.14937781e-003, 0., 0.,
          4.14937781e-003, 0., 0., 0., 0., 0., 0., 0., 0., 0., 0.,
          4.14937781e-003, 0., 4.14937781e-003, 0., 1.24481339e-002, 0.,
          0., 0., 0., 0., 0., 0., 0., 0., 0., 0., 0., 0., 0.,
          8.29875562e-003, 0., 0., 0., 0., 0., 0., 0., 0.,
          4.14937781e-003, 0., 8.29875562e-003, 0., 0., 0., 0., 0., 0.,
          0., 0., 0., 0., 8.29875562e-003, 0., 0., 0., 0., 0., 0., 0.,
          1.24481339e-002, 0., 0., 0., 0., 0., 0., 0., 0., 0.,
          8.29875562e-003, 0., 0., 0., 8.29875562e-003, 0., 0., 0., 0.,
          0., 0., 0., 4.14937781e-003, 0., 0., 0., 0., 0., 0.,
          1.24481339e-002, 0., 0., 0., 0., 0., 0., 0., 4.14937781e-003,
          0., 0., 4.14937781e-003, 0., 0., 0., 4.14937781e-003, 0., 0.,
          0., 0., 0., 4.14937781e-003, 0., 0., 0., 0., 0., 0., 0., 0.,
          0., 0., 0., 0., 0., 0., 0., 0., 0., 0., 0., 0., 0., 0.,
          4.14937781e-003, 8.29875562e-003, 0., 0., 0., 0., 0., 0., 0.,
          0., 0., 0., 4.14937781e-003, 0., 0., 0., 0., 0., 0., 0., 0.,
          0., 0., 0., 0., 0., 0., 0., 0., 0., 4.14937781e-003, 0., 0.,
          0., 0., 0., 0., 0., 4.14937781e-003, 0., 2.48962678e-002, 0.,
          0., 0., 0., 0., 4.14937781e-003, 0., 0., 0., 0.,
          8.29875562e-003, 0., 0., 0., 0., 0., 0., 0., 0.,
          8.29875562e-003, 0., 4.14937781e-003, 0., 0., 0., 0., 0., 0.,
          4.14937781e-003, 0., 0., 0., 0., 0., 0., 0., 0.,
          4.14937781e-003, 0., 0., 0., 0., 0., 0., 0., 0., 0.,
          4.14937781e-003, 0., 8.29875562e-003, 4.14937781e-003, 0., 0.,
          0., 0., 4.14937781e-003, 0., 0., 4.14937781e-003, 0., 0., 0.,
          0., 0., 0., 0., 0., 0., 0., 0., 0., 0., 0., 0., 0., 0.,
          8.29875562e-003, 0., 0., 0., 0., 0., 0., 0., 0., 0.,
          4.14937781e-003, 0., 0., 0., 0., 0., 0., 4.14937781e-003, 0.,
          0., 0., 0., 0., 0., 0., 0., 0., 4.14937781e-003, 0., 0., 0.,
          0., 0., 0., 0., 0., 0., 0., 0., 0., 0., 0., 0., 0., 0., 0., 0.,
          4.14937781e-003, 0., 0., 0., 0., 0., 0., 0., 0., 0., 0., 0.,
          0., 0., 4.14937781e-003, 8.29875562e-003, 0., 4.14937781e-003,
          0., 0., 4.14937781e-003, 4.14937781e-003, 0., 0.,
          4.14937781e-003, 0., 4.14937781e-003, 0., 0., 0., 0., 0., 0.,
          0., 0., 0., 0., 0., 0., 0., 0., 0., 0., 0., 4.14937781e-003,
          0., 0., 0., 0., 0., 0., 0., 0., 0., 0., 0., 4.14937781e-003,
          0., 8.29875562e-003, 4.14937781e-003, 0., 0., 0., 0., 0., 0.,
          0., 0., 0., 0., 0., 4.14937781e-003, 0., 0., 0., 0., 0., 0.,
          0., 0., 0., 4.14937781e-003, 0., 0., 0., 0., 0., 0., 0., 0.,
          4.14937781e-003, 0., 0., 0., 0., 0., 0., 0., 0.,
          4.14937781e-003, 0., 0., 0., 0., 8.29875562e-003, 0., 0., 0.,
          0., 0., 0., 1.24481339e-002, 0., 4.14937781e-003, 0., 0., 0.,
          8.29875562e-003, 4.14937781e-003, 0., 0., 0., 0., 0., 0., 0.,
          0., 0., 0., 0., 4.14937781e-003, 0., 0., 0., 0., 0., 0., 0.,
          0., 0., 0., 0., 0., 0., 8.29875562e-003, 8.29875562e-003, 0.,
          0., 0., 0., 0., 0., 0., 0., 4.14937781e-003, 0., 0., 0., 0.,
          0., 0., 0., 0., 4.14937781e-003, 0., 0., 4.14937781e-003,
          8.29875562e-003, 0., 0., 4.14937781e-003, 0., 0., 0., 0., 0.,
          4.14937781e-003, 0., 0., 0., 0., 8.29875562e-003, 0., 0., 0.,
          0., 0., 0., 8.29875562e-003, 4.14937781e-003, 0., 0., 0., 0.,
          0., 0., 0., 0., 0., 0., 0., 0., 0., 0., 0., 0., 0., 0., 0., 0.,
          0., 0., 0., 0., 0., 0., 0., 0., 0., 0., 0., 0., 0., 0., 0., 0.,
          0., 0., 0., 0., 0., 0., 0., 0., 4.14937781e-003,
          4.14937781e-003, 0., 0., 4.14937781e-003, 0., 0.,
          4.14937781e-003, 4.14937781e-003, 0., 0., 4.14937781e-003, 0.,
          4.14937781e-003, 0., 0., 0., 0., 0., 4.14937781e-003, 0.,
          8.29875562e-003, 0., 0., 0., 0., 4.14937781e-003, 0., 0., 0.,
          0., 0., 0., 0., 0., 0., 0., 0., 0., 0., 0., 0., 0., 0.,
          8.29875562e-003, 0., 4.14937781e-003, 0., 0., 0., 0.,
          4.14937781e-003, 1.24481339e-002, 4.14937781e-003, 0., 0.,
          4.14937781e-003, 8.29875562e-003, 0., 0., 0., 0., 0., 0., 0.,
          0., 0., 0., 0., 0., 0., 0., 0., 0., 4.14937781e-003, 0., 0.,
          0., 0., 0., 0., 0., 0., 4.14937781e-003, 4.14937781e-003,
          4.14937781e-003, 0., 0., 0., 0., 0., 0., 0., 0., 0., 0., 0.,
          1.24481339e-002, 0., 0., 0., 0., 0., 0., 0., 0., 0., 0., 0.,
          0., 0., 0., 0., 0., 0., 0., 0., 0., 0., 4.14937781e-003, 0.,
          0., 0., 0., 4.14937781e-003, 0., 0., 0., 0., 4.14937781e-003,
          0., 0., 0., 0., 0., 0., 0., 0., 0., 4.14937781e-003, 0.,
          4.14937781e-003, 4.14937781e-003, 4.14937781e-003, 0., 0.,
          4.14937781e-003, 0., 0., 4.14937781e-003, 0., 0., 0.,
          4.14937781e-003, 0., 0., 0., 0., 0., 0., 0., 0., 0.,
          4.14937781e-003, 0., 0., 0., 0., 0., 0., 0. ]
      - [ 0., 0., 4.11522621e-003, 0., 0., 0., 0., 0., 0.,
          4.11522621e-003, 0., 0., 0., 0., 0., 0., 0., 0., 0., 0., 0.,
          0., 0., 0., 0., 0., 0., 0., 0., 0., 4.11522621e-003,
          1.23456791e-002, 0., 0., 0., 0., 0., 0., 0., 4.11522621e-003,
          0., 0., 0., 0., 4.11522621e-003, 0., 0., 8.23045243e-003, 0.,
          4.11522621e-003, 0., 0., 0., 0., 4.11522621e-003, 0.,
          4.11522621e-003, 0., 4.11522621e-003, 0., 0., 0., 0., 0.,
          4.11522621e-003, 0., 0., 0., 0., 0., 0., 0., 0., 0., 0., 0.,
          0., 0., 0., 0., 0., 0., 4.11522621e-003, 0., 0., 0., 0.,
          4.11522621e-003, 8.23045243e-003, 0., 4.11522621e-003, 0.,
          8.23045243e-003, 0., 0., 1.23456791e-002, 0., 0.,
          4.11522621e-003, 0., 0., 0., 0., 0., 0., 0., 0., 0., 0., 0.,
          0., 8.23045243e-003, 0., 1.23456791e-002, 4.11522621e-003,
          4.11522621e-003, 0., 0., 0., 0., 0., 0., 0., 0., 0., 0., 0.,
          0., 0., 0., 0., 0., 4.11522621e-003, 1.23456791e-002, 0., 0.,
          0., 0., 0., 0., 0., 0., 1.23456791e-002, 0., 0., 0., 0.,
          4.11522621e-003, 0., 0., 0., 0., 0., 0., 0., 0., 0., 0., 0.,
          4.11522621e-003, 0., 0., 0., 0., 0., 4.11522621e-003, 0., 0.,
          0., 0., 0., 0., 0., 4.11522621e-003, 0., 0., 0., 0., 0., 0.,
          0., 0., 0., 4.11522621e-003, 4.11522621e-003, 0.,
          4.11522621e-003, 0., 0., 0., 0., 0., 0., 4.11522621e-003, 0.,
          0., 8.23045243e-003, 0., 0., 0., 0., 0., 0., 8.23045243e-003,
          4.11522621e-003, 0., 0., 0., 0., 0., 0., 0., 0., 0., 0.,
          1.23456791e-002, 0., 0., 0., 0., 0., 0., 0., 0., 0., 0., 0.,
          0., 0., 4.11522621e-003, 0., 0., 4.11522621e-003, 0., 0.,
          4.11522621e-003, 0., 0., 8.23045243e-003, 4.11522621e-003, 0.,
          0., 0., 4.11522621e-003, 8.23045243e-003, 0., 0.,
          4.11522621e-003, 0., 0., 4.11522621e-003, 0., 0., 0., 0., 0.,
          0., 4.11522621e-003, 0., 0., 0., 0., 0., 0., 0., 0.,
          4.11522621e-003, 0., 0., 0., 4.11522621e-003, 0., 0., 0.,
          8.23045243e-003, 0., 8.23045243e-003, 0., 0., 0., 0., 0., 0.,
          0., 1.23456791e-002, 4.11522621e-003, 0., 0., 4.11522621e-003,
          0., 0., 4.11522621e-003, 0., 0., 0., 4.11522621e-003, 0., 0.,
          4.11522621e-003, 0., 0., 0., 0., 0., 0., 0., 0., 0., 0., 0.,
          0., 0., 4.11522621e-003, 0., 8.23045243e-003, 0.,
          4.11522621e-003, 0., 0., 0., 0., 0., 0., 0., 0., 0., 0., 0.,
          4.11522621e-003, 0., 4.11522621e-003, 0., 0., 0., 0., 0., 0.,
          0., 0., 4.11522621e-003, 0., 0., 0., 0., 0., 0., 0., 0., 0.,
          0., 1.23456791e-002, 0., 0., 4.11522621e-003, 0., 0., 0.,
          4.11522621e-003, 8.23045243e-003, 0., 0., 0., 0., 0.,
          4.11522621e-003, 0., 0., 0., 4.11522621e-003, 0., 0.,
          4.11522621e-003, 0., 0., 0., 8.23045243e-003, 0., 0., 0., 0.,
          8.23045243e-003, 0., 4.11522621e-003, 0., 0., 0.,
          4.11522621e-003, 1.23456791e-002, 0., 0., 4.11522621e-003, 0.,
          0., 0., 0., 0., 0., 0., 4.11522621e-003, 0., 0., 0., 0., 0.,
          0., 4.11522621e-003, 0., 0., 8.23045243e-003, 0., 0., 0., 0.,
          0., 0., 0., 0., 0., 0., 0., 0., 0., 0., 0., 4.11522621e-003,
          0., 0., 0., 0., 0., 0., 1.23456791e-002, 8.23045243e-003, 0.,
          8.23045243e-003, 0., 0., 0., 0., 0., 4.11522621e-003, 0., 0.,
          4.11522621e-003, 0., 0., 0., 0., 0., 4.11522621e-003, 0., 0.,
          0., 0., 0., 0., 0., 0., 0., 0., 0., 4.11522621e-003, 0., 0.,
          0., 0., 0., 0., 4.11522621e-003, 0., 0., 2.05761306e-002, 0.,
          0., 0., 0., 0., 0., 0., 0., 0., 0., 0., 0., 0., 0., 0., 0., 0.,
          0., 0., 4.11522621e-003, 0., 0., 0., 0., 0., 0., 0., 0., 0.,
          4.11522621e-003, 0., 0., 0., 0., 0., 4.11522621e-003, 0., 0.,
          0., 0., 0., 4.11522621e-003, 0., 0., 0., 0., 4.11522621e-003,
          0., 0., 4.11522621e-003, 0., 0., 0., 0., 0., 0., 0.,
          4.11522621e-003, 0., 0., 0., 0., 0., 4.11522621e-003, 0., 0.,
          4.11522621e-003, 4.11522621e-003, 0., 0., 0., 0.,
          4.11522621e-003, 0., 0., 0., 4.11522621e-003, 4.11522621e-003,
          0., 0., 2.88065840e-002, 0., 0., 0., 0., 0., 8.23045243e-003,
          0., 0., 0., 0., 0., 0., 4.11522621e-003, 0., 0., 0., 0., 0.,
          0., 0., 0., 0., 0., 0., 0., 0., 0., 0., 0., 0., 0., 0.,
          4.11522621e-003, 0., 0., 0., 0., 0., 0., 0., 0., 0., 0., 0.,
          0., 0., 0., 0., 0., 4.11522621e-003, 4.11522621e-003, 0., 0.,
          0., 0., 0., 0., 4.11522621e-003, 0., 4.11522621e-003, 0., 0.,
          8.23045243e-003, 4.11522621e-003, 0., 0., 0., 0., 0., 0., 0.,
          0., 0., 4.11522621e-003, 0., 0., 0., 0., 0., 0., 0., 0., 0.,
          0., 0., 0., 0., 0., 0., 0., 0., 0., 0., 0., 0., 0., 0., 0., 0.,
          0., 0., 0., 0., 0., 0., 0., 0., 8.23045243e-003, 0., 0., 0.,
          0., 0., 8.23045243e-003, 0., 0., 0., 4.11522621e-003, 0., 0.,
          0., 0., 0., 0., 4.11522621e-003, 0., 0., 0., 0., 0., 0., 0.,
          0., 0., 0., 0., 0., 0., 0., 0., 0., 0., 0., 0., 0., 0.,
          4.11522621e-003, 0., 0., 0., 0., 0., 0., 4.11522621e-003, 0.,
          0., 0., 0., 4.11522621e-003, 8.23045243e-003, 0., 0., 0., 0.,
          0., 0., 0., 0., 0., 0., 0., 0., 8.23045243e-003,
          8.23045243e-003, 0., 0., 0., 0., 0., 0., 4.11522621e-003, 0.,
          0., 0., 0., 0., 8.23045243e-003, 4.11522621e-003, 0.,
          4.11522621e-003, 0., 0., 0., 4.11522621e-003, 0., 0., 0., 0.,
          0., 4.11522621e-003, 0., 0., 0., 0., 0., 0., 0., 0.,
          4.11522621e-003, 0., 0., 0., 0., 0., 0., 0., 4.11522621e-003,
          0., 0., 0., 0., 0., 0., 1.23456791e-002, 0., 0., 0., 0., 0.,
          0., 0., 0., 0., 0., 0., 0., 0., 0., 0., 0., 0., 0., 0., 0., 0.,
          0., 0., 0., 0., 0., 0., 0., 0., 0., 0., 0., 0., 0., 0., 0., 0.,
          0., 0., 0., 0., 0., 0., 0., 0., 0., 0., 0., 0., 0., 0., 0.,
          4.11522621e-003, 1.23456791e-002, 8.23045243e-003, 0., 0.,
          4.11522621e-003, 0., 0., 1.64609049e-002, 0., 0., 0., 0., 0.,
          0., 0., 0., 0., 0., 0., 4.11522621e-003, 1.23456791e-002, 0.,
          0., 0., 0., 0., 0., 0., 0., 0., 0., 0., 0., 4.11522621e-003,
          0., 0., 0., 4.11522621e-003, 0., 4.11522621e-003, 0., 0., 0.,
          8.23045243e-003, 0., 8.23045243e-003, 0., 0., 4.11522621e-003,
          0., 4.11522621e-003, 4.11522621e-003, 8.23045243e-003, 0.,
          4.11522621e-003, 4.11522621e-003, 1.64609049e-002, 0., 0., 0.,
          0., 1.23456791e-002, 4.11522621e-003, 0., 0., 0., 0., 0., 0.,
          0., 0., 0., 0., 4.11522621e-003, 8.23045243e-003, 0., 0., 0.,
          0., 0., 0., 0., 0., 4.11522621e-003, 0., 0., 0., 0., 0., 0.,
          0., 0., 0., 0., 0., 0., 0., 0., 0., 0., 0., 0., 0., 0., 0., 0.,
          0., 0., 8.23045243e-003, 0., 0., 0., 0., 0., 8.23045243e-003,
          0., 0., 0., 0., 0., 0., 8.23045243e-003, 0., 0., 0., 0., 0.,
          0., 0., 0., 0., 0., 0., 0., 0., 0., 0., 0., 0., 0.,
          4.11522621e-003, 0., 0., 0., 0., 0., 0., 0., 0., 0., 0., 0.,
          0., 4.11522621e-003, 0., 0., 4.11522621e-003, 0.,
          4.11522621e-003, 0., 0., 0., 4.11522621e-003, 0., 0., 0.,
          4.11522621e-003, 0., 0., 0. ]
      - [ 0., 0., 1.52671756e-002, 3.81679391e-003, 0., 0.,
          3.81679391e-003, 1.90839693e-002, 0., 0., 0., 0., 0., 0., 0.,
          0., 0., 0., 0., 3.81679391e-003, 0., 0., 0., 0., 0., 0., 0.,
          0., 0., 0., 3.81679391e-003, 3.81679391e-003, 0., 0., 0., 0.,
          0., 0., 0., 3.81679391e-003, 0., 0., 0., 0., 0., 0., 0., 0.,
          0., 0., 0., 0., 0., 0., 0., 0., 3.81679391e-003, 0., 0., 0.,
          0., 0., 0., 0., 1.14503819e-002, 3.81679391e-003, 0., 0., 0.,
          0., 0., 0., 0., 0., 0., 3.81679391e-003, 0., 0., 0.,
          3.81679391e-003, 0., 0., 3.81679391e-003, 0., 3.81679391e-003,
          0., 0., 0., 0., 0., 0., 0., 0., 0., 0., 3.81679391e-003, 0.,
          0., 0., 1.14503819e-002, 0., 0., 0., 0., 0., 0., 0.,
          3.81679391e-003, 0., 3.81679391e-003, 0., 3.81679391e-003, 0.,
          3.81679391e-003, 1.14503819e-002, 0., 0., 0., 0.,
          3.81679391e-003, 0., 0., 0., 0., 0., 0., 3.81679391e-003, 0.,
          0., 0., 0., 0., 0., 0., 0., 0., 0., 0., 7.63358781e-003, 0.,
          3.81679391e-003, 0., 3.81679391e-003, 0., 0., 3.81679391e-003,
          0., 3.81679391e-003, 0., 0., 0., 0., 0., 7.63358781e-003,
          3.81679391e-003, 0., 0., 0., 0., 3.81679391e-003, 0., 0., 0.,
          0., 0., 0., 0., 0., 0., 0., 0., 0., 0., 0., 0., 0.,
          3.81679391e-003, 0., 0., 0., 0., 3.81679391e-003,
          1.14503819e-002, 7.63358781e-003, 3.81679391e-003, 0., 0., 0.,
          0., 0., 0., 0., 0., 0., 0., 0., 0., 0., 0., 0., 0., 0., 0.,
          1.52671756e-002, 0., 0., 0., 0., 0., 0., 0., 0., 0., 0., 0.,
          0., 0., 1.52671756e-002, 0., 0., 0., 0., 0., 0., 0., 0., 0.,
          0., 0., 1.52671756e-002, 0., 0., 0., 0., 0., 7.63358781e-003,
          0., 0., 3.81679391e-003, 0., 0., 0., 3.81679391e-003,
          3.81679391e-003, 0., 0., 0., 3.81679391e-003, 0., 0., 0., 0.,
          0., 0., 0., 0., 0., 0., 3.81679391e-003, 0., 0., 0., 0., 0.,
          0., 0., 0., 0., 0., 0., 0., 0., 3.81679391e-003, 0.,
          7.63358781e-003, 0., 7.63358781e-003, 0., 0., 3.81679391e-003,
          0., 3.81679391e-003, 0., 0., 1.90839693e-002, 3.81679391e-003,
          0., 0., 0., 0., 0., 7.63358781e-003, 0., 0., 0., 0., 0., 0.,
          3.81679391e-003, 0., 0., 0., 0., 0., 0., 0., 0., 0., 0., 0.,
          0., 0., 0., 3.81679391e-003, 7.63358781e-003, 0., 0., 0., 0.,
          0., 0., 3.81679391e-003, 0., 0., 0., 0., 0., 0., 0., 0., 0.,
          0., 0., 0., 0., 0., 0., 0., 0., 0., 0., 0., 0.,
          3.81679391e-003, 0., 0., 0., 0., 0., 0., 3.81679391e-003, 0.,
          0., 0., 0., 0., 0., 0., 1.52671756e-002, 0., 0., 0., 0., 0.,
          0., 0., 0., 0., 3.81679391e-003, 0., 0., 0., 3.81679391e-003,
          0., 0., 0., 0., 0., 0., 0., 7.63358781e-003, 0., 0., 0.,
          3.81679391e-003, 0., 0., 7.63358781e-003, 0., 0., 0., 0., 0.,
          0., 0., 3.81679391e-003, 0., 0., 0., 0., 0., 0.,
          3.81679391e-003, 0., 0., 0., 0., 0., 7.63358781e-003, 0., 0.,
          0., 0., 0., 0., 7.63358781e-003, 0., 0., 0., 0., 0., 0.,
          3.81679391e-003, 3.81679391e-003, 0., 0., 0., 0.,
          7.63358781e-003, 0., 0., 0., 7.63358781e-003, 0., 0., 0., 0.,
          0., 0., 0., 3.81679391e-003, 0., 0., 3.81679391e-003, 0., 0.,
          3.81679391e-003, 0., 0., 0., 0., 0., 0., 0., 0., 0., 0., 0.,
          0., 0., 0., 3.81679391e-003, 0., 0., 0., 0., 3.81679391e-003,
          0., 0., 7.63358781e-003, 0., 1.90839693e-002, 0., 0., 0., 0.,
          3.81679391e-003, 0., 0., 0., 0., 0., 7.63358781e-003, 0., 0.,
          0., 0., 0., 0., 0., 0., 0., 0., 0., 0., 0., 0., 0., 0., 0.,
          7.63358781e-003, 0., 0., 0., 0., 0., 0., 0., 0.,
          3.81679391e-003, 0., 0., 0., 3.81679391e-003, 0., 0., 0., 0.,
          0., 3.81679391e-003, 0., 7.63358781e-003, 0., 0., 0., 0., 0.,
          3.81679391e-003, 0., 0., 0., 0., 0., 0., 0., 0., 0., 0., 0.,
          0., 0., 0., 0., 0., 0., 0., 0., 0., 7.63358781e-003,
          3.81679391e-003, 0., 0., 3.81679391e-003, 0., 0., 0., 0., 0.,
          0., 0., 0., 0., 0., 0., 7.63358781e-003, 3.81679391e-003, 0.,
          0., 0., 0., 0., 2.29007639e-002, 0., 0., 0., 3.81679391e-003,
          0., 0., 0., 0., 0., 0., 0., 0., 0., 0., 0., 0., 0., 0., 0., 0.,
          0., 3.81679391e-003, 0., 0., 0., 0., 0., 0., 0., 0.,
          3.81679391e-003, 7.63358781e-003, 0., 0., 0., 0., 0.,
          7.63358781e-003, 1.14503819e-002, 0., 3.81679391e-003, 0., 0.,
          3.81679391e-003, 0., 0., 0., 3.81679391e-003, 0.,
          3.81679391e-003, 0., 0., 3.81679391e-003, 0., 3.81679391e-003,
          0., 0., 0., 0., 0., 0., 0., 0., 0., 0., 0., 0., 0., 0., 0.,
          3.81679391e-003, 0., 0., 0., 0., 0., 0., 0., 0.,
          3.81679391e-003, 0., 3.81679391e-003, 3.81679391e-003, 0., 0.,
          0., 0., 0., 0., 0., 0., 0., 0., 0., 3.81679391e-003,
          7.63358781e-003, 0., 0., 0., 0., 0., 0., 0., 0.,
          3.81679391e-003, 0., 0., 0., 0., 0., 0., 0., 0., 0., 0., 0.,
          0., 0., 0., 0., 0., 0., 3.81679391e-003, 0., 0., 0., 0.,
          7.63358781e-003, 0., 0., 0., 0., 0., 0., 3.81679391e-003,
          3.81679391e-003, 0., 0., 0., 0., 7.63358781e-003, 0., 0., 0.,
          0., 3.81679391e-003, 0., 0., 0., 0., 0., 0., 0., 0., 0., 0.,
          0., 0., 0., 0., 0., 0., 0., 0., 0., 0., 0., 3.81679391e-003,
          3.81679391e-003, 0., 0., 0., 0., 0., 0., 0., 0., 0., 0., 0.,
          0., 0., 0., 0., 0., 0., 7.63358781e-003, 0., 0.,
          3.81679391e-003, 7.63358781e-003, 0., 0., 3.81679391e-003, 0.,
          0., 0., 3.81679391e-003, 0., 0., 0., 0., 0., 0., 0., 0., 0.,
          0., 0., 0., 0., 3.81679391e-003, 0., 0., 0., 0., 0., 0.,
          3.81679391e-003, 0., 0., 0., 0., 0., 0., 0., 0., 0., 0., 0.,
          0., 0., 0., 0., 0., 0., 0., 3.81679391e-003, 0., 0., 0.,
          3.81679391e-003, 0., 0., 0., 0., 3.81679391e-003, 0., 0., 0.,
          0., 0., 0., 0., 0., 0., 0., 3.81679391e-003, 0., 0., 0.,
          3.81679391e-003, 0., 0., 3.81679391e-003, 7.63358781e-003, 0.,
          0., 3.81679391e-003, 0., 7.63358781e-003, 0., 1.52671756e-002,
          0., 0., 0., 0., 0., 1.14503819e-002, 0., 0., 0., 0.,
          3.81679391e-003, 3.81679391e-003, 0., 0., 0., 0., 0., 0., 0.,
          0., 0., 0., 0., 0., 0., 3.81679391e-003, 0., 0.,
          7.63358781e-003, 0., 1.14503819e-002, 0., 0., 0., 0.,
          3.81679391e-003, 1.14503819e-002, 0., 0., 0., 3.81679391e-003,
          3.81679391e-003, 0., 0., 0., 0., 3.81679391e-003, 0., 0., 0.,
          0., 0., 0., 0., 0., 0., 0., 0., 3.81679391e-003, 0.,
          3.81679391e-003, 0., 0., 0., 0., 0., 0., 3.81679391e-003,
          3.81679391e-003, 0., 0., 0., 0., 0., 0., 3.81679391e-003, 0.,
          0., 0., 0., 0., 3.81679391e-003, 0., 0., 0., 0., 0., 0., 0.,
          0., 0., 0., 0., 1.14503819e-002, 0., 0., 0., 0., 0.,
          3.81679391e-003, 0., 0., 0., 3.81679391e-003, 0., 0., 0., 0.,
          3.81679391e-003, 0., 0., 0., 0., 7.63358781e-003, 0., 0., 0.,
          0., 0., 0., 0., 0., 0., 3.81679391e-003, 0., 3.81679391e-003,
          0., 3.81679391e-003, 0., 0., 3.81679391e-003, 0., 0.,
          7.63358781e-003, 0., 0., 0., 7.63358781e-003, 0., 0., 0., 0.,
          0., 3.81679391e-003, 0., 0., 0., 3.81679391e-003, 0., 0., 0.,
          2.67175566e-002, 0., 0., 0. ]
      - [ 0., 0., 8.77192989e-003, 0., 0., 0., 1.31578948e-002, 0., 0.,
          0., 0., 0., 0., 0., 0., 4.38596494e-003, 4.38596494e-003, 0.,
          0., 0., 0., 0., 0., 0., 0., 0., 0., 0., 0., 0., 0., 0., 0., 0.,
          0., 0., 0., 0., 0., 4.38596494e-003, 0., 0., 0.,
          4.38596494e-003, 0., 0., 0., 0., 0., 0., 0., 0., 0., 0.,
          8.77192989e-003, 0., 4.38596494e-003, 0., 0., 0., 0., 0., 0.,
          0., 1.75438598e-002, 0., 0., 0., 0., 0., 0., 0., 0., 0., 0.,
          4.38596494e-003, 0., 0., 0., 0., 0., 0., 8.77192989e-003, 0.,
          8.77192989e-003, 0., 0., 0., 0., 0., 8.77192989e-003, 0.,
          4.38596494e-003, 0., 0., 4.38596494e-003, 4.38596494e-003, 0.,
          4.38596494e-003, 1.31578948e-002, 0., 0., 0., 0., 0., 0., 0.,
          0., 0., 0., 0., 8.77192989e-003, 0., 8.77192989e-003,
          8.77192989e-003, 0., 0., 0., 0., 0., 0., 0., 0., 0., 0., 0.,
          4.38596494e-003, 0., 0., 0., 0., 0., 0., 4.38596494e-003, 0.,
          0., 0., 0., 4.38596494e-003, 0., 0., 0., 8.77192989e-003, 0.,
          0., 4.38596494e-003, 0., 4.38596494e-003, 0., 0., 0., 0., 0.,
          0., 0., 0., 0., 0., 0., 4.38596494e-003, 0., 0., 0., 0., 0.,
          4.38596494e-003, 0., 0., 0., 0., 4.38596494e-003, 0., 0., 0.,
          0., 0., 0., 0., 0., 0., 0., 0., 4.38596494e-003,
          4.38596494e-003, 8.77192989e-003, 0., 0., 0., 0.,
          8.77192989e-003, 0., 0., 0., 0., 0., 0., 8.77192989e-003, 0.,
          0., 0., 0., 0., 0., 8.77192989e-003, 0., 0., 0., 0., 0., 0.,
          0., 0., 0., 0., 0., 8.77192989e-003, 0., 0., 0., 0., 0., 0.,
          0., 0., 0., 0., 4.38596494e-003, 0., 0., 0., 0., 0., 0., 0.,
          0., 0., 0., 0., 4.38596494e-003, 0., 0., 0., 0.,
          4.38596494e-003, 0., 0., 0., 4.38596494e-003, 4.38596494e-003,
          0., 4.38596494e-003, 0., 0., 0., 0., 0., 0., 0.,
          4.38596494e-003, 0., 0., 0., 0., 0., 0., 0., 0., 0., 0., 0.,
          0., 0., 0., 0., 0., 0., 8.77192989e-003, 0., 0., 0., 0.,
          4.38596494e-003, 0., 0., 4.38596494e-003, 0., 0., 0., 0., 0.,
          0., 4.38596494e-003, 0., 0., 0., 0., 0., 0., 4.38596494e-003,
          0., 0., 0., 0., 0., 0., 0., 0., 0., 0., 0., 0., 0., 0.,
          8.77192989e-003, 0., 0., 4.38596494e-003, 0., 0., 0., 0., 0.,
          0., 0., 0., 0., 0., 0., 8.77192989e-003, 0., 0., 0., 0., 0.,
          0., 0., 0., 0., 0., 0., 0., 0., 0., 0., 0., 0., 0., 0., 0., 0.,
          0., 0., 0., 0., 0., 0., 0., 0., 1.31578948e-002, 0., 0., 0.,
          0., 0., 0., 0., 4.38596494e-003, 0., 4.38596494e-003, 0., 0.,
          8.77192989e-003, 4.38596494e-003, 0., 0., 4.38596494e-003, 0.,
          0., 0., 0., 8.77192989e-003, 0., 0., 0., 0., 0., 0.,
          4.38596494e-003, 0., 0., 0., 0., 0., 0., 0., 0., 0., 0.,
          4.38596494e-003, 0., 4.38596494e-003, 0., 4.38596494e-003, 0.,
          0., 0., 0., 0., 0., 0., 0., 0., 0., 0., 0., 1.31578948e-002,
          0., 0., 0., 0., 0., 0., 4.38596494e-003, 0., 0., 0., 0., 0.,
          0., 4.38596494e-003, 0., 1.75438598e-002, 8.77192989e-003, 0.,
          0., 0., 0., 0., 0., 4.38596494e-003, 4.38596494e-003, 0., 0.,
          0., 0., 0., 0., 0., 0., 0., 0., 0., 0., 0., 0., 0., 0., 0., 0.,
          0., 0., 4.38596494e-003, 0., 0., 0., 4.38596494e-003,
          4.38596494e-003, 0., 0., 0., 0., 8.77192989e-003, 0., 0., 0.,
          0., 4.38596494e-003, 4.38596494e-003, 0., 0., 0., 0., 0., 0.,
          0., 0., 0., 0., 0., 0., 0., 0., 0., 0., 0., 0., 0., 0., 0., 0.,
          0., 0., 0., 0., 0., 0., 4.38596494e-003, 0., 0., 0., 0., 0.,
          0., 4.38596494e-003, 0., 0., 0., 0., 4.38596494e-003, 0., 0.,
          0., 4.38596494e-003, 0., 0., 0., 0., 0., 0., 0., 0., 0., 0.,
          0., 0., 0., 0., 0., 4.38596494e-003, 0., 0., 0., 0., 0., 0.,
          0., 0., 0., 4.38596494e-003, 4.38596494e-003, 0., 0.,
          3.50877196e-002, 0., 0., 4.38596494e-003, 0., 0.,
          4.38596494e-003, 0., 0., 0., 0., 0., 0., 4.38596494e-003, 0.,
          0., 0., 0., 0., 0., 0., 0., 0., 0., 0., 8.77192989e-003, 0.,
          0., 0., 0., 0., 0., 0., 0., 0., 0., 4.38596494e-003, 0.,
          4.38596494e-003, 0., 0., 0., 0., 0., 0., 0., 0., 0., 0., 0.,
          8.77192989e-003, 4.38596494e-003, 0., 0., 0., 0., 0., 0.,
          1.31578948e-002, 0., 8.77192989e-003, 0., 0., 0., 0., 0., 0.,
          0., 0., 4.38596494e-003, 0., 0., 0., 0., 4.38596494e-003, 0.,
          0., 0., 0., 0., 0., 0., 0., 0., 0., 0., 0., 0., 0., 0., 0., 0.,
          0., 0., 0., 0., 0., 0., 4.38596494e-003, 0., 0., 0.,
          4.38596494e-003, 0., 0., 0., 0., 0., 8.77192989e-003, 0., 0.,
          0., 0., 0., 8.77192989e-003, 0., 0., 0., 0., 0., 0., 0., 0.,
          0., 0., 0., 0., 0., 0., 0., 0., 0., 0., 0., 0., 0., 0., 0., 0.,
          0., 0., 0., 0., 0., 0., 4.38596494e-003, 0., 4.38596494e-003,
          0., 0., 0., 0., 0., 0., 4.38596494e-003, 0., 0., 0., 0., 0.,
          8.77192989e-003, 0., 0., 0., 0., 0., 0., 0., 0., 0., 0., 0.,
          0., 8.77192989e-003, 0., 0., 0., 0., 0., 0., 4.38596494e-003,
          0., 0., 0., 0., 0., 0., 1.75438598e-002, 4.38596494e-003, 0.,
          8.77192989e-003, 0., 0., 0., 0., 0., 0., 0., 0.,
          4.38596494e-003, 0., 0., 0., 0., 0., 0., 4.38596494e-003, 0.,
          4.38596494e-003, 4.38596494e-003, 0., 8.77192989e-003, 0., 0.,
          0., 0., 0., 4.38596494e-003, 4.38596494e-003, 0., 0., 0., 0.,
          0., 8.77192989e-003, 0., 0., 4.38596494e-003, 0., 0., 0., 0.,
          4.38596494e-003, 0., 0., 0., 0., 0., 0., 0., 0., 0., 0., 0.,
          0., 0., 0., 0., 0., 0., 0., 0., 0., 0., 0., 0., 0., 0., 0., 0.,
          0., 0., 0., 0., 0., 0., 8.77192989e-003, 0., 0., 0., 0., 0.,
          0., 0., 0., 0., 0., 4.38596494e-003, 0., 4.38596494e-003, 0.,
          8.77192989e-003, 0., 0., 4.38596494e-003, 1.75438598e-002, 0.,
          0., 1.31578948e-002, 0., 0., 0., 0., 0., 4.38596494e-003, 0.,
          0., 0., 1.31578948e-002, 0., 0., 0., 0., 0., 0., 0., 0., 0.,
          0., 0., 0., 0., 0., 0., 0., 4.38596494e-003, 0.,
          4.38596494e-003, 0., 0., 0., 8.77192989e-003, 0., 0., 0.,
          4.38596494e-003, 4.38596494e-003, 0., 4.38596494e-003,
          4.38596494e-003, 0., 0., 0., 4.38596494e-003, 0., 0., 0., 0.,
          0., 1.31578948e-002, 8.77192989e-003, 0., 0., 0., 0.,
          8.77192989e-003, 0., 0., 0., 0., 0., 4.38596494e-003,
          4.38596494e-003, 0., 0., 0., 0., 0., 0., 4.38596494e-003, 0.,
          4.38596494e-003, 0., 0., 0., 0., 0., 0., 4.38596494e-003, 0.,
          0., 0., 0., 0., 4.38596494e-003, 0., 0., 0., 0., 0., 0., 0.,
          0., 0., 0., 0., 0., 0., 0., 0., 0., 8.77192989e-003,
          4.38596494e-003, 0., 0., 0., 0., 0., 0., 0., 0., 0., 0., 0.,
          0., 0., 4.38596494e-003, 0., 0., 0., 0., 0., 0., 0., 0., 0.,
          0., 0., 4.38596494e-003, 0., 0., 0., 0., 0., 0.,
          4.38596494e-003, 0., 0., 0., 0., 8.77192989e-003,
          4.38596494e-003, 0., 0., 4.38596494e-003, 0., 0., 0., 0., 0.,
          4.38596494e-003, 0., 0., 0., 0., 0., 0., 4.38596494e-003 ]
      - [ 0., 0., 3.67647060e-003, 0., 0., 0., 7.35294120e-003,
          7.35294120e-003, 0., 0., 3.67647060e-003, 0., 0.,
          3.67647060e-003, 0., 0., 0., 0., 0., 0., 3.67647060e-003, 0.,
          0., 0., 0., 0., 3.67647060e-003, 0., 0., 0., 3.67647060e-003,
          3.67647060e-003, 0., 0., 3.67647060e-003, 0., 0., 0., 0.,
          3.67647060e-003, 0., 0., 0., 0., 0., 0., 0., 3.67647060e-003,
          0., 0., 0., 0., 0., 0., 7.35294120e-003, 0., 1.83823537e-002,
          0., 0., 0., 0., 0., 0., 0., 3.67647060e-003, 0., 0., 0., 0.,
          0., 3.67647060e-003, 0., 0., 0., 0., 0., 0., 0., 0., 0., 0.,
          0., 0., 0., 7.35294120e-003, 0., 0., 0., 0., 0., 0., 0.,
          3.67647060e-003, 0., 0., 1.10294120e-002, 0., 0.,
          3.67647060e-003, 3.67647060e-003, 0., 0., 0., 0., 0., 0., 0.,
          7.35294120e-003, 0., 0., 0., 3.67647060e-003, 0., 0.,
          3.67647060e-003, 3.67647060e-003, 0., 0., 0., 3.67647060e-003,
          0., 0., 0., 3.67647060e-003, 0., 0., 0., 0., 0., 0., 0., 0.,
          0., 0., 3.67647060e-003, 0., 0., 0., 0., 0., 0., 0.,
          1.10294120e-002, 0., 0., 0., 0., 7.35294120e-003, 0., 0., 0.,
          0., 0., 7.35294120e-003, 0., 3.67647060e-003, 0., 0.,
          7.35294120e-003, 3.67647060e-003, 3.67647060e-003, 0., 0., 0.,
          0., 0., 0., 0., 3.67647060e-003, 0., 3.67647060e-003, 0., 0.,
          0., 0., 3.67647060e-003, 3.67647060e-003, 0., 0., 0., 0., 0.,
          0., 3.67647060e-003, 0., 3.67647060e-003, 0., 0., 0.,
          3.67647060e-003, 0., 0., 0., 3.67647060e-003, 0., 0., 0., 0.,
          0., 0., 3.67647060e-003, 0., 0., 7.35294120e-003, 0., 0., 0.,
          0., 0., 1.10294120e-002, 0., 0., 0., 0., 0., 0., 0., 0., 0.,
          0., 3.67647060e-003, 0., 0., 3.67647060e-003, 0., 0., 0., 0.,
          0., 1.10294120e-002, 0., 0., 0., 0., 0., 3.67647060e-003, 0.,
          0., 3.67647060e-003, 0., 0., 0., 3.67647060e-003,
          3.67647060e-003, 0., 0., 0., 3.67647060e-003, 0., 0., 0., 0.,
          0., 3.67647060e-003, 0., 0., 0., 7.35294120e-003,
          3.67647060e-003, 3.67647060e-003, 0., 3.67647060e-003, 0., 0.,
          0., 0., 0., 0., 0., 0., 0., 0., 0., 0., 7.35294120e-003, 0.,
          1.10294120e-002, 0., 0., 0., 0., 3.67647060e-003, 0., 0.,
          1.10294120e-002, 0., 0., 0., 7.35294120e-003, 3.67647060e-003,
          0., 3.67647060e-003, 0., 0., 0., 0., 0., 0., 0., 0., 0., 0.,
          3.67647060e-003, 0., 0., 0., 0., 0., 0., 0., 3.67647060e-003,
          0., 3.67647060e-003, 0., 0., 0., 0., 0., 0., 0.,
          3.67647060e-003, 0., 0., 0., 0., 0., 0., 0., 3.67647060e-003,
          0., 3.67647060e-003, 0., 0., 0., 0., 0., 0., 0., 0., 0., 0.,
          0., 0., 3.67647060e-003, 0., 0., 0., 0., 0., 0., 0., 0., 0.,
          0., 0., 0., 3.67647060e-003, 0., 3.67647060e-003, 0., 0., 0.,
          0., 0., 1.47058824e-002, 0., 3.67647060e-003, 0.,
          7.35294120e-003, 7.35294120e-003, 0., 0., 7.35294120e-003, 0.,
          0., 7.35294120e-003, 0., 0., 0., 0., 7.35294120e-003, 0., 0.,
          0., 0., 0., 3.67647060e-003, 3.67647060e-003, 0., 0., 0., 0.,
          0., 0., 3.67647060e-003, 0., 0., 0., 3.67647060e-003, 0.,
          3.67647060e-003, 0., 0., 0., 3.67647060e-003, 0., 0.,
          3.67647060e-003, 3.67647060e-003, 0., 0., 0., 0., 0.,
          3.67647060e-003, 3.67647060e-003, 0., 0., 0., 0., 0., 0., 0.,
          0., 7.35294120e-003, 0., 0., 0., 0., 0., 0., 1.47058824e-002,
          7.35294120e-003, 0., 0., 0., 0., 0., 0., 0., 3.67647060e-003,
          0., 0., 3.67647060e-003, 0., 0., 0., 0., 0., 0., 0., 0., 0.,
          0., 0., 0., 0., 0., 0., 0., 0., 3.67647060e-003, 0., 0., 0.,
          0., 0., 0., 0., 3.67647060e-003, 0., 7.35294120e-003, 0., 0.,
          0., 0., 0., 0., 0., 0., 0., 0., 3.67647060e-003, 0., 0., 0.,
          0., 3.67647060e-003, 0., 0., 0., 2.20588241e-002, 0., 0., 0.,
          0., 3.67647060e-003, 0., 0., 0., 3.67647060e-003, 0.,
          3.67647060e-003, 0., 0., 0., 0., 0., 0., 7.35294120e-003, 0.,
          0., 0., 7.35294120e-003, 0., 0., 0., 0., 0., 0., 0.,
          3.67647060e-003, 0., 0., 0., 0., 0., 0., 0., 0., 0., 0., 0.,
          0., 0., 0., 0., 0., 0., 0., 0., 0., 0., 0., 0., 0., 0., 0.,
          7.35294120e-003, 3.67647060e-003, 0., 0., 0., 0., 0., 0., 0.,
          0., 0., 0., 0., 0., 0., 0., 0., 3.67647060e-003, 0., 0., 0.,
          0., 0., 0., 0., 3.67647060e-003, 0., 0., 3.67647060e-003,
          3.67647060e-003, 0., 0., 0., 3.67647060e-003, 0., 0., 0., 0.,
          0., 0., 0., 0., 0., 0., 0., 0., 0., 3.67647060e-003, 0., 0.,
          0., 0., 0., 0., 3.67647060e-003, 0., 0., 7.35294120e-003,
          7.35294120e-003, 0., 0., 0., 0., 0., 0., 0., 0., 0., 0., 0.,
          0., 0., 0., 0., 0., 0., 3.67647060e-003, 0., 7.35294120e-003,
          0., 0., 0., 0., 0., 0., 0., 0., 0., 0., 3.67647060e-003, 0.,
          0., 0., 0., 0., 0., 0., 0., 0., 0., 0., 0., 0., 0., 0.,
          7.35294120e-003, 0., 0., 0., 0., 0., 0., 3.67647060e-003, 0.,
          0., 0., 0., 0., 3.67647060e-003, 0., 0., 0., 7.35294120e-003,
          0., 3.67647060e-003, 0., 0., 0., 3.67647060e-003, 0., 0., 0.,
          0., 0., 0., 0., 7.35294120e-003, 0., 0., 0., 0., 0., 0., 0.,
          0., 0., 0., 0., 0., 0., 0., 7.35294120e-003, 0., 0., 0., 0.,
          0., 0., 0., 0., 0., 0., 0., 0., 7.35294120e-003, 0., 0., 0.,
          0., 0., 0., 0., 0., 0., 0., 0., 0., 3.67647060e-003, 0., 0.,
          7.35294120e-003, 0., 0., 0., 0., 3.67647060e-003, 0., 0., 0.,
          0., 0., 1.10294120e-002, 0., 0., 7.35294120e-003, 0., 0., 0.,
          0., 0., 0., 0., 0., 3.67647060e-003, 0., 7.35294120e-003, 0.,
          0., 0., 0., 0., 0., 0., 1.10294120e-002, 3.67647060e-003,
          7.35294120e-003, 0., 0., 0., 0., 0., 0., 0., 0., 0., 0., 0.,
          0., 0., 0., 0., 0., 0., 0., 0., 0., 0., 0., 0., 0., 0., 0., 0.,
          0., 0., 0., 0., 0., 0., 0., 0., 0., 0., 0., 0.,
          3.67647060e-003, 0., 0., 3.67647060e-003, 0., 3.67647060e-003,
          0., 0., 0., 0., 0., 0., 7.35294120e-003, 0., 0., 0., 0., 0.,
          0., 0., 0., 0., 0., 0., 0., 3.67647060e-003, 1.10294120e-002,
          0., 3.67647060e-003, 0., 1.10294120e-002, 0., 0.,
          3.67647060e-003, 1.10294120e-002, 0., 0., 0., 0., 0.,
          3.67647060e-003, 0., 0., 0., 0., 0., 1.47058824e-002, 0.,
          3.67647060e-003, 0., 0., 0., 3.67647060e-003, 0., 0., 0., 0.,
          0., 0., 0., 0., 0., 0., 0., 0., 0., 7.35294120e-003, 0., 0.,
          0., 0., 0., 7.35294120e-003, 0., 0., 0., 0., 0.,
          7.35294120e-003, 3.67647060e-003, 0., 0., 7.35294120e-003,
          3.67647060e-003, 0., 0., 0., 0., 0., 3.67647060e-003, 0.,
          3.67647060e-003, 0., 0., 0., 0., 0., 0., 0., 0.,
          3.67647060e-003, 0., 0., 3.67647060e-003, 0., 0., 0., 0.,
          3.67647060e-003, 0., 3.67647060e-003, 3.67647060e-003, 0., 0.,
          0., 0., 0., 3.67647060e-003, 0., 0., 0., 0., 0., 0., 0., 0.,
          0., 0., 0., 3.67647060e-003, 0., 0., 0., 0., 0.,
          3.67647060e-003, 0., 0., 0., 0., 0., 7.35294120e-003, 0., 0.,
          0., 0., 0., 0., 3.67647060e-003, 0., 1.10294120e-002, 0., 0.,
          0., 0., 0., 0., 0., 3.67647060e-003, 0., 0., 3.67647060e-003,
          0., 0., 0., 0., 0., 3.67647060e-003, 0., 3.67647060e-003, 0.,
          3.67647060e-003, 0., 0., 7.35294120e-003, 3.67647060e-003, 0.,
          0., 0., 3.67647060e-003, 3.67647060e-003, 0., 3.67647060e-003,
          0., 0., 0., 0., 0., 3.67647060e-003, 0., 0., 0., 0.,
          7.35294120e-003, 0., 0., 0. ]
      - [ 0., 0., 1.35135138e-002, 0., 0., 0., 4.50450461e-003, 0., 0.,
          0., 0., 0., 0., 0., 0., 0., 0., 0., 0., 0., 0., 0., 0., 0., 0.,
          0., 0., 4.50450461e-003, 0., 0., 4.50450461e-003, 0.,
          4.50450461e-003, 0., 0., 0., 0., 0., 0., 9.00900923e-003, 0.,
          0., 4.50450461e-003, 0., 0., 0., 0., 0., 0., 0., 0., 0., 0.,
          0., 0., 0., 0., 0., 0., 0., 0., 0., 0., 0., 3.15315314e-002,
          0., 0., 0., 0., 0., 0., 0., 9.00900923e-003, 0.,
          4.50450461e-003, 4.50450461e-003, 0., 0., 0., 0.,
          4.50450461e-003, 0., 0., 0., 4.50450461e-003, 0., 0., 0., 0.,
          0., 0., 0., 0., 0., 0., 4.50450461e-003, 0., 0., 0.,
          1.35135138e-002, 0., 0., 0., 0., 0., 4.50450461e-003, 0.,
          4.50450461e-003, 0., 0., 4.50450461e-003, 4.50450461e-003, 0.,
          4.50450461e-003, 0., 0., 0., 0., 0., 0., 0., 0., 0.,
          4.50450461e-003, 0., 0., 4.50450461e-003, 0., 0., 0., 0., 0.,
          0., 4.50450461e-003, 0., 0., 0., 0., 4.50450461e-003, 0., 0.,
          0., 1.80180185e-002, 0., 0., 0., 0., 0., 0., 0., 0., 0., 0.,
          0., 9.00900923e-003, 0., 0., 0., 0., 4.50450461e-003, 0.,
          9.00900923e-003, 0., 0., 0., 0., 0., 0., 0., 0., 0., 0., 0.,
          4.50450461e-003, 0., 0., 0., 0., 0., 0., 0., 0., 0.,
          9.00900923e-003, 0., 0., 4.50450461e-003, 0., 0., 0., 0., 0.,
          0., 0., 0., 4.50450461e-003, 0., 0., 0., 0., 0., 0., 0.,
          9.00900923e-003, 0., 0., 0., 0., 0., 0., 0., 0., 0., 0., 0.,
          0., 0., 9.00900923e-003, 0., 0., 9.00900923e-003, 0., 0., 0.,
          0., 0., 4.50450461e-003, 0., 0., 4.50450461e-003, 0., 0., 0.,
          0., 0., 4.50450461e-003, 0., 0., 4.50450461e-003, 0., 0., 0.,
          0., 4.50450461e-003, 0., 0., 0., 0., 0., 4.50450461e-003, 0.,
          0., 0., 0., 4.50450461e-003, 0., 0., 0., 0., 4.50450461e-003,
          0., 0., 0., 0., 0., 0., 0., 0., 0., 0., 0., 0., 0., 0.,
          4.50450461e-003, 0., 0., 0., 0., 9.00900923e-003, 0., 0., 0.,
          0., 4.50450461e-003, 4.50450461e-003, 0., 0., 0., 0., 0., 0.,
          0., 0., 0., 0., 0., 0., 4.50450461e-003, 0., 0., 0., 0., 0.,
          0., 0., 0., 0., 0., 0., 0., 4.50450461e-003, 0.,
          1.35135138e-002, 0., 0., 0., 0., 0., 0., 0., 0., 0.,
          4.50450461e-003, 0., 0., 0., 0., 4.50450461e-003, 0., 0., 0.,
          0., 0., 4.50450461e-003, 0., 0., 4.50450461e-003, 0.,
          9.00900923e-003, 0., 0., 0., 0., 0., 0., 0., 0., 0., 0.,
          9.00900923e-003, 4.50450461e-003, 0., 0., 0., 0., 0., 0.,
          9.00900923e-003, 0., 0., 0., 0., 0., 0., 0., 0., 0.,
          4.50450461e-003, 0., 0., 4.50450461e-003, 0., 0., 0., 0., 0.,
          0., 0., 0., 4.50450461e-003, 0., 4.50450461e-003, 0., 0., 0.,
          0., 1.35135138e-002, 0., 0., 0., 0., 0., 0., 4.50450461e-003,
          0., 0., 0., 0., 0., 0., 0., 0., 0., 0., 0., 0., 0.,
          4.50450461e-003, 0., 0., 0., 0., 0., 0., 4.50450461e-003, 0.,
          0., 0., 0., 0., 0., 0., 0., 0., 0., 0., 0., 9.00900923e-003,
          0., 0., 0., 9.00900923e-003, 0., 0., 0., 0., 0., 0., 0., 0.,
          0., 0., 0., 0., 0., 0., 0., 0., 0., 0., 0., 9.00900923e-003,
          0., 0., 0., 0., 0., 0., 0., 0., 4.50450461e-003, 0., 0., 0.,
          0., 4.50450461e-003, 0., 0., 4.50450461e-003, 0.,
          4.05405425e-002, 0., 0., 0., 0., 0., 0., 0., 0., 0.,
          9.00900923e-003, 4.50450461e-003, 0., 0., 0., 0.,
          4.50450461e-003, 0., 0., 0., 0., 0., 0., 0., 0., 0., 0., 0.,
          0., 0., 4.50450461e-003, 0., 0., 0., 0., 0., 0., 0., 0., 0.,
          0., 0., 0., 0., 0., 0., 0., 0., 0., 0., 4.50450461e-003, 0.,
          0., 0., 0., 0., 4.50450461e-003, 0., 0., 0., 0., 0., 0., 0.,
          0., 0., 0., 0., 0., 0., 0., 0., 0., 4.50450461e-003, 0., 0.,
          0., 9.00900923e-003, 4.50450461e-003, 0., 0., 4.50450461e-003,
          0., 0., 0., 0., 0., 0., 0., 0., 0., 0., 0., 0., 0., 0., 0., 0.,
          0., 0., 0., 0., 0., 0., 9.00900923e-003, 4.50450461e-003, 0.,
          0., 0., 0., 0., 0., 4.50450461e-003, 0., 0., 0., 0., 0., 0.,
          0., 0., 0., 0., 0., 0., 0., 0., 0., 0., 0., 0.,
          4.50450461e-003, 4.50450461e-003, 0., 0., 4.50450461e-003, 0.,
          0., 2.70270277e-002, 4.50450461e-003, 0., 0., 0., 0., 0.,
          4.50450461e-003, 0., 0., 4.50450461e-003, 0., 0., 0., 0.,
          4.50450461e-003, 0., 0., 0., 0., 0., 0., 0., 0., 0., 0., 0.,
          0., 0., 0., 0., 0., 0., 0., 4.50450461e-003, 0., 0., 0., 0.,
          0., 4.50450461e-003, 0., 0., 0., 0., 4.50450461e-003, 0., 0.,
          0., 0., 0., 0., 0., 0., 4.50450461e-003, 0., 0., 0., 0., 0.,
          0., 0., 0., 0., 0., 0., 0., 4.50450461e-003, 0., 0., 0., 0.,
          0., 0., 0., 0., 0., 0., 0., 0., 0., 0., 0., 0., 0.,
          4.50450461e-003, 0., 0., 0., 0., 9.00900923e-003, 0., 0., 0.,
          0., 0., 0., 4.50450461e-003, 0., 0., 4.50450461e-003, 0., 0.,
          4.50450461e-003, 4.50450461e-003, 0., 0., 0., 0., 0., 0., 0.,
          0., 0., 0., 0., 0., 0., 0., 0., 0., 0., 0., 0., 0., 0., 0., 0.,
          0., 0., 0., 4.50450461e-003, 4.50450461e-003, 9.00900923e-003,
          0., 0., 0., 0., 0., 0., 0., 0., 4.50450461e-003, 0., 0., 0.,
          0., 0., 0., 4.50450461e-003, 0., 0., 0., 4.50450461e-003, 0.,
          0., 4.50450461e-003, 0., 0., 4.50450461e-003, 4.50450461e-003,
          0., 0., 0., 0., 4.50450461e-003, 0., 0., 0., 0., 0., 0.,
          4.50450461e-003, 0., 0., 0., 0., 0., 0., 0., 0., 0., 0., 0.,
          0., 0., 4.50450461e-003, 0., 0., 0., 0., 4.50450461e-003, 0.,
          0., 0., 0., 0., 0., 0., 4.50450461e-003, 4.50450461e-003, 0.,
          0., 0., 0., 0., 0., 0., 0., 0., 0., 0., 0., 0.,
          4.50450461e-003, 0., 0., 0., 0., 4.50450461e-003, 0.,
          9.00900923e-003, 4.50450461e-003, 0., 1.80180185e-002, 0., 0.,
          4.50450461e-003, 0., 0., 0., 0., 4.50450461e-003, 0.,
          4.50450461e-003, 0., 0., 4.50450461e-003, 0., 0., 0.,
          1.35135138e-002, 4.50450461e-003, 0., 0., 0., 0.,
          4.50450461e-003, 0., 0., 0., 0., 0., 0., 0., 0., 0., 0.,
          4.50450461e-003, 0., 0., 0., 0., 0., 9.00900923e-003, 0.,
          4.50450461e-003, 0., 0., 0., 0., 4.50450461e-003,
          1.80180185e-002, 4.50450461e-003, 0., 0., 4.50450461e-003,
          4.50450461e-003, 0., 0., 0., 0., 0., 0., 0., 4.50450461e-003,
          0., 0., 0., 0., 0., 0., 0., 0., 4.50450461e-003, 0.,
          4.50450461e-003, 0., 0., 0., 0., 0., 4.50450461e-003,
          4.50450461e-003, 4.50450461e-003, 0., 0., 0., 0., 0., 0., 0.,
          0., 0., 0., 0., 0., 0., 0., 0., 0., 0., 0., 0., 0., 0., 0., 0.,
          0., 4.50450461e-003, 0., 0., 0., 0., 0., 1.35135138e-002, 0.,
          0., 0., 0., 0., 0., 4.50450461e-003, 0., 4.50450461e-003, 0.,
          0., 0., 4.50450461e-003, 0., 0., 0., 0., 0., 0., 0., 0., 0.,
          0., 0., 0., 0., 0., 0., 0., 0., 0., 4.50450461e-003,
          4.50450461e-003, 0., 0., 0., 0., 4.50450461e-003, 0., 0., 0.,
          0., 0., 9.00900923e-003, 0., 0., 0., 9.00900923e-003, 0., 0.,
          0., 0., 0., 9.00900923e-003, 0. ]
      - [ 0., 0., 4.01606411e-003, 0., 0., 0., 1.20481923e-002, 0., 0.,
          0., 0., 0., 0., 0., 0., 0., 0., 0., 0., 0., 0., 0., 0., 0., 0.,
          0., 0., 0., 0., 0., 4.01606411e-003, 0., 0., 0., 0., 0., 0.,
          0., 0., 4.01606411e-003, 0., 0., 0., 0., 0., 0., 0., 0., 0.,
          0., 0., 0., 0., 0., 4.01606411e-003, 0., 0., 0.,
          8.03212821e-003, 0., 0., 0., 0., 0., 4.01606411e-002,
          4.01606411e-003, 0., 0., 0., 0., 8.03212821e-003, 0., 0., 0.,
          0., 1.20481923e-002, 0., 0., 0., 0., 0., 0., 0., 0.,
          4.01606411e-003, 0., 0., 0., 0., 0., 0., 0., 0., 0., 0.,
          8.03212821e-003, 0., 0., 0., 1.60642564e-002, 4.01606411e-003,
          0., 0., 0., 0., 0., 0., 4.01606411e-003, 0., 0., 0.,
          4.01606411e-003, 0., 4.01606411e-003, 4.01606411e-003, 0., 0.,
          0., 0., 4.01606411e-003, 0., 0., 0., 0., 0., 0.,
          8.03212821e-003, 0., 0., 0., 0., 0., 4.01606411e-003, 0., 0.,
          0., 0., 0., 4.01606411e-003, 0., 4.01606411e-003, 0.,
          3.21285129e-002, 0., 0., 4.01606411e-003, 0., 0., 0.,
          4.01606411e-003, 0., 0., 0., 0., 4.01606411e-003, 0., 0., 0.,
          0., 4.01606411e-003, 0., 4.01606411e-003, 0., 0., 0., 0., 0.,
          0., 0., 0., 4.01606411e-003, 0., 0., 4.01606411e-003, 0., 0.,
          0., 0., 0., 0., 0., 4.01606411e-003, 4.01606411e-003,
          1.20481923e-002, 0., 0., 8.03212821e-003, 0., 0.,
          4.01606411e-003, 0., 0., 0., 0., 0., 0., 0., 0., 0., 0., 0.,
          0., 0., 4.01606411e-003, 0., 0., 0., 0., 0., 0., 0., 0., 0.,
          0., 0., 4.01606411e-003, 8.03212821e-003, 2.81124488e-002, 0.,
          4.01606411e-003, 0., 0., 0., 0., 4.01606411e-003, 0., 0., 0.,
          4.01606411e-003, 8.03212821e-003, 0., 0., 0., 0., 0., 0., 0.,
          0., 4.01606411e-003, 0., 0., 0., 4.01606411e-003,
          8.03212821e-003, 4.01606411e-003, 4.01606411e-003, 0., 0., 0.,
          0., 0., 0., 4.01606411e-003, 0., 0., 0., 0., 0., 0.,
          4.01606411e-003, 0., 0., 0., 0., 0., 0., 0., 4.01606411e-003,
          0., 0., 0., 0., 0., 0., 4.01606411e-003, 0., 4.01606411e-003,
          0., 0., 4.01606411e-003, 0., 4.01606411e-003, 0., 0.,
          4.01606411e-003, 0., 0., 0., 0., 4.01606411e-003, 0.,
          8.03212821e-003, 0., 0., 0., 0., 0., 0., 4.01606411e-003, 0.,
          0., 0., 0., 0., 0., 4.01606411e-003, 0., 0., 0., 0., 0., 0.,
          0., 0., 4.01606411e-003, 4.01606411e-003, 0., 0., 0., 0., 0.,
          0., 0., 0., 0., 0., 0., 0., 1.60642564e-002, 0., 0., 0., 0.,
          0., 0., 0., 0., 0., 0., 0., 0., 0., 0., 4.01606411e-003, 0.,
          0., 0., 0., 0., 0., 0., 0., 0., 0., 0., 0., 0., 0.,
          1.20481923e-002, 0., 0., 0., 0., 0., 0., 0., 4.01606411e-003,
          0., 8.03212821e-003, 0., 0., 4.01606411e-003, 0., 0., 0., 0.,
          0., 0., 0., 0., 0., 0., 0., 0., 0., 0., 0., 1.20481923e-002,
          4.01606411e-003, 0., 0., 0., 0., 0., 8.03212821e-003, 0., 0.,
          0., 8.03212821e-003, 0., 4.01606411e-003, 0., 0., 0.,
          4.01606411e-003, 0., 0., 0., 4.01606411e-003, 0., 0., 0., 0.,
          0., 8.03212821e-003, 4.01606411e-003, 0., 0., 0., 0., 0., 0.,
          4.01606411e-003, 1.20481923e-002, 0., 0., 0., 0., 0., 0., 0.,
          0., 1.20481923e-002, 0., 0., 0., 0., 0., 0., 0., 0., 0., 0.,
          0., 0., 0., 0., 0., 0., 0., 0., 0., 8.03212821e-003, 0., 0.,
          0., 0., 0., 0., 0., 0., 0., 0., 0., 0., 0., 0., 0., 0., 0., 0.,
          3.21285129e-002, 0., 0., 0., 0., 0., 0., 0., 0., 0.,
          4.01606411e-003, 0., 0., 0., 0., 0., 0., 0., 0., 0.,
          4.01606411e-003, 0., 0., 0., 0., 0., 0., 0., 0.,
          4.01606411e-003, 0., 0., 0., 0., 0., 0., 0., 0., 0., 0., 0.,
          0., 4.01606411e-003, 0., 0., 0., 0., 0., 0., 0.,
          1.60642564e-002, 0., 0., 0., 4.01606411e-003, 0.,
          4.01606411e-003, 0., 4.01606411e-003, 0., 0., 0., 0., 0., 0.,
          0., 0., 0., 0., 0., 0., 0., 0., 4.01606411e-003, 0., 0., 0.,
          8.03212821e-003, 0., 0., 0., 8.03212821e-003, 0., 0., 0., 0.,
          0., 0., 0., 0., 0., 0., 0., 4.01606411e-003, 4.01606411e-003,
          0., 0., 0., 0., 0., 0., 0., 0., 0., 0., 0., 0., 0., 0., 0., 0.,
          0., 4.01606411e-003, 0., 0., 0., 0., 0., 0., 0., 0., 0., 0.,
          0., 4.01606411e-003, 0., 0., 0., 0., 0., 0., 0., 0., 0., 0.,
          4.01606411e-003, 0., 0., 1.60642564e-002, 0., 0., 0., 0., 0.,
          8.03212821e-003, 4.01606411e-003, 0., 0., 4.01606411e-003, 0.,
          0., 0., 0., 0., 0., 0., 0., 0., 0., 0., 0., 0., 0., 0., 0., 0.,
          4.01606411e-003, 0., 0., 0., 0., 0., 0., 0., 0., 0., 0., 0.,
          0., 0., 0., 0., 0., 4.01606411e-003, 0., 0., 0., 0., 0.,
          4.01606411e-003, 0., 0., 0., 0., 0., 8.03212821e-003, 0., 0.,
          4.01606411e-003, 0., 0., 0., 0., 0., 0., 1.20481923e-002, 0.,
          0., 0., 0., 0., 0., 0., 1.20481923e-002, 4.01606411e-003, 0.,
          0., 0., 0., 0., 0., 0., 0., 0., 0., 0., 0., 0.,
          8.03212821e-003, 0., 0., 0., 0., 0., 0., 8.03212821e-003,
          4.01606411e-003, 4.01606411e-003, 8.03212821e-003, 0., 0.,
          4.01606411e-003, 0., 0., 0., 4.01606411e-003, 0., 0., 0., 0.,
          0., 0., 0., 0., 4.01606411e-003, 4.01606411e-003, 0., 0., 0.,
          4.01606411e-003, 0., 0., 0., 0., 0., 0., 0., 0., 0.,
          8.03212821e-003, 0., 0., 0., 0., 0., 0., 0., 0., 0., 0., 0.,
          0., 0., 0., 0., 0., 0., 8.03212821e-003, 0., 0.,
          4.01606411e-003, 4.01606411e-003, 0., 4.01606411e-003,
          4.01606411e-003, 0., 0., 0., 4.01606411e-003, 0., 0., 0., 0.,
          0., 0., 0., 0., 4.01606411e-003, 0., 0., 0., 0., 0., 0., 0.,
          0., 0., 0., 0., 0., 0., 0., 0., 0., 0., 0., 0., 0., 0., 0., 0.,
          0., 0., 0., 0., 0., 0., 0., 0., 0., 0., 4.01606411e-003, 0.,
          0., 4.01606411e-003, 0., 0., 0., 0., 0., 0., 0., 0., 0., 0.,
          0., 0., 4.01606411e-003, 0., 0., 0., 0., 0., 0., 0.,
          4.01606411e-003, 4.01606411e-003, 0., 0., 4.01606411e-003,
          4.01606411e-003, 0., 0., 0., 0., 0., 0., 0., 0.,
          1.60642564e-002, 0., 0., 0., 0., 0., 0., 0., 0., 0., 0., 0.,
          0., 0., 0., 0., 0., 0., 0., 4.01606411e-003, 4.01606411e-003,
          0., 0., 1.60642564e-002, 0., 4.01606411e-003, 0., 0.,
          4.01606411e-003, 0., 4.01606411e-003, 1.20481923e-002, 0., 0.,
          4.01606411e-003, 4.01606411e-003, 0., 0., 0., 0., 0., 0.,
          4.01606411e-003, 0., 0., 0., 0., 0., 0., 0., 0., 0., 0.,
          4.01606411e-003, 0., 0., 0., 0., 0., 0., 0., 0., 0.,
          4.01606411e-003, 4.01606411e-003, 0., 0., 0., 0., 0., 0., 0.,
          0., 0., 0., 0., 4.01606411e-003, 0., 0., 0., 0., 0., 0., 0.,
          0., 0., 0., 0., 4.01606411e-003, 0., 0., 0., 0., 0., 0., 0.,
          0., 0., 0., 0., 0., 0., 0., 0., 0., 0., 0., 0., 0., 0., 0., 0.,
          0., 0., 0., 0., 0., 0., 4.01606411e-003, 0., 4.01606411e-003,
          0., 0., 0., 0., 0., 0., 4.01606411e-003, 4.01606411e-003, 0.,
          0., 0., 4.01606411e-003, 4.01606411e-003, 0., 0., 0., 0., 0.,
          0., 0., 0., 4.01606411e-003, 0., 0., 0., 0., 0., 0., 0. ]
      - [ 0., 0., 7.72200758e-003, 0., 0., 0., 1.15830116e-002, 0., 0.,
          0., 0., 0., 7.72200758e-003, 0., 0., 7.72200758e-003, 0., 0.,
          0., 3.86100379e-003, 0., 0., 0., 0., 0., 0., 0., 0., 0., 0.,
          0., 3.86100379e-003, 0., 0., 0., 0., 0., 0., 0., 0., 0., 0.,
          0., 0., 0., 0., 0., 0., 0., 0., 0., 0., 0., 0., 0., 0.,
          7.72200758e-003, 0., 3.86100379e-003, 0., 0., 0., 0., 0.,
          1.93050187e-002, 0., 0., 0., 0., 0., 3.86100379e-003, 0., 0.,
          0., 3.86100379e-003, 3.86100379e-003, 0., 0., 3.86100379e-003,
          0., 0., 0., 0., 0., 3.86100379e-003, 0., 0., 0., 0., 0., 0.,
          0., 0., 0., 0., 1.54440152e-002, 0., 0., 0., 7.72200758e-003,
          0., 0., 0., 0., 0., 0., 0., 3.86100379e-003, 0., 0., 0.,
          3.86100379e-003, 0., 7.72200758e-003, 7.72200758e-003,
          3.86100379e-003, 0., 3.86100379e-003, 0., 3.86100379e-003, 0.,
          0., 0., 0., 0., 0., 3.86100379e-003, 0., 0., 0., 0., 0., 0.,
          7.72200758e-003, 0., 3.86100379e-003, 0., 0., 7.72200758e-003,
          0., 0., 0., 1.54440152e-002, 0., 0., 3.86100379e-003, 0., 0.,
          0., 0., 0., 0., 0., 0., 3.86100379e-003, 0., 0., 0., 0.,
          3.86100379e-003, 0., 0., 3.86100379e-003, 0., 0., 0., 0., 0.,
          0., 0., 0., 0., 0., 0., 0., 0., 0., 0., 0., 0., 0., 0.,
          1.15830116e-002, 1.15830116e-002, 0., 0., 3.86100379e-003, 0.,
          0., 0., 0., 0., 0., 3.86100379e-003, 0., 0., 0., 0., 0., 0.,
          0., 0., 0., 3.86100379e-003, 0., 0., 0., 0., 0., 0., 0., 0.,
          0., 0., 0., 0., 0., 3.86100379e-003, 0., 3.86100379e-003, 0.,
          0., 0., 0., 3.86100379e-003, 0., 3.86100379e-003, 0., 0.,
          3.86100379e-003, 0., 0., 0., 0., 0., 7.72200758e-003, 0., 0.,
          3.86100379e-003, 3.86100379e-003, 0., 0., 0., 3.86100379e-003,
          0., 0., 3.86100379e-003, 3.86100379e-003, 0., 3.86100379e-003,
          3.86100379e-003, 0., 3.86100379e-003, 0., 3.86100379e-003, 0.,
          0., 0., 3.86100379e-003, 3.86100379e-003, 0., 0., 0., 0., 0.,
          0., 0., 0., 0., 0., 0., 0., 0., 0., 1.15830116e-002, 0.,
          7.72200758e-003, 0., 0., 3.86100379e-003, 0., 0., 0., 0., 0.,
          0., 0., 0., 0., 0., 0., 0., 0., 0., 0., 3.86100379e-003, 0.,
          0., 3.86100379e-003, 0., 0., 0., 0., 0., 0., 0., 0., 0., 0.,
          0., 0., 3.86100379e-003, 0., 1.54440152e-002, 3.86100379e-003,
          0., 3.86100379e-003, 0., 0., 0., 0., 0., 0., 0., 0., 0., 0.,
          0., 7.72200758e-003, 0., 3.86100379e-003, 0., 0., 0., 0., 0.,
          0., 3.86100379e-003, 0., 0., 0., 0., 0., 0., 0., 0., 0., 0.,
          0., 0., 0., 0., 0., 0., 0., 0., 0., 0., 1.15830116e-002, 0.,
          0., 0., 0., 0., 3.86100379e-003, 0., 7.72200758e-003, 0., 0.,
          0., 0., 3.86100379e-003, 3.86100379e-003, 0., 0.,
          3.86100379e-003, 0., 0., 0., 0., 7.72200758e-003, 0., 0., 0.,
          0., 0., 0., 1.15830116e-002, 0., 0., 0., 0., 0., 0., 0., 0.,
          0., 0., 0., 0., 7.72200758e-003, 0., 3.86100379e-003, 0., 0.,
          0., 0., 0., 3.86100379e-003, 0., 0., 0., 0., 0., 0.,
          3.86100379e-003, 0., 0., 0., 0., 0., 0., 0., 0., 0., 0., 0.,
          0., 0., 3.86100379e-003, 0., 1.93050187e-002, 7.72200758e-003,
          0., 0., 0., 0., 0., 0., 0., 0., 0., 0., 0., 0., 0., 0., 0., 0.,
          0., 0., 0., 0., 0., 0., 0., 0., 0., 0., 0., 0.,
          3.86100379e-003, 0., 0., 0., 0., 7.72200758e-003, 0., 0., 0.,
          0., 3.08880303e-002, 0., 0., 0., 0., 0., 0., 0., 0., 0., 0.,
          0., 0., 0., 0., 0., 0., 0., 0., 0., 0., 0., 0., 0., 0., 0., 0.,
          0., 0., 0., 0., 0., 0., 0., 0., 0., 0., 0., 0., 0., 0., 0.,
          3.86100379e-003, 0., 0., 0., 3.86100379e-003, 0., 0., 0., 0.,
          3.86100379e-003, 0., 0., 0., 0., 3.86100379e-003, 0., 0., 0.,
          0., 0., 0., 0., 0., 0., 0., 3.86100379e-003, 0., 0., 0., 0.,
          0., 0., 0., 0., 0., 7.72200758e-003, 0., 0., 3.86100379e-003,
          7.72200758e-003, 0., 0., 0., 3.86100379e-003, 0., 0., 0., 0.,
          0., 0., 0., 0., 3.86100379e-003, 0., 0., 0., 0., 0., 0., 0.,
          0., 0., 3.86100379e-003, 0., 0., 0., 0., 0., 0., 0., 0., 0.,
          0., 0., 0., 0., 0., 0., 0., 0., 0., 0., 0., 0., 0., 0., 0., 0.,
          0., 3.86100379e-003, 0., 0., 0., 0., 0., 0., 1.15830116e-002,
          0., 0., 0., 0., 0., 3.86100379e-003, 3.86100379e-003, 0., 0.,
          3.86100379e-003, 0., 3.86100379e-003, 0., 0., 0., 0.,
          1.54440152e-002, 0., 0., 0., 0., 0., 0., 0., 0., 0., 0., 0.,
          3.86100379e-003, 0., 0., 0., 0., 3.86100379e-003, 0., 0., 0.,
          0., 0., 3.86100379e-003, 0., 3.86100379e-003, 0.,
          3.86100379e-003, 3.86100379e-003, 0., 0., 0., 0., 0.,
          3.86100379e-003, 0., 0., 0., 0., 0., 3.86100379e-003, 0., 0.,
          0., 7.72200758e-003, 0., 0., 0., 0., 0., 0., 7.72200758e-003,
          0., 0., 0., 0., 0., 0., 3.86100379e-003, 0., 0., 0., 0., 0.,
          7.72200758e-003, 0., 0., 0., 3.86100379e-003, 0., 0., 0., 0.,
          7.72200758e-003, 0., 0., 0., 0., 0., 0., 3.86100379e-003,
          3.86100379e-003, 0., 7.72200758e-003, 0., 0., 7.72200758e-003,
          0., 0., 0., 0., 0., 3.86100379e-003, 0., 0., 0., 0., 0., 0.,
          0., 0., 0., 0., 0., 0., 0., 3.86100379e-003, 0., 0., 0., 0.,
          0., 0., 1.15830116e-002, 0., 0., 3.86100379e-003, 0., 0., 0.,
          0., 0., 0., 0., 0., 0., 0., 0., 0., 0., 0., 0.,
          1.15830116e-002, 0., 0., 3.86100379e-003, 7.72200758e-003, 0.,
          3.86100379e-003, 3.86100379e-003, 0., 0., 0., 3.86100379e-003,
          0., 0., 0., 0., 0., 0., 0., 0., 0., 0., 0., 0., 0.,
          7.72200758e-003, 3.86100379e-003, 0., 0., 3.86100379e-003, 0.,
          0., 0., 0., 0., 3.86100379e-003, 0., 0., 0., 0., 0., 0., 0.,
          0., 0., 0., 0., 0., 0., 0., 0., 3.86100379e-003, 0., 0., 0.,
          0., 0., 0., 0., 3.86100379e-003, 0., 0., 0., 0., 0., 0., 0.,
          0., 0., 0., 0., 0., 3.86100379e-003, 7.72200758e-003, 0.,
          3.86100379e-003, 0., 0., 0., 1.93050187e-002, 0., 0.,
          1.15830116e-002, 3.86100379e-003, 0., 0., 3.86100379e-003, 0.,
          0., 0., 0., 0., 3.86100379e-003, 0., 0., 0., 0., 0.,
          3.86100379e-003, 0., 0., 0., 0., 0., 0., 0., 0., 0., 0., 0.,
          0., 0., 0., 0., 3.86100379e-003, 7.72200758e-003, 0.,
          3.86100379e-003, 0., 0., 0., 0., 3.86100379e-003,
          3.86100379e-003, 3.86100379e-003, 0., 0., 3.86100379e-003,
          7.72200758e-003, 0., 0., 0., 0., 3.86100379e-003, 0., 0.,
          3.86100379e-003, 0., 0., 0., 0., 0., 0., 0., 0.,
          3.86100379e-003, 0., 0., 0., 0., 0., 0., 0., 3.86100379e-003,
          0., 3.86100379e-003, 3.86100379e-003, 0., 0., 0., 0., 0., 0.,
          0., 0., 0., 0., 0., 3.86100379e-003, 0., 0., 0., 0., 0.,
          3.86100379e-003, 0., 0., 0., 0., 0., 0., 0., 3.86100379e-003,
          0., 0., 0., 3.86100379e-003, 0., 0., 0., 0., 0., 0., 0., 0.,
          3.86100379e-003, 0., 0., 0., 0., 3.86100379e-003, 0., 0., 0.,
          0., 0., 3.86100379e-003, 0., 0., 0., 3.86100379e-003, 0.,
          3.86100379e-003, 3.86100379e-003, 3.86100379e-003, 0., 0.,
          3.86100379e-003, 0., 3.86100379e-003, 0., 0., 0., 0.,
          1.15830116e-002, 0., 0., 0., 0., 0., 0., 0., 0., 0.,
          7.72200758e-003, 0., 0., 0., 3.86100379e-003, 0., 0., 0. ]
      - [ 0., 0., 1.36363637e-002, 4.54545440e-003, 0., 0.,
          4.54545440e-003, 0., 0., 0., 4.54545440e-003, 0., 0., 0., 0.,
          0., 0., 0., 0., 4.54545440e-003, 0., 0., 0., 0., 0., 0., 0.,
          0., 0., 0., 0., 0., 0., 0., 0., 0., 0., 0., 0.,
          9.09090880e-003, 0., 0., 0., 0., 0., 4.54545440e-003, 0.,
          4.54545440e-003, 0., 0., 0., 0., 0., 0., 4.54545440e-003, 0.,
          0., 0., 0., 0., 0., 0., 0., 0., 6.81818128e-002, 0., 0.,
          4.54545440e-003, 0., 0., 0., 0., 0., 0., 0., 0., 0., 0.,
          4.54545440e-003, 9.09090880e-003, 0., 0., 0., 0.,
          4.54545440e-003, 0., 0., 0., 0., 0., 0., 0., 0., 0., 0.,
          4.54545440e-003, 0., 0., 0., 0., 0., 0., 0., 0., 0.,
          4.54545440e-003, 0., 9.09090880e-003, 0., 0., 0.,
          4.54545440e-003, 0., 4.54545440e-003, 4.54545440e-003, 0., 0.,
          0., 0., 9.09090880e-003, 0., 0., 0., 4.54545440e-003, 0., 0.,
          4.54545440e-003, 0., 0., 0., 0., 0., 0., 4.54545440e-003, 0.,
          4.54545440e-003, 0., 0., 9.09090880e-003, 4.54545440e-003, 0.,
          0., 1.36363637e-002, 0., 0., 0., 0., 0., 0., 0., 0., 0., 0.,
          0., 9.09090880e-003, 0., 0., 0., 0., 4.54545440e-003, 0.,
          9.09090880e-003, 0., 0., 0., 0., 0., 0., 0., 0., 0., 0., 0.,
          9.09090880e-003, 0., 0., 0., 0., 0., 0., 0., 0., 0.,
          9.09090880e-003, 0., 0., 4.54545440e-003, 0., 0., 0., 0., 0.,
          0., 4.54545440e-003, 0., 4.54545440e-003, 0., 0.,
          4.54545440e-003, 0., 0., 0., 0., 4.54545440e-003, 0., 0., 0.,
          0., 0., 0., 0., 0., 0., 4.54545440e-003, 0., 0., 0.,
          2.72727273e-002, 0., 0., 0., 0., 0., 0., 0., 0.,
          4.54545440e-003, 0., 0., 1.36363637e-002, 0., 0., 0., 0., 0.,
          4.54545440e-003, 0., 0., 4.54545440e-003, 0., 0., 0.,
          9.09090880e-003, 4.54545440e-003, 0., 0., 0., 0., 0.,
          4.54545440e-003, 0., 0., 0., 0., 0., 0., 0., 0., 0., 0., 0.,
          0., 0., 0., 0., 0., 0., 0., 0., 0., 0., 0., 4.54545440e-003,
          0., 9.09090880e-003, 0., 0., 0., 0., 4.54545440e-003, 0.,
          9.09090880e-003, 0., 0., 4.54545440e-003, 0., 0., 0., 0., 0.,
          0., 0., 0., 0., 0., 0., 0., 0., 4.54545440e-003, 0., 0., 0.,
          4.54545440e-003, 0., 0., 0., 0., 0., 0., 0., 4.54545440e-003,
          9.09090880e-003, 0., 0., 0., 0., 4.54545440e-003, 0., 0., 0.,
          0., 0., 0., 0., 0., 0., 0., 0., 1.81818176e-002, 0., 0., 0.,
          0., 0., 0., 0., 0., 4.54545440e-003, 0., 4.54545440e-003, 0.,
          0., 0., 0., 0., 0., 0., 0., 0., 0., 9.09090880e-003,
          9.09090880e-003, 0., 0., 0., 0., 0., 0., 4.54545440e-003, 0.,
          0., 0., 4.54545440e-003, 0., 0., 0., 0., 0., 4.54545440e-003,
          0., 0., 0., 0., 0., 0., 0., 0., 0., 0., 0., 0., 0., 0., 0., 0.,
          0., 0., 9.09090880e-003, 0., 0., 0., 0., 0., 0.,
          4.54545440e-003, 0., 0., 0., 0., 0., 4.54545440e-003, 0., 0.,
          0., 0., 9.09090880e-003, 0., 0., 4.54545440e-003, 0., 0., 0.,
          0., 0., 0., 0., 0., 0., 0., 0., 0., 0., 0., 0., 0., 0., 0., 0.,
          4.54545440e-003, 0., 0., 0., 9.09090880e-003, 0., 0., 0., 0.,
          0., 0., 0., 4.54545440e-003, 4.54545440e-003, 0., 0., 0., 0.,
          0., 0., 0., 0., 0., 0., 4.54545440e-003, 0., 0., 0., 0., 0.,
          0., 0., 0., 4.54545440e-003, 0., 0., 0., 0., 4.54545440e-003,
          0., 0., 4.54545440e-003, 0., 1.36363637e-002, 0., 0., 0., 0.,
          0., 0., 0., 0., 0., 0., 4.54545440e-003, 0., 0., 0., 0., 0.,
          0., 0., 0., 0., 0., 0., 0., 0., 0., 0., 0., 0.,
          4.54545440e-003, 1.36363637e-002, 0., 0., 0., 0., 0., 0., 0.,
          0., 0., 0., 0., 0., 0., 0., 0., 0., 0., 0., 0.,
          4.54545440e-003, 0., 0., 0., 4.54545440e-003, 0., 0., 0., 0.,
          0., 0., 0., 0., 0., 0., 0., 0., 4.54545440e-003, 0., 0., 0.,
          0., 0., 9.09090880e-003, 0., 0., 0., 4.54545440e-003,
          4.54545440e-003, 0., 0., 0., 0., 0., 0., 0., 0., 0., 0., 0.,
          0., 0., 0., 4.54545440e-003, 4.54545440e-003, 0., 0., 0., 0.,
          0., 0., 0., 0., 0., 0., 4.54545440e-003, 0., 0., 0., 0., 0.,
          0., 0., 0., 0., 0., 0., 0., 0., 0., 0., 0., 0., 0., 0., 0., 0.,
          0., 0., 0., 0., 0., 4.54545440e-003, 0., 0., 0., 0., 0.,
          9.09090880e-003, 4.54545440e-003, 0., 0., 0., 0., 0., 0., 0.,
          0., 4.54545440e-003, 0., 0., 0., 0., 0., 0., 0., 0., 0., 0.,
          0., 0., 0., 0., 0., 0., 0., 0., 0., 0., 0., 0., 0.,
          4.54545440e-003, 0., 0., 0., 0., 9.09090880e-003,
          4.54545440e-003, 0., 0., 0., 0., 0., 0., 0., 0., 0., 0., 0.,
          0., 0., 0., 0., 0., 0., 0., 0., 0., 0., 0., 0., 0., 0., 0.,
          4.54545440e-003, 0., 0., 0., 0., 0., 0., 0., 0., 0., 0., 0.,
          0., 0., 0., 0., 0., 0., 4.54545440e-003, 0., 0., 0., 0.,
          9.09090880e-003, 0., 0., 0., 0., 0., 0., 4.54545440e-003,
          4.54545440e-003, 4.54545440e-003, 4.54545440e-003, 0., 0.,
          4.54545440e-003, 0., 0., 0., 0., 0., 4.54545440e-003, 0., 0.,
          4.54545440e-003, 0., 0., 0., 4.54545440e-003, 0., 0., 0., 0.,
          0., 0., 0., 0., 0., 0., 0., 0., 0., 0., 0., 4.54545440e-003,
          9.09090880e-003, 0., 0., 0., 0., 0., 0., 0., 0., 0., 0., 0.,
          0., 0., 0., 0., 9.09090880e-003, 0., 0., 0., 0., 0., 0.,
          4.54545440e-003, 0., 0., 0., 4.54545440e-003, 0., 0., 0., 0.,
          4.54545440e-003, 0., 0., 0., 0., 0., 0., 0., 0.,
          4.54545440e-003, 0., 0., 0., 0., 0., 0., 0., 0., 0., 0., 0.,
          4.54545440e-003, 0., 0., 0., 0., 9.09090880e-003, 0., 0., 0.,
          0., 0., 0., 0., 4.54545440e-003, 4.54545440e-003, 0., 0., 0.,
          0., 0., 9.09090880e-003, 0., 0., 0., 0., 0., 0., 0.,
          4.54545440e-003, 0., 0., 0., 0., 1.36363637e-002, 0.,
          4.54545440e-003, 0., 0., 1.81818176e-002, 0., 4.54545440e-003,
          4.54545440e-003, 0., 0., 0., 4.54545440e-003, 4.54545440e-003,
          0., 0., 0., 0., 0., 0., 0., 0., 0., 0., 0., 0., 0., 0.,
          4.54545440e-003, 0., 0., 0., 0., 0., 0., 0., 0., 0., 0.,
          4.54545440e-003, 0., 0., 0., 0., 0., 1.81818176e-002, 0.,
          4.54545440e-003, 0., 0., 0., 0., 4.54545440e-003,
          4.54545440e-003, 0., 4.54545440e-003, 0., 4.54545440e-003, 0.,
          0., 0., 0., 0., 0., 4.54545440e-003, 0., 0., 0., 0., 0., 0.,
          0., 0., 0., 0., 4.54545440e-003, 0., 0., 0., 0., 0., 0., 0.,
          4.54545440e-003, 0., 4.54545440e-003, 4.54545440e-003, 0., 0.,
          0., 4.54545440e-003, 0., 0., 0., 0., 0., 0., 0., 0., 0., 0.,
          0., 0., 0., 0., 0., 4.54545440e-003, 0., 0., 0., 0., 0., 0.,
          0., 0., 0., 9.09090880e-003, 0., 0., 0., 0., 0., 0.,
          4.54545440e-003, 0., 0., 0., 0., 0., 4.54545440e-003,
          4.54545440e-003, 0., 0., 0., 0., 0., 0., 0., 0., 0., 0., 0.,
          0., 0., 0., 0., 0., 0., 0., 4.54545440e-003, 0., 0., 0., 0.,
          0., 0., 0., 0., 0., 0., 4.54545440e-003, 0., 0., 0.,
          4.54545440e-003, 0., 0., 0., 0., 0., 9.09090880e-003, 0. ]
      - [ 0., 0., 1.22950813e-002, 0., 0., 0., 8.19672085e-003,
          4.09836043e-003, 0., 0., 4.09836043e-003, 0., 0., 0., 0.,
          4.09836043e-003, 0., 0., 0., 0., 0., 0., 0., 0., 0., 0., 0.,
          2.45901626e-002, 0., 0., 4.09836043e-003, 0., 0., 0., 0., 0.,
          0., 0., 0., 4.09836043e-003, 0., 0., 0., 0., 0., 0., 0.,
          4.09836043e-003, 0., 0., 0., 0., 0., 0., 0., 0.,
          8.19672085e-003, 0., 0., 0., 0., 0., 0., 0., 2.45901626e-002,
          4.09836043e-003, 0., 4.09836043e-003, 0., 0., 0., 0., 0., 0.,
          4.09836043e-003, 8.19672085e-003, 0., 0., 8.19672085e-003, 0.,
          4.09836043e-003, 0., 4.09836043e-003, 0., 4.09836043e-003, 0.,
          0., 0., 0., 0., 0., 0., 0., 0., 0., 4.09836043e-003,
          4.09836043e-003, 0., 0., 4.09836043e-003, 0., 0., 0., 0., 0.,
          0., 0., 4.09836043e-003, 0., 0., 0., 4.09836043e-003, 0.,
          4.09836043e-003, 8.19672085e-003, 0., 0., 0., 0.,
          4.09836043e-003, 0., 4.09836043e-003, 4.09836043e-003, 0., 0.,
          0., 4.09836043e-003, 4.09836043e-003, 0., 0., 0., 0., 0., 0.,
          4.09836043e-003, 0., 0., 0., 8.19672085e-003, 0., 0., 0.,
          1.22950813e-002, 0., 0., 4.09836043e-003, 0., 8.19672085e-003,
          0., 4.09836043e-003, 0., 0., 0., 2.04918012e-002,
          8.19672085e-003, 0., 0., 0., 0., 4.09836043e-003, 0., 0., 0.,
          0., 0., 0., 0., 0., 0., 1.22950813e-002, 0., 0., 0., 0., 0.,
          0., 0., 0., 0., 0., 0., 0., 4.09836043e-003, 1.22950813e-002,
          8.19672085e-003, 4.09836043e-003, 4.09836043e-003, 0., 0., 0.,
          0., 0., 0., 4.09836043e-003, 0., 0., 0., 0., 0., 0., 0., 0.,
          0., 1.63934417e-002, 0., 0., 0., 0., 0., 0., 0., 0., 0., 0.,
          0., 0., 0., 8.19672085e-003, 0., 0., 0., 0., 0., 0., 0., 0.,
          0., 4.09836043e-003, 0., 8.19672085e-003, 0., 0., 0., 0., 0.,
          4.09836043e-003, 0., 0., 4.09836043e-003, 0., 0., 0., 0.,
          4.09836043e-003, 0., 0., 0., 0., 0., 4.09836043e-003,
          4.09836043e-003, 0., 8.19672085e-003, 0., 0., 0., 0., 0., 0.,
          0., 0., 0., 0., 0., 0., 0., 0., 0., 0., 0., 0., 0.,
          8.19672085e-003, 0., 8.19672085e-003, 0., 0., 0., 0.,
          4.09836043e-003, 0., 4.09836043e-003, 0., 0., 0., 0., 0., 0.,
          0., 0., 0., 4.09836043e-003, 0., 0., 0., 0., 0., 0.,
          8.19672085e-003, 0., 0., 0., 4.09836043e-003, 0., 0., 0., 0.,
          0., 0., 0., 0., 0., 0., 8.19672085e-003, 0., 0., 0., 0., 0.,
          0., 0., 0., 0., 0., 0., 0., 0., 0., 8.19672085e-003, 0., 0.,
          0., 0., 0., 0., 0., 0., 0., 0., 0., 0., 0., 0., 0., 0., 0., 0.,
          0., 0., 0., 0., 0., 0., 0., 0., 0., 0., 0., 8.19672085e-003,
          0., 0., 4.09836043e-003, 0., 0., 0., 0., 0., 0.,
          8.19672085e-003, 0., 0., 8.19672085e-003, 4.09836043e-003, 0.,
          0., 0., 0., 0., 0., 0., 4.09836043e-003, 0., 4.09836043e-003,
          0., 0., 0., 0., 1.22950813e-002, 0., 0., 0., 0., 0., 0., 0.,
          0., 0., 0., 8.19672085e-003, 0., 0., 0., 4.09836043e-003, 0.,
          0., 4.09836043e-003, 0., 0., 4.09836043e-003, 0., 0., 0., 0.,
          4.09836043e-003, 0., 0., 0., 0., 0., 0., 0., 0., 0., 0.,
          4.09836043e-003, 0., 0., 0., 0., 0., 0., 4.09836043e-003,
          8.19672085e-003, 4.09836043e-003, 0., 0., 0., 0., 0., 0., 0.,
          0., 0., 8.19672085e-003, 0., 0., 0., 0., 0., 0., 0., 0., 0.,
          0., 0., 0., 0., 0., 0., 0., 0., 0., 0., 0., 0.,
          1.22950813e-002, 4.09836043e-003, 0., 0., 4.09836043e-003, 0.,
          4.09836043e-003, 0., 0., 0., 0., 4.09836043e-003,
          4.09836043e-003, 0., 0., 0., 0., 4.09836043e-003, 0., 0., 0.,
          0., 0., 0., 0., 0., 4.09836043e-003, 0., 0., 0., 0., 0., 0.,
          0., 0., 0., 0., 0., 0., 0., 0., 0., 0., 0., 4.09836043e-003,
          0., 0., 0., 0., 0., 0., 0., 0., 0., 4.09836043e-003, 0.,
          8.19672085e-003, 4.09836043e-003, 0., 0., 0., 0.,
          8.19672085e-003, 0., 0., 0., 0., 0., 0., 0., 0., 0., 0., 0.,
          0., 0., 0., 0., 0., 0., 0., 0., 0., 4.09836043e-003, 0., 0.,
          0., 8.19672085e-003, 0., 0., 0., 0., 4.09836043e-003, 0., 0.,
          0., 0., 0., 0., 4.09836043e-003, 8.19672085e-003, 0., 0., 0.,
          0., 0., 4.09836043e-003, 0., 0., 0., 4.09836043e-003, 0., 0.,
          0., 0., 0., 0., 0., 0., 0., 0., 0., 0., 0., 0., 0., 0.,
          4.09836043e-003, 0., 0., 0., 0., 0., 0., 0., 0., 0., 0.,
          4.09836043e-003, 0., 0., 4.09836043e-003, 0., 0.,
          4.09836043e-003, 4.09836043e-003, 0., 4.09836043e-003, 0., 0.,
          0., 0., 0., 0., 4.09836043e-003, 0., 0., 0., 0.,
          4.09836043e-003, 0., 0., 0., 0., 0., 0., 0., 0., 0., 0., 0.,
          0., 0., 0., 0., 0., 0., 0., 4.09836043e-003, 0., 0., 0., 0.,
          0., 0., 0., 4.09836043e-003, 0., 4.09836043e-003,
          4.09836043e-003, 0., 0., 0., 0., 0., 0., 0., 0., 0., 0., 0.,
          4.09836043e-003, 0., 0., 4.09836043e-003, 4.09836043e-003, 0.,
          0., 0., 0., 0., 4.09836043e-003, 0., 0., 0., 0., 0., 0., 0.,
          0., 0., 0., 0., 0., 0., 0., 0., 0., 0., 4.09836043e-003, 0.,
          0., 0., 0., 8.19672085e-003, 0., 0., 0., 0., 0., 0., 0., 0.,
          1.22950813e-002, 0., 0., 0., 4.09836043e-003, 0., 0., 0., 0.,
          0., 0., 0., 0., 0., 0., 0., 0., 0., 0., 0., 0., 0., 0., 0.,
          8.19672085e-003, 0., 0., 0., 0., 0., 0., 0., 8.19672085e-003,
          4.09836043e-003, 0., 0., 0., 0., 0., 0., 0., 4.09836043e-003,
          0., 0., 0., 0., 0., 0., 0., 0., 0., 0., 4.09836043e-003, 0.,
          8.19672085e-003, 0., 0., 4.09836043e-003, 0., 0., 0.,
          8.19672085e-003, 0., 0., 0., 0., 0., 0., 0., 0., 0.,
          4.09836043e-003, 0., 0., 0., 4.09836043e-003, 0., 0., 0., 0.,
          0., 0., 0., 0., 0., 0., 0., 0., 0., 0., 0., 0.,
          4.09836043e-003, 0., 0., 0., 0., 0., 0., 0., 0., 0., 0., 0.,
          0., 8.19672085e-003, 0., 0., 0., 0., 4.09836043e-003, 0., 0.,
          0., 0., 0., 0., 0., 0., 0., 0., 0., 0., 4.09836043e-003, 0.,
          4.09836043e-003, 0., 0., 0., 1.22950813e-002, 0., 0.,
          4.09836043e-003, 0., 4.09836043e-003, 0., 4.09836043e-003, 0.,
          0., 0., 0., 0., 1.22950813e-002, 0., 0., 4.09836043e-003, 0.,
          4.09836043e-003, 4.09836043e-003, 0., 0., 0., 0., 0., 0., 0.,
          0., 0., 0., 0., 0., 4.09836043e-003, 0., 0., 0.,
          1.22950813e-002, 0., 0., 0., 0., 0., 0., 8.19672085e-003,
          4.09836043e-003, 8.19672085e-003, 0., 0., 4.09836043e-003,
          8.19672085e-003, 0., 0., 0., 0., 0., 0., 0., 4.09836043e-003,
          0., 0., 0., 0., 0., 0., 0., 0., 4.09836043e-003, 0.,
          4.09836043e-003, 0., 0., 0., 0., 0., 0., 0., 4.09836043e-003,
          0., 0., 0., 0., 0., 0., 0., 0., 0., 0., 0., 0.,
          4.09836043e-003, 0., 0., 0., 0., 0., 0., 0., 0., 0., 0.,
          4.09836043e-003, 0., 0., 0., 0., 0., 0., 4.09836043e-003, 0.,
          0., 0., 4.09836043e-003, 0., 0., 4.09836043e-003, 0., 0., 0.,
          0., 0., 0., 4.09836043e-003, 0., 0., 0., 0., 0., 0., 0., 0.,
          0., 4.09836043e-003, 0., 4.09836043e-003, 0., 0., 0., 0., 0.,
          0., 4.09836043e-003, 0., 0., 0., 0., 8.19672085e-003, 0., 0.,
          0., 0., 0., 0., 0., 0., 0., 4.09836043e-003, 0., 0., 0.,
          4.09836043e-003, 0., 0., 0. ]
      - [ 3.71747208e-003, 0., 3.71747208e-003, 0., 0., 0.,
          3.71747208e-003, 1.11524165e-002, 0., 0., 3.71747208e-003, 0.,
          7.43494416e-003, 0., 0., 0., 0., 0., 0., 0., 0., 0., 0., 0.,
          0., 0., 0., 0., 0., 0., 3.71747208e-003, 3.71747208e-003, 0.,
          0., 0., 0., 0., 0., 0., 0., 0., 7.43494416e-003, 0.,
          3.71747208e-003, 0., 0., 0., 0., 0., 0., 0., 0., 0., 0.,
          3.71747208e-003, 0., 1.48698883e-002, 0., 0., 0., 0., 0., 0.,
          0., 7.43494416e-003, 0., 0., 3.71747208e-003, 0., 0., 0., 0.,
          0., 0., 0., 0., 0., 0., 0., 0., 0., 0., 3.71747208e-003, 0.,
          7.43494416e-003, 0., 0., 0., 3.71747208e-003, 0., 0., 0., 0.,
          0., 0., 1.48698883e-002, 7.43494416e-003, 0., 0., 0., 0., 0.,
          0., 0., 0., 0., 0., 3.71747208e-003, 0., 0., 0.,
          3.71747208e-003, 0., 3.71747208e-003, 0., 0., 0.,
          3.71747208e-003, 0., 3.71747208e-003, 0., 3.71747208e-003, 0.,
          7.43494416e-003, 3.71747208e-003, 3.71747208e-003, 0., 0., 0.,
          0., 0., 3.71747208e-003, 7.43494416e-003, 7.43494416e-003, 0.,
          0., 0., 0., 0., 0., 3.71747208e-003, 0., 1.48698883e-002, 0.,
          0., 0., 0., 0., 0., 3.71747208e-003, 0., 0., 0.,
          7.43494416e-003, 0., 0., 0., 0., 0., 7.43494416e-003,
          3.71747208e-003, 0., 0., 0., 0., 3.71747208e-003, 0., 0., 0.,
          7.43494416e-003, 3.71747208e-003, 0., 0., 0., 0., 0., 0., 0.,
          0., 0., 0., 0., 1.48698883e-002, 7.43494416e-003,
          3.71747208e-003, 3.71747208e-003, 0., 0., 0., 3.71747208e-003,
          0., 0., 0., 0., 0., 0., 3.71747208e-003, 0., 0., 0., 0., 0.,
          0., 1.48698883e-002, 0., 0., 0., 0., 0., 0., 0., 0., 0., 0.,
          0., 0., 0., 0., 0., 3.71747208e-003, 0., 0., 0., 0., 0., 0.,
          0., 0., 0., 1.11524165e-002, 0., 0., 0., 0., 0.,
          7.43494416e-003, 0., 0., 3.71747208e-003, 0., 0.,
          3.71747208e-003, 0., 3.71747208e-003, 0., 0., 0., 0., 0., 0.,
          0., 0., 0., 7.43494416e-003, 3.71747208e-003, 0., 0., 0.,
          7.43494416e-003, 3.71747208e-003, 0., 0., 0., 0., 0., 0., 0.,
          3.71747208e-003, 0., 0., 0., 0., 0., 0., 7.43494416e-003, 0.,
          1.48698883e-002, 0., 0., 0., 0., 0., 0., 0., 3.71747208e-003,
          0., 0., 0., 7.43494416e-003, 0., 0., 7.43494416e-003, 0., 0.,
          0., 0., 0., 0., 3.71747208e-003, 0., 0., 0., 3.71747208e-003,
          0., 0., 7.43494416e-003, 0., 0., 0., 0., 0., 0., 0.,
          7.43494416e-003, 0., 0., 0., 0., 0., 0., 0., 0., 0., 0., 0.,
          0., 0., 0., 1.11524165e-002, 0., 0., 0., 0., 0., 0., 0., 0.,
          0., 0., 0., 0., 0., 0., 0., 0., 0., 0., 0., 3.71747208e-003,
          0., 3.71747208e-003, 0., 0., 0., 0., 0., 0., 0., 0., 0., 0.,
          0., 0., 0., 3.71747208e-003, 0., 0., 0., 3.71747208e-003, 0.,
          0., 0., 0., 0., 0., 7.43494416e-003, 0., 0., 0., 0.,
          3.71747208e-003, 0., 0., 0., 0., 0., 0., 3.71747208e-003,
          7.43494416e-003, 0., 0., 0., 0., 0., 7.43494416e-003,
          3.71747208e-003, 0., 0., 3.71747208e-003, 0., 0., 0., 0., 0.,
          0., 0., 0., 0., 7.43494416e-003, 0., 0., 0., 0., 0., 0.,
          3.71747208e-003, 0., 0., 0., 0., 0., 3.71747208e-003,
          3.71747208e-003, 0., 0., 0., 0., 0., 7.43494416e-003,
          3.71747208e-003, 0., 2.23048329e-002, 3.71747208e-003, 0., 0.,
          0., 0., 0., 0., 0., 3.71747208e-003, 0., 0., 0., 0., 0., 0.,
          0., 0., 0., 0., 0., 0., 0., 0., 0., 0., 0., 0., 0., 0.,
          3.71747208e-003, 0., 0., 0., 0., 0., 0., 0., 0., 0.,
          3.71747208e-003, 0., 0., 0., 0., 0., 7.43494416e-003, 0., 0.,
          0., 0., 3.71747208e-003, 0., 0., 0., 0., 0., 0., 0., 0.,
          7.43494416e-003, 0., 0., 0., 0., 0., 0., 0., 0., 0., 0., 0.,
          0., 0., 0., 0., 0., 0., 3.71747208e-003, 0., 0., 0., 0., 0.,
          7.43494416e-003, 0., 0., 0., 0., 0., 0., 0., 0., 0.,
          3.71747208e-003, 0., 0., 0., 0., 3.71747208e-003,
          3.71747208e-003, 0., 0., 0., 0., 0., 0., 7.43494416e-003, 0.,
          0., 0., 0., 0., 0., 0., 0., 0., 7.43494416e-003, 0., 0., 0.,
          1.48698883e-002, 0., 0., 0., 0., 0., 3.71747208e-003, 0., 0.,
          0., 0., 0., 0., 3.71747208e-003, 0., 0., 0., 0., 0.,
          3.71747208e-003, 0., 0., 0., 0., 3.71747208e-003, 0., 0., 0.,
          0., 0., 0., 3.71747208e-003, 0., 0., 0., 0., 0., 0., 0., 0.,
          0., 0., 0., 0., 0., 0., 0., 0., 0., 0., 3.71747208e-003,
          3.71747208e-003, 0., 0., 3.71747208e-003, 0., 0., 0.,
          7.43494416e-003, 0., 3.71747208e-003, 0., 0., 0.,
          3.71747208e-003, 3.71747208e-003, 0., 0., 0., 3.71747208e-003,
          0., 0., 0., 0., 3.71747208e-003, 0., 0., 0., 0., 0., 0., 0.,
          0., 0., 0., 0., 3.71747208e-003, 0., 0., 0., 0., 0., 0.,
          3.71747208e-003, 0., 0., 0., 0., 0., 0., 0., 0., 0., 0., 0.,
          0., 0., 0., 0., 0., 0., 0., 0., 0., 3.71747208e-003, 0., 0.,
          0., 7.43494416e-003, 0., 0., 7.43494416e-003, 0., 0.,
          3.71747208e-003, 0., 0., 0., 0., 0., 0., 0., 1.11524165e-002,
          0., 7.43494416e-003, 0., 0., 0., 0., 0., 0., 0., 0.,
          7.43494416e-003, 0., 0., 0., 7.43494416e-003, 0., 0., 0., 0.,
          0., 0., 3.71747208e-003, 0., 0., 0., 0., 0., 3.71747208e-003,
          0., 0., 0., 0., 0., 0., 0., 0., 0., 0., 0., 0., 0., 0., 0., 0.,
          0., 0., 0., 3.71747208e-003, 0., 0., 0., 0., 0., 0.,
          3.71747208e-003, 7.43494416e-003, 0., 7.43494416e-003, 0., 0.,
          0., 0., 0., 0., 3.71747208e-003, 0., 0., 3.71747208e-003, 0.,
          0., 0., 0., 0., 3.71747208e-003, 0., 0., 7.43494416e-003,
          3.71747208e-003, 0., 0., 0., 0., 0., 0., 3.71747208e-003, 0.,
          0., 0., 0., 0., 0., 1.11524165e-002, 0., 0., 0.,
          3.71747208e-003, 0., 0., 0., 0., 0., 0., 0., 0., 0., 0., 0.,
          0., 0., 0., 0., 0., 0., 0., 0., 3.71747208e-003, 0., 0.,
          7.43494416e-003, 0., 0., 3.71747208e-003, 0., 0., 0., 0., 0.,
          0., 1.11524165e-002, 0., 3.71747208e-003, 0., 3.71747208e-003,
          0., 0., 0., 0., 0., 0., 0., 0., 0., 0., 0., 0., 0.,
          7.43494416e-003, 0., 1.11524165e-002, 0., 0., 0.,
          3.71747208e-003, 0., 0., 0., 0., 0., 3.71747208e-003, 0., 0.,
          0., 0., 0., 3.71747208e-003, 7.43494416e-003, 0., 0., 0., 0.,
          0., 0., 0., 0., 0., 0., 0., 0., 0., 0., 0., 0.,
          3.71747208e-003, 0., 3.71747208e-003, 0., 0., 0.,
          3.71747208e-003, 0., 7.43494416e-003, 0., 0., 3.71747208e-003,
          0., 3.71747208e-003, 1.11524165e-002, 7.43494416e-003, 0., 0.,
          3.71747208e-003, 0., 0., 0., 0., 0., 0., 3.71747208e-003, 0.,
          0., 0., 0., 3.71747208e-003, 0., 0., 0., 0., 0.,
          3.71747208e-003, 3.71747208e-003, 0., 3.71747208e-003, 0., 0.,
          0., 0., 3.71747208e-003, 0., 3.71747208e-003, 0., 0., 0., 0.,
          7.43494416e-003, 0., 3.71747208e-003, 0., 0., 0., 0., 0.,
          3.71747208e-003, 0., 0., 0., 0., 0., 0., 3.71747208e-003, 0.,
          0., 0., 0., 0., 0., 0., 0., 0., 0., 0., 0., 0., 0., 0., 0., 0.,
          0., 0., 0., 0., 0., 0., 0., 3.71747208e-003, 0., 0., 0., 0.,
          0., 0., 0., 0., 0., 0., 0., 3.71747208e-003, 0., 0., 0., 0.,
          0., 0., 3.71747208e-003, 0., 0., 0., 0., 1.11524165e-002,
          3.71747208e-003, 0., 3.71747208e-003, 0., 3.71747208e-003, 0.,
          0., 0., 0., 3.71747208e-003, 0., 0., 0., 3.71747208e-003, 0.,
          0., 0. ]
      - [ 0., 0., 7.87401572e-003, 0., 0., 0., 0., 0., 0., 0., 0., 0.,
          0., 0., 0., 3.93700786e-003, 7.87401572e-003, 0., 0.,
          7.87401572e-003, 0., 0., 0., 0., 0., 0., 0., 3.93700786e-003,
          0., 0., 3.93700786e-003, 7.87401572e-003, 0., 0., 0., 0., 0.,
          0., 0., 3.93700786e-003, 0., 0., 0., 0., 0., 0., 0.,
          3.93700786e-003, 0., 0., 0., 0., 0., 0., 0., 0., 0., 0.,
          1.18110236e-002, 0., 0., 0., 0., 0., 5.11811003e-002,
          3.93700786e-003, 0., 0., 0., 0., 0., 0., 0., 0., 0.,
          3.93700786e-003, 0., 0., 3.93700786e-003, 0., 0., 0., 0., 0.,
          3.93700786e-003, 0., 0., 0., 0., 0., 0., 0., 3.93700786e-003,
          0., 0., 3.93700786e-003, 0., 0., 0., 1.57480314e-002, 0., 0.,
          0., 0., 0., 0., 0., 3.93700786e-003, 0., 0., 3.93700786e-003,
          3.93700786e-003, 0., 7.87401572e-003, 3.93700786e-003, 0., 0.,
          0., 3.93700786e-003, 0., 0., 0., 0., 0., 0., 0.,
          3.93700786e-003, 0., 0., 0., 3.93700786e-003, 0., 0.,
          3.93700786e-003, 7.87401572e-003, 0., 0., 0., 1.18110236e-002,
          0., 0., 0., 2.75590550e-002, 0., 0., 3.93700786e-003, 0., 0.,
          0., 3.93700786e-003, 0., 0., 0., 0., 0., 0., 0., 0., 0.,
          3.93700786e-003, 0., 0., 0., 0., 0., 3.93700786e-003, 0., 0.,
          0., 0., 0., 0., 0., 7.87401572e-003, 0., 0., 0., 0., 0., 0.,
          0., 3.93700786e-003, 1.18110236e-002, 7.87401572e-003,
          7.87401572e-003, 0., 3.93700786e-003, 0., 0., 3.93700786e-003,
          0., 0., 0., 0., 0., 0., 3.93700786e-003, 0., 0., 0., 0., 0.,
          0., 7.87401572e-003, 0., 0., 0., 0., 0., 3.93700786e-003, 0.,
          0., 0., 0., 0., 3.93700786e-003, 0., 1.96850393e-002, 0., 0.,
          0., 0., 0., 0., 3.93700786e-003, 0., 0., 0., 0.,
          3.93700786e-003, 0., 0., 0., 0., 0., 3.93700786e-003, 0., 0.,
          7.87401572e-003, 0., 0., 0., 0., 3.93700786e-003,
          1.18110236e-002, 0., 0., 0., 0., 0., 0., 0., 0., 0., 0., 0.,
          0., 0., 0., 3.93700786e-003, 0., 0., 0., 0., 0., 0., 0., 0.,
          0., 0., 0., 0., 0., 0., 7.87401572e-003, 0., 3.93700786e-003,
          0., 0., 7.87401572e-003, 0., 0., 0., 0., 0., 3.93700786e-003,
          0., 0., 0., 0., 0., 1.18110236e-002, 0., 0., 0.,
          3.93700786e-003, 0., 0., 3.93700786e-003, 0., 0., 0., 0., 0.,
          0., 0., 0., 0., 0., 0., 0., 0., 0., 0., 3.93700786e-003, 0.,
          0., 0., 0., 0., 0., 0., 0., 0., 0., 0., 0., 0., 0., 0., 0., 0.,
          0., 0., 0., 0., 3.93700786e-003, 0., 0., 3.93700786e-003, 0.,
          0., 0., 3.93700786e-003, 0., 0., 0., 0., 0., 0.,
          7.87401572e-003, 0., 0., 3.93700786e-003, 0., 0., 0., 0.,
          1.57480314e-002, 0., 0., 0., 0., 0., 0., 0., 0., 0.,
          3.93700786e-003, 0., 0., 0., 7.87401572e-003, 0., 0., 0., 0.,
          0., 0., 0., 0., 0., 0., 0., 3.93700786e-003, 0., 0.,
          7.87401572e-003, 0., 0., 0., 0., 0., 0., 0., 3.93700786e-003,
          0., 0., 7.87401572e-003, 0., 3.93700786e-003, 0., 0., 0., 0.,
          0., 0., 0., 3.93700786e-003, 0., 0., 0., 0., 0., 0., 0., 0.,
          0., 0., 0., 0., 0., 0., 3.93700786e-003, 0., 0., 0., 0., 0.,
          0., 0., 3.93700786e-003, 7.87401572e-003, 3.93700786e-003, 0.,
          0., 0., 0., 0., 0., 3.93700786e-003, 3.93700786e-003, 0., 0.,
          0., 0., 0., 0., 0., 0., 0., 0., 0., 0., 0., 0., 0., 0., 0., 0.,
          0., 0., 0., 0., 0., 0., 7.87401572e-003, 0., 0.,
          3.93700786e-003, 0., 3.14960629e-002, 0., 0., 0., 0.,
          3.93700786e-003, 0., 0., 0., 0., 7.87401572e-003, 0., 0., 0.,
          0., 0., 0., 0., 0., 0., 0., 0., 0., 0., 0., 0., 0., 0., 0.,
          3.93700786e-003, 0., 0., 0., 0., 0., 0., 0., 0., 0., 0., 0.,
          0., 0., 0., 0., 0., 0., 0., 0., 0., 7.87401572e-003, 0., 0.,
          0., 0., 0., 0., 0., 3.93700786e-003, 0., 0., 0., 0., 0., 0.,
          0., 0., 0., 0., 0., 0., 0., 0., 0., 0., 0., 0.,
          3.93700786e-003, 0., 0., 0., 1.57480314e-002, 0., 0., 0., 0.,
          0., 3.93700786e-003, 0., 0., 0., 0., 0., 3.93700786e-003,
          3.93700786e-003, 0., 0., 0., 0., 0., 0., 0., 0., 0.,
          3.93700786e-003, 3.93700786e-003, 0., 0., 0., 0., 0., 0., 0.,
          0., 0., 0., 0., 0., 0., 0., 0., 0., 0., 0., 0., 0., 0., 0., 0.,
          0., 0., 0., 7.87401572e-003, 0., 0., 0., 0., 0.,
          2.36220472e-002, 7.87401572e-003, 0., 3.93700786e-003, 0., 0.,
          0., 3.93700786e-003, 0., 0., 3.93700786e-003, 0., 0., 0., 0.,
          0., 0., 0., 0., 0., 0., 0., 0., 0., 0., 0., 0., 0.,
          3.93700786e-003, 0., 3.93700786e-003, 0., 0., 0., 0., 0., 0.,
          0., 0., 0., 0., 0., 0., 0., 3.93700786e-003, 3.93700786e-003,
          0., 0., 0., 0., 3.93700786e-003, 7.87401572e-003, 0., 0., 0.,
          0., 0., 3.93700786e-003, 0., 0., 3.93700786e-003, 0., 0., 0.,
          0., 0., 0., 1.18110236e-002, 3.93700786e-003, 0., 0., 0., 0.,
          0., 0., 0., 0., 0., 0., 0., 0., 7.87401572e-003, 0., 0., 0.,
          3.93700786e-003, 0., 0., 0., 0., 7.87401572e-003, 0., 0., 0.,
          0., 0., 0., 1.18110236e-002, 0., 0., 0., 0., 0.,
          3.93700786e-003, 0., 0., 0., 0., 0., 0., 0., 3.93700786e-003,
          0., 0., 0., 0., 3.93700786e-003, 3.93700786e-003, 0., 0., 0.,
          0., 0., 0., 3.93700786e-003, 0., 0., 0., 0., 0., 0.,
          7.87401572e-003, 0., 3.93700786e-003, 0., 0., 3.93700786e-003,
          0., 0., 0., 0., 0., 0., 0., 0., 0., 0., 0., 0.,
          3.93700786e-003, 0., 0., 3.93700786e-003, 3.93700786e-003, 0.,
          0., 7.87401572e-003, 0., 0., 0., 7.87401572e-003, 0., 0., 0.,
          0., 0., 0., 0., 0., 0., 0., 0., 0., 0., 0., 0., 0., 0., 0., 0.,
          0., 0., 0., 0., 0., 0., 3.93700786e-003, 0., 0., 0., 0., 0.,
          0., 0., 0., 0., 0., 3.93700786e-003, 0., 0., 0., 0., 0., 0.,
          0., 0., 0., 0., 0., 0., 0., 0., 0., 0., 0., 0., 0., 0., 0., 0.,
          0., 0., 3.93700786e-003, 0., 0., 0., 0., 3.93700786e-003,
          7.87401572e-003, 0., 0., 0., 7.87401572e-003, 0., 0., 0., 0.,
          0., 0., 0., 0., 7.87401572e-003, 0., 0., 0., 3.93700786e-003,
          0., 0., 0., 0., 0., 0., 0., 0., 0., 0., 0., 0.,
          3.93700786e-003, 0., 0., 0., 0., 0., 7.87401572e-003, 0.,
          3.93700786e-003, 0., 0., 0., 0., 3.93700786e-003,
          7.87401572e-003, 3.93700786e-003, 0., 0., 7.87401572e-003,
          7.87401572e-003, 0., 0., 0., 0., 0., 0., 0., 0., 0., 0., 0.,
          0., 0., 0., 0., 0., 3.93700786e-003, 0., 0., 0., 0., 0., 0.,
          0., 0., 3.93700786e-003, 0., 3.93700786e-003, 0., 0., 0., 0.,
          0., 0., 3.93700786e-003, 0., 0., 0., 3.93700786e-003,
          3.93700786e-003, 0., 0., 0., 0., 0., 0., 0., 0., 0., 0., 0.,
          0., 0., 0., 0., 0., 3.93700786e-003, 3.93700786e-003, 0., 0.,
          0., 0., 0., 0., 1.18110236e-002, 0., 0., 0., 0., 0., 0., 0.,
          0., 0., 0., 0., 0., 0., 0., 0., 0., 3.93700786e-003, 0.,
          3.93700786e-003, 0., 3.93700786e-003, 0., 0., 0., 0., 0., 0.,
          0., 0., 0., 3.93700786e-003, 0., 0., 0., 0., 0., 0., 0., 0.,
          0., 0., 0., 0., 0., 0., 0., 3.93700786e-003, 0. ]
      - [ 0., 0., 1.36054419e-002, 0., 0., 0., 1.02040814e-002,
          1.36054419e-002, 0., 0., 3.40136047e-003, 0., 0., 0., 0., 0.,
          0., 0., 0., 0., 0., 0., 0., 0., 3.40136047e-003, 0., 0.,
          1.02040814e-002, 0., 0., 3.40136047e-003, 3.40136047e-003, 0.,
          0., 0., 0., 0., 0., 0., 3.40136047e-003, 0., 0., 0., 0., 0.,
          3.40136047e-003, 0., 3.40136047e-003, 0., 3.40136047e-003, 0.,
          0., 0., 3.40136047e-003, 0., 0., 0., 0., 3.40136047e-003, 0.,
          0., 0., 0., 0., 5.44217676e-002, 0., 0., 0., 0., 0., 0., 0.,
          0., 0., 0., 0., 0., 0., 3.40136047e-003, 3.40136047e-003, 0.,
          0., 0., 0., 3.40136047e-003, 0., 0., 0., 0., 0., 0., 0., 0.,
          0., 0., 3.40136047e-003, 3.40136047e-003, 0., 0.,
          1.36054419e-002, 0., 0., 0., 0., 0., 0., 0., 0., 0., 0.,
          3.40136047e-003, 3.40136047e-003, 0., 0., 0., 0., 0., 0., 0.,
          3.40136047e-003, 0., 0., 0., 3.40136047e-003, 0., 0.,
          3.40136047e-003, 0., 0., 0., 0., 3.40136047e-003,
          1.02040814e-002, 0., 0., 0., 0., 0., 3.40136047e-003,
          6.80272095e-003, 0., 0., 3.74149643e-002, 0., 0., 0., 0., 0.,
          0., 3.40136047e-003, 0., 0., 0., 3.06122452e-002,
          6.80272095e-003, 0., 0., 0., 0., 3.40136047e-003, 0.,
          3.40136047e-003, 0., 0., 0., 0., 0., 0., 0., 0., 0., 0., 0.,
          3.40136047e-003, 0., 0., 0., 0., 0., 0., 0., 0., 0.,
          1.36054419e-002, 0., 0., 0., 0., 3.40136047e-003,
          6.80272095e-003, 0., 0., 0., 0., 0., 0., 0., 0.,
          3.40136047e-003, 0., 0., 0., 0., 0., 0., 3.40136047e-003, 0.,
          0., 0., 0., 0., 6.80272095e-003, 0., 0., 0., 3.40136047e-003,
          0., 2.72108838e-002, 0., 0., 0., 0., 0., 0., 0., 0., 0., 0.,
          0., 6.80272095e-003, 0., 0., 0., 0., 0., 1.02040814e-002, 0.,
          0., 3.40136047e-003, 0., 0., 0., 0., 3.40136047e-003,
          3.40136047e-003, 0., 0., 3.40136047e-003, 0., 0., 0., 0.,
          1.02040814e-002, 0., 0., 0., 0., 0., 0., 0., 0., 0., 0.,
          3.40136047e-003, 0., 0., 0., 0., 0., 0., 0., 0.,
          3.40136047e-003, 0., 3.40136047e-003, 0., 3.40136047e-003, 0.,
          0., 3.40136047e-003, 0., 3.40136047e-003, 0., 0.,
          6.80272095e-003, 0., 0., 0., 0., 0., 0., 0., 0., 0., 0., 0.,
          0., 0., 3.40136047e-003, 0., 0., 0., 0., 0., 0.,
          3.40136047e-003, 0., 0., 0., 0., 3.40136047e-003,
          6.80272095e-003, 0., 1.02040814e-002, 3.40136047e-003, 0.,
          3.40136047e-003, 0., 0., 0., 0., 0., 0., 0., 0., 0., 0., 0.,
          0., 0., 0., 0., 0., 0., 3.40136047e-003, 0., 0.,
          3.40136047e-003, 0., 6.80272095e-003, 0., 0., 0., 0., 0., 0.,
          0., 0., 0., 0., 3.40136047e-003, 3.40136047e-003, 0., 0., 0.,
          0., 0., 0., 0., 0., 0., 0., 3.40136047e-003, 0., 0., 0., 0.,
          0., 3.40136047e-003, 0., 0., 3.40136047e-003, 0., 0., 0., 0.,
          0., 0., 0., 0., 0., 0., 0., 0., 0., 0., 0., 6.80272095e-003,
          0., 0., 0., 0., 0., 0., 3.40136047e-003, 0., 0., 0.,
          3.40136047e-003, 0., 3.40136047e-003, 0., 0., 0., 0.,
          6.80272095e-003, 0., 0., 3.40136047e-003, 0., 0., 0., 0., 0.,
          3.40136047e-003, 3.40136047e-003, 0., 0., 0., 0., 0., 0., 0.,
          3.40136047e-003, 6.80272095e-003, 0., 0., 0., 3.40136047e-003,
          0., 0., 0., 6.80272095e-003, 0., 0., 0., 0., 0., 0., 0., 0.,
          0., 0., 0., 0., 0., 0., 0., 0., 0., 0., 3.40136047e-003,
          6.80272095e-003, 0., 0., 0., 0., 0., 0., 0., 0.,
          3.40136047e-003, 0., 0., 0., 0., 3.40136047e-003, 0., 0.,
          6.80272095e-003, 0., 2.38095224e-002, 0., 0., 0.,
          3.40136047e-003, 0., 0., 3.40136047e-003, 0., 0., 0., 0., 0.,
          0., 0., 0., 3.40136047e-003, 0., 0., 0., 0., 0., 0., 0., 0.,
          0., 0., 0., 0., 0., 6.80272095e-003, 3.40136047e-003, 0., 0.,
          0., 0., 0., 0., 0., 0., 0., 0., 1.02040814e-002, 0., 0., 0.,
          0., 0., 0., 0., 1.02040814e-002, 0., 0., 0., 0., 0., 0., 0.,
          0., 0., 0., 0., 0., 0., 0., 0., 0., 0., 0., 0., 0., 0., 0.,
          6.80272095e-003, 0., 3.40136047e-003, 0., 6.80272095e-003, 0.,
          0., 0., 0., 0., 0., 0., 0., 0., 0., 0., 0., 0., 0., 0.,
          3.40136047e-003, 3.40136047e-003, 0., 0., 0., 0., 0.,
          1.02040814e-002, 0., 0., 0., 3.40136047e-003, 3.40136047e-003,
          0., 0., 0., 0., 0., 0., 0., 0., 0., 0., 0., 0., 0., 0., 0., 0.,
          0., 0., 0., 0., 0., 0., 0., 0., 0., 0., 0., 0., 0.,
          3.40136047e-003, 0., 0., 3.40136047e-003, 6.80272095e-003, 0.,
          0., 0., 0., 3.40136047e-003, 0., 0., 0., 3.40136047e-003, 0.,
          0., 0., 0., 0., 0., 3.40136047e-003, 0., 0., 0., 0., 0., 0.,
          0., 3.40136047e-003, 0., 0., 0., 0., 3.40136047e-003, 0., 0.,
          0., 3.40136047e-003, 0., 0., 0., 0., 0., 0., 0., 0., 0., 0.,
          0., 0., 0., 0., 0., 3.40136047e-003, 3.40136047e-003, 0., 0.,
          3.40136047e-003, 0., 0., 3.40136047e-003, 0., 0., 0.,
          3.40136047e-003, 0., 0., 0., 0., 0., 0., 0., 0., 0., 0., 0.,
          0., 0., 0., 6.80272095e-003, 0., 0., 0., 0., 0., 0., 0., 0.,
          0., 0., 0., 0., 0., 3.40136047e-003, 0., 0., 0., 0., 0., 0.,
          3.40136047e-003, 0., 6.80272095e-003, 0., 0., 0.,
          3.40136047e-003, 0., 0., 0., 0., 0., 6.80272095e-003, 0., 0.,
          0., 0., 0., 0., 0., 0., 0., 0., 0., 0., 0., 0., 0., 0., 0., 0.,
          0., 0., 6.80272095e-003, 3.40136047e-003, 0., 6.80272095e-003,
          0., 0., 3.40136047e-003, 0., 0., 0., 0., 0., 0., 0., 0., 0.,
          0., 0., 0., 3.40136047e-003, 0., 3.40136047e-003, 0.,
          6.80272095e-003, 0., 0., 3.40136047e-003, 0., 0., 0.,
          6.80272095e-003, 0., 0., 0., 0., 3.40136047e-003, 0., 0., 0.,
          0., 0., 0., 0., 0., 3.40136047e-003, 0., 0., 0., 0., 0., 0.,
          0., 0., 0., 0., 0., 0., 0., 0., 0., 0., 6.80272095e-003, 0.,
          0., 0., 0., 0., 0., 0., 0., 0., 0., 3.40136047e-003, 0.,
          3.40136047e-003, 0., 3.40136047e-003, 0., 0., 0., 0., 0., 0.,
          0., 0., 0., 0., 0., 0., 1.02040814e-002, 3.40136047e-003,
          6.80272095e-003, 0., 0., 1.70068033e-002, 0., 0., 0., 0., 0.,
          0., 0., 0., 0., 0., 2.04081628e-002, 0., 0., 0., 0., 0., 0.,
          0., 0., 0., 0., 0., 0., 0., 0., 0., 0., 0., 0., 0., 0., 0., 0.,
          3.40136047e-003, 0., 0., 3.40136047e-003, 0., 3.40136047e-003,
          6.80272095e-003, 0., 1.36054419e-002, 3.40136047e-003, 0., 0.,
          0., 3.40136047e-003, 6.80272095e-003, 0., 3.40136047e-003,
          3.40136047e-003, 6.80272095e-003, 0., 0., 0., 0., 0., 0., 0.,
          0., 0., 0., 0., 0., 0., 0., 0., 0., 0., 3.40136047e-003, 0.,
          0., 0., 0., 0., 0., 0., 3.40136047e-003, 0., 3.40136047e-003,
          3.40136047e-003, 0., 0., 0., 0., 0., 0., 3.40136047e-003, 0.,
          0., 0., 0., 3.40136047e-003, 0., 0., 0., 0., 0., 0., 0.,
          3.40136047e-003, 0., 0., 0., 0., 0., 0., 0., 0.,
          3.40136047e-003, 0., 0., 0., 0., 0., 0., 0., 0., 0.,
          6.80272095e-003, 0., 0., 0., 0., 0., 0., 0., 0., 0., 0., 0.,
          0., 0., 0., 0., 0., 0., 0., 0., 0., 0., 0., 0., 0., 0., 0., 0.,
          0., 0., 0., 0., 0., 0., 0., 3.40136047e-003, 0., 0.,
          3.40136047e-003, 0., 0., 0., 0., 0., 0., 1.36054419e-002, 0. ]
      - [ 0., 0., 0., 0., 0., 0., 8.43881816e-003, 0., 0., 0., 0., 0.,
          4.21940908e-003, 0., 0., 4.21940908e-003, 4.21940908e-003, 0.,
          0., 0., 0., 0., 0., 0., 0., 0., 0., 0., 0., 0., 0.,
          4.21940908e-003, 0., 0., 0., 0., 0., 0., 0., 8.43881816e-003,
          0., 0., 0., 0., 0., 0., 0., 0., 0., 0., 0., 0., 0., 0.,
          8.43881816e-003, 0., 4.21940908e-003, 0., 0., 0., 0., 0., 0.,
          0., 1.68776363e-002, 0., 0., 4.21940908e-003, 0., 0., 0., 0.,
          0., 0., 0., 0., 0., 0., 0., 0., 0., 0., 8.43881816e-003, 0.,
          0., 0., 0., 0., 4.21940908e-003, 0., 0., 0., 4.21940908e-003,
          0., 0., 0., 0., 0., 4.21940908e-003, 4.21940908e-003, 0.,
          4.21940908e-003, 0., 0., 0., 4.21940908e-003, 0., 0., 0., 0.,
          0., 8.43881816e-003, 0., 0., 0., 0., 0., 4.21940908e-003, 0.,
          0., 0., 4.21940908e-003, 0., 0., 0., 0., 0., 0., 0., 0., 0.,
          0., 4.21940908e-003, 4.21940908e-003, 4.21940908e-003, 0., 0.,
          0., 4.21940908e-003, 4.21940908e-003, 0., 0., 8.43881816e-003,
          0., 0., 0., 0., 0., 0., 0., 0., 0., 0., 0., 0., 0., 0., 0., 0.,
          4.21940908e-003, 0., 0., 0., 0., 0., 8.43881816e-003,
          4.21940908e-003, 0., 0., 0., 4.21940908e-003, 0., 0., 0., 0.,
          0., 0., 0., 0., 0., 0., 0., 4.21940908e-003, 1.26582272e-002,
          0., 0., 0., 0., 0., 4.21940908e-003, 0., 0., 0.,
          4.21940908e-003, 0., 0., 4.21940908e-003, 0., 0., 0., 0., 0.,
          0., 8.43881816e-003, 0., 0., 0., 0., 0., 0., 0., 0., 0., 0.,
          0., 0., 4.21940908e-003, 8.43881816e-003, 0., 0., 0., 0., 0.,
          0., 0., 0., 4.21940908e-003, 0., 0., 1.26582272e-002, 0., 0.,
          0., 0., 0., 0., 0., 0., 8.43881816e-003, 0., 0., 0., 0.,
          4.21940908e-003, 0., 0., 0., 0., 0., 0., 0., 0.,
          4.21940908e-003, 0., 0., 0., 0., 0., 0., 0., 0., 0., 0., 0.,
          0., 0., 0., 4.21940908e-003, 0., 0., 0., 0., 0., 0.,
          8.43881816e-003, 0., 8.43881816e-003, 0., 0., 0., 0., 0., 0.,
          0., 0., 0., 0., 0., 1.26582272e-002, 0., 0., 0., 0., 0., 0.,
          8.43881816e-003, 0., 0., 4.21940908e-003, 0., 0., 0.,
          4.21940908e-003, 0., 0., 0., 0., 0., 0., 0., 0., 0., 0., 0.,
          0., 0., 0., 0., 0., 0., 0., 0., 0., 0., 0., 0., 0., 0., 0., 0.,
          4.21940908e-003, 0., 0., 0., 0., 4.21940908e-003, 0., 0., 0.,
          0., 0., 0., 0., 4.21940908e-003, 0., 0., 0., 0., 0., 0., 0.,
          0., 0., 0., 0., 0., 0., 0., 1.26582272e-002, 0., 0., 0., 0.,
          0., 0., 0., 0., 0., 4.21940908e-003, 0., 0., 8.43881816e-003,
          0., 0., 0., 8.43881816e-003, 0., 0., 0., 0., 8.43881816e-003,
          0., 0., 0., 4.21940908e-003, 0., 0., 4.21940908e-003, 0., 0.,
          0., 0., 0., 0., 0., 0., 0., 0., 1.26582272e-002, 0.,
          4.21940908e-003, 0., 0., 0., 0., 4.21940908e-003, 0., 0.,
          4.21940908e-003, 0., 0., 0., 0., 0., 0., 4.21940908e-003, 0.,
          0., 0., 0., 0., 4.21940908e-003, 0., 0., 4.21940908e-003, 0.,
          0., 0., 0., 4.21940908e-003, 0., 2.53164545e-002,
          4.21940908e-003, 1.26582272e-002, 0., 0., 0., 0., 0.,
          4.21940908e-003, 0., 0., 0., 0., 0., 0., 0., 0., 0.,
          4.21940908e-003, 0., 0., 0., 0., 0., 0., 0., 0., 0., 0., 0.,
          4.21940908e-003, 0., 0., 0., 4.21940908e-003, 0., 0., 0., 0.,
          0., 1.26582272e-002, 0., 0., 0., 0., 4.21940908e-003,
          4.21940908e-003, 0., 0., 0., 0., 4.21940908e-003, 0., 0., 0.,
          0., 0., 0., 0., 0., 0., 0., 0., 0., 0., 0., 0., 0., 0., 0., 0.,
          0., 0., 0., 0., 0., 0., 0., 8.43881816e-003, 0., 0., 0.,
          4.21940908e-003, 0., 0., 0., 0., 0., 4.21940908e-003, 0., 0.,
          0., 0., 0., 0., 0., 4.21940908e-003, 0., 0., 4.21940908e-003,
          0., 0., 0., 0., 0., 0., 0., 0., 0., 0., 0., 0., 0.,
          4.21940908e-003, 0., 0., 0., 8.43881816e-003, 4.21940908e-003,
          0., 0., 2.95358635e-002, 0., 0., 0., 0., 0., 0., 0., 0., 0.,
          0., 0., 0., 4.21940908e-003, 0., 0., 0., 0., 0., 0., 0., 0.,
          0., 0., 0., 0., 4.21940908e-003, 0., 0., 0., 0., 0., 0.,
          4.21940908e-003, 0., 0., 0., 0., 0., 0., 0., 0., 0., 0., 0.,
          0., 0., 0., 0., 0., 0., 4.21940908e-003, 0., 4.21940908e-003,
          0., 0., 0., 4.21940908e-003, 8.43881816e-003, 0.,
          8.43881816e-003, 0., 0., 4.21940908e-003, 0., 0., 0., 0., 0.,
          0., 0., 0., 0., 0., 0., 0., 0., 0., 0., 0., 0., 0., 0., 0., 0.,
          4.21940908e-003, 0., 0., 0., 0., 0., 8.43881816e-003, 0., 0.,
          0., 0., 0., 0., 0., 0., 0., 0., 4.21940908e-003, 0., 0., 0.,
          0., 0., 4.21940908e-003, 0., 0., 0., 0., 0., 0., 0., 0., 0.,
          0., 0., 0., 4.21940908e-003, 0., 0., 4.21940908e-003,
          4.21940908e-003, 0., 0., 0., 0., 0., 0., 0., 0., 0., 0., 0.,
          0., 0., 0., 0., 0., 0., 4.21940908e-003, 0., 0., 0.,
          4.21940908e-003, 0., 0., 0., 0., 0., 0., 8.43881816e-003, 0.,
          8.43881816e-003, 0., 0., 0., 8.43881816e-003, 0., 0., 0., 0.,
          0., 0., 0., 0., 0., 0., 0., 0., 4.21940908e-003,
          8.43881816e-003, 0., 0., 0., 0., 0., 4.21940908e-003, 0., 0.,
          0., 0., 0., 0., 8.43881816e-003, 0., 0., 8.43881816e-003, 0.,
          0., 0., 0., 0., 0., 0., 0., 4.21940908e-003, 4.21940908e-003,
          0., 0., 0., 0., 0., 1.26582272e-002, 0., 4.21940908e-003,
          8.43881816e-003, 4.21940908e-003, 0., 0., 4.21940908e-003, 0.,
          0., 0., 0., 0., 0., 0., 0., 0., 0., 1.68776363e-002, 0., 0.,
          4.21940908e-003, 4.21940908e-003, 0., 0., 0., 0., 0., 0., 0.,
          0., 0., 0., 0., 0., 0., 0., 4.21940908e-003, 0., 0., 0., 0.,
          4.21940908e-003, 0., 0., 0., 0., 0., 0., 0., 0., 0., 0., 0.,
          0., 0., 0., 0., 0., 0., 0., 0., 0., 0., 0., 0., 0., 0., 0., 0.,
          0., 8.43881816e-003, 4.21940908e-003, 4.21940908e-003, 0.,
          8.43881816e-003, 0., 0., 4.21940908e-003, 1.68776363e-002, 0.,
