%YAML:1.0
my_svm: !!opencv-ml-svm
   svm_type: C_SVC
   kernel: { type:RBF, gamma:1. }
   C: 1.
   term_criteria: { epsilon:1.1920928955078125e-007, iterations:1000 }
   var_all: 1000
   var_count: 1000
   class_count: 2
   class_labels: !!opencv-matrix
      rows: 1
      cols: 2
      dt: i
      data: [ 0, 1 ]
   sv_total: 102
   support_vectors:
      - [ 0., 0., 8.26446246e-003, 0., 0., 0., 4.13223123e-003, 0., 0.,
          0., 0., 0., 0., 0., 8.26446246e-003, 0., 0., 0., 0., 0., 0.,
          0., 0., 0., 0., 8.26446246e-003, 0., 4.13223123e-003, 0., 0.,
          0., 0., 0., 0., 0., 0., 0., 0., 0., 4.13223123e-003,
          4.13223123e-003, 0., 0., 0., 8.26446246e-003, 0., 0., 0.,
          4.13223123e-003, 0., 4.13223123e-003, 4.13223123e-003, 0., 0.,
          0., 0., 0., 0., 0., 0., 1.23966932e-002, 0., 0., 0.,
          1.65289249e-002, 0., 0., 4.13223123e-003, 0., 4.13223123e-003,
          4.13223123e-003, 8.26446246e-003, 0., 8.26446246e-003, 0., 0.,
          0., 0., 4.13223123e-003, 8.26446246e-003, 0., 0.,
          4.13223123e-003, 0., 0., 0., 0., 0., 0., 4.13223123e-003, 0.,
          0., 4.13223123e-003, 4.13223123e-003, 0., 0., 0., 0., 0., 0.,
          0., 0., 0., 8.26446246e-003, 0., 0., 0., 8.26446246e-003, 0.,
          0., 0., 0., 0., 0., 0., 0., 0., 0., 0., 0., 0., 0., 0., 0., 0.,
          0., 0., 0., 0., 4.13223123e-003, 4.13223123e-003, 0., 0.,
          4.13223123e-003, 8.26446246e-003, 8.26446246e-003, 0., 0., 0.,
          0., 0., 0., 0., 0., 4.13223123e-003, 0., 0., 0., 0., 0., 0.,
          0., 0., 0., 0., 0., 0., 4.13223123e-003, 0., 0., 0.,
          8.26446246e-003, 0., 0., 0., 0., 0., 0., 0., 0., 0., 0.,
          4.13223123e-003, 0., 0., 0., 4.13223123e-003, 0., 0., 0., 0.,
          0., 4.13223123e-003, 0., 4.13223123e-003, 0., 0.,
          4.13223123e-003, 0., 0., 0., 0., 0., 0., 0., 4.13223123e-003,
          0., 0., 4.13223123e-003, 0., 0., 0., 4.13223123e-003,
          8.26446246e-003, 0., 0., 4.13223123e-003, 0., 0., 0.,
          8.26446246e-003, 0., 0., 4.13223123e-003, 4.13223123e-003, 0.,
          0., 0., 0., 0., 0., 4.13223123e-003, 4.13223123e-003, 0.,
          8.26446246e-003, 0., 0., 4.13223123e-003, 0., 4.13223123e-003,
          0., 0., 0., 0., 0., 0., 4.13223123e-003, 0., 0., 0., 0., 0.,
          0., 8.26446246e-003, 0., 0., 0., 0., 4.13223123e-003,
          4.13223123e-003, 0., 0., 4.13223123e-003, 0., 0., 0., 0., 0.,
          0., 0., 0., 0., 0., 8.26446246e-003, 0., 4.13223123e-003, 0.,
          0., 4.13223123e-003, 0., 0., 0., 4.13223123e-003, 0., 0., 0.,
          0., 0., 0., 0., 0., 4.13223123e-003, 4.13223123e-003, 0.,
          4.13223123e-003, 0., 4.13223123e-003, 0., 0., 0.,
          8.26446246e-003, 4.13223123e-003, 8.26446246e-003, 0.,
          8.26446246e-003, 0., 0., 0., 0., 0., 4.13223123e-003,
          4.13223123e-003, 0., 0., 4.13223123e-003, 0., 0., 0.,
          4.13223123e-003, 0., 0., 0., 0., 8.26446246e-003, 0., 0.,
          4.13223123e-003, 4.13223123e-003, 0., 4.13223123e-003, 0., 0.,
          0., 0., 0., 0., 0., 4.13223123e-003, 0., 0., 4.13223123e-003,
          0., 4.13223123e-003, 0., 0., 0., 0., 0., 4.13223123e-003, 0.,
          8.26446246e-003, 0., 0., 4.13223123e-003, 0., 0., 0., 0.,
          4.13223123e-003, 0., 0., 0., 0., 0., 0., 0., 0., 0., 0., 0.,
          0., 0., 4.13223123e-003, 0., 0., 0., 0., 4.13223123e-003, 0.,
          8.26446246e-003, 0., 0., 8.26446246e-003, 0., 0.,
          4.13223123e-003, 4.13223123e-003, 0., 0., 0., 0., 0., 0., 0.,
          0., 0., 4.13223123e-003, 0., 4.13223123e-003, 0., 0., 0.,
          8.26446246e-003, 0., 0., 0., 0., 0., 0., 0., 0., 0., 0., 0.,
          0., 0., 0., 0., 0., 0., 4.13223123e-003, 0., 0., 0.,
          4.13223123e-003, 0., 0., 4.13223123e-003, 0., 0., 0., 0., 0.,
          4.13223123e-003, 0., 0., 0., 0., 0., 4.13223123e-003, 0., 0.,
          0., 0., 0., 2.06611566e-002, 0., 0., 0., 0., 0., 0., 0., 0.,
          0., 0., 0., 0., 0., 0., 0., 0., 0., 0., 0., 0., 0., 0., 0., 0.,
          0., 0., 0., 0., 0., 0., 0., 4.13223123e-003, 0., 0., 0., 0.,
          0., 0., 0., 0., 0., 0., 0., 0., 0., 0., 0., 0.,
          4.13223123e-003, 0., 0., 4.13223123e-003, 0., 8.26446246e-003,
          4.13223123e-003, 0., 0., 0., 0., 0., 0., 0., 0., 0., 0., 0.,
          0., 0., 4.13223123e-003, 4.13223123e-003, 0., 0.,
          4.13223123e-003, 0., 0., 0., 0., 1.23966932e-002, 0., 0., 0.,
          0., 0., 0., 0., 0., 0., 0., 0., 8.26446246e-003, 0.,
          4.13223123e-003, 4.13223123e-003, 4.13223123e-003, 0., 0., 0.,
          0., 0., 0., 0., 0., 0., 0., 0., 0., 0., 0., 0., 0.,
          4.13223123e-003, 0., 0., 0., 0., 0., 0., 0., 0., 0.,
          4.13223123e-003, 4.13223123e-003, 0., 0., 0., 0., 0., 0.,
          4.13223123e-003, 0., 0., 0., 0., 0., 0., 0., 0., 0., 0.,
          4.13223123e-003, 0., 0., 0., 0., 0., 0., 0., 0., 0., 0., 0.,
          0., 0., 0., 0., 0., 0., 8.26446246e-003, 0., 4.13223123e-003,
          0., 4.13223123e-003, 0., 0., 0., 0., 0., 0., 0., 0., 0., 0.,
          4.13223123e-003, 0., 0., 0., 0., 0., 0., 0., 0., 0.,
          4.13223123e-003, 0., 0., 0., 0., 0., 0., 0., 0., 0.,
          4.13223123e-003, 0., 0., 0., 0., 4.13223123e-003, 0.,
          4.13223123e-003, 4.13223123e-003, 0., 0., 0., 0., 0., 0., 0.,
          4.13223123e-003, 0., 0., 0., 4.13223123e-003, 0.,
          8.26446246e-003, 0., 0., 4.13223123e-003, 0., 0., 0., 0., 0.,
          0., 0., 0., 4.13223123e-003, 0., 0., 4.13223123e-003, 0., 0.,
          0., 0., 0., 0., 0., 0., 4.13223123e-003, 0., 0., 0., 0., 0.,
          0., 0., 0., 0., 0., 0., 0., 0., 4.13223123e-003,
          4.13223123e-003, 4.13223123e-003, 4.13223123e-003, 0.,
          1.23966932e-002, 0., 0., 0., 0., 0., 0., 0., 0., 0., 0., 0.,
          0., 0., 0., 0., 0., 0., 0., 0., 0., 4.13223123e-003, 0.,
          4.13223123e-003, 0., 0., 0., 0., 0., 0., 0., 0., 0., 0., 0.,
          0., 1.65289249e-002, 0., 0., 0., 0., 0., 4.13223123e-003, 0.,
          0., 0., 0., 0., 0., 0., 0., 0., 0., 4.13223123e-003, 0., 0.,
          0., 0., 0., 0., 0., 0., 0., 0., 0., 1.23966932e-002, 0., 0.,
          0., 0., 0., 0., 0., 0., 0., 0., 1.23966932e-002, 0.,
          8.26446246e-003, 0., 0., 0., 0., 0., 0., 0., 4.13223123e-003,
          8.26446246e-003, 0., 0., 8.26446246e-003, 0., 0., 0., 0., 0.,
          0., 0., 0., 0., 4.13223123e-003, 0., 0., 4.13223123e-003, 0.,
          0., 0., 0., 0., 8.26446246e-003, 0., 0., 0., 0., 0.,
          4.13223123e-003, 0., 0., 0., 4.13223123e-003, 0., 0., 0., 0.,
          0., 0., 0., 0., 0., 0., 4.13223123e-003, 0., 0., 0.,
          8.26446246e-003, 0., 4.13223123e-003, 0., 0., 0., 0., 0.,
          4.13223123e-003, 0., 0., 0., 0., 0., 0., 0., 0., 0., 0., 0.,
          0., 0., 0., 0., 0., 0., 0., 4.13223123e-003, 0., 0., 0., 0.,
          0., 0., 0., 0., 0., 0., 1.23966932e-002, 0., 0., 0., 0., 0.,
          0., 0., 0., 0., 0., 0., 0., 0., 0., 0., 0., 0., 0., 0., 0., 0.,
          0., 4.13223123e-003, 4.13223123e-003, 0., 0., 0., 0.,
          4.13223123e-003, 0., 0., 0., 0., 0., 4.13223123e-003, 0.,
          4.13223123e-003, 0., 0., 4.13223123e-003, 0., 0., 0., 0., 0.,
          0., 0., 0., 0., 4.13223123e-003, 4.13223123e-003, 0., 0.,
          4.13223123e-003, 0., 0., 0., 0., 0., 4.13223123e-003, 0., 0.,
          0., 4.13223123e-003, 0., 0., 0., 0., 4.13223123e-003, 0., 0.,
          0., 0., 0., 0., 0., 0., 0., 0., 0., 0., 0., 8.26446246e-003,
          0., 0., 4.13223123e-003, 0., 0., 0., 0., 0., 0., 0., 0., 0.,
          0., 0., 0., 0., 0., 4.13223123e-003, 0., 0., 0., 0., 0.,
          4.13223123e-003, 0., 0., 0., 0., 0., 0., 0., 0.,
          4.13223123e-003, 0., 0., 0., 0., 0., 0., 4.13223123e-003, 0.,
          0., 4.13223123e-003, 0., 0., 0., 4.13223123e-003, 0., 0.,
          2.06611566e-002, 0. ]
      - [ 0., 0., 7.51879718e-003, 0., 0., 0., 0., 1.12781953e-002, 0.,
          0., 0., 0., 0., 0., 7.51879718e-003, 0., 0., 3.75939859e-003,
          0., 3.75939859e-003, 0., 0., 0., 3.75939859e-003, 0.,
          3.75939859e-003, 0., 0., 0., 0., 0., 0., 0., 0., 0., 0., 0.,
          0., 0., 1.12781953e-002, 0., 0., 3.75939859e-003, 0.,
          7.51879718e-003, 0., 3.75939859e-003, 0., 7.51879718e-003, 0.,
          3.75939859e-003, 0., 0., 0., 0., 0., 0., 3.75939859e-003, 0.,
          0., 0., 0., 0., 0., 1.87969934e-002, 3.75939859e-003, 0.,
          7.51879718e-003, 0., 0., 0., 3.75939859e-003, 0., 0., 0.,
          7.51879718e-003, 0., 7.51879718e-003, 3.75939859e-003, 0.,
          7.51879718e-003, 0., 0., 0., 0., 0., 3.75939859e-003,
          3.75939859e-003, 3.75939859e-003, 0., 0., 0., 7.51879718e-003,
          3.75939859e-003, 0., 3.75939859e-003, 0., 0., 0.,
          7.51879718e-003, 0., 0., 0., 0., 3.75939859e-003, 0., 0.,
          3.75939859e-003, 0., 1.12781953e-002, 0., 1.50375944e-002, 0.,
          0., 0., 0., 0., 0., 0., 0., 0., 0., 0., 0., 1.12781953e-002,
          0., 3.75939859e-003, 0., 0., 7.51879718e-003, 3.75939859e-003,
          0., 0., 7.51879718e-003, 0., 0., 0., 0., 0., 0., 0., 0.,
          3.75939859e-003, 0., 7.51879718e-003, 0., 0., 3.75939859e-003,
          0., 0., 0., 0., 0., 1.50375944e-002, 0., 0., 0.,
          3.75939859e-003, 0., 3.75939859e-003, 0., 3.75939859e-003,
          3.75939859e-003, 0., 3.75939859e-003, 0., 0., 0.,
          3.75939859e-003, 0., 0., 0., 0., 0., 0., 0., 0., 0., 0., 0.,
          7.51879718e-003, 0., 3.75939859e-003, 0., 0., 0., 0.,
          3.75939859e-003, 0., 0., 0., 0., 0., 0., 0., 0., 0.,
          3.75939859e-003, 3.75939859e-003, 0., 0., 0., 3.75939859e-003,
          0., 0., 0., 3.75939859e-003, 0., 0., 0., 3.75939859e-003, 0.,
          0., 3.75939859e-003, 0., 0., 3.75939859e-003, 0.,
          3.75939859e-003, 0., 3.75939859e-003, 3.75939859e-003, 0.,
          3.75939859e-003, 0., 0., 0., 3.75939859e-003, 0.,
          1.12781953e-002, 0., 0., 0., 0., 0., 7.51879718e-003,
          3.75939859e-003, 0., 0., 0., 0., 0., 0., 7.51879718e-003, 0.,
          0., 0., 3.75939859e-003, 0., 3.75939859e-003, 0., 0., 0., 0.,
          0., 0., 0., 0., 0., 0., 0., 0., 0., 0., 0., 0., 0., 0., 0.,
          3.75939859e-003, 0., 0., 0., 0., 0., 0., 0., 0., 0., 0., 0.,
          0., 3.75939859e-003, 0., 3.75939859e-003, 0., 3.75939859e-003,
          0., 0., 0., 0., 0., 0., 0., 3.75939859e-003, 3.75939859e-003,
          0., 0., 0., 0., 0., 7.51879718e-003, 0., 0., 0., 0., 0., 0.,
          0., 0., 0., 0., 0., 0., 0., 0., 3.75939859e-003,
          3.75939859e-003, 0., 0., 0., 0., 0., 0., 0., 0., 0., 0., 0.,
          0., 0., 0., 0., 0., 3.75939859e-003, 0., 0., 0., 0.,
          3.75939859e-003, 3.75939859e-003, 3.75939859e-003, 0., 0.,
          3.75939859e-003, 0., 0., 0., 0., 0., 3.75939859e-003,
          3.75939859e-003, 0., 0., 0., 3.75939859e-003, 0., 0.,
          3.75939859e-003, 0., 0., 0., 0., 3.75939859e-003, 0.,
          3.75939859e-003, 0., 3.75939859e-003, 0., 7.51879718e-003, 0.,
          0., 3.75939859e-003, 0., 0., 3.75939859e-003, 0., 0., 0., 0.,
          0., 0., 0., 0., 7.51879718e-003, 0., 0., 0., 3.75939859e-003,
          0., 0., 0., 0., 0., 0., 0., 0., 0., 0., 0., 0., 0.,
          3.75939859e-003, 0., 0., 0., 0., 0., 0., 7.51879718e-003, 0.,
          0., 0., 7.51879718e-003, 3.75939859e-003, 0., 0.,
          3.75939859e-003, 0., 0., 0., 3.75939859e-003, 0., 0., 0., 0.,
          0., 0., 0., 0., 0., 0., 0., 0., 0., 0., 0., 0., 0., 0., 0., 0.,
          0., 0., 0., 0., 0., 3.75939859e-003, 0., 0., 0., 0., 0., 0.,
          0., 0., 0., 0., 0., 0., 0., 3.75939859e-003, 0.,
          3.75939859e-003, 0., 0., 7.51879718e-003, 0., 0., 0., 0., 0.,
          0., 0., 0., 0., 0., 0., 0., 0., 0., 0., 0., 0., 0., 0., 0.,
          3.75939859e-003, 0., 7.51879718e-003, 0., 0., 0., 0., 0., 0.,
          0., 7.51879718e-003, 0., 0., 0., 0., 0., 3.75939859e-003,
          3.75939859e-003, 0., 0., 0., 0., 0., 0., 0., 0.,
          3.75939859e-003, 0., 0., 0., 0., 0., 0., 0., 3.75939859e-003,
          0., 3.75939859e-003, 0., 0., 0., 3.75939859e-003, 0., 0., 0.,
          0., 3.75939859e-003, 0., 0., 0., 0., 0., 0., 3.75939859e-003,
          0., 0., 0., 0., 0., 0., 0., 0., 0., 0., 0., 0., 0., 0., 0., 0.,
          0., 0., 0., 0., 0., 0., 0., 0., 3.75939859e-003,
          3.75939859e-003, 0., 0., 0., 3.75939859e-003, 0.,
          3.75939859e-003, 0., 0., 0., 3.75939859e-003, 0.,
          3.75939859e-003, 0., 0., 0., 0., 3.75939859e-003,
          3.75939859e-003, 0., 0., 0., 0., 3.75939859e-003, 0., 0., 0.,
          3.75939859e-003, 0., 0., 0., 0., 0., 0., 0., 0., 0., 0.,
          3.75939859e-003, 0., 0., 0., 7.51879718e-003, 0.,
          3.75939859e-003, 0., 0., 0., 0., 0., 0., 0., 3.75939859e-003,
          3.75939859e-003, 0., 0., 0., 0., 0., 3.75939859e-003, 0., 0.,
          0., 0., 0., 0., 0., 0., 3.75939859e-003, 0., 0., 0., 0., 0.,
          0., 0., 0., 3.75939859e-003, 0., 0., 0., 0., 0., 0., 0., 0.,
          0., 3.75939859e-003, 7.51879718e-003, 3.75939859e-003, 0., 0.,
          0., 0., 0., 0., 0., 0., 0., 0., 0., 0., 0., 0., 0., 0., 0., 0.,
          0., 7.51879718e-003, 0., 0., 3.75939859e-003, 0., 0., 0., 0.,
          0., 0., 0., 3.75939859e-003, 0., 3.75939859e-003, 0.,
          3.75939859e-003, 0., 0., 0., 0., 0., 0., 0., 0., 0., 0., 0.,
          0., 3.75939859e-003, 0., 0., 0., 0., 0., 0., 0., 0., 0., 0.,
          0., 0., 0., 3.75939859e-003, 3.75939859e-003, 0., 0., 0.,
          3.75939859e-003, 0., 0., 0., 0., 0., 0., 3.75939859e-003,
          3.75939859e-003, 0., 0., 0., 0., 0., 0., 0., 0., 0., 0., 0.,
          0., 0., 0., 0., 0., 0., 0., 0., 3.75939859e-003, 0., 0., 0.,
          0., 3.75939859e-003, 0., 0., 0., 1.12781953e-002, 0., 0., 0.,
          0., 0., 3.75939859e-003, 0., 0., 0., 0., 1.50375944e-002, 0.,
          0., 0., 0., 3.75939859e-003, 0., 0., 0., 3.75939859e-003, 0.,
          0., 0., 0., 1.12781953e-002, 0., 0., 0., 0., 3.75939859e-003,
          3.75939859e-003, 0., 0., 0., 0., 0., 0., 3.75939859e-003, 0.,
          0., 0., 3.75939859e-003, 0., 0., 0., 0., 0., 0., 0., 0.,
          3.75939859e-003, 0., 0., 0., 0., 0., 0., 0., 0., 0., 0., 0.,
          0., 0., 3.75939859e-003, 0., 0., 0., 3.75939859e-003,
          3.75939859e-003, 3.75939859e-003, 0., 0., 0., 0., 0.,
          3.75939859e-003, 0., 0., 0., 0., 3.75939859e-003, 0.,
          3.75939859e-003, 0., 3.75939859e-003, 0., 0., 0., 0., 0., 0.,
          0., 0., 0., 0., 0., 0., 0., 0., 0., 0., 0., 0., 0., 0., 0.,
          7.51879718e-003, 0., 0., 0., 0., 0., 0., 0., 7.51879718e-003,
          1.12781953e-002, 0., 0., 0., 0., 0., 3.75939859e-003, 0.,
          3.75939859e-003, 7.51879718e-003, 0., 0., 0., 0.,
          3.75939859e-003, 0., 0., 7.51879718e-003, 0., 0.,
          3.75939859e-003, 3.75939859e-003, 0., 0., 0., 0., 0.,
          7.51879718e-003, 0., 0., 0., 0., 0., 0., 0., 0., 0.,
          7.51879718e-003, 0., 0., 0., 0., 0., 3.75939859e-003,
          7.51879718e-003, 0., 0., 0., 0., 0., 3.75939859e-003,
          2.25563906e-002, 0., 0., 0., 0., 0., 0., 0., 0.,
          3.75939859e-003, 0., 3.75939859e-003, 0., 0., 0., 0., 0., 0.,
          0., 0., 0., 3.75939859e-003, 7.51879718e-003, 3.75939859e-003,
          0., 0., 0., 0., 0., 0., 0., 0., 0., 0., 0., 7.51879718e-003,
          0., 0., 0., 0., 3.75939859e-003, 0., 0., 0., 0.,
          3.75939859e-003, 0., 0., 0., 0., 0., 0., 0., 0., 0., 0., 0.,
          0., 0., 0., 3.75939859e-003, 0., 0., 0., 0., 3.75939859e-003,
          0., 0., 3.75939859e-003, 0., 0., 0., 0., 0. ]
      - [ 0., 0., 1.23456791e-002, 0., 0., 0., 0., 0., 0., 0., 0., 0.,
          0., 0., 4.11522621e-003, 0., 0., 4.11522621e-003, 0.,
          1.64609049e-002, 0., 0., 0., 4.11522621e-003, 0.,
          4.11522621e-003, 0., 8.23045243e-003, 0., 0., 0.,
          4.11522621e-003, 4.11522621e-003, 0., 0., 0., 0., 0., 0., 0.,
          4.11522621e-003, 0., 4.11522621e-003, 0., 8.23045243e-003, 0.,
          4.11522621e-003, 4.11522621e-003, 8.23045243e-003, 0., 0., 0.,
          0., 8.23045243e-003, 0., 0., 4.11522621e-003, 4.11522621e-003,
          0., 0., 0., 0., 0., 0., 2.05761306e-002, 0., 0., 0., 0.,
          4.11522621e-003, 4.11522621e-003, 0., 0., 8.23045243e-003, 0.,
          0., 0., 4.11522621e-003, 8.23045243e-003, 4.11522621e-003, 0.,
          0., 0., 0., 0., 0., 4.11522621e-003, 4.11522621e-003, 0., 0.,
          0., 0., 0., 8.23045243e-003, 0., 0., 0., 0., 0., 0., 0.,
          4.11522621e-003, 0., 0., 0., 0., 0., 4.11522621e-003, 0., 0.,
          4.11522621e-003, 0., 0., 0., 0., 0., 0., 0., 0., 0.,
          4.11522621e-003, 0., 0., 0., 4.11522621e-003, 0., 0., 0., 0.,
          4.11522621e-003, 0., 0., 0., 4.11522621e-003, 0., 0., 0., 0.,
          0., 0., 0., 0., 0., 0., 8.23045243e-003, 4.11522621e-003, 0.,
          8.23045243e-003, 0., 8.23045243e-003, 0., 0., 0., 0., 0., 0.,
          0., 4.11522621e-003, 0., 4.11522621e-003, 0., 0., 0., 0., 0.,
          0., 0., 0., 4.11522621e-003, 0., 0., 0., 0., 4.11522621e-003,
          0., 0., 8.23045243e-003, 0., 0., 0., 0., 0., 4.11522621e-003,
          0., 4.11522621e-003, 0., 0., 4.11522621e-003, 0., 0., 0., 0.,
          0., 0., 0., 4.11522621e-003, 0., 8.23045243e-003, 0., 0., 0.,
          0., 0., 0., 0., 0., 4.11522621e-003, 0., 0., 0., 0., 0., 0.,
          4.11522621e-003, 0., 0., 0., 0., 0., 0., 0., 4.11522621e-003,
          4.11522621e-003, 0., 4.11522621e-003, 0., 0., 0., 0.,
          4.11522621e-003, 0., 0., 0., 4.11522621e-003, 0.,
          8.23045243e-003, 0., 0., 0., 0., 0., 4.11522621e-003, 0.,
          8.23045243e-003, 0., 0., 0., 4.11522621e-003, 0.,
          4.11522621e-003, 0., 0., 0., 0., 0., 0., 0., 0., 0.,
          8.23045243e-003, 0., 0., 0., 0., 0., 0., 0., 0.,
          4.11522621e-003, 0., 0., 0., 0., 0., 0., 0., 0., 0., 0.,
          4.11522621e-003, 0., 0., 0., 0., 4.11522621e-003, 0.,
          8.23045243e-003, 0., 0., 0., 0., 8.23045243e-003, 0., 0., 0.,
          4.11522621e-003, 0., 0., 0., 0., 8.23045243e-003,
          8.23045243e-003, 0., 0., 0., 0., 0., 0., 0., 0., 0., 0., 0.,
          0., 0., 0., 4.11522621e-003, 4.11522621e-003, 0.,
          4.11522621e-003, 0., 0., 4.11522621e-003, 0., 0., 0., 0.,
          4.11522621e-003, 0., 4.11522621e-003, 0., 0., 8.23045243e-003,
          0., 0., 0., 0., 0., 0., 4.11522621e-003, 0., 0., 0.,
          4.11522621e-003, 0., 4.11522621e-003, 0., 0., 0., 0., 0., 0.,
          0., 0., 0., 0., 0., 0., 8.23045243e-003, 0., 0., 0., 0., 0.,
          0., 0., 0., 4.11522621e-003, 0., 8.23045243e-003, 0., 0., 0.,
          0., 0., 8.23045243e-003, 0., 4.11522621e-003, 0., 0., 0., 0.,
          0., 0., 0., 0., 0., 4.11522621e-003, 4.11522621e-003, 0., 0.,
          0., 0., 4.11522621e-003, 0., 0., 0., 0., 0., 0., 0., 0., 0.,
          0., 0., 0., 0., 0., 0., 0., 4.11522621e-003, 0., 0.,
          4.11522621e-003, 0., 0., 0., 4.11522621e-003, 0., 0., 0., 0.,
          0., 0., 0., 0., 0., 0., 0., 4.11522621e-003, 0., 0., 0.,
          4.11522621e-003, 0., 4.11522621e-003, 0., 0., 0., 0., 0., 0.,
          4.11522621e-003, 0., 4.11522621e-003, 0., 0., 0., 0., 0., 0.,
          4.11522621e-003, 0., 0., 0., 0., 0., 0., 0., 0., 0., 0., 0.,
          0., 0., 0., 4.11522621e-003, 1.64609049e-002, 0., 0., 0.,
          4.11522621e-003, 0., 0., 0., 4.11522621e-003, 0., 0., 0., 0.,
          0., 0., 0., 0., 0., 0., 0., 0., 0., 8.23045243e-003, 0.,
          4.11522621e-003, 0., 0., 0., 0., 0., 0., 0., 0., 0., 0., 0.,
          0., 4.11522621e-003, 0., 0., 0., 0., 0., 0., 0., 0.,
          8.23045243e-003, 0., 0., 0., 0., 0., 4.11522621e-003,
          4.11522621e-003, 4.11522621e-003, 0., 0., 0., 4.11522621e-003,
          0., 0., 0., 4.11522621e-003, 4.11522621e-003, 0.,
          4.11522621e-003, 0., 0., 0., 0., 0., 0., 8.23045243e-003, 0.,
          0., 0., 0., 0., 0., 0., 0., 0., 0., 0., 0., 0., 0., 0., 0., 0.,
          0., 4.11522621e-003, 0., 0., 4.11522621e-003, 0., 0.,
          4.11522621e-003, 0., 0., 0., 0., 0., 0., 0., 0., 0., 0.,
          4.11522621e-003, 0., 0., 0., 0., 0., 0., 0., 0., 0., 0., 0.,
          0., 0., 0., 0., 0., 4.11522621e-003, 4.11522621e-003, 0., 0.,
          0., 8.23045243e-003, 0., 0., 0., 4.11522621e-003, 0.,
          4.11522621e-003, 4.11522621e-003, 0., 0., 0., 0., 0., 0., 0.,
          0., 0., 0., 0., 4.11522621e-003, 0., 0., 0., 0., 0., 0., 0.,
          0., 0., 0., 0., 0., 0., 0., 0., 0., 0., 0., 0., 0., 0., 0., 0.,
          4.11522621e-003, 0., 0., 0., 0., 0., 0., 0., 0., 0., 0., 0.,
          0., 8.23045243e-003, 0., 0., 0., 0., 0., 0., 0., 0., 0.,
          4.11522621e-003, 0., 0., 0., 0., 0., 0., 0., 0., 0., 0., 0.,
          0., 0., 0., 0., 0., 0., 4.11522621e-003, 0., 0.,
          4.11522621e-003, 0., 0., 0., 4.11522621e-003, 0.,
          4.11522621e-003, 0., 4.11522621e-003, 0., 0., 4.11522621e-003,
          0., 0., 0., 0., 0., 0., 0., 0., 0., 0., 4.11522621e-003, 0.,
          0., 4.11522621e-003, 0., 0., 0., 0., 4.11522621e-003, 0.,
          4.11522621e-003, 0., 0., 0., 0., 8.23045243e-003, 0., 0., 0.,
          0., 0., 0., 0., 1.64609049e-002, 0., 0., 4.11522621e-003, 0.,
          0., 0., 0., 0., 0., 0., 0., 0., 0., 0., 0., 4.11522621e-003,
          4.11522621e-003, 0., 0., 0., 0., 0., 0., 0., 0., 0., 0., 0.,
          1.64609049e-002, 0., 0., 0., 0., 0., 4.11522621e-003, 0., 0.,
          0., 0., 8.23045243e-003, 0., 4.11522621e-003, 0., 0., 0., 0.,
          0., 0., 0., 0., 8.23045243e-003, 0., 0., 4.11522621e-003, 0.,
          0., 4.11522621e-003, 0., 0., 0., 4.11522621e-003, 0., 0., 0.,
          0., 4.11522621e-003, 4.11522621e-003, 0., 0., 0.,
          8.23045243e-003, 0., 4.11522621e-003, 0., 0., 0., 0., 0.,
          4.11522621e-003, 0., 0., 0., 0., 0., 0., 0., 0., 0., 0., 0.,
          0., 0., 0., 0., 0., 0., 0., 0., 0., 0., 0., 0., 0., 0., 0., 0.,
          0., 4.11522621e-003, 0., 0., 0., 0., 0., 0., 0., 0., 0., 0.,
          0., 0., 8.23045243e-003, 4.11522621e-003, 0., 0., 0., 0., 0.,
          0., 0., 0., 0., 0., 0., 0., 0., 4.11522621e-003,
          1.23456791e-002, 0., 0., 0., 0., 0., 0., 0., 8.23045243e-003,
          4.11522621e-003, 0., 0., 0., 0., 0., 0., 0., 0.,
          8.23045243e-003, 0., 0., 0., 0., 4.11522621e-003, 0., 0., 0.,
          0., 0., 0., 4.11522621e-003, 4.11522621e-003, 0., 0.,
          4.11522621e-003, 0., 4.11522621e-003, 0., 0., 0., 0., 0.,
          4.11522621e-003, 0., 0., 4.11522621e-003, 0., 0., 0., 0., 0.,
          0., 0., 4.11522621e-003, 0., 0., 0., 0., 0., 0.,
          8.23045243e-003, 4.11522621e-003, 0., 0., 0., 0., 0., 0., 0.,
          4.11522621e-003, 4.11522621e-003, 0., 0., 0., 0., 0., 0., 0.,
          0., 4.11522621e-003, 4.11522621e-003, 0., 8.23045243e-003,
          4.11522621e-003, 0., 0., 0., 0., 0., 0., 0., 0., 0., 0., 0.,
          0., 0., 0., 0., 0., 0., 0., 0., 0., 0., 0., 8.23045243e-003,
          0., 0., 0., 4.11522621e-003, 0., 0., 0., 0., 0.,
          4.11522621e-003, 4.11522621e-003, 0., 0., 0., 0., 0., 0., 0.,
          0., 0., 0., 0., 0., 0., 0., 8.23045243e-003, 0. ]
      - [ 0., 0., 0., 2.96735903e-003, 0., 0., 2.96735903e-003,
          2.67062318e-002, 0., 0., 0., 0., 0., 0., 5.93471806e-003, 0.,
          0., 5.93471806e-003, 0., 5.93471806e-003, 0., 0., 0.,
          2.96735903e-003, 0., 2.96735903e-003, 0., 2.96735903e-003,
          2.96735903e-003, 0., 0., 0., 0., 0., 2.96735903e-003, 0., 0.,
          0., 0., 0., 0., 0., 2.96735903e-003, 0., 0., 2.96735903e-003,
          0., 0., 2.96735903e-003, 0., 0., 2.96735903e-003, 0., 0., 0.,
          0., 2.96735903e-003, 0., 0., 0., 2.96735903e-003, 0., 0., 0.,
          2.96735903e-003, 0., 0., 2.96735903e-003, 0., 0.,
          2.96735903e-003, 2.96735903e-003, 5.93471806e-003,
          2.96735903e-003, 0., 0., 0., 2.96735903e-003, 2.96735903e-003,
          0., 2.96735903e-003, 0., 0., 0., 0., 0., 2.96735903e-003, 0.,
          0., 0., 5.93471806e-003, 0., 8.90207663e-003, 0., 0., 0., 0.,
          0., 0., 0., 0., 0., 0., 0., 0., 0., 0., 0., 0., 0., 0., 0., 0.,
          5.93471806e-003, 0., 0., 0., 0., 0., 2.96735903e-003, 0., 0.,
          0., 0., 2.96735903e-003, 2.96735903e-003, 0., 0.,
          2.96735903e-003, 8.90207663e-003, 0., 0., 0., 5.93471806e-003,
          0., 8.90207663e-003, 0., 0., 0., 0., 0., 2.96735903e-003, 0.,
          0., 2.96735903e-003, 0., 0., 0., 0., 2.96735903e-003, 0., 0.,
          0., 0., 0., 0., 0., 2.96735903e-003, 0., 2.96735903e-003, 0.,
          0., 0., 5.93471806e-003, 2.96735903e-003, 0., 0., 0., 0., 0.,
          0., 0., 5.93471806e-003, 0., 0., 0., 0., 0., 0., 0., 0.,
          5.93471806e-003, 1.48367956e-002, 0., 2.96735903e-003,
          2.96735903e-003, 0., 2.96735903e-003, 0., 0., 0.,
          2.96735903e-003, 0., 0., 0., 0., 0., 0., 2.96735903e-003, 0.,
          0., 0., 2.96735903e-003, 2.96735903e-003, 0., 0.,
          2.96735903e-003, 0., 0., 0., 5.93471806e-003, 0.,
          2.96735903e-003, 0., 0., 0., 0., 0., 0., 0., 0., 0.,
          8.90207663e-003, 0., 0., 0., 0., 0., 0., 2.96735903e-003, 0.,
          0., 0., 0., 2.96735903e-003, 2.96735903e-003, 2.96735903e-003,
          0., 0., 0., 0., 0., 0., 5.93471806e-003, 2.96735903e-003, 0.,
          0., 0., 0., 0., 0., 0., 0., 8.90207663e-003, 0., 0., 0., 0.,
          8.90207663e-003, 2.96735903e-003, 0., 0., 0., 2.96735903e-003,
          0., 0., 0., 0., 5.93471806e-003, 5.93471806e-003, 0., 0.,
          5.93471806e-003, 0., 0., 0., 0., 0., 0., 2.96735903e-003, 0.,
          0., 0., 0., 2.96735903e-003, 0., 8.90207663e-003, 0.,
          5.93471806e-003, 5.93471806e-003, 2.96735903e-003,
          2.96735903e-003, 0., 0., 5.93471806e-003, 0., 5.93471806e-003,
          0., 2.96735903e-003, 0., 2.96735903e-003, 5.93471806e-003, 0.,
          0., 2.96735903e-003, 2.96735903e-003, 2.96735903e-003, 0., 0.,
          0., 0., 0., 0., 0., 0., 0., 0., 2.96735903e-003, 0., 0.,
          2.96735903e-003, 0., 0., 2.96735903e-003, 0., 0., 0.,
          2.96735903e-003, 0., 0., 0., 0., 2.96735903e-003, 0., 0., 0.,
          0., 0., 0., 0., 0., 0., 0., 5.93471806e-003, 0., 0., 0.,
          2.96735903e-003, 0., 0., 0., 0., 0., 0., 0., 0.,
          5.93471806e-003, 0., 0., 0., 0., 0., 2.96735903e-003, 0., 0.,
          0., 2.96735903e-003, 2.96735903e-003, 0., 2.96735903e-003, 0.,
          0., 0., 0., 0., 2.96735903e-003, 0., 0., 0., 0., 0., 0., 0.,
          0., 0., 0., 2.96735903e-003, 0., 2.96735903e-003, 0.,
          2.96735903e-003, 0., 0., 2.96735903e-003, 0., 0., 0., 0., 0.,
          0., 0., 0., 0., 0., 0., 2.96735903e-003, 0., 0., 0., 0.,
          5.93471806e-003, 0., 0., 0., 2.96735903e-003, 0., 0.,
          2.96735903e-003, 2.96735903e-003, 0., 0., 0., 0.,
          2.96735903e-003, 2.96735903e-003, 0., 0., 0., 0., 0., 0., 0.,
          0., 0., 0., 5.93471806e-003, 0., 0., 0., 0., 5.93471806e-003,
          0., 2.96735903e-003, 0., 0., 0., 0., 2.96735903e-003, 0., 0.,
          0., 0., 0., 0., 0., 2.96735903e-003, 0., 0., 0., 0., 0., 0.,
          0., 0., 0., 0., 0., 2.96735903e-003, 2.96735903e-003,
          2.96735903e-003, 0., 0., 0., 0., 0., 0., 0., 0., 0., 0., 0.,
          2.96735903e-003, 0., 0., 0., 0., 0., 0., 2.96735903e-003,
          5.93471806e-003, 0., 2.96735903e-003, 0., 0., 0.,
          2.96735903e-003, 0., 0., 0., 2.96735903e-003, 0., 0.,
          2.96735903e-003, 0., 2.96735903e-003, 0., 0., 0., 0.,
          5.93471806e-003, 0., 0., 0., 8.90207663e-003, 0., 0., 0., 0.,
          0., 0., 0., 2.96735903e-003, 0., 2.96735903e-003, 0.,
          2.96735903e-003, 0., 2.96735903e-003, 0., 0., 0.,
          2.96735903e-003, 2.96735903e-003, 2.96735903e-003, 0., 0., 0.,
          0., 2.96735903e-003, 0., 0., 0., 0., 0., 0., 0., 0., 0., 0.,
          0., 0., 0., 8.90207663e-003, 0., 0., 0., 0., 0.,
          2.96735903e-003, 0., 2.96735903e-003, 0., 0., 0., 0., 0.,
          2.96735903e-003, 0., 0., 0., 0., 1.78041533e-002, 0., 0., 0.,
          2.96735903e-003, 0., 0., 0., 0., 0., 0., 0., 0., 0., 0., 0.,
          0., 0., 0., 0., 0., 0., 2.96735903e-003, 0., 0.,
          2.96735903e-003, 0., 0., 0., 0., 0., 5.93471806e-003, 0., 0.,
          1.18694361e-002, 2.96735903e-003, 0., 0., 0., 0., 0., 0., 0.,
          0., 1.18694361e-002, 0., 0., 2.96735903e-003, 0., 0., 0., 0.,
          0., 2.96735903e-003, 0., 0., 0., 0., 0., 0., 0., 0., 0., 0.,
          2.96735903e-003, 2.96735903e-003, 0., 2.96735903e-003, 0.,
          2.96735903e-003, 0., 2.96735903e-003, 0., 2.96735903e-003, 0.,
          0., 0., 0., 0., 0., 0., 0., 5.93471806e-003, 0., 0., 0., 0.,
          0., 0., 0., 2.96735903e-003, 0., 0., 0., 0., 0.,
          1.48367956e-002, 0., 0., 0., 0., 0., 2.96735903e-003,
          2.96735903e-003, 0., 2.96735903e-003, 0., 0., 0.,
          2.96735903e-003, 2.96735903e-003, 0., 0., 2.96735903e-003,
          5.93471806e-003, 2.96735903e-003, 0., 0., 0., 5.93471806e-003,
          0., 0., 0., 0., 0., 0., 0., 0., 0., 0., 0., 0., 0., 0., 0.,
          2.96735903e-003, 2.96735903e-003, 0., 0., 0., 0., 0., 0.,
          2.96735903e-003, 0., 2.96735903e-003, 0., 0., 0., 0., 0., 0.,
          0., 5.93471806e-003, 0., 0., 0., 2.96735903e-003,
          5.93471806e-003, 0., 0., 0., 0., 0., 2.96735903e-003, 0., 0.,
          0., 0., 0., 5.93471806e-003, 0., 0., 0., 0., 0., 0.,
          8.90207663e-003, 0., 0., 0., 2.96735903e-003, 0., 0., 0.,
          5.93471806e-003, 0., 2.96735903e-003, 2.96735903e-003, 0., 0.,
          0., 0., 0., 0., 0., 0., 0., 2.96735903e-003, 0.,
          2.96735903e-003, 0., 0., 0., 0., 0., 0., 0., 0.,
          2.96735903e-003, 0., 0., 2.96735903e-003, 0., 0., 0., 0., 0.,
          2.96735903e-003, 0., 0., 0., 0., 0., 5.93471806e-003,
          5.93471806e-003, 0., 0., 0., 0., 0., 0., 2.96735903e-003, 0.,
          0., 0., 0., 2.96735903e-003, 2.96735903e-003, 0.,
          2.96735903e-003, 2.96735903e-003, 0., 0., 0., 0., 0., 0., 0.,
          0., 0., 0., 0., 0., 0., 0., 0., 0., 0., 0., 2.96735903e-003,
          0., 0., 0., 2.96735903e-003, 0., 0., 0., 5.93471806e-003,
          2.96735903e-003, 0., 0., 0., 5.93471806e-003, 0., 0., 0., 0.,
          8.90207663e-003, 0., 2.96735903e-003, 0., 0., 0., 0., 0., 0.,
          0., 0., 2.96735903e-003, 0., 0., 0., 0., 0., 2.96735903e-003,
          0., 0., 0., 5.93471806e-003, 0., 0., 0., 0., 2.96735903e-003,
          0., 0., 5.93471806e-003, 0., 0., 0., 0., 0., 2.96735903e-003,
          0., 0., 0., 2.96735903e-003, 0., 0., 5.93471806e-003,
          2.96735903e-003, 2.96735903e-003, 0., 0., 2.96735903e-003,
          2.96735903e-003, 0., 0., 2.96735903e-003, 0., 5.93471806e-003,
          0., 0., 5.93471806e-003, 0., 0., 0., 0., 0., 0.,
          5.93471806e-003, 0., 0., 0., 0., 0., 0., 2.96735903e-003, 0.,
          2.96735903e-003, 2.96735903e-003, 2.96735903e-003, 0., 0., 0.,
          2.96735903e-003, 0., 0., 0., 0., 2.96735903e-003, 0., 0.,
          2.96735903e-003, 0., 0., 0., 0., 0., 2.96735903e-003, 0., 0.,
          0., 0., 0., 0., 2.96735903e-003, 2.96735903e-003, 0., 0., 0.,
          0., 0., 0., 0., 5.93471806e-003, 0., 0., 0., 5.93471806e-003,
          0., 0., 0., 0., 2.96735903e-003, 2.96735903e-003, 0., 0., 0.,
          0., 0., 0., 0., 0., 5.93471806e-003, 0., 5.93471806e-003,
          2.96735903e-003, 0., 0., 5.93471806e-003, 0., 0., 0.,
          2.96735903e-003, 0., 0., 0., 0., 0., 0., 0., 0., 0.,
          5.93471806e-003, 0., 0., 0. ]
      - [ 3.66300368e-003, 0., 0., 0., 0., 0., 3.66300368e-003,
          3.66300368e-003, 0., 0., 7.32600736e-003, 0., 0.,
          3.66300368e-003, 3.66300368e-003, 0., 0., 3.66300368e-003, 0.,
          0., 0., 0., 3.66300368e-003, 3.66300368e-003, 0., 0., 0., 0.,
          0., 0., 0., 0., 0., 0., 0., 0., 0., 0., 0., 0., 0.,
          3.66300368e-003, 0., 0., 3.66300368e-003, 0., 0., 0.,
          7.32600736e-003, 0., 0., 0., 0., 0., 0., 0., 1.09890113e-002,
          3.66300368e-003, 0., 0., 0., 0., 0., 0., 0., 3.66300368e-003,
          0., 0., 0., 3.66300368e-003, 3.66300368e-003, 3.66300368e-003,
          0., 0., 0., 0., 3.66300368e-003, 3.66300368e-003,
          7.32600736e-003, 7.32600736e-003, 0., 0., 3.66300368e-003, 0.,
          0., 0., 0., 3.66300368e-003, 3.66300368e-003, 0., 0.,
          3.66300368e-003, 3.66300368e-003, 0., 0., 0., 0., 0., 0., 0.,
          3.66300368e-003, 0., 0., 0., 0., 0., 0., 0., 0.,
          3.66300368e-003, 0., 7.32600736e-003, 0., 3.66300368e-003, 0.,
          0., 0., 0., 0., 3.66300368e-003, 3.66300368e-003, 0., 0., 0.,
          7.32600736e-003, 0., 7.32600736e-003, 0., 3.66300368e-003,
          7.32600736e-003, 0., 0., 3.66300368e-003, 0., 0., 0., 0., 0.,
          0., 0., 0., 0., 0., 3.66300368e-003, 7.32600736e-003, 0.,
          7.32600736e-003, 0., 0., 0., 0., 0., 0., 0., 0., 0., 0., 0.,
          0., 3.66300368e-003, 0., 3.66300368e-003, 7.32600736e-003,
          3.66300368e-003, 3.66300368e-003, 0., 0., 0., 3.66300368e-003,
          0., 0., 0., 0., 0., 0., 0., 1.09890113e-002, 0., 0.,
          3.66300368e-003, 0., 3.66300368e-003, 3.66300368e-003, 0.,
          7.32600736e-003, 0., 0., 3.66300368e-003, 0., 0., 0., 0., 0.,
          0., 0., 3.66300368e-003, 3.66300368e-003, 3.66300368e-003, 0.,
          3.66300368e-003, 0., 0., 0., 1.09890113e-002, 0., 0.,
          3.66300368e-003, 0., 0., 3.66300368e-003, 0., 0., 0., 0.,
          3.66300368e-003, 0., 0., 0., 0., 0., 1.09890113e-002,
          3.66300368e-003, 0., 0., 0., 0., 0., 0., 0., 0., 0., 0., 0.,
          3.66300368e-003, 3.66300368e-003, 3.66300368e-003, 0.,
          3.66300368e-003, 0., 0., 0., 0., 7.32600736e-003,
          7.32600736e-003, 0., 0., 0., 3.66300368e-003, 0.,
          3.66300368e-003, 0., 0., 3.66300368e-003, 0., 0., 0., 0., 0.,
          3.66300368e-003, 0., 0., 0., 0., 0., 0., 0., 0., 0., 0.,
          3.66300368e-003, 0., 0., 3.66300368e-003, 0., 0., 0., 0., 0.,
          0., 0., 0., 0., 0., 0., 7.32600736e-003, 0., 3.66300368e-003,
          0., 0., 0., 0., 3.66300368e-003, 0., 0., 0., 3.66300368e-003,
          0., 0., 0., 0., 0., 0., 0., 0., 3.66300368e-003, 0., 0., 0.,
          3.66300368e-003, 0., 0., 0., 0., 0., 0., 0., 0.,
          3.66300368e-003, 0., 0., 0., 0., 0., 0., 0., 0., 0., 0., 0.,
          7.32600736e-003, 0., 0., 0., 0., 0., 0., 3.66300368e-003, 0.,
          0., 3.66300368e-003, 0., 0., 0., 3.66300368e-003, 0.,
          3.66300368e-003, 0., 0., 0., 7.32600736e-003, 0., 0., 0., 0.,
          0., 0., 0., 0., 3.66300368e-003, 0., 0., 0., 0., 0., 0.,
          3.66300368e-003, 3.66300368e-003, 3.66300368e-003, 0.,
          3.66300368e-003, 0., 0., 0., 0., 0., 0., 0., 0., 0., 0., 0.,
          0., 0., 0., 3.66300368e-003, 0., 0., 3.66300368e-003, 0., 0.,
          0., 0., 0., 0., 0., 0., 0., 0., 0., 0., 3.66300368e-003, 0.,
          0., 0., 0., 0., 0., 0., 0., 3.66300368e-003, 3.66300368e-003,
          0., 0., 3.66300368e-003, 0., 3.66300368e-003, 0.,
          7.32600736e-003, 0., 0., 0., 3.66300368e-003, 0.,
          3.66300368e-003, 0., 0., 3.66300368e-003, 0., 3.66300368e-003,
          0., 0., 0., 0., 7.32600736e-003, 0., 0., 0., 0.,
          3.66300368e-003, 3.66300368e-003, 0., 3.66300368e-003, 0., 0.,
          0., 0., 0., 0., 0., 0., 0., 3.66300368e-003, 0.,
          3.66300368e-003, 0., 0., 0., 0., 0., 0., 0., 0., 0., 0.,
          3.66300368e-003, 0., 0., 0., 0., 3.66300368e-003, 0., 0., 0.,
          0., 0., 0., 0., 7.32600736e-003, 0., 0., 0., 0., 0., 0., 0.,
          0., 0., 0., 3.66300368e-003, 7.32600736e-003, 0.,
          1.83150191e-002, 0., 0., 0., 0., 0., 3.66300368e-003, 0., 0.,
          0., 0., 0., 0., 0., 0., 0., 3.66300368e-003, 0.,
          1.09890113e-002, 0., 3.66300368e-003, 0., 1.46520147e-002, 0.,
          0., 0., 0., 0., 0., 0., 7.32600736e-003, 0., 3.66300368e-003,
          7.32600736e-003, 3.66300368e-003, 0., 7.32600736e-003, 0.,
          3.66300368e-003, 0., 0., 7.32600736e-003, 0., 0.,
          3.66300368e-003, 0., 0., 0., 3.66300368e-003, 0., 0., 0.,
          3.66300368e-003, 0., 0., 0., 0., 0., 0., 0., 3.66300368e-003,
          0., 0., 0., 0., 0., 0., 0., 0., 0., 3.66300368e-003, 0., 0.,
          0., 0., 0., 0., 0., 0., 0., 0., 3.66300368e-003,
          3.66300368e-003, 0., 3.66300368e-003, 0., 0., 0., 0., 0., 0.,
          0., 0., 0., 0., 0., 0., 0., 0., 0., 3.66300368e-003,
          3.66300368e-003, 0., 0., 0., 0., 0., 0., 0., 0., 0., 0., 0.,
          0., 3.66300368e-003, 3.66300368e-003, 0., 0., 0., 0., 0., 0.,
          0., 0., 0., 0., 3.66300368e-003, 3.66300368e-003, 0., 0., 0.,
          0., 0., 0., 0., 0., 0., 0., 0., 0., 0., 0., 3.66300368e-003,
          0., 3.66300368e-003, 0., 0., 0., 0., 0., 0., 0., 0.,
          3.66300368e-003, 0., 0., 0., 0., 0., 0., 0., 0., 0.,
          7.32600736e-003, 0., 0., 0., 0., 0., 0., 0., 0., 0., 0., 0.,
          0., 0., 0., 0., 3.66300368e-003, 0., 0., 0., 3.66300368e-003,
          0., 0., 0., 0., 0., 0., 0., 0., 0., 0., 3.66300368e-003,
          3.66300368e-003, 3.66300368e-003, 3.66300368e-003, 0., 0., 0.,
          3.66300368e-003, 0., 0., 0., 0., 0., 0., 0., 0., 0.,
          3.66300368e-003, 0., 0., 0., 0., 0., 0., 0., 0., 0., 0., 0.,
          3.66300368e-003, 0., 0., 0., 0., 0., 0., 3.66300368e-003, 0.,
          0., 0., 0., 0., 0., 0., 0., 0., 0., 0., 0., 0., 0.,
          3.66300368e-003, 0., 0., 0., 0., 0., 0., 0., 0., 0.,
          3.66300368e-003, 0., 0., 0., 0., 0., 0., 3.66300368e-003, 0.,
          7.32600736e-003, 0., 0., 7.32600736e-003, 0., 0.,
          3.66300368e-003, 0., 0., 0., 0., 0., 0., 3.66300368e-003,
          7.32600736e-003, 0., 0., 0., 0., 3.66300368e-003, 0., 0., 0.,
          0., 0., 3.66300368e-003, 0., 0., 1.46520147e-002, 0., 0.,
          3.66300368e-003, 0., 0., 7.32600736e-003, 0., 3.66300368e-003,
          0., 3.66300368e-003, 0., 0., 3.66300368e-003, 0., 0., 0., 0.,
          0., 0., 0., 0., 0., 3.66300368e-003, 0., 0., 3.66300368e-003,
          0., 0., 0., 0., 0., 3.66300368e-003, 0., 3.66300368e-003, 0.,
          0., 0., 0., 0., 0., 0., 0., 0., 0., 3.66300368e-003,
          3.66300368e-003, 0., 0., 3.66300368e-003, 0., 0.,
          3.66300368e-003, 0., 3.66300368e-003, 0., 0., 0., 0., 0., 0.,
          0., 0., 0., 3.66300368e-003, 3.66300368e-003, 3.66300368e-003,
          7.32600736e-003, 0., 0., 3.66300368e-003, 0., 3.66300368e-003,
          0., 0., 0., 0., 0., 0., 0., 0., 0., 0., 7.32600736e-003, 0.,
          0., 0., 0., 0., 0., 0., 0., 7.32600736e-003, 0., 0., 0., 0.,
          0., 0., 0., 0., 0., 0., 0., 0., 3.66300368e-003,
          7.32600736e-003, 0., 0., 7.32600736e-003, 0., 0., 0.,
          1.09890113e-002, 3.66300368e-003, 0., 0., 3.66300368e-003, 0.,
          0., 0., 3.66300368e-003, 0., 0., 0., 0., 0., 0., 0., 0., 0.,
          0., 0., 0., 3.66300368e-003, 0., 0., 0., 3.66300368e-003, 0.,
          0., 0., 3.66300368e-003, 0., 0., 0., 0., 0., 0.,
          7.32600736e-003, 0., 0., 3.66300368e-003, 0., 0., 0., 0., 0.,
          0., 0., 3.66300368e-003, 0., 0., 0., 0., 7.32600736e-003, 0.,
          0., 0., 0., 0., 0., 0., 0., 0., 3.66300368e-003, 0., 0., 0.,
          3.66300368e-003, 0., 0., 0., 0., 3.66300368e-003, 0., 0., 0.,
          3.66300368e-003, 0., 0., 0., 0., 3.66300368e-003, 0., 0., 0.,
          0., 0., 0., 0., 0., 0., 0., 0., 0., 0., 0., 7.32600736e-003,
          3.66300368e-003, 0., 3.66300368e-003, 0., 3.66300368e-003, 0.,
          0., 0. ]
      - [ 0., 0., 1.24223605e-002, 0., 0., 0., 3.10559012e-003,
          1.24223605e-002, 0., 0., 3.10559012e-003, 0., 0., 0.,
          6.21118024e-003, 0., 3.10559012e-003, 6.21118024e-003, 0., 0.,
          0., 0., 3.10559012e-003, 3.10559012e-003, 0., 3.10559012e-003,
          0., 0., 3.10559012e-003, 0., 0., 6.21118024e-003,
          3.10559012e-003, 0., 0., 0., 0., 0., 0., 3.10559012e-003, 0.,
          0., 6.21118024e-003, 0., 0., 0., 0., 0., 9.31677036e-003, 0.,
          0., 0., 0., 0., 3.10559012e-003, 0., 0., 0., 0., 0., 0., 0.,
          0., 0., 0., 3.10559012e-003, 0., 0., 0., 0., 0.,
          6.21118024e-003, 0., 3.10559012e-003, 0., 0., 0.,
          6.21118024e-003, 0., 0., 0., 0., 3.10559012e-003, 0., 0., 0.,
          3.10559012e-003, 3.10559012e-003, 3.10559012e-003, 0., 0., 0.,
          0., 6.21118024e-003, 0., 0., 0., 0., 3.10559012e-003, 0., 0.,
          3.10559012e-003, 0., 0., 0., 0., 0., 0., 0., 3.10559012e-003,
          3.10559012e-003, 9.31677036e-003, 0., 0., 0., 0., 0., 0., 0.,
          0., 0., 0., 0., 0., 3.10559012e-003, 3.10559012e-003, 0.,
          3.10559012e-003, 0., 6.21118024e-003, 6.21118024e-003, 0.,
          1.24223605e-002, 0., 3.10559012e-003, 0., 0., 0., 0., 0., 0.,
          0., 1.86335407e-002, 0., 6.21118024e-003, 3.10559012e-003,
          6.21118024e-003, 0., 0., 0., 0., 0., 0., 6.21118024e-003,
          3.10559012e-003, 0., 0., 3.10559012e-003, 0., 0., 0., 0., 0.,
          0., 0., 0., 0., 0., 3.10559012e-003, 0., 0., 0., 0., 0., 0.,
          0., 3.10559012e-003, 0., 0., 0., 0., 3.10559012e-003,
          3.10559012e-003, 0., 6.21118024e-003, 0., 0., 6.21118024e-003,
          0., 0., 0., 0., 3.10559012e-003, 0., 0., 0., 6.21118024e-003,
          3.10559012e-003, 0., 0., 0., 0., 0., 3.10559012e-003, 0., 0.,
          3.10559012e-003, 0., 0., 0., 0., 0., 0., 0., 0.,
          3.10559012e-003, 0., 0., 0., 0., 0., 3.10559012e-003, 0., 0.,
          0., 0., 0., 6.21118024e-003, 3.10559012e-003, 0., 0., 0., 0.,
          3.10559012e-003, 3.10559012e-003, 6.21118024e-003,
          3.10559012e-003, 3.10559012e-003, 0., 0., 0., 0., 0.,
          6.21118024e-003, 0., 0., 0., 0., 3.10559012e-003, 0., 0., 0.,
          0., 0., 0., 0., 0., 0., 0., 0., 0., 0., 0., 0., 0., 0., 0., 0.,
          0., 0., 0., 0., 0., 0., 0., 0., 0., 0., 0., 0., 0., 0.,
          3.10559012e-003, 0., 3.10559012e-003, 0., 0., 0., 0., 0., 0.,
          0., 0., 0., 3.10559012e-003, 6.21118024e-003, 0., 0.,
          3.10559012e-003, 3.10559012e-003, 0., 3.10559012e-003, 0., 0.,
          0., 0., 0., 0., 0., 0., 0., 3.10559012e-003, 0.,
          3.10559012e-003, 0., 0., 3.10559012e-003, 3.10559012e-003, 0.,
          3.10559012e-003, 0., 3.10559012e-003, 3.10559012e-003,
          3.10559012e-003, 0., 0., 0., 0., 0., 0., 0., 0., 0., 0., 0.,
          6.21118024e-003, 0., 0., 0., 3.10559012e-003, 0., 0., 0., 0.,
          3.10559012e-003, 3.10559012e-003, 0., 0., 0., 6.21118024e-003,
          0., 0., 0., 0., 0., 0., 3.10559012e-003, 0., 0., 0., 0., 0.,
          0., 0., 3.10559012e-003, 3.10559012e-003, 6.21118024e-003,
          3.10559012e-003, 0., 3.10559012e-003, 0., 3.10559012e-003,
          3.10559012e-003, 0., 0., 6.21118024e-003, 0., 3.10559012e-003,
          0., 0., 0., 0., 0., 0., 9.31677036e-003, 0., 3.10559012e-003,
          3.10559012e-003, 3.10559012e-003, 0., 0., 0., 0.,
          6.21118024e-003, 0., 0., 0., 0., 0., 0., 3.10559012e-003, 0.,
          3.10559012e-003, 0., 3.10559012e-003, 3.10559012e-003, 0., 0.,
          0., 6.21118024e-003, 3.10559012e-003, 0., 0., 3.10559012e-003,
          0., 3.10559012e-003, 0., 0., 0., 0., 0., 0., 0.,
          3.10559012e-003, 0., 0., 0., 0., 0., 0., 0., 6.21118024e-003,
          0., 3.10559012e-003, 0., 0., 0., 0., 0., 0., 0., 0., 0., 0.,
          0., 0., 0., 0., 0., 0., 0., 3.10559012e-003, 0.,
          3.10559012e-003, 0., 0., 0., 0., 0., 0., 0., 3.10559012e-003,
          0., 3.10559012e-003, 0., 3.10559012e-003, 3.10559012e-003, 0.,
          3.10559012e-003, 3.10559012e-003, 0., 3.10559012e-003, 0.,
          3.10559012e-003, 0., 0., 3.10559012e-003, 0., 0., 0., 0.,
          3.10559012e-003, 0., 0., 0., 0., 0., 3.10559012e-003, 0.,
          3.10559012e-003, 0., 0., 0., 0., 0., 0., 0., 9.31677036e-003,
          0., 3.10559012e-003, 0., 0., 3.10559012e-003, 0., 0., 0., 0.,
          0., 0., 3.10559012e-003, 0., 0., 0., 3.10559012e-003, 0., 0.,
          0., 0., 0., 0., 0., 0., 0., 3.10559012e-003, 3.10559012e-003,
          0., 0., 3.10559012e-003, 0., 0., 3.10559012e-003, 0.,
          3.10559012e-003, 0., 0., 0., 0., 0., 0., 3.10559012e-003, 0.,
          0., 0., 0., 0., 0., 0., 0., 0., 0., 0., 3.10559012e-003,
          3.10559012e-003, 0., 0., 0., 0., 0., 0., 0., 0.,
          6.21118024e-003, 0., 0., 0., 0., 0., 0., 0., 0., 0.,
          2.48447210e-002, 3.10559012e-003, 3.10559012e-003, 0., 0., 0.,
          0., 0., 0., 0., 0., 0., 0., 0., 0., 0., 0., 0., 0., 0., 0.,
          3.10559012e-003, 6.21118024e-003, 0., 3.10559012e-003,
          3.10559012e-003, 0., 0., 0., 0., 0., 0., 0., 0.,
          3.10559012e-003, 3.10559012e-003, 0., 3.10559012e-003,
          3.10559012e-003, 0., 0., 3.10559012e-003, 0., 0.,
          3.10559012e-002, 6.21118024e-003, 3.10559012e-003, 0., 0., 0.,
          0., 0., 0., 0., 0., 0., 0., 0., 0., 0., 0., 3.10559012e-003,
          3.10559012e-003, 0., 0., 0., 0., 0., 0., 0., 0., 0., 0., 0.,
          0., 0., 0., 0., 0., 0., 0., 3.10559012e-003, 3.10559012e-003,
          0., 0., 0., 0., 0., 0., 0., 3.10559012e-003, 0.,
          3.10559012e-003, 0., 0., 0., 0., 0., 3.10559012e-003,
          3.10559012e-003, 0., 3.10559012e-003, 0., 0., 0., 0., 0., 0.,
          0., 0., 0., 0., 0., 0., 0., 0., 0., 6.21118024e-003,
          6.21118024e-003, 0., 0., 6.21118024e-003, 0., 0.,
          3.10559012e-003, 0., 0., 0., 0., 3.10559012e-003, 0.,
          6.21118024e-003, 0., 0., 0., 0., 0., 3.10559012e-003, 0., 0.,
          0., 0., 3.10559012e-003, 6.21118024e-003, 0., 0., 0., 0., 0.,
          3.10559012e-003, 3.10559012e-003, 0., 0., 6.21118024e-003,
          3.10559012e-003, 0., 0., 3.10559012e-003, 0., 0., 0., 0., 0.,
          0., 0., 3.10559012e-003, 0., 0., 3.10559012e-003, 0., 0., 0.,
          0., 0., 0., 0., 0., 0., 6.21118024e-003, 0., 0., 0., 0.,
          3.10559012e-003, 0., 0., 0., 3.10559012e-003, 3.10559012e-003,
          0., 0., 0., 0., 6.21118024e-003, 0., 0., 0., 0.,
          3.10559012e-003, 0., 0., 0., 0., 0., 0., 0., 0., 0., 0., 0.,
          0., 0., 3.10559012e-003, 0., 0., 0., 0., 0., 0., 0., 0., 0.,
          0., 0., 0., 3.10559012e-003, 0., 0., 0., 3.10559012e-003, 0.,
          0., 3.10559012e-003, 0., 0., 0., 0., 3.10559012e-003,
          3.10559012e-003, 0., 0., 0., 0., 0., 0., 0., 3.10559012e-003,
          0., 0., 0., 0., 0., 0., 0., 0., 0., 0., 0., 0., 0., 0., 0., 0.,
          0., 3.10559012e-003, 0., 3.10559012e-003, 0., 0.,
          3.10559012e-003, 0., 0., 3.10559012e-003, 1.55279506e-002, 0.,
          6.21118024e-003, 3.10559012e-003, 0., 0., 9.31677036e-003, 0.,
          0., 0., 0., 0., 3.10559012e-003, 0., 0., 0., 0., 0., 0., 0.,
          0., 3.10559012e-003, 6.21118024e-003, 0., 0., 0., 0., 0.,
          3.10559012e-003, 0., 3.10559012e-003, 3.10559012e-003, 0., 0.,
          0., 0., 0., 0., 0., 0., 3.10559012e-003, 0., 0., 0., 0.,
          3.10559012e-003, 0., 0., 3.10559012e-003, 0., 0., 0.,
          3.10559012e-003, 3.10559012e-003, 0., 0., 3.10559012e-003, 0.,
          3.10559012e-003, 0., 3.10559012e-003, 0., 3.10559012e-003, 0.,
          0., 0., 0., 3.10559012e-003, 0., 0., 3.10559012e-003, 0., 0.,
          0., 0., 6.21118024e-003, 0., 0., 3.10559012e-003, 0., 0., 0.,
          6.21118024e-003, 0., 0., 0., 0., 0., 3.10559012e-003, 0., 0.,
          6.21118024e-003, 0., 0., 0., 0., 0., 0., 0., 0., 0., 0., 0.,
          3.10559012e-003, 3.10559012e-003, 0., 0., 0., 0., 0., 0., 0.,
          0., 0., 0., 0., 0., 9.31677036e-003, 0., 0., 0., 0., 0.,
          6.21118024e-003, 0., 0., 0., 0., 0., 0., 0., 0., 0., 0., 0.,
          0., 0., 0., 6.21118024e-003, 3.10559012e-003, 0., 0., 0.,
          3.10559012e-003, 0., 0., 0., 0., 0., 0., 0., 0.,
          3.10559012e-003, 0., 0., 0. ]
      - [ 0., 0., 4.38596494e-003, 0., 0., 0., 4.38596494e-003, 0., 0.,
          0., 0., 0., 0., 0., 8.77192989e-003, 0., 0., 0., 0.,
          4.38596494e-003, 0., 0., 0., 4.38596494e-003, 0.,
          4.38596494e-003, 0., 0., 0., 0., 0., 0., 4.38596494e-003, 0.,
          0., 0., 0., 0., 0., 8.77192989e-003, 0., 0., 4.38596494e-003,
          0., 4.38596494e-003, 0., 4.38596494e-003, 4.38596494e-003,
          8.77192989e-003, 0., 4.38596494e-003, 0., 0., 4.38596494e-003,
          0., 0., 0., 0., 0., 0., 0., 0., 0., 0., 1.31578948e-002, 0.,
          0., 4.38596494e-003, 0., 4.38596494e-003, 4.38596494e-003,
          8.77192989e-003, 0., 4.38596494e-003, 0., 0., 0.,
          8.77192989e-003, 4.38596494e-003, 0., 4.38596494e-003, 0., 0.,
          0., 0., 0., 0., 0., 0., 0., 0., 0., 0., 8.77192989e-003, 0.,
          0., 0., 0., 0., 0., 8.77192989e-003, 4.38596494e-003, 0., 0.,
          0., 0., 0., 4.38596494e-003, 0., 0., 0., 0., 0., 0., 0., 0.,
          0., 0., 0., 8.77192989e-003, 0., 4.38596494e-003, 0., 0., 0.,
          0., 0., 0., 0., 8.77192989e-003, 0., 4.38596494e-003, 0., 0.,
          0., 0., 0., 0., 0., 4.38596494e-003, 0., 4.38596494e-003, 0.,
          0., 8.77192989e-003, 0., 0., 0., 0., 8.77192989e-003, 0., 0.,
          0., 0., 0., 0., 0., 0., 0., 4.38596494e-003, 0.,
          4.38596494e-003, 0., 0., 4.38596494e-003, 0., 0., 0., 0., 0.,
          0., 0., 0., 0., 0., 0., 8.77192989e-003, 0., 0., 0., 0.,
          4.38596494e-003, 0., 0., 8.77192989e-003, 0., 0.,
          4.38596494e-003, 0., 0., 0., 0., 0., 0., 0., 0., 0., 0., 0.,
          0., 0., 0., 4.38596494e-003, 0., 0., 0., 4.38596494e-003, 0.,
          0., 0., 4.38596494e-003, 0., 0., 0., 0., 0., 0., 0., 0., 0.,
          0., 0., 4.38596494e-003, 0., 4.38596494e-003, 0., 0.,
          4.38596494e-003, 0., 8.77192989e-003, 0., 0., 0., 0., 0.,
          1.75438598e-002, 0., 4.38596494e-003, 0., 0., 0., 0., 0.,
          8.77192989e-003, 0., 0., 0., 4.38596494e-003, 4.38596494e-003,
          8.77192989e-003, 0., 0., 0., 0., 0., 0., 0., 0., 0., 0., 0.,
          0., 0., 0., 0., 0., 0., 0., 4.38596494e-003, 0., 0., 0.,
          8.77192989e-003, 0., 0., 0., 0., 0., 0., 4.38596494e-003, 0.,
          4.38596494e-003, 4.38596494e-003, 4.38596494e-003, 0., 0.,
          4.38596494e-003, 0., 0., 0., 0., 0., 0., 0., 0.,
          4.38596494e-003, 0., 0., 0., 0., 0., 4.38596494e-003, 0., 0.,
          0., 0., 0., 0., 0., 0., 0., 0., 0., 0., 0., 0., 0.,
          4.38596494e-003, 0., 0., 4.38596494e-003, 0., 4.38596494e-003,
          0., 0., 0., 0., 0., 0., 4.38596494e-003, 0., 0., 0., 0.,
          4.38596494e-003, 0., 0., 0., 0., 0., 4.38596494e-003, 0., 0.,
          4.38596494e-003, 4.38596494e-003, 4.38596494e-003, 0.,
          4.38596494e-003, 0., 0., 8.77192989e-003, 0., 0., 0., 0., 0.,
          0., 0., 0., 0., 0., 0., 4.38596494e-003, 0., 0., 0.,
          4.38596494e-003, 4.38596494e-003, 0., 4.38596494e-003, 0., 0.,
          0., 0., 0., 4.38596494e-003, 0., 4.38596494e-003, 0., 0., 0.,
          0., 0., 0., 8.77192989e-003, 0., 0., 0., 8.77192989e-003, 0.,
          0., 0., 0., 8.77192989e-003, 0., 0., 0., 0., 0., 0., 0., 0.,
          4.38596494e-003, 0., 0., 0., 0., 0., 0., 0., 4.38596494e-003,
          0., 0., 0., 0., 0., 0., 4.38596494e-003, 0., 4.38596494e-003,
          0., 0., 0., 0., 0., 4.38596494e-003, 0., 0., 0.,
          4.38596494e-003, 0., 0., 0., 0., 0., 8.77192989e-003, 0., 0.,
          0., 0., 0., 0., 4.38596494e-003, 0., 4.38596494e-003, 0., 0.,
          0., 0., 0., 0., 0., 0., 0., 0., 0., 0., 0., 0., 0.,
          4.38596494e-003, 0., 0., 4.38596494e-003, 4.38596494e-003, 0.,
          4.38596494e-003, 4.38596494e-003, 8.77192989e-003, 0., 0., 0.,
          0., 4.38596494e-003, 0., 0., 0., 0., 0., 0., 0.,
          4.38596494e-003, 0., 0., 0., 0., 0., 0., 0., 8.77192989e-003,
          0., 0., 0., 0., 0., 0., 0., 0., 0., 0., 0., 0., 0., 0., 0., 0.,
          0., 0., 0., 0., 0., 0., 0., 1.31578948e-002, 0., 0., 0., 0.,
          0., 0., 0., 4.38596494e-003, 4.38596494e-003, 0., 0.,
          4.38596494e-003, 0., 4.38596494e-003, 0., 0., 0.,
          4.38596494e-003, 0., 0., 0., 0., 0., 0., 0., 0., 0., 0., 0.,
          0., 4.38596494e-003, 0., 0., 0., 0., 4.38596494e-003, 0., 0.,
          0., 0., 0., 0., 0., 0., 0., 0., 0., 4.38596494e-003, 0., 0.,
          4.38596494e-003, 0., 0., 0., 0., 0., 0., 0., 0., 0., 0., 0.,
          0., 0., 0., 0., 0., 0., 0., 0., 0., 0., 0., 0., 0., 0., 0., 0.,
          4.38596494e-003, 4.38596494e-003, 0., 0., 0., 4.38596494e-003,
          0., 0., 0., 0., 0., 0., 0., 0., 0., 0., 0., 0., 0., 0., 0., 0.,
          0., 0., 0., 8.77192989e-003, 4.38596494e-003, 0., 0., 0., 0.,
          0., 0., 0., 0., 0., 4.38596494e-003, 0., 0., 0., 0.,
          4.38596494e-003, 0., 4.38596494e-003, 0., 0., 0., 0., 0., 0.,
          0., 0., 0., 0., 0., 0., 0., 0., 0., 0., 8.77192989e-003,
          4.38596494e-003, 0., 0., 0., 0., 0., 0., 0., 0.,
          4.38596494e-003, 0., 0., 0., 0., 0., 0., 0., 0., 0., 0., 0.,
          0., 0., 0., 0., 4.38596494e-003, 0., 0., 0., 0., 0., 0., 0.,
          0., 4.38596494e-003, 0., 0., 0., 0., 0., 0., 0.,
          4.38596494e-003, 0., 0., 0., 0., 0., 0., 0., 0., 0., 0., 0.,
          0., 0., 0., 0., 0., 0., 0., 0., 0., 4.38596494e-003, 0., 0.,
          0., 0., 0., 0., 0., 0., 4.38596494e-003, 0., 0., 0.,
          8.77192989e-003, 0., 0., 0., 0., 0., 4.38596494e-003,
          4.38596494e-003, 0., 0., 0., 0., 0., 0., 0., 0., 0.,
          4.38596494e-003, 0., 0., 4.38596494e-003, 0., 0., 0., 0.,
          4.38596494e-003, 4.38596494e-003, 0., 0., 1.31578948e-002, 0.,
          0., 0., 0., 0., 0., 0., 0., 0., 0., 1.75438598e-002, 0.,
          8.77192989e-003, 0., 0., 0., 0., 0., 0., 0., 8.77192989e-003,
          0., 0., 0., 8.77192989e-003, 0., 0., 0., 0., 0., 0.,
          4.38596494e-003, 0., 0., 0., 0., 0., 4.38596494e-003, 0., 0.,
          0., 0., 0., 4.38596494e-003, 4.38596494e-003, 0., 0., 0., 0.,
          0., 0., 0., 0., 0., 0., 0., 0., 0., 0., 0., 0., 0., 0., 0., 0.,
          0., 0., 0., 0., 4.38596494e-003, 0., 0., 0., 0., 0., 0., 0.,
          0., 4.38596494e-003, 0., 0., 0., 0., 0., 0., 0., 0., 0.,
          4.38596494e-003, 0., 0., 0., 0., 0., 0., 4.38596494e-003, 0.,
          0., 0., 0., 0., 0., 0., 0., 0., 0., 1.31578948e-002,
          1.31578948e-002, 0., 0., 0., 0., 0., 0., 0., 0., 0., 0.,
          4.38596494e-003, 4.38596494e-003, 0., 0., 0., 0.,
          4.38596494e-003, 0., 0., 0., 0., 0., 4.38596494e-003, 0., 0.,
          0., 0., 0., 0., 4.38596494e-003, 0., 0., 0., 4.38596494e-003,
          0., 4.38596494e-003, 0., 0., 0., 0., 0., 0., 0., 0., 0., 0.,
          0., 0., 0., 4.38596494e-003, 0., 0., 4.38596494e-003, 0.,
          4.38596494e-003, 4.38596494e-003, 0., 0., 4.38596494e-003,
          4.38596494e-003, 4.38596494e-003, 0., 4.38596494e-003, 0., 0.,
          0., 0., 0., 0., 0., 0., 0., 0., 4.38596494e-003, 0., 0., 0.,
          0., 0., 4.38596494e-003, 0., 8.77192989e-003, 4.38596494e-003,
          0., 4.38596494e-003, 0., 0., 0., 0., 4.38596494e-003,
          4.38596494e-003, 0., 4.38596494e-003, 0., 0., 0., 0., 0., 0.,
          0., 4.38596494e-003, 0., 0., 0., 0., 0., 0., 0., 0., 0., 0.,
          0., 0., 0., 0., 8.77192989e-003, 0., 0., 4.38596494e-003, 0.,
          0., 4.38596494e-003, 0., 0., 0., 0., 0., 4.38596494e-003, 0.,
          0., 0., 4.38596494e-003, 0. ]
      - [ 0., 0., 1.65975112e-002, 0., 0., 0., 1.24481339e-002, 0., 0.,
          0., 0., 0., 0., 0., 0., 0., 4.14937781e-003, 4.14937781e-003,
          0., 4.14937781e-003, 0., 4.14937781e-003, 0., 8.29875562e-003,
          0., 4.14937781e-003, 0., 0., 0., 0., 0., 0., 0., 0., 0., 0.,
          0., 0., 0., 0., 0., 0., 4.14937781e-003, 0., 8.29875562e-003,
          0., 0., 4.14937781e-003, 1.24481339e-002, 0., 0., 0., 0., 0.,
          0., 0., 0., 0., 0., 0., 0., 0., 0., 0., 1.65975112e-002,
          4.14937781e-003, 0., 4.14937781e-003, 0., 4.14937781e-003,
          8.29875562e-003, 8.29875562e-003, 0., 4.14937781e-003, 0.,
          8.29875562e-003, 0., 4.14937781e-003, 0., 0., 0., 0., 0., 0.,
          0., 0., 0., 4.14937781e-003, 4.14937781e-003, 0., 0., 0.,
          8.29875562e-003, 8.29875562e-003, 0., 0., 0., 0., 0.,
          8.29875562e-003, 0., 4.14937781e-003, 0., 0., 4.14937781e-003,
          0., 0., 4.14937781e-003, 0., 8.29875562e-003, 0.,
          1.24481339e-002, 0., 4.14937781e-003, 0., 0., 0., 0., 0.,
          4.14937781e-003, 0., 0., 4.14937781e-003, 0., 0., 0.,
          4.14937781e-003, 0., 0., 8.29875562e-003, 0., 0., 0., 0., 0.,
          4.14937781e-003, 0., 0., 4.14937781e-003, 4.14937781e-003, 0.,
          0., 4.14937781e-003, 0., 8.29875562e-003, 4.14937781e-003,
          1.24481339e-002, 4.14937781e-003, 0., 0., 0., 0., 0., 0., 0.,
          0., 0., 4.14937781e-003, 0., 4.14937781e-003, 0.,
          4.14937781e-003, 0., 0., 0., 0., 0., 0., 4.14937781e-003, 0.,
          0., 0., 0., 0., 0., 0., 4.14937781e-003, 0., 0., 0., 0.,
          4.14937781e-003, 4.14937781e-003, 0., 0., 0., 0.,
          4.14937781e-003, 0., 0., 0., 0., 0., 0., 0., 0., 0.,
          8.29875562e-003, 0., 0., 0., 0., 0., 4.14937781e-003, 0., 0.,
          4.14937781e-003, 0., 0., 0., 0., 0., 0., 0., 0., 0.,
          4.14937781e-003, 4.14937781e-003, 0., 0., 0., 0., 0., 0.,
          4.14937781e-003, 0., 0., 0., 0., 1.24481339e-002, 0., 0., 0.,
          4.14937781e-003, 0., 4.14937781e-003, 4.14937781e-003, 0., 0.,
          0., 0., 4.14937781e-003, 0., 8.29875562e-003, 0., 0., 0.,
          4.14937781e-003, 4.14937781e-003, 0., 0., 0., 0., 0., 0., 0.,
          0., 0., 4.14937781e-003, 0., 0., 0., 0., 0., 0., 0., 0., 0.,
          0., 0., 0., 0., 0., 0., 0., 0., 0., 0., 0., 0., 0., 0., 0., 0.,
          8.29875562e-003, 0., 0., 0., 0., 0., 0., 8.29875562e-003, 0.,
          0., 4.14937781e-003, 0., 0., 0., 0., 4.14937781e-003, 0.,
          4.14937781e-003, 0., 0., 4.14937781e-003, 4.14937781e-003, 0.,
          0., 0., 0., 4.14937781e-003, 0., 0., 0., 0., 0.,
          8.29875562e-003, 4.14937781e-003, 0., 0., 0., 0., 0., 0., 0.,
          0., 0., 0., 4.14937781e-003, 0., 0., 0., 0., 0., 0., 0.,
          4.14937781e-003, 0., 0., 0., 4.14937781e-003, 0., 0.,
          4.14937781e-003, 4.14937781e-003, 0., 0., 0., 0.,
          4.14937781e-003, 0., 0., 0., 0., 0., 0., 0., 0.,
          4.14937781e-003, 0., 0., 0., 0., 0., 0., 4.14937781e-003,
          4.14937781e-003, 4.14937781e-003, 0., 8.29875562e-003, 0.,
          4.14937781e-003, 0., 0., 0., 4.14937781e-003, 0.,
          8.29875562e-003, 0., 0., 0., 0., 0., 0., 4.14937781e-003, 0.,
          0., 4.14937781e-003, 4.14937781e-003, 0., 0., 0., 0.,
          1.24481339e-002, 0., 0., 0., 0., 0., 0., 0., 0., 0., 0., 0.,
          0., 0., 0., 0., 0., 0., 0., 0., 4.14937781e-003,
          4.14937781e-003, 0., 0., 4.14937781e-003, 0., 0., 0., 0., 0.,
          4.14937781e-003, 4.14937781e-003, 0., 0., 0., 0.,
          4.14937781e-003, 0., 0., 0., 0., 0., 0., 0., 0., 0., 0., 0.,
          0., 4.14937781e-003, 0., 0., 0., 0., 0., 0., 0., 0., 0., 0.,
          0., 0., 0., 0., 0., 0., 0., 0., 0., 0., 0., 0., 0., 0., 0., 0.,
          0., 0., 0., 0., 0., 0., 0., 0., 0., 0., 0., 0.,
          4.14937781e-003, 0., 0., 0., 0., 0., 4.14937781e-003, 0.,
          8.29875562e-003, 0., 0., 0., 0., 0., 0., 0., 4.14937781e-003,
          0., 0., 0., 0., 0., 0., 0., 0., 0., 0., 0., 0., 0., 0., 0.,
          4.14937781e-003, 0., 0., 0., 0., 0., 0., 0., 0., 0., 0., 0.,
          0., 0., 0., 0., 0., 0., 0., 4.14937781e-003, 4.14937781e-003,
          0., 0., 0., 0., 0., 1.24481339e-002, 0., 0., 0., 0.,
          1.24481339e-002, 0., 0., 0., 0., 0., 0., 0., 4.14937781e-003,
          0., 0., 0., 0., 4.14937781e-003, 0., 0., 0., 4.14937781e-003,
          0., 0., 0., 0., 0., 0., 0., 0., 0., 0., 4.14937781e-003, 0.,
          0., 4.14937781e-003, 0., 0., 0., 0., 0., 0., 0., 0., 0., 0.,
          0., 0., 0., 0., 0., 0., 0., 8.29875562e-003, 0., 0., 0., 0.,
          0., 0., 0., 4.14937781e-003, 0., 0., 0., 0., 0.,
          4.14937781e-003, 4.14937781e-003, 4.14937781e-003, 0., 0., 0.,
          4.14937781e-003, 0., 0., 0., 8.29875562e-003, 0., 0., 0., 0.,
          0., 0., 0., 0., 4.14937781e-003, 0., 4.14937781e-003, 0., 0.,
          0., 0., 4.14937781e-003, 0., 0., 0., 0., 0., 4.14937781e-003,
          0., 0., 4.14937781e-003, 0., 0., 0., 0., 0., 0., 0., 0., 0.,
          0., 4.14937781e-003, 4.14937781e-003, 0., 0., 0., 0., 0., 0.,
          0., 0., 0., 0., 0., 0., 4.14937781e-003, 0., 0., 0., 0., 0.,
          0., 4.14937781e-003, 4.14937781e-003, 0., 0., 0., 0., 0., 0.,
          0., 0., 0., 0., 0., 0., 0., 0., 0., 0., 4.14937781e-003, 0.,
          0., 0., 0., 0., 0., 0., 0., 0., 4.14937781e-003, 0., 0., 0.,
          0., 0., 0., 0., 0., 0., 0., 0., 0., 0., 0., 0., 0., 0., 0.,
          8.29875562e-003, 0., 0., 4.14937781e-003, 0., 0., 0., 0., 0.,
          0., 0., 0., 0., 0., 0., 4.14937781e-003, 0., 0.,
          4.14937781e-003, 0., 0., 0., 0., 0., 4.14937781e-003,
          4.14937781e-003, 0., 0., 8.29875562e-003, 0., 0., 0., 0.,
          4.14937781e-003, 0., 0., 0., 4.14937781e-003, 0., 0., 0., 0.,
          0., 0., 0., 0., 0., 0., 8.29875562e-003, 0., 0., 0., 0., 0.,
          0., 0., 0., 4.14937781e-003, 0., 0., 0., 0., 8.29875562e-003,
          0., 0., 8.29875562e-003, 0., 0., 0., 0., 0., 0.,
          4.14937781e-003, 0., 0., 4.14937781e-003, 0., 0., 0.,
          1.24481339e-002, 0., 0., 0., 0., 0., 0., 0., 4.14937781e-003,
          0., 0., 0., 0., 0., 0., 0., 0., 0., 0., 0., 0., 0., 0., 0., 0.,
          0., 0., 4.14937781e-003, 4.14937781e-003, 4.14937781e-003, 0.,
          0., 0., 0., 0., 4.14937781e-003, 0., 0., 0., 0., 0., 0., 0.,
          0., 0., 0., 0., 0., 0., 0., 4.14937781e-003, 0., 0., 0., 0.,
          0., 4.14937781e-003, 0., 0., 0., 4.14937781e-003, 0., 0., 0.,
          0., 4.14937781e-003, 1.24481339e-002, 0., 0., 0., 0., 0., 0.,
          0., 4.14937781e-003, 0., 0., 0., 0., 0., 0., 0., 0.,
          8.29875562e-003, 0., 0., 0., 0., 0., 8.29875562e-003, 0., 0.,
          4.14937781e-003, 0., 0., 4.14937781e-003, 8.29875562e-003, 0.,
          0., 0., 4.14937781e-003, 0., 8.29875562e-003, 0., 0., 0., 0.,
          0., 0., 0., 0., 0., 8.29875562e-003, 0., 4.14937781e-003, 0.,
          0., 0., 0., 8.29875562e-003, 0., 0., 0., 0., 0., 0.,
          1.24481339e-002, 0., 0., 0., 0., 0., 0., 0., 0.,
          4.14937781e-003, 0., 0., 0., 0., 0., 0., 0., 8.29875562e-003,
          0., 0., 4.14937781e-003, 0., 4.14937781e-003, 0., 0., 0., 0.,
          0., 0., 0., 0., 0., 0., 0., 0., 0., 0., 0., 0., 0.,
          4.14937781e-003, 0., 0., 0., 0., 4.14937781e-003, 0., 0., 0.,
          0., 0., 0., 0., 0., 0., 0., 0., 0., 0., 0., 0., 0., 0., 0., 0.,
          4.14937781e-003, 0., 0., 0., 0., 0., 0., 0., 0. ]
      - [ 0., 0., 3.67647060e-003, 0., 0., 0., 0., 0., 0., 0., 0., 0.,
          0., 3.67647060e-003, 7.35294120e-003, 0., 0., 3.67647060e-003,
          0., 0., 0., 0., 0., 3.67647060e-003, 0., 3.67647060e-003, 0.,
          3.67647060e-003, 0., 0., 0., 0., 0., 0., 0., 0., 0., 0., 0.,
          0., 0., 7.35294120e-003, 3.67647060e-003, 0., 1.10294120e-002,
          0., 3.67647060e-003, 0., 7.35294120e-003, 0., 0., 0., 0.,
          7.35294120e-003, 0., 0., 1.83823537e-002, 0., 0., 0.,
          1.10294120e-002, 0., 0., 0., 1.83823537e-002, 3.67647060e-003,
          0., 0., 0., 3.67647060e-003, 0., 3.67647060e-003,
          3.67647060e-003, 3.67647060e-003, 0., 0., 7.35294120e-003,
          3.67647060e-003, 3.67647060e-003, 3.67647060e-003, 0., 0., 0.,
          0., 0., 0., 3.67647060e-003, 0., 0., 0., 3.67647060e-003, 0.,
          3.67647060e-003, 0., 0., 0., 0., 0., 0., 3.67647060e-003,
          3.67647060e-003, 3.67647060e-003, 0., 0., 0., 0., 0., 0., 0.,
          0., 3.67647060e-003, 0., 0., 0., 0., 0., 3.67647060e-003, 0.,
          0., 3.67647060e-003, 3.67647060e-003, 0., 0., 0.,
          3.67647060e-003, 0., 0., 0., 0., 3.67647060e-003, 0.,
          3.67647060e-003, 0., 3.67647060e-003, 0., 0., 0., 0., 0., 0.,
          0., 3.67647060e-003, 0., 0., 7.35294120e-003, 0., 0., 0., 0.,
          0., 0., 0., 0., 0., 0., 0., 0., 7.35294120e-003, 0.,
          3.67647060e-003, 0., 0., 3.67647060e-003, 0., 3.67647060e-003,
          0., 0., 0., 0., 0., 0., 0., 3.67647060e-003, 0., 0., 0.,
          3.67647060e-003, 0., 0., 0., 0., 0., 3.67647060e-003, 0.,
          7.35294120e-003, 3.67647060e-003, 0., 3.67647060e-003, 0., 0.,
          0., 0., 0., 0., 0., 7.35294120e-003, 0., 0., 0., 0., 0., 0.,
          0., 7.35294120e-003, 0., 0., 3.67647060e-003, 0., 0.,
          3.67647060e-003, 3.67647060e-003, 3.67647060e-003,
          3.67647060e-003, 3.67647060e-003, 0., 0., 0., 0., 0.,
          3.67647060e-003, 0., 0., 0., 0., 3.67647060e-003, 0., 0.,
          3.67647060e-003, 0., 7.35294120e-003, 0., 0., 0., 0., 0.,
          7.35294120e-003, 0., 7.35294120e-003, 0., 0., 0., 0., 0.,
          7.35294120e-003, 0., 0., 0., 0., 0., 1.10294120e-002, 0., 0.,
          3.67647060e-003, 0., 0., 0., 0., 0., 0., 0., 0., 0., 0., 0.,
          0., 0., 0., 0., 0., 1.10294120e-002, 0., 0., 7.35294120e-003,
          0., 0., 0., 0., 0., 0., 0., 0., 0., 0., 0., 0., 0.,
          3.67647060e-003, 0., 0., 3.67647060e-003, 0., 0.,
          3.67647060e-003, 0., 3.67647060e-003, 3.67647060e-003, 0., 0.,
          3.67647060e-003, 0., 0., 7.35294120e-003, 0., 0., 0., 0., 0.,
          0., 0., 0., 0., 0., 0., 3.67647060e-003, 3.67647060e-003, 0.,
          7.35294120e-003, 3.67647060e-003, 0., 0., 0., 0., 0.,
          3.67647060e-003, 0., 0., 0., 3.67647060e-003, 3.67647060e-003,
          0., 0., 0., 0., 0., 0., 3.67647060e-003, 3.67647060e-003, 0.,
          3.67647060e-003, 7.35294120e-003, 7.35294120e-003, 0., 0.,
          3.67647060e-003, 3.67647060e-003, 0., 0., 0., 0., 0., 0., 0.,
          0., 0., 0., 0., 0., 0., 0., 0., 0., 0., 3.67647060e-003, 0.,
          0., 0., 3.67647060e-003, 3.67647060e-003, 0., 3.67647060e-003,
          0., 0., 3.67647060e-003, 0., 0., 3.67647060e-003, 0., 0., 0.,
          0., 0., 0., 0., 0., 3.67647060e-003, 0., 0., 0.,
          7.35294120e-003, 0., 0., 0., 0., 3.67647060e-003, 0., 0., 0.,
          0., 0., 0., 0., 0., 3.67647060e-003, 0., 0., 0., 0., 0., 0.,
          0., 7.35294120e-003, 0., 0., 3.67647060e-003, 3.67647060e-003,
          3.67647060e-003, 0., 3.67647060e-003, 0., 0., 0., 0., 0.,
          3.67647060e-003, 0., 0., 0., 0., 3.67647060e-003,
          7.35294120e-003, 0., 0., 7.35294120e-003, 3.67647060e-003, 0.,
          7.35294120e-003, 0., 0., 0., 0., 0., 3.67647060e-003,
          3.67647060e-003, 0., 0., 0., 0., 0., 0., 0., 0.,
          3.67647060e-003, 0., 0., 0., 0., 0., 0., 0., 0.,
          3.67647060e-003, 0., 0., 0., 0., 0., 3.67647060e-003,
          1.10294120e-002, 3.67647060e-003, 0., 0., 0., 0., 0., 0., 0.,
          0., 0., 0., 0., 0., 0., 0., 0., 0., 0., 0., 3.67647060e-003,
          0., 7.35294120e-003, 0., 3.67647060e-003, 0., 0., 0., 0., 0.,
          3.67647060e-003, 3.67647060e-003, 0., 0., 0., 0., 0., 0., 0.,
          0., 7.35294120e-003, 0., 1.10294120e-002, 0., 0., 0.,
          3.67647060e-003, 0., 0., 0., 0., 0., 0., 0., 7.35294120e-003,
          0., 0., 0., 0., 0., 3.67647060e-003, 0., 3.67647060e-003, 0.,
          3.67647060e-003, 0., 0., 0., 0., 0., 0., 0., 3.67647060e-003,
          0., 0., 0., 0., 0., 0., 0., 0., 0., 0., 0., 0., 0., 0., 0., 0.,
          3.67647060e-003, 0., 0., 0., 0., 3.67647060e-003, 0., 0.,
          1.10294120e-002, 0., 0., 0., 0., 0., 0., 0., 0., 0., 0., 0.,
          0., 0., 0., 0., 0., 0., 0., 0., 0., 0., 0., 0.,
          3.67647060e-003, 0., 0., 0., 0., 3.67647060e-003, 0.,
          3.67647060e-003, 3.67647060e-003, 3.67647060e-003, 0., 0., 0.,
          0., 0., 0., 0., 7.35294120e-003, 0., 0., 0., 0., 0., 0., 0.,
          0., 0., 0., 0., 3.67647060e-003, 0., 0., 0., 0., 0., 0.,
          3.67647060e-003, 0., 0., 0., 0., 3.67647060e-003, 0., 0., 0.,
          0., 0., 3.67647060e-003, 0., 0., 0., 3.67647060e-003, 0., 0.,
          0., 0., 0., 0., 0., 0., 0., 0., 0., 0., 0., 0., 0., 0., 0., 0.,
          0., 0., 0., 0., 3.67647060e-003, 0., 0., 0., 0., 0., 0., 0.,
          0., 0., 0., 7.35294120e-003, 0., 0., 0., 0., 0., 0., 0., 0.,
          0., 0., 0., 3.67647060e-003, 0., 3.67647060e-003, 0., 0., 0.,
          0., 0., 0., 0., 0., 0., 0., 0., 0., 0., 0., 0., 0., 0., 0., 0.,
          3.67647060e-003, 7.35294120e-003, 0., 0., 0., 0.,
          3.67647060e-003, 3.67647060e-003, 0., 0., 0., 3.67647060e-003,
          0., 0., 0., 0., 0., 1.47058824e-002, 3.67647060e-003, 0., 0.,
          3.67647060e-003, 7.35294120e-003, 0., 0., 0., 0., 0.,
          3.67647060e-003, 0., 0., 0., 0., 0., 0., 0., 0., 0., 0.,
          3.67647060e-003, 0., 0., 0., 0., 0., 0., 0., 0., 0., 0., 0.,
          1.47058824e-002, 3.67647060e-003, 0., 0., 0., 0., 0., 0., 0.,
          0., 0., 7.35294120e-003, 0., 0., 0., 0., 0., 0., 0., 0.,
          3.67647060e-003, 0., 0., 0., 0., 0., 0., 0., 0., 0., 0.,
          3.67647060e-003, 0., 0., 0., 0., 0., 3.67647060e-003,
          3.67647060e-003, 0., 0., 0., 0., 0., 0., 0., 0., 0., 0.,
          3.67647060e-003, 3.67647060e-003, 0., 0., 0., 7.35294120e-003,
          0., 0., 0., 0., 0., 0., 0., 0., 0., 0., 0., 0., 0., 0.,
          7.35294120e-003, 0., 1.10294120e-002, 0., 0., 0., 0., 0., 0.,
          0., 0., 0., 0., 0., 0., 0., 0., 0., 0., 0., 3.67647060e-003,
          3.67647060e-003, 0., 1.10294120e-002, 0., 0., 0., 0., 0., 0.,
          0., 0., 0., 0., 0., 0., 0., 0., 1.10294120e-002, 0.,
          3.67647060e-003, 3.67647060e-003, 0., 0., 0., 0., 0., 0., 0.,
          0., 0., 0., 0., 0., 0., 0., 0., 3.67647060e-003, 0., 0., 0.,
          0., 3.67647060e-003, 0., 0., 3.67647060e-003, 0., 0., 0.,
          7.35294120e-003, 0., 0., 0., 3.67647060e-003, 0.,
          7.35294120e-003, 0., 0., 0., 0., 0., 0., 0., 0., 0., 0., 0.,
          0., 0., 0., 0., 0., 7.35294120e-003, 3.67647060e-003, 0., 0.,
          0., 0., 0., 0., 0., 0., 0., 0., 0., 0., 0., 3.67647060e-003,
          3.67647060e-003, 0., 3.67647060e-003, 0., 0., 0., 0., 0., 0.,
          0., 0., 0., 0., 3.67647060e-003, 7.35294120e-003, 0., 0., 0.,
          0., 0., 0., 0., 0., 0., 0., 0., 0., 0., 0., 0., 0., 0., 0., 0.,
          0., 0., 3.67647060e-003, 0., 0., 0., 0., 0., 0., 0., 0., 0.,
          0., 1.10294120e-002, 0., 0., 3.67647060e-003, 0., 0., 0., 0.,
          0., 0., 0., 0., 0., 0., 0., 0., 1.10294120e-002, 0. ]
      - [ 0., 0., 1.96078438e-002, 0., 0., 0., 3.92156886e-003, 0., 0.,
          0., 3.92156886e-003, 0., 0., 0., 3.92156886e-003, 0., 0.,
          3.92156886e-003, 0., 1.17647070e-002, 0., 0., 0.,
          7.84313772e-003, 0., 3.92156886e-003, 0., 0., 0., 0., 0., 0.,
          0., 0., 0., 0., 0., 0., 0., 3.92156886e-003, 0., 0., 0., 0.,
          3.92156886e-003, 0., 0., 3.92156886e-003, 7.84313772e-003, 0.,
          3.92156886e-003, 0., 0., 0., 0., 0., 3.92156886e-003, 0., 0.,
          0., 0., 0., 0., 0., 3.13725509e-002, 0., 0., 7.84313772e-003,
          0., 0., 0., 0., 0., 3.92156886e-003, 0., 3.92156886e-003, 0.,
          7.84313772e-003, 0., 0., 3.92156886e-003, 0., 0., 0., 0., 0.,
          0., 3.92156886e-003, 3.92156886e-003, 0., 3.92156886e-003, 0.,
          7.84313772e-003, 3.92156886e-003, 0., 3.92156886e-003, 0.,
          3.92156886e-003, 0., 0., 0., 0., 0., 0., 3.92156886e-003, 0.,
          0., 3.92156886e-003, 0., 7.84313772e-003, 0., 7.84313772e-003,
          0., 3.92156886e-003, 0., 0., 0., 0., 0., 7.84313772e-003, 0.,
          0., 0., 0., 3.92156886e-003, 3.92156886e-003, 3.92156886e-003,
          0., 3.92156886e-003, 3.92156886e-003, 0., 0., 0.,
          3.92156886e-003, 0., 0., 0., 0., 3.92156886e-003, 0., 0., 0.,
          1.17647070e-002, 0., 7.84313772e-003, 0., 3.92156886e-003,
          3.92156886e-003, 0., 0., 0., 0., 0., 0., 0., 0., 0.,
          3.92156886e-003, 0., 3.92156886e-003, 0., 3.92156886e-003,
          3.92156886e-003, 0., 0., 0., 0., 0., 3.92156886e-003, 0., 0.,
          0., 0., 0., 0., 0., 7.84313772e-003, 0., 0., 0., 0.,
          3.92156886e-003, 3.92156886e-003, 0., 3.92156886e-003, 0., 0.,
          3.92156886e-003, 0., 0., 0., 0., 0., 0., 0., 0., 0., 0., 0.,
          0., 0., 0., 3.92156886e-003, 0., 0., 0., 3.92156886e-003, 0.,
          0., 0., 0., 0., 0., 0., 0., 3.92156886e-003, 0.,
          3.92156886e-003, 0., 0., 3.92156886e-003, 7.84313772e-003, 0.,
          3.92156886e-003, 3.92156886e-003, 0., 0., 7.84313772e-003, 0.,
          7.84313772e-003, 0., 0., 0., 3.92156886e-003, 0.,
          3.92156886e-003, 3.92156886e-003, 0., 0., 0., 0., 0., 0.,
          7.84313772e-003, 0., 0., 0., 0., 0., 0., 3.92156886e-003, 0.,
          0., 0., 0., 0., 0., 0., 0., 0., 0., 0., 0., 0., 0., 0., 0., 0.,
          0., 3.92156886e-003, 0., 0., 3.92156886e-003, 0., 0., 0., 0.,
          0., 0., 0., 0., 0., 3.92156886e-003, 0., 0., 0.,
          3.92156886e-003, 0., 0., 3.92156886e-003, 0., 7.84313772e-003,
          3.92156886e-003, 0., 0., 3.92156886e-003, 0., 0., 0., 0., 0.,
          0., 0., 0., 3.92156886e-003, 0., 3.92156886e-003, 0., 0., 0.,
          0., 0., 0., 0., 0., 0., 3.92156886e-003, 3.92156886e-003, 0.,
          1.17647070e-002, 0., 0., 3.92156886e-003, 3.92156886e-003, 0.,
          0., 0., 0., 0., 0., 0., 0., 3.92156886e-003, 0., 0., 0., 0.,
          0., 0., 0., 0., 0., 0., 0., 3.92156886e-003, 3.92156886e-003,
          0., 0., 0., 3.92156886e-003, 0., 0., 0., 0., 0., 0., 0., 0.,
          0., 0., 0., 0., 3.92156886e-003, 0., 0., 3.92156886e-003, 0.,
          3.92156886e-003, 0., 3.92156886e-003, 0., 0., 0., 0., 0.,
          3.92156886e-003, 0., 0., 0., 0., 0., 0., 0., 0.,
          7.84313772e-003, 0., 0., 3.92156886e-003, 0., 0., 0., 0., 0.,
          7.84313772e-003, 0., 0., 0., 0., 0., 0., 3.92156886e-003, 0.,
          0., 0., 0., 0., 0., 0., 0., 3.92156886e-003, 0., 0., 0.,
          7.84313772e-003, 3.92156886e-003, 0., 0., 3.92156886e-003, 0.,
          0., 0., 0., 0., 0., 0., 0., 0., 0., 0., 0., 0., 0., 0., 0., 0.,
          0., 0., 3.92156886e-003, 0., 0., 3.92156886e-003, 0., 0., 0.,
          0., 0., 0., 0., 0., 0., 0., 0., 0., 0., 0., 0., 0., 0., 0., 0.,
          3.92156886e-003, 0., 0., 0., 3.92156886e-003, 0., 0.,
          3.92156886e-003, 7.84313772e-003, 3.92156886e-003, 0., 0., 0.,
          0., 0., 0., 3.92156886e-003, 0., 0., 0., 0., 3.92156886e-003,
          0., 0., 0., 0., 0., 3.92156886e-003, 0., 7.84313772e-003, 0.,
          0., 0., 0., 0., 0., 0., 7.84313772e-003, 0., 0., 0., 0., 0.,
          0., 0., 0., 0., 3.92156886e-003, 0., 0., 0., 0., 0.,
          3.92156886e-003, 0., 0., 0., 0., 0., 0., 0., 0., 0.,
          3.92156886e-003, 3.92156886e-003, 0., 0., 0., 0., 0., 0., 0.,
          3.92156886e-003, 0., 0., 0., 0., 0., 0., 0., 0., 0., 0., 0.,
          1.17647070e-002, 0., 0., 0., 0., 0., 0., 0., 0., 0., 0., 0.,
          0., 0., 0., 0., 0., 3.92156886e-003, 0., 0., 0., 0., 0., 0.,
          0., 0., 0., 0., 3.92156886e-003, 0., 0., 0., 0.,
          3.92156886e-003, 0., 0., 0., 0., 3.92156886e-003, 0., 0., 0.,
          0., 0., 0., 0., 0., 0., 3.92156886e-003, 3.92156886e-003, 0.,
          0., 0., 0., 0., 0., 0., 0., 0., 0., 0., 0., 0.,
          7.84313772e-003, 0., 1.56862754e-002, 0., 0., 0., 0., 0., 0.,
          0., 3.92156886e-003, 3.92156886e-003, 0., 0., 0., 0., 0.,
          3.92156886e-003, 0., 0., 0., 0., 0., 0., 0., 0., 0., 0., 0.,
          0., 0., 0., 0., 3.92156886e-003, 0., 0., 0., 0., 0., 0., 0.,
          0., 0., 0., 3.92156886e-003, 3.92156886e-003, 3.92156886e-003,
          3.92156886e-003, 0., 0., 0., 0., 0., 0., 0., 0.,
          3.92156886e-003, 0., 0., 0., 0., 0., 0., 0., 0., 0., 0.,
          3.92156886e-003, 0., 3.92156886e-003, 0., 0., 0., 0., 0., 0.,
          0., 3.92156886e-003, 0., 0., 0., 3.92156886e-003,
          3.92156886e-003, 0., 0., 0., 0., 0., 3.92156886e-003, 0., 0.,
          0., 0., 0., 0., 3.92156886e-003, 0., 0., 0., 0., 0., 0.,
          7.84313772e-003, 0., 0., 0., 0., 0., 0., 3.92156886e-003,
          3.92156886e-003, 0., 0., 3.92156886e-003, 3.92156886e-003, 0.,
          0., 3.92156886e-003, 0., 0., 0., 0., 0., 0., 0., 0., 0., 0.,
          0., 0., 0., 0., 0., 0., 0., 0., 0., 0., 3.92156886e-003,
          3.92156886e-003, 0., 0., 3.92156886e-003, 0., 0., 0., 0., 0.,
          0., 0., 0., 3.92156886e-003, 0., 3.92156886e-003, 0., 0., 0.,
          0., 0., 0., 0., 0., 1.17647070e-002, 0., 0., 0., 0., 0.,
          3.92156886e-003, 0., 0., 0., 0., 0., 0., 0., 1.17647070e-002,
          0., 0., 3.92156886e-003, 0., 0., 3.92156886e-003, 0., 0., 0.,
          3.92156886e-003, 0., 0., 3.92156886e-003, 0., 0., 0.,
          3.92156886e-003, 0., 0., 0., 0., 0., 0., 0., 3.92156886e-003,
          0., 0., 0., 0., 0., 0., 0., 0., 3.92156886e-003, 0., 0., 0.,
          0., 0., 0., 0., 0., 0., 0., 3.92156886e-003, 0., 0., 0., 0.,
          0., 0., 3.92156886e-003, 0., 0., 0., 0., 0., 0., 0., 0., 0.,
          0., 0., 0., 0., 0., 1.17647070e-002, 0., 0., 0., 0., 0., 0.,
          0., 0., 0., 0., 0., 0., 0., 0., 3.92156886e-003,
          1.17647070e-002, 0., 0., 0., 0., 0., 0., 0., 3.92156886e-003,
          3.92156886e-003, 0., 0., 0., 0., 0., 0., 0., 3.92156886e-003,
          3.92156886e-003, 0., 0., 0., 0., 7.84313772e-003, 0., 0.,
          7.84313772e-003, 0., 0., 0., 3.92156886e-003, 0., 0., 0.,
          3.92156886e-003, 0., 3.92156886e-003, 0., 0., 0., 0.,
          3.92156886e-003, 0., 0., 0., 3.92156886e-003, 3.92156886e-003,
          0., 3.92156886e-003, 0., 0., 0., 0., 1.17647070e-002,
          3.92156886e-003, 0., 0., 0., 0., 0., 7.84313772e-003, 0., 0.,
          0., 0., 0., 0., 0., 0., 3.92156886e-003, 0., 3.92156886e-003,
          0., 0., 0., 0., 0., 0., 0., 0., 3.92156886e-003, 0.,
          3.92156886e-003, 3.92156886e-003, 0., 3.92156886e-003, 0., 0.,
          0., 0., 0., 0., 0., 0., 0., 0., 0., 0., 0., 0.,
          3.92156886e-003, 0., 0., 0., 0., 3.92156886e-003, 0., 0., 0.,
          0., 0., 0., 0., 0., 3.92156886e-003, 0., 7.84313772e-003, 0.,
          0., 0., 0., 0., 0., 0., 0., 0., 3.92156886e-003, 0., 0., 0.,
          0., 0., 0., 0. ]
      - [ 0., 0., 6.71140943e-003, 0., 0., 0., 0., 0., 3.35570471e-003,
          0., 3.35570471e-003, 3.35570471e-003, 0., 0., 3.35570471e-003,
          0., 0., 1.00671146e-002, 0., 3.35570471e-003, 0., 0., 0.,
          6.71140943e-003, 0., 3.35570471e-003, 0., 0., 0., 0., 0., 0.,
          0., 0., 0., 0., 0., 0., 3.35570471e-003, 6.71140943e-003, 0.,
          0., 1.34228189e-002, 0., 6.71140943e-003, 3.35570471e-003, 0.,
          0., 3.35570471e-003, 0., 0., 0., 0., 0., 0., 0., 0., 0., 0.,
          0., 0., 0., 0., 0., 3.35570471e-003, 6.71140943e-003, 0.,
          3.35570471e-003, 3.35570471e-003, 0., 3.35570471e-003,
          6.71140943e-003, 0., 3.35570471e-003, 0., 3.35570471e-003, 0.,
          0., 3.35570471e-003, 0., 0., 0., 3.35570471e-003,
          3.35570471e-003, 0., 0., 6.71140943e-003, 3.35570471e-003, 0.,
          0., 3.35570471e-003, 0., 3.35570471e-003, 0., 0., 0., 0., 0.,
          0., 0., 0., 3.35570471e-003, 0., 6.71140943e-003, 0., 0., 0.,
          0., 0., 6.71140943e-003, 0., 3.35570471e-003, 0.,
          6.71140943e-003, 0., 0., 0., 0., 0., 0., 0., 0.,
          3.35570471e-003, 0., 0., 0., 3.35570471e-003, 0.,
          3.35570471e-003, 6.71140943e-003, 3.35570471e-003,
          3.35570471e-003, 0., 6.71140943e-003, 0., 0., 0.,
          3.35570471e-003, 0., 0., 0., 0., 0., 0., 6.71140943e-003, 0.,
          6.71140943e-003, 3.35570471e-003, 0., 0., 0., 0., 0., 0., 0.,
          0., 0., 3.35570471e-003, 0., 3.35570471e-003, 3.35570471e-003,
          6.71140943e-003, 0., 0., 3.35570471e-003, 0., 0., 0.,
          3.35570471e-003, 0., 0., 0., 0., 0., 0., 0., 3.35570471e-003,
          0., 3.35570471e-003, 0., 3.35570471e-003, 3.35570471e-003,
          1.00671146e-002, 0., 6.71140943e-003, 0., 0., 3.35570471e-003,
          0., 0., 0., 0., 0., 0., 0., 3.35570471e-003, 0.,
          3.35570471e-003, 0., 0., 0., 0., 0., 3.35570471e-003,
          3.35570471e-003, 0., 3.35570471e-003, 0., 0., 0.,
          3.35570471e-003, 3.35570471e-003, 0., 0., 6.71140943e-003, 0.,
          0., 0., 0., 3.35570471e-003, 0., 0., 0., 0., 0., 0., 0.,
          3.35570471e-003, 0., 1.67785231e-002, 0., 0., 0.,
          3.35570471e-003, 0., 3.35570471e-003, 0., 3.35570471e-003, 0.,
          0., 0., 0., 6.71140943e-003, 0., 0., 3.35570471e-003, 0.,
          3.35570471e-003, 0., 0., 0., 0., 0., 0., 0., 0., 0., 0., 0.,
          3.35570471e-003, 0., 0., 0., 0., 0., 0., 0., 0., 0.,
          3.35570471e-003, 0., 3.35570471e-003, 0., 0., 0., 0., 0., 0.,
          0., 0., 0., 0., 3.35570471e-003, 0., 3.35570471e-003,
          3.35570471e-003, 1.00671146e-002, 0., 0., 3.35570471e-003, 0.,
          0., 0., 3.35570471e-003, 0., 0., 0., 0., 3.35570471e-003,
          3.35570471e-003, 0., 0., 0., 0., 3.35570471e-003, 0., 0., 0.,
          0., 3.35570471e-003, 3.35570471e-003, 0., 0., 0., 0., 0., 0.,
          3.35570471e-003, 0., 0., 0., 0., 0., 0., 0., 0.,
          3.35570471e-003, 0., 0., 0., 0., 0., 0., 0., 3.35570471e-003,
          3.35570471e-003, 0., 0., 0., 0., 0., 0., 0., 0.,
          3.35570471e-003, 0., 0., 0., 0., 0., 0., 0., 0., 0., 0., 0.,
          0., 0., 0., 0., 0., 0., 0., 0., 0., 6.71140943e-003,
          3.35570471e-003, 3.35570471e-003, 0., 0., 0., 0.,
          3.35570471e-003, 0., 0., 0., 0., 0., 0., 0., 0., 0., 0., 0.,
          3.35570471e-003, 0., 3.35570471e-003, 0., 0., 0., 0., 0., 0.,
          6.71140943e-003, 0., 0., 0., 0., 0., 0., 0., 0., 0., 0., 0.,
          0., 0., 0., 0., 0., 0., 3.35570471e-003, 3.35570471e-003, 0.,
          3.35570471e-003, 0., 0., 3.35570471e-003, 0., 3.35570471e-003,
          0., 0., 0., 3.35570471e-003, 0., 0., 3.35570471e-003, 0.,
          3.35570471e-003, 0., 0., 0., 0., 3.35570471e-003, 0., 0., 0.,
          0., 3.35570471e-003, 0., 3.35570471e-003, 0., 0., 0., 0., 0.,
          0., 0., 3.35570471e-003, 0., 0., 0., 0., 0., 0., 0., 0., 0.,
          0., 0., 0., 3.35570471e-003, 0., 0., 0., 0., 3.35570471e-003,
          6.71140943e-003, 3.35570471e-003, 0., 3.35570471e-003,
          3.35570471e-003, 0., 3.35570471e-003, 0., 0., 3.35570471e-003,
          0., 0., 0., 0., 0., 0., 0., 0., 0., 0., 0., 0.,
          6.71140943e-003, 0., 1.00671146e-002, 0., 0., 3.35570471e-003,
          0., 6.71140943e-003, 3.35570471e-003, 0., 0., 0., 0., 0., 0.,
          0., 0., 0., 3.35570471e-003, 0., 3.35570471e-003, 0., 0., 0.,
          3.35570471e-003, 0., 0., 0., 0., 0., 0., 0., 3.35570471e-003,
          3.35570471e-003, 3.35570471e-003, 0., 3.35570471e-003, 0., 0.,
          0., 0., 0., 0., 3.35570471e-003, 0., 0., 0., 0., 0., 0., 0.,
          0., 3.35570471e-003, 0., 0., 0., 0., 0., 0., 0.,
          3.35570471e-003, 0., 0., 3.35570471e-003, 0., 0., 0., 0.,
          3.35570471e-003, 3.35570471e-003, 0., 0., 3.35570471e-003, 0.,
          0., 6.71140943e-003, 0., 0., 0., 0., 0., 0., 0.,
          3.35570471e-003, 3.35570471e-003, 0., 0., 0., 0., 0., 0., 0.,
          0., 0., 3.35570471e-003, 0., 0., 0., 0., 0., 0., 0., 0., 0.,
          3.35570471e-003, 0., 0., 0., 0., 0., 0., 0., 0., 0., 0., 0.,
          3.35570471e-003, 6.71140943e-003, 0., 3.35570471e-003, 0., 0.,
          0., 0., 0., 0., 0., 0., 0., 3.35570471e-003, 0., 0., 0., 0.,
          0., 0., 0., 0., 0., 0., 0., 0., 0., 3.35570471e-003,
          3.35570471e-003, 0., 0., 0., 0., 0., 0., 3.35570471e-003,
          3.35570471e-003, 0., 0., 0., 6.71140943e-003, 0., 0.,
          3.35570471e-003, 0., 0., 0., 0., 3.35570471e-003, 0., 0., 0.,
          0., 0., 0., 0., 0., 0., 0., 0., 6.71140943e-003, 0., 0., 0.,
          3.35570471e-003, 0., 0., 0., 0., 3.35570471e-003, 0., 0., 0.,
          0., 0., 3.35570471e-003, 0., 0., 0., 0., 0., 0.,
          6.71140943e-003, 3.35570471e-003, 6.71140943e-003, 0., 0.,
          3.35570471e-003, 3.35570471e-003, 0., 0., 0., 0., 0., 0., 0.,
          0., 0., 0., 0., 0., 0., 0., 0., 0., 0., 0., 0., 0.,
          6.71140943e-003, 0., 6.71140943e-003, 0., 0., 0., 0.,
          6.71140943e-003, 0., 0., 0., 0., 0., 3.35570471e-003,
          3.35570471e-003, 0., 3.35570471e-003, 0., 0., 0., 0., 0., 0.,
          0., 0., 0., 0., 0., 0., 0., 0., 0., 3.35570471e-003, 0., 0.,
          3.35570471e-003, 0., 0., 0., 0., 0., 3.35570471e-003, 0., 0.,
          6.71140943e-003, 3.35570471e-003, 0., 0., 0., 0.,
          3.35570471e-003, 0., 3.35570471e-003, 0., 0., 6.71140943e-003,
          0., 0., 0., 0., 0., 0., 0., 0., 0., 0., 0., 0., 0., 0., 0., 0.,
          0., 0., 0., 6.71140943e-003, 0., 0., 0., 6.71140943e-003, 0.,
          0., 3.35570471e-003, 0., 0., 0., 0., 0., 0., 0., 0., 0., 0.,
          0., 0., 0., 0., 0., 0., 0., 0., 0., 3.35570471e-003, 0., 0.,
          0., 0., 0., 0., 3.35570471e-003, 0., 0., 0., 6.71140943e-003,
          0., 3.35570471e-003, 3.35570471e-003, 0., 3.35570471e-003, 0.,
          0., 3.35570471e-003, 0., 3.35570471e-003, 0., 0., 0., 0., 0.,
          0., 0., 0., 3.35570471e-003, 3.35570471e-003, 0.,
          6.71140943e-003, 1.00671146e-002, 0., 3.35570471e-003, 0.,
          6.71140943e-003, 0., 6.71140943e-003, 0., 0., 0.,
          6.71140943e-003, 0., 0., 0., 0., 0., 0., 0., 0., 0., 0., 0.,
          0., 0., 3.35570471e-003, 1.00671146e-002, 0., 0.,
          3.35570471e-003, 0., 0., 0., 0., 3.35570471e-003, 0., 0., 0.,
          3.35570471e-003, 6.71140943e-003, 1.00671146e-002, 0., 0.,
          3.35570471e-003, 0., 0., 0., 6.71140943e-003, 3.35570471e-003,
          0., 0., 3.35570471e-003, 0., 0., 0., 0., 0., 0., 0., 0., 0.,
          0., 0., 0., 0., 0., 3.35570471e-003, 0., 0., 0.,
          1.00671146e-002, 0., 0., 0., 0., 0., 3.35570471e-003, 0., 0.,
          0., 3.35570471e-003, 0., 0., 0., 3.35570471e-003, 0.,
          3.35570471e-003, 0., 3.35570471e-003, 0., 0., 0., 0., 0.,
          3.35570471e-003, 0., 0., 0., 0., 6.71140943e-003, 0., 0.,
          3.35570471e-003, 0., 0., 3.35570471e-003, 0., 0.,
          3.35570471e-003, 0., 0., 0., 0., 0., 0., 0., 0.,
          3.35570471e-003, 0., 0., 3.35570471e-003, 0., 3.35570471e-003,
          0., 0., 0., 0., 0., 0., 0., 0., 6.71140943e-003, 0.,
          6.71140943e-003, 3.35570471e-003, 0., 3.35570471e-003, 0., 0.,
          0., 0., 0., 0., 0., 0., 0., 0., 0., 0., 0., 0. ]
      - [ 0., 0., 6.13496918e-003, 0., 0., 0., 6.13496918e-003,
          2.14723926e-002, 0., 0., 3.06748459e-003, 3.06748459e-003,
          3.06748459e-003, 0., 6.13496918e-003, 0., 0., 6.13496918e-003,
          0., 3.06748459e-003, 0., 3.06748459e-003, 0., 3.06748459e-003,
          0., 3.06748459e-003, 0., 0., 0., 0., 0., 0., 9.20245424e-003,
          0., 3.06748459e-003, 0., 0., 0., 0., 6.13496918e-003, 0., 0.,
          0., 0., 0., 0., 0., 3.06748459e-003, 6.13496918e-003, 0., 0.,
          0., 0., 0., 0., 0., 3.06748459e-003, 0., 3.06748459e-003, 0.,
          3.06748459e-003, 0., 0., 0., 9.20245424e-003, 0., 0., 0., 0.,
          0., 3.06748459e-003, 6.13496918e-003, 0., 3.06748459e-003, 0.,
          0., 0., 6.13496918e-003, 0., 0., 0., 0., 3.06748459e-003, 0.,
          0., 0., 3.06748459e-003, 0., 0., 3.06748459e-003, 0., 0., 0.,
          3.06748459e-003, 0., 0., 0., 0., 0., 0., 0., 3.06748459e-003,
          0., 0., 3.06748459e-003, 0., 0., 0., 0., 3.06748459e-003, 0.,
          9.20245424e-003, 0., 3.06748459e-003, 0., 0., 0., 0., 0.,
          3.06748459e-003, 0., 0., 3.06748459e-003, 0., 0., 0.,
          3.06748459e-003, 0., 0., 3.06748459e-003, 6.13496918e-003, 0.,
          9.20245424e-003, 0., 0., 0., 0., 0., 0., 0., 0., 0.,
          9.20245424e-003, 0., 3.06748459e-003, 3.06748459e-003,
          6.13496918e-003, 6.13496918e-003, 0., 0., 0., 0., 0.,
          1.22699384e-002, 3.06748459e-003, 0., 0., 3.06748459e-003, 0.,
          0., 0., 3.06748459e-003, 0., 3.06748459e-003, 3.06748459e-003,
          0., 0., 0., 0., 0., 0., 0., 0., 0., 0., 0., 3.06748459e-003,
          0., 0., 0., 0., 3.06748459e-003, 3.06748459e-003, 0.,
          3.06748459e-003, 0., 0., 3.06748459e-003, 0., 0., 0., 0., 0.,
          3.06748459e-003, 0., 0., 0., 6.13496918e-003, 0., 0., 0., 0.,
          0., 0., 0., 0., 3.06748459e-003, 0., 0., 3.06748459e-003, 0.,
          0., 0., 0., 0., 3.06748459e-003, 0., 0., 0., 3.06748459e-003,
          0., 6.13496918e-003, 0., 0., 6.13496918e-003, 0.,
          3.06748459e-003, 6.13496918e-003, 3.06748459e-003,
          9.20245424e-003, 0., 0., 0., 0., 0., 3.06748459e-003, 0.,
          3.06748459e-003, 0., 0., 0., 0., 0., 6.13496918e-003, 0., 0.,
          0., 0., 3.06748459e-003, 0., 0., 0., 0., 0., 0., 0., 0., 0.,
          0., 0., 0., 0., 0., 3.06748459e-003, 0., 0., 0., 0., 0., 0.,
          0., 0., 0., 0., 0., 0., 0., 0., 0., 0., 0., 3.06748459e-003,
          3.06748459e-003, 0., 6.13496918e-003, 0., 0., 0., 0.,
          6.13496918e-003, 0., 3.06748459e-003, 0., 0., 0., 0., 0., 0.,
          0., 3.06748459e-003, 3.06748459e-003, 3.06748459e-003, 0., 0.,
          3.06748459e-003, 0., 0., 0., 3.06748459e-003, 3.06748459e-003,
          0., 6.13496918e-003, 0., 3.06748459e-003, 0., 0.,
          6.13496918e-003, 3.06748459e-003, 0., 6.13496918e-003, 0.,
          6.13496918e-003, 0., 3.06748459e-003, 3.06748459e-003, 0., 0.,
          0., 0., 0., 0., 0., 3.06748459e-003, 0., 0., 0., 0., 0., 0.,
          0., 0., 0., 0., 3.06748459e-003, 0., 3.06748459e-003, 0., 0.,
          0., 3.06748459e-003, 0., 0., 0., 0., 0., 0., 0., 0., 0., 0.,
          0., 0., 0., 0., 3.06748459e-003, 3.06748459e-003,
          9.20245424e-003, 3.06748459e-003, 0., 3.06748459e-003, 0., 0.,
          6.13496918e-003, 0., 0., 3.06748459e-003, 0., 0.,
          3.06748459e-003, 3.06748459e-003, 0., 0., 0., 0.,
          9.20245424e-003, 0., 9.20245424e-003, 3.06748459e-003, 0., 0.,
          0., 0., 3.06748459e-003, 6.13496918e-003, 0., 3.06748459e-003,
          0., 0., 0., 0., 0., 0., 0., 0., 0., 3.06748459e-003, 0., 0.,
          0., 0., 0., 0., 0., 3.06748459e-003, 0., 3.06748459e-003, 0.,
          3.06748459e-003, 0., 0., 0., 0., 0., 3.06748459e-003, 0., 0.,
          0., 0., 3.06748459e-003, 0., 0., 0., 0., 0., 0., 0., 0.,
          3.06748459e-003, 0., 3.06748459e-003, 3.06748459e-003, 0., 0.,
          0., 0., 0., 0., 0., 0., 0., 0., 3.06748459e-003, 0., 0., 0.,
          0., 0., 0., 0., 0., 0., 0., 0., 0., 3.06748459e-003,
          6.13496918e-003, 3.06748459e-003, 0., 0., 0., 0.,
          3.06748459e-003, 0., 0., 0., 0., 0., 0., 0., 0., 0., 0., 0.,
          0., 0., 0., 3.06748459e-003, 3.06748459e-003, 0.,
          3.06748459e-003, 0., 0., 0., 0., 0., 0., 0., 1.22699384e-002,
          0., 3.06748459e-003, 0., 0., 3.06748459e-003, 0., 0., 0., 0.,
          0., 0., 3.06748459e-003, 0., 0., 0., 3.06748459e-003, 0., 0.,
          0., 0., 0., 0., 0., 3.06748459e-003, 0., 3.06748459e-003,
          3.06748459e-003, 0., 0., 3.06748459e-003, 0., 0.,
          3.06748459e-003, 0., 3.06748459e-003, 0., 0., 0., 0., 0., 0.,
          0., 0., 0., 0., 0., 9.20245424e-003, 0., 0., 0.,
          3.06748459e-003, 0., 0., 6.13496918e-003, 0., 0., 0., 0., 0.,
          3.06748459e-003, 0., 0., 0., 6.13496918e-003, 0., 0.,
          3.06748459e-003, 0., 0., 0., 0., 0., 0., 1.22699384e-002,
          3.06748459e-003, 9.20245424e-003, 0., 0., 0., 3.06748459e-003,
          0., 0., 0., 0., 0., 0., 0., 0., 0., 0., 0., 0., 0., 0.,
          3.06748459e-003, 3.06748459e-003, 0., 0., 0., 0., 0., 0., 0.,
          0., 0., 0., 0., 0., 3.06748459e-003, 0., 6.13496918e-003,
          3.06748459e-003, 0., 0., 3.06748459e-003, 0., 0.,
          3.68098170e-002, 3.06748459e-003, 0., 0., 0., 3.06748459e-003,
          0., 0., 0., 0., 0., 3.06748459e-003, 0., 0., 0., 0., 0., 0.,
          6.13496918e-003, 0., 3.06748459e-003, 0., 0., 0., 0., 0., 0.,
          3.06748459e-003, 0., 0., 0., 0., 0., 0., 0., 0., 0., 0., 0.,
          0., 0., 0., 0., 0., 0., 0., 0., 0., 3.06748459e-003, 0., 0.,
          0., 0., 0., 0., 6.13496918e-003, 0., 0., 0., 0., 0., 0., 0.,
          0., 0., 0., 0., 0., 0., 0., 0., 0., 0., 3.06748459e-003,
          3.06748459e-003, 0., 0., 3.06748459e-003, 0., 0.,
          6.13496918e-003, 0., 0., 0., 0., 0., 0., 6.13496918e-003, 0.,
          0., 0., 0., 0., 0., 0., 0., 0., 0., 3.06748459e-003,
          3.06748459e-003, 0., 0., 3.06748459e-003, 0., 0., 0.,
          3.06748459e-003, 0., 3.06748459e-003, 3.06748459e-003,
          3.06748459e-003, 0., 0., 0., 0., 0., 0., 3.06748459e-003, 0.,
          0., 0., 3.06748459e-003, 0., 0., 3.06748459e-003, 0., 0., 0.,
          0., 0., 0., 3.06748459e-003, 0., 0., 6.13496918e-003,
          3.06748459e-003, 0., 0., 0., 0., 0., 0., 0., 3.06748459e-003,
          0., 0., 0., 0., 0., 3.06748459e-003, 0., 0., 0.,
          3.06748459e-003, 6.13496918e-003, 0., 0., 0., 0.,
          3.06748459e-003, 0., 0., 0., 0., 0., 0., 0., 0.,
          3.06748459e-003, 0., 0., 0., 3.06748459e-003, 0., 0., 0., 0.,
          0., 0., 0., 0., 3.06748459e-003, 0., 0., 0., 3.06748459e-003,
          0., 0., 3.06748459e-003, 0., 0., 0., 0., 3.06748459e-003,
          3.06748459e-003, 0., 0., 0., 0., 0., 0., 0., 6.13496918e-003,
          0., 0., 0., 0., 0., 0., 0., 0., 0., 0., 0., 0., 0.,
          3.06748459e-003, 0., 0., 0., 0., 0., 3.06748459e-003, 0., 0.,
          0., 0., 0., 0., 1.53374225e-002, 0., 0., 0., 6.13496918e-003,
          0., 9.20245424e-003, 0., 0., 0., 0., 3.06748459e-003, 0., 0.,
          0., 0., 0., 0., 0., 0., 0., 0., 9.20245424e-003,
          3.06748459e-003, 0., 0., 0., 0., 3.06748459e-003, 0.,
          3.06748459e-003, 0., 0., 0., 0., 0., 0., 0., 0., 0., 0., 0.,
          0., 3.06748459e-003, 0., 3.06748459e-003, 0., 0.,
          3.06748459e-003, 0., 0., 0., 6.13496918e-003, 0., 0., 0.,
          3.06748459e-003, 0., 3.06748459e-003, 0., 0., 3.06748459e-003,
          0., 0., 0., 0., 0., 0., 0., 0., 0., 0., 0., 0., 0.,
          6.13496918e-003, 0., 0., 0., 0., 0., 0., 6.13496918e-003, 0.,
          0., 0., 0., 0., 0., 0., 0., 3.06748459e-003, 0., 0., 0., 0.,
          0., 0., 0., 3.06748459e-003, 0., 0., 3.06748459e-003, 0.,
          3.06748459e-003, 0., 0., 3.06748459e-003, 0., 0., 0., 0., 0.,
          0., 0., 0., 0., 3.06748459e-003, 0., 0., 0., 0.,
          3.06748459e-003, 0., 0., 0., 0., 3.06748459e-003,
          3.06748459e-003, 0., 0., 0., 0., 0., 0., 0., 0.,
          3.06748459e-003, 6.13496918e-003, 3.06748459e-003, 0., 0., 0.,
          3.06748459e-003, 0., 0., 0., 0., 0., 0., 0., 0.,
          9.20245424e-003, 0., 0., 0. ]
      - [ 0., 0., 8.88888910e-003, 0., 0., 0., 8.88888910e-003, 0., 0.,
          0., 4.44444455e-003, 0., 0., 0., 4.44444455e-003, 0., 0.,
          4.44444455e-003, 0., 4.44444455e-003, 0., 0., 0.,
          8.88888910e-003, 0., 4.44444455e-003, 0., 0., 0., 0., 0., 0.,
          0., 0., 0., 0., 0., 0., 0., 8.88888910e-003, 0., 0., 0., 0.,
          0., 0., 0., 0., 1.33333337e-002, 0., 0., 0., 0., 0., 0., 0.,
          4.44444455e-003, 0., 0., 0., 0., 0., 4.44444455e-003, 0.,
          8.88888910e-003, 0., 0., 4.44444455e-003, 4.44444455e-003, 0.,
          0., 8.88888910e-003, 0., 4.44444455e-003, 0., 4.44444455e-003,
          0., 0., 0., 4.44444455e-003, 0., 0., 4.44444455e-003, 0., 0.,
          0., 4.44444455e-003, 4.44444455e-003, 4.44444455e-003, 0., 0.,
          0., 1.33333337e-002, 0., 0., 0., 0., 0., 0., 4.44444455e-003,
          4.44444455e-003, 4.44444455e-003, 0., 4.44444455e-003,
          4.44444455e-003, 0., 0., 0., 0., 0., 0., 1.33333337e-002, 0.,
          0., 0., 0., 0., 0., 0., 4.44444455e-003, 0., 0.,
          4.44444455e-003, 0., 4.44444455e-003, 0., 4.44444455e-003,
          4.44444455e-003, 0., 4.44444455e-003, 0., 0., 0.,
          1.33333337e-002, 0., 0., 0., 0., 0., 0., 0., 0.,
          4.44444455e-003, 0., 8.88888910e-003, 0., 4.44444455e-003,
          8.88888910e-003, 0., 0., 0., 0., 0., 0., 0., 0., 0.,
          4.44444455e-003, 0., 4.44444455e-003, 0., 4.44444455e-003, 0.,
          4.44444455e-003, 0., 0., 0., 0., 4.44444455e-003, 0., 0., 0.,
          0., 0., 0., 0., 4.44444455e-003, 0., 0., 0., 0.,
          8.88888910e-003, 8.88888910e-003, 0., 4.44444455e-003, 0., 0.,
          4.44444455e-003, 0., 0., 0., 0., 0., 0., 0., 0.,
          4.44444455e-003, 0., 0., 0., 0., 0., 0., 8.88888910e-003, 0.,
          0., 4.44444455e-003, 0., 0., 0., 0., 0., 0., 0., 0., 0., 0.,
          0., 0., 0., 0., 0., 0., 0., 0., 0., 0., 4.44444455e-003, 0.,
          4.44444455e-003, 0., 0., 0., 4.44444455e-003, 0.,
          8.88888910e-003, 0., 0., 0., 0., 0., 0., 4.44444455e-003,
          8.88888910e-003, 0., 0., 0., 0., 4.44444455e-003,
          4.44444455e-003, 0., 0., 0., 0., 0., 0., 0., 0., 0., 0.,
          4.44444455e-003, 0., 0., 4.44444455e-003, 0., 0., 0., 0., 0.,
          8.88888910e-003, 0., 0., 0., 0., 0., 0., 0., 0., 0., 0., 0.,
          0., 0., 0., 4.44444455e-003, 4.44444455e-003, 0., 0., 0.,
          4.44444455e-003, 0., 4.44444455e-003, 0., 0., 0., 0., 0., 0.,
          0., 0., 0., 0., 0., 0., 0., 0., 4.44444455e-003, 0., 0.,
          4.44444455e-003, 0., 0., 0., 0., 0., 0., 4.44444455e-003,
          4.44444455e-003, 0., 0., 0., 0., 0., 0., 0., 0., 0., 0.,
          8.88888910e-003, 0., 0., 0., 0., 0., 0., 0., 0., 0.,
          4.44444455e-003, 0., 0., 0., 0., 0., 0., 4.44444455e-003, 0.,
          0., 0., 0., 0., 0., 0., 0., 0., 0., 0., 0., 0., 0., 0., 0., 0.,
          0., 0., 0., 0., 4.44444455e-003, 0., 4.44444455e-003, 0., 0.,
          0., 0., 0., 4.44444455e-003, 0., 4.44444455e-003, 0., 0., 0.,
          0., 0., 0., 4.44444455e-003, 0., 4.44444455e-003,
          4.44444455e-003, 0., 0., 0., 0., 0., 8.88888910e-003, 0., 0.,
          0., 0., 0., 0., 0., 0., 4.44444455e-003, 0., 0., 0., 0., 0.,
          0., 8.88888910e-003, 4.44444455e-003, 0., 0., 4.44444455e-003,
          0., 0., 0., 8.88888910e-003, 0., 0., 0., 0., 0., 0., 0., 0.,
          0., 0., 0., 0., 0., 0., 0., 0., 0., 0., 0., 0., 0., 0.,
          4.44444455e-003, 0., 0., 0., 0., 0., 0., 0., 0., 0., 0., 0.,
          8.88888910e-003, 0., 0., 0., 0., 0., 0., 0., 0.,
          4.44444455e-003, 0., 0., 4.44444455e-003, 0., 8.88888910e-003,
          0., 0., 0., 0., 0., 0., 4.44444455e-003, 0., 4.44444455e-003,
          0., 0., 0., 0., 0., 0., 0., 0., 0., 0., 0., 4.44444455e-003,
          8.88888910e-003, 4.44444455e-003, 0., 0., 0., 0., 0., 0., 0.,
          4.44444455e-003, 0., 0., 0., 0., 4.44444455e-003, 0., 0., 0.,
          0., 0., 0., 0., 0., 0., 0., 4.44444455e-003, 0., 0., 0., 0.,
          0., 4.44444455e-003, 0., 8.88888910e-003, 0., 4.44444455e-003,
          0., 0., 0., 4.44444455e-003, 0., 0., 0., 0., 0., 0., 0., 0.,
          0., 0., 0., 8.88888910e-003, 0., 0., 0., 0., 0., 0., 0., 0.,
          0., 0., 0., 0., 0., 0., 0., 0., 4.44444455e-003, 0.,
          4.44444455e-003, 0., 0., 4.44444455e-003, 0., 0., 0., 0., 0.,
          0., 0., 0., 0., 0., 0., 4.44444455e-003, 0., 4.44444455e-003,
          0., 0., 0., 0., 0., 0., 0., 0., 0., 0., 0., 0., 0., 0., 0., 0.,
          0., 4.44444455e-003, 0., 4.44444455e-003, 0., 0., 0., 0., 0.,
          0., 0., 0., 0., 0., 0., 0., 8.88888910e-003, 4.44444455e-003,
          0., 0., 0., 0., 0., 0., 0., 0., 4.44444455e-003, 0.,
          4.44444455e-003, 0., 0., 0., 4.44444455e-003, 0., 0., 0.,
          4.44444455e-003, 0., 0., 0., 0., 0., 0., 0., 0., 0., 0., 0.,
          4.44444455e-003, 0., 0., 0., 0., 0., 0., 0., 0., 0., 0., 0.,
          0., 4.44444455e-003, 0., 0., 0., 0., 0., 0., 0., 0., 0., 0.,
          0., 0., 0., 0., 0., 0., 0., 0., 0., 0., 4.44444455e-003, 0.,
          0., 4.44444455e-003, 4.44444455e-003, 0., 0., 0., 0., 0., 0.,
          0., 4.44444455e-003, 4.44444455e-003, 4.44444455e-003,
          4.44444455e-003, 0., 0., 4.44444455e-003, 0., 0., 0., 0., 0.,
          0., 0., 0., 0., 1.77777782e-002, 0., 0., 0., 0.,
          4.44444455e-003, 0., 0., 0., 0., 0., 4.44444455e-003, 0., 0.,
          0., 0., 0., 0., 0., 8.88888910e-003, 0., 0., 4.44444455e-003,
          4.44444455e-003, 0., 4.44444455e-003, 0., 4.44444455e-003, 0.,
          0., 0., 0., 0., 0., 4.44444455e-003, 0., 0., 0., 0., 0., 0.,
          0., 0., 4.44444455e-003, 4.44444455e-003, 0., 4.44444455e-003,
          4.44444455e-003, 0., 0., 0., 0., 4.44444455e-003, 0., 0., 0.,
          0., 0., 0., 0., 0., 0., 4.44444455e-003, 0., 0., 0., 0., 0.,
          0., 0., 0., 0., 4.44444455e-003, 0., 0., 0., 0., 0., 0., 0.,
          0., 1.33333337e-002, 0., 0., 4.44444455e-003, 0., 0., 0., 0.,
          0., 0., 0., 0., 0., 4.44444455e-003, 0., 0., 0.,
          4.44444455e-003, 0., 0., 0., 0., 0., 0., 0., 0., 0., 0., 0.,
