%YAML:1.0
my_svm: !!opencv-ml-svm
   svm_type: C_SVC
   kernel: { type:RBF, gamma:1. }
   C: 1.
   term_criteria: { epsilon:1.1920928955078125e-007, iterations:1000 }
   var_all: 1000
   var_count: 1000
   class_count: 2
   class_labels: !!opencv-matrix
      rows: 1
      cols: 2
      dt: i
      data: [ 0, 1 ]
   sv_total: 103
   support_vectors:
      - [ 0., 0., 0., 0., 0., 0., 3.96825420e-003, 1.19047631e-002, 0.,
          0., 0., 0., 0., 0., 3.96825420e-003, 0., 7.93650839e-003, 0.,
          0., 0., 0., 0., 0., 0., 0., 0., 0., 3.96825420e-003, 0.,
          3.96825420e-003, 0., 0., 3.96825420e-003, 0., 0., 0.,
          3.96825420e-003, 0., 0., 0., 0., 0., 0., 3.96825420e-003,
          3.96825420e-003, 0., 0., 0., 0., 0., 0., 0., 0., 0., 0., 0.,
          1.19047631e-002, 0., 0., 0., 0., 0., 0., 0., 1.98412705e-002,
          0., 0., 7.93650839e-003, 0., 0., 0., 0., 0., 0., 0.,
          3.96825420e-003, 0., 0., 0., 0., 0., 3.96825420e-003,
          7.93650839e-003, 0., 0., 0., 0., 0., 0., 0., 0., 0.,
          3.96825420e-003, 0., 0., 0., 0., 0., 0., 0., 3.96825420e-003,
          0., 0., 0., 0., 0., 0., 3.96825420e-003, 0., 0., 0., 0.,
          3.96825420e-003, 0., 0., 0., 0., 0., 0., 0., 0., 0., 0., 0.,
          0., 3.96825420e-003, 0., 0., 0., 0., 0., 0., 0., 0., 0., 0.,
          0., 0., 3.96825420e-003, 0., 0., 0., 0., 0., 0., 0., 0., 0.,
          0., 3.96825420e-003, 0., 0., 0., 1.19047631e-002, 0., 0., 0.,
          0., 0., 0., 0., 0., 7.93650839e-003, 0., 0., 3.96825420e-003,
          0., 0., 0., 0., 0., 0., 0., 0., 0., 3.96825420e-003,
          3.96825420e-003, 0., 0., 0., 0., 0., 3.96825420e-003, 0.,
          3.96825420e-003, 0., 0., 0., 0., 0., 0., 3.96825420e-003, 0.,
          0., 0., 3.96825420e-003, 7.93650839e-003, 0., 0., 0., 0., 0.,
          0., 0., 0., 0., 0., 3.96825420e-003, 3.96825420e-003,
          3.96825420e-003, 0., 0., 0., 0., 0., 3.96825420e-003,
          3.96825420e-003, 0., 0., 3.96825420e-003, 0., 0., 0., 0., 0.,
          0., 0., 7.93650839e-003, 0., 1.58730168e-002, 0., 0., 0., 0.,
          0., 3.96825420e-003, 0., 0., 0., 3.96825420e-003, 0., 0., 0.,
          0., 3.96825420e-003, 0., 3.96825420e-003, 0., 0.,
          3.96825420e-003, 0., 0., 7.93650839e-003, 0., 0., 0., 0., 0.,
          1.19047631e-002, 0., 0., 0., 0., 7.93650839e-003, 0., 0., 0.,
          0., 0., 0., 0., 0., 0., 0., 0., 0., 0., 0., 0.,
          7.93650839e-003, 0., 0., 3.96825420e-003, 0., 1.19047631e-002,
          3.96825420e-003, 0., 0., 3.96825420e-003, 0., 0.,
          7.93650839e-003, 3.96825420e-003, 0., 0., 0., 0., 0., 0.,
          3.96825420e-003, 7.93650839e-003, 0., 0., 0., 0., 0., 0., 0.,
          0., 0., 0., 0., 0., 1.19047631e-002, 0., 0., 0., 0., 0., 0.,
          0., 0., 0., 0., 0., 0., 0., 0., 7.93650839e-003, 0., 0., 0.,
          0., 0., 0., 0., 0., 0., 0., 0., 0., 0., 0., 3.96825420e-003,
          3.96825420e-003, 0., 0., 3.96825420e-003, 0., 3.96825420e-003,
          0., 0., 0., 0., 3.96825420e-003, 0., 0., 3.96825420e-003,
          7.93650839e-003, 0., 0., 0., 0., 0., 0., 0., 0., 0., 0.,
          3.96825420e-003, 0., 0., 0., 0., 0., 0., 0., 3.96825420e-003,
          0., 3.96825420e-003, 0., 0., 0., 0., 3.96825420e-003, 0., 0.,
          0., 0., 0., 0., 0., 0., 0., 0., 0., 7.93650839e-003, 0.,
          3.96825420e-003, 0., 0., 0., 3.96825420e-003, 0.,
          3.96825420e-003, 3.96825420e-003, 0., 0., 0., 0., 0.,
          1.19047631e-002, 0., 0., 0., 0., 0., 0., 3.96825420e-003, 0.,
          0., 3.96825420e-003, 0., 0., 0., 0., 0., 0., 0.,
          7.93650839e-003, 1.58730168e-002, 7.93650839e-003, 0., 0., 0.,
          0., 0., 0., 0., 0., 1.98412705e-002, 0., 0., 0., 0., 0., 0.,
          0., 0., 3.96825420e-003, 0., 0., 0., 0., 0., 0., 0., 0., 0.,
          3.96825420e-003, 3.96825420e-003, 0., 0., 0., 0., 0.,
          3.96825420e-003, 0., 1.19047631e-002, 0., 0., 2.38095261e-002,
          0., 0., 0., 0., 0., 0., 0., 0., 0., 0., 0., 0., 0., 0., 0., 0.,
          0., 0., 0., 0., 0., 0., 0., 0., 0., 0., 0., 0., 0., 0.,
          7.93650839e-003, 3.96825420e-003, 0., 0., 0., 0., 0.,
          1.58730168e-002, 0., 0., 0., 7.93650839e-003, 0., 0., 0., 0.,
          0., 0., 0., 7.93650839e-003, 0., 0., 0., 0., 0., 0., 0.,
          3.96825420e-003, 0., 0., 3.96825420e-003, 0., 0., 0., 0., 0.,
          0., 0., 3.96825420e-003, 0., 7.93650839e-003, 0., 0., 0., 0.,
          0., 0., 0., 0., 0., 0., 0., 0., 7.93650839e-003, 0., 0., 0.,
          0., 0., 0., 0., 0., 0., 0., 0., 3.96825420e-003, 0., 0., 0.,
          0., 0., 0., 0., 0., 3.96825420e-003, 3.96825420e-003, 0., 0.,
          0., 7.93650839e-003, 0., 0., 0., 0., 0., 0., 0., 0., 0., 0.,
          0., 3.96825420e-003, 0., 0., 7.93650839e-003, 3.96825420e-003,
          3.96825420e-003, 0., 0., 0., 0., 0., 0., 0., 3.96825420e-003,
          3.96825420e-003, 0., 0., 0., 0., 0., 0., 0., 3.96825420e-003,
          1.58730168e-002, 0., 0., 0., 3.96825420e-003, 3.96825420e-003,
          0., 0., 0., 0., 0., 0., 0., 0., 0., 0., 0., 0., 0., 0., 0., 0.,
          0., 0., 3.96825420e-003, 0., 0., 0., 0., 0., 0., 0., 0., 0.,
          0., 0., 0., 1.19047631e-002, 0., 0., 3.96825420e-003, 0.,
          7.93650839e-003, 0., 0., 0., 0., 0., 0., 0., 0., 0., 0., 0.,
          0., 0., 0., 0., 0., 3.96825420e-003, 0., 0., 0., 0., 0., 0.,
          0., 0., 7.93650839e-003, 3.96825420e-003, 0., 0., 0., 0., 0.,
          0., 0., 0., 0., 3.96825420e-003, 0., 0., 0., 0., 0., 0., 0.,
          0., 0., 0., 3.96825420e-003, 0., 3.96825420e-003,
          3.96825420e-003, 0., 3.96825420e-003, 0., 0., 0., 0.,
          3.96825420e-003, 0., 7.93650839e-003, 0., 0., 0., 0., 0., 0.,
          0., 0., 0., 3.96825420e-003, 0., 0., 0., 0., 0., 0., 0., 0.,
          0., 0., 0., 0., 0., 0., 0., 0., 0., 0., 0., 0.,
          3.96825420e-003, 0., 0., 0., 0., 0., 0., 0., 0.,
          1.19047631e-002, 0., 0., 0., 0., 0., 3.96825420e-003, 0.,
          3.96825420e-003, 0., 0., 0., 0., 0., 0., 0., 3.96825420e-003,
          0., 0., 0., 3.96825420e-003, 0., 0., 0., 0., 0., 0., 0., 0.,
          0., 0., 0., 0., 0., 0., 0., 0., 0., 0., 0., 0.,
          3.96825420e-003, 3.96825420e-003, 0., 0., 0., 0., 0., 0., 0.,
          0., 0., 0., 0., 0., 0., 0., 1.19047631e-002, 0., 0., 0., 0.,
          0., 0., 0., 0., 0., 0., 7.93650839e-003, 0., 0.,
          7.93650839e-003, 0., 3.96825420e-003, 0., 0., 0., 0., 0.,
          3.96825420e-003, 0., 0., 0., 0., 3.96825420e-003, 0.,
          3.96825420e-003, 3.96825420e-003, 0., 3.96825420e-003,
          3.96825420e-003, 0., 1.19047631e-002, 0., 0., 0., 0., 0., 0.,
          0., 0., 0., 3.96825420e-003, 0., 0., 0., 0., 0.,
          3.96825420e-003, 0., 0., 0., 0., 0., 0., 0., 0.,
          3.96825420e-003, 0., 0., 0., 0., 0., 0., 0., 0., 0., 0., 0.,
          0., 0., 0., 0., 7.93650839e-003, 0., 0., 0., 1.58730168e-002,
          0., 0., 0., 0., 0., 0., 0., 0., 3.96825420e-003, 0., 0., 0.,
          3.96825420e-003, 3.96825420e-003, 0., 0., 0., 0., 0.,
          3.96825420e-003, 0., 0., 0., 0., 0., 3.96825420e-003, 0., 0.,
          3.96825420e-003, 3.96825420e-003, 3.96825420e-003, 0., 0., 0.,
          0., 0., 0., 3.96825420e-003, 0., 0., 0., 0., 0., 0., 0., 0.,
          0., 0., 0., 0., 0., 0., 0., 0., 0., 0., 0., 0., 0.,
          7.93650839e-003, 0., 0., 3.96825420e-003, 0., 0., 0., 0., 0.,
          0., 0., 0., 3.96825420e-003, 0., 0., 0., 0., 0., 0., 0., 0.,
          0., 0., 0., 0., 0., 0., 7.93650839e-003, 3.96825420e-003, 0.,
          0., 0., 0., 0., 0., 0., 0., 0., 0., 0., 0., 7.93650839e-003,
          0., 3.96825420e-003, 0. ]
      - [ 4.92610829e-003, 0., 4.92610829e-003, 0., 0., 0.,
          9.85221658e-003, 0., 0., 0., 0., 0., 0., 0., 0., 0.,
          4.92610829e-003, 0., 0., 0., 0., 0., 0., 0., 0., 0., 0., 0.,
          0., 9.85221658e-003, 0., 0., 0., 0., 0., 0., 0., 0., 0., 0.,
          0., 0., 0., 0., 0., 4.92610829e-003, 0., 0., 0., 0., 0., 0.,
          0., 4.92610829e-003, 0., 0., 0., 0., 0., 0., 0., 0., 0., 0.,
          1.47783253e-002, 0., 0., 4.92610829e-003, 0., 0., 0., 0.,
          4.92610829e-003, 0., 0., 9.85221658e-003, 0., 0., 0., 0., 0.,
          0., 2.95566507e-002, 0., 0., 0., 0., 0., 0., 0., 0., 0.,
          9.85221658e-003, 0., 0., 0., 0., 0., 0., 1.47783253e-002, 0.,
          0., 0., 0., 0., 0., 0., 0., 0., 0., 0., 0., 0.,
          2.46305410e-002, 0., 0., 0., 0., 0., 0., 0., 0., 0., 0., 0.,
          0., 0., 0., 0., 0., 0., 0., 0., 4.92610829e-003, 0.,
          4.92610829e-003, 0., 0., 4.92610829e-003, 0., 4.92610829e-003,
          0., 9.85221658e-003, 0., 0., 0., 9.85221658e-003, 0., 0., 0.,
          0., 0., 0., 0., 0., 0., 0., 0., 0., 0., 0., 0., 0., 0., 0.,
          4.92610829e-003, 0., 0., 0., 0., 0., 0., 0., 0., 0., 0., 0.,
          0., 0., 0., 0., 0., 0., 0., 0., 0., 0., 0., 4.92610829e-003,
          0., 0., 0., 0., 0., 0., 0., 4.92610829e-003, 0., 0., 0., 0.,
          0., 0., 4.92610829e-003, 0., 0., 0., 0., 4.92610829e-003, 0.,
          0., 4.92610829e-003, 0., 0., 0., 0., 9.85221658e-003, 0., 0.,
          0., 0., 4.92610829e-003, 0., 0., 0., 0., 0., 4.92610829e-003,
          0., 3.94088663e-002, 0., 0., 0., 0., 0., 0., 0., 0., 0.,
          9.85221658e-003, 0., 0., 4.92610829e-003, 0., 0., 0.,
          9.85221658e-003, 0., 0., 0., 0., 0., 0., 0., 0., 0., 0., 0.,
          0., 0., 0., 0., 0., 0., 0., 0., 0., 0., 4.92610829e-003, 0.,
          0., 0., 0., 0., 0., 0., 0., 0., 0., 0., 0., 4.92610829e-003,
          0., 0., 9.85221658e-003, 4.92610829e-003, 0., 0., 0., 0., 0.,
          0., 0., 0., 0., 0., 0., 0., 0., 0., 0., 0., 0., 0., 0., 0., 0.,
          0., 0., 0., 0., 0., 0., 4.92610829e-003, 4.92610829e-003, 0.,
          0., 0., 0., 0., 0., 0., 0., 0., 0., 0., 0., 0.,
          4.92610829e-003, 0., 0., 0., 0., 0., 0., 0., 0., 0., 0., 0.,
          0., 0., 0., 4.92610829e-003, 0., 0., 0., 0., 0.,
          4.92610829e-003, 0., 0., 0., 0., 0., 0., 0., 0., 0., 0.,
          4.92610829e-003, 0., 0., 0., 0., 0., 0., 0., 0., 0., 0.,
          4.92610829e-003, 0., 0., 0., 0., 0., 0., 0., 0., 0., 0., 0.,
          0., 0., 0., 0., 0., 0., 0., 0., 0., 0., 0., 0., 0.,
          1.47783253e-002, 0., 0., 0., 0., 0., 4.92610829e-003, 0., 0.,
          0., 0., 0., 0., 0., 0., 1.47783253e-002, 0., 0., 0.,
          9.85221658e-003, 0., 0., 0., 0., 0., 4.92610829e-003, 0., 0.,
          0., 0., 0., 0., 0., 4.92610829e-003, 9.85221658e-003, 0., 0.,
          0., 0., 0., 0., 4.92610829e-003, 0., 0., 0., 0., 0., 0., 0.,
          0., 0., 0., 0., 0., 0., 0., 0., 0., 0., 0., 0., 0., 0., 0., 0.,
          0., 0., 0., 0., 0., 0., 0., 1.47783253e-002, 0., 0.,
          4.92610829e-003, 0., 4.92610829e-003, 0., 0., 4.92610829e-003,
          0., 0., 0., 0., 0., 0., 0., 0., 0., 0., 0., 0., 0., 0., 0., 0.,
          0., 0., 0., 0., 0., 0., 0., 0., 0., 1.97044332e-002,
          4.92610829e-003, 0., 0., 0., 0., 0., 0., 0., 0., 0.,
          1.47783253e-002, 0., 0., 0., 0., 4.92610829e-003, 0., 0., 0.,
          0., 0., 0., 0., 0., 0., 0., 0., 4.92610829e-003, 0.,
          4.92610829e-003, 0., 0., 0., 1.47783253e-002, 0., 0., 0.,
          4.92610829e-003, 0., 4.92610829e-003, 0., 0., 0., 0., 0., 0.,
          0., 0., 0., 1.97044332e-002, 0., 0., 1.47783253e-002, 0., 0.,
          0., 0., 0., 0., 0., 0., 0., 0., 0., 2.95566507e-002, 0., 0.,
          0., 0., 0., 9.85221658e-003, 0., 0., 0., 4.92610829e-003, 0.,
          0., 0., 0., 0., 0., 0., 0., 0., 0., 0., 0., 0., 0., 0.,
          1.97044332e-002, 0., 0., 4.92610829e-003, 0., 4.92610829e-003,
          0., 0., 0., 0., 4.92610829e-003, 0., 0., 0., 0., 0., 0., 0.,
          0., 0., 0., 0., 0., 1.47783253e-002, 0., 0., 0.,
          4.92610829e-003, 0., 0., 0., 0., 0., 0., 0., 0., 0., 0., 0.,
          0., 0., 0., 0., 0., 0., 4.92610829e-003, 0., 0., 0., 0., 0.,
          0., 0., 0., 0., 4.92610829e-003, 4.92610829e-003, 0., 0., 0.,
          0., 0., 0., 0., 0., 0., 0., 0., 0., 0., 0., 0., 0., 0., 0., 0.,
          0., 0., 0., 0., 0., 0., 0., 4.92610829e-003, 0., 0., 0., 0.,
          0., 0., 0., 4.92610829e-003, 0., 0., 0., 0., 0., 0., 0., 0.,
          0., 0., 0., 0., 0., 0., 0., 0., 0., 0., 1.47783253e-002, 0.,
          0., 0., 0., 4.92610829e-003, 4.92610829e-003, 0.,
          4.92610829e-003, 0., 0., 0., 0., 0., 0., 0., 0., 0., 0., 0.,
          4.92610829e-003, 0., 1.47783253e-002, 0., 0., 4.92610829e-003,
          0., 0., 0., 0., 0., 0., 0., 0., 0., 0., 4.92610829e-003, 0.,
          4.92610829e-003, 0., 0., 0., 0., 0., 0., 0., 0., 0.,
          1.47783253e-002, 0., 0., 0., 0., 0., 0., 9.85221658e-003, 0.,
          0., 0., 0., 0., 4.92610829e-003, 0., 0., 0., 0.,
          4.92610829e-003, 0., 0., 0., 0., 4.92610829e-003, 0., 0., 0.,
          0., 0., 0., 0., 0., 0., 0., 0., 0., 0., 0., 0., 0., 0., 0., 0.,
          0., 0., 0., 0., 0., 0., 4.92610829e-003, 0., 0., 0., 0., 0.,
          0., 0., 0., 0., 0., 0., 0., 0., 0., 0., 0., 0., 0., 0., 0., 0.,
          0., 0., 0., 0., 4.92610829e-003, 0., 0., 4.92610829e-003, 0.,
          0., 0., 0., 0., 0., 0., 9.85221658e-003, 0., 0., 0., 0., 0.,
          0., 0., 9.85221658e-003, 0., 0., 0., 0., 3.94088663e-002, 0.,
          0., 4.92610829e-003, 0., 0., 0., 0., 0., 0., 0., 0., 0., 0.,
          0., 0., 4.92610829e-003, 0., 0., 0., 0., 0., 0., 0., 0.,
          4.92610829e-003, 0., 0., 0., 0., 0., 0., 0., 0.,
          4.92610829e-003, 0., 1.47783253e-002, 0., 0., 0., 0.,
          4.92610829e-003, 0., 0., 0., 0., 0., 0., 0., 0., 0., 0., 0.,
          0., 0., 0., 0., 0., 0., 4.92610829e-003, 0., 0.,
          4.92610829e-003, 0., 0., 0., 0., 0., 0., 0., 0., 0., 0., 0.,
          4.92610829e-003, 0., 4.92610829e-003, 0., 0., 0., 0., 0.,
          4.92610829e-003, 0., 0., 0., 0., 0., 0., 0., 0., 0., 0., 0.,
          0., 0., 0., 0., 0., 0., 0., 4.92610829e-003, 0., 0.,
          4.92610829e-003, 9.85221658e-003, 0., 0., 9.85221658e-003, 0.,
          0., 0., 0., 0., 9.85221658e-003, 0., 0., 4.92610829e-003,
          4.92610829e-003, 0., 0., 0., 0., 0., 0., 0., 0., 0., 0., 0.,
          0., 0., 4.92610829e-003, 0., 0., 0., 0., 0., 0., 0., 0., 0.,
          0., 0., 0., 0., 0., 0., 0., 0. ]
      - [ 0., 0., 1.32743362e-002, 0., 0., 0., 4.42477874e-003, 0., 0.,
          0., 0., 0., 0., 0., 0., 0., 8.84955749e-003, 0., 0., 0., 0.,
          0., 4.42477874e-003, 0., 0., 0., 0., 2.21238937e-002, 0.,
          4.42477874e-003, 0., 0., 4.42477874e-003, 0., 0.,
          4.42477874e-003, 0., 0., 0., 0., 0., 0., 0., 0., 0., 0., 0.,
          0., 0., 0., 0., 0., 0., 0., 0., 0., 0., 0., 0., 0., 0., 0., 0.,
          0., 6.19469024e-002, 0., 0., 4.42477874e-003, 0., 0., 0., 0.,
          0., 0., 0., 0., 4.42477874e-003, 0., 0., 8.84955749e-003, 0.,
          4.42477874e-003, 4.42477874e-003, 0., 0., 0., 0., 0., 0., 0.,
          0., 0., 1.32743362e-002, 0., 0., 4.42477874e-003, 0., 0., 0.,
          1.32743362e-002, 0., 0., 4.42477874e-003, 0., 0., 0., 0., 0.,
          0., 0., 0., 0., 0., 0., 0., 0., 0., 0., 0., 0., 0., 0.,
          4.42477874e-003, 0., 0., 4.42477874e-003, 0., 0., 0., 0., 0.,
          4.42477874e-003, 0., 4.42477874e-003, 0., 4.42477874e-003, 0.,
          0., 0., 0., 4.42477874e-003, 0., 0., 0., 0., 0., 0., 0., 0.,
          4.42477874e-003, 0., 0., 0., 0., 0., 0., 0., 0., 0., 0., 0.,
          0., 0., 0., 0., 0., 0., 0., 0., 0., 0., 0., 0., 0., 0., 0., 0.,
          0., 0., 0., 0., 0., 0., 0., 4.42477874e-003, 0., 0., 0., 0.,
          0., 0., 0., 0., 0., 0., 8.84955749e-003, 0., 0., 0., 0., 0.,
          0., 0., 1.32743362e-002, 0., 0., 0., 4.42477874e-003,
          4.42477874e-003, 0., 0., 0., 8.84955749e-003, 0., 0., 0.,
          4.42477874e-003, 0., 0., 0., 8.84955749e-003, 0., 0., 0., 0.,
          0., 0., 0., 0., 1.76991150e-002, 0., 0., 0., 0., 0.,
          8.84955749e-003, 0., 0., 0., 0., 0., 0., 0., 4.42477874e-003,
          0., 0., 4.42477874e-003, 0., 0., 8.84955749e-003, 0., 0.,
          1.76991150e-002, 0., 0., 0., 0., 0., 0., 0., 0., 0., 0., 0.,
          0., 0., 0., 0., 0., 0., 0., 0., 0., 0., 0., 0., 0., 0., 0.,
          4.42477874e-003, 0., 0., 0., 0., 0., 0., 0., 0.,
          4.42477874e-003, 0., 0., 0., 8.84955749e-003, 0., 0., 0., 0.,
          0., 0., 0., 0., 0., 0., 0., 0., 0., 0., 0., 0., 0., 0., 0., 0.,
          0., 0., 0., 0., 0., 0., 0., 4.42477874e-003, 0., 0., 0., 0.,
          0., 0., 0., 0., 0., 0., 0., 0., 0., 0., 0., 0., 0., 0., 0., 0.,
          0., 0., 0., 0., 0., 0., 8.84955749e-003, 0., 0., 0., 0., 0.,
          0., 0., 4.42477874e-003, 0., 4.42477874e-003, 4.42477874e-003,
          0., 4.42477874e-003, 0., 0., 0., 0., 0., 4.42477874e-003, 0.,
          0., 0., 0., 0., 0., 0., 0., 0., 0., 0., 0., 0., 0., 0., 0., 0.,
          0., 0., 0., 0., 4.42477874e-003, 0., 0., 0., 0., 0.,
          4.42477874e-003, 0., 8.84955749e-003, 0., 0., 0., 0., 0.,
          4.42477874e-003, 0., 8.84955749e-003, 0., 0., 0., 0., 0., 0.,
          1.32743362e-002, 0., 0., 0., 1.32743362e-002, 0., 0., 0., 0.,
          0., 0., 0., 0., 0., 0., 0., 0., 1.32743362e-002,
          8.84955749e-003, 4.42477874e-003, 4.42477874e-003, 0., 0., 0.,
          0., 0., 0., 0., 0., 1.32743362e-002, 0., 0., 0., 0., 0., 0.,
          0., 0., 0., 0., 0., 0., 0., 0., 0., 0., 0., 0., 0., 0., 0., 0.,
          0., 0., 0., 0., 0., 0., 0., 0., 3.09734512e-002, 0.,
          4.42477874e-003, 0., 0., 0., 0., 0., 0., 0., 0., 0., 0., 0.,
          0., 0., 8.84955749e-003, 0., 0., 0., 4.42477874e-003, 0., 0.,
          0., 0., 0., 0., 0., 0., 8.84955749e-003, 0., 0.,
          4.42477874e-003, 0., 0., 0., 0., 0., 0., 0., 0., 0.,
          8.84955749e-003, 0., 0., 0., 0., 4.42477874e-003, 0., 0.,
          4.42477874e-003, 0., 0., 0., 0., 0., 4.42477874e-003, 0., 0.,
          0., 0., 4.42477874e-003, 0., 0., 0., 0., 0., 0., 0., 0., 0.,
          8.84955749e-003, 0., 0., 0., 0., 0., 0., 0., 0., 0., 0., 0.,
          0., 8.84955749e-003, 0., 0., 0., 0., 0., 0., 0., 0., 0., 0.,
          0., 8.84955749e-003, 0., 0., 0., 0., 0., 0., 0., 0., 0.,
          1.32743362e-002, 0., 0., 0., 0., 0., 0., 0., 0., 0., 0., 0.,
          0., 0., 0., 0., 8.84955749e-003, 0., 0., 4.42477874e-003, 0.,
          4.42477874e-003, 0., 0., 0., 4.42477874e-003, 8.84955749e-003,
          0., 0., 0., 0., 0., 0., 0., 0., 0., 0., 0., 0.,
          4.42477874e-003, 0., 0., 0., 4.42477874e-003, 0., 0., 0., 0.,
          0., 0., 0., 0., 0., 0., 0., 0., 0., 0., 0., 0., 0., 0., 0., 0.,
          0., 0., 0., 0., 0., 0., 0., 0., 0., 0., 0., 0., 0., 0., 0., 0.,
          0., 8.84955749e-003, 0., 0., 0., 0., 0., 0., 0., 0., 0., 0.,
          0., 0., 0., 0., 0., 0., 0., 0., 0., 0., 0., 0.,
          4.42477874e-003, 0., 0., 0., 0., 0., 4.42477874e-003, 0., 0.,
          0., 0., 0., 0., 0., 0., 0., 0., 0., 0., 0., 0., 0.,
          8.84955749e-003, 0., 0., 4.42477874e-003, 0., 4.42477874e-003,
          0., 0., 0., 0., 0., 0., 0., 4.42477874e-003, 0.,
          8.84955749e-003, 0., 0., 0., 0., 0., 0., 4.42477874e-003, 0.,
          4.42477874e-003, 0., 0., 0., 0., 0., 0., 0., 0.,
          4.42477874e-003, 0., 0., 0., 0., 4.42477874e-003, 0., 0., 0.,
          0., 0., 0., 0., 1.32743362e-002, 0., 0., 0., 0., 0., 0.,
          8.84955749e-003, 0., 8.84955749e-003, 0., 0., 8.84955749e-003,
          0., 0., 0., 0., 4.42477874e-003, 0., 0., 8.84955749e-003, 0.,
          0., 0., 0., 0., 0., 0., 0., 4.42477874e-003, 0., 0., 0., 0.,
          0., 0., 0., 0., 0., 0., 0., 4.42477874e-003, 0., 0., 0., 0.,
          4.42477874e-003, 0., 0., 0., 8.84955749e-003, 1.32743362e-002,
          0., 0., 0., 0., 0., 0., 0., 0., 4.42477874e-003, 0., 0.,
          4.42477874e-003, 0., 0., 4.42477874e-003, 0., 0., 0., 0., 0.,
          0., 0., 0., 0., 0., 8.84955749e-003, 0., 0., 1.76991150e-002,
          0., 0., 0., 0., 0., 4.42477874e-003, 0., 0., 0.,
          1.32743362e-002, 0., 0., 0., 0., 0., 4.42477874e-003, 0., 0.,
          4.42477874e-003, 0., 4.42477874e-003, 4.42477874e-003, 0., 0.,
          0., 0., 0., 0., 0., 0., 4.42477874e-003, 0., 0., 0., 0., 0.,
          0., 0., 0., 0., 0., 0., 0., 0., 0., 0., 0., 4.42477874e-003,
          0., 0., 0., 0., 0., 0., 0., 0., 0., 0., 0., 0., 0.,
          4.42477874e-003, 0., 0., 0., 4.42477874e-003, 0., 0., 0., 0.,
          4.42477874e-003, 0., 0., 0., 0., 4.42477874e-003, 0., 0., 0.,
          0., 0., 0., 0., 0., 0., 0., 0., 4.42477874e-003, 0., 0., 0.,
          0., 0., 0., 4.42477874e-003, 0., 4.42477874e-003, 0., 0., 0.,
          0., 0., 0., 0., 0., 0., 0., 0., 0., 0., 0., 0., 0., 0., 0., 0.,
          0., 0., 0., 0., 0., 0., 0., 0., 0., 8.84955749e-003, 0.,
          8.84955749e-003, 4.42477874e-003, 0., 0., 0., 0., 0., 0., 0.,
          0., 8.84955749e-003, 0., 0., 0., 0., 0., 0., 0., 0.,
          4.42477874e-003, 0., 0., 0., 0., 0., 0., 0., 0., 0., 0., 0.,
          0., 0., 0., 0., 0., 0., 0., 0., 0., 0., 3.09734512e-002, 0. ]
      - [ 0., 0., 1.42180100e-002, 0., 0., 0., 1.89573467e-002, 0., 0.,
          0., 0., 0., 0., 0., 0., 0., 4.73933667e-003, 0., 0., 0., 0.,
          0., 0., 0., 0., 0., 0., 4.73933667e-003, 0., 4.73933667e-003,
          0., 0., 0., 0., 0., 0., 0., 0., 0., 4.73933667e-003, 0., 0.,
          0., 0., 4.73933667e-003, 0., 0., 0., 0., 0., 0., 0., 0., 0.,
          0., 0., 0., 0., 0., 0., 0., 0., 0., 0., 3.79146934e-002, 0.,
          0., 0., 0., 0., 0., 0., 0., 0., 0., 4.73933667e-003, 0., 0.,
          4.73933667e-003, 0., 0., 0., 4.73933667e-003, 0., 0., 0., 0.,
          0., 0., 0., 0., 0., 9.47867334e-003, 0., 0., 4.73933667e-003,
          0., 0., 0., 0., 0., 0., 4.73933667e-003, 0., 0., 0., 0.,
          4.73933667e-003, 0., 0., 0., 0., 0., 0., 0., 0., 0., 0., 0.,
          0., 0., 0., 0., 0., 0., 0., 0., 0., 0., 0., 0., 0., 0.,
          1.89573467e-002, 0., 4.73933667e-003, 0., 0., 0., 0.,
          4.73933667e-003, 0., 9.47867334e-003, 0., 0., 0., 0., 0.,
          4.73933667e-003, 4.73933667e-003, 0., 0., 0., 0., 0., 0., 0.,
          0., 0., 0., 0., 4.73933667e-003, 4.73933667e-003, 0., 0.,
          4.73933667e-003, 0., 0., 0., 0., 0., 0., 0., 0., 0., 0., 0.,
          0., 0., 0., 0., 0., 0., 0., 0., 4.73933667e-003, 0., 0., 0.,
          0., 0., 0., 0., 0., 0., 4.73933667e-003, 0., 0., 0., 0., 0.,
          0., 0., 4.73933667e-003, 0., 0., 0., 0., 4.73933667e-003,
          4.73933667e-003, 0., 0., 0., 0., 0., 4.73933667e-003,
          4.73933667e-003, 0., 0., 0., 0., 0., 0., 0., 0., 0., 0., 0.,
          0., 3.31753567e-002, 0., 0., 0., 0., 0., 1.89573467e-002,
          4.73933667e-003, 0., 0., 0., 0., 0., 0., 4.73933667e-003, 0.,
          0., 4.73933667e-003, 0., 0., 1.89573467e-002, 0., 0.,
          1.89573467e-002, 0., 0., 0., 0., 0., 0., 0., 0., 0., 0.,
          4.73933667e-003, 0., 0., 0., 0., 0., 0., 0., 0., 0., 0., 0.,
          0., 0., 0., 0., 0., 0., 0., 9.47867334e-003, 0., 0., 0., 0.,
          0., 0., 0., 0., 0., 0., 0., 0., 0., 0., 0., 0., 0., 0., 0., 0.,
          0., 0., 0., 0., 0., 0., 0., 0., 0., 0., 9.47867334e-003, 0.,
          0., 4.73933667e-003, 4.73933667e-003, 0., 0., 0., 0., 0., 0.,
          0., 0., 0., 0., 0., 0., 0., 0., 0., 0., 0., 0., 0., 0., 0., 0.,
          0., 0., 0., 0., 0., 0., 0., 0., 0., 0., 0., 0., 0., 0., 0., 0.,
          0., 0., 1.42180100e-002, 4.73933667e-003, 4.73933667e-003, 0.,
          0., 0., 0., 0., 9.47867334e-003, 0., 0., 0., 0., 0., 0., 0.,
          0., 0., 0., 4.73933667e-003, 0., 4.73933667e-003, 0., 0., 0.,
          0., 4.73933667e-003, 0., 0., 0., 0., 0., 0., 0., 0., 0., 0.,
          0., 9.47867334e-003, 0., 0., 0., 0., 0., 0., 0., 0.,
          4.73933667e-003, 0., 0., 0., 0., 0., 9.47867334e-003, 0., 0.,
          0., 4.73933667e-003, 0., 0., 0., 0., 0., 0., 0., 0., 0., 0.,
          0., 0., 0., 4.73933667e-003, 4.73933667e-003, 0., 0., 0., 0.,
          0., 0., 0., 0., 0., 4.73933667e-003, 0., 0., 0., 0., 0., 0.,
          0., 0., 0., 0., 0., 0., 0., 0., 0., 0., 0., 0., 0.,
          4.73933667e-003, 0., 0., 0., 0., 0., 9.47867334e-003, 0.,
          4.73933667e-003, 0., 0., 1.89573467e-002, 0., 4.73933667e-003,
          0., 0., 0., 0., 0., 0., 0., 4.73933667e-003, 0., 0., 0., 0.,
          0., 4.73933667e-003, 0., 0., 0., 0., 0., 0., 0., 0., 0., 0.,
          0., 0., 0., 0., 0., 4.73933667e-003, 0., 0., 0., 0., 0.,
          4.73933667e-003, 0., 0., 0., 9.47867334e-003, 0.,
          4.73933667e-003, 0., 0., 4.73933667e-003, 0., 0., 0., 0., 0.,
          0., 0., 0., 0., 0., 0., 0., 0., 4.73933667e-003, 0., 0., 0.,
          0., 0., 0., 0., 0., 0., 0., 0., 0., 0., 0., 0., 0., 0., 0., 0.,
          4.73933667e-003, 0., 0., 9.47867334e-003, 0., 0., 0., 0., 0.,
          0., 0., 0., 0., 0., 0., 9.47867334e-003, 0., 0., 0., 0., 0.,
          0., 0., 0., 4.73933667e-003, 4.73933667e-003, 0., 0., 0., 0.,
          0., 0., 0., 0., 0., 0., 0., 0., 0., 0., 0., 1.42180100e-002,
          0., 0., 0., 0., 4.73933667e-003, 0., 0., 0., 4.73933667e-003,
          9.47867334e-003, 0., 4.73933667e-003, 4.73933667e-003, 0., 0.,
          0., 0., 0., 0., 0., 0., 0., 1.42180100e-002, 0., 0., 0.,
          4.73933667e-003, 0., 0., 0., 0., 0., 0., 0., 0., 0., 0., 0.,
          0., 0., 0., 0., 0., 0., 0., 0., 4.73933667e-003, 0., 0., 0.,
          0., 0., 0., 0., 9.47867334e-003, 0., 0., 0., 0.,
          9.47867334e-003, 0., 0., 0., 0., 4.73933667e-003, 0., 0., 0.,
          0., 0., 0., 0., 0., 0., 0., 0., 0., 0., 0., 0., 0., 0., 0., 0.,
          0., 0., 0., 0., 0., 0., 0., 0., 0., 0., 0., 0., 0., 0., 0., 0.,
          0., 4.73933667e-003, 0., 0., 0., 0., 0., 0., 0.,
          9.47867334e-003, 0., 0., 4.73933667e-003, 0., 9.47867334e-003,
          0., 0., 0., 0., 0., 0., 0., 4.73933667e-003, 4.73933667e-003,
          1.42180100e-002, 0., 0., 4.73933667e-003, 0., 0., 0.,
          4.73933667e-003, 0., 0., 0., 0., 0., 0., 0., 0., 0., 0., 0.,
          0., 0., 0., 0., 0., 0., 0., 0., 0., 0., 0., 0.,
          9.47867334e-003, 0., 4.73933667e-003, 0., 0., 0., 0., 0., 0.,
          9.47867334e-003, 0., 0., 0., 0., 4.73933667e-003,
          4.73933667e-003, 0., 4.73933667e-003, 0., 0., 4.73933667e-003,
          0., 4.73933667e-003, 0., 0., 0., 0., 0., 0., 4.73933667e-003,
          0., 0., 4.73933667e-003, 0., 0., 0., 0., 0., 0., 0., 0., 0.,
          0., 0., 0., 0., 4.73933667e-003, 0., 0., 0., 0.,
          9.47867334e-003, 0., 0., 0., 0., 0., 0., 0., 0., 0., 0., 0.,
          0., 0., 0., 0., 0., 0., 0., 0., 0., 0., 0., 0., 0., 0.,
          9.47867334e-003, 0., 4.73933667e-003, 0., 0., 0., 0., 0., 0.,
          0., 0., 4.73933667e-003, 0., 4.73933667e-003, 0., 0., 0., 0.,
          0., 4.73933667e-003, 0., 0., 4.73933667e-003, 0.,
          9.47867334e-003, 4.73933667e-003, 0., 0., 0., 0., 0., 0., 0.,
          0., 0., 0., 0., 0., 0., 0., 4.73933667e-003, 0., 0., 0., 0.,
          0., 0., 0., 0., 0., 0., 9.47867334e-003, 0., 0., 0., 0., 0.,
          0., 0., 0., 4.73933667e-003, 0., 0., 0., 0., 0., 0.,
          4.73933667e-003, 0., 4.73933667e-003, 0., 0., 0., 0.,
          4.73933667e-003, 0., 0., 0., 9.47867334e-003, 4.73933667e-003,
          0., 0., 0., 4.73933667e-003, 0., 0., 0., 0., 0.,
          4.73933667e-003, 0., 0., 0., 0., 4.73933667e-003,
          4.73933667e-003, 0., 0., 4.73933667e-003, 9.47867334e-003,
          4.73933667e-003, 0., 0., 0., 0., 0., 0., 0., 4.73933667e-003,
          0., 0., 0., 0., 0., 0., 0., 0., 0., 0., 0., 0., 0., 0., 0., 0.,
          4.73933667e-003, 0., 0., 0., 9.47867334e-003, 0.,
          9.47867334e-003, 0., 0., 0., 0., 0., 0., 0., 0., 0.,
          4.73933667e-003, 4.73933667e-003, 0., 0., 0., 0., 0., 0., 0.,
          0., 0., 0., 0., 0., 0., 1.42180100e-002, 0., 0., 0.,
          4.73933667e-003, 0., 4.73933667e-003, 0., 0., 0., 0., 0., 0.,
          0., 0., 0., 9.47867334e-003, 0. ]
      - [ 4.87804879e-003, 0., 9.75609757e-003, 0., 0., 0.,
          4.87804879e-003, 0., 0., 0., 0., 0., 0., 0., 0., 0., 0., 0.,
          0., 0., 0., 0., 0., 0., 0., 0., 0., 9.75609757e-003, 0.,
          4.87804879e-003, 0., 0., 0., 0., 0., 0., 4.87804879e-003, 0.,
          0., 0., 4.87804879e-003, 4.87804879e-003, 0., 0., 0., 0., 0.,
          0., 0., 0., 0., 0., 0., 4.87804879e-003, 0., 0.,
          4.87804879e-003, 0., 0., 0., 0., 0., 0., 0., 4.39024381e-002,
          0., 0., 0., 0., 0., 0., 0., 0., 0., 0., 4.87804879e-003, 0.,
          0., 4.87804879e-003, 0., 0., 0., 0., 0., 0., 0., 0., 0., 0.,
          0., 0., 0., 0., 0., 0., 4.87804879e-003, 0., 0., 0.,
          2.92682927e-002, 4.87804879e-003, 0., 0., 0., 0., 0., 0., 0.,
          0., 0., 9.75609757e-003, 0., 0., 0., 0., 0., 0., 0., 0., 0.,
          0., 0., 4.87804879e-003, 0., 0., 0., 0., 0., 0., 0., 0., 0.,
          0., 0., 0., 4.87804879e-003, 0., 0., 4.87804879e-003, 0.,
          4.87804879e-003, 0., 4.87804879e-003, 0., 0., 0., 0., 0., 0.,
          4.87804879e-003, 0., 0., 0., 0., 0., 0., 0., 0., 0., 0., 0.,
          0., 0., 0., 0., 4.87804879e-003, 0., 0., 0., 0., 0., 0., 0.,
          0., 0., 0., 0., 0., 0., 0., 0., 0., 4.87804879e-003, 0.,
          4.87804879e-003, 0., 0., 0., 0., 0., 0., 0., 0., 0., 0.,
          4.87804879e-003, 0., 0., 0., 0., 0., 0., 0., 0., 0., 0., 0.,
          0., 4.87804879e-003, 4.87804879e-003, 0., 0., 0., 0., 0., 0.,
          9.75609757e-003, 1.46341464e-002, 0., 0., 4.87804879e-003, 0.,
          0., 0., 0., 0., 0., 0., 0., 1.46341464e-002, 0., 0., 0., 0.,
          0., 9.75609757e-003, 4.87804879e-003, 0., 0., 4.87804879e-003,
          0., 4.87804879e-003, 4.87804879e-003, 0., 0., 0.,
          4.87804879e-003, 0., 0., 2.43902430e-002, 0., 0.,
          1.46341464e-002, 0., 0., 0., 0., 0., 0., 4.87804879e-003, 0.,
          0., 0., 4.87804879e-003, 0., 0., 0., 0., 0., 0., 0., 0.,
          4.87804879e-003, 0., 0., 0., 0., 0., 0., 0., 0., 0.,
          9.75609757e-003, 0., 0., 0., 0., 0., 0., 0., 0.,
          4.87804879e-003, 0., 0., 0., 0., 0., 0., 0., 0.,
          4.87804879e-003, 0., 0., 0., 0., 0., 0., 0., 0., 0., 0., 0.,
          0., 4.87804879e-003, 0., 0., 4.87804879e-003, 0., 0., 0., 0.,
          0., 0., 0., 0., 0., 0., 0., 0., 0., 0., 0., 0., 0., 0., 0., 0.,
          0., 0., 4.87804879e-003, 0., 0., 0., 0., 0., 0., 0., 0., 0.,
          0., 0., 0., 0., 0., 4.87804879e-003, 0., 0., 0.,
          4.87804879e-003, 0., 0., 0., 0., 0., 0., 0., 0., 0., 0., 0.,
          0., 0., 0., 0., 0., 0., 0., 4.87804879e-003, 0., 0., 0., 0.,
          0., 0., 0., 0., 0., 0., 0., 0., 0., 0., 0., 0., 0., 0.,
          9.75609757e-003, 0., 0., 0., 0., 0., 4.87804879e-003, 0., 0.,
          0., 0., 0., 0., 0., 0., 9.75609757e-003, 0., 0., 0.,
          9.75609757e-003, 0., 0., 0., 0., 0., 4.87804879e-003, 0., 0.,
          0., 0., 0., 0., 4.87804879e-003, 4.87804879e-003,
          1.46341464e-002, 0., 0., 0., 0., 0., 0., 0., 0., 0.,
          1.46341464e-002, 0., 0., 0., 0., 0., 0., 0., 0., 0., 0., 0.,
          0., 0., 0., 0., 0., 0., 0., 0., 4.87804879e-003, 0., 0., 0.,
          0., 0., 0., 0., 1.46341464e-002, 0., 0., 1.46341464e-002, 0.,
          0., 0., 0., 0., 4.87804879e-003, 0., 0., 0., 4.87804879e-003,
          0., 0., 4.87804879e-003, 0., 0., 0., 0., 0., 0.,
          9.75609757e-003, 0., 0., 0., 0., 0., 0., 0., 0., 0., 0., 0.,
          0., 0., 0., 0., 0., 0., 0., 0., 0., 0., 1.46341464e-002, 0.,
          0., 0., 0., 4.87804879e-003, 0., 0., 0., 0., 0., 0., 0., 0.,
          9.75609757e-003, 0., 0., 4.87804879e-003, 0., 4.87804879e-003,
          0., 0., 0., 0., 0., 0., 0., 0., 0., 4.87804879e-003, 0., 0.,
          0., 0., 0., 0., 0., 0., 0., 0., 0., 0., 9.75609757e-003, 0.,
          0., 0., 0., 0., 0., 0., 0., 0., 0., 0., 4.87804879e-003, 0.,
          0., 0., 0., 0., 0., 0., 0., 4.87804879e-003, 4.87804879e-003,
          0., 0., 0., 0., 0., 0., 0., 0., 0., 0., 0., 0., 0., 0., 0.,
          2.92682927e-002, 0., 0., 4.87804879e-003, 0., 4.87804879e-003,
          0., 0., 0., 0., 1.46341464e-002, 0., 0., 0., 0., 0., 0., 0.,
          0., 0., 0., 0., 0., 0., 0., 0., 0., 4.87804879e-003, 0., 0.,
          0., 0., 0., 0., 0., 0., 0., 0., 0., 0., 0., 0., 0., 0.,
          4.87804879e-003, 0., 0., 4.87804879e-003, 0., 0., 0., 0., 0.,
          0., 0., 4.87804879e-003, 0., 0., 0., 0., 0., 0., 0., 0., 0.,
          9.75609757e-003, 0., 0., 0., 0., 4.87804879e-003, 0., 0., 0.,
          0., 0., 0., 0., 0., 0., 0., 0., 0., 0., 0., 0., 0., 0., 0., 0.,
          0., 0., 0., 0., 0., 0., 0., 0., 0., 0., 0., 0.,
          4.87804879e-003, 0., 0., 0., 0., 0., 0., 0., 9.75609757e-003,
          0., 0., 4.87804879e-003, 0., 9.75609757e-003, 0., 0., 0., 0.,
          0., 0., 0., 0., 0., 9.75609757e-003, 0., 0., 0., 0., 0.,
          4.87804879e-003, 0., 0., 0., 0., 0., 0., 0., 0., 0., 0., 0.,
          4.87804879e-003, 0., 0., 0., 0., 4.87804879e-003, 0., 0., 0.,
          0., 0., 0., 0., 4.87804879e-003, 0., 9.75609757e-003, 0., 0.,
          0., 0., 0., 0., 2.43902430e-002, 0., 4.87804879e-003, 0., 0.,
          0., 9.75609757e-003, 0., 4.87804879e-003, 0., 0., 0., 0., 0.,
          0., 0., 0., 0., 0., 0., 0., 0., 0., 4.87804879e-003, 0., 0.,
          0., 0., 0., 0., 0., 0., 0., 0., 0., 4.87804879e-003, 0., 0.,
          0., 0., 0., 0., 4.87804879e-003, 0., 4.87804879e-003, 0., 0.,
          0., 0., 0., 0., 0., 0., 4.87804879e-003, 0., 0., 0.,
          4.87804879e-003, 0., 0., 0., 0., 0., 0., 0., 0., 0., 0.,
          9.75609757e-003, 0., 0., 4.87804879e-003, 0., 0., 0., 0., 0.,
          4.87804879e-003, 0., 0., 0., 9.75609757e-003, 0., 0.,
          4.87804879e-003, 0., 0., 4.87804879e-003, 0., 0., 0., 0.,
          9.75609757e-003, 0., 0., 0., 0., 0., 0., 0., 0., 0., 0., 0.,
          0., 0., 0., 0., 4.87804879e-003, 0., 0., 0., 0., 0., 0., 0.,
          0., 0., 0., 0., 0., 0., 0., 0., 0., 9.75609757e-003, 0., 0.,
          0., 0., 0., 0., 0., 4.87804879e-003, 0., 0., 0., 0., 0., 0.,
          0., 0., 4.87804879e-003, 0., 0., 0., 0., 0., 4.87804879e-003,
          0., 0., 4.87804879e-003, 0., 0., 0., 0., 0., 4.87804879e-003,
          0., 0., 0., 0., 0., 0., 0., 0., 4.87804879e-003, 0.,
          4.87804879e-003, 0., 0., 0., 0., 0., 0., 0., 4.87804879e-003,
          0., 0., 0., 0., 0., 0., 0., 0., 0., 0., 0., 0., 0., 0., 0., 0.,
          4.87804879e-003, 0., 0., 0., 9.75609757e-003, 4.87804879e-003,
          1.46341464e-002, 0., 0., 0., 0., 0., 0., 0., 0., 0.,
          4.87804879e-003, 0., 0., 0., 0., 0., 0., 0., 0., 0., 0., 0.,
          0., 0., 0., 9.75609757e-003, 0., 0., 0., 0., 0.,
          4.87804879e-003, 0., 0., 0., 0., 0., 0., 0., 0., 0.,
          9.75609757e-003, 0. ]
      - [ 0., 0., 3.75939859e-003, 0., 0., 0., 3.75939859e-003,
          7.51879718e-003, 0., 0., 0., 0., 3.75939859e-003, 0., 0., 0.,
          7.51879718e-003, 0., 0., 0., 0., 0., 0., 0., 3.75939859e-003,
          0., 0., 0., 0., 1.12781953e-002, 0., 0., 0., 0., 0.,
          3.75939859e-003, 3.75939859e-003, 0., 0., 0., 0., 0., 0.,
          3.75939859e-003, 0., 0., 0., 0., 0., 0., 0., 0., 0., 0.,
          3.75939859e-003, 0., 1.12781953e-002, 0., 0., 0., 0., 0., 0.,
          0., 3.75939859e-003, 0., 0., 0., 0., 0., 0., 0., 0., 0., 0.,
          7.51879718e-003, 3.75939859e-003, 0., 0., 3.75939859e-003, 0.,
          0., 3.75939859e-003, 0., 0., 0., 0., 0., 0., 0., 0., 0., 0.,
          0., 0., 0., 3.75939859e-003, 0., 0., 3.75939859e-003, 0., 0.,
          3.75939859e-003, 0., 0., 0., 3.75939859e-003, 0.,
          3.75939859e-003, 0., 1.12781953e-002, 0., 0., 3.75939859e-003,
          0., 0., 0., 0., 0., 0., 0., 7.51879718e-003, 7.51879718e-003,
          0., 0., 3.75939859e-003, 0., 0., 0., 0., 3.75939859e-003,
          3.75939859e-003, 3.75939859e-003, 7.51879718e-003, 0.,
          3.75939859e-003, 0., 0., 0., 0., 3.75939859e-003, 0., 0., 0.,
          0., 0., 0., 0., 0., 3.75939859e-003, 0., 0., 0., 0., 0., 0.,
          0., 0., 0., 0., 7.51879718e-003, 0., 0., 0., 0.,
          3.75939859e-003, 0., 0., 0., 0., 0., 0., 0., 0., 0., 0.,
          3.75939859e-003, 0., 0., 0., 0., 0., 3.75939859e-003, 0., 0.,
          0., 0., 0., 0., 0., 0., 3.75939859e-003, 0., 0., 0., 0.,
          1.12781953e-002, 0., 3.75939859e-003, 0., 0., 0., 0.,
          1.87969934e-002, 0., 0., 0., 0., 3.75939859e-003,
          7.51879718e-003, 0., 7.51879718e-003, 0., 0., 0., 0.,
          3.75939859e-003, 0., 0., 0., 0., 3.75939859e-003, 0., 0., 0.,
          0., 3.75939859e-003, 3.75939859e-003, 0., 7.51879718e-003, 0.,
          0., 0., 0., 0., 1.50375944e-002, 3.75939859e-003, 0., 0., 0.,
          0., 0., 1.12781953e-002, 3.75939859e-003, 7.51879718e-003, 0.,
          7.51879718e-003, 3.75939859e-003, 0., 0., 0., 0.,
          1.50375944e-002, 3.75939859e-003, 0., 0., 0., 0.,
          3.75939859e-003, 0., 0., 0., 0., 0., 0., 0., 0., 0.,
          3.75939859e-003, 0., 0., 0., 3.75939859e-003, 0., 0., 0., 0.,
          0., 0., 3.75939859e-003, 0., 3.75939859e-003, 0., 0.,
          7.51879718e-003, 0., 0., 3.75939859e-003, 3.75939859e-003, 0.,
          0., 3.75939859e-003, 0., 0., 0., 0., 0., 0., 0.,
          3.75939859e-003, 0., 0., 0., 0., 0., 0., 0., 0., 0., 0., 0.,
          3.75939859e-003, 0., 0., 0., 0., 0., 0., 0., 0., 0., 0., 0.,
          0., 0., 0., 0., 0., 3.75939859e-003, 0., 0., 0., 0., 0., 0.,
          0., 0., 0., 0., 0., 0., 0., 0., 0., 3.75939859e-003, 0., 0.,
          0., 0., 0., 0., 0., 0., 0., 3.75939859e-003, 3.75939859e-003,
          0., 0., 3.75939859e-003, 0., 0., 0., 0., 3.75939859e-003, 0.,
          0., 0., 0., 0., 0., 0., 0., 3.75939859e-003, 0., 0., 0., 0.,
          0., 0., 0., 0., 0., 0., 0., 3.75939859e-003, 0., 0.,
          3.75939859e-003, 0., 0., 0., 0., 0., 0., 0., 3.75939859e-003,
          3.75939859e-003, 0., 3.75939859e-003, 0., 0., 0., 0., 0., 0.,
          0., 0., 0., 0., 0., 0., 7.51879718e-003, 0., 0., 0.,
          7.51879718e-003, 0., 0., 0., 0., 0., 0., 7.51879718e-003, 0.,
          3.75939859e-003, 0., 0., 0., 0., 1.12781953e-002, 0.,
          7.51879718e-003, 0., 0., 0., 0., 0., 0., 0., 0., 0.,
          3.75939859e-003, 0., 0., 0., 0., 0., 0., 0., 0., 0., 0., 0.,
          0., 0., 0., 0., 0., 0., 0., 0., 0., 0., 0., 0., 0.,
          3.75939859e-003, 3.75939859e-003, 1.12781953e-002, 0., 0.,
          7.51879718e-003, 0., 3.75939859e-003, 0., 0., 0., 0., 0., 0.,
          0., 0., 0., 0., 0., 0., 0., 7.51879718e-003, 0., 0., 0.,
          1.12781953e-002, 0., 0., 0., 0., 0., 0., 0., 0., 0., 0., 0.,
          0., 0., 0., 0., 0., 0., 7.51879718e-003, 0., 0., 0.,
          1.87969934e-002, 0., 1.12781953e-002, 0., 0., 3.75939859e-003,
          0., 0., 7.51879718e-003, 3.75939859e-003, 0., 0.,
          3.75939859e-003, 0., 0., 0., 3.75939859e-003, 0., 0.,
          7.51879718e-003, 0., 0., 0., 1.12781953e-002, 0., 0., 0.,
          3.75939859e-003, 0., 0., 0., 3.75939859e-003, 0.,
          3.75939859e-003, 0., 0., 0., 0., 0., 0., 0., 0.,
          1.12781953e-002, 0., 0., 3.75939859e-003, 0., 0., 0., 0., 0.,
          0., 0., 0., 3.75939859e-003, 0., 0., 0., 0., 0., 0., 0., 0.,
          0., 7.51879718e-003, 0., 0., 0., 3.75939859e-003,
          3.75939859e-003, 0., 0., 0., 0., 0., 0., 0., 0., 0., 0.,
          3.75939859e-003, 0., 0., 0., 0., 3.75939859e-003, 0., 0., 0.,
          3.75939859e-003, 0., 0., 7.51879718e-003, 0., 0., 0.,
          3.75939859e-003, 0., 0., 0., 0., 0., 0., 0., 0., 0., 0.,
          3.75939859e-003, 0., 0., 0., 0., 0., 0., 0., 0., 0., 0., 0.,
          0., 0., 0., 0., 0., 3.75939859e-003, 0., 3.75939859e-003, 0.,
          0., 0., 0., 3.75939859e-003, 0., 0., 0., 3.75939859e-003,
          3.75939859e-003, 0., 0., 0., 3.75939859e-003, 0., 0., 0., 0.,
          7.51879718e-003, 0., 0., 0., 0., 3.75939859e-003, 0., 0., 0.,
          0., 0., 0., 3.75939859e-003, 0., 3.75939859e-003, 0., 0., 0.,
          0., 0., 0., 0., 0., 0., 0., 0., 0., 0., 0., 0., 0., 0., 0., 0.,
          0., 0., 0., 7.51879718e-003, 0., 0., 0., 0., 0., 0., 0.,
          7.51879718e-003, 0., 0., 0., 0., 3.75939859e-003, 0.,
          3.75939859e-003, 0., 0., 0., 0., 0., 0., 3.75939859e-003,
          1.12781953e-002, 3.75939859e-003, 0., 3.75939859e-003, 0., 0.,
          0., 0., 0., 0., 3.75939859e-003, 0., 0., 0., 0., 0., 0., 0.,
          3.75939859e-003, 0., 0., 3.75939859e-003, 0., 0., 0., 0., 0.,
          0., 0., 0., 0., 0., 0., 7.51879718e-003, 0., 3.75939859e-003,
          0., 0., 0., 0., 0., 0., 0., 0., 0., 3.75939859e-003,
          3.75939859e-003, 0., 0., 0., 0., 0., 0., 0., 0., 0., 0., 0.,
          3.75939859e-003, 0., 0., 0., 3.75939859e-003, 3.75939859e-003,
          0., 0., 0., 0., 0., 0., 0., 0., 0., 0., 0., 0., 0., 0., 0., 0.,
          0., 0., 1.12781953e-002, 0., 0., 0., 0., 0., 0., 0., 0.,
          3.75939859e-003, 0., 3.75939859e-003, 0., 0., 0., 0., 0.,
          7.51879718e-003, 3.75939859e-003, 0., 0., 0., 0.,
          3.75939859e-003, 0., 0., 7.51879718e-003, 0., 0., 0., 0.,
          7.51879718e-003, 0., 0., 0., 3.75939859e-003, 0., 0., 0.,
          7.51879718e-003, 0., 0., 0., 0., 0., 7.51879718e-003, 0., 0.,
          3.75939859e-003, 0., 1.12781953e-002, 0., 0., 0., 0., 0., 0.,
          0., 0., 0., 0., 0., 0., 0., 0., 0., 3.75939859e-003, 0., 0.,
          0., 0., 0., 0., 0., 0., 3.75939859e-003, 0., 0., 0., 0., 0.,
          0., 0., 1.12781953e-002, 0., 0., 3.75939859e-003, 0., 0., 0.,
          0., 7.51879718e-003, 0., 0., 0., 0., 0., 3.75939859e-003, 0.,
          0., 0., 0., 0., 0., 0., 3.75939859e-003, 7.51879718e-003,
          3.75939859e-003, 0., 3.75939859e-003, 0., 0., 0., 0., 0., 0.,
          0., 0., 0., 0., 0., 3.75939859e-003, 0., 0., 3.75939859e-003,
          3.75939859e-003, 0., 0., 0., 0., 0., 0., 0., 0., 0., 0., 0.,
          0., 0., 0., 0., 0., 0., 0., 0., 0., 0., 0., 0., 0., 0., 0., 0.,
          0., 3.75939859e-003, 7.51879718e-003, 0., 3.75939859e-003,
          3.75939859e-003, 0., 0., 0., 0., 0., 3.75939859e-003, 0., 0.,
          3.75939859e-003, 0., 0., 0., 0., 0., 0., 0., 0., 0., 0., 0.,
          0., 0., 0., 7.51879718e-003, 0., 0., 0., 0., 0.,
          3.75939859e-003, 0., 0., 0., 0., 0., 0., 0., 7.51879718e-003,
          0., 0., 0. ]
      - [ 9.38967150e-003, 0., 9.38967150e-003, 0., 0., 0., 0., 0., 0.,
          0., 0., 0., 0., 0., 4.69483575e-003, 0., 1.40845068e-002, 0.,
          0., 0., 0., 0., 0., 0., 0., 0., 0., 9.38967150e-003, 0.,
          9.38967150e-003, 0., 0., 4.69483575e-003, 0., 0., 0., 0., 0.,
          0., 0., 0., 0., 0., 0., 4.69483575e-003, 0., 0., 0., 0., 0.,
          0., 0., 0., 0., 0., 0., 4.69483575e-003, 0., 0., 0., 0., 0.,
          0., 0., 4.69483584e-002, 0., 0., 4.69483575e-003, 0., 0., 0.,
          0., 0., 0., 0., 9.38967150e-003, 0., 0., 4.69483575e-003,
          1.40845068e-002, 4.69483575e-003, 4.69483575e-003,
          9.38967150e-003, 0., 0., 0., 0., 0., 0., 0., 0., 0.,
          1.40845068e-002, 0., 0., 0., 0., 0., 0., 4.69483575e-003, 0.,
          0., 0., 0., 0., 0., 0., 0., 4.69483575e-003, 0.,
          4.69483575e-003, 0., 0., 4.69483575e-003, 0., 0., 0., 0., 0.,
          0., 0., 0., 0., 0., 0., 0., 0., 0., 0., 0., 0., 0., 0., 0.,
          4.69483575e-003, 4.69483575e-003, 0., 0., 0., 0.,
          9.38967150e-003, 0., 0., 0., 0., 0., 0., 0., 0.,
          4.69483575e-003, 0., 0., 0., 0., 0., 0., 0., 0., 0., 0., 0.,
          0., 9.38967150e-003, 0., 0., 4.69483575e-003, 0., 0., 0., 0.,
          0., 0., 0., 0., 0., 0., 4.69483575e-003, 0., 0., 0., 0., 0.,
          4.69483575e-003, 4.69483575e-003, 4.69483575e-003, 0., 0., 0.,
          0., 0., 0., 0., 0., 0., 0., 0., 0., 0., 0., 0., 0., 0., 0.,
          9.38967150e-003, 0., 0., 0., 0., 4.69483575e-003, 0., 0., 0.,
          0., 0., 0., 0., 4.69483575e-003, 0., 0., 0., 4.69483575e-003,
          4.69483575e-003, 0., 0., 0., 0., 0., 0., 0., 1.40845068e-002,
          0., 0., 0., 0., 0., 4.69483575e-003, 4.69483575e-003, 0., 0.,
          4.69483575e-003, 0., 0., 4.69483575e-003, 0., 0., 0.,
          4.69483575e-003, 0., 0., 0., 0., 0., 1.40845068e-002, 0., 0.,
          0., 0., 0., 0., 0., 0., 0., 0., 4.69483575e-003, 0., 0., 0.,
          0., 0., 0., 0., 0., 0., 0., 0., 0., 0., 0., 0., 0., 0., 0.,
          9.38967150e-003, 0., 4.69483575e-003, 0., 0., 0., 0., 0., 0.,
          0., 0., 0., 0., 0., 0., 0., 0., 0., 9.38967150e-003, 0., 0.,
          0., 0., 0., 0., 0., 0., 0., 0., 4.69483575e-003, 0., 0.,
          4.69483575e-003, 0., 0., 0., 0., 0., 0., 0., 0., 0., 0., 0.,
          0., 0., 4.69483575e-003, 0., 0., 0., 0., 0., 0., 0., 0., 0.,
          0., 9.38967150e-003, 0., 0., 0., 0., 0., 0., 0., 0., 0., 0.,
          4.69483575e-003, 0., 0., 4.69483575e-003, 9.38967150e-003,
          1.40845068e-002, 0., 0., 9.38967150e-003, 0., 4.69483575e-003,
          0., 0., 0., 0., 0., 0., 0., 0., 0., 0., 0., 0., 0., 0., 0., 0.,
          0., 0., 0., 0., 0., 0., 0., 0., 0., 0., 0., 0., 0., 0., 0., 0.,
          0., 0., 0., 9.38967150e-003, 0., 0., 0., 0., 0., 0., 0.,
          4.69483575e-003, 4.69483575e-003, 0., 0., 0., 0., 0.,
          9.38967150e-003, 0., 0., 0., 9.38967150e-003, 0., 0., 0., 0.,
          0., 0., 4.69483575e-003, 4.69483575e-003, 0., 0., 0., 0.,
          4.69483575e-003, 4.69483575e-003, 4.69483575e-003, 0., 0., 0.,
          0., 0., 0., 0., 0., 0., 1.40845068e-002, 0., 0., 0., 0., 0.,
          0., 0., 0., 0., 0., 0., 0., 0., 0., 0., 0., 0., 0., 0.,
          9.38967150e-003, 4.69483575e-003, 0., 0., 0., 0.,
          4.69483575e-003, 0., 9.38967150e-003, 0., 0., 3.28638516e-002,
          0., 0., 0., 0., 0., 0., 0., 0., 0., 0., 0., 0., 0.,
          4.69483575e-003, 0., 0., 0., 0., 0., 0., 0., 0., 0., 0., 0.,
          0., 0., 0., 0., 0., 4.69483575e-003, 4.69483575e-003, 0., 0.,
          0., 0., 0., 0., 0., 0., 0., 1.40845068e-002, 0., 0., 0., 0.,
          4.69483575e-003, 0., 0., 4.69483575e-003, 0., 0., 0., 0., 0.,
          0., 0., 0., 4.69483575e-003, 0., 4.69483575e-003, 0., 0., 0.,
          0., 0., 0., 0., 4.69483575e-003, 0., 4.69483575e-003, 0., 0.,
          0., 0., 0., 0., 0., 0., 0., 0., 0., 0., 0., 0., 0., 0., 0., 0.,
          0., 0., 0., 0., 0., 0., 9.38967150e-003, 0., 0., 0., 0., 0.,
          0., 0., 0., 0., 0., 0., 0., 0., 0., 0., 0., 0., 0., 0., 0., 0.,
          0., 0., 0., 0., 0., 0., 4.69483575e-003, 4.69483575e-003, 0.,
          0., 0., 0., 0., 4.69483575e-003, 1.87793430e-002, 0., 0.,
          4.69483575e-003, 0., 0., 0., 0., 0., 0., 0., 0., 0.,
          4.69483575e-003, 0., 0., 0., 4.69483575e-003, 0., 0., 0., 0.,
          0., 0., 0., 0., 0., 0., 0., 0., 0., 0., 0., 0.,
          4.69483575e-003, 0., 0., 0., 0., 0., 0., 0., 0., 0., 0.,
          4.69483575e-003, 0., 0., 0., 0., 4.69483575e-003, 0., 0., 0.,
          0., 4.69483575e-003, 0., 0., 0., 0., 4.69483575e-003, 0., 0.,
          0., 0., 0., 0., 0., 0., 0., 0., 0., 0., 0., 0., 0., 0., 0.,
          9.38967150e-003, 0., 0., 0., 4.69483575e-003, 0., 0., 0., 0.,
          0., 0., 0., 0., 0., 4.69483575e-003, 0., 0., 0., 0., 0., 0.,
          0., 9.38967150e-003, 0., 0., 9.38967150e-003, 0.,
          1.40845068e-002, 0., 0., 0., 0., 0., 0., 0., 4.69483575e-003,
          0., 4.69483575e-003, 0., 0., 4.69483575e-003, 0.,
          4.69483575e-003, 0., 4.69483575e-003, 0., 0., 0., 0., 0., 0.,
          0., 0., 0., 0., 4.69483575e-003, 0., 0., 4.69483575e-003, 0.,
          4.69483575e-003, 0., 0., 0., 0., 0., 0., 0., 9.38967150e-003,
          0., 0., 0., 0., 0., 0., 0., 0., 4.69483575e-003, 0., 0., 0.,
          0., 0., 0., 0., 0., 0., 0., 4.69483575e-003, 0.,
          4.69483575e-003, 0., 0., 0., 0., 0., 0., 4.69483575e-003, 0.,
          4.69483575e-003, 0., 0., 0., 0., 0., 0., 0., 0., 0., 0., 0.,
          0., 0., 0., 4.69483575e-003, 0., 0., 0., 0., 0., 0., 0., 0.,
          0., 0., 0., 0., 0., 0., 0., 0., 0., 0., 0., 0., 0., 0., 0., 0.,
          0., 0., 0., 0., 0., 0., 9.38967150e-003, 0., 0.,
          4.69483575e-003, 4.69483575e-003, 0., 0., 0., 0., 0., 0.,
          4.69483575e-003, 0., 4.69483575e-003, 0., 0., 0., 0., 0.,
          4.69483575e-003, 0., 0., 0., 0., 4.69483575e-003, 0., 0., 0.,
          0., 0., 0., 0., 0., 0., 4.69483575e-003, 0., 0., 0., 0., 0.,
          4.69483575e-003, 0., 0., 0., 0., 0., 0., 0., 0.,
          4.69483575e-003, 0., 9.38967150e-003, 0., 0., 0., 0., 0., 0.,
          0., 0., 0., 0., 0., 0., 0., 9.38967150e-003, 0., 0., 0.,
          4.69483575e-003, 0., 0., 0., 0., 4.69483575e-003, 0., 0., 0.,
          0., 0., 4.69483575e-003, 0., 4.69483575e-003, 4.69483575e-003,
          0., 0., 0., 0., 0., 9.38967150e-003, 0., 4.69483575e-003, 0.,
          0., 0., 4.69483575e-003, 0., 0., 4.69483575e-003,
          4.69483575e-003, 0., 0., 0., 0., 0., 0., 0., 0., 0., 0., 0.,
          0., 0., 0., 0., 0., 0., 0., 0., 0., 0., 0., 0., 0., 0.,
          4.69483575e-003, 0., 0., 0., 9.38967150e-003, 0.,
          4.69483575e-003, 0., 0., 0., 0., 0., 0., 0., 0., 0.,
          4.69483575e-003, 0., 0., 0., 0., 0., 0., 0., 0., 0., 0., 0.,
          0., 0., 0., 4.69483575e-003, 0., 0., 0., 0., 0., 0., 0., 0.,
          0., 0., 0., 0., 0., 0., 0., 1.40845068e-002, 0. ]
      - [ 4.13223123e-003, 0., 2.06611566e-002, 0., 0., 0.,
          4.13223123e-003, 1.23966932e-002, 0., 0., 0., 0., 0., 0., 0.,
          0., 4.13223123e-003, 0., 0., 0., 0., 0., 0., 0., 0., 0., 0.,
          0., 0., 0., 0., 0., 0., 0., 0., 0., 4.13223123e-003, 0., 0.,
          4.13223123e-003, 0., 4.13223123e-003, 0., 4.13223123e-003, 0.,
          0., 0., 0., 0., 0., 0., 0., 0., 0., 0., 0., 4.13223123e-003,
          0., 0., 0., 0., 0., 0., 0., 4.95867729e-002, 0., 0., 0., 0.,
          0., 0., 0., 0., 0., 0., 0., 0., 0., 0., 4.13223123e-003, 0.,
          0., 4.13223123e-003, 0., 0., 0., 0., 0., 0., 0., 0., 0.,
          1.23966932e-002, 0., 0., 4.13223123e-003, 8.26446246e-003, 0.,
          0., 1.23966932e-002, 0., 0., 0., 0., 0., 0., 0., 0., 0., 0.,
          0., 0., 0., 0., 0., 0., 0., 0., 0., 0., 0., 0., 0., 0., 0., 0.,
          0., 0., 0., 0., 0., 0., 0., 1.23966932e-002, 0.,
          4.13223123e-003, 0., 0., 1.23966932e-002, 0., 4.13223123e-003,
          0., 1.65289249e-002, 4.13223123e-003, 0., 0., 0., 0.,
          4.13223123e-003, 0., 0., 0., 0., 8.26446246e-003, 0., 0., 0.,
          0., 0., 0., 0., 0., 1.65289249e-002, 0., 0., 0., 0., 0., 0.,
          0., 0., 0., 0., 4.13223123e-003, 0., 0., 4.13223123e-003, 0.,
          0., 0., 0., 0., 0., 0., 0., 0., 0., 0., 0., 0., 0.,
          4.13223123e-003, 0., 0., 0., 8.26446246e-003, 0., 0., 0., 0.,
          0., 0., 0., 2.06611566e-002, 0., 0., 0., 0., 4.13223123e-003,
          0., 0., 0., 4.13223123e-003, 0., 0., 0., 1.23966932e-002, 0.,
          0., 4.13223123e-003, 8.26446246e-003, 4.13223123e-003, 0., 0.,
          0., 0., 0., 0., 0., 2.89256182e-002, 0., 0., 0., 0., 0.,
          1.65289249e-002, 0., 0., 0., 4.13223123e-003, 0., 0., 0., 0.,
          0., 0., 4.13223123e-003, 0., 0., 8.26446246e-003, 0., 0.,
          1.23966932e-002, 0., 0., 0., 0., 0., 0., 4.13223123e-003, 0.,
          0., 0., 0., 0., 0., 0., 0., 0., 0., 0., 0., 0., 0., 0., 0., 0.,
          0., 0., 0., 0., 0., 4.13223123e-003, 0., 4.13223123e-003, 0.,
          0., 0., 0., 0., 0., 0., 0., 0., 4.13223123e-003, 0., 0., 0.,
          0., 0., 4.13223123e-003, 0., 0., 0., 0., 0., 0., 0., 0., 0.,
          0., 0., 0., 4.13223123e-003, 8.26446246e-003, 0., 0., 0., 0.,
          0., 4.13223123e-003, 0., 0., 0., 0., 0., 0., 0.,
          4.13223123e-003, 0., 0., 0., 0., 0., 0., 0., 0., 0., 0., 0.,
          0., 0., 0., 0., 0., 0., 0., 0., 0., 0., 0., 0., 0., 0., 0., 0.,
          0., 0., 8.26446246e-003, 0., 0., 0., 0., 0., 0., 0.,
          4.13223123e-003, 0., 0., 0., 0., 0., 0., 0., 0., 0., 0., 0.,
          0., 0., 0., 0., 0., 0., 4.13223123e-003, 0., 0., 0., 0., 0.,
          0., 0., 0., 0., 0., 0., 8.26446246e-003, 0., 0., 0., 0., 0.,
          4.13223123e-003, 0., 0., 0., 0., 0., 0., 0., 0.,
          8.26446246e-003, 0., 0., 0., 4.13223123e-003, 0., 0., 0., 0.,
          0., 0., 4.13223123e-003, 0., 4.13223123e-003, 0., 0., 0.,
          4.13223123e-003, 0., 8.26446246e-003, 0., 0., 0., 0., 0., 0.,
          0., 0., 0., 8.26446246e-003, 0., 0., 0., 0., 0., 0., 0., 0.,
          0., 0., 0., 0., 0., 0., 0., 0., 0., 0., 0., 0., 0., 0., 0., 0.,
          0., 4.13223123e-003, 0., 4.13223123e-003, 0., 0.,
          2.89256182e-002, 0., 0., 0., 0., 0., 0., 0., 0., 0., 0., 0.,
          0., 0., 0., 0., 0., 0., 0., 0., 0., 0., 0., 0., 0., 0., 0., 0.,
          0., 4.13223123e-003, 0., 4.13223123e-003, 0., 0., 0., 0., 0.,
          0., 0., 0., 0., 0., 4.13223123e-003, 0., 0., 0., 0., 0., 0.,
          0., 1.23966932e-002, 0., 0., 0., 0., 0., 0., 0., 0., 0., 0.,
          4.13223123e-003, 0., 0., 0., 4.13223123e-003, 0., 0., 0., 0.,
          0., 4.13223123e-003, 0., 0., 0., 4.13223123e-003, 0., 0.,
          4.13223123e-003, 0., 0., 0., 0., 0., 8.26446246e-003, 0., 0.,
          0., 0., 0., 0., 0., 0., 0., 0., 0., 4.13223123e-003, 0., 0.,
          0., 4.13223123e-003, 0., 0., 0., 0., 0., 8.26446246e-003, 0.,
          0., 0., 0., 0., 0., 0., 0., 0., 0., 0., 0., 0., 0., 0., 0., 0.,
          0., 0., 0., 4.13223123e-003, 0., 0., 0., 4.13223123e-003,
          8.26446246e-003, 0., 0., 0., 0., 0., 0., 0., 0., 0., 0., 0.,
          0., 8.26446246e-003, 0., 0., 0., 4.13223123e-003,
          4.13223123e-003, 0., 0., 0., 0., 4.13223123e-003, 0., 0., 0.,
          0., 0., 0., 0., 0., 0., 0., 4.13223123e-003, 0., 0.,
          4.13223123e-003, 0., 0., 0., 0., 0., 0., 0., 0., 0., 0., 0.,
          0., 0., 0., 0., 0., 0., 8.26446246e-003, 0., 0., 0., 0.,
          4.13223123e-003, 0., 0., 0., 0., 0., 0., 0., 0., 0., 0., 0.,
          4.13223123e-003, 0., 0., 0., 0., 0., 0., 0., 0., 0., 0., 0.,
          0., 0., 0., 0., 0., 0., 0., 0., 4.13223123e-003, 0., 0., 0.,
          0., 0., 0., 0., 8.26446246e-003, 0., 0., 0., 0., 0.,
          4.13223123e-003, 0., 0., 0., 0., 0., 0., 4.13223123e-003, 0.,
          8.26446246e-003, 4.13223123e-003, 0., 0., 0., 0., 0.,
          4.13223123e-003, 0., 0., 0., 0., 0., 0., 0., 0., 0., 0., 0.,
          0., 0., 0., 0., 8.26446246e-003, 0., 4.13223123e-003, 0., 0.,
          0., 0., 4.13223123e-003, 1.65289249e-002, 0., 4.13223123e-003,
          0., 4.13223123e-003, 0., 0., 0., 0., 0., 0., 0., 0., 0., 0.,
          4.13223123e-003, 0., 4.13223123e-003, 0., 0., 0., 0.,
          4.13223123e-003, 0., 0., 0., 4.13223123e-003, 0., 0., 0., 0.,
          0., 4.13223123e-003, 0., 0., 0., 0., 0., 0., 0., 0., 0., 0.,
          0., 0., 0., 4.13223123e-003, 0., 0., 0., 0., 4.13223123e-003,
          0., 0., 0., 4.13223123e-003, 0., 0., 0., 4.13223123e-003, 0.,
          0., 0., 0., 4.13223123e-003, 0., 0., 0., 0., 0., 0., 0., 0.,
          0., 4.13223123e-003, 0., 0., 8.26446246e-003, 0., 0., 0.,
          4.13223123e-003, 0., 0., 0., 0., 0., 0., 0., 0.,
          8.26446246e-003, 0., 0., 4.13223123e-003, 0., 4.13223123e-003,
          4.13223123e-003, 0., 0., 0., 0., 1.23966932e-002,
          4.13223123e-003, 0., 0., 0., 0., 0., 0., 0., 0., 0., 0., 0.,
          0., 0., 0., 0., 0., 0., 0., 4.13223123e-003, 0., 0., 0., 0.,
          0., 0., 0., 0., 0., 0., 0., 0., 4.13223123e-003, 0., 0.,
          8.26446246e-003, 4.13223123e-003, 0., 0., 0., 0.,
          4.13223123e-003, 0., 0., 0., 0., 0., 0., 0., 4.13223123e-003,
          0., 0., 0., 0., 8.26446246e-003, 0., 0., 4.13223123e-003,
          4.13223123e-003, 0., 0., 4.13223123e-003, 0., 0.,
          4.13223123e-003, 0., 1.23966932e-002, 0., 0., 4.13223123e-003,
          4.13223123e-003, 0., 0., 4.13223123e-003, 4.13223123e-003, 0.,
          0., 0., 0., 0., 0., 0., 0., 4.13223123e-003, 0., 0., 0., 0.,
          0., 0., 0., 0., 0., 0., 0., 0., 0., 0., 4.13223123e-003, 0.,
          0., 0., 0., 0., 8.26446246e-003, 0., 8.26446246e-003,
          4.13223123e-003, 0., 0., 0., 0., 0., 8.26446246e-003, 0., 0.,
          4.13223123e-003, 0., 0., 0., 0., 8.26446246e-003, 0.,
          4.13223123e-003, 0., 0., 0., 0., 0., 0., 0., 0., 0., 0., 0.,
          0., 0., 0., 0., 0., 0., 0., 0., 0., 0., 0., 0.,
          1.23966932e-002, 0. ]
      - [ 0., 0., 4.20168089e-003, 0., 0., 0., 4.20168089e-003, 0., 0.,
          0., 0., 0., 0., 0., 0., 0., 4.20168089e-003, 0., 0., 0., 0.,
          0., 0., 0., 0., 0., 0., 0., 0., 0., 0., 0., 0., 0., 0., 0., 0.,
          0., 0., 0., 0., 0., 0., 0., 0., 0., 0., 0., 0., 0., 0., 0., 0.,
          0., 0., 0., 0., 0., 0., 0., 0., 0., 0., 0., 2.94117667e-002,
          0., 0., 4.20168089e-003, 0., 0., 0., 0., 0., 0., 0.,
          4.20168089e-003, 4.20168089e-003, 0., 0., 4.20168089e-003, 0.,
          0., 1.68067235e-002, 0., 0., 0., 0., 0., 0., 0., 0., 0., 0.,
          0., 0., 4.20168089e-003, 0., 0., 0., 8.40336177e-003, 0., 0.,
          0., 0., 0., 0., 0., 0., 4.20168089e-003, 0., 4.20168089e-003,
          0., 0., 4.20168089e-003, 0., 0., 0., 0., 0., 0., 0., 0.,
          4.20168089e-003, 0., 0., 0., 0., 0., 0., 0., 0., 0., 0.,
          1.26050431e-002, 0., 4.20168089e-003, 0., 0., 4.20168089e-003,
          0., 8.40336177e-003, 0., 8.40336177e-003, 0., 0., 0., 0., 0.,
          4.20168089e-003, 0., 0., 0., 0., 0., 0., 0., 0., 0., 0., 0.,
          0., 4.20168089e-003, 4.20168089e-003, 0., 0., 4.20168089e-003,
          0., 0., 0., 0., 0., 0., 0., 0., 0., 0., 0., 0., 0., 0., 0., 0.,
          8.40336177e-003, 0., 0., 0., 0., 0., 0., 0., 0.,
          4.20168089e-003, 0., 0., 0., 4.20168089e-003, 4.20168089e-003,
          0., 0., 0., 0., 0., 0., 1.68067235e-002, 0., 0., 0., 0.,
          4.20168089e-003, 1.68067235e-002, 0., 0., 0., 0., 0., 0.,
          8.40336177e-003, 4.20168089e-003, 0., 0., 0., 4.20168089e-003,
          0., 0., 0., 0., 0., 0., 0., 2.94117667e-002, 0., 0., 0., 0.,
          0., 1.68067235e-002, 0., 0., 0., 4.20168089e-003, 0., 0.,
          4.20168089e-003, 0., 4.20168089e-003, 0., 4.20168089e-003, 0.,
          0., 8.40336177e-003, 0., 0., 1.26050431e-002, 0., 0., 0., 0.,
          0., 0., 0., 0., 0., 0., 0., 0., 0., 0., 0., 0., 0., 0., 0., 0.,
          0., 0., 0., 0., 0., 0., 4.20168089e-003, 0., 0.,
          8.40336177e-003, 0., 0., 0., 0., 0., 0., 0., 0.,
          4.20168089e-003, 4.20168089e-003, 0., 0., 0., 0., 0., 0.,
          8.40336177e-003, 4.20168089e-003, 0., 0., 0., 0., 0., 0., 0.,
          0., 0., 0., 0., 0., 1.68067235e-002, 0., 0., 4.20168089e-003,
          0., 0., 0., 0., 0., 0., 0., 0., 0., 0., 0., 0., 0., 0., 0., 0.,
          0., 0., 0., 0., 0., 0., 4.20168089e-003, 0., 0., 0.,
          4.20168089e-003, 4.20168089e-003, 0., 0., 0., 0., 0.,
          8.40336177e-003, 0., 0., 0., 0., 4.20168089e-003, 0., 0.,
          8.40336177e-003, 0., 4.20168089e-003, 0., 0., 0., 0., 0.,
          8.40336177e-003, 0., 0., 0., 0., 0., 0., 0., 0., 0., 0., 0.,
          0., 0., 0., 0., 0., 0., 0., 0., 0., 0., 0., 0., 0., 0., 0., 0.,
          0., 0., 4.20168089e-003, 0., 0., 0., 0., 0., 0., 0., 0.,
          8.40336177e-003, 0., 4.20168089e-003, 0., 0., 0.,
          8.40336177e-003, 0., 0., 4.20168089e-003, 0., 0., 0., 0., 0.,
          0., 0., 8.40336177e-003, 0., 0., 0., 0., 0., 1.26050431e-002,
          4.20168089e-003, 1.26050431e-002, 0., 0., 0., 0., 0., 0., 0.,
          0., 0., 4.20168089e-003, 0., 0., 0., 0., 0., 0., 0., 0., 0.,
          0., 0., 0., 0., 0., 0., 0., 0., 0., 0., 4.20168089e-003, 0.,
          0., 0., 0., 0., 4.20168089e-003, 0., 4.20168089e-003, 0., 0.,
          8.40336177e-003, 0., 0., 0., 0., 0., 0., 0., 0., 0., 0., 0.,
          0., 0., 4.20168089e-003, 4.20168089e-003, 8.40336177e-003, 0.,
          0., 0., 0., 0., 0., 0., 0., 0., 0., 0., 0., 4.20168089e-003,
          0., 0., 0., 0., 0., 0., 0., 0., 4.20168089e-003, 0., 0., 0.,
          1.68067235e-002, 0., 0., 0., 0., 4.20168089e-003,
          4.20168089e-003, 0., 0., 0., 0., 0., 0., 0., 8.40336177e-003,
          0., 0., 0., 0., 4.20168089e-003, 0., 0., 0., 4.20168089e-003,
          0., 4.20168089e-003, 0., 0., 0., 8.40336177e-003, 0., 0., 0.,
          4.20168089e-003, 0., 0., 0., 0., 0., 0., 0., 0.,
          4.20168089e-003, 0., 0., 0., 0., 0., 0., 0., 0., 0., 0., 0.,
          4.20168089e-003, 0., 0., 0., 0., 0., 0., 0., 0., 0.,
          1.26050431e-002, 0., 0., 0., 0., 0., 0., 0., 0., 0., 0., 0.,
          0., 0., 0., 0., 8.40336177e-003, 0., 4.20168089e-003, 0., 0.,
          1.26050431e-002, 0., 0., 0., 4.20168089e-003, 1.26050431e-002,
          0., 0., 4.20168089e-003, 0., 0., 0., 4.20168089e-003, 0., 0.,
          0., 0., 0., 4.20168089e-003, 0., 0., 0., 4.20168089e-003,
          4.20168089e-003, 0., 0., 0., 0., 0., 0., 0., 0., 0., 0., 0.,
          0., 0., 0., 0., 4.20168089e-003, 0., 0., 0., 0., 0., 0., 0.,
          0., 0., 0., 8.40336177e-003, 0., 0., 0., 0., 0., 0., 0., 0.,
          0., 8.40336177e-003, 0., 0., 0., 0., 0., 0., 0., 0., 0., 0.,
          0., 0., 0., 0., 0., 0., 0., 0., 0., 0., 0., 0.,
          4.20168089e-003, 0., 0., 0., 0., 0., 0., 0., 0., 0., 0., 0.,
          0., 0., 4.20168089e-003, 0., 0., 0., 0., 0., 0., 0.,
          8.40336177e-003, 0., 0., 4.20168089e-003, 0., 8.40336177e-003,
          0., 0., 0., 0., 0., 0., 0., 8.40336177e-003, 0., 0., 0., 0.,
          0., 0., 0., 0., 1.26050431e-002, 0., 4.20168089e-003, 0., 0.,
          0., 0., 0., 0., 0., 0., 0., 0., 0., 0., 0., 0., 0., 0., 0., 0.,
          0., 0., 0., 1.26050431e-002, 0., 1.26050431e-002, 0., 0., 0.,
          0., 0., 0., 4.20168089e-003, 0., 0., 0., 0., 0.,
          8.40336177e-003, 0., 0., 0., 0., 0., 0., 0., 0., 0., 0., 0.,
          0., 0., 4.20168089e-003, 0., 0., 8.40336177e-003, 0., 0., 0.,
          0., 0., 0., 0., 0., 0., 0., 0., 0., 0., 8.40336177e-003, 0.,
          0., 0., 0., 4.20168089e-003, 0., 0., 0., 0., 0.,
          4.20168089e-003, 0., 0., 4.20168089e-003, 0., 4.20168089e-003,
          0., 0., 0., 0., 0., 0., 0., 0., 0., 0., 0., 0., 0., 0.,
          4.20168089e-003, 0., 0., 0., 8.40336177e-003, 0., 0., 0., 0.,
          0., 0., 8.40336177e-003, 0., 0., 0., 0., 0., 0., 0.,
          4.20168089e-003, 0., 4.20168089e-003, 0., 0., 1.68067235e-002,
          0., 0., 0., 0., 0., 0., 0., 0., 0., 4.20168089e-003, 0., 0.,
          0., 0., 0., 4.20168089e-003, 0., 0., 0., 0., 0.,
          4.20168089e-003, 0., 0., 0., 0., 0., 0., 0., 0., 0., 0., 0.,
          0., 0., 4.20168089e-003, 0., 0., 0., 0., 0., 4.20168089e-003,
          4.20168089e-003, 0., 8.40336177e-003, 0., 4.20168089e-003, 0.,
          0., 0., 0., 0., 0., 0., 0., 4.20168089e-003, 0., 0.,
          4.20168089e-003, 0., 0., 0., 0., 0., 4.20168089e-003, 0., 0.,
          0., 0., 4.20168089e-003, 4.20168089e-003, 0., 0.,
          4.20168089e-003, 1.26050431e-002, 8.40336177e-003, 0., 0., 0.,
          0., 0., 0., 0., 0., 0., 0., 0., 0., 0., 0., 0., 0., 0., 0., 0.,
          0., 0., 0., 0., 0., 0., 0., 0., 0., 8.40336177e-003, 0.,
          8.40336177e-003, 0., 0., 0., 0., 0., 0., 8.40336177e-003, 0.,
          0., 4.20168089e-003, 0., 0., 0., 0., 0., 0., 0., 0., 0., 0.,
          0., 0., 0., 0., 4.20168089e-003, 0., 0., 0., 0., 0., 0., 0.,
          0., 4.20168089e-003, 0., 0., 0., 0., 0., 0., 0., 0. ]
      - [ 1.13207549e-002, 0., 0., 0., 0., 0., 3.77358496e-003,
          7.54716992e-003, 0., 0., 0., 0., 0., 0., 3.77358496e-003, 0.,
          1.13207549e-002, 3.77358496e-003, 0., 3.77358496e-003, 0., 0.,
          0., 0., 0., 0., 0., 0., 0., 0., 0., 0., 0., 0., 0., 0., 0., 0.,
          0., 0., 0., 0., 0., 0., 0., 0., 0., 0., 0., 0., 0., 0., 0., 0.,
          0., 0., 1.13207549e-002, 0., 0., 0., 0., 0., 0., 0.,
          3.77358496e-003, 0., 0., 3.77358496e-003, 0., 0., 0., 0., 0.,
          0., 0., 7.54716992e-003, 0., 0., 0., 3.77358496e-003, 0., 0.,
          0., 0., 0., 0., 0., 0., 0., 0., 3.77358496e-003, 0.,
          1.88679248e-002, 0., 0., 0., 3.77358496e-003, 0., 0., 0., 0.,
          0., 0., 0., 0., 0., 0., 0., 0., 0., 0., 0., 3.77358496e-003,
          3.77358496e-003, 0., 0., 0., 0., 0., 0., 0., 3.77358496e-003,
          3.77358496e-003, 0., 0., 3.77358496e-003, 0., 0., 0., 0., 0.,
          0., 3.77358496e-003, 3.77358496e-003, 0., 0., 0., 0., 0., 0.,
          3.77358496e-003, 0., 1.50943398e-002, 0., 0., 0., 0., 0., 0.,
          0., 0., 0., 0., 1.13207549e-002, 0., 0., 0., 0., 0., 0.,
          3.77358496e-003, 0., 0., 0., 0., 3.77358496e-003, 0., 0., 0.,
          3.77358496e-003, 0., 0., 0., 0., 0., 0., 0., 0., 0., 0., 0.,
          0., 7.54716992e-003, 3.77358496e-003, 3.77358496e-003, 0., 0.,
          0., 0., 0., 0., 0., 3.77358496e-003, 0., 0., 0.,
          1.50943398e-002, 0., 0., 0., 0., 0., 0., 1.50943398e-002,
          3.77358496e-003, 0., 0., 0., 3.77358496e-003, 0., 0.,
          3.77358496e-003, 0., 0., 0., 0., 7.54716992e-003, 0., 0.,
          3.77358496e-003, 0., 0., 0., 0., 0., 0., 0., 0., 0.,
          1.13207549e-002, 0., 0., 0., 0., 0., 0., 0., 0., 0.,
          3.77358496e-003, 0., 0., 0., 0., 7.54716992e-003, 0.,
          3.77358496e-003, 3.77358496e-003, 0., 0., 0., 0.,
          3.77358496e-003, 3.77358496e-003, 0., 0., 0., 0., 0., 0.,
          3.77358496e-003, 0., 0., 0., 0., 0., 0., 0., 0., 0., 0., 0.,
          0., 0., 0., 0., 0., 0., 0., 0., 0., 0., 7.54716992e-003, 0.,
          7.54716992e-003, 0., 0., 0., 0., 0., 0., 0., 0., 0., 0., 0.,
          0., 0., 0., 0., 3.77358496e-003, 0., 0., 0., 0., 0., 0., 0.,
          0., 0., 0., 3.77358496e-003, 0., 3.77358496e-003, 0., 0., 0.,
          0., 0., 0., 0., 0., 0., 0., 0., 0., 0., 0., 3.77358496e-003,
          0., 0., 0., 0., 0., 0., 0., 0., 0., 0., 0., 0., 0., 0.,
          7.54716992e-003, 0., 0., 0., 0., 0., 0., 0., 0., 0., 0., 0.,
          0., 0., 3.77358496e-003, 1.13207549e-002, 0., 3.77358496e-003,
          0., 0., 0., 3.77358496e-003, 0., 1.13207549e-002, 0., 0., 0.,
          0., 3.77358496e-003, 7.54716992e-003, 0., 0., 0., 0.,
          3.77358496e-003, 0., 0., 0., 0., 0., 0., 0., 0., 0., 0., 0.,
          0., 0., 0., 0., 0., 0., 0., 3.77358496e-003, 0., 0., 0., 0.,
          0., 0., 0., 3.77358496e-003, 3.77358496e-003, 0.,
          7.54716992e-003, 0., 0., 0., 7.54716992e-003, 0., 0., 0., 0.,
          0., 0., 0., 0., 0., 3.77358496e-003, 0., 0., 3.77358496e-003,
          0., 0., 0., 3.77358496e-003, 1.13207549e-002, 1.13207549e-002,
          7.54716992e-003, 0., 0., 0., 0., 0., 0., 0., 0.,
          1.50943398e-002, 0., 0., 0., 0., 0., 0., 0., 0., 0., 0., 0.,
          0., 0., 0., 0., 3.77358496e-003, 0., 0., 0., 3.77358496e-003,
          0., 0., 0., 0., 3.77358496e-003, 0., 0., 0., 0., 0.,
          7.54716992e-003, 0., 0., 0., 0., 0., 0., 0., 0., 0., 0., 0.,
          0., 3.77358496e-003, 0., 0., 0., 0., 0., 0., 1.88679248e-002,
          0., 0., 0., 0., 0., 0., 0., 0., 0., 0., 3.77358496e-003,
          3.77358496e-003, 0., 0., 0., 0., 0., 3.77358496e-003, 0., 0.,
          0., 1.88679248e-002, 0., 0., 0., 0., 3.77358496e-003, 0., 0.,
          3.77358496e-003, 0., 0., 0., 0., 0., 0., 0., 7.54716992e-003,
          0., 0., 3.77358496e-003, 0., 0., 0., 3.77358496e-003, 0., 0.,
          0., 0., 0., 0., 0., 0., 0., 3.77358496e-003, 0., 0., 0., 0.,
          0., 7.54716992e-003, 0., 0., 7.54716992e-003, 0., 0.,
          3.77358496e-003, 0., 0., 0., 0., 0., 0., 0., 0.,
          7.54716992e-003, 0., 0., 0., 3.77358496e-003, 0., 0., 0., 0.,
          0., 0., 0., 0., 0., 0., 0., 0., 0., 0., 0., 0., 0., 0., 0., 0.,
          0., 3.77358496e-003, 0., 0., 7.54716992e-003, 3.77358496e-003,
          1.13207549e-002, 0., 0., 3.77358496e-003, 0., 3.77358496e-003,
          0., 0., 3.77358496e-003, 0., 0., 0., 0., 0., 0., 0., 0., 0.,
          3.77358496e-003, 3.77358496e-003, 0., 0., 3.77358496e-003,
          7.54716992e-003, 0., 0., 0., 0., 7.54716992e-003, 0., 0., 0.,
          0., 0., 0., 0., 0., 0., 0., 3.77358496e-003, 0., 0., 0., 0.,
          0., 0., 0., 0., 0., 0., 7.54716992e-003, 0., 0., 0., 0.,
          3.77358496e-003, 0., 0., 0., 0., 7.54716992e-003, 0., 0., 0.,
          0., 0., 0., 0., 0., 0., 0., 0., 1.88679248e-002, 0., 0., 0.,
          0., 0., 0., 0., 0., 0., 0., 3.77358496e-003, 0., 0., 0., 0.,
          3.77358496e-003, 0., 0., 0., 0., 0., 0., 0., 0., 0., 0., 0.,
          0., 0., 0., 0., 0., 0., 0., 0., 7.54716992e-003, 0.,
          3.77358496e-003, 0., 0., 0., 0., 0., 0., 0., 0., 0.,
          3.77358496e-003, 3.77358496e-003, 0., 0., 0., 3.77358496e-003,
          0., 3.77358496e-003, 0., 0., 7.54716992e-003, 0., 0., 0., 0.,
          0., 0., 0., 3.77358496e-003, 0., 0., 1.13207549e-002, 0.,
          3.77358496e-003, 0., 0., 0., 3.77358496e-003, 0., 0., 0., 0.,
          0., 7.54716992e-003, 0., 3.77358496e-003, 0., 0., 0., 0.,
          1.13207549e-002, 0., 3.77358496e-003, 3.77358496e-003, 0.,
          3.77358496e-003, 3.77358496e-003, 0., 3.77358496e-003, 0., 0.,
          0., 0., 0., 0., 0., 3.77358496e-003, 0., 0., 0.,
          3.77358496e-003, 0., 0., 3.77358496e-003, 0., 0., 0., 0., 0.,
          0., 0., 0., 0., 0., 0., 0., 0., 7.54716992e-003, 0., 0., 0.,
          3.77358496e-003, 3.77358496e-003, 0., 0., 0., 0., 0., 0., 0.,
          0., 3.77358496e-003, 0., 0., 0., 3.77358496e-003, 0.,
          3.77358496e-003, 0., 3.77358496e-003, 0., 0., 0., 0., 0.,
          3.77358496e-003, 0., 0., 3.77358496e-003, 0., 0.,
          3.77358496e-003, 0., 0., 0., 0., 0., 3.77358496e-003, 0.,
          1.13207549e-002, 0., 0., 0., 0., 3.77358496e-003, 0.,
          1.13207549e-002, 3.77358496e-003, 3.77358496e-003, 0.,
          3.77358496e-003, 0., 1.13207549e-002, 0., 0., 0., 0., 0., 0.,
          0., 0., 0., 3.77358496e-003, 0., 0., 0., 0., 0.,
          3.77358496e-003, 0., 0., 0., 0., 0., 0., 0., 0.,
          7.54716992e-003, 0., 0., 0., 0., 0., 0., 0., 0., 0., 0., 0.,
          0., 0., 0., 0., 7.54716992e-003, 0., 0., 0., 0., 0., 0., 0.,
          0., 3.77358496e-003, 0., 0., 0., 0., 3.77358496e-003, 0., 0.,
          0., 0., 0., 0., 0., 0., 0., 0., 0., 0., 0., 0., 0.,
          7.54716992e-003, 0., 0., 3.77358496e-003, 3.77358496e-003, 0.,
          0., 0., 0., 0., 0., 0., 3.77358496e-003, 0., 0., 0., 0.,
          3.77358496e-003, 0., 0., 0., 0., 0., 0., 0., 0., 0., 0., 0.,
          0., 0., 0., 0., 0., 3.77358496e-003, 0., 7.54716992e-003,
          7.54716992e-003, 0., 0., 0., 0., 0., 3.77358496e-003, 0., 0.,
          3.77358496e-003, 0., 0., 0., 0., 0., 0., 7.54716992e-003, 0.,
          0., 0., 0., 0., 0., 0., 7.54716992e-003, 3.77358496e-003, 0.,
          0., 0., 0., 0., 0., 0., 0., 0., 0., 0., 0., 3.77358496e-003,
          0., 0., 0. ]
      - [ 9.52380989e-003, 0., 1.90476198e-002, 0., 0., 0.,
          4.76190494e-003, 0., 0., 0., 0., 0., 0., 0., 0., 0.,
          1.90476198e-002, 0., 0., 0., 0., 0., 0., 0., 0., 0., 0., 0.,
          0., 4.76190494e-003, 0., 0., 9.52380989e-003, 0., 0., 0.,
          4.76190494e-003, 0., 0., 4.76190494e-003, 0., 0., 0., 0., 0.,
          0., 0., 0., 0., 0., 0., 0., 0., 0., 0., 0., 0., 0., 0., 0., 0.,
          0., 0., 0., 4.76190494e-003, 0., 0., 0., 0., 0.,
          4.76190494e-003, 0., 9.52380989e-003, 0., 0., 1.42857153e-002,
          0., 0., 0., 0., 0., 0., 9.52380989e-003, 0., 0., 0., 0., 0.,
          0., 0., 4.76190494e-003, 0., 4.76190494e-003, 0., 0., 0., 0.,
          0., 0., 1.90476198e-002, 0., 0., 4.76190494e-003, 0., 0., 0.,
          0., 4.76190494e-003, 0., 0., 0., 0., 4.76190494e-003,
          9.52380989e-003, 0., 0., 0., 0., 4.76190494e-003, 0., 0.,
          4.76190494e-003, 0., 0., 0., 0., 0., 0., 0., 0., 0.,
          4.76190494e-003, 0., 0., 0., 0., 0., 0., 4.76190494e-003, 0.,
          4.76190494e-003, 0., 9.52380989e-003, 0., 0., 0., 0., 0., 0.,
          4.76190494e-003, 0., 0., 0., 0., 0., 0., 0., 0., 0., 0., 0.,
          0., 4.76190494e-003, 0., 0., 4.76190494e-003, 0., 0., 0., 0.,
          0., 0., 0., 0., 0., 0., 0., 0., 0., 0., 0., 0.,
          4.76190494e-003, 4.76190494e-003, 0., 0., 0., 0., 0., 0., 0.,
          4.76190494e-003, 4.76190494e-003, 0., 0., 0., 0., 0., 0., 0.,
          0., 0., 0., 0., 4.76190494e-003, 0., 0., 0., 4.76190494e-003,
          0., 0., 0., 0., 0., 0., 0., 4.76190494e-003, 0., 0., 0., 0.,
          0., 0., 0., 0., 0., 0., 1.42857153e-002, 0., 2.85714306e-002,
          0., 0., 0., 0., 0., 1.90476198e-002, 0., 0., 0.,
          4.76190494e-003, 0., 0., 4.76190494e-003, 0., 0., 0.,
          9.52380989e-003, 0., 0., 0., 0., 0., 9.52380989e-003, 0., 0.,
          0., 0., 0., 4.76190494e-003, 0., 4.76190494e-003, 0., 0.,
          4.76190494e-003, 0., 0., 0., 0., 0., 0., 0., 0., 0., 0., 0.,
          0., 0., 0., 0., 0., 0., 4.76190494e-003, 4.76190494e-003, 0.,
          1.42857153e-002, 0., 0., 0., 0., 0., 0., 0., 0., 0., 0., 0.,
          0., 0., 0., 0., 0., 0., 0., 0., 0., 0., 0., 0., 0., 0., 0., 0.,
          0., 1.42857153e-002, 0., 0., 0., 0., 0., 0., 0., 0., 0., 0.,
          0., 0., 0., 0., 0., 0., 0., 0., 0., 0., 0., 0., 0., 0., 0., 0.,
          0., 0., 0., 0., 0., 0., 0., 0., 0., 0., 0., 0., 0., 0., 0.,
          4.76190494e-003, 0., 0., 2.85714306e-002, 0., 0., 0., 0., 0.,
          0., 0., 0., 0., 0., 9.52380989e-003, 0., 0., 4.76190494e-003,
          0., 0., 0., 4.76190494e-003, 4.76190494e-003, 0., 0., 0., 0.,
          0., 0., 4.76190494e-003, 0., 0., 0., 0., 0., 0., 0., 0., 0.,
          4.76190494e-003, 0., 9.52380989e-003, 0., 0., 0., 0., 0.,
          4.76190494e-003, 0., 4.76190494e-003, 0., 0., 0., 0., 0., 0.,
          9.52380989e-003, 0., 0., 0., 0., 0., 0., 0., 0., 0., 0., 0.,
          4.76190494e-003, 0., 0., 0., 0., 0., 4.76190494e-003,
          1.42857153e-002, 0., 0., 0., 0., 0., 0., 0., 0., 0.,
          1.42857153e-002, 0., 0., 4.76190494e-003, 0., 4.76190494e-003,
          0., 0., 0., 0., 0., 0., 0., 0., 0., 0., 0., 0., 0.,
          9.52380989e-003, 0., 0., 0., 0., 0., 0., 4.76190494e-003,
          4.76190494e-003, 0., 0., 0., 4.76190494e-003, 0., 0., 0., 0.,
          0., 0., 0., 0., 0., 0., 0., 0., 0., 0., 0., 4.76190494e-003,
          0., 0., 0., 0., 0., 0., 0., 0., 0., 0., 0., 0., 0., 0.,
          9.52380989e-003, 0., 0., 0., 0., 0., 0., 0., 0., 0., 0.,
          1.42857153e-002, 0., 0., 0., 0., 4.76190494e-003,
          4.76190494e-003, 0., 0., 0., 0., 0., 0., 0., 4.76190494e-003,
          0., 4.76190494e-003, 0., 0., 4.76190494e-003, 0., 0.,
          4.76190494e-003, 4.76190494e-003, 0., 0., 0., 4.76190494e-003,
          0., 4.76190494e-003, 0., 0., 0., 0., 0., 0., 0., 0., 0.,
          4.76190494e-003, 0., 0., 9.52380989e-003, 0., 0., 0., 0., 0.,
          0., 0., 0., 0., 0., 0., 4.76190494e-003, 0., 0., 0., 0., 0.,
          4.76190494e-003, 0., 0., 4.76190494e-003, 4.76190494e-003, 0.,
          0., 0., 0., 0., 0., 0., 0., 0., 0., 0., 0., 0., 0., 0.,
          1.42857153e-002, 0., 0., 0., 0., 4.76190494e-003, 0., 0., 0.,
          4.76190494e-003, 0., 0., 0., 4.76190494e-003, 0., 0., 0., 0.,
          0., 0., 0., 0., 0., 9.52380989e-003, 0., 0., 0.,
          4.76190494e-003, 0., 0., 0., 0., 0., 0., 0., 0., 0., 0., 0.,
          0., 0., 0., 0., 0., 4.76190494e-003, 0., 0., 0., 0., 0., 0.,
          0., 0., 0., 0., 4.76190494e-003, 0., 0., 0., 0.,
          9.52380989e-003, 0., 0., 0., 0., 0., 0., 0., 0., 0., 0., 0.,
          0., 0., 0., 0., 0., 0., 0., 0., 0., 0., 0., 0., 0., 0., 0., 0.,
          0., 0., 0., 0., 0., 0., 0., 0., 0., 0., 0., 0., 0., 0.,
          9.52380989e-003, 0., 0., 0., 0., 0., 0., 0., 4.76190494e-003,
          0., 0., 9.52380989e-003, 0., 9.52380989e-003, 0., 0., 0., 0.,
          0., 0., 0., 4.76190494e-003, 0., 0., 0., 0., 0., 0.,
          4.76190494e-003, 0., 9.52380989e-003, 0., 0., 0., 0., 0., 0.,
          0., 0., 0., 0., 0., 0., 0., 0., 0., 4.76190494e-003, 0., 0.,
          0., 0., 0., 0., 0., 0., 0., 4.76190494e-003, 0.,
          4.76190494e-003, 0., 0., 0., 0., 9.52380989e-003, 0., 0.,
          4.76190494e-003, 0., 9.52380989e-003, 4.76190494e-003, 0., 0.,
          0., 0., 0., 0., 0., 0., 0., 0., 0., 9.52380989e-003, 0., 0.,
          0., 4.76190494e-003, 0., 0., 0., 0., 0., 0., 0., 0., 0., 0.,
          0., 0., 0., 0., 4.76190494e-003, 0., 0., 0., 0.,
          9.52380989e-003, 0., 0., 0., 0., 0., 0., 0., 0., 0., 0., 0.,
          0., 0., 0., 0., 0., 0., 0., 0., 0., 0., 0., 4.76190494e-003,
          0., 0., 9.52380989e-003, 0., 0., 0., 0., 0., 0., 0., 0., 0.,
          0., 4.76190494e-003, 0., 4.76190494e-003, 0., 0., 0., 0., 0.,
          4.76190494e-003, 0., 0., 0., 0., 1.42857153e-002, 0., 0.,
          4.76190494e-003, 0., 0., 0., 0., 0., 0., 0., 0., 0., 0., 0.,
          0., 4.76190494e-003, 0., 0., 0., 0., 0., 4.76190494e-003, 0.,
          0., 4.76190494e-003, 0., 0., 0., 0., 0., 0., 0., 0., 0., 0.,
          4.76190494e-003, 0., 0., 0., 0., 0., 4.76190494e-003, 0., 0.,
          4.76190494e-003, 0., 0., 0., 0., 0., 0., 0., 0.,
          4.76190494e-003, 0., 0., 0., 0., 4.76190494e-003, 0., 0., 0.,
          0., 0., 0., 0., 0., 0., 0., 0., 4.76190494e-003, 0., 0.,
          4.76190494e-003, 0., 9.52380989e-003, 0., 0., 0., 0., 0., 0.,
          0., 0., 0., 0., 0., 0., 0., 0., 0., 0., 0., 0., 0., 0., 0., 0.,
          0., 0., 4.76190494e-003, 0., 0., 0., 4.76190494e-003, 0., 0.,
          4.76190494e-003, 0., 0., 0., 0., 0., 0., 0., 0.,
          4.76190494e-003, 0., 0., 0., 4.76190494e-003, 0., 0., 0., 0.,
          0., 0., 0., 0., 0., 0., 1.90476198e-002, 0., 0., 0., 0., 0.,
          0., 0., 0., 0., 0., 0., 0., 0., 0., 0., 0., 0. ]
      - [ 0., 0., 7.81250000e-003, 0., 0., 0., 1.56250000e-002, 0., 0.,
          0., 0., 0., 0., 0., 0., 0., 0., 0., 0., 0., 0., 0.,
          3.90625000e-003, 0., 0., 0., 0., 3.90625000e-003,
          7.81250000e-003, 7.81250000e-003, 0., 0., 3.90625000e-003, 0.,
          0., 0., 3.90625000e-003, 3.90625000e-003, 0., 7.81250000e-003,
          0., 0., 0., 0., 0., 0., 0., 0., 0., 0., 0., 0., 0.,
          3.90625000e-003, 0., 0., 3.90625000e-003, 0., 3.90625000e-003,
          0., 0., 0., 0., 0., 1.95312500e-002, 0., 0., 0., 0., 0., 0.,
          0., 0., 0., 0., 3.90625000e-003, 0., 0., 0., 0.,
          3.90625000e-003, 0., 3.90625000e-003, 0., 0., 0., 0., 0., 0.,
          0., 0., 0., 0., 0., 0., 0., 3.90625000e-003, 0., 0.,
          1.17187500e-002, 0., 0., 0., 0., 0., 0., 0., 3.90625000e-003,
          0., 0., 0., 0., 3.90625000e-003, 1.17187500e-002, 0., 0., 0.,
          0., 0., 0., 0., 3.90625000e-003, 0., 0., 0., 0., 0., 0., 0.,
          0., 3.90625000e-003, 0., 1.17187500e-002, 7.81250000e-003, 0.,
          0., 0., 0., 7.81250000e-003, 0., 0., 0., 1.95312500e-002, 0.,
          0., 0., 0., 0., 7.81250000e-003, 0., 0., 0., 0.,
          3.90625000e-003, 0., 0., 0., 0., 0., 0., 0., 0., 0., 0.,
          3.90625000e-003, 3.90625000e-003, 0., 0., 0., 3.90625000e-003,
          0., 0., 0., 0., 0., 0., 0., 0., 0., 0., 0., 0., 0., 0., 0.,
          3.90625000e-003, 0., 0., 3.90625000e-003, 0., 0.,
          7.81250000e-003, 0., 0., 0., 0., 0., 0., 0., 0., 0., 0., 0.,
          3.90625000e-003, 0., 0., 0., 0., 3.90625000e-003, 0., 0., 0.,
          0., 0., 0., 0., 0., 3.90625000e-003, 0., 3.90625000e-003, 0.,
          3.90625000e-003, 3.90625000e-003, 0., 0., 0., 0., 0., 0.,
          1.17187500e-002, 0., 0., 0., 0., 0., 0., 0., 0., 0.,
          3.90625000e-003, 0., 0., 0., 0., 3.90625000e-003, 0.,
          3.90625000e-003, 0., 0., 0., 0., 0., 7.81250000e-003, 0., 0.,
          0., 0., 0., 7.81250000e-003, 0., 3.90625000e-003, 0., 0.,
          7.81250000e-003, 0., 0., 0., 0., 0., 0., 0., 0., 0., 0., 0.,
          0., 0., 0., 0., 0., 0., 3.90625000e-003, 3.90625000e-003, 0.,
          1.95312500e-002, 0., 0., 0., 0., 0., 0., 7.81250000e-003, 0.,
          0., 0., 0., 0., 0., 0., 0., 0., 0., 0., 0., 0., 0., 0., 0., 0.,
          0., 0., 0., 0., 3.90625000e-003, 0., 0., 3.90625000e-003, 0.,
          0., 0., 0., 7.81250000e-003, 0., 0., 0., 0., 0., 0.,
          3.90625000e-003, 0., 0., 0., 0., 0., 0., 0., 0., 0., 0., 0.,
          0., 0., 0., 3.90625000e-003, 0., 0., 0., 3.90625000e-003, 0.,
          7.81250000e-003, 3.90625000e-003, 0., 0., 0., 0.,
          1.17187500e-002, 0., 3.90625000e-003, 7.81250000e-003,
          3.90625000e-003, 0., 0., 0., 0., 3.90625000e-003, 0., 0., 0.,
          0., 0., 0., 3.90625000e-003, 0., 0., 0., 0., 0., 0., 0., 0.,
          0., 0., 0., 0., 3.90625000e-003, 0., 0., 0., 0., 0., 0., 0.,
          0., 0., 3.90625000e-003, 3.90625000e-003, 3.90625000e-003, 0.,
          0., 0., 0., 0., 3.90625000e-003, 0., 3.90625000e-003,
          3.90625000e-003, 0., 3.90625000e-003, 0., 0., 0.,
          7.81250000e-003, 0., 0., 0., 7.81250000e-003, 0., 0., 0., 0.,
          0., 3.90625000e-003, 0., 0., 0., 0., 0., 0., 0., 0.,
          7.81250000e-003, 0., 0., 3.90625000e-003, 0., 0., 0.,
          3.90625000e-003, 0., 0., 7.81250000e-003, 0., 0.,
          3.90625000e-003, 0., 0., 0., 0., 0., 0., 0., 0., 0., 0., 0.,
          0., 0., 0., 0., 0., 0., 0., 0., 0., 0., 3.90625000e-003,
          1.17187500e-002, 0., 7.81250000e-003, 3.90625000e-003, 0.,
          1.56250000e-002, 0., 0., 0., 0., 7.81250000e-003,
          3.90625000e-003, 0., 0., 0., 0., 0., 0., 0., 0.,
          3.90625000e-003, 3.90625000e-003, 0., 0., 0., 3.90625000e-003,
          0., 0., 0., 0., 0., 0., 0., 0., 0., 0., 0., 0., 0., 0., 0., 0.,
          0., 0., 0., 0., 0., 3.90625000e-003, 0., 0., 0., 0.,
          7.81250000e-003, 3.90625000e-003, 0., 0., 0., 3.90625000e-003,
          0., 0., 0., 0., 0., 0., 3.90625000e-003, 0., 3.90625000e-003,
          0., 0., 0., 0., 0., 0., 0., 3.90625000e-003, 0.,
          1.17187500e-002, 0., 0., 0., 0., 0., 0., 0., 0., 0., 0., 0.,
          0., 7.81250000e-003, 0., 0., 3.90625000e-003, 0., 0., 0., 0.,
          0., 0., 0., 0., 1.17187500e-002, 0., 0., 0., 7.81250000e-003,
          0., 3.90625000e-003, 0., 0., 3.90625000e-003, 3.90625000e-003,
          0., 0., 0., 0., 0., 0., 0., 0., 0., 0., 0., 0., 0., 0., 0.,
          3.90625000e-003, 0., 3.90625000e-003, 0., 3.90625000e-003,
          7.81250000e-003, 0., 0., 0., 3.90625000e-003, 3.90625000e-003,
          0., 0., 3.90625000e-003, 0., 0., 0., 0., 0., 0., 0., 0.,
          1.56250000e-002, 3.90625000e-003, 0., 0., 0., 3.90625000e-003,
          3.90625000e-003, 0., 0., 0., 0., 0., 0., 0., 0., 0., 0., 0.,
          0., 0., 0., 0., 3.90625000e-003, 0., 0., 0., 0., 0., 0., 0.,
          0., 0., 0., 7.81250000e-003, 0., 0., 0., 0., 3.90625000e-003,
          0., 0., 0., 0., 3.90625000e-003, 0., 0., 0., 0., 0., 0., 0.,
          0., 1.17187500e-002, 0., 0., 1.17187500e-002, 0., 0., 0., 0.,
          0., 3.90625000e-003, 0., 0., 0., 0., 0., 0., 0., 0., 0., 0.,
          0., 0., 0., 0., 0., 0., 0., 0., 0., 0., 0., 0., 0., 0., 0., 0.,
          3.90625000e-003, 0., 0., 3.90625000e-003, 0., 1.17187500e-002,
          0., 0., 0., 0., 0., 0., 0., 0., 0., 0., 0., 0., 0., 0., 0., 0.,
          1.17187500e-002, 0., 0., 0., 0., 3.90625000e-003, 0., 0., 0.,
          0., 0., 0., 0., 0., 1.17187500e-002, 0., 0., 0., 0., 0., 0.,
          0., 0., 0., 0., 0., 0., 0., 0., 0., 0., 0., 0.,
          7.81250000e-003, 0., 0., 0., 0., 0., 3.90625000e-003, 0.,
          3.90625000e-003, 0., 0., 0., 0., 0., 0., 0., 0., 0., 0., 0.,
          3.90625000e-003, 0., 0., 3.90625000e-003, 0., 0., 0., 0., 0.,
          0., 0., 0., 0., 0., 0., 0., 0., 7.81250000e-003, 0., 0., 0.,
          0., 0., 0., 3.90625000e-003, 0., 0., 0., 0., 0., 0., 0., 0.,
          0., 0., 0., 0., 0., 0., 0., 0., 0., 0., 0., 0., 0., 0., 0.,
          3.90625000e-003, 0., 0., 3.90625000e-003, 3.90625000e-003,
          3.90625000e-003, 0., 0., 0., 0., 0., 0., 0., 7.81250000e-003,
          0., 0., 0., 0., 7.81250000e-003, 3.90625000e-003, 0., 0., 0.,
          0., 1.95312500e-002, 3.90625000e-003, 0., 0., 0., 0., 0., 0.,
          0., 0., 0., 0., 0., 0., 0., 0., 3.90625000e-003, 0., 0., 0.,
          0., 0., 0., 0., 0., 0., 0., 0., 0., 0., 0., 0., 0.,
          7.81250000e-003, 0., 0., 3.90625000e-003, 0., 0., 0., 0.,
          3.90625000e-003, 3.90625000e-003, 0., 0., 0., 0., 0., 0., 0.,
          3.90625000e-003, 0., 0., 0., 3.90625000e-003, 0., 0., 0., 0.,
          3.90625000e-003, 0., 0., 0., 0., 0., 0., 0., 0., 0., 0., 0.,
          0., 0., 0., 3.90625000e-003, 0., 3.90625000e-003, 0., 0., 0.,
          0., 0., 0., 7.81250000e-003, 0., 0., 0., 0., 0., 0., 0., 0.,
          0., 0., 0., 0., 0., 0., 0., 0., 0., 7.81250000e-003, 0., 0.,
          0., 7.81250000e-003, 0., 0., 3.90625000e-003, 0., 0.,
          7.81250000e-003, 0., 0., 0., 0., 0., 3.90625000e-003, 0., 0.,
          0., 0., 0., 0., 3.90625000e-003, 0., 0., 0., 0., 0., 0., 0.,
          7.81250000e-003, 0., 0., 3.90625000e-003, 0., 0., 0., 0., 0.,
          0., 0., 0., 0., 0., 3.90625000e-003, 0., 0., 0. ]
      - [ 1.17187500e-002, 0., 7.81250000e-003, 0., 0., 0., 0.,
          2.73437500e-002, 3.90625000e-003, 0., 0., 0., 3.90625000e-003,
          3.90625000e-003, 0., 0., 7.81250000e-003, 0., 0.,
          3.90625000e-003, 0., 0., 0., 0., 3.90625000e-003, 0., 0.,
          7.81250000e-003, 0., 0., 0., 0., 0., 0., 0., 0.,
          7.81250000e-003, 0., 0., 3.90625000e-003, 3.90625000e-003, 0.,
          0., 0., 0., 0., 0., 0., 0., 0., 3.90625000e-003, 0., 0., 0.,
          0., 0., 1.17187500e-002, 0., 0., 0., 0., 0., 0., 0.,
          7.81250000e-003, 3.90625000e-003, 0., 3.90625000e-003, 0., 0.,
          0., 0., 0., 0., 0., 0., 3.90625000e-003, 0., 0., 0., 0., 0.,
          1.17187500e-002, 0., 0., 0., 0., 0., 3.90625000e-003, 0., 0.,
          0., 0., 0., 0., 3.90625000e-003, 0., 0., 0., 3.90625000e-003,
          0., 0., 0., 0., 0., 0., 0., 3.90625000e-003, 0., 0., 0., 0.,
          0., 7.81250000e-003, 0., 0., 0., 0., 0., 0., 0.,
          1.17187500e-002, 0., 0., 0., 0., 0., 0., 7.81250000e-003, 0.,
          0., 0., 0., 3.90625000e-003, 3.90625000e-003, 3.90625000e-003,
          0., 0., 0., 0., 0., 0., 0., 0., 0., 0., 0., 3.90625000e-003,
          0., 0., 0., 0., 0., 3.90625000e-003, 0., 0., 0., 0., 0., 0.,
          3.90625000e-003, 0., 3.90625000e-003, 0., 3.90625000e-003,
          3.90625000e-003, 0., 0., 0., 0., 0., 0., 0., 0., 0.,
          3.90625000e-003, 0., 0., 0., 0., 0., 0., 3.90625000e-003, 0.,
          7.81250000e-003, 0., 0., 0., 0., 0., 0., 3.90625000e-003, 0.,
          0., 0., 0., 7.81250000e-003, 0., 0., 0., 0., 0., 0.,
          3.90625000e-003, 0., 0., 0., 3.90625000e-003, 3.90625000e-003,
          0., 0., 3.90625000e-003, 0., 0., 0., 0., 0., 0., 0., 0., 0.,
          3.90625000e-003, 0., 0., 3.90625000e-003, 0., 0.,
          3.90625000e-003, 0., 3.90625000e-003, 0., 0., 0., 0., 0.,
          1.56250000e-002, 0., 0., 0., 3.90625000e-003, 0., 0., 0.,
          3.90625000e-003, 3.90625000e-003, 0., 7.81250000e-003, 0., 0.,
          0., 0., 0., 0., 0., 0., 0., 0., 0., 3.90625000e-003, 0.,
          3.90625000e-003, 0., 0., 3.90625000e-003, 0., 0., 0., 0., 0.,
          0., 0., 0., 0., 0., 0., 0., 0., 0., 0., 0., 0., 0., 0., 0., 0.,
          0., 0., 0., 0., 3.90625000e-003, 0., 0., 0., 0., 0., 0., 0.,
          0., 0., 0., 3.90625000e-003, 0., 0., 0., 0., 0., 0., 0., 0.,
          0., 0., 7.81250000e-003, 0., 0., 0., 0., 0., 0., 0., 0., 0.,
          0., 0., 3.90625000e-003, 0., 0., 0., 0., 3.90625000e-003, 0.,
          0., 0., 0., 0., 0., 0., 0., 0., 0., 0., 0., 0., 0., 0., 0., 0.,
          0., 0., 0., 3.90625000e-003, 0., 0., 0., 0., 7.81250000e-003,
          3.90625000e-003, 0., 0., 0., 0., 0., 0., 0., 0.,
          3.90625000e-003, 0., 1.95312500e-002, 0., 0., 0., 0., 0.,
          3.90625000e-003, 0., 0., 0., 0., 0., 0., 3.90625000e-003, 0.,
          0., 0., 0., 0., 0., 0., 3.90625000e-003, 0., 0., 0., 0., 0.,
          0., 0., 0., 3.90625000e-003, 0., 0., 0., 0., 0., 0., 0., 0.,
          0., 0., 0., 0., 0., 0., 7.81250000e-003, 0., 0., 0.,
          7.81250000e-003, 0., 0., 3.90625000e-003, 0., 0.,
          3.90625000e-003, 3.90625000e-003, 0., 3.90625000e-003, 0., 0.,
          0., 0., 3.90625000e-003, 0., 1.17187500e-002, 0.,
          3.90625000e-003, 0., 0., 0., 0., 0., 0., 1.17187500e-002,
          3.90625000e-003, 0., 0., 0., 0., 0., 0., 3.90625000e-003,
          3.90625000e-003, 0., 0., 0., 0., 0., 0., 0., 0., 0., 0.,
          3.90625000e-003, 0., 0., 0., 0., 0., 7.81250000e-003, 0., 0.,
          0., 0., 2.34375000e-002, 0., 0., 0., 0., 0., 0., 0., 0., 0.,
          0., 0., 0., 1.56250000e-002, 0., 0., 3.90625000e-003, 0., 0.,
          0., 3.90625000e-003, 0., 0., 0., 0., 0., 0., 0., 0., 0., 0.,
          3.90625000e-003, 0., 0., 0., 0., 0., 0., 0., 0., 0., 0.,
          7.81250000e-003, 0., 7.81250000e-003, 0., 0., 0., 0., 0., 0.,
          0., 0., 0., 0., 0., 0., 3.90625000e-003, 3.90625000e-003,
          3.90625000e-003, 0., 3.90625000e-003, 0., 0., 3.90625000e-003,
          3.90625000e-003, 0., 0., 0., 0., 0., 0., 0., 7.81250000e-003,
          0., 0., 0., 0., 0., 0., 0., 0., 0., 0., 7.81250000e-003, 0.,
          0., 0., 0., 0., 0., 0., 0., 0., 0., 0., 0., 0., 0., 0.,
          7.81250000e-003, 0., 0., 0., 0., 0., 3.90625000e-003, 0., 0.,
          0., 0., 0., 0., 0., 0., 0., 0., 0., 0., 0., 0., 0.,
          1.17187500e-002, 0., 0., 0., 0., 1.17187500e-002, 0., 0., 0.,
          0., 1.17187500e-002, 0., 3.90625000e-003, 7.81250000e-003, 0.,
          0., 0., 0., 0., 0., 0., 0., 7.81250000e-003, 3.90625000e-003,
          0., 0., 0., 3.90625000e-003, 3.90625000e-003, 0., 0., 0., 0.,
          7.81250000e-003, 0., 0., 0., 0., 0., 0., 0., 0., 0., 0.,
          7.81250000e-003, 0., 0., 0., 0., 0., 0., 0., 0., 0., 0.,
          3.90625000e-003, 0., 0., 0., 0., 3.90625000e-003, 0., 0., 0.,
          0., 3.90625000e-003, 0., 0., 0., 0., 0., 0., 0., 0., 0., 0.,
          0., 3.90625000e-003, 0., 3.90625000e-003, 0., 0., 0., 0., 0.,
          0., 0., 0., 0., 0., 0., 3.90625000e-003, 0., 0., 0.,
          3.90625000e-003, 0., 0., 0., 0., 0., 0., 3.90625000e-003, 0.,
          0., 0., 0., 0., 0., 0., 7.81250000e-003, 0., 0., 0., 0.,
          3.90625000e-003, 0., 0., 0., 0., 0., 0., 0., 0., 0., 0., 0.,
          0., 3.90625000e-003, 0., 0., 3.90625000e-003, 0., 0., 0., 0.,
          0., 0., 0., 0., 0., 0., 0., 3.90625000e-003, 0., 0., 0., 0.,
          3.90625000e-003, 0., 0., 0., 0., 0., 0., 0., 3.90625000e-003,
          0., 3.90625000e-003, 0., 3.90625000e-003, 0., 0., 0., 0.,
          7.81250000e-003, 0., 7.81250000e-003, 7.81250000e-003, 0.,
          1.17187500e-002, 0., 0., 3.90625000e-003, 0., 0., 0., 0., 0.,
          0., 0., 0., 0., 0., 0., 3.90625000e-003, 0., 7.81250000e-003,
          0., 0., 0., 0., 0., 0., 0., 0., 3.90625000e-003, 0., 0., 0.,
          0., 0., 3.90625000e-003, 0., 0., 0., 3.90625000e-003, 0., 0.,
          0., 0., 0., 0., 3.90625000e-003, 0., 0., 0., 0., 0., 0., 0.,
          0., 0., 0., 3.90625000e-003, 0., 0., 0., 0., 0., 0., 0., 0.,
          3.90625000e-003, 0., 0., 3.90625000e-003, 0., 0., 0., 0., 0.,
          0., 0., 0., 0., 0., 0., 0., 0., 7.81250000e-003,
          3.90625000e-003, 3.90625000e-003, 0., 0., 0., 0.,
          1.17187500e-002, 3.90625000e-003, 0., 0., 3.90625000e-003, 0.,
          0., 0., 0., 0., 3.90625000e-003, 0., 0., 0., 0., 0.,
          3.90625000e-003, 0., 0., 0., 0., 0., 3.90625000e-003, 0., 0.,
          3.90625000e-003, 0., 3.90625000e-003, 0., 0., 0., 0., 0., 0.,
          0., 0., 0., 0., 0., 0., 0., 7.81250000e-003, 0.,
          3.90625000e-003, 0., 3.90625000e-003, 0., 7.81250000e-003, 0.,
          0., 0., 0., 0., 0., 0., 0., 0., 0., 3.90625000e-003,
          3.90625000e-003, 0., 0., 0., 0., 0., 0., 3.90625000e-003,
          3.90625000e-003, 0., 0., 3.90625000e-003, 3.90625000e-003,
          3.90625000e-003, 0., 3.90625000e-003, 3.90625000e-003, 0., 0.,
          0., 3.90625000e-003, 0., 0., 0., 0., 0., 0., 0., 0., 0., 0.,
          0., 0., 0., 0., 0., 0., 0., 0., 0., 0., 0., 0., 0., 0.,
          7.81250000e-003, 3.90625000e-003, 0., 0., 3.90625000e-003, 0.,
          0., 0., 0., 0., 3.90625000e-003, 0., 0., 3.90625000e-003, 0.,
          0., 0., 0., 3.90625000e-003, 0., 0., 0., 0., 0., 0., 0., 0.,
          0., 0., 3.90625000e-003, 0., 0., 0., 0., 3.90625000e-003, 0.,
          0., 0., 0., 0., 0., 0., 7.81250000e-003, 0., 0., 0. ]
      - [ 8.23045243e-003, 0., 4.11522621e-003, 0., 0., 0., 0., 0., 0.,
          0., 0., 0., 0., 0., 0., 0., 4.11522621e-003, 0., 0., 0., 0.,
          0., 0., 0., 0., 0., 0., 4.11522621e-003, 0., 4.11522621e-003,
          0., 0., 0., 0., 0., 0., 4.11522621e-003, 4.11522621e-003, 0.,
          0., 4.11522621e-003, 0., 4.11522621e-003, 0., 0., 0., 0., 0.,
          0., 0., 0., 0., 0., 0., 0., 0., 1.23456791e-002, 0., 0., 0.,
          0., 0., 0., 0., 2.88065840e-002, 0., 0., 0., 0., 0., 0., 0.,
          0., 0., 0., 0., 0., 0., 0., 4.11522621e-003, 0., 0.,
          8.23045243e-003, 0., 0., 0., 0., 0., 0., 0., 4.11522621e-003,
          0., 4.11522621e-003, 0., 0., 0., 0., 0., 0., 8.23045243e-003,
          0., 0., 0., 0., 0., 0., 0., 0., 0., 0., 0., 0., 0., 0., 0., 0.,
          0., 0., 0., 0., 4.11522621e-003, 4.11522621e-003,
          4.11522621e-003, 0., 0., 0., 0., 0., 0., 0., 0., 0., 0., 0.,
          8.23045243e-003, 0., 0., 0., 4.11522621e-003, 0.,
          8.23045243e-003, 0., 1.64609049e-002, 0., 0., 0., 0., 0.,
          4.11522621e-003, 4.11522621e-003, 0., 0., 0., 0., 0., 0., 0.,
          0., 0., 0., 0., 4.11522621e-003, 8.23045243e-003, 0., 0.,
          4.11522621e-003, 0., 0., 0., 0., 0., 0., 0., 0., 0., 0., 0.,
          0., 0., 0., 0., 0., 4.11522621e-003, 0., 4.11522621e-003, 0.,
          0., 0., 0., 0., 0., 0., 0., 0., 0., 0., 4.11522621e-003, 0.,
          0., 0., 0., 0., 0., 1.23456791e-002, 0., 0., 0., 0.,
          4.11522621e-003, 4.11522621e-003, 0., 8.23045243e-003, 0., 0.,
          0., 4.11522621e-003, 4.11522621e-003, 8.23045243e-003, 0., 0.,
          4.11522621e-003, 4.11522621e-003, 0., 0., 0., 0., 0., 0., 0.,
          8.23045243e-003, 0., 0., 0., 0., 0., 1.23456791e-002, 0., 0.,
          0., 4.11522621e-003, 0., 4.11522621e-003, 4.11522621e-003, 0.,
          4.11522621e-003, 0., 8.23045243e-003, 0., 0., 8.23045243e-003,
          0., 0., 4.11522621e-003, 0., 0., 0., 0., 0., 0., 0., 0., 0.,
          0., 0., 0., 0., 0., 0., 0., 0., 0., 0., 4.11522621e-003, 0.,
          0., 0., 0., 0., 0., 4.11522621e-003, 0., 0., 8.23045243e-003,
          0., 4.11522621e-003, 0., 0., 0., 0., 0., 0., 1.23456791e-002,
          0., 0., 0., 0., 0., 0., 0., 4.11522621e-003, 8.23045243e-003,
          0., 0., 0., 0., 0., 0., 0., 0., 0., 0., 4.11522621e-003, 0.,
          4.11522621e-003, 0., 0., 0., 0., 0., 0., 0., 0., 0., 0., 0.,
          0., 0., 0., 0., 0., 0., 0., 0., 0., 0., 0., 0., 0., 0.,
          4.11522621e-003, 0., 0., 0., 4.11522621e-003, 0., 0., 0., 0.,
          0., 0., 0., 0., 0., 0., 0., 0., 0., 0., 8.23045243e-003, 0.,
          0., 0., 0., 0., 0., 0., 4.11522621e-003, 0., 0.,
          4.11522621e-003, 0., 0., 8.23045243e-003, 0., 0., 0., 0., 0.,
          0., 0., 0., 0., 0., 0., 0., 0., 0., 0., 0., 0., 0., 0., 0., 0.,
          0., 0., 8.23045243e-003, 0., 0., 0., 0., 0., 4.11522621e-003,
          0., 1.23456791e-002, 0., 0., 0., 0., 0., 0., 8.23045243e-003,
          0., 0., 0., 0., 0., 0., 0., 0., 0., 4.11522621e-003,
          4.11522621e-003, 0., 4.11522621e-003, 0., 0., 0., 0.,
          8.23045243e-003, 4.11522621e-003, 0., 0., 0., 0., 0., 0., 0.,
          0., 0., 1.64609049e-002, 4.11522621e-003, 0., 0., 0., 0., 0.,
          0., 0., 0., 0., 0., 0., 0., 0., 0., 0., 0., 0., 0.,
          4.11522621e-003, 0., 0., 0., 0., 0., 0., 0., 8.23045243e-003,
          0., 0., 2.46913582e-002, 0., 0., 0., 0., 0., 0., 0., 0., 0.,
          8.23045243e-003, 0., 0., 0., 0., 0., 4.11522621e-003, 0., 0.,
          0., 8.23045243e-003, 0., 0., 0., 0., 0., 0., 0., 0.,
          4.11522621e-003, 0., 1.23456791e-002, 0., 0., 0., 0., 0., 0.,
          8.23045243e-003, 0., 0., 0., 1.23456791e-002, 0., 0., 0., 0.,
          4.11522621e-003, 0., 0., 8.23045243e-003, 0., 0., 0., 0., 0.,
          0., 0., 0., 0., 0., 4.11522621e-003, 0., 0., 0.,
          4.11522621e-003, 0., 0., 0., 4.11522621e-003, 0., 0., 0., 0.,
          0., 8.23045243e-003, 0., 0., 0., 0., 0., 0., 0., 0.,
          4.11522621e-003, 0., 0., 0., 0., 0., 0., 0., 0.,
          4.11522621e-003, 0., 0., 1.23456791e-002, 0., 0., 0., 0., 0.,
          0., 0., 0., 0., 0., 0., 0., 0., 0., 0., 0., 0., 0., 0., 0., 0.,
          0., 0., 0., 0., 1.23456791e-002, 0., 0., 4.11522621e-003, 0.,
          4.11522621e-003, 0., 0., 0., 4.11522621e-003, 4.11522621e-003,
          0., 4.11522621e-003, 4.11522621e-003, 0., 0., 0., 0., 0., 0.,
          0., 0., 0., 8.23045243e-003, 0., 0., 0., 4.11522621e-003, 0.,
          0., 0., 0., 0., 0., 0., 0., 0., 0., 0., 0., 0., 0., 0., 0.,
          4.11522621e-003, 4.11522621e-003, 0., 4.11522621e-003, 0., 0.,
          0., 0., 0., 0., 0., 0., 0., 0., 0., 0., 1.23456791e-002, 0.,
          0., 0., 0., 4.11522621e-003, 0., 0., 0., 0., 0.,
          4.11522621e-003, 0., 0., 0., 0., 0., 0., 0., 0., 0., 0., 0.,
          0., 0., 0., 0., 0., 0., 0., 0., 8.23045243e-003,
          4.11522621e-003, 8.23045243e-003, 0., 0., 0., 4.11522621e-003,
          0., 0., 0., 0., 8.23045243e-003, 0., 0., 0., 0., 0., 0., 0.,
          8.23045243e-003, 0., 0., 4.11522621e-003, 0., 4.11522621e-003,
          0., 0., 0., 0., 0., 0., 0., 0., 0., 1.23456791e-002,
          4.11522621e-003, 0., 4.11522621e-003, 0., 0., 0.,
          4.11522621e-003, 0., 0., 0., 0., 0., 0., 0., 0., 0., 0., 0.,
          0., 0., 0., 0., 4.11522621e-003, 0., 0., 0., 0., 0., 0.,
          8.23045243e-003, 4.11522621e-003, 0., 0., 0., 0., 0., 0., 0.,
          0., 0., 0., 8.23045243e-003, 0., 0., 0., 0., 0., 0., 0., 0.,
          0., 0., 0., 0., 0., 4.11522621e-003, 0., 0., 0.,
          4.11522621e-003, 0., 0., 0., 0., 0., 0., 0., 0., 0., 0.,
          4.11522621e-003, 0., 0., 0., 0., 0., 1.23456791e-002, 0., 0.,
          0., 4.11522621e-003, 4.11522621e-003, 0., 0., 0., 0.,
          4.11522621e-003, 0., 0., 0., 0., 0., 4.11522621e-003,
          4.11522621e-003, 0., 0., 4.11522621e-003, 0., 4.11522621e-003,
          4.11522621e-003, 0., 0., 0., 0., 0., 0., 0., 8.23045243e-003,
          0., 0., 4.11522621e-003, 0., 0., 0., 0., 0., 0., 0., 0., 0.,
          0., 0., 0., 4.11522621e-003, 0., 0., 4.11522621e-003, 0., 0.,
          0., 8.23045243e-003, 0., 0., 0., 0., 0., 0., 0., 0., 0., 0.,
          0., 0., 0., 0., 0., 0., 4.11522621e-003, 0., 0., 0., 0., 0.,
          0., 0., 0., 4.11522621e-003, 0., 4.11522621e-003, 0., 0., 0.,
          0., 0., 0., 4.11522621e-003, 0., 0., 0., 0., 0., 0.,
          8.23045243e-003, 0., 0., 0., 0., 0., 0., 0., 0.,
          8.23045243e-003, 0., 0., 0., 0., 0., 4.11522621e-003, 0., 0.,
          4.11522621e-003, 0., 0., 0., 0., 0., 0., 0., 0., 0., 0., 0.,
          0., 4.11522621e-003, 0., 4.11522621e-003, 0., 0., 0., 0., 0.,
          0., 0., 4.11522621e-003, 8.23045243e-003, 4.11522621e-003, 0.,
          0., 0., 0., 0., 0., 0., 0., 0., 0., 0., 0., 0., 0., 0., 0.,
          4.11522621e-003, 0., 0., 0., 8.23045243e-003, 0., 0.,
          4.11522621e-003, 0., 0., 0., 0., 0., 0., 0., 0.,
          4.11522621e-003, 0., 0., 0., 0., 0., 0., 0., 0., 0., 0., 0.,
          0., 0., 0., 1.23456791e-002, 0., 0., 0., 4.11522621e-003, 0.,
          0., 0., 0., 0., 0., 0., 0., 0., 0., 0., 8.23045243e-003, 0. ]
      - [ 3.62318847e-003, 0., 3.62318847e-003, 0., 0., 0.,
          3.62318847e-003, 2.17391308e-002, 0., 0., 0., 0., 0., 0., 0.,
          0., 0., 0., 0., 0., 0., 0., 0., 0., 0., 0., 0., 0.,
          1.08695654e-002, 7.24637695e-003, 0., 0., 0., 0., 0., 0., 0.,
          0., 0., 0., 0., 0., 0., 0., 0., 0., 0., 0., 0., 0., 0., 0., 0.,
          0., 0., 0., 3.62318847e-003, 0., 0., 0., 0., 0., 0., 0.,
          7.24637695e-003, 0., 0., 3.62318847e-003, 3.62318847e-003, 0.,
          0., 0., 0., 0., 0., 0., 3.62318847e-003, 0., 0., 0., 0., 0.,
          7.24637695e-003, 0., 0., 0., 0., 0., 0., 0., 0., 0.,
          3.62318847e-003, 0., 0., 0., 0., 0., 3.62318847e-003,
          3.62318847e-003, 0., 0., 0., 0., 0., 0., 0., 0., 0., 0., 0.,
          0., 0., 3.62318847e-003, 0., 0., 0., 0., 0., 0., 0.,
          3.62318847e-003, 0., 0., 0., 0., 0., 0., 0., 0., 0., 0.,
          3.62318847e-003, 3.62318847e-003, 0., 7.24637695e-003, 0., 0.,
          0., 0., 0., 0., 1.08695654e-002, 0., 0., 0., 0., 0., 0., 0.,
          0., 0., 0., 1.08695654e-002, 0., 0., 0., 0., 0., 0., 0., 0.,
          0., 0., 0., 3.62318847e-003, 0., 0., 0., 0., 0., 0., 0., 0.,
          0., 0., 0., 0., 0., 0., 0., 0., 3.62318847e-003, 0., 0.,
          3.62318847e-003, 0., 0., 3.62318847e-003, 0., 0.,
          1.44927539e-002, 0., 0., 0., 0., 0., 0., 0., 0., 0., 0., 0.,
