%YAML:1.0
my_svm: !!opencv-ml-svm
   svm_type: C_SVC
   kernel: { type:RBF, gamma:1. }
   C: 1.
   term_criteria: { epsilon:1.1920928955078125e-007, iterations:1000 }
   var_all: 1000
   var_count: 1000
   class_count: 2
   class_labels: !!opencv-matrix
      rows: 1
      cols: 2
      dt: i
      data: [ 0, 1 ]
   sv_total: 102
   support_vectors:
      - [ 0., 0., 7.51879718e-003, 0., 7.51879718e-003, 3.75939859e-003,
          0., 0., 0., 0., 0., 0., 0., 0., 7.51879718e-003, 0., 0.,
          3.75939859e-003, 0., 1.12781953e-002, 0., 3.75939859e-003, 0.,
          7.51879718e-003, 3.75939859e-003, 7.51879718e-003, 0.,
          3.75939859e-003, 0., 0., 0., 0., 0., 0., 0., 0., 0., 0., 0.,
          0., 0., 0., 0., 0., 3.75939859e-003, 0., 0., 0., 0.,
          3.75939859e-003, 0., 0., 3.75939859e-003, 0., 0., 0., 0., 0.,
          0., 0., 0., 3.75939859e-003, 3.75939859e-003, 7.51879718e-003,
          1.87969934e-002, 7.51879718e-003, 0., 3.75939859e-003,
          7.51879718e-003, 0., 0., 0., 0., 7.51879718e-003, 0., 0., 0.,
          0., 3.75939859e-003, 0., 3.75939859e-003, 0., 3.75939859e-003,
          0., 0., 0., 3.75939859e-003, 3.75939859e-003, 0., 0., 0., 0.,
          3.75939859e-003, 0., 0., 0., 0., 3.75939859e-003, 0.,
          3.75939859e-003, 0., 3.75939859e-003, 0., 0., 0., 0., 0., 0.,
          0., 0., 0., 0., 0., 7.51879718e-003, 0., 0., 0., 0., 0.,
          7.51879718e-003, 0., 0., 0., 0., 7.51879718e-003,
          7.51879718e-003, 0., 0., 0., 7.51879718e-003, 0., 0., 0.,
          3.75939859e-003, 3.75939859e-003, 0., 0., 0., 0., 0., 0., 0.,
          3.75939859e-003, 0., 0., 0., 7.51879718e-003, 3.75939859e-003,
          7.51879718e-003, 0., 0., 0., 3.75939859e-003, 0., 0.,
          7.51879718e-003, 0., 0., 0., 0., 0., 0., 0., 3.75939859e-003,
          3.75939859e-003, 0., 0., 0., 3.75939859e-003, 0., 0.,
          7.51879718e-003, 0., 0., 0., 0., 3.75939859e-003, 0., 0.,
          3.75939859e-003, 0., 3.75939859e-003, 0., 0., 0.,
          3.75939859e-003, 0., 3.75939859e-003, 0., 0., 0., 0., 0., 0.,
          0., 0., 3.75939859e-003, 0., 0., 0., 0., 0., 3.75939859e-003,
          3.75939859e-003, 0., 0., 0., 0., 0., 0., 0., 0., 0., 0., 0.,
          0., 3.75939859e-003, 0., 0., 0., 0., 0., 3.75939859e-003, 0.,
          0., 0., 0., 7.51879718e-003, 0., 1.12781953e-002, 0.,
          3.75939859e-003, 0., 3.75939859e-003, 0., 3.75939859e-003, 0.,
          0., 0., 0., 0., 3.75939859e-003, 0., 0., 3.75939859e-003, 0.,
          3.75939859e-003, 0., 0., 3.75939859e-003, 3.75939859e-003, 0.,
          0., 0., 0., 0., 0., 0., 0., 0., 0., 0., 0., 3.75939859e-003,
          0., 3.75939859e-003, 3.75939859e-003, 0., 0., 3.75939859e-003,
          0., 0., 0., 0., 0., 0., 0., 0., 0., 0., 0., 0., 0., 0.,
          3.75939859e-003, 0., 0., 0., 0., 0., 0., 0., 0., 0.,
          3.75939859e-003, 0., 0., 0., 0., 3.75939859e-003, 0.,
          3.75939859e-003, 0., 0., 0., 0., 0., 0., 0., 0., 0., 0., 0.,
          1.87969934e-002, 0., 3.75939859e-003, 3.75939859e-003, 0., 0.,
          0., 0., 0., 7.51879718e-003, 0., 0., 0., 0., 0., 0., 0., 0.,
          0., 0., 0., 0., 0., 0., 0., 0., 0., 0., 0., 0., 0.,
          1.12781953e-002, 0., 0., 0., 0., 0., 0., 0., 0.,
          3.75939859e-003, 0., 0., 0., 0., 0., 0., 0., 0., 0., 0., 0.,
          0., 0., 3.75939859e-003, 0., 3.75939859e-003, 0., 0.,
          3.75939859e-003, 0., 0., 0., 0., 0., 0., 0., 0., 0., 0., 0.,
          0., 0., 0., 3.75939859e-003, 3.75939859e-003, 0., 0.,
          3.75939859e-003, 0., 0., 0., 0., 0., 0., 0., 3.75939859e-003,
          3.75939859e-003, 0., 3.75939859e-003, 0., 3.75939859e-003, 0.,
          0., 0., 0., 0., 3.75939859e-003, 0., 0., 0., 0., 0.,
          7.51879718e-003, 0., 0., 0., 0., 0., 0., 0., 0., 0., 0., 0.,
          7.51879718e-003, 0., 3.75939859e-003, 0., 0., 0., 0., 0., 0.,
          0., 0., 0., 0., 3.75939859e-003, 0., 0., 0., 0., 0., 0., 0.,
          3.75939859e-003, 0., 3.75939859e-003, 0., 0., 0., 0., 0., 0.,
          0., 7.51879718e-003, 0., 0., 0., 3.75939859e-003, 0., 0., 0.,
          0., 3.75939859e-003, 3.75939859e-003, 0., 3.75939859e-003, 0.,
          3.75939859e-003, 3.75939859e-003, 0., 0., 0., 0.,
          3.75939859e-003, 7.51879718e-003, 3.75939859e-003, 0., 0., 0.,
          0., 0., 3.75939859e-003, 3.75939859e-003, 0., 0., 0., 0., 0.,
          0., 0., 0., 0., 0., 3.75939859e-003, 0., 0., 0., 0., 0., 0.,
          0., 7.51879718e-003, 0., 3.75939859e-003, 0., 0., 0.,
          3.75939859e-003, 0., 0., 0., 0., 0., 0., 0., 3.75939859e-003,
          0., 0., 0., 0., 0., 3.75939859e-003, 0., 0., 0.,
          3.75939859e-003, 3.75939859e-003, 3.75939859e-003, 0., 0., 0.,
          0., 0., 0., 0., 0., 0., 0., 3.75939859e-003, 0., 0., 0., 0.,
          0., 0., 3.75939859e-003, 0., 0., 0., 0., 0., 0., 0., 0., 0.,
          7.51879718e-003, 3.75939859e-003, 0., 3.75939859e-003,
          7.51879718e-003, 0., 0., 0., 0., 0., 0., 3.75939859e-003, 0.,
          0., 0., 0., 3.75939859e-003, 0., 0., 0., 0., 0.,
          3.75939859e-003, 0., 3.75939859e-003, 0., 0., 0., 0., 0., 0.,
          0., 3.75939859e-003, 0., 0., 0., 0., 0., 0., 0.,
          7.51879718e-003, 3.75939859e-003, 0., 0., 0., 3.75939859e-003,
          0., 0., 0., 0., 0., 0., 0., 0., 0., 0., 0., 3.75939859e-003,
          0., 0., 0., 0., 0., 0., 0., 0., 3.75939859e-003, 0., 0., 0.,
          2.63157897e-002, 0., 0., 0., 0., 0., 3.75939859e-003, 0., 0.,
          0., 0., 3.75939859e-003, 0., 0., 0., 0., 0., 0., 0., 0., 0.,
          1.12781953e-002, 0., 0., 0., 0., 0., 0., 0., 0., 0., 0., 0.,
          7.51879718e-003, 0., 0., 0., 7.51879718e-003, 0., 0., 0., 0.,
          0., 3.75939859e-003, 0., 0., 3.75939859e-003, 0., 0., 0., 0.,
          0., 3.75939859e-003, 0., 0., 0., 0., 3.75939859e-003,
          3.75939859e-003, 3.75939859e-003, 0., 0., 0., 0., 0., 0., 0.,
          0., 0., 0., 0., 0., 0., 0., 0., 0., 3.75939859e-003, 0., 0.,
          7.51879718e-003, 0., 0., 0., 0., 0., 0., 3.75939859e-003, 0.,
          0., 0., 3.75939859e-003, 0., 0., 1.12781953e-002, 0., 0., 0.,
          0., 0., 0., 3.75939859e-003, 3.75939859e-003, 0., 0., 0., 0.,
          0., 0., 0., 0., 0., 0., 3.75939859e-003, 0., 0., 0., 0., 0.,
          0., 3.75939859e-003, 0., 0., 0., 0., 0., 0., 0., 0., 0.,
          3.75939859e-003, 0., 0., 0., 0., 0., 0., 0., 0.,
          3.75939859e-003, 0., 0., 0., 3.75939859e-003, 0., 0., 0., 0.,
          3.75939859e-003, 0., 0., 0., 0., 0., 0., 0., 0., 0., 0., 0.,
          0., 0., 0., 0., 0., 0., 0., 0., 0., 0., 3.75939859e-003,
          7.51879718e-003, 0., 0., 0., 0., 0., 0., 0., 3.75939859e-003,
          0., 0., 0., 0., 0., 3.75939859e-003, 0., 0., 0., 0., 0., 0.,
          0., 0., 0., 3.75939859e-003, 0., 0., 0., 3.75939859e-003, 0.,
          0., 0., 0., 7.51879718e-003, 0., 0., 3.75939859e-003, 0., 0.,
          0., 0., 0., 0., 0., 0., 0., 0., 3.75939859e-003, 0.,
          3.75939859e-003, 0., 0., 0., 0., 7.51879718e-003,
          3.75939859e-003, 7.51879718e-003, 3.75939859e-003, 0., 0., 0.,
          0., 0., 3.75939859e-003, 0., 0., 3.75939859e-003, 0., 0., 0.,
          0., 0., 3.75939859e-003, 0., 1.12781953e-002, 0., 0., 0.,
          3.75939859e-003, 0., 0., 0., 3.75939859e-003, 0., 0., 0., 0.,
          0., 3.75939859e-003, 0., 0., 0., 0., 3.75939859e-003, 0., 0.,
          0., 0., 0., 3.75939859e-003, 1.12781953e-002, 0., 0., 0.,
          3.75939859e-003, 0., 0., 0., 0., 0., 3.75939859e-003, 0., 0.,
          0., 3.75939859e-003, 0., 3.75939859e-003, 0., 0.,
          3.75939859e-003, 0., 0., 0., 0., 0., 7.51879718e-003, 0., 0.,
          0., 0., 0., 0., 0., 3.75939859e-003, 3.75939859e-003, 0., 0.,
          0., 0., 0., 0., 0., 3.75939859e-003, 0., 0., 0., 0.,
          3.75939859e-003, 3.75939859e-003, 0., 0., 3.75939859e-003, 0.,
          0., 3.75939859e-003, 0., 0., 0., 0., 0., 0., 0., 0., 0., 0.,
          0., 0., 0., 0., 0., 0., 0., 0., 0., 0., 0., 0., 0., 0., 0., 0.,
          3.75939859e-003, 0., 0., 0., 0., 0., 3.75939859e-003, 0., 0.,
          3.75939859e-003, 0., 0., 3.75939859e-003, 0., 0., 0., 0., 0. ]
      - [ 0., 0., 1.15384618e-002, 0., 7.69230770e-003, 0.,
          7.69230770e-003, 7.69230770e-003, 0., 0., 0., 0., 0., 0.,
          7.69230770e-003, 0., 3.84615385e-003, 7.69230770e-003, 0.,
          1.15384618e-002, 0., 0., 0., 7.69230770e-003, 0.,
          3.84615385e-003, 0., 0., 0., 0., 0., 0., 0., 0., 0., 0., 0.,
          0., 0., 1.15384618e-002, 0., 0., 0., 0., 0., 0., 0.,
          7.69230770e-003, 0., 0., 0., 0., 0., 0., 0., 0., 0., 0., 0.,
          3.84615385e-003, 0., 0., 1.92307699e-002, 3.84615385e-003,
          1.92307699e-002, 7.69230770e-003, 3.84615385e-003, 0.,
          7.69230770e-003, 0., 7.69230770e-003, 0., 0., 7.69230770e-003,
          0., 0., 0., 0., 3.84615385e-003, 0., 0., 0., 0., 0., 0., 0.,
          7.69230770e-003, 3.84615385e-003, 0., 0., 0., 0.,
          7.69230770e-003, 0., 0., 3.84615385e-003, 0., 3.84615385e-003,
          0., 1.53846154e-002, 0., 3.84615385e-003, 0., 0., 0., 0., 0.,
          0., 0., 0., 0., 0., 0., 0., 0., 0., 0., 0., 0., 0.,
          3.84615385e-003, 0., 3.84615385e-003, 0., 3.84615385e-003, 0.,
          0., 0., 0., 3.84615385e-003, 0., 0., 0., 3.84615385e-003, 0.,
          0., 0., 0., 0., 0., 0., 0., 1.53846154e-002, 3.84615385e-003,
          0., 0., 7.69230770e-003, 3.84615385e-003, 3.84615385e-003, 0.,
          0., 0., 7.69230770e-003, 0., 3.84615385e-003, 1.15384618e-002,
          0., 0., 0., 0., 0., 0., 3.84615385e-003, 0., 3.84615385e-003,
          0., 0., 0., 3.84615385e-003, 0., 0., 7.69230770e-003, 0., 0.,
          0., 0., 7.69230770e-003, 0., 0., 7.69230770e-003, 0.,
          3.84615385e-003, 0., 0., 0., 0., 0., 3.84615385e-003, 0., 0.,
          0., 0., 0., 0., 0., 3.84615385e-003, 3.84615385e-003, 0., 0.,
          0., 0., 0., 3.84615385e-003, 0., 0., 0., 0., 0., 0., 0., 0.,
          0., 0., 0., 0., 0., 0., 7.69230770e-003, 0., 0., 0., 0.,
          7.69230770e-003, 3.84615385e-003, 0., 0., 0., 0., 0.,
          7.69230770e-003, 0., 3.84615385e-003, 0., 3.84615385e-003, 0.,
          7.69230770e-003, 3.84615385e-003, 0., 0., 0., 0.,
          3.84615385e-003, 3.84615385e-003, 0., 3.84615385e-003, 0.,
          3.84615385e-003, 3.84615385e-003, 0., 0., 0., 0., 0., 0., 0.,
          0., 0., 0., 0., 0., 3.84615385e-003, 0., 0., 3.84615385e-003,
          0., 3.84615385e-003, 3.84615385e-003, 0., 0., 3.84615385e-003,
          3.84615385e-003, 0., 0., 0., 0., 0., 0., 0., 0., 0., 0.,
          3.84615385e-003, 0., 0., 0., 0., 0., 0., 0., 0., 0.,
          3.84615385e-003, 3.84615385e-003, 0., 0., 0., 0., 0.,
          3.84615385e-003, 0., 3.84615385e-003, 0., 3.84615385e-003, 0.,
          0., 0., 0., 0., 0., 0., 0., 0., 0., 3.84615385e-003, 0.,
          3.84615385e-003, 0., 0., 0., 0., 0., 0., 3.84615385e-003, 0.,
          0., 0., 0., 0., 3.84615385e-003, 0., 0., 0., 0., 0., 0., 0.,
          3.84615385e-003, 0., 0., 3.84615385e-003, 0., 0., 0., 0.,
          3.84615385e-003, 0., 0., 0., 0., 0., 0., 3.84615385e-003, 0.,
          0., 0., 0., 0., 0., 0., 0., 0., 0., 0., 0., 0., 0., 0.,
          3.84615385e-003, 0., 3.84615385e-003, 0., 0., 3.84615385e-003,
          0., 0., 0., 0., 0., 0., 0., 0., 0., 0., 0., 7.69230770e-003,
          0., 3.84615385e-003, 7.69230770e-003, 7.69230770e-003, 0., 0.,
          3.84615385e-003, 0., 0., 0., 0., 0., 0., 0., 3.84615385e-003,
          0., 0., 0., 0., 0., 0., 0., 0., 0., 0., 0., 0., 0., 0., 0., 0.,
          0., 0., 0., 0., 0., 3.84615385e-003, 0., 0., 0., 0., 0., 0.,
          3.84615385e-003, 0., 0., 0., 0., 0., 0., 0., 0., 0., 0., 0.,
          3.84615385e-003, 0., 0., 0., 0., 0., 0., 0., 0.,
          3.84615385e-003, 0., 0., 3.84615385e-003, 3.84615385e-003, 0.,
          0., 0., 0., 3.84615385e-003, 0., 0., 0., 0., 3.84615385e-003,
          0., 0., 0., 0., 0., 0., 0., 0., 0., 0., 0., 0., 0., 0., 0.,
          3.84615385e-003, 7.69230770e-003, 0., 0., 0., 0., 0., 0.,
          7.69230770e-003, 0., 0., 0., 0., 0., 0., 0., 3.84615385e-003,
          0., 0., 0., 3.84615385e-003, 0., 0., 0., 0., 0., 0., 0.,
          7.69230770e-003, 0., 0., 0., 3.84615385e-003, 0.,
          3.84615385e-003, 0., 0., 0., 0., 0., 0., 0., 7.69230770e-003,
          0., 0., 0., 0., 0., 0., 0., 0., 0., 0., 0., 0., 0., 0., 0., 0.,
          7.69230770e-003, 0., 0., 0., 0., 0., 0., 0., 0., 0., 0., 0.,
          0., 0., 0., 0., 0., 0., 0., 0., 3.84615385e-003, 0., 0., 0.,
          0., 0., 0., 3.84615385e-003, 0., 0., 0., 0., 0.,
          7.69230770e-003, 3.84615385e-003, 0., 0., 0., 0.,
          7.69230770e-003, 0., 0., 0., 0., 7.69230770e-003, 0.,
          3.84615385e-003, 3.84615385e-003, 0., 0., 0., 0., 0., 0., 0.,
          3.84615385e-003, 0., 0., 0., 7.69230770e-003, 0., 0., 0., 0.,
          0., 7.69230770e-003, 0., 0., 0., 0., 0., 3.84615385e-003, 0.,
          0., 0., 0., 0., 0., 0., 3.84615385e-003, 0., 0., 0., 0., 0.,
          0., 0., 0., 0., 0., 0., 0., 0., 1.15384618e-002, 0., 0., 0.,
          0., 0., 3.84615385e-003, 0., 0., 0., 0., 3.84615385e-003, 0.,
          0., 0., 0., 0., 0., 0., 0., 0., 3.84615385e-003,
          3.84615385e-003, 0., 0., 0., 0., 0., 0., 0., 0., 0., 0., 0.,
          0., 3.84615385e-003, 0., 7.69230770e-003, 0., 0.,
          3.84615385e-003, 0., 3.84615385e-003, 1.15384618e-002, 0., 0.,
          0., 0., 0., 0., 0., 3.84615385e-003, 7.69230770e-003, 0., 0.,
          3.84615385e-003, 0., 7.69230770e-003, 0., 0., 0., 0., 0., 0.,
          0., 0., 0., 0., 0., 0., 0., 0., 0., 0., 0., 0.,
          3.84615385e-003, 3.84615385e-003, 0., 0., 0., 0., 0., 0., 0.,
          3.84615385e-003, 3.84615385e-003, 0., 7.69230770e-003, 0.,
          3.84615385e-003, 0., 0., 0., 0., 0., 0., 0., 0., 0.,
          3.84615385e-003, 3.84615385e-003, 0., 0., 0., 0., 0., 0., 0.,
          0., 0., 0., 7.69230770e-003, 0., 0., 0., 0., 0., 0., 0., 0.,
          0., 0., 0., 0., 0., 0., 7.69230770e-003, 0., 0., 0., 0., 0.,
          0., 0., 0., 3.84615385e-003, 0., 7.69230770e-003, 0., 0., 0.,
          3.84615385e-003, 0., 0., 0., 0., 1.15384618e-002, 0., 0., 0.,
          0., 0., 0., 0., 0., 0., 0., 0., 3.84615385e-003, 0., 0.,
          3.84615385e-003, 0., 3.84615385e-003, 0., 0., 0., 0., 0.,
          3.84615385e-003, 0., 0., 0., 0., 0., 0., 0., 0., 0., 0., 0.,
          3.84615385e-003, 0., 0., 0., 0., 0., 0., 0., 0., 0., 0., 0.,
          3.84615385e-003, 0., 0., 0., 0., 0., 0., 0., 0.,
          7.69230770e-003, 3.84615385e-003, 0., 0., 0., 0., 0., 0., 0.,
          0., 3.84615385e-003, 0., 3.84615385e-003, 0., 0., 0., 0., 0.,
          0., 0., 0., 3.84615385e-003, 1.15384618e-002, 0., 0., 0.,
          3.84615385e-003, 0., 0., 0., 0., 0., 0., 7.69230770e-003, 0.,
          0., 0., 0., 0., 0., 0., 0., 0., 0., 0., 0., 0., 0., 0.,
          3.84615385e-003, 0., 0., 7.69230770e-003, 0., 0., 0.,
          3.84615385e-003, 0., 3.84615385e-003, 3.84615385e-003,
          3.84615385e-003, 0., 0., 0., 0., 0., 0., 0., 0., 0., 0., 0.,
          0., 0., 0., 0., 0., 0., 0., 0., 0., 0., 0., 0., 0., 0., 0., 0.,
          0., 0., 3.84615385e-003, 0., 0., 0., 0., 0., 0., 0., 0., 0.,
          0., 3.84615385e-003, 0., 3.84615385e-003, 0., 0., 0., 0., 0.,
          0., 0., 0., 0., 0., 3.84615385e-003, 3.84615385e-003, 0., 0.,
          0., 0., 0., 3.84615385e-003, 0., 0., 3.84615385e-003, 0., 0.,
          0., 0., 0., 0., 0., 0., 0., 0., 0., 0., 7.69230770e-003, 0.,
          0., 0., 0., 0., 0., 0., 0., 0., 0., 0., 0., 3.84615385e-003,
          0., 3.84615385e-003, 0., 0., 0., 0., 0., 0., 0., 0., 0., 0.,
          0., 0., 0. ]
      - [ 0., 0., 0., 0., 1.07142860e-002, 0., 0., 0., 0., 0., 0., 0.,
          0., 0., 7.14285718e-003, 0., 0., 3.57142859e-003, 0., 0.,
          3.57142859e-003, 3.57142859e-003, 0., 7.14285718e-003, 0.,
          3.57142859e-003, 0., 0., 0., 0., 0., 0., 0., 7.14285718e-003,
          7.14285718e-003, 3.57142859e-003, 0., 0., 0., 7.14285718e-003,
          0., 0., 7.14285718e-003, 0., 7.14285718e-003, 0.,
          3.57142859e-003, 3.57142859e-003, 0., 0., 0., 0.,
          3.57142859e-003, 0., 0., 0., 7.14285718e-003, 3.57142859e-003,
          0., 0., 0., 7.14285718e-003, 0., 0., 0., 0., 0., 0., 0., 0.,
          0., 0., 7.14285718e-003, 7.14285718e-003, 0., 0., 0., 0., 0.,
          3.57142859e-003, 0., 0., 0., 7.14285718e-003, 0., 0.,
          3.57142859e-003, 0., 0., 3.57142859e-003, 0., 7.14285718e-003,
          7.14285718e-003, 0., 0., 0., 0., 7.14285718e-003, 0., 0., 0.,
          3.57142859e-003, 0., 0., 0., 0., 0., 3.57142859e-003, 0., 0.,
          3.57142859e-003, 0., 0., 0., 0., 0., 0., 0., 0.,
          7.14285718e-003, 0., 3.57142859e-003, 0., 0., 3.57142859e-003,
          3.57142859e-003, 0., 0., 3.57142859e-003, 3.57142859e-003, 0.,
          0., 0., 0., 7.14285718e-003, 0., 0., 0., 3.57142859e-003, 0.,
          0., 3.57142859e-003, 0., 3.57142859e-003, 0., 0., 0.,
          3.57142859e-003, 0., 0., 0., 0., 0., 0., 3.57142859e-003,
          1.07142860e-002, 0., 0., 0., 0., 0., 0., 0., 0., 0., 0., 0.,
          0., 0., 0., 0., 3.57142859e-003, 0., 3.57142859e-003, 0., 0.,
          0., 0., 0., 1.07142860e-002, 0., 0., 7.14285718e-003, 0.,
          1.07142860e-002, 3.57142859e-003, 0., 3.57142859e-003, 0., 0.,
          0., 0., 0., 0., 0., 3.57142859e-003, 0., 3.57142859e-003,
          3.57142859e-003, 0., 0., 0., 3.57142859e-003, 3.57142859e-003,
          0., 0., 0., 3.57142859e-003, 0., 3.57142859e-003, 0.,
          3.57142859e-003, 7.14285718e-003, 0., 0., 0., 0., 0., 0., 0.,
          0., 0., 0., 0., 0., 0., 0., 3.57142859e-003, 3.57142859e-003,
          3.57142859e-003, 0., 3.57142859e-003, 0., 0., 0., 0.,
          3.57142859e-003, 0., 0., 0., 0., 3.57142859e-003, 0., 0., 0.,
          0., 0., 0., 0., 0., 0., 0., 0., 7.14285718e-003, 0., 0., 0.,
          0., 7.14285718e-003, 0., 0., 0., 0., 0., 0., 7.14285718e-003,
          3.57142859e-003, 0., 0., 3.57142859e-003, 0., 3.57142859e-003,
          3.57142859e-003, 0., 0., 0., 0., 0., 0., 0., 0., 0., 0.,
          3.57142859e-003, 3.57142859e-003, 0., 0., 0., 0., 0., 0., 0.,
          0., 0., 0., 0., 0., 0., 0., 3.57142859e-003, 3.57142859e-003,
          0., 0., 0., 0., 0., 0., 0., 0., 0., 0., 0., 0., 0., 0.,
          3.57142859e-003, 0., 0., 0., 0., 0., 0., 0., 3.57142859e-003,
          0., 0., 0., 3.57142859e-003, 0., 3.57142859e-003, 0., 0., 0.,
          0., 0., 3.57142859e-003, 0., 0., 3.57142859e-003, 0.,
          3.57142859e-003, 0., 0., 0., 3.57142859e-003, 0.,
          3.57142859e-003, 0., 0., 0., 7.14285718e-003, 0., 0.,
          3.57142859e-003, 3.57142859e-003, 0., 0., 0., 0., 0., 0., 0.,
          0., 0., 0., 0., 3.57142859e-003, 3.57142859e-003, 0.,
          3.57142859e-003, 0., 0., 3.57142859e-003, 3.57142859e-003, 0.,
          0., 0., 0., 0., 0., 0., 0., 0., 0., 0., 0., 0., 0.,
          3.57142859e-003, 7.14285718e-003, 0., 0., 0., 0.,
          3.57142859e-003, 0., 0., 0., 0., 0., 0., 0., 3.57142859e-003,
          0., 0., 0., 0., 0., 0., 0., 0., 0., 0., 0., 0., 0., 0., 0.,
          7.14285718e-003, 0., 0., 3.57142859e-003, 0., 0., 0., 0., 0.,
          0., 0., 0., 0., 0., 0., 3.57142859e-003, 0., 0., 0.,
          3.57142859e-003, 0., 0., 0., 3.57142859e-003, 0., 0., 0., 0.,
          0., 3.57142859e-003, 1.07142860e-002, 0., 0., 0.,
          3.57142859e-003, 3.57142859e-003, 0., 7.14285718e-003, 0., 0.,
          0., 3.57142859e-003, 0., 0., 0., 0., 0., 0., 0., 0.,
          7.14285718e-003, 3.57142859e-003, 0., 0., 3.57142859e-003, 0.,
          0., 3.57142859e-003, 0., 0., 0., 3.57142859e-003, 0., 0., 0.,
          0., 0., 0., 0., 3.57142859e-003, 0., 0., 0., 1.07142860e-002,
          0., 0., 0., 0., 0., 3.57142859e-003, 0., 0., 0., 0., 0., 0.,
          0., 3.57142859e-003, 0., 0., 0., 1.07142860e-002, 0., 0., 0.,
          1.07142860e-002, 0., 3.57142859e-003, 0., 0., 0., 0., 0.,
          3.57142859e-003, 0., 0., 0., 0., 0., 0., 0., 7.14285718e-003,
          0., 0., 3.57142859e-003, 0., 3.57142859e-003, 3.57142859e-003,
          0., 0., 3.57142859e-003, 0., 0., 0., 0., 0., 0., 0., 0., 0.,
          0., 0., 0., 0., 0., 0., 0., 3.57142859e-003, 0.,
          7.14285718e-003, 0., 0., 0., 3.57142859e-003, 0., 0.,
          3.57142859e-003, 3.57142859e-003, 0., 0., 3.57142859e-003, 0.,
          0., 0., 0., 0., 0., 0., 0., 0., 0., 0., 0., 0., 0., 0.,
          7.14285718e-003, 3.57142859e-003, 0., 0., 0., 0., 0., 0., 0.,
          7.14285718e-003, 0., 0., 0., 0., 0., 0., 3.57142859e-003, 0.,
          0., 0., 0., 0., 0., 0., 0., 0., 0., 0., 0., 0., 0., 0., 0., 0.,
          3.57142859e-003, 0., 0., 0., 0., 0., 0., 0., 0.,
          3.57142859e-003, 7.14285718e-003, 3.57142859e-003, 0., 0., 0.,
          0., 0., 3.57142859e-003, 3.57142859e-003, 3.57142859e-003, 0.,
          0., 0., 0., 0., 0., 3.57142859e-003, 3.57142859e-003, 0., 0.,
          0., 0., 0., 0., 0., 0., 3.57142859e-003, 0., 0., 0., 0., 0.,
          0., 0., 0., 0., 0., 0., 0., 0., 7.14285718e-003,
          3.57142859e-003, 0., 3.57142859e-003, 3.57142859e-003, 0.,
          3.57142859e-003, 0., 0., 3.57142859e-003, 0., 0., 0.,
          3.57142859e-003, 7.14285718e-003, 0., 3.57142859e-003, 0.,
          3.57142859e-003, 0., 0., 0., 0., 0., 0., 0., 0., 0., 0., 0.,
          0., 0., 0., 0., 0., 0., 0., 0., 0., 0., 0., 0., 0., 0., 0., 0.,
          0., 0., 7.14285718e-003, 0., 0., 0., 0., 3.57142859e-003, 0.,
          0., 0., 0., 0., 0., 0., 0., 0., 0., 0., 0., 0.,
          3.57142859e-003, 3.57142859e-003, 0., 0., 0., 0.,
          3.57142859e-003, 0., 3.57142859e-003, 0., 0., 0., 0., 0.,
          3.57142859e-003, 0., 0., 0., 0., 0., 3.57142859e-003,
          3.57142859e-003, 0., 3.57142859e-003, 0., 3.57142859e-003, 0.,
          0., 3.57142859e-003, 0., 0., 0., 0., 0., 0., 0., 0., 0.,
          3.57142859e-003, 0., 0., 0., 3.57142859e-003, 0.,
          7.14285718e-003, 3.57142859e-003, 0., 3.57142859e-003, 0., 0.,
          0., 0., 0., 0., 0., 3.57142859e-003, 0., 0., 3.57142859e-003,
          0., 0., 0., 0., 0., 3.57142859e-003, 0., 7.14285718e-003, 0.,
          7.14285718e-003, 0., 0., 3.57142859e-003, 0., 0., 0., 0., 0.,
          7.14285718e-003, 0., 0., 0., 0., 3.57142859e-003, 0., 0., 0.,
          0., 0., 0., 0., 7.14285718e-003, 0., 3.57142859e-003, 0.,
          3.57142859e-003, 0., 0., 3.57142859e-003, 0., 3.57142859e-003,
          7.14285718e-003, 0., 3.57142859e-003, 0., 0., 0., 0., 0.,
          1.07142860e-002, 0., 0., 0., 0., 0., 3.57142859e-003,
          3.57142859e-003, 0., 0., 0., 0., 0., 0., 0., 0., 0., 0., 0.,
          3.57142859e-003, 0., 0., 0., 0., 0., 0., 0., 0.,
          3.57142859e-003, 0., 0., 0., 0., 0., 3.57142859e-003, 0.,
          7.14285718e-003, 0., 0., 0., 3.57142859e-003, 3.57142859e-003,
          0., 0., 3.57142859e-003, 0., 0., 0., 0., 0., 0., 0., 0., 0.,
          3.57142859e-003, 0., 0., 0., 3.57142859e-003, 0., 0., 0., 0.,
          0., 0., 0., 0., 0., 0., 0., 0., 0., 0., 3.57142859e-003, 0.,
          0., 0., 0., 0., 0., 0., 0., 3.57142859e-003, 3.57142859e-003,
          0., 0., 0., 0., 0., 0., 0., 0., 3.57142859e-003, 0., 0., 0.,
          0., 0., 0., 3.57142859e-003, 0., 0., 0., 0., 0.,
          7.14285718e-003, 7.14285718e-003, 0., 0., 7.14285718e-003, 0.,
          0., 0., 0., 3.57142859e-003, 0., 0., 0., 0., 0., 0., 0., 0.,
          0., 0., 0., 0., 0., 0., 3.57142859e-003, 0., 0., 0., 0., 0.,
          0., 0., 0., 0., 3.57142859e-003, 0., 3.57142859e-003, 0., 0.,
          0., 0., 0., 0., 0., 0., 3.57142859e-003, 7.14285718e-003, 0.,
          0., 3.57142859e-003, 0., 0. ]
      - [ 0., 0., 7.63358781e-003, 0., 7.63358781e-003, 3.81679391e-003,
          7.63358781e-003, 3.81679391e-003, 0., 0., 0., 0., 0., 0.,
          7.63358781e-003, 0., 3.81679391e-003, 0., 0., 1.52671756e-002,
          0., 3.81679391e-003, 0., 7.63358781e-003, 0., 3.81679391e-003,
          0., 0., 0., 0., 0., 0., 0., 0., 0., 0., 0., 0., 0.,
          3.81679391e-003, 0., 0., 0., 0., 0., 0., 0., 0., 0., 0., 0.,
          0., 0., 0., 0., 0., 0., 3.81679391e-003, 0., 3.81679391e-003,
          0., 3.81679391e-003, 1.52671756e-002, 3.81679391e-003,
          1.14503819e-002, 3.81679391e-003, 0., 3.81679391e-003,
          1.14503819e-002, 0., 3.81679391e-003, 0., 0., 7.63358781e-003,
          0., 0., 0., 0., 0., 3.81679391e-003, 0., 0., 0., 0., 0., 0.,
          0., 0., 0., 0., 0., 0., 7.63358781e-003, 0., 0., 0., 0., 0.,
          0., 0., 0., 0., 0., 0., 0., 0., 0., 0., 0., 0.,
          3.81679391e-003, 0., 0., 0., 0., 0., 3.81679391e-003, 0., 0.,
          0., 3.81679391e-003, 0., 0., 0., 3.81679391e-003, 0., 0., 0.,
          0., 3.81679391e-003, 7.63358781e-003, 0., 7.63358781e-003,
          3.81679391e-003, 0., 3.81679391e-003, 0., 0., 0., 0., 0., 0.,
          7.63358781e-003, 3.81679391e-003, 0., 0., 1.14503819e-002, 0.,
          7.63358781e-003, 0., 0., 0., 3.81679391e-003, 0.,
          3.81679391e-003, 7.63358781e-003, 0., 0., 0., 0., 0., 0.,
          3.81679391e-003, 0., 0., 0., 0., 0., 3.81679391e-003, 0., 0.,
          3.81679391e-003, 0., 0., 0., 0., 7.63358781e-003, 0., 0.,
          3.81679391e-003, 0., 0., 0., 3.81679391e-003, 3.81679391e-003,
          3.81679391e-003, 0., 3.81679391e-003, 0., 3.81679391e-003, 0.,
          0., 0., 0., 0., 0., 0., 3.81679391e-003, 0., 0.,
          3.81679391e-003, 0., 0., 3.81679391e-003, 0., 3.81679391e-003,
          0., 0., 0., 0., 0., 0., 0., 0., 0., 0., 3.81679391e-003,
          3.81679391e-003, 3.81679391e-003, 0., 0., 0., 3.81679391e-003,
          0., 0., 0., 0., 0., 0., 3.81679391e-003, 0., 0., 0.,
          3.81679391e-003, 0., 3.81679391e-003, 0., 0., 0., 0., 0., 0.,
          0., 0., 0., 0., 0., 3.81679391e-003, 0., 0., 0., 0., 0., 0.,
          0., 0., 0., 0., 0., 0., 0., 0., 0., 0., 0., 3.81679391e-003,
          3.81679391e-003, 0., 3.81679391e-003, 3.81679391e-003, 0., 0.,
          0., 0., 0., 0., 0., 0., 0., 3.81679391e-003, 0., 0., 0., 0.,
          3.81679391e-003, 0., 0., 0., 0., 0., 0., 3.81679391e-003, 0.,
          0., 0., 0., 0., 0., 0., 0., 7.63358781e-003, 0., 0., 0., 0.,
          0., 0., 0., 0., 0., 0., 7.63358781e-003, 0., 0., 0.,
          3.81679391e-003, 0., 0., 0., 0., 0., 0., 7.63358781e-003, 0.,
          0., 0., 0., 0., 0., 3.81679391e-003, 0., 0., 0., 0., 0., 0.,
          3.81679391e-003, 0., 0., 0., 0., 0., 0., 0., 3.81679391e-003,
          0., 0., 0., 0., 0., 0., 0., 0., 3.81679391e-003, 0., 0., 0.,
          0., 0., 0., 0., 0., 0., 0., 3.81679391e-003, 0., 0.,
          3.81679391e-003, 0., 3.81679391e-003, 0., 0., 3.81679391e-003,
          0., 0., 0., 3.81679391e-003, 0., 0., 0., 0., 0., 0., 0., 0.,
          0., 0., 3.81679391e-003, 0., 0., 0., 3.81679391e-003, 0., 0.,
          0., 0., 0., 0., 0., 3.81679391e-003, 0., 0., 0., 0., 0., 0.,
          0., 0., 0., 0., 0., 0., 0., 0., 0., 0., 3.81679391e-003, 0.,
          0., 0., 0., 3.81679391e-003, 0., 3.81679391e-003, 0., 0., 0.,
          0., 7.63358781e-003, 0., 0., 3.81679391e-003, 0.,
          3.81679391e-003, 0., 0., 0., 0., 0., 0., 3.81679391e-003, 0.,
          0., 0., 0., 0., 0., 0., 0., 7.63358781e-003, 0.,
          3.81679391e-003, 0., 0., 0., 0., 0., 0., 3.81679391e-003, 0.,
          0., 0., 0., 0., 3.81679391e-003, 0., 7.63358781e-003, 0.,
          3.81679391e-003, 0., 0., 7.63358781e-003, 0., 0., 0., 0.,
          3.81679391e-003, 0., 0., 3.81679391e-003, 7.63358781e-003,
          3.81679391e-003, 0., 0., 3.81679391e-003, 0., 0.,
          7.63358781e-003, 7.63358781e-003, 0., 0., 0., 0., 0., 0.,
          3.81679391e-003, 0., 3.81679391e-003, 0., 0., 0., 0., 0., 0.,
          0., 0., 0., 3.81679391e-003, 0., 0., 0., 0., 0.,
          1.14503819e-002, 0., 0., 0., 0., 0., 0., 0., 3.81679391e-003,
          0., 0., 0., 0., 0., 3.81679391e-003, 0., 0., 0., 0., 0., 0.,
          0., 0., 0., 0., 0., 7.63358781e-003, 0., 0., 0., 0.,
          3.81679391e-003, 0., 0., 0., 0., 0., 0., 0., 7.63358781e-003,
          0., 3.81679391e-003, 0., 3.81679391e-003, 0., 3.81679391e-003,
          0., 0., 7.63358781e-003, 0., 0., 3.81679391e-003,
          3.81679391e-003, 0., 0., 0., 0., 0., 7.63358781e-003, 0., 0.,
          0., 0., 0., 0., 0., 0., 0., 0., 0., 0., 3.81679391e-003,
          3.81679391e-003, 0., 0., 0., 0., 0., 0., 0., 3.81679391e-003,
          0., 0., 0., 0., 0., 0., 0., 7.63358781e-003, 0., 0., 0., 0.,
          0., 0., 0., 0., 0., 0., 0., 3.81679391e-003, 0.,
          3.81679391e-003, 0., 7.63358781e-003, 0., 0., 0., 0., 0., 0.,
          0., 0., 3.81679391e-003, 0., 0., 0., 0., 7.63358781e-003, 0.,
          0., 0., 0., 0., 0., 0., 0., 0., 0., 7.63358781e-003, 0., 0.,
          0., 0., 0., 0., 0., 0., 0., 3.81679391e-003, 3.81679391e-003,
          0., 0., 0., 0., 0., 3.81679391e-003, 0., 0., 0.,
          3.81679391e-003, 0., 0., 7.63358781e-003, 0., 7.63358781e-003,
          0., 0., 7.63358781e-003, 0., 3.81679391e-003, 3.81679391e-003,
          0., 0., 3.81679391e-003, 0., 0., 0., 0., 3.81679391e-003,
          7.63358781e-003, 0., 3.81679391e-003, 7.63358781e-003, 0., 0.,
          7.63358781e-003, 3.81679391e-003, 0., 0., 0., 0., 0., 0., 0.,
          0., 0., 0., 0., 0., 0., 0., 0., 0., 0., 0., 3.81679391e-003,
          0., 0., 0., 0., 3.81679391e-003, 0., 3.81679391e-003, 0., 0.,
          3.81679391e-003, 0., 0., 0., 0., 3.81679391e-003,
          3.81679391e-003, 0., 0., 0., 0., 0., 7.63358781e-003,
          3.81679391e-003, 0., 0., 0., 0., 0., 0., 0., 0., 0.,
          3.81679391e-003, 3.81679391e-003, 0., 3.81679391e-003,
          3.81679391e-003, 0., 3.81679391e-003, 3.81679391e-003, 0., 0.,
          0., 0., 3.81679391e-003, 0., 0., 0., 3.81679391e-003, 0., 0.,
          3.81679391e-003, 0., 0., 0., 0., 0., 0., 0., 0., 0., 0., 0.,
          3.81679391e-003, 0., 0., 0., 0., 7.63358781e-003, 0., 0., 0.,
          0., 0., 0., 0., 0., 0., 0., 0., 3.81679391e-003, 0., 0.,
          3.81679391e-003, 0., 0., 0., 0., 0., 0., 3.81679391e-003,
          7.63358781e-003, 0., 0., 0., 0., 0., 0., 0., 0., 0., 0., 0.,
          0., 0., 0., 0., 0., 0., 0., 0., 0., 0., 0., 0.,
          3.81679391e-003, 0., 0., 3.81679391e-003, 0., 0., 0., 0., 0.,
          7.63358781e-003, 0., 0., 0., 0., 0., 0., 0., 0., 0., 0., 0.,
          0., 0., 0., 0., 0., 0., 0., 0., 0., 0., 7.63358781e-003, 0.,
          0., 0., 0., 0., 3.81679391e-003, 0., 3.81679391e-003, 0., 0.,
          3.81679391e-003, 0., 0., 0., 0., 0., 0., 0., 3.81679391e-003,
          0., 0., 0., 7.63358781e-003, 0., 0., 0., 0., 0., 0., 0., 0.,
          0., 0., 0., 0., 3.81679391e-003, 0., 3.81679391e-003,
          3.81679391e-003, 0., 0., 0., 0., 3.81679391e-003, 0., 0., 0.,
          0., 3.81679391e-003, 0., 0., 0., 0., 0., 0., 0., 0.,
          3.81679391e-003, 0., 0., 0., 0., 3.81679391e-003,
          3.81679391e-003, 0., 0., 0., 0., 0., 0., 0., 0., 0., 0., 0.,
          0., 0., 0., 3.81679391e-003, 0., 0., 0., 0., 0., 0.,
          3.81679391e-003, 3.81679391e-003, 0., 0., 0., 0.,
          3.81679391e-003, 3.81679391e-003, 0., 3.81679391e-003,
          3.81679391e-003, 0., 0., 0., 0., 3.81679391e-003, 0., 0., 0.,
          0., 0., 0., 0., 0., 0., 0., 3.81679391e-003, 0., 0., 0., 0.,
          0., 0., 0., 3.81679391e-003, 0., 0., 0., 0., 0.,
          7.63358781e-003, 0., 7.63358781e-003, 3.81679391e-003, 0., 0.,
          0., 0., 0., 0., 0., 0., 0., 0., 0., 0., 3.81679391e-003, 0. ]
      - [ 0., 0., 2.03252025e-002, 0., 4.06504050e-003, 0.,
          8.13008100e-003, 0., 0., 0., 0., 0., 0., 0., 8.13008100e-003,
          0., 4.06504050e-003, 8.13008100e-003, 0., 2.03252025e-002, 0.,
          4.06504050e-003, 0., 8.13008100e-003, 0., 4.06504050e-003, 0.,
          0., 0., 0., 0., 0., 0., 0., 0., 0., 0., 0., 0.,
          8.13008100e-003, 0., 0., 0., 0., 0., 0., 0., 4.06504050e-003,
          0., 0., 0., 0., 4.06504050e-003, 0., 0., 0., 0.,
          4.06504050e-003, 0., 4.06504050e-003, 0., 4.06504050e-003,
          1.62601620e-002, 8.13008100e-003, 1.21951215e-002,
          8.13008100e-003, 0., 8.13008100e-003, 0., 0., 4.06504050e-003,
          0., 0., 8.13008100e-003, 0., 0., 0., 0., 0., 0., 0., 0.,
          4.06504050e-003, 0., 0., 0., 8.13008100e-003, 4.06504050e-003,
          0., 0., 0., 0., 8.13008100e-003, 0., 0., 4.06504050e-003, 0.,
          4.06504050e-003, 0., 8.13008100e-003, 0., 8.13008100e-003, 0.,
          0., 0., 0., 0., 0., 4.06504050e-003, 0., 0., 0., 0., 0., 0.,
          0., 0., 0., 0., 8.13008100e-003, 0., 0., 0., 0., 0.,
          4.06504050e-003, 0., 0., 0., 4.06504050e-003, 8.13008100e-003,
          0., 0., 0., 0., 4.06504050e-003, 0., 0., 0., 0., 0., 0., 0.,
          0., 0., 0., 4.06504050e-003, 4.06504050e-003, 0., 0., 0., 0.,
          8.13008100e-003, 0., 4.06504050e-003, 8.13008100e-003, 0., 0.,
          0., 0., 0., 0., 4.06504050e-003, 0., 4.06504050e-003, 0., 0.,
          0., 4.06504050e-003, 0., 0., 8.13008100e-003, 0., 0., 0., 0.,
          4.06504050e-003, 0., 0., 4.06504050e-003, 0., 0., 0., 0.,
          4.06504050e-003, 0., 0., 4.06504050e-003, 0., 0., 0., 0., 0.,
          0., 0., 0., 0., 0., 0., 0., 0., 0., 4.06504050e-003, 0., 0.,
          0., 0., 0., 0., 0., 0., 0., 0., 0., 0., 0., 0., 0., 0.,
          4.06504050e-003, 4.06504050e-003, 0., 8.13008100e-003, 0., 0.,
          0., 0., 4.06504050e-003, 0., 4.06504050e-003, 0.,
          4.06504050e-003, 0., 4.06504050e-003, 0., 0., 0., 0., 0., 0.,
          0., 0., 0., 0., 0., 0., 0., 8.13008100e-003, 0., 0., 0., 0.,
          4.06504050e-003, 0., 0., 0., 0., 4.06504050e-003, 0.,
          4.06504050e-003, 4.06504050e-003, 0., 0., 0., 0.,
          4.06504050e-003, 8.13008100e-003, 0., 4.06504050e-003, 0., 0.,
          0., 0., 0., 0., 0., 0., 0., 0., 8.13008100e-003, 0.,
          4.06504050e-003, 0., 0., 0., 4.06504050e-003, 0., 0., 0., 0.,
          0., 0., 0., 0., 4.06504050e-003, 0., 0., 0., 4.06504050e-003,
          0., 4.06504050e-003, 0., 0., 0., 0., 0., 0., 0., 0., 0., 0.,
          0., 0., 0., 0., 0., 0., 0., 0., 0., 4.06504050e-003, 0.,
          8.13008100e-003, 0., 0., 0., 0., 0., 1.62601620e-002, 0., 0.,
          0., 0., 0., 0., 4.06504050e-003, 0., 0., 0., 0., 0., 0., 0.,
          0., 1.21951215e-002, 4.06504050e-003, 0., 0., 0.,
          4.06504050e-003, 0., 0., 0., 0., 0., 0., 0., 0., 0., 0., 0.,
          0., 0., 0., 0., 0., 4.06504050e-003, 4.06504050e-003, 0.,
          4.06504050e-003, 0., 0., 0., 0., 0., 0., 8.13008100e-003, 0.,
          0., 0., 0., 0., 0., 0., 0., 0., 4.06504050e-003,
          4.06504050e-003, 4.06504050e-003, 0., 0., 4.06504050e-003, 0.,
          0., 4.06504050e-003, 0., 0., 0., 0., 4.06504050e-003, 0., 0.,
          4.06504050e-003, 0., 4.06504050e-003, 0., 0., 0., 0., 0.,
          4.06504050e-003, 0., 0., 0., 0., 4.06504050e-003, 0., 0., 0.,
          4.06504050e-003, 0., 0., 0., 0., 0., 0., 0., 4.06504050e-003,
          8.13008100e-003, 0., 0., 4.06504050e-003, 0., 0., 0., 0., 0.,
          0., 0., 0., 0., 0., 0., 0., 0., 0., 0., 0., 8.13008100e-003,
          4.06504050e-003, 0., 0., 4.06504050e-003, 0., 0., 0., 0., 0.,
          4.06504050e-003, 0., 0., 0., 0., 4.06504050e-003,
          4.06504050e-003, 0., 0., 0., 1.21951215e-002, 4.06504050e-003,
          0., 4.06504050e-003, 0., 0., 4.06504050e-003, 0.,
          4.06504050e-003, 0., 0., 8.13008100e-003, 0., 0., 0., 0., 0.,
          0., 0., 0., 0., 0., 0., 0., 0., 0., 0., 0., 0.,
          4.06504050e-003, 0., 0., 0., 0., 0., 0., 0., 4.06504050e-003,
          0., 8.13008100e-003, 0., 8.13008100e-003, 0., 0., 0.,
          4.06504050e-003, 0., 0., 0., 0., 0., 4.06504050e-003, 0., 0.,
          0., 0., 0., 0., 0., 0., 0., 0., 4.06504050e-003, 0.,
          4.06504050e-003, 0., 0., 0., 0., 0., 0., 0., 0., 0., 0., 0.,
          0., 4.06504050e-003, 0., 0., 0., 0., 0., 0., 0., 0., 0., 0.,
          0., 0., 0., 0., 0., 4.06504050e-003, 0., 0., 0.,
          8.13008100e-003, 0., 0., 4.06504050e-003, 0., 0., 0., 0., 0.,
          0., 0., 0., 4.06504050e-003, 0., 0., 0., 0., 0., 0., 0.,
          4.06504050e-003, 0., 0., 0., 0., 0., 0., 0., 4.06504050e-003,
          0., 0., 4.06504050e-003, 0., 0., 0., 0., 4.06504050e-003, 0.,
          0., 0., 0., 4.06504050e-003, 0., 0., 0., 0., 0., 0., 0., 0.,
          0., 0., 0., 0., 0., 0., 0., 0., 0., 0., 0., 0., 0., 0., 0., 0.,
          1.21951215e-002, 8.13008100e-003, 0., 0., 0., 0.,
          4.06504050e-003, 4.06504050e-003, 0., 4.06504050e-003, 0., 0.,
          0., 0., 0., 0., 0., 0., 0., 0., 0., 4.06504050e-003, 0., 0.,
          0., 0., 0., 0., 0., 0., 0., 0., 0., 0., 0., 4.06504050e-003,
          0., 8.13008100e-003, 0., 0., 4.06504050e-003, 0.,
          8.13008100e-003, 0., 0., 0., 4.06504050e-003, 0., 0., 0., 0.,
          0., 1.21951215e-002, 0., 0., 0., 0., 4.06504050e-003,
          4.06504050e-003, 0., 0., 0., 0., 0., 0., 0., 0., 0., 0., 0.,
          0., 0., 0., 0., 0., 0., 0., 0., 0., 0., 0., 0., 0., 0., 0., 0.,
          8.13008100e-003, 0., 0., 0., 4.06504050e-003, 0., 0.,
          8.13008100e-003, 0., 0., 0., 0., 0., 0., 4.06504050e-003, 0.,
          0., 0., 0., 4.06504050e-003, 0., 0., 0., 0., 4.06504050e-003,
          0., 4.06504050e-003, 0., 0., 4.06504050e-003, 0., 0., 0., 0.,
          0., 8.13008100e-003, 0., 4.06504050e-003, 0., 4.06504050e-003,
          0., 4.06504050e-003, 0., 0., 0., 0., 0., 4.06504050e-003, 0.,
          4.06504050e-003, 0., 4.06504050e-003, 0., 0., 0., 0.,
          4.06504050e-003, 4.06504050e-003, 0., 0., 0., 0., 0.,
          4.06504050e-003, 0., 0., 0., 0., 0., 0., 0., 0., 0.,
          4.06504050e-003, 0., 0., 4.06504050e-003, 0., 0., 0., 0., 0.,
          0., 0., 4.06504050e-003, 0., 0., 0., 0., 0., 0., 0., 0., 0.,
          0., 0., 0., 0., 0., 0., 0., 0., 0., 0., 0., 0., 0., 0.,
          8.13008100e-003, 0., 0., 0., 0., 0., 0., 0., 0.,
          4.06504050e-003, 0., 0., 0., 0., 0., 0., 0., 0., 0., 0., 0.,
          0., 0., 0., 0., 0., 4.06504050e-003, 0., 0., 0., 0., 0., 0.,
          4.06504050e-003, 0., 0., 0., 0., 4.06504050e-003,
          4.06504050e-003, 0., 0., 0., 0., 0., 0., 0., 0., 0., 0.,
          4.06504050e-003, 0., 0., 0., 0., 0., 0., 0., 0.,
          4.06504050e-003, 0., 0., 4.06504050e-003, 0., 0., 0., 0.,
          4.06504050e-003, 0., 0., 0., 0., 0., 0., 0., 4.06504050e-003,
          4.06504050e-003, 0., 0., 0., 0., 0., 0., 0., 0., 0., 0., 0.,
          0., 0., 0., 0., 0., 0., 0., 0., 0., 0., 0., 0., 0., 0., 0., 0.,
          0., 0., 4.06504050e-003, 0., 0., 4.06504050e-003,
          4.06504050e-003, 0., 4.06504050e-003, 0., 0., 0., 0.,
          4.06504050e-003, 0., 0., 0., 0., 0., 4.06504050e-003, 0., 0.,
          4.06504050e-003, 0., 0., 0., 0., 0., 0., 0., 0., 0., 0., 0.,
          0., 0., 0., 0., 0., 0., 0., 0., 4.06504050e-003, 0., 0., 0.,
          0., 0., 0., 0., 0., 0., 0., 8.13008100e-003, 0., 0., 0., 0.,
          0., 0., 0., 0., 0., 0., 0., 4.06504050e-003, 0., 0., 0., 0.,
          0. ]
      - [ 0., 0., 0., 0., 6.75675692e-003, 0., 0., 2.36486495e-002, 0.,
          0., 0., 0., 0., 0., 6.75675692e-003, 0., 0., 3.37837846e-003,
          0., 0., 0., 6.75675692e-003, 0., 6.75675692e-003, 0.,
          3.37837846e-003, 0., 0., 3.37837846e-003, 0., 0., 0., 0.,
          1.35135138e-002, 0., 0., 0., 0., 1.01351356e-002, 0.,
          3.37837846e-003, 0., 0., 0., 6.75675692e-003, 0., 0., 0., 0.,
          0., 0., 0., 0., 0., 0., 0., 0., 3.37837846e-003, 0.,
          3.37837846e-003, 1.35135138e-002, 0., 0., 0., 2.02702712e-002,
          0., 0., 3.37837846e-003, 0., 3.37837846e-003, 0., 0.,
          3.37837846e-003, 3.37837846e-003, 0., 0., 3.37837846e-003, 0.,
          0., 3.37837846e-003, 0., 0., 0., 3.37837846e-003, 0., 0.,
          3.37837846e-003, 0., 0., 3.37837846e-003, 0., 3.37837846e-003,
          0., 0., 0., 0., 0., 0., 0., 0., 0., 0., 0., 0., 0., 0., 0.,
          6.75675692e-003, 0., 0., 0., 0., 0., 0., 3.37837846e-003, 0.,
          3.37837846e-003, 0., 0., 0., 3.37837846e-003, 0.,
          6.75675692e-003, 0., 3.37837846e-003, 0., 0., 0., 0.,
          3.37837846e-003, 3.37837846e-003, 3.37837846e-003, 0., 0., 0.,
          0., 0., 0., 0., 0., 0., 0., 3.37837846e-003, 0., 0., 0.,
          3.37837846e-003, 0., 0., 0., 0., 0., 0., 1.68918930e-002, 0.,
          6.75675692e-003, 0., 0., 0., 0., 0., 0., 0., 0., 0., 0., 0.,
          0., 3.37837846e-003, 0., 0., 0., 0., 0., 0., 3.37837846e-003,
          0., 0., 0., 3.37837846e-003, 0., 3.37837846e-003, 0., 0., 0.,
          0., 0., 3.37837846e-003, 3.37837846e-003, 0., 0., 0., 0., 0.,
          0., 6.75675692e-003, 0., 0., 3.37837846e-003, 0., 0., 0.,
          3.37837846e-003, 0., 0., 0., 0., 0., 0., 3.37837846e-003,
          1.35135138e-002, 0., 6.75675692e-003, 0., 0., 0., 0., 0., 0.,
          0., 0., 0., 0., 0., 6.75675692e-003, 0., 0., 0., 0.,
          1.35135138e-002, 0., 0., 0., 0., 0., 0., 3.37837846e-003, 0.,
          0., 0., 0., 3.37837846e-003, 0., 0., 3.37837846e-003, 0., 0.,
          0., 0., 3.37837846e-003, 0., 0., 6.75675692e-003, 0., 0., 0.,
          0., 0., 0., 6.75675692e-003, 3.37837846e-003, 0., 0.,
          3.37837846e-003, 3.37837846e-003, 3.37837846e-003, 0., 0., 0.,
          6.75675692e-003, 0., 3.37837846e-003, 0., 0., 0., 0.,
          3.37837846e-003, 0., 0., 6.75675692e-003, 0., 0., 0., 0., 0.,
          0., 0., 0., 0., 0., 0., 6.75675692e-003, 0., 0.,
          3.37837846e-003, 0., 3.37837846e-003, 0., 3.37837846e-003, 0.,
          3.37837846e-003, 6.75675692e-003, 0., 0., 0., 0., 0., 0.,
          3.37837846e-003, 0., 0., 0., 0., 0., 0., 3.37837846e-003, 0.,
          0., 0., 0., 0., 0., 0., 0., 0., 0., 0., 6.75675692e-003, 0.,
          0., 0., 0., 0., 0., 0., 0., 0., 0., 0., 0., 3.37837846e-003,
          3.37837846e-003, 0., 0., 3.37837846e-003, 0., 0.,
          3.37837846e-003, 0., 0., 0., 6.75675692e-003, 0., 0., 0., 0.,
          0., 0., 0., 0., 0., 0., 0., 0., 0., 0., 0., 3.37837846e-003,
          0., 0., 0., 0., 3.37837846e-003, 0., 0., 0., 0., 0., 0., 0.,
          0., 0., 0., 0., 0., 3.37837846e-003, 0., 0., 6.75675692e-003,
          1.01351356e-002, 0., 0., 3.37837846e-003, 0., 0., 0., 0., 0.,
          0., 3.37837846e-003, 0., 0., 6.75675692e-003, 0., 0., 0., 0.,
          0., 0., 0., 0., 0., 0., 0., 0., 0., 0., 0., 0., 0.,
          3.37837846e-003, 0., 0., 0., 3.37837846e-003, 0., 0., 0., 0.,
          0., 0., 0., 0., 3.37837846e-003, 0., 0., 0., 0.,
          3.37837846e-003, 0., 0., 0., 0., 0., 0., 0., 0., 0.,
          3.37837846e-003, 0., 0., 0., 0., 0., 0., 0., 0., 0., 0., 0.,
          0., 0., 0., 0., 0., 0., 0., 0., 3.37837846e-003, 0., 0.,
          3.37837846e-003, 0., 0., 0., 0., 0., 0., 0., 3.37837846e-003,
          3.37837846e-003, 6.75675692e-003, 0., 3.37837846e-003, 0.,
          6.75675692e-003, 0., 0., 3.37837846e-003, 0., 0., 0., 0., 0.,
          3.37837846e-003, 0., 0., 0., 0., 0., 0., 0., 0., 0., 0.,
          3.37837846e-003, 0., 0., 0., 0., 0., 0., 0., 6.75675692e-003,
          0., 0., 0., 0., 0., 0., 0., 1.35135138e-002, 0., 0., 0.,
          3.37837846e-003, 0., 0., 0., 0., 0., 3.37837846e-003,
          3.37837846e-003, 3.37837846e-003, 6.75675692e-003, 0., 0., 0.,
          0., 3.37837846e-003, 0., 0., 0., 0., 0., 3.37837846e-003, 0.,
          0., 0., 0., 0., 0., 3.37837846e-003, 0., 0., 0.,
          3.37837846e-003, 3.37837846e-003, 0., 0., 0., 0., 0., 0., 0.,
          3.37837846e-003, 3.37837846e-003, 0., 6.75675692e-003, 0., 0.,
          1.35135138e-002, 0., 0., 0., 3.37837846e-003, 0., 0., 0., 0.,
          0., 0., 0., 0., 0., 0., 0., 0., 0., 0., 0., 0., 0.,
          3.37837846e-003, 0., 0., 0., 0., 0., 0., 0., 0., 0., 0., 0.,
          0., 3.37837846e-003, 0., 0., 0., 0., 0., 0., 0., 0.,
          3.37837846e-003, 0., 0., 3.37837846e-003, 0., 0., 0.,
          3.37837846e-003, 0., 0., 0., 3.37837846e-003, 0.,
          3.37837846e-003, 0., 0., 0., 3.37837846e-003, 0., 0.,
          3.37837846e-003, 3.37837846e-003, 0., 0., 0., 0., 0.,
          3.37837846e-003, 0., 0., 1.68918930e-002, 0., 0., 0., 0., 0.,
          0., 0., 0., 0., 0., 0., 0., 0., 0., 0., 0., 0., 0., 0., 0., 0.,
          3.37837846e-003, 6.75675692e-003, 0., 0., 0., 0.,
          3.37837846e-003, 3.37837846e-003, 0., 0., 0., 0., 0., 0., 0.,
          0., 3.37837846e-003, 0., 3.37837846e-003, 3.37837846e-003, 0.,
          0., 6.75675692e-003, 3.37837846e-003, 0., 0., 6.75675692e-003,
          0., 0., 0., 3.37837846e-003, 0., 0., 0., 0., 0., 0., 0., 0.,
          0., 0., 0., 0., 0., 0., 0., 0., 0., 0., 6.75675692e-003, 0.,
          3.37837846e-003, 0., 0., 0., 0., 3.37837846e-003,
          3.37837846e-003, 0., 0., 0., 3.37837846e-003, 0.,
          3.37837846e-003, 0., 0., 0., 0., 3.37837846e-003, 0., 0., 0.,
          0., 0., 3.37837846e-003, 0., 0., 0., 0., 0., 0.,
          6.75675692e-003, 0., 3.37837846e-003, 0., 0., 0., 0., 0., 0.,
          0., 1.01351356e-002, 0., 0., 0., 0., 0., 0., 0.,
          1.01351356e-002, 0., 0., 3.37837846e-003, 0., 0., 0.,
          3.37837846e-003, 0., 0., 0., 3.37837846e-003, 3.37837846e-003,
          0., 0., 0., 3.37837846e-003, 0., 0., 0., 0., 3.37837846e-003,
          0., 0., 0., 0., 0., 0., 0., 3.37837846e-003, 0., 0., 0.,
          3.37837846e-003, 0., 0., 0., 0., 0., 3.37837846e-003, 0., 0.,
          0., 3.37837846e-003, 0., 0., 0., 3.37837846e-003, 0., 0., 0.,
          0., 0., 0., 0., 0., 0., 6.75675692e-003, 0., 0., 0., 0., 0.,
          0., 0., 0., 0., 0., 0., 0., 0., 0., 0., 0., 0., 0., 0., 0.,
          2.02702712e-002, 0., 0., 0., 3.37837846e-003, 3.37837846e-003,
          3.37837846e-003, 0., 0., 0., 0., 0., 0., 0., 0.,
          3.37837846e-003, 0., 0., 0., 0., 0., 0., 0., 0., 0., 0., 0.,
          3.37837846e-003, 0., 0., 0., 0., 0., 3.37837846e-003, 0.,
          6.75675692e-003, 0., 0., 0., 0., 0., 0., 0., 0.,
          6.75675692e-003, 0., 0., 0., 0., 0., 0., 0., 0., 0., 0., 0.,
          3.37837846e-003, 6.75675692e-003, 0., 0., 0., 0., 0., 0.,
          3.37837846e-003, 0., 0., 0., 3.37837846e-003, 0.,
          3.37837846e-003, 0., 0., 0., 0., 0., 3.37837846e-003,
          6.75675692e-003, 3.37837846e-003, 6.75675692e-003, 0.,
          3.37837846e-003, 3.37837846e-003, 3.37837846e-003, 0.,
          3.37837846e-003, 0., 0., 0., 0., 0., 0., 0., 0., 0., 0., 0.,
          0., 0., 0., 0., 0., 0., 0., 6.75675692e-003, 3.37837846e-003,
          0., 0., 1.01351356e-002, 0., 0., 0., 0., 0., 0., 0., 0., 0.,
          0., 0., 0., 0., 0., 0., 0., 0., 0., 3.37837846e-003, 0., 0.,
          3.37837846e-003, 0., 3.37837846e-003, 0., 0., 0.,
          3.37837846e-003, 0., 3.37837846e-003, 0., 0., 0., 0., 0., 0.,
          0., 0., 0., 0., 0., 6.75675692e-003, 0., 0., 0.,
          2.02702712e-002, 0. ]
      - [ 0., 0., 7.51879718e-003, 0., 3.75939859e-003, 0., 0., 0., 0.,
          0., 0., 0., 0., 0., 7.51879718e-003, 0., 0., 7.51879718e-003,
          0., 1.87969934e-002, 0., 7.51879718e-003, 0., 3.75939859e-003,
          0., 3.75939859e-003, 0., 0., 0., 0., 0., 0., 0., 0., 0., 0.,
          0., 0., 0., 3.75939859e-003, 3.75939859e-003, 0.,
          1.87969934e-002, 0., 0., 0., 0., 0., 0., 0., 0., 0.,
          3.75939859e-003, 0., 0., 0., 0., 0., 0., 0., 0., 0.,
          3.75939859e-003, 3.75939859e-003, 3.75939859e-003, 0., 0., 0.,
          7.51879718e-003, 0., 3.75939859e-003, 0., 3.75939859e-003,
          7.51879718e-003, 3.75939859e-003, 0., 3.75939859e-003, 0., 0.,
          0., 0., 0., 1.12781953e-002, 0., 0., 0., 3.75939859e-003,
          3.75939859e-003, 0., 0., 0., 0., 3.75939859e-003, 0., 0., 0.,
          0., 0., 0., 0., 0., 0., 0., 3.75939859e-003, 0., 0., 0., 0.,
          0., 0., 3.75939859e-003, 0., 0., 0., 0., 0., 0., 0., 0., 0.,
          0., 0., 0., 0., 0., 3.75939859e-003, 0., 0., 0., 0.,
          3.75939859e-003, 0., 0., 3.75939859e-003, 3.75939859e-003, 0.,
          0., 0., 0., 3.75939859e-003, 0., 0., 3.75939859e-003, 0., 0.,
          0., 1.12781953e-002, 3.75939859e-003, 7.51879718e-003, 0., 0.,
          0., 3.75939859e-003, 0., 3.75939859e-003, 1.12781953e-002, 0.,
          0., 0., 0., 0., 0., 0., 0., 0., 0., 0., 0., 3.75939859e-003,
          0., 0., 3.75939859e-003, 0., 0., 0., 0., 3.75939859e-003, 0.,
          0., 3.75939859e-003, 0., 0., 1.12781953e-002, 0.,
          7.51879718e-003, 0., 0., 0., 0., 0., 0., 0., 0.,
          3.75939859e-003, 0., 0., 3.75939859e-003, 3.75939859e-003, 0.,
          0., 0., 0., 3.75939859e-003, 0., 0., 0., 0., 0., 0., 0., 0.,
          0., 0., 0., 0., 0., 0., 0., 0., 0., 0., 0., 3.75939859e-003,
          0., 3.75939859e-003, 0., 0., 0., 0., 0., 0., 0., 0.,
          3.75939859e-003, 0., 3.75939859e-003, 7.51879718e-003, 0., 0.,
          0., 0., 0., 3.75939859e-003, 0., 0., 0., 0., 7.51879718e-003,
          0., 0., 3.75939859e-003, 0., 0., 0., 0., 0., 0., 0.,
          3.75939859e-003, 0., 7.51879718e-003, 0., 0., 0., 0.,
          3.75939859e-003, 3.75939859e-003, 0., 3.75939859e-003, 0., 0.,
          0., 3.75939859e-003, 0., 0., 0., 0., 0., 0., 7.51879718e-003,
          0., 0., 0., 0., 0., 3.75939859e-003, 0., 0., 0., 0., 0.,
          3.75939859e-003, 0., 0., 3.75939859e-003, 0., 0., 0.,
          3.75939859e-003, 0., 3.75939859e-003, 0., 0., 0., 0., 0., 0.,
          0., 0., 0., 0., 0., 0., 0., 0., 3.75939859e-003, 0., 0., 0.,
          0., 0., 0., 0., 0., 0., 0., 0., 0., 7.51879718e-003, 0., 0.,
          0., 0., 0., 0., 3.75939859e-003, 0., 0., 0., 0., 0., 0., 0.,
          1.12781953e-002, 0., 0., 0., 0., 0., 3.75939859e-003, 0.,
          3.75939859e-003, 0., 0., 3.75939859e-003, 0., 0., 0., 0., 0.,
          0., 0., 0., 0., 0., 0., 3.75939859e-003, 3.75939859e-003, 0.,
          3.75939859e-003, 0., 0., 0., 3.75939859e-003, 0., 0., 0., 0.,
          0., 0., 0., 0., 0., 0., 3.75939859e-003, 0., 7.51879718e-003,
          0., 7.51879718e-003, 0., 0., 3.75939859e-003, 0.,
          3.75939859e-003, 0., 0., 0., 0., 0., 3.75939859e-003, 0., 0.,
          7.51879718e-003, 0., 0., 3.75939859e-003, 0., 0., 0., 0., 0.,
          0., 0., 3.75939859e-003, 0., 0., 0., 0., 3.75939859e-003, 0.,
          0., 3.75939859e-003, 0., 0., 0., 0., 0., 3.75939859e-003,
          7.51879718e-003, 0., 0., 0., 0., 0., 0., 0., 0., 0., 0., 0.,
          3.75939859e-003, 0., 0., 0., 0., 0., 0., 0., 7.51879718e-003,
          0., 3.75939859e-003, 0., 0., 0., 0., 0., 0., 0.,
          3.75939859e-003, 0., 0., 0., 0., 0., 0., 0., 0., 0.,
          7.51879718e-003, 0., 0., 0., 0., 3.75939859e-003,
          3.75939859e-003, 0., 3.75939859e-003, 0., 0., 0., 0., 0., 0.,
          0., 0., 0., 0., 3.75939859e-003, 0., 0., 0., 3.75939859e-003,
          0., 0., 0., 0., 0., 0., 0., 0., 0., 0., 0., 0., 0.,
          3.75939859e-003, 0., 7.51879718e-003, 0., 0., 0., 0., 0.,
          3.75939859e-003, 0., 0., 0., 0., 0., 0., 0., 1.12781953e-002,
          3.75939859e-003, 0., 0., 0., 0., 0., 0., 0., 0., 0.,
          3.75939859e-003, 3.75939859e-003, 0., 0., 0., 0., 0., 0., 0.,
          0., 0., 3.75939859e-003, 3.75939859e-003, 0., 0., 0., 0., 0.,
          0., 0., 0., 0., 3.75939859e-003, 0., 3.75939859e-003, 0.,
          3.75939859e-003, 0., 0., 7.51879718e-003, 3.75939859e-003, 0.,
          0., 0., 0., 0., 0., 0., 0., 0., 0., 0., 0., 0., 0.,
          3.75939859e-003, 0., 0., 0., 0., 0., 7.51879718e-003,
          3.75939859e-003, 3.75939859e-003, 0., 0., 0., 0., 0., 0., 0.,
          0., 0., 3.75939859e-003, 0., 0., 3.75939859e-003, 0., 0., 0.,
          0., 0., 0., 0., 7.51879718e-003, 0., 3.75939859e-003, 0., 0.,
          0., 0., 0., 0., 0., 0., 0., 7.51879718e-003, 0., 0., 0., 0.,
          0., 0., 3.75939859e-003, 0., 0., 0., 0., 0., 1.12781953e-002,
          3.75939859e-003, 0., 0., 0., 0., 0., 0., 0., 3.75939859e-003,
          0., 0., 0., 0., 0., 0., 0., 0., 0., 3.75939859e-003, 0.,
          3.75939859e-003, 7.51879718e-003, 0., 0., 0., 0., 0., 0., 0.,
          0., 0., 0., 3.75939859e-003, 0., 0., 0., 7.51879718e-003, 0.,
          0., 0., 0., 7.51879718e-003, 0., 0., 0., 3.75939859e-003, 0.,
          0., 0., 0., 3.75939859e-003, 7.51879718e-003, 7.51879718e-003,
          7.51879718e-003, 0., 0., 3.75939859e-003, 7.51879718e-003, 0.,
          0., 0., 0., 0., 0., 0., 0., 0., 0., 3.75939859e-003, 0., 0.,
          0., 0., 0., 0., 3.75939859e-003, 0., 0., 3.75939859e-003, 0.,
          0., 3.75939859e-003, 0., 0., 3.75939859e-003, 0., 0., 0., 0.,
          0., 0., 0., 0., 0., 0., 0., 7.51879718e-003, 0., 0., 0.,
          3.75939859e-003, 0., 0., 0., 0., 0., 0., 0., 0., 0.,
          3.75939859e-003, 0., 0., 0., 3.75939859e-003, 0., 0., 0., 0.,
          0., 0., 0., 7.51879718e-003, 0., 0., 0., 7.51879718e-003, 0.,
          3.75939859e-003, 0., 0., 3.75939859e-003, 3.75939859e-003, 0.,
          0., 0., 0., 3.75939859e-003, 0., 0., 0., 3.75939859e-003, 0.,
          0., 0., 0., 3.75939859e-003, 3.75939859e-003, 3.75939859e-003,
          3.75939859e-003, 0., 0., 0., 0., 0., 0., 0., 0.,
          7.51879718e-003, 0., 0., 3.75939859e-003, 0., 0., 0., 0., 0.,
          0., 0., 7.51879718e-003, 0., 0., 0., 0., 0., 0., 0., 0., 0.,
          0., 0., 0., 0., 3.75939859e-003, 0., 7.51879718e-003, 0., 0.,
          0., 0., 0., 0., 0., 7.51879718e-003, 0., 0., 0.,
          3.75939859e-003, 0., 0., 0., 0., 3.75939859e-003, 0., 0.,
          3.75939859e-003, 0., 0., 0., 0., 0., 0., 0., 0.,
          3.75939859e-003, 3.75939859e-003, 0., 0., 0., 0., 0., 0., 0.,
          3.75939859e-003, 3.75939859e-003, 0., 0., 0., 0., 0., 0., 0.,
          0., 3.75939859e-003, 3.75939859e-003, 3.75939859e-003, 0., 0.,
          0., 0., 0., 0., 0., 3.75939859e-003, 0., 0., 0.,
          1.12781953e-002, 0., 0., 0., 7.51879718e-003, 0., 0., 0., 0.,
          0., 3.75939859e-003, 0., 0., 3.75939859e-003, 3.75939859e-003,
          3.75939859e-003, 0., 0., 0., 0., 3.75939859e-003,
          3.75939859e-003, 3.75939859e-003, 0., 0., 3.75939859e-003, 0.,
          0., 0., 0., 0., 0., 0., 0., 0., 3.75939859e-003,
          3.75939859e-003, 0., 0., 0., 0., 0., 0., 0., 0., 0., 0., 0.,
          0., 0., 0., 0., 3.75939859e-003, 0., 0., 0., 3.75939859e-003,
          0., 3.75939859e-003, 0., 0., 0., 0., 3.75939859e-003, 0., 0.,
          0., 0., 0., 0., 0., 0., 0., 0., 0., 0., 3.75939859e-003, 0.,
          0., 0., 0., 0., 0., 0., 0., 0., 0., 0., 0., 0., 0., 0., 0., 0.,
          0., 0., 0., 0., 0., 0., 0., 0., 0., 3.75939859e-003, 0.,
          7.51879718e-003, 0., 3.75939859e-003, 0., 3.75939859e-003, 0.,
          0., 0., 0., 0., 3.75939859e-003, 0., 0., 0., 0., 0. ]
      - [ 0., 0., 7.87401572e-003, 0., 1.18110236e-002, 1.18110236e-002,
          0., 0., 0., 0., 0., 0., 0., 0., 3.93700786e-003, 0., 0.,
          7.87401572e-003, 0., 1.57480314e-002, 0., 3.93700786e-003, 0.,
          7.87401572e-003, 0., 3.93700786e-003, 0., 0., 0., 0., 0.,
          3.93700786e-003, 0., 0., 0., 0., 0., 0., 0., 0., 0., 0.,
          3.93700786e-003, 0., 3.93700786e-003, 0., 0., 3.93700786e-003,
          0., 0., 0., 0., 3.93700786e-003, 0., 3.93700786e-003, 0., 0.,
          0., 0., 0., 0., 3.93700786e-003, 1.18110236e-002,
          3.93700786e-003, 1.96850393e-002, 3.93700786e-003, 0., 0.,
          3.93700786e-003, 0., 0., 0., 0., 7.87401572e-003, 0., 0., 0.,
          0., 3.93700786e-003, 0., 0., 0., 3.93700786e-003, 0., 0., 0.,
          3.93700786e-003, 3.93700786e-003, 0., 0., 0., 0., 0., 0., 0.,
          0., 0., 0., 0., 3.93700786e-003, 0., 3.93700786e-003, 0., 0.,
          0., 0., 0., 0., 0., 0., 0., 0., 0., 7.87401572e-003, 0., 0.,
          0., 0., 0., 3.93700786e-003, 3.93700786e-003, 0.,
          3.93700786e-003, 0., 3.93700786e-003, 0., 0., 3.93700786e-003,
          0., 3.93700786e-003, 3.93700786e-003, 0., 0., 0., 0.,
          3.93700786e-003, 0., 0., 0., 0., 0., 0., 3.93700786e-003, 0.,
          0., 0., 1.57480314e-002, 0., 3.93700786e-003, 0., 0., 0.,
          7.87401572e-003, 0., 3.93700786e-003, 1.18110236e-002, 0., 0.,
          0., 0., 0., 0., 0., 0., 0., 0., 0., 0., 3.93700786e-003, 0.,
          0., 3.93700786e-003, 0., 0., 0., 0., 0., 0., 0., 0., 0., 0.,
          0., 0., 0., 0., 0., 7.87401572e-003, 0., 0., 0., 0., 0., 0.,
          0., 0., 3.93700786e-003, 0., 0., 0., 3.93700786e-003, 0., 0.,
          3.93700786e-003, 0., 0., 0., 3.93700786e-003, 0., 0., 0., 0.,
          0., 0., 0., 0., 0., 0., 0., 0., 3.93700786e-003, 0., 0., 0.,
          0., 0., 0., 3.93700786e-003, 0., 7.87401572e-003, 0., 0.,
          7.87401572e-003, 3.93700786e-003, 0., 3.93700786e-003,
          3.93700786e-003, 0., 0., 0., 0., 0., 0., 0., 3.93700786e-003,
          0., 0., 0., 0., 0., 0., 0., 0., 0., 0., 0., 3.93700786e-003,
          0., 0., 3.93700786e-003, 0., 0., 0., 0., 0., 3.93700786e-003,
          3.93700786e-003, 0., 0., 0., 3.93700786e-003, 0., 0., 0., 0.,
          0., 0., 0., 0., 3.93700786e-003, 0., 0., 0., 3.93700786e-003,
          0., 0., 0., 0., 3.93700786e-003, 0., 0., 3.93700786e-003, 0.,
          0., 0., 0., 0., 0., 0., 0., 3.93700786e-003, 3.93700786e-003,
          3.93700786e-003, 0., 0., 0., 0., 0., 0., 0., 0., 0., 0., 0.,
          0., 3.93700786e-003, 3.93700786e-003, 0., 0., 0.,
          3.93700786e-003, 0., 3.93700786e-003, 0., 0., 0.,
          3.93700786e-003, 0., 0., 0., 0., 0., 0., 0., 0., 0.,
          3.93700786e-003, 0., 0., 0., 0., 0., 0., 0., 7.87401572e-003,
          0., 0., 0., 0., 0., 0., 0., 0., 3.93700786e-003, 0., 0., 0.,
          0., 3.93700786e-003, 0., 0., 0., 0., 0., 0., 0., 0.,
          3.93700786e-003, 0., 7.87401572e-003, 0., 0., 3.93700786e-003,
          0., 0., 0., 0., 0., 0., 0., 0., 0., 0., 0., 7.87401572e-003,
          0., 3.93700786e-003, 0., 0., 0., 0., 3.93700786e-003, 0., 0.,
          0., 0., 0., 0., 0., 3.93700786e-003, 3.93700786e-003, 0.,
          3.93700786e-003, 0., 3.93700786e-003, 0., 0., 0., 0., 0., 0.,
          0., 0., 0., 0., 3.93700786e-003, 0., 0., 0., 0., 0., 0., 0.,
          3.93700786e-003, 3.93700786e-003, 0., 0., 0., 7.87401572e-003,
          0., 0., 0., 0., 0., 0., 0., 0., 0., 0., 0., 0.,
          7.87401572e-003, 0., 0., 0., 0., 0., 0., 0., 3.93700786e-003,
          0., 0., 0., 0., 0., 0., 0., 0., 3.93700786e-003, 0., 0., 0.,
          0., 0., 0., 0., 3.93700786e-003, 0., 3.93700786e-003,
          3.93700786e-003, 0., 7.87401572e-003, 0., 3.93700786e-003, 0.,
          0., 0., 0., 0., 3.93700786e-003, 7.87401572e-003, 0., 0., 0.,
          0., 0., 0., 3.93700786e-003, 0., 0., 0., 0., 0., 0., 0.,
          3.93700786e-003, 0., 0., 0., 0., 0., 0., 0., 0., 0.,
          3.93700786e-003, 0., 7.87401572e-003, 0., 3.93700786e-003, 0.,
          0., 0., 7.87401572e-003, 0., 0., 0., 0., 0., 3.93700786e-003,
          0., 0., 0., 0., 0., 0., 0., 0., 0., 0., 0., 0.,
          3.93700786e-003, 3.93700786e-003, 0., 0., 0., 0., 0., 0., 0.,
          0., 0., 0., 0., 0., 0., 0., 0., 0., 0., 0., 3.93700786e-003,
          0., 0., 0., 0., 0., 0., 0., 0., 0., 7.87401572e-003, 0.,
          3.93700786e-003, 7.87401572e-003, 0., 0., 3.93700786e-003, 0.,
          0., 0., 3.93700786e-003, 0., 0., 0., 0., 7.87401572e-003, 0.,
          0., 0., 0., 0., 0., 3.93700786e-003, 3.93700786e-003, 0., 0.,
          0., 0., 0., 0., 0., 3.93700786e-003, 0., 0., 3.93700786e-003,
          0., 0., 0., 0., 0., 0., 0., 0., 0., 3.93700786e-003, 0., 0.,
          3.93700786e-003, 0., 0., 0., 0., 0., 3.93700786e-003, 0., 0.,
          7.87401572e-003, 0., 0., 0., 0., 0., 0., 0., 3.93700786e-003,
          0., 0., 0., 0., 1.57480314e-002, 0., 0., 0., 0.,
          3.93700786e-003, 0., 0., 0., 0., 0., 3.93700786e-003, 0., 0.,
          0., 0., 0., 3.93700786e-003, 0., 0., 0., 0., 3.93700786e-003,
          3.93700786e-003, 0., 0., 0., 0., 3.93700786e-003, 0., 0., 0.,
          0., 0., 0., 0., 0., 7.87401572e-003, 0., 0., 1.18110236e-002,
          0., 0., 1.18110236e-002, 0., 0., 3.93700786e-003, 0., 0., 0.,
          0., 0., 7.87401572e-003, 0., 0., 3.93700786e-003, 0., 0.,
          7.87401572e-003, 0., 0., 3.93700786e-003, 0., 0., 0., 0., 0.,
          0., 0., 0., 0., 0., 0., 0., 0., 0., 0., 0., 0., 0., 0., 0., 0.,
          0., 0., 3.93700786e-003, 0., 0., 0., 0., 0., 0., 0.,
          1.18110236e-002, 0., 0., 0., 3.93700786e-003, 0., 0., 0.,
          3.93700786e-003, 0., 0., 0., 0., 0., 0., 0., 0., 0.,
          3.93700786e-003, 7.87401572e-003, 0., 0., 3.93700786e-003, 0.,
          3.93700786e-003, 0., 0., 0., 0., 0., 3.93700786e-003, 0., 0.,
          0., 0., 0., 0., 0., 0., 0., 0., 0., 0., 0., 0.,
          3.93700786e-003, 0., 0., 0., 3.93700786e-003, 0., 0.,
          7.87401572e-003, 0., 0., 0., 3.93700786e-003, 3.93700786e-003,
          0., 0., 0., 0., 3.93700786e-003, 0., 0., 0., 3.93700786e-003,
          0., 0., 0., 0., 3.93700786e-003, 0., 0., 0., 0., 0., 0., 0.,
          0., 0., 0., 3.93700786e-003, 0., 0., 3.93700786e-003, 0., 0.,
          0., 0., 0., 0., 0., 0., 3.93700786e-003, 0., 0., 0., 0., 0.,
          0., 3.93700786e-003, 0., 0., 0., 3.93700786e-003, 0., 0., 0.,
          0., 0., 0., 0., 0., 0., 0., 0., 0., 0., 0., 0., 0., 0., 0.,
          3.93700786e-003, 3.93700786e-003, 0., 0., 0., 0., 0.,
          3.93700786e-003, 3.93700786e-003, 0., 3.93700786e-003, 0., 0.,
          0., 0., 0., 0., 0., 0., 0., 0., 0., 0., 0., 3.93700786e-003,
          0., 0., 7.87401572e-003, 0., 0., 0., 0., 0., 0., 0., 0., 0.,
          3.93700786e-003, 3.93700786e-003, 0., 0., 0., 0., 0., 0., 0.,
          0., 0., 0., 0., 0., 0., 0., 7.87401572e-003, 0., 0.,
          3.93700786e-003, 0., 3.93700786e-003, 0., 0., 0., 0., 0., 0.,
          0., 0., 0., 0., 0., 0., 0., 3.93700786e-003, 0., 0., 0., 0.,
          0., 0., 0., 3.93700786e-003, 0., 0., 3.93700786e-003, 0., 0.,
          0., 3.93700786e-003, 0., 0., 0., 0., 0., 0., 0., 0., 0., 0.,
          0., 0., 3.93700786e-003, 3.93700786e-003, 0., 0., 0.,
          3.93700786e-003, 0., 0., 0., 0., 0., 0., 0., 1.18110236e-002,
          3.93700786e-003, 0., 0., 0., 0., 0., 0., 0., 0., 0., 0., 0.,
          0., 0., 0., 0., 0., 0., 0., 0., 1.18110236e-002, 0.,
          3.93700786e-003, 0., 0., 0., 0., 0., 0., 3.93700786e-003, 0.,
          0., 7.87401572e-003, 0., 1.18110236e-002, 0., 0., 0. ]
      - [ 0., 0., 3.78787890e-003, 0., 3.78787890e-003, 3.78787890e-003,
          3.78787890e-003, 0., 0., 0., 0., 0., 0., 0., 3.78787890e-003,
          0., 0., 0., 0., 1.89393945e-002, 3.78787890e-003, 0., 0.,
          3.78787890e-003, 3.78787890e-003, 3.78787890e-003, 0., 0., 0.,
          0., 0., 3.78787890e-003, 0., 0., 0., 0., 0., 0., 0.,
          3.78787890e-003, 0., 0., 0., 0., 0., 3.78787890e-003, 0.,
          1.13636367e-002, 0., 0., 0., 0., 0., 0., 3.78787890e-003, 0.,
          7.57575780e-003, 0., 0., 3.78787890e-003, 0., 3.78787890e-003,
          7.57575780e-003, 3.78787890e-003, 1.51515156e-002,
          7.57575780e-003, 0., 0., 3.78787890e-003, 0., 0., 0.,
          3.78787890e-003, 7.57575780e-003, 0., 0., 3.78787890e-003, 0.,
          0., 0., 0., 0., 0., 0., 0., 0., 3.78787890e-003,
          3.78787890e-003, 0., 0., 0., 0., 7.57575780e-003, 0., 0., 0.,
          0., 0., 0., 0., 0., 3.78787890e-003, 0., 3.78787890e-003, 0.,
          0., 0., 3.78787890e-003, 0., 0., 7.57575780e-003, 0., 0.,
          3.78787890e-003, 0., 0., 0., 0., 0., 0., 3.78787890e-003, 0.,
          3.78787890e-003, 0., 0., 3.78787890e-003, 0., 0., 0., 0.,
          7.57575780e-003, 0., 0., 7.57575780e-003, 0., 0., 0., 0., 0.,
          3.78787890e-003, 0., 0., 7.57575780e-003, 0., 0., 0., 0.,
          7.57575780e-003, 7.57575780e-003, 0., 0., 0., 7.57575780e-003,
          0., 3.78787890e-003, 7.57575780e-003, 0., 0., 0., 0., 0., 0.,
          0., 0., 0., 0., 0., 0., 3.78787890e-003, 0., 0.,
          3.78787890e-003, 0., 0., 0., 0., 3.78787890e-003, 0., 0., 0.,
          0., 0., 0., 0., 3.78787890e-003, 0., 0., 7.57575780e-003, 0.,
          0., 0., 0., 0., 0., 0., 0., 3.78787890e-003, 7.57575780e-003,
          0., 0., 0., 0., 0., 3.78787890e-003, 0., 0., 0., 0., 0., 0.,
          0., 0., 0., 0., 0., 0., 7.57575780e-003, 1.13636367e-002, 0.,
          0., 3.78787890e-003, 0., 3.78787890e-003, 0., 7.57575780e-003,
          0., 0., 0., 0., 1.51515156e-002, 0., 3.78787890e-003, 0.,
          3.78787890e-003, 3.78787890e-003, 0., 0., 0., 0., 0., 0., 0.,
          0., 0., 0., 0., 0., 0., 0., 0., 0., 0., 0., 0., 0., 0., 0., 0.,
          3.78787890e-003, 0., 0., 0., 0., 0., 0., 3.78787890e-003,
          3.78787890e-003, 0., 3.78787890e-003, 3.78787890e-003,
          3.78787890e-003, 0., 0., 0., 0., 0., 0., 0., 0.,
          3.78787890e-003, 3.78787890e-003, 0., 0., 0., 0., 0., 0., 0.,
          0., 0., 0., 3.78787890e-003, 0., 0., 3.78787890e-003, 0., 0.,
          0., 0., 0., 7.57575780e-003, 3.78787890e-003, 0., 0.,
          3.78787890e-003, 0., 0., 0., 0., 0., 0., 0., 0.,
          3.78787890e-003, 0., 3.78787890e-003, 3.78787890e-003, 0., 0.,
          0., 0., 0., 7.57575780e-003, 0., 0., 0., 0., 3.78787890e-003,
          7.57575780e-003, 0., 0., 0., 0., 0., 0., 0., 7.57575780e-003,
          0., 0., 3.78787890e-003, 0., 0., 0., 0., 3.78787890e-003,
          3.78787890e-003, 0., 0., 0., 0., 0., 0., 0., 0., 0., 0., 0.,
          0., 0., 0., 0., 0., 0., 0., 0., 0., 0., 3.78787890e-003, 0.,
          3.78787890e-003, 0., 0., 0., 0., 0., 0., 0., 0., 0., 0., 0.,
          0., 0., 0., 3.78787890e-003, 0., 3.78787890e-003,
          7.57575780e-003, 0., 0., 0., 3.78787890e-003, 0., 0., 0., 0.,
          0., 0., 0., 0., 0., 0., 3.78787890e-003, 0., 0., 0., 0., 0.,
          0., 0., 0., 0., 0., 0., 0., 0., 0., 0., 0., 3.78787890e-003,
          0., 0., 0., 0., 0., 0., 0., 0., 1.51515156e-002, 0., 0., 0.,
          0., 0., 0., 0., 0., 3.78787890e-003, 0., 0., 3.78787890e-003,
          0., 0., 0., 0., 0., 0., 0., 0., 3.78787890e-003, 0., 0., 0.,
          0., 0., 0., 0., 0., 0., 3.78787890e-003, 0., 0., 0., 0., 0.,
          0., 3.78787890e-003, 0., 1.13636367e-002, 3.78787890e-003, 0.,
          1.51515156e-002, 0., 0., 3.78787890e-003, 3.78787890e-003,
          3.78787890e-003, 3.78787890e-003, 0., 3.78787890e-003,
          7.57575780e-003, 3.78787890e-003, 0., 0., 0., 0., 0.,
          7.57575780e-003, 0., 0., 0., 0., 0., 0., 0., 3.78787890e-003,
          0., 0., 0., 0., 0., 0., 0., 0., 0., 0., 0., 3.78787890e-003,
          0., 0., 0., 3.78787890e-003, 0., 3.78787890e-003, 0., 0., 0.,
          0., 3.78787890e-003, 0., 0., 7.57575780e-003, 3.78787890e-003,
          3.78787890e-003, 0., 0., 0., 3.78787890e-003, 0., 0., 0., 0.,
          3.78787890e-003, 0., 0., 0., 0., 0., 0., 3.78787890e-003, 0.,
          0., 0., 0., 3.78787890e-003, 0., 0., 0., 0., 0., 0., 0., 0.,
          0., 0., 0., 0., 0., 0., 0., 0., 3.78787890e-003, 0., 0., 0.,
          7.57575780e-003, 0., 0., 0., 0., 0., 0., 3.78787890e-003, 0.,
          0., 0., 0., 0., 0., 0., 0., 0., 0., 0., 3.78787890e-003,
          3.78787890e-003, 0., 0., 0., 0., 0., 0., 0., 3.78787890e-003,
          0., 0., 0., 0., 0., 0., 0., 3.78787890e-003, 0., 0., 0., 0.,
          0., 0., 0., 0., 0., 0., 0., 0., 0., 0., 0., 0.,
          3.78787890e-003, 0., 0., 0., 0., 0., 0., 0., 0., 0., 0., 0.,
          0., 2.27272734e-002, 0., 0., 0., 0., 0., 3.78787890e-003,
          3.78787890e-003, 0., 0., 0., 3.78787890e-003, 0., 0., 0., 0.,
          0., 0., 0., 0., 0., 0., 3.78787890e-003, 0., 0., 0., 0., 0.,
          0., 0., 0., 0., 0., 7.57575780e-003, 0., 3.78787890e-003, 0.,
          7.57575780e-003, 0., 0., 0., 0., 0., 3.78787890e-003, 0., 0.,
          0., 0., 0., 0., 0., 3.78787890e-003, 1.13636367e-002, 0., 0.,
          0., 0., 0., 0., 7.57575780e-003, 0., 3.78787890e-003, 0., 0.,
          0., 0., 0., 0., 0., 3.78787890e-003, 0., 0., 0., 0., 0., 0.,
          0., 3.78787890e-003, 0., 3.78787890e-003, 0., 0., 0., 0., 0.,
          0., 7.57575780e-003, 3.78787890e-003, 3.78787890e-003, 0., 0.,
          0., 0., 3.78787890e-003, 0., 0., 0., 3.78787890e-003, 0., 0.,
          7.57575780e-003, 0., 0., 0., 0., 0., 0., 0., 0., 0., 0., 0.,
          3.78787890e-003, 0., 0., 0., 0., 3.78787890e-003, 0.,
          3.78787890e-003, 0., 0., 0., 0., 0., 0., 0., 3.78787890e-003,
          0., 3.78787890e-003, 0., 0., 3.78787890e-003, 7.57575780e-003,
          0., 0., 0., 0., 3.78787890e-003, 0., 0., 0., 0., 0., 0., 0.,
          0., 7.57575780e-003, 3.78787890e-003, 0., 0., 0., 0., 0., 0.,
          3.78787890e-003, 0., 0., 0., 0., 0., 0., 0., 0., 0., 0., 0.,
          0., 0., 0., 0., 0., 0., 0., 0., 0., 0., 0., 3.78787890e-003,
          0., 0., 3.78787890e-003, 0., 0., 0., 0., 0., 0., 0., 0., 0.,
          0., 0., 0., 3.78787890e-003, 0., 0., 0., 3.78787890e-003, 0.,
          3.78787890e-003, 0., 0., 7.57575780e-003, 0., 0., 0., 0., 0.,
          0., 0., 0., 0., 0., 0., 0., 0., 3.78787890e-003, 0., 0., 0.,
          0., 0., 0., 3.78787890e-003, 0., 0., 0., 0., 3.78787890e-003,
          0., 0., 0., 3.78787890e-003, 0., 0., 7.57575780e-003, 0., 0.,
          0., 0., 0., 3.78787890e-003, 0., 1.51515156e-002, 0., 0., 0.,
          0., 0., 0., 0., 3.78787890e-003, 0., 0., 0., 0., 0., 0., 0.,
          0., 3.78787890e-003, 3.78787890e-003, 3.78787890e-003, 0., 0.,
          0., 0., 0., 3.78787890e-003, 3.78787890e-003, 0., 0., 0., 0.,
          0., 0., 0., 0., 0., 3.78787890e-003, 0., 0., 0.,
          3.78787890e-003, 0., 0., 0., 0., 0., 0., 0., 0., 0.,
          3.78787890e-003, 3.78787890e-003, 0., 0., 0., 0., 0., 0., 0.,
          0., 3.78787890e-003, 0., 0., 0., 0., 0., 0., 3.78787890e-003,
          0., 0., 0., 0., 0., 0., 0., 0., 0., 3.78787890e-003, 0., 0.,
          0., 0., 0., 0., 0., 0., 0., 0., 0., 0., 0., 0., 0., 0., 0., 0.,
          3.78787890e-003, 0., 0., 0., 3.78787890e-003, 0., 0., 0., 0.,
          0., 0., 3.78787890e-003, 0., 0., 0., 0., 0., 0., 0., 0.,
          3.78787890e-003, 0., 0., 1.13636367e-002, 0., 0., 0., 0., 0. ]
      - [ 2.91545200e-003, 0., 0., 0., 5.83090400e-003, 0., 0.,
          8.74635577e-003, 0., 0., 0., 0., 1.16618080e-002,
          2.91545200e-003, 5.83090400e-003, 0., 0., 5.83090400e-003, 0.,
          5.83090400e-003, 0., 5.83090400e-003, 0., 5.83090400e-003, 0.,
          0., 0., 0., 0., 0., 0., 0., 2.91545200e-003, 0., 0., 0., 0.,
          0., 0., 2.91545200e-003, 5.83090400e-003, 2.91545200e-003, 0.,
          0., 0., 0., 2.91545200e-003, 0., 0., 0., 0., 2.91545200e-003,
          0., 0., 2.91545200e-003, 0., 1.16618080e-002, 2.91545200e-003,
          0., 0., 5.83090400e-003, 2.91545200e-003, 5.83090400e-003,
          5.83090400e-003, 0., 2.91545200e-003, 0., 0., 0., 0.,
          2.91545200e-003, 2.91545200e-003, 2.91545200e-003,
          5.83090400e-003, 0., 0., 0., 0., 0., 0., 0., 0., 0., 0., 0.,
          0., 0., 0., 0., 0., 0., 0., 2.91545200e-003, 0., 0.,
          5.83090400e-003, 0., 0., 0., 2.91545200e-003, 0., 0., 0.,
          2.91545200e-003, 0., 0., 0., 0., 0., 0., 0., 0.,
          2.91545200e-003, 2.91545200e-003, 0., 0., 2.91545200e-003, 0.,
          0., 2.91545200e-003, 0., 0., 5.83090400e-003, 0.,
          2.91545200e-003, 2.91545200e-003, 0., 0., 0., 5.83090400e-003,
          2.91545200e-003, 2.91545200e-003, 0., 2.91545200e-003, 0.,
          2.91545200e-003, 0., 0., 0., 0., 0., 0., 0., 0., 0.,
          2.91545200e-003, 0., 8.74635577e-003, 0., 0., 0., 0.,
          8.74635577e-003, 5.83090400e-003, 2.91545200e-003,
          5.83090400e-003, 0., 0., 0., 0., 0., 0., 2.91545200e-003, 0.,
          0., 0., 0., 0., 0., 0., 0., 2.91545200e-003, 0., 0., 0.,
          2.91545200e-003, 5.83090400e-003, 0., 0., 0., 0.,
          2.91545200e-003, 1.45772602e-002, 0., 0., 0., 0., 0.,
          5.83090400e-003, 0., 0., 0., 0., 0., 0., 2.91545200e-003, 0.,
          5.83090400e-003, 0., 0., 5.83090400e-003, 0., 0.,
          2.91545200e-003, 0., 0., 0., 0., 0., 0., 0., 0., 0., 0., 0.,
          0., 0., 0., 0., 0., 0., 0., 5.83090400e-003, 0.,
          2.91545200e-003, 0., 2.91545200e-003, 2.91545200e-003, 0.,
          8.74635577e-003, 0., 2.91545200e-003, 2.91545200e-003, 0., 0.,
          0., 0., 0., 0., 0., 0., 0., 0., 0., 2.91545200e-003, 0., 0.,
          2.91545200e-003, 0., 2.91545200e-003, 0., 0., 0.,
          2.91545200e-003, 0., 0., 0., 2.91545200e-003, 8.74635577e-003,
          0., 0., 0., 0., 2.91545200e-003, 0., 2.91545200e-003,
          5.83090400e-003, 0., 0., 2.91545200e-003, 0., 0., 0., 0., 0.,
          0., 0., 0., 0., 0., 0., 0., 0., 0., 0., 5.83090400e-003, 0.,
          5.83090400e-003, 0., 0., 0., 0., 0., 2.91545200e-003, 0., 0.,
          0., 0., 0., 0., 0., 0., 0., 0., 0., 0., 0., 0., 0., 0., 0., 0.,
          0., 0., 0., 0., 0., 0., 0., 0., 0., 0., 0., 0., 0., 0., 0., 0.,
          8.74635577e-003, 2.91545200e-003, 0., 0., 5.83090400e-003, 0.,
          0., 2.91545200e-003, 0., 0., 0., 0., 0., 0., 0., 0.,
          5.83090400e-003, 0., 0., 2.91545200e-003, 0., 0.,
          5.83090400e-003, 2.91545200e-003, 2.91545200e-003, 0., 0., 0.,
          0., 0., 0., 0., 0., 0., 0., 0., 5.83090400e-003, 0.,
          2.91545200e-003, 2.91545200e-003, 0., 2.91545200e-003, 0., 0.,
          0., 0., 0., 0., 0., 0., 0., 0., 0., 0., 0., 0., 0., 0., 0., 0.,
          8.74635577e-003, 0., 0., 0., 0., 0., 5.83090400e-003, 0., 0.,
          0., 0., 5.83090400e-003, 0., 0., 2.91545200e-003, 0., 0., 0.,
          0., 0., 0., 0., 0., 0., 0., 2.91545200e-003, 0., 0., 0., 0.,
          2.91545200e-003, 2.91545200e-003, 0., 0., 0., 0.,
          2.91545200e-003, 0., 0., 2.91545200e-003, 2.91545200e-003, 0.,
          0., 0., 0., 2.91545200e-003, 0., 0., 0., 0., 0., 0.,
          2.91545200e-003, 0., 2.91545200e-003, 0., 2.91545200e-003, 0.,
          0., 0., 2.91545200e-003, 0., 0., 0., 0., 0., 0., 0., 0., 0.,
          0., 0., 0., 0., 0., 2.91545200e-003, 0., 5.83090400e-003, 0.,
          0., 5.83090400e-003, 0., 0., 2.91545200e-003, 0., 0., 0., 0.,
          0., 0., 0., 2.91545200e-003, 2.91545200e-003, 2.91545200e-003,
          0., 0., 0., 0., 0., 0., 0., 0., 0., 8.74635577e-003, 0., 0.,
          0., 0., 0., 0., 0., 0., 2.91545200e-003, 0., 0., 0., 0.,
          2.91545200e-003, 0., 1.16618080e-002, 0., 2.91545200e-003, 0.,
          0., 0., 8.74635577e-003, 0., 0., 0., 0., 0., 0.,
          2.91545200e-003, 8.74635577e-003, 0., 0., 0., 0., 0., 0., 0.,
          0., 2.91545200e-003, 2.91545200e-003, 0., 0., 0., 0., 0., 0.,
          0., 2.91545200e-003, 0., 0., 0., 2.91545200e-003, 0., 0., 0.,
          0., 0., 0., 0., 0., 0., 0., 0., 0., 0., 0., 2.91545200e-003,
          0., 0., 2.91545200e-003, 0., 0., 2.91545200e-003,
          2.91545200e-003, 0., 0., 0., 0., 0., 2.91545200e-003,
          2.91545200e-003, 0., 0., 0., 0., 2.91545200e-003, 0., 0., 0.,
          0., 0., 0., 0., 0., 0., 0., 0., 0., 0., 0., 0.,
          5.83090400e-003, 0., 0., 2.91545200e-003, 8.74635577e-003, 0.,
          0., 2.91545200e-003, 2.91545200e-003, 2.91545200e-003,
          2.91545200e-003, 0., 0., 2.91545200e-003, 0., 0., 0., 0., 0.,
          0., 0., 0., 1.74927115e-002, 0., 5.83090400e-003, 0., 0., 0.,
          0., 0., 0., 0., 0., 5.83090400e-003, 0., 0., 0., 0.,
          2.91545200e-003, 0., 0., 0., 2.91545200e-003, 2.91545200e-003,
          0., 0., 2.91545200e-003, 0., 0., 0., 0., 0., 0., 0., 0., 0.,
          0., 0., 0., 0., 0., 2.91545200e-003, 0., 0., 0., 0., 0., 0.,
          0., 0., 2.91545200e-003, 0., 0., 0., 0., 5.83090400e-003, 0.,
          0., 0., 0., 2.91545200e-003, 0., 2.91545200e-003, 0., 0., 0.,
          0., 0., 2.91545200e-003, 0., 2.91545200e-003, 0., 0., 0., 0.,
          2.91545200e-003, 0., 0., 0., 0., 0., 0., 0., 0., 0., 0., 0.,
          0., 0., 0., 0., 0., 0., 0., 0., 0., 2.91545200e-003, 0., 0.,
          0., 0., 0., 0., 2.91545200e-003, 2.91545200e-003, 0., 0., 0.,
          0., 0., 0., 2.91545200e-003, 0., 0., 0., 2.91545200e-003, 0.,
          0., 0., 0., 0., 0., 2.91545200e-003, 2.91545200e-003, 0., 0.,
          0., 0., 2.91545200e-003, 2.91545200e-003, 5.83090400e-003, 0.,
          2.91545200e-003, 0., 0., 0., 0., 0., 5.83090400e-003, 0., 0.,
          0., 0., 1.74927115e-002, 0., 8.74635577e-003, 0., 0., 0., 0.,
          2.91545200e-003, 0., 0., 2.91545200e-003, 0., 0., 0., 0., 0.,
          0., 2.91545200e-003, 0., 0., 0., 0., 1.16618080e-002,
          2.91545200e-003, 0., 0., 0., 0., 0., 0., 0., 0., 0.,
          5.83090400e-003, 0., 0., 0., 2.91545200e-003, 0., 0., 0., 0.,
          0., 0., 0., 2.91545200e-003, 0., 0., 0., 0., 2.91545200e-003,
          0., 0., 0., 0., 0., 5.83090400e-003, 0., 0., 2.91545200e-003,
          0., 0., 0., 0., 0., 0., 2.91545200e-003, 2.91545200e-003, 0.,
          0., 0., 2.91545200e-003, 0., 0., 0., 0., 0., 0.,
          5.83090400e-003, 8.74635577e-003, 0., 2.91545200e-003, 0.,
          5.83090400e-003, 0., 0., 0., 5.83090400e-003, 0., 0., 0.,
          5.83090400e-003, 5.83090400e-003, 0., 2.91545200e-003, 0., 0.,
          0., 0., 2.91545200e-003, 0., 0., 2.91545200e-003, 0., 0., 0.,
          0., 0., 2.91545200e-003, 0., 0., 0., 2.91545200e-003, 0., 0.,
          0., 0., 0., 0., 0., 0., 0., 0., 8.74635577e-003, 0., 0., 0.,
          0., 0., 0., 0., 8.74635577e-003, 0., 2.91545200e-003, 0., 0.,
          0., 0., 2.91545200e-003, 2.91545200e-003, 0., 0., 0., 0.,
          5.83090400e-003, 2.91545200e-003, 0., 0., 2.91545200e-003, 0.,
          0., 0., 0., 0., 0., 0., 0., 0., 2.91545200e-003, 0., 0., 0.,
          0., 2.91545200e-003, 2.91545200e-003, 0., 2.91545200e-003,
          2.91545200e-003, 0., 0., 5.83090400e-003, 0., 0., 0., 0., 0.,
          8.74635577e-003, 2.91545200e-003, 2.91545200e-003,
          2.91545200e-003, 0., 0., 0., 0., 0., 2.91545200e-003, 0., 0.,
          0., 0., 0., 0., 5.83090400e-003, 0., 0., 0., 5.83090400e-003,
          1.16618080e-002, 0., 0., 0., 2.91545200e-003, 0., 0., 0., 0.,
          2.91545200e-003, 0., 0., 0., 0., 0., 2.91545200e-003, 0., 0.,
          0., 0., 0., 5.83090400e-003, 0., 0., 0., 0., 0., 0., 0.,
          2.91545200e-003, 2.91545200e-003, 0., 0., 0., 0., 0., 0., 0.,
          2.91545200e-003, 0., 0., 0., 0., 1.16618080e-002, 0.,
          2.91545200e-003, 0. ]
      - [ 3.92156886e-003, 0., 7.84313772e-003, 0., 3.92156886e-003, 0.,
          0., 0., 0., 0., 0., 0., 0., 0., 7.84313772e-003, 0., 0., 0.,
          0., 3.92156886e-003, 3.92156886e-003, 7.84313772e-003, 0.,
          7.84313772e-003, 0., 0., 0., 0., 0., 0., 0., 0., 0.,
          3.92156886e-003, 0., 0., 0., 0., 3.92156886e-003,
          7.84313772e-003, 1.17647070e-002, 0., 0., 0., 1.17647070e-002,
          3.92156886e-003, 0., 0., 0., 0., 0., 3.92156886e-003, 0.,
          3.92156886e-003, 0., 0., 3.92156886e-003, 3.92156886e-003, 0.,
          0., 3.92156886e-003, 3.92156886e-003, 0., 0., 1.96078438e-002,
          0., 0., 0., 3.92156886e-003, 0., 0., 0., 0., 3.92156886e-003,
          0., 0., 0., 0., 0., 7.84313772e-003, 3.92156886e-003, 0., 0.,
          3.92156886e-003, 0., 0., 0., 0., 0., 0., 0., 0., 0., 0., 0.,
          0., 0., 0., 0., 0., 0., 3.92156886e-003, 0., 0., 0., 0., 0.,
          7.84313772e-003, 0., 0., 0., 0., 0., 0., 0., 0., 0., 0., 0.,
          0., 0., 0., 0., 0., 0., 0., 0., 0., 0., 3.92156886e-003,
          3.92156886e-003, 1.17647070e-002, 0., 0., 0., 0., 0., 0., 0.,
          0., 0., 0., 0., 0., 3.92156886e-003, 0., 0., 0., 0., 0., 0.,
          0., 0., 0., 3.92156886e-003, 1.17647070e-002, 0.,
          3.92156886e-003, 0., 0., 0., 0., 7.84313772e-003,
          3.92156886e-003, 0., 0., 0., 0., 0., 0., 0., 3.92156886e-003,
          0., 0., 0., 0., 7.84313772e-003, 0., 0., 0., 0.,
          7.84313772e-003, 0., 0., 3.92156886e-003, 0., 0.,
          3.92156886e-003, 0., 0., 0., 0., 3.92156886e-003, 0., 0.,
          7.84313772e-003, 0., 0., 0., 0., 3.92156886e-003, 0.,
          7.84313772e-003, 7.84313772e-003, 0., 0., 0., 0., 0., 0.,
          7.84313772e-003, 0., 0., 1.17647070e-002, 0., 0., 0., 0., 0.,
          0., 0., 0., 1.17647070e-002, 0., 7.84313772e-003, 0., 0., 0.,
          0., 7.84313772e-003, 0., 7.84313772e-003, 0., 0., 0.,
          3.92156886e-003, 3.92156886e-003, 3.92156886e-003, 0., 0., 0.,
          3.92156886e-003, 0., 0., 0., 0., 0., 3.92156886e-003, 0.,
          3.92156886e-003, 0., 0., 3.92156886e-003, 0., 0., 0., 0., 0.,
          0., 0., 0., 0., 0., 0., 0., 3.92156886e-003, 0., 0., 0.,
          3.92156886e-003, 0., 0., 0., 0., 0., 0., 0., 0., 0.,
          3.92156886e-003, 0., 0., 0., 0., 0., 0., 0., 7.84313772e-003,
          0., 0., 0., 0., 1.17647070e-002, 0., 0., 0., 3.92156886e-003,
          0., 3.92156886e-003, 0., 3.92156886e-003, 7.84313772e-003, 0.,
          0., 0., 0., 0., 0., 3.92156886e-003, 0., 0., 0., 0.,
          3.92156886e-003, 0., 3.92156886e-003, 0., 0., 0., 0., 0., 0.,
          0., 0., 0., 0., 0., 0., 0., 0., 0., 0., 7.84313772e-003, 0.,
          3.92156886e-003, 0., 0., 0., 3.92156886e-003, 3.92156886e-003,
          0., 0., 0., 3.92156886e-003, 3.92156886e-003, 0., 0., 0., 0.,
          0., 1.56862754e-002, 3.92156886e-003, 0., 0., 0., 0., 0., 0.,
          0., 0., 0., 0., 0., 0., 0., 0., 0., 3.92156886e-003, 0.,
          3.92156886e-003, 0., 3.92156886e-003, 0., 0., 0., 0.,
          3.92156886e-003, 0., 0., 0., 0., 0., 0., 0., 0., 0., 0., 0.,
          7.84313772e-003, 0., 0., 0., 0., 0., 0., 0., 0., 0., 0.,
          7.84313772e-003, 0., 0., 3.92156886e-003, 0., 0., 0., 0., 0.,
          0., 0., 3.92156886e-003, 0., 0., 0., 0., 0., 3.92156886e-003,
          0., 0., 0., 0., 0., 0., 0., 0., 0., 0., 3.92156886e-003,
          7.84313772e-003, 3.92156886e-003, 0., 0., 0., 0., 0., 0., 0.,
          0., 0., 3.92156886e-003, 0., 0., 0., 0., 0., 0., 0., 0.,
          3.92156886e-003, 0., 0., 0., 3.92156886e-003, 0., 0.,
          3.92156886e-003, 0., 0., 3.92156886e-003, 0., 0., 0., 0., 0.,
          0., 0., 3.92156886e-003, 0., 0., 0., 0., 0., 0., 0., 0.,
          3.92156886e-003, 0., 0., 0., 3.92156886e-003, 0.,
          3.92156886e-003, 0., 7.84313772e-003, 0., 0., 0.,
          3.92156886e-003, 0., 0., 0., 0., 0., 0., 0., 0., 0.,
          3.92156886e-003, 0., 0., 0., 0., 0., 0., 0., 3.92156886e-003,
          0., 3.92156886e-003, 0., 3.92156886e-003, 0., 0., 0.,
          3.92156886e-003, 0., 0., 0., 0., 0., 0., 7.84313772e-003,
          7.84313772e-003, 0., 0., 0., 0., 0., 3.92156886e-003, 0., 0.,
          0., 0., 0., 3.92156886e-003, 0., 0., 0., 0., 0.,
          3.92156886e-003, 0., 0., 0., 0., 0., 0., 0., 0., 0.,
          3.92156886e-003, 0., 0., 0., 0., 0., 0., 3.92156886e-003, 0.,
          0., 0., 0., 3.92156886e-003, 0., 0., 3.92156886e-003, 0.,
          3.92156886e-003, 0., 7.84313772e-003, 0., 0., 0., 0., 0., 0.,
          3.92156886e-003, 0., 0., 0., 0., 0., 0., 0., 0., 0., 0., 0.,
          0., 0., 0., 0., 0., 0., 0., 0., 0., 0., 7.84313772e-003, 0.,
          0., 0., 0., 0., 3.92156886e-003, 0., 0., 3.92156886e-003, 0.,
          3.92156886e-003, 0., 0., 0., 0., 0., 0., 0., 0.,
          3.92156886e-003, 3.92156886e-003, 0., 0., 0., 0., 0., 0., 0.,
          0., 7.84313772e-003, 3.92156886e-003, 0., 0., 0., 0., 0., 0.,
          3.92156886e-003, 3.92156886e-003, 0., 0., 0., 0., 0., 0., 0.,
          3.92156886e-003, 0., 3.92156886e-003, 0., 3.92156886e-003, 0.,
          0., 0., 0., 0., 3.92156886e-003, 0., 0., 0., 0.,
          3.92156886e-003, 0., 0., 0., 0., 3.92156886e-003, 0., 0., 0.,
          7.84313772e-003, 0., 0., 3.92156886e-003, 0., 3.92156886e-003,
          0., 0., 0., 0., 0., 0., 0., 3.92156886e-003, 0.,
          3.92156886e-003, 0., 0., 3.92156886e-003, 0., 0.,
          3.92156886e-003, 0., 0., 0., 0., 0., 0., 0., 0., 0., 0., 0.,
          0., 0., 0., 0., 0., 0., 7.84313772e-003, 0., 0.,
          3.92156886e-003, 0., 0., 0., 0., 0., 3.92156886e-003, 0.,
          3.92156886e-003, 0., 0., 0., 0., 0., 0., 3.92156886e-003, 0.,
          0., 0., 0., 0., 0., 0., 0., 0., 0., 0., 0., 0., 0., 0., 0., 0.,
          0., 0., 0., 0., 0., 0., 3.92156886e-003, 3.92156886e-003, 0.,
          0., 0., 3.92156886e-003, 0., 3.92156886e-003, 0.,
          7.84313772e-003, 0., 0., 0., 0., 0., 0., 0., 7.84313772e-003,
          0., 0., 0., 0., 7.84313772e-003, 0., 3.92156886e-003, 0., 0.,
          0., 0., 0., 0., 3.92156886e-003, 0., 0., 0., 0., 0., 0., 0.,
          0., 0., 3.92156886e-003, 0., 0., 3.92156886e-003, 0., 0., 0.,
          0., 0., 0., 3.92156886e-003, 1.17647070e-002, 3.92156886e-003,
          0., 0., 0., 0., 0., 0., 0., 0., 0., 0., 0., 0., 0., 0., 0., 0.,
          0., 0., 0., 0., 0., 0., 0., 0., 7.84313772e-003, 0.,
          3.92156886e-003, 0., 3.92156886e-003, 0., 0., 3.92156886e-003,
          0., 0., 0., 0., 0., 0., 0., 0., 0., 0., 0., 0.,
          3.92156886e-003, 3.92156886e-003, 0., 0., 0., 0., 0., 0., 0.,
          0., 0., 0., 0., 0., 0., 3.92156886e-003, 0., 3.92156886e-003,
          0., 0., 3.92156886e-003, 0., 0., 0., 0., 0., 0., 0., 0., 0.,
          0., 0., 1.56862754e-002, 0., 0., 0., 0., 0., 0., 0., 0., 0.,
          0., 0., 0., 0., 0., 0., 0., 0., 0., 0., 0., 3.92156886e-003,
          7.84313772e-003, 0., 0., 0., 0., 0., 0., 3.92156886e-003, 0.,
          0., 0., 0., 0., 0., 3.92156886e-003, 3.92156886e-003,
          3.92156886e-003, 0., 0., 0., 0., 0., 0., 0., 0., 0., 0., 0.,
          7.84313772e-003, 0., 0., 0., 0., 0., 0., 0., 0., 0., 0., 0.,
          0., 0., 0., 0., 0., 0., 0., 3.92156886e-003, 0., 0., 0.,
          7.84313772e-003, 0., 0., 0., 0., 1.17647070e-002, 0., 0., 0.,
          0., 0., 0., 0., 0., 0., 0., 0., 3.92156886e-003, 0., 0.,
          3.92156886e-003, 0., 0., 0., 0., 0., 0., 0., 0., 0., 0., 0.,
          3.92156886e-003, 0., 0., 3.92156886e-003, 0., 0., 0., 0., 0.,
          0., 0., 0., 0., 0., 1.17647070e-002, 0. ]
      - [ 0., 0., 1.59362555e-002, 0., 7.96812773e-003, 3.98406386e-003,
          0., 0., 0., 0., 0., 0., 0., 0., 7.96812773e-003, 0.,
          3.98406386e-003, 7.96812773e-003, 0., 7.96812773e-003, 0.,
          3.98406386e-003, 0., 3.98406386e-003, 0., 3.98406386e-003, 0.,
          0., 0., 0., 0., 3.98406386e-003, 3.98406386e-003, 0., 0., 0.,
          0., 0., 0., 3.98406386e-003, 0., 0., 0., 0., 3.98406386e-003,
          0., 0., 0., 0., 0., 0., 0., 3.98406386e-003, 0., 0., 0., 0.,
          3.98406386e-003, 0., 3.98406386e-003, 0., 7.96812773e-003,
          3.98406386e-003, 3.98406386e-003, 2.78884470e-002,
          7.96812773e-003, 0., 0., 3.98406386e-003, 0., 0., 0.,
          3.98406386e-003, 7.96812773e-003, 0., 0., 0., 0., 0., 0., 0.,
          0., 7.96812773e-003, 0., 0., 0., 7.96812773e-003,
          3.98406386e-003, 0., 0., 0., 0., 7.96812773e-003, 0., 0., 0.,
          0., 3.98406386e-003, 0., 3.98406386e-003, 0., 7.96812773e-003,
          0., 3.98406386e-003, 0., 0., 0., 0., 0., 0., 0., 0., 0., 0.,
          0., 0., 0., 0., 0., 0., 3.98406386e-003, 0., 0., 0., 0., 0.,
          0., 0., 0., 7.96812773e-003, 0., 0., 0., 3.98406386e-003,
          3.98406386e-003, 0., 0., 0., 7.96812773e-003, 0., 0., 0.,
          3.98406386e-003, 0., 0., 0., 3.98406386e-003, 3.98406386e-003,
          3.98406386e-003, 0., 0., 0., 7.96812773e-003, 0.,
          3.98406386e-003, 7.96812773e-003, 0., 0., 0., 0., 0., 0., 0.,
          0., 0., 0., 0., 0., 3.98406386e-003, 0., 0., 7.96812773e-003,
          0., 0., 0., 0., 1.19521916e-002, 0., 0., 0., 0., 0.,
          3.98406386e-003, 0., 0., 0., 0., 3.98406386e-003, 0., 0., 0.,
          0., 0., 0., 0., 0., 0., 1.19521916e-002, 0., 0., 0., 0.,
          3.98406386e-003, 0., 0., 0., 0., 0., 0., 0., 0., 0., 0., 0.,
          0., 0., 3.98406386e-003, 7.96812773e-003, 0., 0., 0., 0., 0.,
          0., 3.98406386e-003, 0., 0., 0., 0., 3.98406386e-003, 0.,
          3.98406386e-003, 0., 3.98406386e-003, 0., 0., 0., 0., 0., 0.,
          0., 0., 0., 0., 3.98406386e-003, 0., 0., 0., 0.,
          3.98406386e-003, 0., 0., 3.98406386e-003, 0., 0., 0.,
          3.98406386e-003, 0., 0., 0., 3.98406386e-003, 0., 0.,
          3.98406386e-003, 0., 3.98406386e-003, 0., 0., 0., 0.,
          3.98406386e-003, 0., 0., 0., 0., 0., 0., 0., 0.,
          3.98406386e-003, 0., 0., 0., 0., 0., 0., 0., 0., 0., 0., 0.,
          3.98406386e-003, 0., 0., 3.98406386e-003, 0., 0., 0., 0., 0.,
          3.98406386e-003, 3.98406386e-003, 0., 0., 0., 0., 0., 0., 0.,
          0., 0., 0., 0., 7.96812773e-003, 0., 3.98406386e-003,
          3.98406386e-003, 0., 0., 0., 0., 0., 0., 0., 0., 0., 0., 0.,
          0., 0., 0., 0., 0., 0., 0., 0., 3.98406386e-003, 0., 0., 0.,
          0., 0., 0., 0., 3.98406386e-003, 0., 0., 0., 0., 0., 0., 0.,
          0., 3.98406386e-003, 0., 0., 0., 0., 3.98406386e-003, 0., 0.,
          0., 0., 0., 0., 0., 0., 3.98406386e-003, 0., 7.96812773e-003,
          0., 0., 0., 3.98406386e-003, 0., 0., 0., 0., 0., 0., 0., 0.,
          0., 0., 0., 0., 0., 3.98406386e-003, 0., 0., 0.,
          3.98406386e-003, 0., 0., 0., 0., 0., 0., 0., 3.98406386e-003,
          3.98406386e-003, 0., 0., 0., 0., 3.98406386e-003, 0., 0., 0.,
          0., 0., 0., 0., 0., 0., 3.98406386e-003, 0., 0., 0., 0., 0.,
          7.96812773e-003, 0., 0., 0., 0., 0., 0., 1.59362555e-002, 0.,
          0., 0., 0., 0., 0., 0., 0., 0., 0., 0., 0., 3.98406386e-003,
          0., 0., 0., 0., 0., 0., 0., 3.98406386e-003, 0., 0., 0., 0.,
          0., 0., 0., 0., 3.98406386e-003, 3.98406386e-003, 0., 0., 0.,
          7.96812773e-003, 0., 0., 0., 0., 7.96812773e-003, 0., 0., 0.,
          0., 0., 3.98406386e-003, 0., 3.98406386e-003, 0., 0.,
          3.98406386e-003, 7.96812773e-003, 0., 0., 0., 0., 0., 0.,
          7.96812773e-003, 0., 0., 0., 0., 0., 0., 0., 3.98406386e-003,
          0., 0., 0., 0., 0., 0., 0., 0., 0., 3.98406386e-003, 0.,
          3.98406386e-003, 0., 0., 0., 0., 0., 7.96812773e-003, 0., 0.,
          0., 0., 0., 0., 0., 3.98406386e-003, 0., 0., 0., 0., 0.,
          3.98406386e-003, 0., 0., 3.98406386e-003, 0., 3.98406386e-003,
          0., 0., 0., 0., 0., 0., 3.98406386e-003, 0., 0., 0., 0.,
          3.98406386e-003, 0., 0., 0., 0., 0., 0., 0., 0., 0., 0., 0.,
          0., 0., 0., 0., 0., 0., 0., 0., 0., 7.96812773e-003, 0.,
          3.98406386e-003, 0., 0., 0., 0., 0., 0., 0., 0., 0., 0., 0.,
          0., 0., 0., 0., 0., 0., 3.98406386e-003, 0., 0., 0., 0., 0.,
          0., 0., 3.98406386e-003, 0., 0., 3.98406386e-003, 0., 0., 0.,
          0., 7.96812773e-003, 0., 0., 0., 0., 0., 0., 0., 0., 0., 0.,
          0., 0., 0., 0., 0., 1.19521916e-002, 0., 0., 0., 0., 0., 0.,
          0., 0., 0., 0., 0., 0., 0., 2.39043832e-002, 3.98406386e-003,
          0., 0., 0., 0., 3.98406386e-003, 0., 0., 3.98406386e-003, 0.,
          0., 0., 0., 0., 0., 0., 0., 0., 0., 0., 3.98406386e-003, 0.,
          0., 0., 0., 0., 0., 0., 0., 0., 0., 0., 0., 0.,
          3.98406386e-003, 0., 7.96812773e-003, 0., 0., 3.98406386e-003,
          0., 0., 1.19521916e-002, 0., 0., 0., 0., 0., 0., 0.,
          3.98406386e-003, 3.98406386e-003, 0., 3.98406386e-003, 0., 0.,
          7.96812773e-003, 0., 3.98406386e-003, 0., 0., 0., 0., 0., 0.,
          0., 0., 0., 3.98406386e-003, 0., 0., 0., 0., 0., 0., 0., 0.,
          0., 0., 0., 0., 0., 0., 0., 0., 3.98406386e-003, 0.,
          3.98406386e-003, 0., 0., 0., 0., 1.59362555e-002, 0., 0., 0.,
          0., 0., 0., 7.96812773e-003, 7.96812773e-003, 0., 0., 0.,
          3.98406386e-003, 0., 0., 0., 0., 0., 0., 7.96812773e-003, 0.,
          0., 3.98406386e-003, 0., 0., 0., 0., 0., 3.98406386e-003, 0.,
          0., 0., 0., 0., 3.98406386e-003, 0., 3.98406386e-003, 0., 0.,
          0., 7.96812773e-003, 0., 0., 0., 0., 3.98406386e-003, 0., 0.,
          0., 7.96812773e-003, 0., 0., 0., 0., 3.98406386e-003, 0.,
          3.98406386e-003, 3.98406386e-003, 0., 0., 0., 0., 0., 0., 0.,
          0., 0., 0., 0., 0., 0., 0., 0., 0., 0., 0., 3.98406386e-003,
          7.96812773e-003, 0., 0., 0., 0., 0., 0., 0., 0., 0., 0., 0.,
          0., 0., 3.98406386e-003, 0., 0., 0., 0., 0., 0., 0., 0., 0.,
          0., 0., 0., 0., 1.19521916e-002, 0., 0., 0., 0.,
          7.96812773e-003, 0., 0., 3.98406386e-003, 0., 0., 0., 0., 0.,
          0., 0., 0., 0., 0., 7.96812773e-003, 0., 7.96812773e-003, 0.,
          0., 0., 0., 0., 7.96812773e-003, 0., 7.96812773e-003, 0., 0.,
          0., 0., 0., 3.98406386e-003, 0., 0., 0., 0., 0., 0., 0., 0.,
          0., 0., 7.96812773e-003, 0., 0., 0., 3.98406386e-003, 0., 0.,
          0., 0., 0., 0., 0., 0., 0., 3.98406386e-003, 0., 0.,
          3.98406386e-003, 0., 3.98406386e-003, 0., 0., 0., 0., 0., 0.,
          3.98406386e-003, 0., 0., 0., 0., 0., 0., 0., 0., 0., 0., 0.,
          0., 3.98406386e-003, 3.98406386e-003, 0., 0., 0., 0., 0., 0.,
          0., 0., 0., 3.98406386e-003, 3.98406386e-003, 0., 0., 0., 0.,
          3.98406386e-003, 0., 0., 0., 3.98406386e-003, 0.,
          3.98406386e-003, 0., 0., 0., 0., 0., 0., 0., 0., 0., 0.,
          3.98406386e-003, 0., 0., 0., 0., 0., 0., 0., 0., 0., 0., 0.,
          0., 0., 0., 0., 0., 0., 0., 0., 0., 0., 0., 3.98406386e-003,
          0., 0., 0., 0., 3.98406386e-003, 0., 0., 0., 0., 0.,
          7.96812773e-003, 0., 3.98406386e-003, 0., 0., 0., 0., 0., 0.,
          3.98406386e-003, 0., 0., 0., 0., 0., 0., 0., 0. ]
      - [ 4.14937781e-003, 0., 1.24481339e-002, 0., 8.29875562e-003,
          4.14937781e-003, 0., 0., 0., 0., 0., 0., 0., 0., 0., 0., 0.,
          8.29875562e-003, 0., 2.48962678e-002, 0., 4.14937781e-003, 0.,
          4.14937781e-003, 4.14937781e-003, 4.14937781e-003, 0., 0., 0.,
          0., 0., 0., 4.14937781e-003, 0., 0., 0., 0., 0., 0.,
          8.29875562e-003, 0., 0., 0., 0., 0., 0., 0., 0., 0., 0., 0.,
          0., 4.14937781e-003, 0., 4.14937781e-003, 0., 0.,
          4.14937781e-003, 0., 4.14937781e-003, 0., 4.14937781e-003,
          1.24481339e-002, 8.29875562e-003, 1.65975112e-002, 0., 0.,
          4.14937781e-003, 4.14937781e-003, 0., 4.14937781e-003, 0., 0.,
          8.29875562e-003, 0., 0., 0., 0., 0., 0., 0., 0., 0.,
          4.14937781e-003, 0., 0., 0., 1.24481339e-002, 0.,
          4.14937781e-003, 0., 0., 4.14937781e-003, 0., 0.,
          4.14937781e-003, 0., 0., 0., 8.29875562e-003, 0.,
          4.14937781e-003, 0., 0., 0., 0., 0., 0., 0., 0., 0., 0., 0.,
          1.24481339e-002, 0., 4.14937781e-003, 0., 0., 0., 0.,
          4.14937781e-003, 0., 0., 0., 4.14937781e-003, 4.14937781e-003,
          0., 0., 0., 0., 0., 0., 0., 0., 0., 0., 0., 0.,
          8.29875562e-003, 0., 0., 0., 8.29875562e-003, 0., 0., 0.,
          1.65975112e-002, 4.14937781e-003, 8.29875562e-003, 0., 0., 0.,
          8.29875562e-003, 0., 4.14937781e-003, 1.24481339e-002, 0., 0.,
          0., 0., 0., 0., 0., 0., 4.14937781e-003, 0., 0., 0.,
          4.14937781e-003, 0., 0., 4.14937781e-003, 0., 1.65975112e-002,
          0., 0., 0., 0., 0., 0., 0., 0., 0., 0., 0., 0., 0.,
          8.29875562e-003, 0., 0., 0., 0., 0., 0., 0., 0., 0., 0., 0.,
          0., 8.29875562e-003, 0., 4.14937781e-003, 4.14937781e-003, 0.,
          0., 0., 4.14937781e-003, 0., 0., 0., 0., 0., 0., 0., 0., 0.,
          0., 0., 0., 4.14937781e-003, 0., 4.14937781e-003, 0., 0., 0.,
          0., 0., 0., 4.14937781e-003, 0., 0., 0., 0., 0.,
          4.14937781e-003, 0., 0., 0., 0., 0., 4.14937781e-003, 0., 0.,
          0., 0., 4.14937781e-003, 0., 0., 0., 0., 0., 0., 0., 0., 0.,
          0., 0., 4.14937781e-003, 0., 4.14937781e-003, 0., 0., 0., 0.,
          4.14937781e-003, 4.14937781e-003, 0., 0., 4.14937781e-003, 0.,
          0., 4.14937781e-003, 0., 0., 0., 0., 0., 0., 0., 0., 0., 0.,
          0., 0., 0., 0., 0., 0., 0., 0., 4.14937781e-003, 0., 0.,
          4.14937781e-003, 0., 0., 0., 0., 4.14937781e-003, 0.,
          4.14937781e-003, 0., 0., 0., 0., 0., 0., 4.14937781e-003, 0.,
          0., 0., 0., 0., 0., 0., 0., 0., 0., 0., 4.14937781e-003, 0.,
          4.14937781e-003, 0., 0., 0., 0., 0., 8.29875562e-003,
          4.14937781e-003, 0., 0., 4.14937781e-003, 0., 0., 0.,
          4.14937781e-003, 0., 0., 0., 0., 0., 0., 0., 8.29875562e-003,
          0., 0., 0., 0., 0., 0., 4.14937781e-003, 0., 0., 0., 0., 0.,
          0., 4.14937781e-003, 0., 0., 0., 0., 0., 0., 0., 0.,
          4.14937781e-003, 0., 4.14937781e-003, 0., 0., 4.14937781e-003,
          0., 0., 0., 0., 0., 0., 0., 0., 0., 0., 0., 0., 0.,
          4.14937781e-003, 0., 0., 0., 0., 4.14937781e-003, 0., 0., 0.,
          0., 0., 0., 0., 4.14937781e-003, 4.14937781e-003, 0.,
          4.14937781e-003, 8.29875562e-003, 0., 0., 0., 0., 0., 0., 0.,
          0., 0., 0., 0., 0., 4.14937781e-003, 0., 0., 0., 0., 0., 0.,
          0., 0., 0., 0., 0., 0., 0., 0., 0., 0., 0., 0., 0., 0., 0., 0.,
          0., 0., 0., 0., 0., 0., 0., 0., 0., 0., 4.14937781e-003, 0.,
          0., 0., 0., 0., 0., 0., 0., 4.14937781e-003, 0., 0., 0., 0.,
          4.14937781e-003, 0., 0., 0., 0., 8.29875562e-003, 0., 0.,
          4.14937781e-003, 4.14937781e-003, 0., 0., 0., 0., 0., 0.,
          4.14937781e-003, 8.29875562e-003, 4.14937781e-003, 0.,
          4.14937781e-003, 0., 0., 0., 8.29875562e-003, 0., 0., 0., 0.,
          0., 0., 0., 4.14937781e-003, 0., 0., 0., 4.14937781e-003, 0.,
          0., 0., 0., 0., 0., 0., 8.29875562e-003, 0., 0., 0., 0., 0.,
          4.14937781e-003, 0., 0., 0., 0., 4.14937781e-003, 0., 0.,
          4.14937781e-003, 0., 0., 0., 0., 0., 0., 0., 0., 0., 0.,
          4.14937781e-003, 4.14937781e-003, 0., 0., 0., 0., 0.,
          4.14937781e-003, 0., 0., 0., 0., 4.14937781e-003, 0., 0., 0.,
          0., 0., 0., 0., 0., 0., 0., 0., 0., 0., 4.14937781e-003, 0.,
          0., 4.14937781e-003, 4.14937781e-003, 0., 4.14937781e-003,
          8.29875562e-003, 0., 0., 4.14937781e-003, 0., 0., 0., 0., 0.,
          0., 0., 0., 0., 0., 0., 0., 0., 0., 0., 0., 0.,
          4.14937781e-003, 0., 0., 0., 0., 0., 0., 4.14937781e-003, 0.,
          0., 4.14937781e-003, 0., 0., 0., 0., 4.14937781e-003,
          4.14937781e-003, 0., 0., 0., 4.14937781e-003, 0., 0.,
          4.14937781e-003, 0., 0., 0., 0., 0., 0., 0., 8.29875562e-003,
          0., 0., 0., 0., 0., 0., 0., 0., 0., 0., 0., 0., 0.,
          1.24481339e-002, 4.14937781e-003, 0., 0., 0., 0., 0., 0., 0.,
          0., 0., 0., 0., 0., 0., 0., 0., 0., 0., 0., 0.,
          8.29875562e-003, 4.14937781e-003, 4.14937781e-003, 0., 0., 0.,
          0., 0., 0., 0., 0., 4.14937781e-003, 1.24481339e-002, 0., 0.,
          0., 8.29875562e-003, 0., 0., 4.14937781e-003, 0.,
          4.14937781e-003, 8.29875562e-003, 0., 0., 4.14937781e-003, 0.,
          0., 0., 0., 0., 4.14937781e-003, 0., 0., 4.14937781e-003, 0.,
          8.29875562e-003, 4.14937781e-003, 4.14937781e-003, 0., 0., 0.,
          0., 0., 0., 0., 0., 0., 0., 0., 0., 0., 0., 0., 0., 0., 0., 0.,
          0., 0., 0., 0., 0., 0., 0., 0., 0., 8.29875562e-003, 0., 0.,
          0., 0., 0., 4.14937781e-003, 0., 0., 8.29875562e-003, 0., 0.,
          0., 4.14937781e-003, 0., 0., 0., 4.14937781e-003, 0., 0., 0.,
          0., 0., 0., 8.29875562e-003, 0., 0., 4.14937781e-003, 0., 0.,
          0., 0., 0., 4.14937781e-003, 0., 4.14937781e-003, 0., 0., 0.,
          4.14937781e-003, 0., 0., 0., 0., 0., 0., 0., 0., 0., 0.,
          4.14937781e-003, 0., 0., 0., 4.14937781e-003, 0., 0., 0., 0.,
          0., 0., 0., 0., 0., 0., 0., 0., 1.24481339e-002, 0.,
          4.14937781e-003, 0., 0., 0., 0., 0., 0., 0., 0., 0., 0., 0.,
          0., 4.14937781e-003, 4.14937781e-003, 0., 0., 0., 0., 0., 0.,
          0., 0., 0., 0., 0., 0., 0., 0., 0., 0., 0., 0., 0., 0., 0., 0.,
          8.29875562e-003, 0., 0., 0., 4.14937781e-003, 0., 0., 0., 0.,
          0., 0., 0., 4.14937781e-003, 0., 0., 0., 0., 0., 0., 0., 0.,
          0., 0., 0., 0., 4.14937781e-003, 0., 0., 0., 0., 0.,
          8.29875562e-003, 0., 4.14937781e-003, 0., 0., 0., 0., 0.,
          4.14937781e-003, 0., 0., 0., 0., 0., 0., 0., 0., 0., 0.,
          4.14937781e-003, 0., 0., 0., 4.14937781e-003, 0., 0., 0., 0.,
          8.29875562e-003, 0., 0., 0., 0., 0., 0., 0., 0., 0., 0., 0.,
          0., 0., 0., 0., 4.14937781e-003, 4.14937781e-003, 0., 0., 0.,
          0., 0., 0., 0., 0., 0., 0., 0., 0., 0., 0., 0., 0., 0., 0., 0.,
          0., 0., 0., 0., 0., 0., 0., 0., 0., 0., 0., 0., 0., 0.,
          4.14937781e-003, 0., 4.14937781e-003, 0., 0., 0., 0.,
          4.14937781e-003, 8.29875562e-003, 0., 0., 0., 0.,
          4.14937781e-003, 0., 0., 0., 0., 8.29875562e-003, 0., 0., 0.,
          0., 0., 0., 0., 0., 0., 0., 0., 0., 0., 0., 0., 0., 0., 0., 0.,
          0., 0., 0., 0., 0., 0., 0., 0., 0., 4.14937781e-003, 0., 0.,
          0., 0., 0., 4.14937781e-003, 0., 0., 4.14937781e-003, 0., 0.,
          0., 0., 0., 0., 0., 0. ]
