%YAML:1.0
my_svm: !!opencv-ml-svm
   svm_type: C_SVC
   kernel: { type:RBF, gamma:1. }
   C: 1.
   term_criteria: { epsilon:1.1920928955078125e-007, iterations:1000 }
   var_all: 1000
   var_count: 1000
   class_count: 2
   class_labels: !!opencv-matrix
      rows: 1
      cols: 2
      dt: i
      data: [ 0, 1 ]
   sv_total: 103
   support_vectors:
      - [ 0., 8.84955749e-003, 0., 0., 0., 0., 0., 0., 0., 0., 0., 0.,
          0., 4.42477874e-003, 0., 0., 0., 0., 0., 0., 0., 0.,
          4.42477874e-003, 0., 0., 0., 0., 0., 4.42477874e-003, 0., 0.,
          0., 4.42477874e-003, 8.84955749e-003, 0., 0., 0., 0.,
          8.84955749e-003, 0., 0., 0., 0., 0., 8.84955749e-003, 0., 0.,
          4.42477874e-003, 4.42477874e-003, 0., 0., 4.42477874e-003, 0.,
          0., 0., 4.42477874e-003, 0., 0., 0., 0., 0., 0., 0.,
          1.76991150e-002, 0., 4.42477874e-003, 8.84955749e-003, 0.,
          4.42477874e-003, 0., 0., 1.32743362e-002, 0., 0.,
          8.84955749e-003, 0., 0., 0., 0., 0., 4.42477874e-003, 0., 0.,
          0., 4.42477874e-003, 0., 0., 0., 0., 0., 8.84955749e-003, 0.,
          0., 0., 0., 0., 0., 0., 0., 0., 0., 0., 0., 0., 0., 0.,
          4.42477874e-003, 0., 0., 0., 4.42477874e-003, 0., 0., 0., 0.,
          0., 0., 1.32743362e-002, 0., 0., 0., 0., 4.42477874e-003, 0.,
          0., 4.42477874e-003, 0., 0., 4.42477874e-003, 0., 0., 0., 0.,
          0., 0., 0., 4.42477874e-003, 4.42477874e-003, 0., 0.,
          4.42477874e-003, 4.42477874e-003, 0., 0., 0., 0., 0., 0., 0.,
          0., 0., 8.84955749e-003, 0., 4.42477874e-003, 0., 0.,
          8.84955749e-003, 0., 8.84955749e-003, 0., 0., 0., 0., 0., 0.,
          0., 0., 0., 0., 0., 0., 4.42477874e-003, 8.84955749e-003, 0.,
          0., 0., 4.42477874e-003, 0., 0., 0., 0., 0., 0.,
          4.42477874e-003, 0., 0., 0., 0., 0., 0., 0., 0., 0., 0., 0.,
          4.42477874e-003, 0., 0., 0., 0., 0., 0., 4.42477874e-003,
          4.42477874e-003, 0., 0., 0., 0., 0., 0., 0., 4.42477874e-003,
          0., 0., 0., 0., 0., 0., 0., 0., 0., 0., 0., 0.,
          8.84955749e-003, 0., 0., 0., 0., 0., 4.42477874e-003, 0., 0.,
          0., 0., 0., 0., 0., 0., 0., 0., 0., 0., 0., 0., 0., 0., 0., 0.,
          0., 0., 0., 0., 0., 1.76991150e-002, 0., 0., 0., 0., 0., 0.,
          0., 0., 4.42477874e-003, 0., 0., 0., 0., 0., 0., 0., 0., 0.,
          0., 0., 0., 0., 0., 0., 4.42477874e-003, 0., 0.,
          4.42477874e-003, 4.42477874e-003, 4.42477874e-003, 0., 0., 0.,
          0., 8.84955749e-003, 0., 0., 4.42477874e-003, 4.42477874e-003,
          0., 0., 1.76991150e-002, 4.42477874e-003, 4.42477874e-003, 0.,
          0., 0., 0., 0., 0., 0., 0., 0., 4.42477874e-003,
          4.42477874e-003, 0., 0., 0., 4.42477874e-003, 0., 0., 0., 0.,
          0., 0., 0., 0., 0., 0., 0., 0., 0., 4.42477874e-003, 0., 0.,
          0., 0., 4.42477874e-003, 0., 0., 0., 0., 0., 0., 0., 0., 0.,
          0., 0., 0., 0., 4.42477874e-003, 0., 0., 0., 0., 0., 0., 0.,
          0., 0., 0., 0., 0., 4.42477874e-003, 0., 0., 4.42477874e-003,
          0., 0., 8.84955749e-003, 4.42477874e-003, 4.42477874e-003, 0.,
          0., 4.42477874e-003, 0., 0., 0., 0., 0., 0., 0., 0., 0., 0.,
          0., 0., 8.84955749e-003, 0., 0., 0., 0., 0., 0., 0., 0., 0.,
          4.42477874e-003, 0., 1.32743362e-002, 8.84955749e-003, 0., 0.,
          4.42477874e-003, 0., 0., 0., 0., 0., 4.42477874e-003, 0., 0.,
          0., 8.84955749e-003, 0., 0., 0., 0., 0., 0., 0.,
          4.42477874e-003, 0., 0., 4.42477874e-003, 0., 0.,
          4.42477874e-003, 0., 0., 0., 0., 0., 4.42477874e-003, 0.,
          4.42477874e-003, 4.42477874e-003, 0., 0., 0., 8.84955749e-003,
          0., 0., 0., 4.42477874e-003, 0., 0., 0., 0., 4.42477874e-003,
          0., 1.32743362e-002, 4.42477874e-003, 4.42477874e-003, 0., 0.,
          0., 0., 0., 0., 0., 0., 0., 0., 0., 0., 0., 1.32743362e-002,
          0., 4.42477874e-003, 0., 0., 0., 0., 0., 0., 0., 0., 0., 0.,
          4.42477874e-003, 0., 0., 0., 4.42477874e-003, 0., 0., 0., 0.,
          0., 0., 0., 8.84955749e-003, 0., 4.42477874e-003, 0., 0., 0.,
          0., 0., 0., 0., 0., 0., 0., 0., 0., 4.42477874e-003, 0., 0.,
          0., 4.42477874e-003, 0., 0., 0., 0., 0., 0., 0., 0., 0.,
          4.42477874e-003, 0., 0., 4.42477874e-003, 0., 0., 0., 0., 0.,
          0., 0., 0., 0., 0., 0., 0., 4.42477874e-003, 0.,
          4.42477874e-003, 0., 0., 4.42477874e-003, 0., 0., 0., 0., 0.,
          0., 0., 0., 0., 0., 0., 0., 0., 4.42477874e-003, 0., 0., 0.,
          0., 0., 0., 0., 0., 0., 0., 0., 0., 0., 0., 0., 0.,
          4.42477874e-003, 0., 0., 0., 0., 1.32743362e-002, 0.,
          4.42477874e-003, 0., 0., 4.42477874e-003, 0., 0., 0., 0., 0.,
          0., 0., 0., 0., 0., 0., 0., 0., 0., 4.42477874e-003, 0., 0.,
          0., 0., 0., 0., 0., 0., 0., 0., 0., 0., 0., 0., 0., 0., 0.,
          1.32743362e-002, 0., 0., 0., 0., 4.42477874e-003, 0., 0., 0.,
          0., 4.42477874e-003, 0., 0., 0., 4.42477874e-003, 0., 0., 0.,
          0., 0., 0., 4.42477874e-003, 0., 0., 0., 0., 4.42477874e-003,
          0., 4.42477874e-003, 0., 8.84955749e-003, 0., 8.84955749e-003,
          8.84955749e-003, 0., 0., 0., 4.42477874e-003, 0., 0.,
          4.42477874e-003, 0., 0., 0., 0., 4.42477874e-003,
          4.42477874e-003, 0., 0., 0., 4.42477874e-003, 0., 0., 0., 0.,
          0., 0., 0., 0., 0., 0., 0., 8.84955749e-003, 0., 0., 0., 0.,
          4.42477874e-003, 0., 0., 0., 4.42477874e-003, 0., 0., 0., 0.,
          0., 0., 0., 0., 0., 4.42477874e-003, 0., 4.42477874e-003, 0.,
          4.42477874e-003, 4.42477874e-003, 4.42477874e-003,
          4.42477874e-003, 8.84955749e-003, 0., 0., 0., 0., 0., 0., 0.,
          0., 0., 0., 0., 0., 4.42477874e-003, 0., 0., 0., 0., 0., 0.,
          0., 0., 0., 0., 0., 0., 0., 0., 4.42477874e-003, 0., 0., 0.,
          0., 0., 0., 0., 0., 0., 0., 0., 0., 0., 4.42477874e-003, 0.,
          0., 0., 0., 4.42477874e-003, 0., 0., 4.42477874e-003, 0., 0.,
          0., 0., 0., 0., 0., 0., 0., 4.42477874e-003, 0., 0.,
          8.84955749e-003, 8.84955749e-003, 0., 0., 0., 0., 0., 0., 0.,
          8.84955749e-003, 0., 0., 0., 0., 0., 0., 0., 0., 0., 0., 0.,
          0., 4.42477874e-003, 0., 0., 4.42477874e-003, 0., 0.,
          4.42477874e-003, 0., 0., 0., 0., 0., 0., 0., 0.,
          4.42477874e-003, 4.42477874e-003, 0., 0., 0., 0., 0., 0.,
          8.84955749e-003, 0., 0., 0., 0., 0., 8.84955749e-003, 0., 0.,
          0., 8.84955749e-003, 4.42477874e-003, 0., 0., 0., 0., 0., 0.,
          0., 0., 0., 0., 0., 0., 0., 0., 0., 0., 0., 0., 0.,
          4.42477874e-003, 0., 0., 0., 0., 0., 0., 0., 0., 0.,
          4.42477874e-003, 0., 0., 4.42477874e-003, 0., 0., 0., 0., 0.,
          0., 0., 0., 0., 0., 0., 0., 0., 0., 0., 0., 0., 0., 0., 0., 0.,
          0., 0., 0., 0., 0., 0., 0., 0., 0., 0., 0., 4.42477874e-003,
          0., 0., 0., 0., 0., 0., 0., 0., 0., 0., 0., 0., 0., 0., 0., 0.,
          4.42477874e-003, 0., 0., 0., 4.42477874e-003, 4.42477874e-003,
          0., 0., 0., 0., 0., 0., 0., 0., 0., 0., 0., 0., 0., 0., 0., 0.,
          0., 0., 4.42477874e-003, 8.84955749e-003, 0., 4.42477874e-003,
          0., 0., 4.42477874e-003, 0., 0., 0., 0., 0., 0., 0., 0., 0.,
          0., 0., 4.42477874e-003, 0., 0., 4.42477874e-003, 0., 0.,
          4.42477874e-003, 0., 0., 0., 0., 0., 0., 0., 0., 0., 0.,
          1.32743362e-002, 0., 0., 0., 0., 0., 0., 0., 0., 0., 0., 0.,
          0., 0., 0., 0., 0., 4.42477874e-003, 0., 0., 0., 0., 0., 0.,
          0., 0., 0., 0., 0., 8.84955749e-003, 4.42477874e-003, 0.,
          4.42477874e-003, 0., 0., 0., 0., 0. ]
      - [ 0., 1.02739725e-002, 0., 0., 3.42465751e-003, 0., 0., 0., 0.,
          0., 0., 0., 0., 3.42465751e-003, 0., 3.42465751e-003,
          3.42465751e-003, 0., 0., 3.42465751e-003, 3.42465751e-003, 0.,
          3.42465751e-003, 0., 0., 0., 0., 0., 3.42465751e-003, 0., 0.,
          0., 0., 0., 0., 3.42465751e-003, 0., 0., 1.36986300e-002, 0.,
          0., 3.42465751e-003, 0., 0., 0., 0., 0., 3.42465751e-003, 0.,
          0., 6.84931502e-003, 3.42465751e-003, 0., 6.84931502e-003, 0.,
          3.42465751e-003, 0., 0., 0., 0., 0., 3.42465751e-003, 0.,
          3.42465751e-003, 0., 3.42465751e-003, 0., 0., 6.84931502e-003,
          0., 0., 3.42465751e-003, 3.42465751e-003, 0., 3.42465751e-003,
          3.42465751e-003, 0., 0., 0., 0., 6.84931502e-003, 0.,
          3.42465751e-003, 0., 0., 0., 0., 0., 3.42465751e-003, 0.,
          6.84931502e-003, 0., 0., 0., 0., 0., 0., 0., 0., 0.,
          6.84931502e-003, 0., 0., 0., 3.42465751e-003, 0., 0., 0., 0.,
          0., 0., 0., 0., 0., 0., 3.42465751e-003, 0., 3.42465751e-003,
          0., 0., 0., 3.42465751e-003, 3.42465751e-003, 3.42465751e-003,
          0., 0., 3.42465751e-003, 0., 1.36986300e-002, 0., 0., 0., 0.,
          0., 0., 0., 3.42465751e-003, 0., 0., 0., 3.42465751e-003, 0.,
          3.42465751e-003, 0., 6.84931502e-003, 0., 0., 0., 0.,
          3.42465751e-003, 0., 6.84931502e-003, 0., 3.42465751e-003, 0.,
          0., 0., 3.42465751e-003, 0., 0., 0., 0., 3.42465751e-003, 0.,
          3.42465751e-003, 0., 0., 0., 0., 0., 0., 0., 3.42465751e-003,
          6.84931502e-003, 0., 0., 3.42465751e-003, 0., 0., 0., 0., 0.,
          0., 0., 3.42465751e-003, 0., 0., 0., 0., 0., 0., 0., 0., 0.,
          0., 3.42465751e-003, 0., 0., 0., 0., 0., 0., 1.02739725e-002,
          0., 0., 0., 0., 0., 0., 6.84931502e-003, 0., 0., 0., 0., 0.,
          0., 0., 1.02739725e-002, 0., 0., 3.42465751e-003, 0., 0., 0.,
          6.84931502e-003, 0., 0., 0., 0., 0., 3.42465751e-003, 0., 0.,
          0., 0., 0., 0., 0., 0., 0., 0., 0., 0., 0., 0., 0., 0., 0.,
          1.36986300e-002, 1.02739725e-002, 0., 0., 0., 0.,
          3.42465751e-003, 0., 0., 0., 0., 0., 0., 0., 0.,
          3.42465751e-003, 0., 0., 0., 0., 0., 0., 6.84931502e-003, 0.,
          0., 3.42465751e-003, 3.42465751e-003, 0., 0., 0., 0.,
          3.42465751e-003, 0., 0., 3.42465751e-003, 3.42465751e-003, 0.,
          0., 0., 0., 0., 0., 0., 0., 3.42465751e-003, 0., 0., 0., 0.,
          3.42465751e-003, 3.42465751e-003, 3.42465751e-003,
          3.42465751e-003, 0., 6.84931502e-003, 0., 0., 0., 0., 0., 0.,
          6.84931502e-003, 6.84931502e-003, 0., 0., 3.42465751e-003, 0.,
          0., 0., 0., 6.84931502e-003, 0., 0., 0., 3.42465751e-003, 0.,
          0., 0., 6.84931502e-003, 0., 0., 0., 3.42465751e-003,
          3.42465751e-003, 3.42465751e-003, 0., 0., 0., 0., 0., 0., 0.,
          0., 0., 0., 0., 3.42465751e-003, 0., 6.84931502e-003, 0.,
          3.42465751e-003, 0., 0., 0., 0., 0., 0., 0., 0., 0., 0.,
          3.42465751e-003, 0., 0., 0., 0., 6.84931502e-003, 0.,
          3.42465751e-003, 0., 0., 0., 0., 0., 0., 0., 0., 0., 0., 0.,
          0., 3.42465751e-003, 0., 0., 3.42465751e-003, 0., 0.,
          6.84931502e-003, 0., 0., 0., 0., 0., 0., 0., 0., 0., 0.,
          6.84931502e-003, 0., 6.84931502e-003, 0., 0., 0., 0., 0., 0.,
          6.84931502e-003, 0., 0., 0., 3.42465751e-003, 0., 0.,
          6.84931502e-003, 0., 0., 0., 0., 3.42465751e-003,
          3.42465751e-003, 0., 3.42465751e-003, 0., 0., 3.42465751e-003,
          0., 0., 0., 0., 0., 0., 0., 3.42465751e-003, 0.,
          3.42465751e-003, 0., 0., 6.84931502e-003, 0., 0., 0.,
          3.42465751e-003, 0., 0., 0., 0., 0., 0., 3.42465751e-003, 0.,
          0., 0., 0., 0., 0., 0., 0., 3.42465751e-003, 0., 0., 0., 0.,
          0., 3.42465751e-003, 6.84931502e-003, 0., 0., 0.,
          3.42465751e-003, 0., 0., 0., 0., 0., 0., 0., 0., 0., 0., 0.,
          0., 3.42465751e-003, 0., 0., 0., 3.42465751e-003,
          3.42465751e-003, 0., 0., 3.42465751e-003, 3.42465751e-003, 0.,
          3.42465751e-003, 0., 3.42465751e-003, 0., 0., 0., 0., 0., 0.,
          0., 0., 0., 0., 0., 0., 0., 1.02739725e-002, 0., 0., 0., 0.,
          0., 0., 0., 3.42465751e-003, 3.42465751e-003, 0.,
          6.84931502e-003, 0., 0., 0., 0., 0., 0., 0., 0., 0., 0.,
          3.42465751e-003, 0., 0., 0., 3.42465751e-003, 0., 0.,
          6.84931502e-003, 6.84931502e-003, 0., 3.42465751e-003, 0., 0.,
          0., 0., 0., 0., 0., 0., 3.42465751e-003, 0., 0., 0.,
          3.42465751e-003, 0., 0., 6.84931502e-003, 0., 0., 0., 0., 0.,
          0., 3.42465751e-003, 0., 0., 0., 0., 0., 0., 6.84931502e-003,
          0., 0., 0., 0., 0., 0., 3.42465751e-003, 0., 0., 0.,
          3.42465751e-003, 0., 0., 0., 0., 0., 0., 3.42465751e-003, 0.,
          1.02739725e-002, 0., 0., 0., 0., 6.84931502e-003, 0.,
          3.42465751e-003, 0., 0., 3.42465751e-003, 0., 6.84931502e-003,
          6.84931502e-003, 0., 0., 0., 0., 0., 0., 0., 0., 0.,
          1.02739725e-002, 6.84931502e-003, 3.42465751e-003, 0., 0.,
          3.42465751e-003, 0., 0., 0., 0., 0., 0., 0., 0., 0.,
          6.84931502e-003, 0., 3.42465751e-003, 0., 0., 0., 0.,
          1.02739725e-002, 0., 0., 0., 6.84931502e-003, 0.,
          6.84931502e-003, 0., 3.42465751e-003, 0., 6.84931502e-003, 0.,
          0., 0., 0., 0., 6.84931502e-003, 0., 0., 0., 0., 0., 0.,
          6.84931502e-003, 0., 0., 0., 0., 0., 0., 6.84931502e-003, 0.,
          0., 3.42465751e-003, 0., 0., 0., 0., 0., 0., 3.42465751e-003,
          0., 3.42465751e-003, 0., 0., 0., 0., 0., 0., 3.42465751e-003,
          0., 0., 0., 0., 0., 0., 0., 3.42465751e-003, 0.,
          3.42465751e-003, 3.42465751e-003, 0., 0., 3.42465751e-003, 0.,
          0., 0., 1.02739725e-002, 0., 0., 0., 0., 0., 0., 0., 0.,
          3.42465751e-003, 0., 0., 0., 3.42465751e-003, 0., 0., 0.,
          3.42465751e-003, 0., 0., 0., 0., 0., 0., 0., 0., 0., 0.,
          3.42465751e-003, 0., 0., 0., 0., 0., 0., 0., 0., 0., 0., 0.,
          0., 3.42465751e-003, 3.42465751e-003, 0., 0., 0., 0.,
          3.42465751e-003, 0., 0., 0., 0., 0., 6.84931502e-003, 0.,
          6.84931502e-003, 0., 0., 0., 0., 0., 0., 0., 0., 0., 0.,
          3.42465751e-003, 0., 0., 0., 0., 0., 6.84931502e-003, 0.,
          3.42465751e-003, 3.42465751e-003, 0., 0., 0., 0., 0.,
          6.84931502e-003, 0., 0., 0., 0., 0., 3.42465751e-003,
          3.42465751e-003, 0., 0., 3.42465751e-003, 0., 0., 0., 0., 0.,
          0., 0., 0., 3.42465751e-003, 6.84931502e-003, 0., 0., 0., 0.,
          3.42465751e-003, 0., 3.42465751e-003, 1.02739725e-002, 0., 0.,
          0., 3.42465751e-003, 6.84931502e-003, 0., 0., 0., 0.,
          3.42465751e-003, 0., 0., 0., 0., 0., 0., 0., 0., 0., 0., 0.,
          0., 0., 0., 0., 0., 0., 0., 3.42465751e-003, 3.42465751e-003,
          0., 0., 0., 3.42465751e-003, 6.84931502e-003, 0., 0., 0., 0.,
          0., 0., 0., 0., 0., 0., 0., 0., 3.42465751e-003, 0., 0., 0.,
          0., 0., 0., 0., 0., 0., 0., 0., 3.42465751e-003, 0., 0., 0.,
          0., 0., 0., 0., 3.42465751e-003, 0., 0., 0., 0., 0.,
          3.42465751e-003, 0., 0., 0., 0., 0., 3.42465751e-003,
          3.42465751e-003, 0., 0., 0., 3.42465751e-003, 0., 0., 0., 0.,
          3.42465751e-003, 0., 0., 3.42465751e-003, 0., 0., 0.,
          6.84931502e-003, 0., 3.42465751e-003, 0., 0., 0., 0., 0.,
          3.42465751e-003, 0., 0., 0., 0., 0., 0., 0., 0., 0., 0., 0.,
          0., 0., 0., 3.42465751e-003, 0., 0., 0., 0., 3.42465751e-003,
          0., 0., 0., 0., 0., 3.42465751e-003, 0., 0., 0.,
          3.42465751e-003, 0., 0., 0., 0., 0., 3.42465751e-003, 0., 0.,
          0., 0., 0., 0., 0., 0., 0., 0., 0., 0., 0., 0., 0., 0., 0., 0.,
          0., 0., 0., 0., 0., 0., 3.42465751e-003, 0., 0., 0., 0., 0.,
          0., 0., 0., 0., 0., 0., 0., 0., 0., 6.84931502e-003, 0., 0.,
          0., 0., 0., 0., 0., 0. ]
      - [ 0., 0., 0., 2.53807101e-003, 5.07614203e-003, 0.,
          7.61421304e-003, 0., 0., 0., 0., 0., 0., 0., 0., 0., 0., 0.,
          2.53807101e-003, 0., 1.01522841e-002, 0., 2.53807101e-003,
          7.61421304e-003, 0., 0., 0., 0., 0., 2.53807101e-003, 0.,
          5.07614203e-003, 0., 2.53807101e-003, 0., 0., 0., 0.,
          7.61421304e-003, 0., 0., 0., 0., 0., 0., 0., 0.,
          2.53807101e-003, 2.53807101e-003, 0., 0., 0., 0., 0., 0.,
          2.53807101e-003, 0., 0., 5.07614203e-003, 5.07614203e-003, 0.,
          0., 0., 2.53807101e-003, 2.53807101e-003, 0., 0.,
          5.07614203e-003, 0., 0., 0., 0., 0., 2.53807101e-003,
          5.07614203e-003, 0., 2.53807101e-003, 5.07614203e-003,
          2.53807101e-003, 0., 0., 0., 0., 2.53807101e-003,
          7.61421304e-003, 0., 0., 0., 0., 0., 0., 2.53807101e-003, 0.,
          0., 0., 0., 0., 2.53807101e-003, 0., 1.52284261e-002,
          5.07614203e-003, 0., 0., 0., 5.07614203e-003, 0.,
          2.53807101e-003, 2.53807101e-003, 2.53807101e-003, 0.,
          2.53807101e-003, 0., 0., 2.53807101e-003, 0., 0., 0.,
          2.53807101e-003, 0., 2.53807101e-003, 0., 0., 2.53807101e-003,
          0., 0., 2.53807101e-003, 2.53807101e-003, 2.53807101e-003,
          7.61421304e-003, 0., 0., 0., 0., 0., 0., 0., 0.,
          5.07614203e-003, 2.53807101e-003, 0., 0., 0., 0., 0., 0., 0.,
          0., 0., 2.53807101e-003, 0., 0., 0., 0., 0., 0., 0.,
          5.07614203e-003, 5.07614203e-003, 0., 0., 0., 0., 0., 0.,
          2.53807101e-003, 5.07614203e-003, 0., 0., 0., 0., 0.,
          2.53807101e-003, 5.07614203e-003, 0., 0., 0., 0., 0.,
          2.53807101e-003, 0., 0., 0., 0., 5.07614203e-003, 0., 0., 0.,
          0., 0., 0., 0., 0., 0., 0., 0., 2.53807101e-003, 0.,
          2.53807101e-003, 0., 0., 0., 0., 0., 0., 0., 0., 0., 0.,
          2.53807101e-003, 0., 0., 0., 2.53807101e-003, 0.,
          7.61421304e-003, 0., 0., 0., 0., 0., 0., 2.53807101e-003,
          2.53807101e-003, 0., 2.53807101e-003, 2.53807101e-003,
          2.53807101e-003, 0., 0., 0., 0., 0., 2.53807101e-003, 0., 0.,
          0., 0., 0., 2.53807101e-003, 0., 5.07614203e-003, 0., 0., 0.,
          5.07614203e-003, 0., 0., 0., 0., 0., 5.07614203e-003, 0., 0.,
          2.53807101e-003, 1.01522841e-002, 0., 0., 0., 2.53807101e-003,
          2.53807101e-003, 0., 0., 5.07614203e-003, 0., 0., 0., 0.,
          1.01522841e-002, 0., 0., 0., 0., 0., 0., 0., 0., 0., 0., 0.,
          0., 0., 0., 0., 5.07614203e-003, 0., 1.26903551e-002, 0., 0.,
          0., 0., 2.53807101e-003, 0., 0., 0., 2.53807101e-003,
          2.53807101e-003, 0., 0., 0., 2.53807101e-003, 0., 0., 0.,
          2.53807101e-003, 0., 0., 0., 0., 2.53807101e-003, 0., 0., 0.,
          2.53807101e-003, 2.53807101e-003, 2.53807101e-003, 0., 0.,
          5.07614203e-003, 0., 0., 0., 0., 0., 0., 0., 0.,
          1.26903551e-002, 0., 0., 0., 0., 2.53807101e-003,
          5.07614203e-003, 0., 0., 2.53807101e-003, 0., 2.53807101e-003,
          0., 2.53807101e-003, 0., 0., 0., 5.07614203e-003,
          1.77664980e-002, 0., 5.07614203e-003, 0., 0., 0., 0., 0., 0.,
          0., 0., 0., 0., 0., 0., 0., 5.07614203e-003, 0., 0., 0., 0.,
          0., 5.07614203e-003, 5.07614203e-003, 0., 0., 5.07614203e-003,
          2.53807101e-003, 2.53807101e-003, 0., 0., 0., 0.,
          2.53807101e-003, 0., 0., 2.53807101e-003, 0., 0., 0., 0.,
          7.61421304e-003, 0., 2.53807101e-003, 2.53807101e-003, 0., 0.,
          0., 0., 0., 0., 2.53807101e-003, 0., 2.53807101e-003,
          2.53807101e-003, 0., 0., 0., 0., 0., 0., 0., 0., 0., 0., 0.,
          0., 2.53807101e-003, 0., 2.53807101e-003, 0., 0., 0.,
          5.07614203e-003, 0., 0., 2.53807101e-003, 0., 0., 0.,
          2.53807101e-003, 0., 0., 2.53807101e-003, 0., 0., 0.,
          2.53807101e-003, 2.53807101e-003, 0., 0., 0., 2.53807101e-003,
          0., 0., 0., 0., 5.07614203e-003, 2.53807101e-003, 0., 0.,
          5.07614203e-003, 0., 2.53807101e-003, 0., 0., 0., 0., 0., 0.,
          0., 0., 7.61421304e-003, 0., 2.53807101e-003, 0., 0., 0.,
          5.07614203e-003, 0., 2.53807101e-003, 0., 0., 2.53807101e-003,
          0., 0., 2.53807101e-003, 0., 2.53807101e-003, 0., 0., 0., 0.,
          0., 0., 0., 2.53807101e-003, 0., 0., 0., 0., 1.01522841e-002,
          0., 0., 2.53807101e-003, 0., 0., 0., 2.53807101e-003, 0., 0.,
          2.53807101e-003, 0., 5.07614203e-003, 0., 5.07614203e-003,
          2.53807101e-003, 0., 2.53807101e-003, 0., 0., 0., 0., 0., 0.,
          0., 0., 0., 0., 0., 0., 0., 0., 0., 2.53807101e-003,
          2.53807101e-003, 0., 1.01522841e-002, 2.53807101e-003, 0., 0.,
          0., 0., 0., 0., 0., 0., 0., 0., 2.53807101e-003,
          1.52284261e-002, 2.53807101e-003, 0., 0., 0., 0., 0., 0., 0.,
          0., 0., 2.53807101e-003, 0., 0., 0., 2.53807101e-003, 0., 0.,
          2.53807101e-003, 0., 0., 2.53807101e-003, 0., 0.,
          2.53807101e-003, 0., 0., 0., 2.53807101e-003, 2.53807101e-003,
          0., 2.53807101e-003, 0., 0., 0., 0., 0., 1.01522841e-002, 0.,
          0., 2.53807101e-003, 0., 2.53807101e-003, 0., 0., 0.,
          2.53807101e-003, 0., 0., 0., 0., 2.53807101e-003, 0., 0., 0.,
          0., 0., 2.53807101e-003, 0., 0., 0., 0., 5.07614203e-003, 0.,
          0., 0., 0., 1.01522841e-002, 2.53807101e-003, 0., 0., 0.,
          2.53807101e-003, 0., 0., 0., 0., 0., 5.07614203e-003,
          2.53807101e-003, 0., 0., 0., 0., 0., 0., 0., 2.53807101e-003,
          1.01522841e-002, 0., 0., 0., 2.53807101e-003, 0.,
          5.07614203e-003, 0., 0., 0., 0., 0., 0., 0., 5.07614203e-003,
          5.07614203e-003, 0., 0., 0., 0., 2.53807101e-003, 0., 0.,
          5.07614203e-003, 0., 2.53807101e-003, 0., 0., 0., 0.,
          2.53807101e-003, 0., 0., 0., 0., 0., 2.53807101e-003, 0., 0.,
          0., 0., 0., 0., 5.07614203e-003, 0., 0., 5.07614203e-003, 0.,
          0., 0., 0., 0., 0., 0., 0., 0., 0., 0., 0., 0., 0., 0., 0., 0.,
          0., 0., 0., 0., 0., 0., 0., 2.53807101e-003, 0., 0., 0.,
          2.53807101e-003, 0., 0., 2.53807101e-003, 0., 2.03045681e-002,
          0., 0., 0., 0., 0., 0., 0., 2.53807101e-003, 2.53807101e-003,
          0., 7.61421304e-003, 0., 0., 0., 0., 0., 2.53807101e-003, 0.,
          0., 0., 0., 0., 0., 0., 2.53807101e-003, 0., 0., 0.,
          7.61421304e-003, 2.53807101e-003, 0., 0., 0., 0., 0., 0., 0.,
          2.53807101e-003, 0., 2.53807101e-003, 0., 0., 0., 0., 0., 0.,
          0., 5.07614203e-003, 0., 0., 0., 0., 0., 0., 5.07614203e-003,
          0., 0., 0., 0., 5.07614203e-003, 0., 0., 2.53807101e-003, 0.,
          0., 0., 0., 2.53807101e-003, 0., 0., 0., 2.53807101e-003,
          1.52284261e-002, 0., 0., 0., 0., 7.61421304e-003, 0., 0., 0.,
          0., 0., 0., 0., 0., 0., 0., 0., 2.53807101e-003, 0., 0., 0.,
          0., 2.53807101e-003, 5.07614203e-003, 0., 1.26903551e-002, 0.,
          0., 0., 0., 0., 0., 0., 0., 2.53807101e-003, 0.,
          5.07614203e-003, 0., 0., 0., 0., 5.07614203e-003, 0., 0.,
          2.53807101e-003, 0., 0., 7.61421304e-003, 0., 0., 0., 0.,
          5.07614203e-003, 0., 0., 0., 0., 0., 0., 0., 0., 0.,
          7.61421304e-003, 0., 0., 0., 0., 0., 0., 0., 0., 0., 0., 0.,
          0., 0., 0., 0., 0., 0., 0., 0., 0., 2.53807101e-003,
          2.53807101e-003, 2.53807101e-003, 2.53807101e-003, 0., 0.,
          5.07614203e-003, 0., 0., 0., 0., 0., 0., 0., 0., 0., 0., 0.,
          0., 0., 0., 0., 0., 0., 0., 0., 0., 0., 0., 0., 0., 0., 0., 0.,
          0., 5.07614203e-003, 0., 5.07614203e-003, 0., 0., 0., 0., 0.,
          2.53807101e-003, 2.53807101e-003, 0., 0., 0., 5.07614203e-003,
          0., 0., 0., 7.61421304e-003, 0., 0., 0., 0., 0.,
          2.53807101e-003, 0., 2.53807101e-003, 2.53807101e-003, 0., 0.,
          0., 0., 0., 0., 0., 2.53807101e-003, 0., 0., 0., 0., 0., 0.,
          0., 0., 0., 0., 0., 0., 0., 2.53807101e-003, 0., 0., 0.,
          5.07614203e-003, 0., 1.01522841e-002, 2.53807101e-003, 0., 0.,
          0., 0., 0., 0., 0., 0., 2.53807101e-003, 0., 0., 0., 0., 0.,
          0., 0., 0., 0., 0., 0., 0., 0., 0., 2.53807101e-003, 0., 0.,
          0., 0., 0., 5.07614203e-003, 0., 0., 0., 5.07614203e-003,
          1.01522841e-002, 0., 0., 0., 0., 2.53807101e-003, 0.,
          2.53807101e-003, 0., 0., 0., 5.07614203e-003, 0., 0., 0.,
          2.53807101e-003, 0. ]
      - [ 0., 3.86100379e-003, 0., 0., 7.72200758e-003, 0., 0., 0., 0.,
          0., 0., 0., 0., 3.86100379e-003, 0., 0., 0., 3.86100379e-003,
          0., 0., 0., 0., 0., 0., 3.86100379e-003, 0., 0., 0.,
          3.86100379e-003, 0., 0., 0., 0., 3.86100379e-003,
          3.86100379e-003, 3.86100379e-003, 0., 0., 0., 0., 0., 0., 0.,
          0., 0., 0., 0., 3.86100379e-003, 0., 0., 0., 1.15830116e-002,
          0., 7.72200758e-003, 3.86100379e-003, 0., 0., 3.86100379e-003,
          0., 3.86100379e-003, 3.86100379e-003, 0., 7.72200758e-003,
          7.72200758e-003, 3.86100379e-003, 0., 1.54440152e-002, 0., 0.,
          0., 0., 0., 3.86100379e-003, 0., 7.72200758e-003,
          3.86100379e-003, 0., 0., 0., 0., 3.86100379e-003, 0.,
          3.86100379e-003, 0., 0., 0., 0., 0., 0., 0., 3.86100379e-003,
          0., 0., 0., 0., 0., 0., 0., 0., 3.86100379e-003,
          1.93050187e-002, 0., 0., 0., 3.86100379e-003, 0., 0.,
          3.86100379e-003, 0., 0., 0., 0., 0., 0., 0., 0., 0., 0., 0.,
          0., 0., 0., 3.86100379e-003, 0., 3.86100379e-003,
          3.86100379e-003, 0., 0., 1.15830116e-002, 0., 0., 0., 0.,
          3.86100379e-003, 0., 0., 3.86100379e-003, 0., 0., 0.,
          7.72200758e-003, 3.86100379e-003, 3.86100379e-003, 0., 0., 0.,
          0., 0., 0., 3.86100379e-003, 0., 7.72200758e-003, 0., 0., 0.,
          0., 0., 0., 0., 0., 0., 0., 0., 0., 3.86100379e-003, 0., 0.,
          3.86100379e-003, 0., 0., 0., 0., 3.86100379e-003,
          3.86100379e-003, 0., 0., 3.86100379e-003, 0., 0., 0., 0., 0.,
          0., 3.86100379e-003, 3.86100379e-003, 0., 0., 0., 0., 0.,
          3.86100379e-003, 0., 0., 0., 0., 0., 0., 0., 0., 0., 0., 0.,
          3.86100379e-003, 3.86100379e-003, 3.86100379e-003,
          3.86100379e-003, 0., 0., 0., 7.72200758e-003, 0.,
          3.86100379e-003, 0., 0., 3.86100379e-003, 0., 0., 0., 0., 0.,
          3.86100379e-003, 0., 0., 0., 3.86100379e-003, 3.86100379e-003,
          1.15830116e-002, 0., 0., 0., 3.86100379e-003, 0., 0., 0., 0.,
          0., 0., 0., 0., 0., 3.86100379e-003, 0., 0., 0., 0., 0., 0.,
          0., 0., 3.86100379e-003, 3.86100379e-003, 0., 0., 0., 0., 0.,
          0., 0., 0., 0., 0., 0., 0., 0., 0., 0., 0., 0., 0., 0., 0., 0.,
          0., 0., 0., 0., 0., 0., 0., 3.86100379e-003, 3.86100379e-003,
          0., 3.86100379e-003, 3.86100379e-003, 0., 0., 0., 0., 0.,
          3.86100379e-003, 0., 0., 7.72200758e-003, 0., 0., 0.,
          7.72200758e-003, 3.86100379e-003, 0., 3.86100379e-003, 0., 0.,
          0., 0., 0., 0., 0., 0., 0., 7.72200758e-003, 0., 0., 0.,
          3.86100379e-003, 0., 0., 0., 0., 0., 0., 0., 0., 0.,
          3.86100379e-003, 0., 0., 0., 0., 0., 0., 0., 3.86100379e-003,
          3.86100379e-003, 0., 0., 3.86100379e-003, 0., 0., 0., 0., 0.,
          0., 0., 0., 0., 0., 0., 0., 3.86100379e-003, 3.86100379e-003,
          0., 0., 0., 0., 0., 0., 0., 0., 0., 0., 0., 0.,
          3.86100379e-003, 0., 0., 0., 3.86100379e-003, 0., 0., 0.,
          3.86100379e-003, 0., 0., 0., 0., 3.86100379e-003, 0., 0., 0.,
          0., 0., 0., 3.86100379e-003, 0., 0., 0., 0., 0., 0., 0., 0.,
          0., 0., 0., 0., 1.15830116e-002, 7.72200758e-003, 0., 0., 0.,
          0., 0., 0., 0., 0., 3.86100379e-003, 0., 0., 0.,
          3.86100379e-003, 0., 0., 7.72200758e-003, 0., 0., 0., 0., 0.,
          0., 3.86100379e-003, 3.86100379e-003, 0., 0., 0.,
          3.86100379e-003, 0., 0., 0., 0., 0., 3.86100379e-003,
          3.86100379e-003, 0., 0., 0., 3.86100379e-003, 0., 0., 0., 0.,
          0., 0., 3.86100379e-003, 3.86100379e-003, 0., 0., 0.,
          1.15830116e-002, 0., 0., 0., 0., 0., 0., 0., 0., 0., 0., 0.,
          0., 0., 0., 0., 3.86100379e-003, 0., 0., 0., 7.72200758e-003,
          0., 0., 0., 0., 3.86100379e-003, 3.86100379e-003, 0., 0., 0.,
          0., 0., 0., 3.86100379e-003, 0., 0., 0., 0., 0., 0., 0.,
          3.86100379e-003, 3.86100379e-003, 0., 3.86100379e-003, 0., 0.,
          3.86100379e-003, 0., 0., 0., 0., 7.72200758e-003,
          3.86100379e-003, 0., 3.86100379e-003, 3.86100379e-003, 0., 0.,
          0., 0., 0., 0., 0., 0., 0., 0., 0., 0., 0., 0., 0., 0., 0., 0.,
          0., 0., 0., 0., 0., 0., 0., 0., 3.86100379e-003, 0., 0.,
          3.86100379e-003, 0., 0., 0., 3.86100379e-003, 0., 0., 0., 0.,
          0., 0., 3.86100379e-003, 0., 0., 0., 0., 0., 0., 0.,
          3.86100379e-003, 3.86100379e-003, 0., 3.86100379e-003, 0., 0.,
          0., 0., 0., 0., 3.86100379e-003, 0., 0., 0., 0., 0., 0.,
          7.72200758e-003, 0., 0., 0., 0., 3.86100379e-003, 0., 0., 0.,
          0., 3.86100379e-003, 7.72200758e-003, 0., 0., 0., 0., 0., 0.,
          0., 0., 0., 0., 0., 0., 0., 3.86100379e-003, 0., 0., 0., 0.,
          0., 0., 0., 3.86100379e-003, 0., 0., 0., 0., 0., 0.,
          3.86100379e-003, 0., 0., 0., 3.86100379e-003, 3.86100379e-003,
          0., 0., 3.86100379e-003, 0., 0., 3.86100379e-003, 0.,
          3.86100379e-003, 0., 0., 0., 3.86100379e-003, 0., 0.,
          3.86100379e-003, 0., 0., 0., 0., 7.72200758e-003, 0., 0., 0.,
          7.72200758e-003, 0., 1.15830116e-002, 0., 7.72200758e-003, 0.,
          3.86100379e-003, 0., 3.86100379e-003, 0., 0., 0.,
          3.86100379e-003, 0., 3.86100379e-003, 0., 0., 0., 0., 0., 0.,
          7.72200758e-003, 0., 0., 0., 0., 3.86100379e-003, 0., 0., 0.,
          3.86100379e-003, 3.86100379e-003, 0., 0., 0., 0.,
          3.86100379e-003, 0., 3.86100379e-003, 0., 0., 0., 0., 0., 0.,
          3.86100379e-003, 0., 0., 0., 0., 0., 0., 0., 0., 0.,
          3.86100379e-003, 0., 0., 0., 0., 3.86100379e-003, 0.,
          1.15830116e-002, 7.72200758e-003, 0., 0., 0., 0., 0., 0., 0.,
          0., 0., 0., 0., 3.86100379e-003, 3.86100379e-003, 0., 0., 0.,
          0., 0., 0., 0., 0., 7.72200758e-003, 0., 0., 0., 0., 0., 0.,
          0., 0., 0., 0., 0., 0., 0., 3.86100379e-003, 0., 0.,
          3.86100379e-003, 0., 3.86100379e-003, 3.86100379e-003, 0., 0.,
          0., 0., 7.72200758e-003, 0., 0., 3.86100379e-003, 0., 0.,
          7.72200758e-003, 0., 3.86100379e-003, 3.86100379e-003, 0., 0.,
          0., 0., 0., 0., 3.86100379e-003, 3.86100379e-003, 0.,
          7.72200758e-003, 0., 0., 0., 0., 0., 3.86100379e-003,
          3.86100379e-003, 0., 3.86100379e-003, 0., 0., 0., 0.,
          3.86100379e-003, 0., 3.86100379e-003, 0., 3.86100379e-003,
          3.86100379e-003, 0., 0., 0., 0., 0., 7.72200758e-003, 0., 0.,
          0., 0., 0., 0., 0., 0., 7.72200758e-003, 3.86100379e-003, 0.,
          0., 0., 0., 3.86100379e-003, 0., 3.86100379e-003,
          3.86100379e-003, 0., 0., 0., 0., 3.86100379e-003, 0., 0., 0.,
          3.86100379e-003, 0., 0., 0., 0., 0., 0., 0., 0., 0., 0., 0.,
          3.86100379e-003, 0., 0., 0., 0., 0., 0., 0., 3.86100379e-003,
          3.86100379e-003, 0., 0., 0., 3.86100379e-003, 0., 0., 0., 0.,
          0., 0., 0., 0., 3.86100379e-003, 0., 0., 0., 0., 0.,
          3.86100379e-003, 0., 0., 0., 0., 0., 0., 0., 0., 0.,
          3.86100379e-003, 0., 0., 0., 0., 0., 0., 0., 0., 0., 0.,
          7.72200758e-003, 0., 0., 0., 3.86100379e-003, 0., 0., 0., 0.,
          0., 0., 0., 0., 0., 0., 0., 0., 0., 0., 0., 0., 0., 0., 0., 0.,
          0., 0., 0., 0., 0., 0., 0., 0., 0., 0., 0., 0., 0., 0., 0., 0.,
          0., 0., 0., 0., 0., 0., 0., 3.86100379e-003, 0., 0., 0., 0.,
          0., 7.72200758e-003, 0., 0., 3.86100379e-003, 0., 0., 0., 0.,
          0., 0., 0., 3.86100379e-003, 0., 0., 0., 0., 7.72200758e-003,
          7.72200758e-003, 0., 0., 0., 0., 0., 0., 0., 0., 0., 0.,
          3.86100379e-003, 0., 7.72200758e-003, 0., 0., 0., 0., 0., 0.,
          0., 0., 0., 0., 0., 0., 0., 0., 0., 0., 0., 0., 0., 0., 0.,
          3.86100379e-003, 0., 3.86100379e-003, 0., 0., 3.86100379e-003,
          0., 0., 0., 0., 0., 0., 3.86100379e-003, 0. ]
      - [ 0., 0., 2.75482098e-003, 0., 2.75482098e-003, 0., 0., 0., 0.,
          0., 0., 0., 0., 2.75482098e-003, 0., 0., 0., 0., 0., 0., 0.,
          0., 0., 0., 0., 0., 0., 0., 2.75482098e-003, 0., 0., 0.,
          2.75482098e-003, 5.50964195e-003, 0., 0., 0., 0.,
          1.10192839e-002, 0., 2.75482098e-003, 0., 0., 0.,
          2.75482098e-003, 0., 0., 0., 2.75482098e-003, 0.,
          5.50964195e-003, 5.50964195e-003, 0., 5.50964195e-003, 0., 0.,
          0., 0., 8.26446339e-003, 1.37741044e-002, 0., 2.75482098e-003,
          0., 1.10192839e-002, 0., 0., 0., 5.50964195e-003, 0., 0., 0.,
          5.50964195e-003, 5.50964195e-003, 0., 8.26446339e-003, 0., 0.,
          0., 5.50964195e-003, 0., 0., 0., 0., 0., 0., 0., 0., 0., 0.,
          0., 5.50964195e-003, 2.75482098e-003, 0., 0., 0., 0., 0., 0.,
          0., 2.75482098e-003, 5.50964195e-003, 0., 0., 0.,
          2.75482098e-003, 0., 2.75482098e-003, 2.75482098e-003,
          5.50964195e-003, 0., 0., 5.50964195e-003, 2.75482098e-003, 0.,
          0., 0., 0., 0., 0., 0., 0., 0., 2.75482098e-003, 0.,
          2.75482098e-003, 2.75482098e-003, 2.75482098e-003, 0.,
          2.75482098e-003, 0., 0., 0., 0., 2.75482098e-003, 0.,
          2.75482098e-003, 2.75482098e-003, 0., 0., 0., 0., 0., 0., 0.,
          2.75482098e-003, 0., 0., 0., 2.75482098e-003, 0., 0.,
          8.26446339e-003, 0., 0., 0., 0., 2.75482098e-003, 0., 0., 0.,
          0., 0., 0., 0., 0., 0., 0., 0., 0., 0., 0., 0.,
          2.75482098e-003, 0., 0., 0., 0., 0., 0., 0., 0.,
          2.75482098e-003, 0., 0., 0., 0., 0., 0., 0., 0., 0., 0., 0.,
          0., 0., 2.75482098e-003, 0., 2.75482098e-003, 0.,
          2.75482098e-003, 0., 0., 2.75482098e-003, 0., 0., 0., 0.,
          5.50964195e-003, 0., 5.50964195e-003, 0., 2.75482098e-003, 0.,
          0., 2.75482098e-003, 0., 0., 0., 0., 0., 2.75482098e-003,
          2.75482098e-003, 5.50964195e-003, 0., 5.50964195e-003, 0.,
          2.75482098e-003, 0., 0., 0., 0., 0., 0., 0., 0., 0., 0., 0.,
          0., 0., 2.75482098e-003, 0., 0., 0., 5.50964195e-003, 0., 0.,
          0., 0., 0., 5.50964195e-003, 0., 0., 0., 2.75482098e-003, 0.,
          0., 0., 0., 5.50964195e-003, 0., 0., 0., 2.75482098e-003, 0.,
          0., 0., 0., 0., 0., 0., 0., 0., 0., 0., 0., 0., 0., 0.,
          2.75482098e-003, 0., 0., 2.75482098e-003, 0., 0.,
          8.26446339e-003, 0., 2.75482098e-003, 0., 0., 0.,
          2.75482098e-003, 0., 0., 0., 0., 2.75482098e-003,
          2.75482098e-003, 0., 5.50964195e-003, 2.75482098e-003, 0., 0.,
          2.75482098e-003, 0., 2.75482098e-003, 0., 0., 0.,
          5.50964195e-003, 0., 0., 5.50964195e-003, 2.75482098e-003, 0.,
          0., 2.75482098e-003, 5.50964195e-003, 0., 0., 0., 0., 0., 0.,
          0., 0., 5.50964195e-003, 0., 0., 0., 0., 0., 2.75482098e-003,
          0., 0., 0., 0., 8.26446339e-003, 0., 0., 0., 0., 0.,
          5.50964195e-003, 8.26446339e-003, 0., 5.50964195e-003, 0., 0.,
          0., 0., 0., 0., 0., 0., 0., 0., 0., 0., 0., 0., 0.,
          2.75482098e-003, 0., 0., 0., 2.75482098e-003, 2.75482098e-003,
          0., 0., 2.75482098e-003, 0., 0., 0., 5.50964195e-003, 0., 0.,
          0., 0., 5.50964195e-003, 2.75482098e-003, 5.50964195e-003,
          2.75482098e-003, 0., 0., 0., 0., 0., 0., 0., 0., 0., 0.,
          2.75482098e-003, 0., 5.50964195e-003, 1.10192839e-002, 0., 0.,
          0., 0., 0., 0., 0., 0., 2.75482098e-003, 0., 0., 0.,
          5.50964195e-003, 0., 0., 0., 0., 2.75482098e-003,
          5.50964195e-003, 0., 2.75482098e-003, 0., 0., 0., 0., 0.,
          2.75482098e-003, 5.50964195e-003, 0., 0., 0., 0.,
          5.50964195e-003, 0., 0., 0., 0., 2.75482098e-003,
          2.75482098e-003, 0., 2.75482098e-003, 0., 0., 2.75482098e-003,
          5.50964195e-003, 0., 0., 0., 5.50964195e-003, 0.,
          5.50964195e-003, 0., 0., 2.75482098e-003, 0., 0.,
          2.75482098e-003, 0., 0., 8.26446339e-003, 0., 0., 0., 0., 0.,
          0., 0., 0., 0., 2.75482098e-003, 5.50964195e-003, 0., 0., 0.,
          2.75482098e-003, 0., 0., 0., 0., 2.75482098e-003, 0., 0., 0.,
          0., 2.75482098e-003, 0., 0., 2.75482098e-003, 5.50964195e-003,
          0., 0., 8.26446339e-003, 2.75482098e-003, 0., 2.75482098e-003,
          0., 2.75482098e-003, 0., 0., 0., 0., 0., 0., 2.75482098e-003,
          2.75482098e-003, 0., 0., 0., 0., 5.50964195e-003,
          5.50964195e-003, 0., 0., 0., 0., 0., 0., 0., 2.75482098e-003,
          0., 0., 2.75482098e-003, 0., 2.75482098e-003, 0., 0., 0., 0.,
          0., 0., 0., 0., 0., 2.75482098e-003, 2.75482098e-003, 0.,
          2.75482098e-003, 1.37741044e-002, 0., 0., 2.75482098e-003,
          2.75482098e-003, 0., 0., 0., 0., 0., 0., 0., 2.75482098e-003,
          0., 2.75482098e-003, 0., 0., 2.75482098e-003, 2.75482098e-003,
          2.75482098e-003, 0., 5.50964195e-003, 0., 0., 0., 0., 0., 0.,
          0., 0., 0., 0., 0., 0., 0., 5.50964195e-003, 0., 0., 0., 0.,
          2.75482098e-003, 2.75482098e-003, 0., 0., 0., 2.75482098e-003,
          2.75482098e-003, 0., 0., 0., 0., 0., 2.75482098e-003, 0., 0.,
          0., 0., 0., 0., 0., 0., 0., 0., 0., 0., 0., 0.,
          1.10192839e-002, 0., 0., 0., 0., 0., 0., 0., 0., 0.,
          2.75482098e-003, 5.50964195e-003, 5.50964195e-003,
          2.75482098e-003, 0., 2.75482098e-003, 2.75482098e-003, 0., 0.,
          0., 0., 0., 0., 0., 0., 2.75482098e-003, 5.50964195e-003, 0.,
          0., 0., 0., 0., 0., 2.75482098e-003, 0., 0., 0.,
          8.26446339e-003, 0., 2.75482098e-003, 0., 5.50964195e-003, 0.,
          0., 5.50964195e-003, 0., 0., 0., 0., 0., 0., 2.75482098e-003,
          2.75482098e-003, 0., 2.75482098e-003, 0., 0., 2.75482098e-003,
          2.75482098e-003, 0., 0., 0., 0., 2.75482098e-003, 0., 0., 0.,
          0., 0., 0., 0., 0., 0., 0., 0., 0., 2.75482098e-003, 0., 0.,
          0., 0., 0., 2.75482098e-003, 0., 0., 0., 0., 5.50964195e-003,
          0., 0., 0., 0., 2.75482098e-003, 0., 0., 5.50964195e-003,
          2.75482098e-003, 0., 0., 0., 5.50964195e-003, 1.37741044e-002,
          0., 0., 0., 0., 0., 0., 0., 0., 0., 0., 2.75482098e-003, 0.,
          0., 0., 0., 0., 0., 0., 0., 0., 0., 0., 0., 0., 0., 0.,
          2.75482098e-003, 0., 0., 0., 0., 0., 0., 0., 0.,
          2.75482098e-003, 0., 0., 0., 2.75482098e-003, 2.75482098e-003,
          0., 0., 0., 5.50964195e-003, 2.75482098e-003, 0.,
          2.75482098e-003, 0., 0., 0., 0., 0., 0., 8.26446339e-003, 0.,
          0., 0., 0., 8.26446339e-003, 0., 2.75482098e-003, 0.,
          2.75482098e-003, 0., 0., 2.75482098e-003, 2.75482098e-003, 0.,
          2.75482098e-003, 0., 8.26446339e-003, 1.10192839e-002,
          2.75482098e-003, 2.75482098e-003, 0., 0., 2.75482098e-003, 0.,
          2.75482098e-003, 0., 2.75482098e-003, 0., 0., 0., 0., 0., 0.,
          0., 2.75482098e-003, 5.50964195e-003, 0., 0., 0., 0., 0., 0.,
          0., 5.50964195e-003, 0., 0., 0., 0., 0., 2.75482098e-003, 0.,
          2.75482098e-003, 8.26446339e-003, 2.75482098e-003,
          5.50964195e-003, 0., 0., 0., 0., 0., 0., 2.75482098e-003, 0.,
          0., 0., 0., 2.75482098e-003, 0., 0., 0., 0., 0., 0., 0., 0.,
          0., 0., 0., 0., 0., 0., 0., 2.75482098e-003, 0., 0., 0., 0.,
          0., 0., 0., 2.75482098e-003, 0., 0., 0., 0., 0., 0., 0., 0.,
          0., 0., 2.75482098e-003, 0., 0., 0., 0., 0., 0., 0., 0., 0.,
          0., 0., 0., 0., 0., 0., 0., 0., 0., 0., 0., 0., 0., 0., 0., 0.,
          0., 0., 5.50964195e-003, 0., 0., 0., 0., 0., 0., 0.,
          5.50964195e-003, 0., 0., 0., 0., 2.75482098e-003, 0.,
          5.50964195e-003, 2.75482098e-003, 2.75482098e-003, 0., 0., 0.,
          0., 0., 0., 0., 0., 0., 0., 0., 0., 0., 0., 2.75482098e-003,
          0., 2.75482098e-003, 5.50964195e-003, 0., 0., 0., 0., 0.,
          2.75482098e-003, 0., 0., 0., 0., 0., 0., 2.75482098e-003, 0.,
          0., 0., 0., 0., 0., 0., 0., 0., 0., 0., 2.75482098e-003, 0.,
          0., 0., 5.50964195e-003, 0., 2.75482098e-003, 0.,
          2.75482098e-003, 0., 0., 2.75482098e-003, 0., 2.75482098e-003,
          0., 8.26446339e-003, 0., 0., 0., 0., 0., 0., 0., 0.,
          2.75482098e-003, 2.75482098e-003, 0., 0., 0., 0., 0., 0., 0.,
          0., 0., 0., 1.10192839e-002, 0., 0., 2.75482098e-003, 0., 0.,
          2.75482098e-003, 0., 5.50964195e-003, 0., 0., 2.75482098e-003,
          0., 2.75482098e-003, 0., 5.50964195e-003, 0. ]
      - [ 0., 7.63358781e-003, 0., 0., 0., 0., 0., 0., 0., 0., 0., 0.,
          0., 0., 0., 0., 0., 0., 0., 0., 0., 0., 0., 0., 0., 0., 0., 0.,
          0., 0., 0., 0., 0., 3.81679391e-003, 0., 3.81679391e-003, 0.,
          0., 7.63358781e-003, 0., 0., 0., 3.81679391e-003, 0.,
          7.63358781e-003, 0., 0., 3.81679391e-003, 0., 0.,
          1.14503819e-002, 3.81679391e-003, 0., 0., 0., 0.,
          3.81679391e-003, 0., 0., 3.81679391e-003, 0., 0., 0.,
          1.14503819e-002, 0., 3.81679391e-003, 3.81679391e-003, 0., 0.,
          0., 0., 1.14503819e-002, 0., 0., 7.63358781e-003, 0., 0., 0.,
          0., 0., 0., 0., 3.81679391e-003, 0., 0., 0., 0., 0., 0.,
          3.81679391e-003, 3.81679391e-003, 0., 0., 0., 0., 0., 0., 0.,
          0., 0., 0., 0., 0., 0., 0., 0., 0., 3.81679391e-003,
          3.81679391e-003, 0., 0., 3.81679391e-003, 0., 0., 0., 0., 0.,
          3.81679391e-003, 0., 0., 0., 0., 3.81679391e-003,
          3.81679391e-003, 7.63358781e-003, 7.63358781e-003, 0., 0.,
          1.14503819e-002, 0., 0., 3.81679391e-003, 0., 3.81679391e-003,
          0., 0., 3.81679391e-003, 3.81679391e-003, 7.63358781e-003, 0.,
          0., 0., 3.81679391e-003, 0., 0., 0., 0., 0., 0.,
          3.81679391e-003, 0., 7.63358781e-003, 0., 0., 0., 0., 0., 0.,
          0., 0., 0., 0., 0., 0., 0., 0., 0., 3.81679391e-003, 0., 0.,
          0., 7.63358781e-003, 7.63358781e-003, 0., 0., 0.,
          3.81679391e-003, 0., 0., 0., 0., 0., 3.81679391e-003,
          3.81679391e-003, 0., 0., 0., 0., 0., 0., 0., 0., 0., 0., 0.,
          7.63358781e-003, 0., 0., 0., 0., 0., 0., 3.81679391e-003, 0.,
          3.81679391e-003, 0., 0., 0., 0., 3.81679391e-003, 0.,
          3.81679391e-003, 0., 0., 0., 0., 0., 0., 3.81679391e-003, 0.,
          0., 0., 0., 0., 7.63358781e-003, 0., 7.63358781e-003, 0., 0.,
          0., 3.81679391e-003, 0., 0., 0., 0., 0., 0., 0., 0., 0., 0.,
          0., 0., 0., 0., 0., 0., 0., 0., 0., 0., 0., 0.,
          3.81679391e-003, 3.81679391e-003, 0., 0., 0., 0.,
          3.81679391e-003, 0., 0., 0., 3.81679391e-003, 0., 0., 0., 0.,
          0., 0., 0., 0., 0., 0., 0., 0., 0., 0., 0., 3.81679391e-003,
          0., 0., 3.81679391e-003, 3.81679391e-003, 0., 3.81679391e-003,
          0., 0., 0., 0., 0., 0., 3.81679391e-003, 3.81679391e-003, 0.,
          0., 7.63358781e-003, 7.63358781e-003, 0., 7.63358781e-003, 0.,
          0., 0., 3.81679391e-003, 0., 7.63358781e-003, 0., 0., 0.,
          7.63358781e-003, 0., 0., 3.81679391e-003, 3.81679391e-003, 0.,
          0., 3.81679391e-003, 0., 3.81679391e-003, 0., 0.,
          3.81679391e-003, 0., 0., 0., 0., 0., 0., 0., 0., 0., 0.,
          3.81679391e-003, 0., 0., 0., 0., 0., 0., 0., 0., 0., 0., 0.,
          0., 0., 0., 0., 3.81679391e-003, 0., 0., 0., 0., 0., 0., 0.,
          0., 0., 0., 0., 0., 0., 0., 0., 0., 3.81679391e-003,
          3.81679391e-003, 0., 0., 0., 3.81679391e-003, 0., 0., 0.,
          3.81679391e-003, 0., 0., 0., 0., 0., 0., 0., 3.81679391e-003,
          0., 0., 0., 0., 0., 0., 0., 0., 0., 0., 3.81679391e-003,
          3.81679391e-003, 1.14503819e-002, 7.63358781e-003, 0., 0., 0.,
          0., 0., 0., 0., 0., 3.81679391e-003, 0., 0., 0.,
          7.63358781e-003, 0., 3.81679391e-003, 0., 0., 0., 0., 0., 0.,
          0., 0., 3.81679391e-003, 0., 0., 0., 3.81679391e-003, 0., 0.,
          0., 0., 3.81679391e-003, 0., 3.81679391e-003, 0.,
          3.81679391e-003, 0., 0., 3.81679391e-003, 0., 0., 0., 0., 0.,
          0., 0., 0., 0., 0., 3.81679391e-003, 0., 0., 0., 0., 0., 0.,
          0., 0., 3.81679391e-003, 0., 0., 0., 0., 0., 3.81679391e-003,
          7.63358781e-003, 0., 3.81679391e-003, 0., 3.81679391e-003, 0.,
          0., 0., 0., 0., 0., 0., 0., 0., 0., 0., 0., 3.81679391e-003,
          0., 0., 0., 3.81679391e-003, 0., 0., 0., 3.81679391e-003, 0.,
          0., 0., 0., 0., 0., 0., 0., 3.81679391e-003, 0., 0., 0., 0.,
          0., 0., 0., 0., 0., 3.81679391e-003, 0., 0., 0., 0., 0.,
          3.81679391e-003, 0., 0., 0., 3.81679391e-003, 0., 0., 0., 0.,
          0., 0., 0., 0., 0., 0., 0., 3.81679391e-003, 7.63358781e-003,
          0., 0., 0., 0., 3.81679391e-003, 3.81679391e-003,
          3.81679391e-003, 0., 3.81679391e-003, 0., 0., 0., 0., 0.,
          3.81679391e-003, 0., 0., 0., 0., 0., 0., 3.81679391e-003, 0.,
          0., 1.14503819e-002, 0., 0., 0., 0., 0., 0., 0., 0., 0., 0.,
          0., 0., 0., 7.63358781e-003, 0., 0., 0., 0., 7.63358781e-003,
          0., 3.81679391e-003, 0., 0., 3.81679391e-003, 0., 0., 0., 0.,
          0., 0., 3.81679391e-003, 0., 0., 0., 0., 0., 0.,
          3.81679391e-003, 7.63358781e-003, 0., 0., 0., 0., 0., 0., 0.,
          3.81679391e-003, 0., 0., 3.81679391e-003, 0., 0., 0., 0., 0.,
          0., 1.52671756e-002, 7.63358781e-003, 3.81679391e-003, 0., 0.,
          0., 0., 0., 0., 0., 0., 0., 0., 0., 3.81679391e-003, 0., 0.,
          0., 0., 0., 0., 3.81679391e-003, 7.63358781e-003, 0., 0., 0.,
          7.63358781e-003, 0., 3.81679391e-003, 3.81679391e-003,
          7.63358781e-003, 0., 3.81679391e-003, 3.81679391e-003, 0., 0.,
          0., 0., 0., 0., 3.81679391e-003, 3.81679391e-003, 0., 0., 0.,
          0., 0., 0., 0., 0., 0., 0., 0., 0., 0., 0., 3.81679391e-003,
          0., 0., 0., 0., 0., 3.81679391e-003, 0., 0., 0., 0., 0.,
          3.81679391e-003, 0., 0., 3.81679391e-003, 0., 0., 0., 0., 0.,
          0., 0., 0., 0., 3.81679391e-003, 0., 0., 0., 0., 0.,
          1.90839693e-002, 3.81679391e-003, 7.63358781e-003, 0., 0., 0.,
          0., 0., 0., 0., 0., 0., 0., 0., 3.81679391e-003,
          7.63358781e-003, 0., 0., 0., 0., 0., 0., 0., 0.,
          7.63358781e-003, 0., 0., 0., 0., 0., 0., 0., 0., 0., 0., 0.,
          0., 0., 0., 3.81679391e-003, 0., 3.81679391e-003, 0.,
          3.81679391e-003, 0., 0., 0., 0., 0., 3.81679391e-003, 0., 0.,
          7.63358781e-003, 0., 0., 0., 0., 0., 3.81679391e-003, 0., 0.,
          0., 3.81679391e-003, 3.81679391e-003, 0., 7.63358781e-003, 0.,
          3.81679391e-003, 7.63358781e-003, 0., 0., 0., 0., 0.,
          7.63358781e-003, 0., 0., 0., 0., 0., 0., 3.81679391e-003, 0.,
          0., 0., 0., 0., 3.81679391e-003, 0., 0., 0., 0.,
          3.81679391e-003, 1.52671756e-002, 0., 0., 0., 0., 0.,
          7.63358781e-003, 0., 3.81679391e-003, 7.63358781e-003, 0., 0.,
          0., 0., 0., 0., 0., 3.81679391e-003, 0., 3.81679391e-003, 0.,
          0., 3.81679391e-003, 3.81679391e-003, 0., 0., 0.,
          3.81679391e-003, 0., 0., 0., 0., 0., 0., 0., 0., 0., 0.,
          3.81679391e-003, 0., 0., 0., 0., 0., 0., 0., 0., 0.,
          3.81679391e-003, 0., 0., 0., 3.81679391e-003, 0., 0., 0., 0.,
          7.63358781e-003, 3.81679391e-003, 0., 0., 3.81679391e-003, 0.,
          0., 0., 0., 0., 0., 0., 0., 0., 0., 0., 0., 3.81679391e-003,
          0., 0., 0., 0., 3.81679391e-003, 0., 0., 0., 0., 0., 0., 0.,
          0., 0., 0., 0., 0., 3.81679391e-003, 0., 0., 0., 0., 0., 0.,
          3.81679391e-003, 0., 0., 0., 0., 0., 0., 0., 7.63358781e-003,
          0., 0., 0., 0., 7.63358781e-003, 0., 3.81679391e-003, 0., 0.,
          0., 0., 0., 0., 0., 0., 3.81679391e-003, 0., 0., 0., 0., 0.,
          0., 0., 0., 0., 0., 0., 3.81679391e-003, 7.63358781e-003, 0.,
          3.81679391e-003, 0., 3.81679391e-003, 3.81679391e-003, 0., 0.,
          0., 0., 0., 0., 0., 0., 0., 0., 0., 0., 0., 0., 0., 0., 0.,
          7.63358781e-003, 0., 0., 3.81679391e-003, 3.81679391e-003, 0.,
          0., 0., 0., 0., 0., 3.81679391e-003, 0., 0., 0., 0., 0., 0.,
          0., 0., 0., 0., 0., 0., 0., 0., 0., 0., 3.81679391e-003, 0.,
          0., 0., 0., 0., 0., 0., 0., 0., 0., 0., 0., 0., 0., 0.,
          3.81679391e-003, 0., 0., 0., 0. ]
      - [ 0., 0., 0., 0., 4.01606411e-003, 0., 0., 4.01606411e-003, 0.,
          0., 0., 0., 0., 4.01606411e-003, 4.01606411e-003, 0., 0., 0.,
          0., 0., 0., 0., 4.01606411e-003, 0., 0., 0., 0., 0.,
          8.03212821e-003, 0., 0., 0., 0., 0., 0., 4.01606411e-003, 0.,
          0., 4.01606411e-003, 0., 0., 0., 0., 0., 0., 0., 0.,
          4.01606411e-003, 0., 0., 0., 8.03212821e-003, 0.,
          8.03212821e-003, 0., 8.03212821e-003, 8.03212821e-003, 0., 0.,
          0., 0., 4.01606411e-003, 0., 8.03212821e-003, 0., 0., 0., 0.,
          4.01606411e-003, 0., 4.01606411e-003, 0., 4.01606411e-003, 0.,
          8.03212821e-003, 4.01606411e-003, 0., 0., 0., 0.,
          4.01606411e-003, 0., 0., 0., 8.03212821e-003, 0.,
          4.01606411e-003, 0., 0., 0., 0., 0., 0., 0., 0., 0., 0., 0.,
          0., 0., 0., 0., 0., 0., 4.01606411e-003, 0., 0., 0.,
          4.01606411e-003, 0., 0., 0., 4.01606411e-003, 0., 0.,
          4.01606411e-003, 0., 0., 0., 0., 4.01606411e-003, 0.,
          4.01606411e-003, 0., 0., 4.01606411e-003, 0., 0.,
          1.20481923e-002, 0., 0., 0., 0., 0., 0., 0., 4.01606411e-003,
          0., 0., 0., 0., 0., 4.01606411e-003, 0., 0., 0.,
          4.01606411e-003, 0., 0., 0., 4.01606411e-003, 8.03212821e-003,
          0., 0., 0., 0., 4.01606411e-003, 0., 0., 0., 0., 0., 0., 0.,
          0., 0., 0., 0., 0., 0., 0., 0., 4.01606411e-003,
          8.03212821e-003, 0., 0., 4.01606411e-003, 0., 0., 0., 0., 0.,
          8.03212821e-003, 8.03212821e-003, 4.01606411e-003, 0., 0., 0.,
          0., 0., 0., 0., 4.01606411e-003, 0., 0., 4.01606411e-003, 0.,
          0., 0., 0., 0., 0., 0., 0., 0., 4.01606411e-003, 0., 0., 0.,
          8.03212821e-003, 0., 0., 0., 0., 4.01606411e-003, 0., 0., 0.,
          4.01606411e-003, 0., 4.01606411e-003, 0., 0., 0.,
          8.03212821e-003, 0., 8.03212821e-003, 0., 0., 0.,
          4.01606411e-003, 0., 0., 0., 0., 0., 0., 0., 0., 0.,
          4.01606411e-003, 0., 0., 0., 0., 0., 0., 0., 0.,
          4.01606411e-003, 4.01606411e-003, 0., 0., 0., 0., 0., 0., 0.,
          0., 0., 0., 0., 0., 8.03212821e-003, 0., 0., 0., 0., 0., 0.,
          0., 0., 0., 4.01606411e-003, 4.01606411e-003, 0., 0., 0., 0.,
          4.01606411e-003, 0., 0., 0., 4.01606411e-003, 4.01606411e-003,
          0., 0., 0., 0., 0., 0., 4.01606411e-003, 1.20481923e-002,
          4.01606411e-003, 0., 0., 2.00803205e-002, 0., 0., 0., 0., 0.,
          0., 0., 0., 0., 0., 0., 0., 0., 0., 0., 0., 4.01606411e-003,
          0., 0., 0., 0., 4.01606411e-003, 0., 0., 0., 0., 0., 0., 0.,
          0., 0., 0., 0., 0., 0., 4.01606411e-003, 0., 0., 0., 0., 0.,
          0., 0., 0., 0., 0., 0., 0., 0., 8.03212821e-003, 0.,
          8.03212821e-003, 4.01606411e-003, 0., 0., 0., 0.,
          4.01606411e-003, 0., 0., 0., 0., 4.01606411e-003, 0., 0., 0.,
          0., 0., 0., 4.01606411e-003, 0., 0., 0., 0., 0., 0., 0., 0.,
          0., 0., 0., 0., 0., 0., 0., 4.01606411e-003, 0., 0., 0., 0.,
          0., 0., 0., 0., 0., 0., 4.01606411e-003, 0., 4.01606411e-003,
          1.20481923e-002, 0., 0., 0., 0., 4.01606411e-003, 0., 0.,
          4.01606411e-003, 8.03212821e-003, 0., 0., 0., 4.01606411e-003,
          0., 0., 4.01606411e-003, 0., 0., 0., 0., 4.01606411e-003, 0.,
          0., 4.01606411e-003, 0., 0., 0., 1.60642564e-002, 0.,
          4.01606411e-003, 0., 0., 4.01606411e-003, 0., 0., 0.,
          4.01606411e-003, 0., 4.01606411e-003, 1.60642564e-002,
          4.01606411e-003, 0., 0., 8.03212821e-003, 0., 0., 0., 0., 0.,
          0., 8.03212821e-003, 0., 0., 4.01606411e-003, 0., 0., 0., 0.,
          0., 0., 0., 0., 0., 0., 0., 0., 0., 0., 0., 0., 0., 0., 0., 0.,
          0., 0., 0., 0., 0., 4.01606411e-003, 0., 0., 0.,
          4.01606411e-003, 0., 0., 0., 0., 0., 0., 0., 4.01606411e-003,
          0., 0., 0., 0., 0., 4.01606411e-003, 0., 0., 4.01606411e-003,
          0., 0., 0., 0., 0., 0., 0., 0., 0., 4.01606411e-003, 0., 0.,
          0., 4.01606411e-003, 0., 0., 0., 4.01606411e-003, 0.,
          4.01606411e-003, 0., 0., 0., 0., 0., 0., 0., 0., 0., 0., 0.,
          0., 8.03212821e-003, 0., 0., 4.01606411e-003, 0., 0.,
          8.03212821e-003, 8.03212821e-003, 0., 0., 0., 0., 0., 0., 0.,
          0., 0., 0., 0., 0., 0., 0., 4.01606411e-003, 0., 0., 0., 0.,
          0., 0., 0., 0., 0., 0., 0., 0., 8.03212821e-003, 0., 0., 0.,
          8.03212821e-003, 0., 0., 0., 0., 4.01606411e-003, 0.,
          4.01606411e-003, 0., 0., 0., 0., 0., 0., 0., 0., 0., 0.,
          4.01606411e-003, 0., 0., 0., 0., 0., 4.01606411e-003,
          8.03212821e-003, 4.01606411e-003, 0., 4.01606411e-003, 0.,
          4.01606411e-003, 0., 0., 0., 0., 4.01606411e-003, 0., 0., 0.,
          0., 0., 0., 0., 4.01606411e-003, 8.03212821e-003, 0., 0., 0.,
          0., 0., 0., 0., 0., 0., 0., 4.01606411e-003, 0., 0.,
          4.01606411e-003, 0., 4.01606411e-003, 0., 0., 0., 0.,
          1.20481923e-002, 0., 0., 0., 4.01606411e-003, 0.,
          1.20481923e-002, 0., 0., 0., 4.01606411e-003, 0., 0., 0., 0.,
          0., 8.03212821e-003, 0., 4.01606411e-003, 0., 0., 0., 0.,
          4.01606411e-003, 0., 0., 0., 0., 4.01606411e-003,
          4.01606411e-003, 0., 0., 0., 1.20481923e-002, 0.,
          4.01606411e-003, 0., 0., 0., 0., 4.01606411e-003, 0., 0., 0.,
          0., 0., 0., 0., 0., 4.01606411e-003, 0., 0., 0., 0., 0., 0.,
          0., 0., 0., 0., 8.03212821e-003, 0., 0., 0., 0., 0., 0.,
          4.01606411e-003, 0., 0., 0., 8.03212821e-003, 0., 0., 0., 0.,
          0., 0., 0., 0., 4.01606411e-003, 0., 0., 0., 4.01606411e-003,
          0., 0., 0., 0., 0., 0., 0., 0., 0., 0., 4.01606411e-003, 0.,
          0., 8.03212821e-003, 0., 0., 0., 0., 0., 0., 0.,
          4.01606411e-003, 0., 4.01606411e-003, 4.01606411e-003, 0.,
          4.01606411e-003, 0., 0., 4.01606411e-003, 0., 0.,
          4.01606411e-003, 0., 0., 0., 0., 0., 0., 0., 0., 0., 0., 0.,
          0., 4.01606411e-003, 0., 4.01606411e-003, 4.01606411e-003, 0.,
          0., 0., 0., 0., 1.20481923e-002, 0., 0., 0., 0., 0.,
          4.01606411e-003, 0., 4.01606411e-003, 4.01606411e-003, 0., 0.,
          0., 4.01606411e-003, 0., 0., 0., 0., 0., 4.01606411e-003, 0.,
          0., 0., 0., 0., 0., 0., 0., 8.03212821e-003, 8.03212821e-003,
          0., 0., 0., 0., 0., 0., 4.01606411e-003, 0., 0., 0., 0., 0.,
          8.03212821e-003, 0., 0., 0., 4.01606411e-003, 0., 0., 0., 0.,
          0., 0., 0., 0., 0., 0., 0., 0., 0., 0., 0., 0., 0., 0., 0., 0.,
          0., 0., 0., 0., 4.01606411e-003, 1.20481923e-002, 0., 0., 0.,
          0., 0., 0., 0., 8.03212821e-003, 0., 0., 0., 0., 0., 0., 0.,
          0., 0., 0., 0., 0., 0., 0., 0., 0., 4.01606411e-003, 0., 0.,
          0., 0., 0., 0., 0., 4.01606411e-003, 0., 0., 0., 0., 0., 0.,
          0., 0., 0., 0., 0., 0., 4.01606411e-003, 0., 0., 0.,
          4.01606411e-003, 0., 0., 0., 0., 0., 0., 4.01606411e-003, 0.,
          0., 0., 0., 0., 4.01606411e-003, 0., 0., 0., 0., 0., 0., 0.,
          0., 0., 0., 0., 0., 0., 4.01606411e-003, 0., 0., 0., 0., 0.,
          8.03212821e-003, 0., 4.01606411e-003, 0., 0., 0.,
          8.03212821e-003, 0., 0., 0., 0., 0., 0., 0., 0., 0., 0., 0.,
          0., 0., 0., 4.01606411e-003, 0., 4.01606411e-003, 0., 0., 0.,
          0., 0., 0., 0., 0., 0., 0., 0., 0., 0., 0., 0., 0., 0., 0., 0.,
          0., 0., 0., 0., 0., 4.01606411e-003, 0., 0., 0., 0., 0., 0.,
          0., 0., 0., 0., 0., 4.01606411e-003, 0., 0., 8.03212821e-003,
          0., 0., 0., 0., 0., 0., 0., 0. ]
      - [ 0., 0., 0., 0., 3.58422939e-003, 0., 3.58422939e-003, 0., 0.,
          0., 3.58422939e-003, 0., 0., 3.58422939e-003, 3.58422939e-003,
          3.58422939e-003, 0., 0., 0., 7.16845877e-003, 0., 0.,
          3.58422939e-003, 0., 0., 0., 0., 0., 3.58422939e-003,
          3.58422939e-003, 0., 0., 0., 0., 0., 0., 0., 0.,
          3.58422939e-003, 0., 0., 0., 0., 0., 0., 0., 0.,
          3.58422939e-003, 0., 3.58422939e-003, 1.07526882e-002,
          3.58422939e-003, 0., 1.07526882e-002, 0., 0., 0.,
          3.58422939e-003, 3.58422939e-003, 7.16845877e-003, 0., 0., 0.,
          7.16845877e-003, 0., 0., 7.16845877e-003, 0., 1.07526882e-002,
          0., 3.58422939e-003, 7.16845877e-003, 0., 0., 3.58422939e-003,
          3.58422939e-003, 0., 0., 0., 0., 3.58422939e-003, 0., 0., 0.,
          0., 0., 0., 0., 0., 0., 3.58422939e-003, 0., 0., 0., 0., 0.,
          0., 0., 0., 3.58422939e-003, 7.16845877e-003, 0., 0., 0.,
          3.58422939e-003, 0., 0., 3.58422939e-003, 0., 0., 0., 0., 0.,
          0., 0., 0., 0., 3.58422939e-003, 0., 0., 3.58422939e-003,
          3.58422939e-003, 0., 3.58422939e-003, 0., 0., 0.,
          3.58422939e-003, 7.16845877e-003, 0., 0., 0., 0.,
          3.58422939e-003, 0., 0., 3.58422939e-003, 0., 3.58422939e-003,
          0., 3.58422939e-003, 3.58422939e-003, 3.58422939e-003, 0.,
          7.16845877e-003, 0., 7.16845877e-003, 0., 0., 0., 0.,
          7.16845877e-003, 0., 0., 0., 0., 0., 0., 0., 0., 0., 0., 0.,
          0., 0., 0., 0., 0., 0., 0., 0., 3.58422939e-003,
          3.58422939e-003, 7.16845877e-003, 0., 0., 7.16845877e-003, 0.,
          0., 0., 0., 3.58422939e-003, 0., 0., 7.16845877e-003, 0., 0.,
          0., 0., 0., 0., 0., 0., 0., 0., 0., 0., 0., 0., 0., 0., 0.,
          3.58422939e-003, 0., 0., 3.58422939e-003, 0., 1.07526882e-002,
          0., 1.07526882e-002, 0., 3.58422939e-003, 0., 0.,
          3.58422939e-003, 0., 3.58422939e-003, 0., 0., 0., 0., 0., 0.,
          0., 7.16845877e-003, 0., 0., 0., 3.58422939e-003, 0., 0., 0.,
          0., 0., 0., 0., 0., 0., 0., 0., 0., 0., 0., 3.58422939e-003,
          0., 0., 0., 0., 3.58422939e-003, 7.16845877e-003,
          3.58422939e-003, 0., 0., 0., 0., 0., 0., 0., 0.,
          3.58422939e-003, 0., 0., 0., 0., 0., 0., 0., 0., 0., 0., 0.,
          0., 0., 0., 3.58422939e-003, 0., 0., 0., 0., 3.58422939e-003,
          3.58422939e-003, 0., 0., 0., 0., 0., 0., 3.58422939e-003, 0.,
          3.58422939e-003, 0., 0., 0., 0., 0., 0., 0., 7.16845877e-003,
          0., 7.16845877e-003, 0., 0., 0., 7.16845877e-003, 0., 0., 0.,
          0., 0., 3.58422939e-003, 0., 0., 0., 3.58422939e-003, 0., 0.,
          0., 0., 3.58422939e-003, 0., 0., 0., 0., 0., 0., 0., 0., 0.,
          0., 0., 0., 3.58422939e-003, 3.58422939e-003, 0., 0., 0., 0.,
          0., 0., 0., 0., 0., 0., 0., 0., 0., 1.07526882e-002, 0., 0.,
          0., 0., 0., 0., 0., 0., 0., 0., 0., 0., 3.58422939e-003, 0.,
          0., 0., 0., 0., 0., 1.07526882e-002, 3.58422939e-003, 0., 0.,
          3.58422939e-003, 0., 0., 0., 3.58422939e-003, 3.58422939e-003,
          0., 0., 0., 0., 0., 3.58422939e-003, 0., 0., 0., 0., 0., 0.,
          0., 0., 0., 0., 0., 0., 0., 0., 1.07526882e-002, 0.,
          3.58422939e-003, 0., 0., 3.58422939e-003, 0., 0.,
          3.58422939e-003, 0., 0., 0., 0., 3.58422939e-003, 0., 0.,
          7.16845877e-003, 0., 0., 0., 0., 0., 3.58422939e-003, 0., 0.,
          0., 0., 7.16845877e-003, 0., 0., 0., 3.58422939e-003,
          3.58422939e-003, 3.58422939e-003, 0., 0., 0., 3.58422939e-003,
          0., 0., 0., 0., 0., 0., 3.58422939e-003, 0., 0., 0., 0., 0.,
          0., 1.43369175e-002, 0., 0., 0., 0., 0., 0., 0., 0.,
          3.58422939e-003, 3.58422939e-003, 0., 3.58422939e-003, 0., 0.,
          0., 3.58422939e-003, 0., 0., 0., 0., 0., 0., 0.,
          3.58422939e-003, 0., 0., 0., 0., 0., 0., 0., 0.,
          3.58422939e-003, 0., 0., 0., 0., 0., 0., 0., 3.58422939e-003,
          0., 0., 0., 0., 3.58422939e-003, 0., 0., 0., 3.58422939e-003,
          0., 0., 3.58422939e-003, 3.58422939e-003, 0., 0., 0.,
          3.58422939e-003, 0., 0., 0., 0., 0., 3.58422939e-003, 0., 0.,
          0., 3.58422939e-003, 0., 0., 0., 0., 0., 0., 0., 0., 0., 0.,
          0., 0., 0., 0., 0., 0., 0., 3.58422939e-003, 0., 0.,
          3.58422939e-003, 3.58422939e-003, 0., 0., 0., 0., 0., 0., 0.,
          3.58422939e-003, 0., 0., 0., 0., 0., 0., 3.58422939e-003, 0.,
          0., 0., 0., 0., 0., 0., 0., 0., 3.58422939e-003, 0.,
          3.58422939e-003, 0., 0., 3.58422939e-003, 0., 7.16845877e-003,
          0., 0., 0., 3.58422939e-003, 3.58422939e-003, 0.,
          3.58422939e-003, 0., 0., 0., 0., 0., 0., 0., 0., 0., 0., 0.,
          0., 0., 0., 0., 0., 0., 0., 0., 0., 3.58422939e-003, 0.,
          3.58422939e-003, 0., 0., 3.58422939e-003, 0., 3.58422939e-003,
          0., 3.58422939e-003, 0., 0., 0., 0., 0., 7.16845877e-003,
          7.16845877e-003, 3.58422939e-003, 0., 0., 0., 0., 0., 0., 0.,
          0., 0., 0., 0., 0., 3.58422939e-003, 0., 3.58422939e-003, 0.,
          0., 0., 7.16845877e-003, 7.16845877e-003, 0., 0., 0.,
          3.58422939e-003, 0., 0., 0., 0., 0., 1.07526882e-002,
          3.58422939e-003, 0., 0., 0., 0., 7.16845877e-003, 0.,
          7.16845877e-003, 0., 0., 0., 0., 0., 0., 0., 0., 0., 0., 0.,
          0., 0., 0., 7.16845877e-003, 3.58422939e-003, 0., 0., 0., 0.,
          0., 0., 0., 3.58422939e-003, 3.58422939e-003, 0., 0., 0., 0.,
          0., 3.58422939e-003, 0., 0., 0., 3.58422939e-003, 0.,
          3.58422939e-003, 0., 0., 0., 3.58422939e-003, 0., 0., 0.,
          7.16845877e-003, 3.58422939e-003, 3.58422939e-003, 0.,
          7.16845877e-003, 0., 0., 0., 3.58422939e-003, 3.58422939e-003,
          0., 0., 0., 0., 0., 0., 1.79211460e-002, 0., 0., 0., 0., 0.,
          0., 0., 0., 0., 3.58422939e-003, 0., 0., 3.58422939e-003, 0.,
          0., 3.58422939e-003, 0., 0., 3.58422939e-003, 3.58422939e-003,
          0., 0., 0., 0., 0., 0., 0., 0., 7.16845877e-003,
          3.58422939e-003, 0., 0., 0., 3.58422939e-003, 0., 0., 0.,
          3.58422939e-003, 3.58422939e-003, 0., 7.16845877e-003, 0.,
          7.16845877e-003, 0., 0., 0., 0., 0., 0., 0., 3.58422939e-003,
          7.16845877e-003, 3.58422939e-003, 3.58422939e-003, 0., 0., 0.,
          0., 0., 3.58422939e-003, 0., 0., 0., 0., 0., 0., 0.,
          7.16845877e-003, 3.58422939e-003, 0., 0., 0., 3.58422939e-003,
          0., 0., 3.58422939e-003, 0., 3.58422939e-003, 0., 0., 0., 0.,
          0., 0., 0., 0., 0., 3.58422939e-003, 0., 0., 0., 0., 0., 0.,
          0., 3.58422939e-003, 0., 0., 0., 0., 3.58422939e-003,
          3.58422939e-003, 0., 0., 0., 0., 3.58422939e-003, 0., 0., 0.,
          0., 0., 0., 0., 0., 0., 0., 0., 7.16845877e-003, 0., 0., 0.,
          0., 0., 0., 3.58422939e-003, 0., 0., 0., 0., 0.,
          1.43369175e-002, 3.58422939e-003, 0., 0., 0., 0., 0., 0.,
          7.16845877e-003, 0., 0., 0., 0., 0., 7.16845877e-003, 0., 0.,
          0., 0., 0., 0., 0., 0., 0., 0., 0., 0., 0., 0., 0., 0., 0., 0.,
          3.58422939e-003, 3.58422939e-003, 0., 3.58422939e-003, 0., 0.,
          0., 0., 0., 0., 0., 0., 0., 0., 0., 0., 0., 0., 0., 0., 0., 0.,
          0., 0., 3.58422939e-003, 0., 0., 0., 0., 3.58422939e-003, 0.,
          0., 0., 0., 0., 0., 0., 0., 0., 0., 0., 0., 0., 0.,
          3.58422939e-003, 0., 0., 0., 0., 3.58422939e-003,
          1.07526882e-002, 0., 1.07526882e-002, 0., 0., 3.58422939e-003,
          0., 0., 0., 0., 0., 0., 0., 0., 0., 0., 0., 0., 0., 0., 0., 0.,
          0., 7.16845877e-003, 0., 0., 0., 0., 0., 0., 0., 0., 0., 0.,
          0., 0., 0., 0., 0., 0., 0., 0., 0., 0., 0., 0., 0., 0., 0., 0.,
          0., 0., 0., 0., 0., 3.58422939e-003, 0., 0., 0., 0.,
          3.58422939e-003, 0., 0., 3.58422939e-003, 0., 0., 0.,
          3.58422939e-003, 0., 0., 0., 0. ]
      - [ 0., 4.01606411e-003, 0., 0., 0., 0., 0., 0., 0.,
          4.01606411e-003, 0., 0., 0., 4.01606411e-003, 0.,
          4.01606411e-003, 0., 0., 0., 0., 0., 0., 8.03212821e-003, 0.,
          0., 0., 0., 0., 0., 0., 0., 0., 4.01606411e-003,
          4.01606411e-003, 0., 0., 0., 0., 4.01606411e-003, 0., 0., 0.,
          0., 0., 0., 0., 0., 4.01606411e-003, 0., 0., 0.,
          4.01606411e-003, 0., 0., 0., 0., 0., 0., 0., 0., 0., 0., 0.,
          4.01606411e-003, 0., 0., 0., 0., 1.60642564e-002, 0., 0.,
          8.03212821e-003, 4.01606411e-003, 0., 8.03212821e-003, 0., 0.,
          0., 0., 0., 0., 0., 4.01606411e-003, 0., 0., 0., 0., 0., 0.,
          0., 4.01606411e-003, 0., 0., 0., 0., 0., 0., 0., 0., 0.,
          1.20481923e-002, 0., 0., 0., 4.01606411e-003, 0., 0., 0., 0.,
          0., 0., 4.01606411e-003, 0., 0., 0., 8.03212821e-003, 0., 0.,
          0., 0., 4.01606411e-003, 0., 8.03212821e-003, 8.03212821e-003,
          0., 0., 0., 0., 8.03212821e-003, 0., 0., 0., 0., 0., 0., 0.,
          4.01606411e-003, 0., 0., 0., 0., 0., 0., 0., 0., 0.,
          4.01606411e-003, 0., 0., 0., 4.01606411e-003, 8.03212821e-003,
          0., 4.01606411e-003, 4.01606411e-003, 0., 0., 4.01606411e-003,
          0., 0., 0., 0., 0., 0., 4.01606411e-003, 0., 0., 0., 0., 0.,
          0., 0., 4.01606411e-003, 8.03212821e-003, 0., 0., 0., 0., 0.,
          0., 0., 0., 0., 0., 0., 0., 0., 0., 4.01606411e-003, 0., 0.,
          0., 0., 0., 0., 0., 0., 4.01606411e-003, 0., 0., 0., 0.,
          4.01606411e-003, 0., 4.01606411e-003, 0., 0., 8.03212821e-003,
          0., 2.00803205e-002, 0., 0., 0., 0., 0., 0., 0., 0., 0., 0.,
          4.01606411e-003, 4.01606411e-003, 0., 0., 4.01606411e-003, 0.,
          0., 0., 0., 0., 4.01606411e-003, 0., 0., 0., 0., 0., 0., 0.,
          0., 0., 0., 0., 0., 0., 0., 0., 0., 0., 0., 4.01606411e-003,
          4.01606411e-003, 0., 0., 0., 0., 0., 0., 0., 0.,
          8.03212821e-003, 0., 0., 0., 0., 0., 0., 0., 0., 0., 0.,
          4.01606411e-003, 0., 0., 0., 4.01606411e-003, 0., 0.,
          4.01606411e-003, 0., 4.01606411e-003, 4.01606411e-003, 0., 0.,
          0., 8.03212821e-003, 0., 0., 0., 0., 0., 0., 4.01606411e-003,
          4.01606411e-003, 0., 0., 0., 4.01606411e-003, 0.,
          4.01606411e-003, 4.01606411e-003, 0., 0., 0., 4.01606411e-003,
          0., 0., 0., 4.01606411e-003, 0., 4.01606411e-003, 0., 0., 0.,
          4.01606411e-003, 0., 0., 0., 0., 4.01606411e-003, 0., 0., 0.,
          0., 4.01606411e-003, 0., 0., 0., 0., 0., 0., 0., 0.,
          4.01606411e-003, 0., 0., 0., 0., 4.01606411e-003, 0., 0., 0.,
          0., 0., 0., 0., 4.01606411e-003, 4.01606411e-003, 0., 0., 0.,
          4.01606411e-003, 0., 0., 0., 0., 0., 0., 0., 0.,
          4.01606411e-003, 0., 0., 0., 0., 0., 4.01606411e-003,
          4.01606411e-003, 0., 0., 0., 0., 0., 0., 0., 4.01606411e-003,
          0., 0., 0., 0., 0., 0., 0., 0., 0., 0., 0., 0., 0., 0., 0., 0.,
          0., 0., 0., 0., 0., 1.60642564e-002, 0., 0., 0., 0.,
          8.03212821e-003, 0., 0., 0., 4.01606411e-003, 0., 0., 0.,
          8.03212821e-003, 0., 0., 8.03212821e-003, 0., 0., 0., 0.,
          4.01606411e-003, 0., 0., 8.03212821e-003, 0., 0., 0., 0., 0.,
          0., 0., 0., 0., 0., 4.01606411e-003, 0., 0., 4.01606411e-003,
          4.01606411e-003, 0., 0., 0., 0., 4.01606411e-003, 0., 0.,
          4.01606411e-003, 0., 0., 0., 8.03212821e-003, 0.,
          4.01606411e-003, 8.03212821e-003, 0., 0., 0., 0., 0., 0.,
          4.01606411e-003, 0., 0., 0., 0., 0., 0., 0., 0., 0.,
          4.01606411e-003, 0., 0., 0., 8.03212821e-003, 0., 0., 0., 0.,
          0., 0., 0., 0., 0., 0., 0., 0., 0., 0., 0., 0.,
          8.03212821e-003, 0., 4.01606411e-003, 0., 0., 4.01606411e-003,
          0., 0., 0., 0., 0., 0., 0., 4.01606411e-003, 0., 0., 0., 0.,
          0., 0., 0., 0., 8.03212821e-003, 0., 0., 0., 0.,
          8.03212821e-003, 0., 0., 4.01606411e-003, 0., 0., 0., 0., 0.,
          0., 0., 0., 0., 0., 0., 4.01606411e-003, 0., 0.,
          4.01606411e-003, 0., 0., 0., 2.00803205e-002, 0., 0., 0., 0.,
          0., 0., 0., 4.01606411e-003, 0., 0., 0., 0., 0., 0.,
          4.01606411e-003, 0., 0., 1.20481923e-002, 0., 0., 0., 0., 0.,
          0., 0., 0., 0., 0., 0., 0., 0., 8.03212821e-003, 0., 0., 0.,
          0., 0., 0., 4.01606411e-003, 0., 4.01606411e-003, 0., 0., 0.,
          0., 0., 0., 0., 4.01606411e-003, 0., 0., 0., 0., 0., 0., 0.,
          8.03212821e-003, 0., 0., 0., 0., 4.01606411e-003, 0., 0., 0.,
          0., 0., 0., 0., 0., 0., 0., 0., 0., 0., 8.03212821e-003,
          4.01606411e-003, 0., 0., 0., 0., 4.01606411e-003, 0., 0.,
          4.01606411e-003, 0., 0., 0., 4.01606411e-003, 4.01606411e-003,
          0., 4.01606411e-003, 0., 0., 0., 0., 1.20481923e-002, 0., 0.,
          0., 8.03212821e-003, 0., 0., 0., 4.01606411e-003, 0.,
          4.01606411e-003, 4.01606411e-003, 8.03212821e-003, 0., 0.,
          4.01606411e-003, 4.01606411e-003, 0., 0., 0., 0., 0., 0.,
          4.01606411e-003, 0., 8.03212821e-003, 0., 0., 4.01606411e-003,
          0., 0., 0., 4.01606411e-003, 0., 0., 0., 0., 0., 0., 0., 0.,
          0., 0., 8.03212821e-003, 0., 4.01606411e-003, 0., 0., 0.,
          4.01606411e-003, 0., 0., 0., 4.01606411e-003, 0.,
          4.01606411e-003, 0., 0., 0., 8.03212821e-003, 8.03212821e-003,
          0., 0., 4.01606411e-003, 0., 2.00803205e-002, 0.,
          8.03212821e-003, 4.01606411e-003, 0., 0., 4.01606411e-003, 0.,
          0., 0., 0., 0., 0., 0., 4.01606411e-003, 4.01606411e-003, 0.,
          0., 0., 0., 0., 0., 0., 0., 0., 0., 0., 0., 0., 0., 0., 0., 0.,
          4.01606411e-003, 0., 0., 0., 0., 0., 0., 0., 4.01606411e-003,
          0., 4.01606411e-003, 4.01606411e-003, 0., 0., 0., 0.,
          4.01606411e-003, 0., 0., 0., 4.01606411e-003, 0., 0., 0.,
          8.03212821e-003, 0., 0., 0., 0., 4.01606411e-003, 0., 0., 0.,
          0., 0., 8.03212821e-003, 0., 0., 0., 0., 0., 8.03212821e-003,
          0., 0., 0., 0., 0., 0., 4.01606411e-003, 8.03212821e-003,
          4.01606411e-003, 0., 0., 0., 4.01606411e-003, 0., 0., 0., 0.,
          0., 8.03212821e-003, 0., 0., 0., 0., 0., 0., 0., 0.,
          4.01606411e-003, 0., 0., 0., 0., 0., 0., 0., 4.01606411e-003,
          0., 0., 0., 0., 0., 0., 0., 0., 0., 0., 0., 0., 0., 0., 0., 0.,
          0., 0., 0., 0., 0., 0., 0., 0., 0., 0., 0., 0., 0.,
          8.03212821e-003, 4.01606411e-003, 0., 0., 0., 0.,
          4.01606411e-003, 0., 0., 0., 4.01606411e-003, 0., 0., 0.,
          4.01606411e-003, 0., 0., 0., 0., 0., 0., 0., 0., 0., 0., 0.,
          0., 0., 0., 0., 0., 0., 0., 0., 0., 0., 0., 0., 0.,
          4.01606411e-003, 0., 8.03212821e-003, 0., 0., 0., 0., 0., 0.,
          0., 0., 0., 0., 0., 0., 0., 0., 0., 0., 4.01606411e-003, 0.,
          0., 4.01606411e-003, 0., 0., 0., 0., 0., 0., 8.03212821e-003,
          0., 0., 0., 0., 0., 0., 0., 0., 0., 0., 0., 0., 0., 0., 0., 0.,
          0., 0., 0., 4.01606411e-003, 8.03212821e-003, 0.,
          4.01606411e-003, 0., 0., 0., 4.01606411e-003, 0., 0., 0., 0.,
          0., 0., 0., 0., 0., 0., 0., 0., 0., 0., 0., 4.01606411e-003,
          8.03212821e-003, 0., 0., 4.01606411e-003, 0., 4.01606411e-003,
          0., 0., 0., 0., 0., 0., 0., 4.01606411e-003, 0., 0., 0., 0.,
          0., 0., 0., 0., 0., 0., 0., 0., 0., 0., 0., 0., 0., 0., 0., 0.,
          0., 0., 0., 0., 0., 0., 8.03212821e-003, 0., 0., 0., 0.,
          4.01606411e-003, 0., 0., 0. ]
      - [ 0., 0., 0., 3.26797389e-003, 0., 0., 9.80392192e-003, 0., 0.,
          0., 0., 0., 0., 0., 0., 0., 0., 0., 0., 3.26797389e-003,
          3.26797389e-003, 0., 0., 0., 0., 0., 0., 0., 3.26797389e-003,
          0., 0., 0., 3.26797389e-003, 3.26797389e-003, 6.53594779e-003,
          0., 0., 0., 9.80392192e-003, 0., 0., 0., 0., 0.,
          3.26797389e-003, 0., 0., 3.26797389e-003, 3.26797389e-003,
          6.53594779e-003, 9.80392192e-003, 3.26797389e-003, 0., 0., 0.,
          3.26797389e-003, 0., 0., 3.26797389e-003, 0., 0., 0., 0.,
          9.80392192e-003, 0., 0., 0., 0., 3.26797389e-003, 0., 0.,
          6.53594779e-003, 0., 0., 6.53594779e-003, 0., 0., 0., 0., 0.,
          3.26797389e-003, 0., 0., 0., 6.53594779e-003, 0., 0., 0., 0.,
          0., 3.26797389e-003, 0., 0., 0., 0., 0., 0., 0., 0.,
          3.26797389e-003, 3.26797389e-003, 0., 0., 0., 6.53594779e-003,
          3.26797389e-003, 0., 0., 0., 0., 3.26797389e-003,
          3.26797389e-003, 0., 0., 0., 3.26797389e-003, 0., 0., 0., 0.,
          0., 0., 0., 0., 3.26797389e-003, 3.26797389e-003, 0., 0., 0.,
          0., 0., 3.26797389e-003, 0., 3.26797389e-003, 0., 0.,
          3.26797389e-003, 0., 0., 0., 0., 0., 0., 0., 0., 0.,
          3.26797389e-003, 0., 3.26797389e-003, 0., 0., 9.80392192e-003,
          0., 3.26797389e-003, 0., 0., 3.26797389e-003, 0., 0., 0., 0.,
          0., 0., 0., 0., 0., 0., 0., 0., 0., 0., 6.53594779e-003,
          9.80392192e-003, 0., 0., 0., 0., 0., 0., 3.26797389e-003, 0.,
          3.26797389e-003, 0., 3.26797389e-003, 0., 0., 0., 0., 0., 0.,
          0., 0., 0., 0., 0., 3.26797389e-003, 0., 0., 0., 0., 0., 0.,
          0., 0., 0., 3.26797389e-003, 3.26797389e-003, 0., 0., 0., 0.,
          0., 0., 0., 0., 0., 0., 0., 3.26797389e-003, 0., 0., 0., 0.,
          0., 6.53594779e-003, 3.26797389e-003, 3.26797389e-003, 0., 0.,
          0., 3.26797389e-003, 0., 0., 0., 0., 0., 0., 0., 0., 0., 0.,
          0., 0., 0., 0., 0., 0., 0., 0., 3.26797389e-003,
          3.26797389e-003, 0., 0., 0., 6.53594779e-003, 0., 0., 0.,
          3.26797389e-003, 3.26797389e-003, 0., 0., 3.26797389e-003,
          3.26797389e-003, 0., 0., 3.26797389e-003, 6.53594779e-003,
          3.26797389e-003, 0., 0., 3.26797389e-003, 0., 0., 0., 0., 0.,
          0., 0., 6.53594779e-003, 3.26797389e-003, 0., 3.26797389e-003,
          6.53594779e-003, 0., 1.30718956e-002, 0., 6.53594779e-003, 0.,
          3.26797389e-003, 0., 0., 9.80392192e-003, 0., 0., 0., 0.,
          3.26797389e-003, 0., 0., 0., 0., 0., 0., 0., 0., 0., 0.,
          3.26797389e-003, 0., 0., 0., 0., 3.26797389e-003, 0., 0., 0.,
          6.53594779e-003, 0., 0., 0., 0., 0., 0., 0., 0., 0., 0., 0.,
          0., 0., 0., 3.26797389e-003, 0., 0., 0., 0., 0., 0., 0., 0.,
          0., 0., 0., 0., 0., 3.26797389e-003, 0., 0., 0., 0., 0.,
          3.26797389e-003, 3.26797389e-003, 0., 0., 0., 0., 0.,
          3.26797389e-003, 0., 0., 0., 0., 0., 0., 3.26797389e-003,
          3.26797389e-003, 0., 0., 6.53594779e-003, 0., 0., 0., 0., 0.,
          0., 3.26797389e-003, 0., 0., 3.26797389e-003, 0., 0., 0., 0.,
          0., 0., 0., 0., 0., 0., 0., 0., 0., 0., 1.30718956e-002,
          6.53594779e-003, 0., 0., 0., 0., 0., 0., 0., 3.26797389e-003,
          3.26797389e-003, 0., 0., 0., 3.26797389e-003, 0., 0.,
          3.26797389e-003, 0., 0., 6.53594779e-003, 0., 0.,
          3.26797389e-003, 3.26797389e-003, 3.26797389e-003, 0., 0., 0.,
          6.53594779e-003, 0., 3.26797389e-003, 0., 0., 6.53594779e-003,
          0., 3.26797389e-003, 3.26797389e-003, 0., 0., 3.26797389e-003,
          6.53594779e-003, 0., 0., 0., 0., 0., 0., 0., 0.,
          3.26797389e-003, 0., 0., 0., 3.26797389e-003, 3.26797389e-003,
          0., 0., 0., 0., 0., 1.63398702e-002, 3.26797389e-003, 0., 0.,
          0., 0., 0., 0., 0., 6.53594779e-003, 0., 0., 0., 0., 0.,
          3.26797389e-003, 6.53594779e-003, 0., 0., 0., 0., 0., 0., 0.,
          3.26797389e-003, 0., 0., 0., 3.26797389e-003, 0., 0., 0.,
          3.26797389e-003, 0., 3.26797389e-003, 0., 0., 3.26797389e-003,
          0., 0., 0., 0., 0., 0., 0., 0., 0., 0., 0., 0., 0.,
          3.26797389e-003, 0., 0., 0., 3.26797389e-003, 0., 0., 0.,
          3.26797389e-003, 0., 3.26797389e-003, 0., 0., 3.26797389e-003,
          0., 0., 0., 0., 0., 0., 0., 0., 1.30718956e-002, 0., 0., 0.,
          3.26797389e-003, 3.26797389e-003, 3.26797389e-003, 0., 0.,
          3.26797389e-003, 0., 0., 0., 0., 0., 0., 6.53594779e-003,
          3.26797389e-003, 0., 0., 0., 0., 0., 0., 0., 0., 0., 0., 0.,
          3.26797389e-003, 0., 0., 0., 0., 9.80392192e-003, 0., 0., 0.,
          3.26797389e-003, 0., 3.26797389e-003, 0., 0., 0., 0.,
          3.26797389e-003, 0., 0., 0., 0., 6.53594779e-003, 0., 0., 0.,
          0., 0., 0., 3.26797389e-003, 3.26797389e-003, 0., 0., 0., 0.,
          0., 0., 3.26797389e-003, 0., 0., 0., 3.26797389e-003, 0., 0.,
          6.53594779e-003, 3.26797389e-003, 0., 0., 0., 0., 0., 0., 0.,
          0., 3.26797389e-003, 1.96078438e-002, 0., 3.26797389e-003, 0.,
          0., 0., 0., 3.26797389e-003, 0., 0., 3.26797389e-003, 0., 0.,
          0., 3.26797389e-003, 0., 0., 3.26797389e-003, 0., 0., 0., 0.,
          3.26797389e-003, 0., 3.26797389e-003, 3.26797389e-003,
          6.53594779e-003, 0., 0., 3.26797389e-003, 6.53594779e-003, 0.,
          3.26797389e-003, 6.53594779e-003, 0., 0., 0., 0., 0., 0.,
          6.53594779e-003, 0., 0., 0., 0., 0., 0., 0., 0., 0.,
          3.26797389e-003, 0., 3.26797389e-003, 0., 0., 0., 0., 0.,
          3.26797389e-003, 0., 0., 0., 0., 0., 0., 0., 0., 0., 0., 0.,
          0., 0., 0., 0., 0., 0., 0., 0., 0., 0., 0., 3.26797389e-003,
          0., 3.26797389e-003, 0., 3.26797389e-003, 3.26797389e-003,
          3.26797389e-003, 3.26797389e-003, 6.53594779e-003,
          3.26797389e-003, 0., 0., 0., 0., 0., 0., 0., 0., 0., 0.,
          1.96078438e-002, 3.26797389e-003, 0., 0., 0., 0.,
          6.53594779e-003, 0., 0., 0., 0., 0., 0., 0., 0., 0., 0., 0.,
          0., 3.26797389e-003, 0., 0., 0., 0., 0., 0., 0.,
          3.26797389e-003, 0., 0., 3.26797389e-003, 0., 0., 0., 0.,
          3.26797389e-003, 0., 3.26797389e-003, 0., 0., 0., 0., 0., 0.,
          9.80392192e-003, 0., 0., 0., 0., 3.26797389e-003, 0.,
          6.53594779e-003, 3.26797389e-003, 0., 0., 0., 0., 0., 0., 0.,
          9.80392192e-003, 0., 6.53594779e-003, 0., 0., 0., 0., 0., 0.,
          0., 0., 0., 0., 3.26797389e-003, 0., 0., 0., 0.,
          6.53594779e-003, 3.26797389e-003, 6.53594779e-003, 0., 0., 0.,
          3.26797389e-003, 0., 0., 0., 0., 0., 0., 0., 0., 0., 0., 0.,
          3.26797389e-003, 0., 3.26797389e-003, 0., 0., 0.,
          3.26797389e-003, 0., 0., 0., 3.26797389e-003, 0., 0., 0.,
          3.26797389e-003, 0., 0., 0., 0., 0., 0., 0., 0., 0., 0., 0.,
          0., 0., 0., 0., 0., 3.26797389e-003, 0., 0., 0., 0., 0., 0.,
          0., 0., 0., 0., 0., 0., 3.26797389e-003, 0., 0., 0.,
          3.26797389e-003, 0., 3.26797389e-003, 0., 0., 0., 0., 0., 0.,
          0., 0., 0., 0., 0., 0., 0., 0., 0., 0., 0., 0., 0.,
          6.53594779e-003, 0., 0., 0., 0., 0., 0., 0., 0., 0., 0., 0.,
          0., 0., 0., 0., 0., 0., 3.26797389e-003, 0., 0.,
          3.26797389e-003, 0., 6.53594779e-003, 0., 6.53594779e-003, 0.,
          1.30718956e-002, 9.80392192e-003, 3.26797389e-003, 0., 0., 0.,
          0., 0., 0., 3.26797389e-003, 0., 0., 0., 0., 0., 0.,
          3.26797389e-003, 0., 0., 0., 0., 0., 0., 0., 0.,
          3.26797389e-003, 0., 0., 9.80392192e-003, 0., 0., 0., 0., 0.,
          0., 0., 0., 0., 0., 6.53594779e-003, 0., 0., 0., 0., 0.,
          3.26797389e-003, 3.26797389e-003, 0., 0., 0., 0., 0., 0., 0.,
          0., 0., 6.53594779e-003, 0., 3.26797389e-003, 0., 0., 0., 0.,
          0., 0., 0., 0., 0., 0., 0., 0., 0., 0., 3.26797389e-003, 0.,
          0., 0., 0., 0., 0., 0., 0., 0., 3.26797389e-003,
          3.26797389e-003, 0., 0., 0., 0., 0., 0., 0., 0., 0. ]
      - [ 0., 0., 0., 0., 7.90513866e-003, 0., 0., 0., 0.,
          3.95256933e-003, 0., 0., 0., 0., 0., 0., 0., 0., 0., 0., 0.,
          0., 3.95256933e-003, 0., 3.95256933e-003, 0., 0., 0., 0., 0.,
          0., 0., 0., 0., 0., 0., 0., 0., 3.95256933e-003, 0., 0., 0.,
          0., 0., 0., 0., 0., 3.95256933e-003, 0., 0., 0.,
          7.90513866e-003, 0., 7.90513866e-003, 0., 0., 0.,
          3.95256933e-003, 0., 0., 0., 0., 0., 7.90513866e-003, 0., 0.,
          3.95256933e-003, 0., 0., 0., 0., 3.95256933e-003, 0., 0.,
          3.95256933e-003, 0., 0., 0., 0., 0., 7.90513866e-003, 0.,
          3.95256933e-003, 0., 0., 3.95256933e-003, 0., 0., 0., 0.,
          3.95256933e-003, 0., 0., 0., 0., 0., 0., 0., 0., 0.,
          3.95256933e-003, 0., 0., 0., 3.95256933e-003, 0., 0., 0.,
          3.95256933e-003, 0., 0., 0., 0., 0., 3.95256933e-003,
          7.90513866e-003, 0., 0., 0., 0., 0., 0., 3.95256933e-003,
          7.90513866e-003, 7.90513866e-003, 7.90513866e-003, 0.,
          3.95256933e-003, 0., 0., 0., 0., 0., 3.95256933e-003, 0., 0.,
          3.95256933e-003, 0., 3.95256933e-003, 0., 0., 7.90513866e-003,
          3.95256933e-003, 0., 0., 0., 0., 0., 0., 0., 0.,
          7.90513866e-003, 0., 3.95256933e-003, 0., 0., 0., 0., 0., 0.,
          3.95256933e-003, 0., 0., 0., 0., 3.95256933e-003, 0.,
          7.90513866e-003, 0., 0., 0., 3.95256933e-003, 7.90513866e-003,
          0., 0., 0., 3.95256933e-003, 0., 0., 0., 0., 0.,
          3.95256933e-003, 0., 3.95256933e-003, 0., 0., 0., 0., 0., 0.,
          0., 0., 0., 0., 3.95256933e-003, 0., 0., 0., 0., 0., 0.,
          3.95256933e-003, 0., 0., 0., 0., 3.95256933e-003, 0., 0., 0.,
          3.95256933e-003, 7.90513866e-003, 0., 0., 0., 0., 0., 0., 0.,
          0., 0., 0., 0., 7.90513866e-003, 0., 3.95256933e-003, 0., 0.,
          0., 0., 0., 0., 0., 0., 0., 0., 0., 0., 0., 0., 0., 0., 0., 0.,
          0., 0., 0., 0., 0., 7.90513866e-003, 0., 0., 0.,
          3.95256933e-003, 0., 0., 0., 0., 3.95256933e-003, 0., 0.,
          3.95256933e-003, 0., 3.95256933e-003, 0., 0., 0., 0., 0., 0.,
          0., 0., 0., 3.95256933e-003, 0., 0., 0., 0., 3.95256933e-003,
          0., 0., 3.95256933e-003, 3.95256933e-003, 0., 0., 0., 0., 0.,
          0., 0., 0., 1.18577080e-002, 0., 0., 0., 2.37154160e-002, 0.,
          0., 7.90513866e-003, 0., 0., 0., 0., 0., 0., 0.,
          3.95256933e-003, 0., 3.95256933e-003, 0., 0., 7.90513866e-003,
          3.95256933e-003, 0., 0., 0., 3.95256933e-003, 0., 0., 0., 0.,
          0., 0., 0., 0., 0., 0., 0., 0., 0., 0., 3.95256933e-003, 0.,
          0., 0., 0., 0., 0., 0., 0., 0., 0., 0., 0., 0.,
          3.95256933e-003, 0., 3.95256933e-003, 0., 0., 0.,
          3.95256933e-003, 0., 3.95256933e-003, 0., 0., 0., 0., 0., 0.,
          0., 0., 0., 0., 0., 7.90513866e-003, 7.90513866e-003, 0., 0.,
          0., 0., 0., 0., 0., 0., 0., 0., 0., 0., 7.90513866e-003, 0.,
          0., 0., 0., 0., 0., 0., 0., 0., 0., 0., 0., 0., 0.,
          7.90513866e-003, 3.95256933e-003, 0., 3.95256933e-003, 0., 0.,
          0., 0., 0., 0., 3.95256933e-003, 0., 0., 0., 7.90513866e-003,
          0., 0., 0., 0., 0., 0., 0., 3.95256933e-003, 0., 0.,
          3.95256933e-003, 0., 0., 0., 1.58102773e-002, 0., 0., 0., 0.,
          3.95256933e-003, 0., 3.95256933e-003, 0., 0., 0.,
          3.95256933e-003, 0., 0., 0., 0., 0., 0., 0., 0., 0.,
          7.90513866e-003, 3.95256933e-003, 1.97628476e-002,
          3.95256933e-003, 0., 0., 0., 0., 0., 0., 0., 0., 0., 0., 0.,
          0., 0., 0., 0., 0., 0., 0., 3.95256933e-003, 0., 0., 0., 0.,
          3.95256933e-003, 0., 0., 0., 3.95256933e-003, 0., 0., 0.,
          7.90513866e-003, 0., 0., 0., 7.90513866e-003, 0., 0., 0.,
          7.90513866e-003, 0., 0., 0., 0., 3.95256933e-003, 0.,
          3.95256933e-003, 0., 0., 0., 0., 0., 0., 3.95256933e-003,
          3.95256933e-003, 3.95256933e-003, 0., 0., 0., 0., 0., 0., 0.,
          0., 0., 0., 0., 0., 0., 0., 0., 0., 0., 0., 0., 0., 0., 0., 0.,
          0., 0., 7.90513866e-003, 0., 0., 3.95256933e-003, 0., 0., 0.,
          3.95256933e-003, 0., 3.95256933e-003, 0., 0., 0., 0., 0.,
          7.90513866e-003, 0., 0., 3.95256933e-003, 0., 0., 0.,
          3.95256933e-003, 3.95256933e-003, 0., 7.90513866e-003, 0., 0.,
          0., 0., 0., 0., 0., 0., 0., 0., 0., 0., 0., 7.90513866e-003,
          0., 0., 0., 0., 7.90513866e-003, 0., 0., 0., 0.,
          7.90513866e-003, 0., 0., 0., 0., 0., 0., 0., 0., 0., 0., 0.,
          0., 0., 0., 0., 0., 0., 0., 3.95256933e-003, 0., 0., 0.,
          7.90513866e-003, 0., 0., 0., 0., 0., 3.95256933e-003,
          3.95256933e-003, 0., 0., 3.95256933e-003, 3.95256933e-003,
          3.95256933e-003, 0., 0., 3.95256933e-003, 0., 0., 0.,
          3.95256933e-003, 3.95256933e-003, 0., 0., 0., 3.95256933e-003,
          0., 0., 3.95256933e-003, 0., 0., 0., 0., 3.95256933e-003, 0.,
          0., 0., 0., 0., 3.95256933e-003, 0., 7.90513866e-003, 0., 0.,
          0., 0., 0., 0., 0., 0., 0., 0., 0., 0., 0., 0.,
          3.95256933e-003, 0., 0., 0., 0., 0., 0., 3.95256933e-003, 0.,
          0., 0., 3.95256933e-003, 0., 0., 0., 0., 0., 0., 0., 0., 0.,
          0., 0., 0., 0., 0., 0., 0., 0., 0., 0., 0., 3.95256933e-003,
          0., 0., 0., 7.90513866e-003, 0., 0., 0., 0., 0.,
          3.95256933e-003, 7.90513866e-003, 7.90513866e-003, 0., 0., 0.,
          0., 0., 0., 0., 0., 0., 0., 0., 7.90513866e-003, 0., 0., 0.,
          0., 3.95256933e-003, 0., 0., 0., 3.95256933e-003, 0., 0., 0.,
          0., 0., 0., 3.95256933e-003, 0., 0., 0., 0., 0., 0., 0., 0.,
          3.95256933e-003, 0., 3.95256933e-003, 0., 7.90513866e-003,
          3.95256933e-003, 0., 0., 0., 0., 0., 0., 0., 0.,
          3.95256933e-003, 0., 0., 0., 0., 0., 0., 0., 0., 0., 0., 0.,
          7.90513866e-003, 3.95256933e-003, 0., 3.95256933e-003, 0., 0.,
          0., 0., 0., 3.95256933e-003, 3.95256933e-003, 0., 0., 0., 0.,
          0., 0., 0., 0., 0., 0., 0., 3.95256933e-003, 0., 0., 0., 0.,
          0., 3.95256933e-003, 0., 0., 0., 0., 3.95256933e-003, 0., 0.,
          0., 3.95256933e-003, 3.95256933e-003, 0., 0., 0., 0.,
          7.90513866e-003, 0., 3.95256933e-003, 0., 0., 3.95256933e-003,
          0., 0., 3.95256933e-003, 0., 0., 0., 7.90513866e-003,
          3.95256933e-003, 0., 0., 0., 0., 0., 0., 0., 0., 0., 0., 0.,
          0., 3.95256933e-003, 0., 0., 0., 0., 0., 3.95256933e-003,
          3.95256933e-003, 0., 0., 0., 3.95256933e-003, 3.95256933e-003,
          0., 0., 0., 0., 0., 0., 0., 3.95256933e-003, 0., 0., 0., 0.,
          0., 0., 0., 3.95256933e-003, 0., 0., 0., 0., 0., 0., 0., 0.,
          0., 0., 0., 0., 0., 0., 0., 0., 3.95256933e-003, 0.,
          3.95256933e-003, 0., 0., 0., 0., 0., 0., 0., 0., 0.,
          7.90513866e-003, 0., 0., 0., 0., 0., 0., 0., 0., 0.,
          3.95256933e-003, 0., 7.90513866e-003, 3.95256933e-003, 0., 0.,
          0., 0., 3.95256933e-003, 0., 0., 0., 0., 0., 0.,
          7.90513866e-003, 0., 0., 0., 0., 0., 0., 0., 0., 0., 0., 0.,
          3.95256933e-003, 3.95256933e-003, 0., 0., 0., 3.95256933e-003,
          0., 3.95256933e-003, 0., 0., 0., 0., 0., 0., 3.95256933e-003,
          0., 0., 0., 3.95256933e-003, 0., 0., 0., 3.95256933e-003, 0.,
          7.90513866e-003, 0., 0., 0., 0., 0., 0., 0., 0., 0., 0.,
          7.90513866e-003, 0., 3.95256933e-003, 0., 0., 0., 0., 0., 0.,
          0., 0., 0., 0., 0., 0., 0., 0., 3.95256933e-003, 0., 0., 0.,
          3.95256933e-003, 0., 0., 0., 0., 0., 0., 0., 1.18577080e-002,
          0., 0., 0., 0., 3.95256933e-003, 0., 0., 0. ]
      - [ 0., 7.60456268e-003, 0., 0., 0., 0., 3.80228134e-003, 0., 0.,
          0., 0., 0., 0., 3.80228134e-003, 0., 0., 0., 0., 0.,
          3.80228134e-003, 0., 0., 3.80228134e-003, 0., 0., 0., 0., 0.,
          0., 0., 0., 0., 0., 3.80228134e-003, 0., 0., 0., 0.,
          3.80228134e-003, 0., 0., 0., 0., 0., 7.60456268e-003, 0., 0.,
          0., 0., 0., 0., 0., 0., 3.80228134e-003, 0., 0.,
          3.80228134e-003, 0., 0., 7.60456268e-003, 0., 0.,
          3.80228134e-003, 1.14068445e-002, 0., 3.80228134e-003, 0., 0.,
          0., 0., 3.80228134e-003, 1.14068445e-002, 0., 0.,
          7.60456268e-003, 0., 0., 0., 0., 3.80228134e-003,
          3.80228134e-003, 0., 0., 0., 3.80228134e-003, 0., 0., 0., 0.,
          3.80228134e-003, 3.80228134e-003, 0., 0., 0., 0., 0., 0., 0.,
          0., 3.80228134e-003, 0., 0., 0., 0., 3.80228134e-003, 0., 0.,
          3.80228134e-003, 3.80228134e-003, 0., 0., 0., 0., 0., 0., 0.,
          0., 7.60456268e-003, 0., 0., 0., 0., 3.80228134e-003,
          3.80228134e-003, 0., 7.60456268e-003, 0., 3.80228134e-003,
          3.80228134e-003, 0., 0., 0., 0., 0., 0., 0., 3.80228134e-003,
          3.80228134e-003, 3.80228134e-003, 0., 0., 0., 3.80228134e-003,
          0., 0., 0., 0., 0., 0., 3.80228134e-003, 0., 7.60456268e-003,
          0., 0., 3.80228134e-003, 0., 0., 0., 3.80228134e-003, 0., 0.,
          0., 0., 0., 0., 0., 0., 0., 0., 0., 0., 3.80228134e-003,
          7.60456268e-003, 0., 0., 0., 7.60456268e-003, 0., 0., 0., 0.,
          0., 3.80228134e-003, 0., 0., 0., 0., 0., 3.80228134e-003, 0.,
          0., 0., 0., 0., 0., 0., 0., 0., 0., 0., 0., 0., 0., 0., 0.,
          3.80228134e-003, 0., 3.80228134e-003, 0., 3.80228134e-003, 0.,
          0., 0., 0., 0., 0., 0., 0., 3.80228134e-003, 0., 0., 0., 0.,
          3.80228134e-003, 7.60456268e-003, 3.80228134e-003, 0., 0., 0.,
          0., 0., 0., 0., 0., 0., 0., 0., 0., 0., 0., 0., 0., 0., 0., 0.,
          0., 0., 0., 0., 7.60456268e-003, 0., 0., 0., 0.,
          1.14068445e-002, 0., 0., 0., 0., 0., 0., 0., 0., 0.,
          3.80228134e-003, 0., 0., 0., 7.60456268e-003, 0., 0., 0., 0.,
          0., 3.80228134e-003, 0., 0., 0., 0., 7.60456268e-003, 0., 0.,
          7.60456268e-003, 3.80228134e-003, 0., 3.80228134e-003, 0., 0.,
          0., 3.80228134e-003, 0., 0., 0., 0., 0., 0., 1.90114062e-002,
          7.60456268e-003, 0., 3.80228134e-003, 3.80228134e-003, 0., 0.,
          3.80228134e-003, 0., 3.80228134e-003, 0., 0., 3.80228134e-003,
          3.80228134e-003, 0., 0., 0., 3.80228134e-003, 0., 0., 0., 0.,
          0., 0., 0., 0., 0., 0., 0., 0., 0., 0., 0., 0., 0., 0.,
          3.80228134e-003, 0., 3.80228134e-003, 0., 0., 0., 0., 0., 0.,
          0., 0., 0., 0., 0., 3.80228134e-003, 0., 0., 3.80228134e-003,
          0., 0., 0., 0., 3.80228134e-003, 0., 0., 0., 0.,
          7.60456268e-003, 0., 0., 3.80228134e-003, 0., 0., 0.,
          3.80228134e-003, 3.80228134e-003, 0., 0., 0., 0., 0., 0.,
          3.80228134e-003, 0., 0., 0., 0., 3.80228134e-003, 0., 0.,
          3.80228134e-003, 0., 0., 0., 0., 0., 0., 0., 0., 0., 0.,
          3.80228134e-003, 3.80228134e-003, 1.14068445e-002,
          3.80228134e-003, 0., 0., 0., 0., 0., 0., 0., 0.,
          3.80228134e-003, 0., 0., 0., 7.60456268e-003, 0., 0.,
          3.80228134e-003, 0., 0., 0., 0., 0., 0., 0., 3.80228134e-003,
          0., 0., 3.80228134e-003, 0., 0., 0., 3.80228134e-003, 0.,
          3.80228134e-003, 0., 3.80228134e-003, 0., 0., 3.80228134e-003,
          0., 3.80228134e-003, 0., 0., 0., 0., 0., 3.80228134e-003, 0.,
          0., 7.60456268e-003, 3.80228134e-003, 1.90114062e-002, 0., 0.,
          0., 0., 0., 0., 0., 0., 0., 3.80228134e-003, 0., 0.,
          3.80228134e-003, 0., 0., 7.60456268e-003, 0., 3.80228134e-003,
          0., 0., 0., 0., 0., 0., 0., 0., 0., 0., 0., 0., 0., 0.,
          3.80228134e-003, 3.80228134e-003, 0., 0., 0., 0., 0., 0.,
          3.80228134e-003, 0., 3.80228134e-003, 3.80228134e-003, 0.,
          3.80228134e-003, 0., 0., 0., 0., 0., 7.60456268e-003, 0., 0.,
          0., 3.80228134e-003, 0., 0., 0., 0., 0., 0., 0., 0., 0., 0.,
          0., 7.60456268e-003, 0., 3.80228134e-003, 0., 0.,
          7.60456268e-003, 0., 0., 0., 0., 0., 0., 0., 0., 0., 0., 0.,
          0., 3.80228134e-003, 0., 3.80228134e-003, 0., 3.80228134e-003,
          0., 0., 0., 0., 0., 0., 0., 0., 0., 0., 0., 0., 0., 0., 0.,
          3.80228134e-003, 0., 3.80228134e-003, 0., 0., 0., 0., 0., 0.,
          0., 3.80228134e-003, 0., 0., 0., 0., 0., 3.80228134e-003,
          3.80228134e-003, 0., 0., 0., 0., 0., 3.80228134e-003, 0., 0.,
          0., 0., 0., 3.80228134e-003, 0., 0., 0., 0., 0., 0.,
          3.80228134e-003, 0., 0., 0., 3.80228134e-003, 3.80228134e-003,
          0., 0., 0., 0., 0., 0., 0., 3.80228134e-003, 0., 0.,
          3.80228134e-003, 0., 0., 0., 0., 0., 3.80228134e-003,
          3.80228134e-003, 7.60456268e-003, 0., 0., 0., 0., 0., 0., 0.,
          0., 7.60456268e-003, 0., 3.80228134e-003, 0., 7.60456268e-003,
          3.80228134e-003, 0., 0., 0., 0., 0., 1.14068445e-002,
          1.14068445e-002, 0., 0., 0., 3.80228134e-003, 0.,
          1.14068445e-002, 0., 7.60456268e-003, 0., 3.80228134e-003,
          3.80228134e-003, 0., 0., 0., 0., 0., 0., 0., 0., 0., 0., 0.,
          3.80228134e-003, 0., 0., 0., 0., 3.80228134e-003, 0.,
          3.80228134e-003, 0., 0., 0., 0., 0., 0., 0., 0., 0.,
          3.80228134e-003, 0., 0., 0., 0., 3.80228134e-003, 0., 0., 0.,
          3.80228134e-003, 0., 0., 0., 0., 0., 3.80228134e-003, 0., 0.,
          0., 0., 3.80228134e-003, 0., 0., 0., 0., 7.60456268e-003,
          3.80228134e-003, 3.80228134e-003, 0., 0., 0., 0., 0., 0., 0.,
          0., 0., 0., 0., 1.14068445e-002, 0., 0., 0., 0., 0., 0.,
          3.80228134e-003, 0., 0., 0., 0., 0., 0., 0., 0.,
          3.80228134e-003, 0., 0., 0., 0., 0., 0., 0., 0.,
          3.80228134e-003, 0., 3.80228134e-003, 0., 3.80228134e-003,
          3.80228134e-003, 0., 0., 0., 0., 0., 0., 0., 3.80228134e-003,
          0., 0., 0., 0., 0., 3.80228134e-003, 0., 0., 0.,
          3.80228134e-003, 0., 0., 3.80228134e-003, 0., 0., 0., 0., 0.,
          0., 0., 0., 3.80228134e-003, 0., 0., 0., 0., 0., 0., 0., 0.,
          0., 0., 3.80228134e-003, 0., 3.80228134e-003, 0., 0., 0.,
          7.60456268e-003, 0., 1.14068445e-002, 3.80228134e-003, 0., 0.,
          0., 0., 0., 0., 0., 0., 3.80228134e-003, 0., 0.,
          3.80228134e-003, 0., 0., 0., 3.80228134e-003, 0., 0., 0.,
          3.80228134e-003, 0., 3.80228134e-003, 0., 0., 0., 0.,
          3.80228134e-003, 0., 0., 0., 0., 0., 0., 3.80228134e-003, 0.,
          0., 3.80228134e-003, 0., 0., 3.80228134e-003, 0., 0., 0., 0.,
          0., 0., 3.80228134e-003, 0., 0., 0., 3.80228134e-003, 0., 0.,
          0., 0., 3.80228134e-003, 0., 0., 0., 3.80228134e-003, 0., 0.,
          0., 0., 0., 0., 0., 0., 0., 0., 0., 0., 0., 0., 0., 0., 0., 0.,
          0., 0., 0., 0., 0., 0., 0., 0., 0., 0., 0., 0., 0., 0., 0.,
          3.80228134e-003, 0., 0., 0., 0., 0., 0., 0., 0., 0., 0., 0.,
          0., 0., 0., 0., 0., 0., 0., 3.80228134e-003, 0., 0., 0., 0.,
          0., 0., 0., 0., 3.80228134e-003, 0., 0., 0., 0., 0., 0., 0.,
          0., 0., 0., 0., 3.80228134e-003, 1.14068445e-002, 0.,
          3.80228134e-003, 3.80228134e-003, 3.80228134e-003, 0., 0., 0.,
          0., 0., 0., 0., 0., 0., 0., 0., 0., 0., 0., 0.,
          3.80228134e-003, 0., 0., 7.60456268e-003, 0., 0.,
          3.80228134e-003, 3.80228134e-003, 0., 0., 0., 0., 0., 0., 0.,
          0., 0., 0., 0., 0., 0., 0., 0., 0., 0., 0., 3.80228134e-003,
          0., 0., 0., 3.80228134e-003, 3.80228134e-003, 0.,
          3.80228134e-003, 0., 0., 0., 0., 0., 0., 0., 0., 0.,
          3.80228134e-003, 3.80228134e-003, 0., 0., 3.80228134e-003, 0.,
          0., 3.80228134e-003, 0. ]
      - [ 0., 4.03225794e-003, 0., 0., 0., 0., 0., 0., 0.,
          1.61290318e-002, 0., 0., 0., 0., 4.03225794e-003, 0., 0., 0.,
          0., 4.03225794e-003, 0., 0., 0., 0., 0., 0., 0., 0.,
          4.03225794e-003, 0., 0., 0., 0., 0., 0., 0., 0., 0.,
          1.20967738e-002, 0., 0., 0., 0., 0., 0., 0., 0.,
          4.03225794e-003, 0., 0., 8.06451589e-003, 8.06451589e-003, 0.,
          4.03225794e-003, 0., 8.06451589e-003, 4.03225794e-003, 0., 0.,
          1.20967738e-002, 0., 0., 0., 4.03225794e-003, 4.03225794e-003,
          0., 0., 0., 0., 0., 0., 4.03225794e-003, 4.03225794e-003, 0.,
          8.06451589e-003, 0., 0., 0., 0., 0., 1.61290318e-002, 0.,
          4.03225794e-003, 0., 0., 0., 0., 0., 0., 0., 4.03225794e-003,
          0., 0., 0., 0., 0., 0., 0., 0., 0., 0., 0., 0., 0., 0., 0., 0.,
          4.03225794e-003, 4.03225794e-003, 0., 0., 0., 0., 0., 0.,
          8.06451589e-003, 0., 4.03225794e-003, 0., 0., 0.,
          4.03225794e-003, 4.03225794e-003, 0., 0., 0., 0.,
          4.03225794e-003, 8.06451589e-003, 0., 0., 8.06451589e-003, 0.,
          4.03225794e-003, 0., 0., 4.03225794e-003, 0., 0., 0.,
          4.03225794e-003, 0., 4.03225794e-003, 0., 4.03225794e-003, 0.,
          0., 0., 0., 0., 0., 8.06451589e-003, 0., 0., 0., 0., 0., 0.,
          0., 0., 0., 0., 0., 0., 4.03225794e-003, 0., 0.,
          4.03225794e-003, 0., 0., 0., 0., 4.03225794e-003,
          4.03225794e-003, 0., 0., 0., 0., 0., 0., 0., 0., 0., 0.,
          4.03225794e-003, 0., 0., 0., 0., 0., 4.03225794e-003, 0., 0.,
          0., 0., 0., 0., 0., 0., 0., 0., 0., 4.03225794e-003, 0.,
          8.06451589e-003, 0., 0., 0., 0., 8.06451589e-003, 0.,
          4.03225794e-003, 0., 0., 4.03225794e-003, 0., 0., 0., 0., 0.,
          4.03225794e-003, 0., 0., 0., 4.03225794e-003, 0.,
          4.03225794e-003, 0., 0., 0., 0., 0., 0., 0., 0., 0., 0., 0.,
          0., 0., 0., 0., 0., 0., 0., 0., 0., 0., 0., 0.,
          4.03225794e-003, 0., 0., 4.03225794e-003, 0., 0., 0., 0., 0.,
          4.03225794e-003, 0., 0., 0., 4.03225794e-003, 0., 0., 0., 0.,
          0., 0., 0., 0., 0., 0., 0., 0., 0., 0., 0., 4.03225794e-003,
          8.06451589e-003, 0., 4.03225794e-003, 4.03225794e-003, 0.,
          4.03225794e-003, 0., 0., 0., 0., 0., 4.03225794e-003,
          2.41935477e-002, 4.03225794e-003, 0., 0., 1.61290318e-002,
          1.20967738e-002, 0., 0., 0., 0., 0., 4.03225794e-003, 0., 0.,
          0., 0., 0., 4.03225794e-003, 0., 0., 4.03225794e-003,
          4.03225794e-003, 0., 0., 0., 0., 0., 0., 0., 0., 0., 0., 0.,
          0., 0., 0., 0., 0., 0., 8.06451589e-003, 4.03225794e-003, 0.,
          0., 4.03225794e-003, 0., 0., 0., 0., 0., 0., 0., 0., 0.,
          4.03225794e-003, 4.03225794e-003, 0., 0., 4.03225794e-003, 0.,
          0., 0., 0., 0., 0., 0., 0., 0., 0., 0., 0., 4.03225794e-003,
          0., 0., 0., 4.03225794e-003, 0., 0., 0., 0., 0., 0., 0., 0.,
          0., 0., 0., 0., 0., 8.06451589e-003, 0., 0., 0., 0., 0., 0.,
          0., 0., 0., 0., 0., 0., 0., 0., 8.06451589e-003,
          4.03225794e-003, 0., 4.03225794e-003, 0., 0., 0., 0., 0., 0.,
          0., 0., 0., 0., 4.03225794e-003, 0., 0., 8.06451589e-003, 0.,
          0., 0., 0., 0., 0., 0., 4.03225794e-003, 0., 0., 0., 0., 0.,
          0., 0., 0., 0., 0., 4.03225794e-003, 0., 4.03225794e-003, 0.,
          0., 4.03225794e-003, 0., 0., 0., 0., 0., 4.03225794e-003, 0.,
          0., 0., 0., 2.01612897e-002, 0., 4.03225794e-003,
          4.03225794e-003, 0., 0., 0., 0., 0., 0., 0., 0., 0., 0., 0.,
          0., 4.03225794e-003, 0., 0., 4.03225794e-003, 0., 0., 0., 0.,
          4.03225794e-003, 4.03225794e-003, 4.03225794e-003, 0., 0., 0.,
          0., 0., 0., 4.03225794e-003, 0., 0., 0., 0., 0., 0., 0.,
          4.03225794e-003, 0., 0., 0., 0., 4.03225794e-003, 0., 0., 0.,
          0., 0., 4.03225794e-003, 4.03225794e-003, 0., 4.03225794e-003,
          0., 0., 0., 0., 0., 0., 0., 0., 0., 0., 0., 0., 0., 0., 0., 0.,
          0., 0., 0., 0., 0., 0., 0., 0., 0., 0., 0., 0., 0., 0.,
          4.03225794e-003, 0., 0., 0., 1.20967738e-002, 0., 0., 0., 0.,
          0., 0., 0., 0., 0., 0., 0., 0., 0., 0., 4.03225794e-003,
          8.06451589e-003, 0., 0., 0., 0., 0., 0., 0., 0., 0., 0., 0.,
          0., 0., 0., 0., 8.06451589e-003, 0., 0., 0., 0.,
          8.06451589e-003, 0., 4.03225794e-003, 0., 0., 0., 0., 0., 0.,
          0., 0., 0., 4.03225794e-003, 4.03225794e-003, 0., 0., 0., 0.,
          0., 0., 0., 0., 0., 0., 0., 0., 0., 0., 4.03225794e-003, 0.,
          0., 0., 0., 0., 0., 0., 0., 0., 4.03225794e-003, 0.,
          4.03225794e-003, 0., 0., 4.03225794e-003, 0., 0., 0., 0.,
          4.03225794e-003, 0., 4.03225794e-003, 0., 0., 4.03225794e-003,
          0., 8.06451589e-003, 0., 0., 0., 4.03225794e-003,
          8.06451589e-003, 0., 0., 0., 8.06451589e-003, 0.,
          1.20967738e-002, 0., 4.03225794e-003, 0., 0., 4.03225794e-003,
          0., 0., 0., 0., 0., 0., 8.06451589e-003, 0., 0., 0., 0.,
          8.06451589e-003, 0., 4.03225794e-003, 0., 0., 4.03225794e-003,
          0., 4.03225794e-003, 0., 0., 0., 0., 0., 0., 0., 0., 0.,
          4.03225794e-003, 0., 4.03225794e-003, 4.03225794e-003, 0., 0.,
          0., 0., 0., 4.03225794e-003, 0., 0., 0., 0., 0.,
          4.03225794e-003, 0., 0., 0., 4.03225794e-003, 0., 0., 0., 0.,
          4.03225794e-003, 0., 0., 4.03225794e-003, 0., 0., 0., 0., 0.,
          0., 0., 0., 0., 0., 0., 8.06451589e-003, 0., 4.03225794e-003,
          0., 0., 0., 0., 0., 0., 0., 0., 0., 0., 0., 0., 0., 0., 0., 0.,
          1.20967738e-002, 0., 0., 0., 0., 0., 0., 0., 8.06451589e-003,
          0., 0., 4.03225794e-003, 0., 0., 0., 0., 4.03225794e-003, 0.,
          0., 4.03225794e-003, 0., 0., 4.03225794e-003, 0.,
          4.03225794e-003, 4.03225794e-003, 0., 0., 0., 0., 0., 0.,
          8.06451589e-003, 4.03225794e-003, 0., 4.03225794e-003, 0., 0.,
          0., 0., 0., 8.06451589e-003, 0., 0., 0., 0., 0.,
          4.03225794e-003, 0., 4.03225794e-003, 0., 0., 0., 0.,
          4.03225794e-003, 0., 0., 0., 0., 0., 0., 0., 0., 0., 0., 0.,
