%YAML:1.0
my_svm: !!opencv-ml-svm
   svm_type: C_SVC
   kernel: { type:RBF, gamma:1. }
   C: 1.
   term_criteria: { epsilon:1.1920928955078125e-007, iterations:1000 }
   var_all: 1000
   var_count: 1000
   class_count: 2
   class_labels: !!opencv-matrix
      rows: 1
      cols: 2
      dt: i
      data: [ 0, 1 ]
   sv_total: 102
   support_vectors:
      - [ 0., 0., 3.49650346e-003, 3.49650346e-003, 0., 6.99300691e-003,
          0., 0., 0., 3.49650346e-003, 0., 0., 0., 3.49650346e-003, 0.,
          0., 6.99300691e-003, 0., 6.99300691e-003, 0., 0., 0., 0.,
          3.49650346e-003, 0., 0., 0., 0., 3.49650346e-003, 0.,
          6.99300691e-003, 0., 0., 0., 3.49650346e-003, 0., 0., 0., 0.,
          0., 0., 0., 0., 0., 3.49650346e-003, 0., 0., 0.,
          3.49650346e-003, 0., 6.99300691e-003, 0., 0., 0., 0., 0.,
          3.49650346e-003, 0., 0., 0., 0., 0., 0., 0., 6.99300691e-003,
          0., 6.99300691e-003, 3.49650346e-003, 0., 0., 0., 0., 0., 0.,
          0., 0., 0., 0., 0., 0., 0., 0., 0., 0., 3.49650346e-003,
          3.49650346e-003, 0., 0., 0., 0., 0., 0., 0., 0., 0., 0., 0.,
          0., 0., 3.49650346e-003, 3.49650346e-003, 0., 0., 0., 0., 0.,
          0., 0., 0., 0., 3.49650346e-003, 0., 0., 0., 0., 0., 0., 0.,
          0., 6.99300691e-003, 0., 3.49650346e-003, 0., 6.99300691e-003,
          3.49650346e-003, 0., 0., 0., 0., 3.49650346e-003, 0., 0.,
          3.49650346e-003, 0., 3.49650346e-003, 0., 0., 0., 0., 0., 0.,
          0., 0., 0., 0., 0., 0., 0., 0., 0., 0., 0., 1.04895104e-002,
          0., 3.49650346e-003, 6.99300691e-003, 0., 0., 0.,
          3.49650346e-003, 0., 0., 0., 0., 0., 0., 0., 0., 0.,
          3.49650346e-003, 0., 3.49650346e-003, 0., 0., 0., 0., 0.,
          3.49650346e-003, 0., 0., 0., 0., 0., 0., 0., 6.99300691e-003,
          0., 6.99300691e-003, 0., 0., 0., 0., 0., 0., 0., 0.,
          3.49650346e-003, 0., 0., 0., 0., 6.99300691e-003,
          6.99300691e-003, 0., 1.04895104e-002, 0., 0., 0., 0., 0., 0.,
          0., 0., 3.49650346e-003, 0., 0., 0., 0., 6.99300691e-003, 0.,
          0., 3.49650346e-003, 0., 0., 0., 3.49650346e-003, 0., 0., 0.,
          0., 0., 1.04895104e-002, 0., 0., 0., 0., 6.99300691e-003, 0.,
          0., 0., 0., 0., 0., 0., 0., 0., 0., 0., 0., 0., 0., 0., 0., 0.,
          0., 0., 0., 0., 0., 0., 3.49650346e-003, 0., 0., 0., 0.,
          3.49650346e-003, 0., 0., 3.49650346e-003, 0., 0., 0.,
          6.99300691e-003, 3.49650346e-003, 0., 0., 3.49650346e-003, 0.,
          0., 0., 0., 0., 0., 0., 3.49650346e-003, 3.49650346e-003, 0.,
          0., 0., 0., 0., 0., 6.99300691e-003, 0., 0., 0.,
          1.39860138e-002, 0., 3.49650346e-003, 0., 0., 0.,
          3.49650346e-003, 0., 0., 3.49650346e-003, 0., 0.,
          6.99300691e-003, 0., 0., 3.49650346e-003, 3.49650346e-003, 0.,
          0., 0., 0., 0., 0., 0., 0., 6.99300691e-003, 0., 0., 0., 0.,
          0., 0., 0., 0., 0., 0., 0., 0., 0., 0., 0., 0., 0., 0., 0.,
          6.99300691e-003, 0., 0., 0., 0., 3.49650346e-003,
          3.49650346e-003, 0., 0., 6.99300691e-003, 0., 0., 0., 0., 0.,
          0., 6.99300691e-003, 0., 0., 0., 0., 0., 0., 0.,
          6.99300691e-003, 0., 3.49650346e-003, 0., 0., 0., 0., 0., 0.,
          0., 0., 0., 0., 0., 3.49650346e-003, 0., 0., 0., 0., 0., 0.,
          0., 0., 0., 0., 0., 0., 0., 0., 0., 0., 3.49650346e-003, 0.,
          0., 0., 6.99300691e-003, 0., 3.49650346e-003, 0., 0., 0., 0.,
          0., 0., 0., 3.49650346e-003, 3.49650346e-003, 0., 0., 0., 0.,
          0., 0., 0., 3.49650346e-003, 0., 0., 0., 0., 0., 0.,
          3.49650346e-003, 6.99300691e-003, 0., 3.49650346e-003, 0., 0.,
          0., 0., 0., 0., 0., 0., 0., 0., 1.04895104e-002, 0., 0.,
          3.49650346e-003, 0., 0., 0., 2.44755242e-002, 0.,
          3.49650346e-003, 0., 0., 0., 0., 0., 0., 0., 0., 0.,
          3.49650346e-003, 0., 0., 0., 0., 0., 0., 3.49650346e-003, 0.,
          0., 0., 0., 3.49650346e-003, 0., 0., 0., 3.49650346e-003, 0.,
          0., 0., 0., 0., 0., 0., 0., 0., 0., 0., 0., 0., 0., 0., 0., 0.,
          0., 0., 0., 0., 3.49650346e-003, 0., 1.04895104e-002, 0.,
          3.49650346e-003, 0., 0., 0., 3.49650346e-003, 0.,
          1.04895104e-002, 0., 0., 0., 0., 0., 0., 0., 0., 0.,
          6.99300691e-003, 0., 0., 6.99300691e-003, 3.49650346e-003, 0.,
          6.99300691e-003, 0., 0., 0., 0., 0., 0., 0., 0., 0., 0., 0.,
          0., 0., 0., 0., 1.39860138e-002, 0., 0., 0., 0., 0., 0., 0.,
          6.99300691e-003, 0., 3.49650346e-003, 3.49650346e-003, 0., 0.,
          0., 0., 0., 0., 3.49650346e-003, 0., 0., 3.49650346e-003, 0.,
          0., 0., 0., 0., 0., 0., 0., 0., 0., 6.99300691e-003, 0., 0.,
          0., 0., 0., 0., 0., 0., 0., 0., 0., 0., 0., 3.49650346e-003,
          0., 0., 0., 0., 0., 0., 0., 3.49650346e-003, 0.,
          6.99300691e-003, 0., 0., 0., 0., 3.49650346e-003, 0., 0., 0.,
          3.49650346e-003, 0., 6.99300691e-003, 0., 0., 3.49650346e-003,
          0., 0., 0., 0., 0., 0., 3.49650346e-003, 0., 0., 0., 0., 0.,
          0., 3.49650346e-003, 0., 0., 0., 6.99300691e-003, 0., 0., 0.,
          0., 0., 1.04895104e-002, 0., 6.99300691e-003, 3.49650346e-003,
          0., 3.49650346e-003, 0., 0., 0., 0., 1.04895104e-002, 0., 0.,
          0., 3.49650346e-003, 0., 3.49650346e-003, 0., 0., 0., 0., 0.,
          0., 3.49650346e-003, 0., 0., 3.49650346e-003, 6.99300691e-003,
          0., 0., 0., 0., 0., 0., 0., 0., 3.49650346e-003, 0., 0., 0.,
          3.49650346e-003, 6.99300691e-003, 0., 0., 0., 0., 0., 0., 0.,
          0., 0., 3.49650346e-003, 0., 3.49650346e-003, 0., 0.,
          3.49650346e-003, 0., 0., 0., 0., 0., 0., 0., 0., 0., 0., 0.,
          0., 0., 0., 0., 0., 0., 0., 0., 0., 0., 3.49650346e-003,
          6.99300691e-003, 1.04895104e-002, 0., 3.49650346e-003, 0.,
          6.99300691e-003, 0., 3.49650346e-003, 0., 3.49650346e-003, 0.,
          0., 3.49650346e-003, 0., 0., 0., 3.49650346e-003,
          1.39860138e-002, 0., 0., 0., 3.49650346e-003, 3.49650346e-003,
          3.49650346e-003, 0., 0., 0., 0., 0., 0., 0., 0., 0., 0., 0.,
          0., 0., 0., 0., 0., 0., 0., 0., 0., 0., 0., 0., 0.,
          3.49650346e-003, 0., 0., 0., 6.99300691e-003, 3.49650346e-003,
          0., 0., 0., 0., 0., 0., 0., 0., 0., 0., 0., 3.49650346e-003,
          0., 0., 0., 0., 6.99300691e-003, 0., 0., 0., 0., 0.,
          3.49650346e-003, 0., 3.49650346e-003, 0., 3.49650346e-003, 0.,
          0., 0., 0., 0., 0., 0., 0., 0., 0., 0., 3.49650346e-003, 0.,
          0., 0., 0., 0., 0., 0., 0., 0., 1.04895104e-002, 0., 0., 0.,
          0., 0., 0., 0., 0., 0., 0., 3.49650346e-003, 0., 0., 0., 0.,
          3.49650346e-003, 0., 3.49650346e-003, 3.49650346e-003, 0., 0.,
          6.99300691e-003, 0., 0., 0., 0., 3.49650346e-003, 0., 0.,
          6.99300691e-003, 0., 0., 0., 0., 0., 0., 0., 0.,
          3.49650346e-003, 0., 0., 0., 3.49650346e-003, 0., 0., 0., 0.,
          3.49650346e-003, 3.49650346e-003, 0., 0., 3.49650346e-003, 0.,
          0., 0., 3.49650346e-003, 0., 0., 0., 0., 6.99300691e-003, 0.,
          0., 0., 0., 0., 0., 0., 0., 0., 0., 0., 0., 0., 0., 0., 0.,
          3.49650346e-003, 0., 0., 0., 0., 0., 3.49650346e-003,
          6.99300691e-003, 0., 0., 6.99300691e-003, 0., 0., 0., 0., 0.,
          0., 0., 0., 0., 0., 0., 0., 0., 0., 0., 0., 0., 0., 0.,
          3.49650346e-003, 0., 1.39860138e-002, 3.49650346e-003, 0., 0.,
          0., 3.49650346e-003, 3.49650346e-003, 3.49650346e-003, 0., 0.,
          0., 0., 6.99300691e-003, 0., 0., 0., 0., 6.99300691e-003, 0.,
          0., 0., 0., 0., 0., 0., 0., 3.49650346e-003, 6.99300691e-003,
          0., 3.49650346e-003, 0., 0., 0., 0., 0., 0., 0., 0., 0.,
          3.49650346e-003, 0., 0., 0., 0., 0., 3.49650346e-003, 0.,
          3.49650346e-003, 3.49650346e-003, 0., 0., 3.49650346e-003, 0.,
          0., 0., 0., 0., 6.99300691e-003, 0., 3.49650346e-003, 0.,
          6.99300691e-003, 0., 3.49650346e-003, 3.49650346e-003, 0., 0.,
          3.49650346e-003, 0., 0., 0., 3.49650346e-003, 0., 0., 0., 0. ]
      - [ 0., 6.34920644e-003, 0., 0., 0., 3.17460322e-003, 0.,
          3.17460322e-003, 0., 6.34920644e-003, 0., 0., 0.,
          3.17460322e-003, 0., 0., 0., 0., 9.52380989e-003, 0., 0., 0.,
          0., 3.17460322e-003, 0., 0., 0., 3.17460322e-003,
          1.26984129e-002, 3.17460322e-003, 3.17460322e-003, 0., 0., 0.,
          3.17460322e-003, 0., 0., 0., 9.52380989e-003, 0.,
          3.17460322e-003, 0., 0., 0., 0., 0., 0., 0., 3.17460322e-003,
          3.17460322e-003, 0., 0., 0., 0., 0., 3.17460322e-003, 0., 0.,
          0., 0., 0., 0., 0., 0., 6.34920644e-003, 0., 0., 0., 0., 0.,
          0., 0., 0., 0., 0., 0., 0., 0., 0., 0., 0., 0., 0., 0., 0., 0.,
          3.17460322e-003, 0., 0., 0., 0., 0., 0., 0., 0., 0., 0., 0.,
          0., 0., 0., 0., 0., 6.34920644e-003, 0., 3.17460322e-003, 0.,
          0., 0., 0., 0., 3.17460322e-003, 6.34920644e-003, 0., 0.,
          3.17460322e-003, 0., 3.17460322e-003, 0., 3.17460322e-003,
          3.17460322e-003, 0., 0., 3.17460322e-003, 3.17460322e-003, 0.,
          0., 0., 3.17460322e-003, 0., 0., 0., 0., 3.17460322e-003, 0.,
          0., 0., 0., 0., 3.17460322e-003, 3.17460322e-003, 0., 0., 0.,
          0., 0., 3.17460322e-003, 0., 0., 0., 0., 0., 1.58730168e-002,
          3.17460322e-003, 3.17460322e-003, 3.17460322e-003, 0., 0., 0.,
          0., 0., 0., 3.17460322e-003, 0., 0., 0., 0., 6.34920644e-003,
          0., 0., 6.34920644e-003, 0., 0., 0., 0., 0., 3.17460322e-003,
          3.17460322e-003, 0., 0., 0., 0., 6.34920644e-003, 0., 0.,
          6.34920644e-003, 0., 6.34920644e-003, 0., 0., 0.,
          3.17460322e-003, 0., 0., 0., 0., 0., 0., 0., 0., 0.,
          3.17460322e-003, 0., 3.17460322e-003, 1.26984129e-002, 0., 0.,
          6.34920644e-003, 0., 9.52380989e-003, 0., 0., 0.,
          3.17460322e-003, 0., 3.17460322e-003, 0., 0., 0., 0., 0., 0.,
          0., 0., 0., 0., 3.17460322e-003, 0., 0., 0., 0.,
          9.52380989e-003, 0., 0., 0., 3.17460322e-003, 3.17460322e-003,
          0., 0., 0., 0., 0., 0., 0., 3.17460322e-003, 0., 0., 0., 0.,
          0., 0., 0., 0., 0., 0., 3.17460322e-003, 0., 0., 0., 0.,
          6.34920644e-003, 0., 0., 0., 0., 6.34920644e-003, 0., 0.,
          6.34920644e-003, 0., 0., 0., 9.52380989e-003, 3.17460322e-003,
          0., 0., 0., 0., 0., 0., 0., 0., 0., 0., 0., 3.17460322e-003,
          0., 0., 0., 0., 0., 0., 3.17460322e-003, 0., 0., 0.,
          3.17460322e-003, 3.17460322e-003, 0., 0., 6.34920644e-003, 0.,
          0., 0., 0., 0., 0., 0., 3.17460322e-003, 0., 0.,
          6.34920644e-003, 0., 0., 3.17460322e-003, 0., 0., 0., 0., 0.,
          0., 1.26984129e-002, 0., 3.17460322e-003, 0., 0., 0., 0., 0.,
          0., 1.26984129e-002, 0., 0., 3.17460322e-003, 0., 0., 0., 0.,
          0., 0., 0., 3.17460322e-003, 0., 0., 0., 0., 0.,
          3.17460322e-003, 0., 0., 6.34920644e-003, 0., 0., 0., 0., 0.,
          0., 3.17460322e-003, 0., 0., 0., 0., 0., 0., 0.,
          3.17460322e-003, 0., 3.17460322e-003, 3.17460322e-003, 0.,
          3.17460322e-003, 0., 3.17460322e-003, 0., 3.17460322e-003, 0.,
          0., 0., 0., 3.17460322e-003, 0., 0., 0., 0., 0.,
          3.17460322e-003, 0., 0., 0., 6.34920644e-003, 0., 0., 0., 0.,
          0., 0., 0., 0., 3.17460322e-003, 3.17460322e-003, 0.,
          3.17460322e-003, 3.17460322e-003, 3.17460322e-003, 0., 0., 0.,
          0., 0., 0., 0., 0., 3.17460322e-003, 0., 3.17460322e-003, 0.,
          0., 0., 0., 3.17460322e-003, 0., 0., 0., 0., 0.,
          3.17460322e-003, 0., 0., 0., 0., 0., 0., 0., 0., 0., 0., 0.,
          3.17460322e-003, 0., 0., 6.34920644e-003, 0., 0., 0., 0., 0.,
          0., 6.34920644e-003, 0., 0., 3.17460322e-003, 0., 0., 0., 0.,
          0., 0., 3.17460322e-003, 0., 6.34920644e-003, 0., 0.,
          3.17460322e-003, 0., 0., 0., 3.17460322e-003, 0., 0., 0., 0.,
          9.52380989e-003, 0., 0., 0., 3.17460322e-003, 0.,
          3.17460322e-003, 0., 0., 0., 0., 0., 0., 0., 0., 0., 0., 0.,
          3.17460322e-003, 0., 0., 0., 0., 0., 0., 0., 0., 0.,
          6.34920644e-003, 0., 0., 0., 0., 3.17460322e-003,
          3.17460322e-003, 0., 9.52380989e-003, 0., 0., 0., 0., 0.,
          3.17460322e-003, 0., 0., 0., 9.52380989e-003, 0., 0., 0.,
          3.17460322e-003, 9.52380989e-003, 6.34920644e-003, 0., 0., 0.,
          9.52380989e-003, 0., 0., 0., 6.34920644e-003, 0., 0., 0., 0.,
          0., 0., 0., 3.17460322e-003, 0., 0., 0., 0., 0., 0., 0., 0.,
          0., 6.34920644e-003, 0., 0., 0., 0., 0., 0., 0., 0., 0., 0.,
          6.34920644e-003, 0., 0., 0., 0., 0., 0., 0., 0., 0., 0., 0.,
          0., 0., 0., 0., 0., 0., 0., 0., 9.52380989e-003, 0., 0., 0.,
          0., 0., 0., 0., 3.17460322e-003, 0., 0., 0., 0.,
          3.17460322e-003, 0., 3.17460322e-003, 0., 0., 0.,
          3.17460322e-003, 0., 0., 0., 0., 9.52380989e-003, 0.,
          9.52380989e-003, 0., 0., 0., 3.17460322e-003, 0.,
          9.52380989e-003, 0., 0., 0., 0., 3.17460322e-003, 0., 0., 0.,
          0., 0., 0., 0., 0., 0., 6.34920644e-003, 0., 3.17460322e-003,
          0., 0., 0., 3.17460322e-003, 0., 6.34920644e-003, 0., 0., 0.,
          0., 0., 0., 0., 6.34920644e-003, 1.26984129e-002, 0., 0., 0.,
          3.17460322e-003, 0., 0., 0., 0., 0., 0., 0., 3.17460322e-003,
          0., 0., 3.17460322e-003, 0., 0., 0., 0., 0., 0., 0., 0., 0.,
          0., 0., 0., 0., 3.17460322e-003, 1.26984129e-002, 0., 0., 0.,
          0., 0., 9.52380989e-003, 0., 0., 0., 0., 0., 3.17460322e-003,
          0., 0., 0., 0., 0., 0., 0., 0., 0., 0., 0., 3.17460322e-003,
          0., 0., 0., 0., 3.17460322e-003, 6.34920644e-003, 0., 0., 0.,
          0., 0., 0., 0., 0., 6.34920644e-003, 0., 3.17460322e-003, 0.,
          3.17460322e-003, 0., 0., 0., 3.17460322e-003, 0.,
          3.17460322e-003, 3.17460322e-003, 0., 0., 3.17460322e-003, 0.,
          3.17460322e-003, 0., 0., 3.17460322e-003, 0., 3.17460322e-003,
          3.17460322e-003, 0., 0., 0., 0., 0., 0., 0., 3.17460322e-003,
          0., 0., 0., 3.17460322e-003, 0., 0., 0., 0., 0.,
          3.17460322e-003, 3.17460322e-003, 0., 0., 0., 0., 0., 0., 0.,
          0., 0., 0., 0., 0., 0., 0., 0., 0., 3.17460322e-003, 0.,
          3.17460322e-003, 0., 3.17460322e-003, 0., 0., 0., 0., 0., 0.,
          0., 0., 0., 0., 0., 0., 0., 0., 0., 0., 0., 0., 0.,
          6.34920644e-003, 0., 0., 0., 0., 0., 0., 3.17460322e-003, 0.,
          3.17460322e-003, 0., 0., 0., 0., 0., 0., 0., 0.,
          3.17460322e-003, 6.34920644e-003, 0., 0., 0., 0., 0.,
          3.17460322e-003, 0., 0., 0., 0., 0., 0., 0., 0., 0., 0., 0.,
          0., 3.17460322e-003, 0., 3.17460322e-003, 3.17460322e-003, 0.,
          0., 3.17460322e-003, 0., 6.34920644e-003, 0., 0., 0., 0., 0.,
          0., 0., 3.17460322e-003, 0., 0., 0., 0., 0., 0., 0.,
          3.17460322e-003, 0., 0., 0., 0., 3.17460322e-003,
          6.34920644e-003, 0., 0., 3.17460322e-003, 0., 0.,
          6.34920644e-003, 3.17460322e-003, 0., 0., 3.17460322e-003, 0.,
          3.17460322e-003, 0., 0., 3.17460322e-003, 0., 0.,
          9.52380989e-003, 0., 0., 0., 0., 0., 0., 0., 0., 0.,
          3.17460322e-003, 3.17460322e-003, 0., 0., 0., 9.52380989e-003,
          0., 3.17460322e-003, 0., 3.17460322e-003, 3.17460322e-003, 0.,
          0., 0., 6.34920644e-003, 0., 0., 0., 3.17460322e-003, 0., 0.,
          3.17460322e-003, 3.17460322e-003, 0., 0., 0., 0., 0.,
          3.17460322e-003, 3.17460322e-003, 0., 0., 0., 0., 0., 0., 0.,
          0., 6.34920644e-003, 0., 0., 0., 0., 0., 3.17460322e-003, 0.,
          0., 0., 0., 0., 3.17460322e-003, 0., 3.17460322e-003, 0., 0.,
          0., 0., 0., 0., 6.34920644e-003, 0., 0., 0., 0., 0.,
          3.17460322e-003, 0., 0., 0., 0., 0., 0., 3.17460322e-003, 0.,
          0., 0., 0., 0., 3.17460322e-003, 0., 0., 0., 0., 0.,
          3.17460322e-003, 0., 0., 0., 3.17460322e-003, 0.,
          3.17460322e-003, 0., 0., 0., 3.17460322e-003, 3.17460322e-003,
          3.17460322e-003, 0., 0., 0., 0., 0., 3.17460322e-003, 0.,
          6.34920644e-003, 0., 0., 0., 0. ]
      - [ 0., 0., 0., 0., 0., 3.52112669e-003, 0., 0., 0., 0.,
          3.52112669e-003, 0., 0., 3.52112669e-003, 0., 0.,
          7.04225339e-003, 0., 7.04225339e-003, 0., 0., 0., 0., 0., 0.,
          0., 0., 0., 7.04225339e-003, 7.04225339e-003, 0., 0., 0., 0.,
          0., 0., 0., 0., 1.05633801e-002, 0., 0., 0., 0., 0., 0., 0.,
          0., 0., 3.52112669e-003, 0., 0., 0., 0., 0., 0.,
          3.52112669e-003, 0., 0., 0., 0., 0., 0., 0., 0.,
          3.52112669e-003, 0., 1.76056325e-002, 0., 0., 0., 0., 0., 0.,
          0., 0., 0., 0., 0., 0., 0., 0., 0., 3.52112669e-003, 0., 0.,
          0., 0., 0., 3.52112669e-003, 0., 0., 0., 0., 0.,
          3.52112669e-003, 0., 0., 0., 0., 0., 0., 0., 3.52112669e-003,
          0., 0., 7.04225339e-003, 0., 0., 0., 0., 0., 0.,
          3.52112669e-003, 0., 0., 0., 0., 0., 0., 3.52112669e-003, 0.,
          0., 0., 3.52112669e-003, 0., 0., 0., 0., 3.52112669e-003, 0.,
          0., 0., 0., 0., 3.52112669e-003, 0., 0., 0., 0., 0., 0., 0.,
          0., 0., 0., 0., 7.04225339e-003, 0., 0., 0., 0., 0.,
          1.40845068e-002, 3.52112669e-003, 3.52112669e-003,
          3.52112669e-003, 0., 0., 0., 0., 0., 0., 0., 0., 0., 0., 0.,
          3.52112669e-003, 0., 0., 0., 0., 0., 0., 0., 0., 0.,
          3.52112669e-003, 0., 3.52112669e-003, 0., 0., 3.52112669e-003,
          0., 0., 7.04225339e-003, 0., 1.05633801e-002, 0., 0., 0., 0.,
          0., 0., 0., 0., 0., 3.52112669e-003, 0., 0., 0.,
          3.52112669e-003, 0., 0., 1.40845068e-002, 0., 0.,
          3.52112669e-003, 0., 0., 0., 0., 0., 3.52112669e-003, 0.,
          3.52112669e-003, 0., 0., 0., 0., 0., 0., 0., 0., 0., 0., 0.,
          0., 0., 0., 0., 1.05633801e-002, 0., 0., 0., 3.52112669e-003,
          7.04225339e-003, 0., 0., 0., 0., 0., 0., 0., 3.52112669e-003,
          0., 0., 3.52112669e-003, 0., 0., 0., 0., 7.04225339e-003, 0.,
          0., 3.52112669e-003, 0., 0., 0., 0., 3.52112669e-003, 0., 0.,
          0., 0., 3.52112669e-003, 0., 0., 3.52112669e-003, 0., 0., 0.,
          7.04225339e-003, 3.52112669e-003, 0., 0., 3.52112669e-003, 0.,
          0., 0., 0., 0., 0., 0., 3.52112669e-003, 0., 0.,
          3.52112669e-003, 3.52112669e-003, 0., 0., 0., 1.05633801e-002,
          0., 0., 0., 3.52112669e-003, 0., 3.52112669e-003, 0.,
          3.52112669e-003, 0., 3.52112669e-003, 0., 0., 3.52112669e-003,
          0., 0., 3.52112669e-003, 0., 0., 7.04225339e-003, 0., 0., 0.,
          0., 0., 3.52112669e-003, 0., 0., 0., 3.52112669e-003, 0.,
          3.52112669e-003, 0., 0., 0., 0., 0., 0., 0., 0., 0., 0., 0.,
          0., 0., 0., 7.04225339e-003, 0., 0., 0., 0., 0., 0., 0., 0.,
          0., 0., 0., 3.52112669e-003, 0., 0., 0., 0., 0., 0.,
          3.52112669e-003, 0., 0., 0., 0., 0., 0., 0., 3.52112669e-003,
          3.52112669e-003, 3.52112669e-003, 0., 0., 3.52112669e-003, 0.,
          0., 0., 0., 0., 0., 3.52112669e-003, 0., 3.52112669e-003, 0.,
          0., 0., 0., 0., 0., 0., 0., 0., 0., 0., 0., 0., 0., 0., 0.,
          3.52112669e-003, 0., 3.52112669e-003, 7.04225339e-003,
          3.52112669e-003, 0., 3.52112669e-003, 0., 3.52112669e-003, 0.,
          0., 0., 0., 0., 0., 0., 7.04225339e-003, 0., 0., 0., 0., 0.,
          0., 3.52112669e-003, 0., 0., 0., 0., 0., 3.52112669e-003,
          7.04225339e-003, 3.52112669e-003, 0., 3.52112669e-003, 0., 0.,
          0., 0., 0., 7.04225339e-003, 0., 0., 0., 0., 7.04225339e-003,
          0., 3.52112669e-003, 0., 0., 0., 0., 2.11267602e-002, 0.,
          3.52112669e-003, 0., 0., 0., 0., 7.04225339e-003, 0., 0., 0.,
          0., 1.05633801e-002, 0., 0., 0., 0., 0., 0., 3.52112669e-003,
          0., 3.52112669e-003, 0., 0., 3.52112669e-003, 0., 0., 0.,
          3.52112669e-003, 3.52112669e-003, 0., 0., 0., 0., 0., 0., 0.,
          0., 0., 0., 0., 0., 0., 0., 3.52112669e-003, 0., 0., 0., 0.,
          0., 0., 0., 7.04225339e-003, 0., 0., 0., 0., 3.52112669e-003,
          0., 0., 1.40845068e-002, 0., 0., 7.04225339e-003, 0., 0.,
          3.52112669e-003, 0., 0., 0., 3.52112669e-003, 0., 0., 0., 0.,
          0., 1.05633801e-002, 0., 0., 0., 7.04225339e-003,
          3.52112669e-003, 0., 0., 0., 0., 0., 0., 0., 0., 0.,
          3.52112669e-003, 0., 0., 0., 0., 0., 0., 3.52112669e-003,
          3.52112669e-003, 0., 0., 7.04225339e-003, 3.52112669e-003, 0.,
          0., 0., 0., 0., 0., 3.52112669e-003, 0., 0., 7.04225339e-003,
          0., 3.52112669e-003, 0., 0., 0., 0., 0., 0., 0., 0., 0., 0.,
          0., 0., 0., 0., 0., 0., 0., 0., 0., 0., 0., 0., 0., 0., 0., 0.,
          0., 0., 3.52112669e-003, 0., 3.52112669e-003, 0.,
          3.52112669e-003, 0., 0., 0., 0., 7.04225339e-003, 0., 0., 0.,
          0., 0., 7.04225339e-003, 0., 0., 0., 0., 0., 0., 0., 0., 0.,
          0., 0., 0., 0., 0., 0., 3.52112669e-003, 0., 0., 0., 0.,
          7.04225339e-003, 0., 3.52112669e-003, 0., 0., 0.,
          7.04225339e-003, 0., 1.05633801e-002, 0., 0., 0., 0., 0., 0.,
          0., 7.04225339e-003, 1.05633801e-002, 0., 3.52112669e-003,
          3.52112669e-003, 0., 0., 0., 0., 0., 3.52112669e-003,
          3.52112669e-003, 0., 0., 0., 3.52112669e-003, 3.52112669e-003,
          3.52112669e-003, 0., 0., 0., 0., 0., 0., 3.52112669e-003, 0.,
          0., 0., 0., 0., 3.52112669e-003, 7.04225339e-003, 0., 0., 0.,
          0., 0., 3.52112669e-003, 0., 0., 0., 0., 0., 0., 0.,
          3.52112669e-003, 0., 0., 0., 0., 0., 0., 0., 0., 0., 0., 0.,
          0., 0., 0., 3.52112669e-003, 1.05633801e-002, 0., 0., 0., 0.,
          0., 3.52112669e-003, 0., 0., 3.52112669e-003, 0.,
          7.04225339e-003, 0., 0., 0., 0., 7.04225339e-003, 0., 0., 0.,
          0., 0., 0., 0., 3.52112669e-003, 7.04225339e-003, 0., 0.,
          3.52112669e-003, 0., 0., 3.52112669e-003, 0., 0.,
          3.52112669e-003, 0., 0., 0., 0., 0., 0., 0., 0.,
          3.52112669e-003, 0., 0., 0., 0., 0., 0., 0., 0., 0., 0., 0.,
          0., 3.52112669e-003, 0., 0., 0., 3.52112669e-003, 0., 0., 0.,
          0., 0., 0., 0., 0., 0., 0., 0., 0., 3.52112669e-003, 0., 0.,
          0., 0., 0., 3.52112669e-003, 0., 0., 0., 3.52112669e-003, 0.,
          0., 0., 0., 0., 0., 3.52112669e-003, 3.52112669e-003, 0., 0.,
          0., 0., 3.52112669e-003, 0., 0., 0., 3.52112669e-003, 0., 0.,
          0., 0., 3.52112669e-003, 0., 0., 3.52112669e-003, 0.,
          7.04225339e-003, 0., 0., 0., 0., 0., 0., 0., 0., 0., 0., 0.,
          0., 0., 0., 0., 0., 3.52112669e-003, 0., 0., 0., 0., 0., 0.,
          0., 1.05633801e-002, 0., 7.04225339e-003, 0., 0.,
          3.52112669e-003, 7.04225339e-003, 0., 0., 0., 0.,
          3.52112669e-003, 0., 0., 7.04225339e-003, 7.04225339e-003, 0.,
          0., 0., 0., 3.52112669e-003, 0., 0., 3.52112669e-003,
          7.04225339e-003, 0., 0., 0., 0., 0., 0., 3.52112669e-003,
          7.04225339e-003, 0., 0., 0., 0., 0., 0., 0., 3.52112669e-003,
          7.04225339e-003, 0., 0., 0., 0., 0., 0., 0., 0., 0., 0., 0.,
          3.52112669e-003, 0., 0., 0., 1.05633801e-002, 0., 0., 0., 0.,
          0., 0., 0., 0., 3.52112669e-003, 0., 0., 0., 3.52112669e-003,
          0., 0., 3.52112669e-003, 0., 0., 0., 0., 0., 0., 0., 0., 0.,
          0., 0., 0., 1.05633801e-002, 0., 3.52112669e-003, 0.,
          3.52112669e-003, 0., 0., 0., 0., 0., 0., 0., 0., 0., 0., 0.,
          3.52112669e-003, 0., 0., 0., 0., 0., 0., 0., 0.,
          3.52112669e-003, 0., 0., 0., 0., 0., 0., 0., 0., 0., 0., 0.,
          0., 3.52112669e-003, 0., 0., 0., 0., 0., 7.04225339e-003, 0.,
          0., 0., 0., 0., 7.04225339e-003, 0., 0., 0., 0., 0.,
          3.52112669e-003, 0., 3.52112669e-003, 0., 7.04225339e-003, 0.,
          7.04225339e-003, 0., 0., 0., 0., 0., 0., 0., 3.52112669e-003,
          0., 0., 0., 0. ]
      - [ 0., 2.65957438e-003, 2.65957438e-003, 0., 0., 0., 0., 0.,
          2.65957438e-003, 0., 0., 0., 0., 0., 0., 0., 2.65957438e-003,
          0., 0., 0., 0., 0., 0., 7.97872338e-003, 2.65957438e-003,
          1.32978717e-002, 0., 0., 0., 0., 0., 2.65957438e-003, 0., 0.,
          0., 0., 5.31914877e-003, 0., 1.06382975e-002, 0., 0., 0., 0.,
          0., 0., 0., 0., 0., 2.65957438e-003, 7.97872338e-003,
          2.65957438e-003, 0., 0., 2.65957438e-003, 0., 0., 0., 0.,
          2.65957438e-003, 1.06382975e-002, 0., 0., 0., 0.,
          7.97872338e-003, 0., 0., 2.65957438e-003, 0., 0., 0., 0., 0.,
          0., 0., 0., 0., 0., 0., 2.65957438e-003, 0., 0., 0.,
          5.31914877e-003, 2.65957438e-003, 0., 0., 0., 0.,
          7.97872338e-003, 0., 7.97872338e-003, 0., 0., 0., 0., 0., 0.,
          0., 2.65957438e-003, 2.65957438e-003, 0., 0., 0., 0., 0., 0.,
          0., 2.65957438e-003, 2.65957438e-003, 0., 5.31914877e-003,
          2.65957438e-003, 0., 0., 0., 0., 0., 0., 5.31914877e-003, 0.,
          0., 0., 0., 0., 0., 0., 0., 2.65957438e-003, 0., 0., 0.,
          5.31914877e-003, 2.65957438e-003, 0., 0., 0., 2.65957438e-003,
          2.65957438e-003, 0., 0., 0., 0., 0., 0., 0., 0., 0., 0., 0.,
          0., 0., 2.65957438e-003, 2.65957438e-003, 0., 0., 0., 0., 0.,
          5.31914877e-003, 0., 0., 0., 0., 2.65957438e-003, 0., 0., 0.,
          0., 0., 0., 0., 0., 0., 0., 2.65957438e-003, 0.,
          2.65957438e-003, 0., 0., 2.65957438e-003, 0., 0., 0., 0., 0.,
          0., 7.97872338e-003, 0., 0., 0., 0., 0., 0., 0., 0., 0., 0.,
          0., 2.65957438e-003, 0., 2.65957438e-003, 0., 0.,
          7.97872338e-003, 2.65957438e-003, 0., 0., 2.65957438e-003, 0.,
          0., 0., 0., 0., 1.06382975e-002, 0., 0., 2.65957438e-003,
          2.65957438e-003, 2.65957438e-003, 0., 0., 0., 0., 0., 0.,
          5.31914877e-003, 0., 0., 0., 0., 2.65957438e-003,
          2.65957438e-003, 0., 0., 0., 0., 0., 0., 0., 0.,
          2.65957438e-003, 0., 2.65957438e-003, 0., 0., 0., 0., 0., 0.,
          0., 0., 0., 2.65957438e-003, 0., 0., 0., 0., 0., 0.,
          2.65957438e-003, 0., 0., 0., 0., 2.65957438e-003, 0., 0.,
          2.65957438e-003, 0., 0., 0., 0., 0., 0., 2.65957438e-003,
          7.97872338e-003, 0., 0., 0., 2.65957438e-003, 0., 0., 0., 0.,
          2.65957438e-003, 0., 0., 0., 0., 0., 0., 1.06382975e-002, 0.,
          0., 0., 0., 2.65957438e-003, 0., 0., 2.65957438e-003, 0., 0.,
          0., 0., 0., 2.65957438e-003, 0., 2.65957438e-003, 0., 0., 0.,
          0., 0., 5.31914877e-003, 0., 0., 5.31914877e-003, 0., 0., 0.,
          2.65957438e-003, 0., 0., 2.65957438e-003, 2.65957438e-003, 0.,
          0., 0., 0., 1.06382975e-002, 2.65957438e-003, 0., 0., 0., 0.,
          0., 0., 0., 0., 0., 2.65957438e-003, 0., 0., 0., 0., 0., 0.,
          0., 0., 0., 0., 0., 2.65957438e-003, 0., 0., 0.,
          2.65957438e-003, 0., 0., 0., 2.65957438e-003, 0., 0., 0., 0.,
          0., 0., 0., 0., 0., 0., 0., 0., 0., 0., 0., 2.65957438e-003,
          0., 2.65957438e-003, 0., 0., 0., 0., 0., 0., 0., 0.,
          2.65957438e-003, 0., 0., 0., 0., 0., 0., 0., 2.65957438e-003,
          0., 0., 0., 1.06382975e-002, 0., 2.65957438e-003, 0.,
          7.97872338e-003, 0., 0., 0., 0., 0., 2.65957438e-003,
          5.31914877e-003, 0., 0., 0., 0., 0., 2.65957438e-003,
          2.65957438e-003, 2.65957438e-003, 2.65957438e-003, 0., 0., 0.,
          2.65957438e-003, 0., 0., 0., 2.65957438e-003, 7.97872338e-003,
          1.86170209e-002, 0., 5.31914877e-003, 2.65957438e-003, 0.,
          2.65957438e-003, 0., 2.65957438e-003, 0., 0., 0., 0., 0., 0.,
          0., 2.65957438e-003, 0., 0., 0., 0., 2.65957438e-003, 0., 0.,
          0., 0., 0., 2.65957438e-003, 0., 0., 5.31914877e-003, 0.,
          2.65957438e-003, 5.31914877e-003, 0., 0., 0., 0.,
          2.65957438e-003, 5.31914877e-003, 0., 2.65957438e-003,
          2.65957438e-003, 2.65957438e-003, 0., 0., 7.97872338e-003,
          2.65957438e-003, 0., 0., 0., 0., 0., 0., 0., 0., 0., 0., 0.,
          0., 0., 0., 2.65957438e-003, 0., 0., 0., 2.65957438e-003, 0.,
          2.65957438e-003, 0., 0., 2.65957438e-003, 0., 0., 0., 0.,
          5.31914877e-003, 2.65957438e-003, 0., 0., 0., 0., 0., 0.,
          2.65957438e-003, 0., 0., 0., 5.31914877e-003, 0., 0., 0., 0.,
          5.31914877e-003, 0., 0., 0., 0., 7.97872338e-003, 0.,
          7.97872338e-003, 0., 1.59574468e-002, 0., 0., 5.31914877e-003,
          5.31914877e-003, 0., 0., 0., 0., 0., 2.65957438e-003, 0., 0.,
          0., 2.65957438e-003, 0., 0., 0., 2.65957438e-003,
          2.65957438e-003, 0., 2.65957438e-003, 0., 0., 0., 0.,
          2.65957438e-003, 0., 0., 5.31914877e-003, 0., 2.65957438e-003,
          0., 0., 0., 0., 0., 2.65957438e-003, 0., 0., 2.65957438e-003,
          0., 0., 0., 0., 0., 0., 0., 0., 0., 0., 0., 0., 0., 0., 0., 0.,
          0., 0., 0., 0., 2.65957438e-003, 0., 0., 0., 5.31914877e-003,
          0., 0., 0., 0., 2.65957438e-003, 0., 0., 0., 0.,
          1.32978717e-002, 0., 0., 0., 2.65957438e-003, 7.97872338e-003,
          2.65957438e-003, 0., 0., 0., 0., 0., 0., 0., 0.,
          2.65957438e-003, 5.31914877e-003, 2.65957438e-003, 0., 0., 0.,
          5.31914877e-003, 0., 0., 0., 0., 0., 7.97872338e-003, 0.,
          7.97872338e-003, 2.65957438e-003, 0., 2.65957438e-003, 0., 0.,
          2.65957438e-003, 2.65957438e-003, 2.65957438e-003, 0., 0., 0.,
          0., 0., 0., 0., 2.65957438e-003, 0., 0., 2.65957438e-003, 0.,
          0., 0., 0., 0., 0., 0., 0., 0., 0., 0., 0., 0., 0.,
          2.65957438e-003, 0., 0., 0., 2.65957438e-003, 0.,
          2.65957438e-003, 0., 0., 0., 0., 0., 0., 0., 0., 0., 0.,
          2.65957438e-003, 0., 0., 2.65957438e-003, 0., 0.,
          2.65957438e-003, 0., 0., 0., 5.31914877e-003, 0., 0., 0., 0.,
          0., 0., 0., 0., 0., 0., 0., 0., 0., 0., 7.97872338e-003,
          2.65957438e-003, 2.65957438e-003, 0., 2.65957438e-003, 0., 0.,
          0., 0., 5.31914877e-003, 0., 5.31914877e-003, 0., 0., 0., 0.,
          0., 0., 2.65957438e-003, 0., 2.65957438e-003, 0., 0.,
          2.65957438e-003, 2.65957438e-003, 0., 0., 0., 0., 0., 0., 0.,
          0., 0., 0., 0., 0., 0., 0., 7.97872338e-003, 0., 0., 0., 0.,
          0., 0., 5.31914877e-003, 0., 0., 0., 0., 0., 0., 0., 0., 0.,
          0., 0., 0., 2.65957438e-003, 0., 0., 2.65957438e-003, 0.,
          2.65957438e-003, 0., 0., 0., 0., 5.31914877e-003, 0., 0.,
          2.65957438e-003, 0., 0., 0., 0., 0., 0., 2.65957438e-003,
          1.32978717e-002, 2.65957438e-003, 0., 0., 0., 0.,
          2.65957438e-003, 0., 0., 2.65957438e-003, 0., 0., 0.,
          2.65957438e-003, 2.65957438e-003, 0., 0., 0., 2.65957438e-003,
          0., 2.65957438e-003, 0., 0., 5.31914877e-003, 0., 0., 0., 0.,
          0., 0., 0., 0., 0., 2.65957438e-003, 0., 0., 5.31914877e-003,
          0., 0., 0., 0., 2.65957438e-003, 0., 0., 0., 5.31914877e-003,
          2.65957438e-003, 2.65957438e-003, 0., 0., 2.65957438e-003, 0.,
          0., 2.65957438e-003, 0., 0., 0., 0., 2.65957438e-003, 0., 0.,
          0., 0., 0., 0., 0., 2.65957438e-003, 0., 1.32978717e-002,
          2.65957438e-003, 0., 0., 5.31914877e-003, 0., 0., 0., 0.,
          5.31914877e-003, 7.97872338e-003, 0., 1.06382975e-002, 0., 0.,
          0., 0., 0., 0., 2.65957438e-003, 0., 5.31914877e-003, 0., 0.,
          0., 0., 0., 0., 0., 0., 2.65957438e-003, 0., 0.,
          2.65957438e-003, 0., 0., 0., 0., 0., 2.65957438e-003,
          7.97872338e-003, 0., 2.65957438e-003, 0., 0., 0.,
          2.65957438e-003, 2.65957438e-003, 0., 0., 2.65957438e-003, 0.,
          0., 0., 0., 0., 0., 0., 0., 2.65957438e-003, 1.06382975e-002,
          0., 0., 0., 0., 2.65957438e-003, 0., 0., 2.65957438e-003, 0.,
          0., 2.65957438e-003, 0., 0., 0., 0., 0., 0., 2.65957438e-003,
          0., 0., 0., 0., 0., 2.65957438e-003, 0., 0., 0.,
          5.31914877e-003, 2.65957438e-003, 0., 0., 0., 2.65957438e-003,
          2.65957438e-003, 0., 0., 0., 0., 0., 0., 0., 2.65957438e-003,
          0., 0., 0., 0., 0., 0., 0., 2.65957438e-003, 0., 0., 0., 0.,
          2.65957438e-003, 5.31914877e-003, 1.06382975e-002, 0., 0.,
          2.65957438e-003, 0., 0., 0., 5.31914877e-003, 0.,
          5.31914877e-003, 5.31914877e-003, 0., 0., 0., 0., 0., 0., 0.,
          0., 0., 0., 0., 1.06382975e-002, 0. ]
      - [ 0., 2.98507465e-003, 2.98507465e-003, 2.98507465e-003, 0.,
          5.97014930e-003, 0., 0., 5.97014930e-003, 2.98507465e-003, 0.,
          0., 0., 2.98507465e-003, 0., 0., 0., 0., 8.95522349e-003, 0.,
          2.98507465e-003, 0., 0., 2.98507465e-003, 0., 0., 0., 0.,
          2.98507465e-003, 0., 0., 0., 0., 0., 2.98507465e-003, 0.,
          2.98507465e-003, 0., 2.98507465e-003, 0., 0., 0., 0., 0., 0.,
          0., 0., 0., 0., 0., 0., 0., 2.98507465e-003, 0., 0., 0., 0.,
          0., 5.97014930e-003, 2.98507465e-003, 0., 2.98507465e-003, 0.,
          0., 0., 0., 2.98507465e-003, 0., 0., 0., 0., 0., 0., 0., 0.,
          2.98507465e-003, 5.97014930e-003, 0., 0., 0., 0., 0., 0.,
          5.97014930e-003, 0., 0., 0., 0., 0., 0., 0., 1.19402986e-002,
          0., 0., 0., 0., 0., 2.98507465e-003, 0., 0., 0., 0., 0., 0.,
          0., 0., 0., 0., 2.98507465e-003, 0., 2.98507465e-003,
          8.95522349e-003, 0., 2.98507465e-003, 0., 0., 2.98507465e-003,
          0., 0., 5.97014930e-003, 0., 5.97014930e-003, 0.,
          2.98507465e-003, 0., 0., 0., 0., 2.98507465e-003, 0., 0., 0.,
          2.98507465e-003, 0., 0., 0., 0., 0., 0., 0., 0., 0., 0., 0.,
          0., 0., 0., 0., 0., 0., 0., 0., 0., 5.97014930e-003, 0.,
          2.98507465e-003, 0., 0., 2.98507465e-003, 0., 0., 0., 0., 0.,
          0., 0., 0., 2.98507465e-003, 0., 0., 0., 0., 0., 0., 0., 0.,
          0., 5.97014930e-003, 0., 2.98507465e-003, 2.98507465e-003, 0.,
          0., 0., 0., 0., 0., 2.98507465e-003, 0., 0., 0., 0., 0., 0.,
          0., 0., 0., 0., 0., 0., 0., 5.97014930e-003, 0., 0.,
          1.19402986e-002, 0., 0., 0., 2.98507465e-003, 0., 0., 0.,
          5.97014930e-003, 2.98507465e-003, 5.97014930e-003, 0., 0., 0.,
          2.98507465e-003, 0., 2.98507465e-003, 2.98507465e-003, 0., 0.,
          0., 0., 2.98507465e-003, 0., 0., 0., 0., 0., 2.98507465e-003,
          0., 0., 0., 2.98507465e-003, 2.98507465e-003, 0., 0., 0., 0.,
          0., 2.98507465e-003, 0., 0., 0., 0., 0., 0., 0.,
          2.98507465e-003, 0., 0., 0., 0., 0., 0., 2.98507465e-003, 0.,
          2.98507465e-003, 0., 5.97014930e-003, 0., 0., 5.97014930e-003,
          0., 0., 0., 0., 0., 0., 0., 0., 0., 2.98507465e-003,
          2.98507465e-003, 0., 0., 0., 0., 0., 5.97014930e-003, 0., 0.,
          0., 0., 0., 0., 0., 0., 0., 0., 0., 8.95522349e-003, 0.,
          2.98507465e-003, 0., 0., 0., 0., 0., 0., 0., 5.97014930e-003,
          2.98507465e-003, 0., 0., 2.98507465e-003, 0., 0., 0., 0., 0.,
          2.98507465e-003, 0., 0., 0., 0., 0., 0., 2.98507465e-003, 0.,
          0., 0., 2.98507465e-003, 0., 0., 0., 2.98507465e-003, 0., 0.,
          0., 2.98507465e-003, 0., 0., 0., 2.98507465e-003, 0., 0., 0.,
          1.19402986e-002, 0., 2.98507465e-003, 0., 0., 8.95522349e-003,
          8.95522349e-003, 0., 0., 0., 0., 0., 0., 0., 0., 0.,
          2.98507465e-003, 0., 0., 5.97014930e-003, 2.98507465e-003, 0.,
          0., 0., 2.98507465e-003, 2.98507465e-003, 0., 0., 0., 0.,
          5.97014930e-003, 0., 0., 0., 0., 2.98507465e-003, 0., 0.,
          2.98507465e-003, 0., 0., 0., 0., 2.98507465e-003, 0., 0.,
          2.98507465e-003, 0., 0., 0., 0., 0., 0., 0., 0.,
          2.98507465e-003, 0., 0., 0., 5.97014930e-003, 0.,
          2.98507465e-003, 0., 0., 0., 0., 0., 0., 0., 0.,
          2.98507465e-003, 0., 0., 0., 0., 0., 0., 0., 2.98507465e-003,
          0., 0., 0., 0., 0., 0., 0., 0., 2.98507465e-003, 0., 0., 0.,
          2.98507465e-003, 0., 0., 0., 0., 0., 0., 0., 0.,
          2.98507465e-003, 0., 0., 2.98507465e-003, 0., 0.,
          2.98507465e-003, 0., 0., 0., 0., 0., 0., 0., 0.,
          2.98507465e-003, 0., 2.98507465e-003, 8.95522349e-003,
          2.98507465e-003, 2.98507465e-003, 0., 0., 0., 0., 0., 0.,
          5.97014930e-003, 0., 0., 2.98507465e-003, 0., 0., 0.,
          5.97014930e-003, 0., 0., 0., 0., 0., 2.98507465e-003, 0., 0.,
          0., 0., 0., 0., 0., 0., 0., 2.98507465e-003, 0., 0., 0.,
          5.97014930e-003, 0., 0., 0., 0., 0., 0., 0., 0., 0.,
          2.98507465e-003, 2.98507465e-003, 2.98507465e-003, 0., 0., 0.,
          0., 0., 2.98507465e-003, 0., 0., 0., 0., 0., 0.,
          8.95522349e-003, 0., 0., 0., 0., 0., 0., 8.95522349e-003, 0.,
          0., 0., 0., 0., 0., 0., 2.98507465e-003, 0., 0., 0., 0., 0.,
          0., 0., 0., 0., 0., 5.97014930e-003, 0., 0., 2.98507465e-003,
          0., 0., 0., 0., 0., 0., 0., 2.98507465e-003, 0., 0., 0., 0.,
          0., 2.98507465e-003, 0., 0., 0., 0., 0., 0., 0., 0., 0., 0.,
          0., 0., 0., 0., 0., 0., 0., 0., 0., 2.98507465e-003, 0., 0.,
          0., 0., 0., 0., 0., 2.98507465e-003, 0., 0., 0.,
          2.98507465e-003, 2.98507465e-003, 0., 0., 2.98507465e-003, 0.,
          0., 0., 0., 0., 0., 5.97014930e-003, 0., 0., 0.,
          2.98507465e-003, 5.97014930e-003, 1.79104470e-002, 0., 0., 0.,
          2.98507465e-003, 0., 0., 0., 0., 2.98507465e-003,
          2.98507465e-003, 0., 0., 0., 0., 5.97014930e-003, 0.,
          2.98507465e-003, 0., 0., 0., 5.97014930e-003, 0.,
          5.97014930e-003, 2.98507465e-003, 0., 2.98507465e-003, 0., 0.,
          2.98507465e-003, 0., 0., 2.98507465e-003, 0., 2.98507465e-003,
          2.98507465e-003, 0., 2.98507465e-003, 0., 0., 0., 0., 0., 0.,
          2.98507465e-003, 0., 0., 2.98507465e-003, 0., 0., 0., 0., 0.,
          5.97014930e-003, 0., 0., 0., 0., 0., 0., 0., 2.98507465e-003,
          0., 5.97014930e-003, 0., 0., 0., 2.98507465e-003, 0., 0., 0.,
          0., 0., 0., 5.97014930e-003, 0., 0., 2.98507465e-003,
          2.98507465e-003, 2.98507465e-003, 0., 0., 0., 0., 0., 0., 0.,
          0., 0., 0., 0., 0., 2.98507465e-003, 2.98507465e-003, 0., 0.,
          0., 0., 0., 2.98507465e-003, 0., 8.95522349e-003, 0., 0., 0.,
          0., 0., 0., 0., 0., 2.98507465e-003, 0., 2.98507465e-003, 0.,
          0., 5.97014930e-003, 2.98507465e-003, 2.98507465e-003, 0.,
          5.97014930e-003, 2.98507465e-003, 0., 0., 2.98507465e-003, 0.,
          0., 0., 0., 0., 0., 0., 0., 0., 0., 0., 5.97014930e-003, 0.,
          0., 5.97014930e-003, 0., 0., 0., 5.97014930e-003, 0., 0.,
          8.95522349e-003, 0., 0., 0., 0., 0., 0., 8.95522349e-003, 0.,
          0., 0., 0., 0., 5.97014930e-003, 2.98507465e-003, 0., 0.,
          2.98507465e-003, 0., 0., 0., 0., 0., 2.98507465e-003, 0., 0.,
          0., 0., 0., 0., 0., 0., 0., 0., 2.98507465e-003, 0., 0.,
          2.98507465e-003, 0., 0., 5.97014930e-003, 2.98507465e-003,
          2.98507465e-003, 5.97014930e-003, 0., 0., 0., 0., 0., 0., 0.,
          0., 2.98507465e-003, 0., 8.95522349e-003, 0., 0.,
          1.19402986e-002, 0., 0., 0., 0., 0., 0., 0., 0., 0., 0.,
          2.98507465e-003, 0., 0., 0., 0., 0., 0., 0., 0., 0., 0., 0.,
          0., 0., 2.98507465e-003, 0., 5.97014930e-003, 0.,
          2.98507465e-003, 0., 2.98507465e-003, 0., 2.98507465e-003,
          5.97014930e-003, 0., 0., 0., 0., 0., 0., 0., 0., 0., 0.,
          5.97014930e-003, 2.98507465e-003, 0., 0., 2.98507465e-003, 0.,
          0., 0., 2.98507465e-003, 2.98507465e-003, 0., 2.98507465e-003,
          5.97014930e-003, 0., 0., 0., 0., 0., 0., 0., 2.98507465e-003,
          5.97014930e-003, 2.98507465e-003, 0., 0., 0., 0., 0.,
          2.98507465e-003, 0., 0., 0., 0., 2.98507465e-003,
          2.98507465e-003, 0., 2.98507465e-003, 0., 0., 0.,
          5.97014930e-003, 0., 2.98507465e-003, 2.98507465e-003, 0., 0.,
          2.98507465e-003, 0., 0., 0., 2.98507465e-003, 0., 0., 0., 0.,
          0., 2.98507465e-003, 0., 0., 0., 0., 0., 0., 0., 0.,
          5.97014930e-003, 0., 0., 0., 0., 5.97014930e-003, 0., 0., 0.,
          0., 0., 0., 0., 5.97014930e-003, 0., 0., 0., 0., 0., 0., 0.,
          0., 0., 2.98507465e-003, 8.95522349e-003, 0., 0.,
          2.98507465e-003, 0., 2.98507465e-003, 0., 2.98507465e-003, 0.,
          0., 0., 5.97014930e-003, 0., 0., 0., 2.98507465e-003, 0., 0.,
          0., 0., 0., 2.98507465e-003, 0., 2.98507465e-003, 0., 0., 0.,
          5.97014930e-003, 0., 5.97014930e-003, 2.98507465e-003,
          5.97014930e-003, 0., 2.98507465e-003, 0., 8.95522349e-003, 0.,
          0., 5.97014930e-003, 2.98507465e-003, 0., 0., 2.98507465e-003,
          0., 0., 2.98507465e-003, 0., 2.98507465e-003, 0., 0.,
          8.95522349e-003, 0. ]
      - [ 8.49858299e-003, 0., 0., 0., 0., 0., 0., 0., 0.,
          2.83286115e-003, 0., 0., 2.83286115e-003, 2.83286115e-003, 0.,
          0., 0., 0., 8.49858299e-003, 0., 0., 2.83286115e-003, 0.,
          2.83286115e-003, 0., 0., 0., 0., 0., 5.66572230e-003,
          2.83286115e-003, 5.66572230e-003, 2.83286115e-003, 0.,
          2.83286115e-003, 0., 5.66572230e-003, 0., 8.49858299e-003,
          2.83286115e-003, 0., 0., 0., 0., 0., 0., 0., 0., 0.,
          2.83286115e-003, 0., 0., 0., 0., 2.83286115e-003, 0., 0., 0.,
          0., 0., 0., 0., 2.83286115e-003, 0., 2.83286115e-003, 0.,
          2.83286115e-003, 0., 0., 0., 0., 0., 0., 0., 0., 0., 0., 0.,
          0., 0., 0., 0., 0., 0., 0., 0., 0., 0., 0., 0., 0., 0., 0., 0.,
          0., 0., 0., 0., 2.83286115e-003, 0., 0., 0., 2.83286115e-003,
          0., 0., 5.66572230e-003, 0., 0., 0., 0., 0., 0.,
          2.83286115e-003, 0., 0., 0., 0., 0., 0., 5.66572230e-003, 0.,
          5.66572230e-003, 0., 0., 0., 0., 2.83286115e-003, 0., 0., 0.,
          0., 0., 2.83286115e-003, 0., 5.66572230e-003, 2.83286115e-003,
          0., 0., 0., 0., 0., 0., 0., 0., 0., 0., 0., 0., 0., 0., 0., 0.,
          2.54957508e-002, 0., 2.83286115e-003, 2.83286115e-003, 0., 0.,
          0., 0., 0., 0., 0., 0., 0., 0., 0., 5.66572230e-003, 0.,
          5.66572230e-003, 2.83286115e-003, 0., 0., 0., 2.83286115e-003,
          2.83286115e-003, 2.83286115e-003, 0., 0., 2.83286115e-003, 0.,
          0., 0., 0., 0., 2.83286115e-003, 2.83286115e-003,
          2.83286115e-003, 2.83286115e-003, 0., 0., 2.83286115e-003, 0.,
          0., 0., 0., 0., 0., 2.83286115e-003, 0., 0., 2.83286115e-003,
          0., 0., 1.13314446e-002, 0., 0., 2.83286115e-003, 0., 0., 0.,
          0., 5.66572230e-003, 5.66572230e-003, 2.83286115e-003,
          2.83286115e-003, 2.83286115e-003, 0., 0., 0., 0.,
          2.83286115e-003, 0., 0., 0., 2.83286115e-003, 2.83286115e-003,
          0., 0., 0., 0., 5.66572230e-003, 0., 0., 0., 2.83286115e-003,
          5.66572230e-003, 2.83286115e-003, 0., 0., 0., 0., 0., 0., 0.,
          0., 0., 0., 0., 0., 0., 2.83286115e-003, 0., 2.83286115e-003,
          0., 0., 2.83286115e-003, 0., 0., 2.83286115e-003,
          5.66572230e-003, 0., 0., 0., 2.83286115e-003, 2.83286115e-003,
          0., 0., 0., 2.83286115e-003, 0., 2.83286115e-003,
          1.41643062e-002, 0., 0., 0., 2.83286115e-003, 0., 0., 0., 0.,
          0., 0., 0., 0., 0., 0., 2.83286115e-003, 0., 0., 0.,
          2.83286115e-003, 0., 0., 0., 0., 0., 0., 0., 0., 0., 0., 0.,
          2.83286115e-003, 0., 0., 0., 0., 2.83286115e-003, 0., 0.,
          5.66572230e-003, 0., 0., 0., 5.66572230e-003, 0., 0., 0., 0.,
          0., 5.66572230e-003, 0., 2.83286115e-003, 0., 5.66572230e-003,
          2.83286115e-003, 0., 0., 0., 0., 0., 0., 2.83286115e-003, 0.,
          0., 0., 0., 5.66572230e-003, 0., 0., 0., 0., 0., 0., 0., 0.,
          0., 0., 0., 5.66572230e-003, 0., 0., 0., 0., 0., 0.,
          2.83286115e-003, 0., 0., 0., 2.83286115e-003, 0., 0., 0.,
          5.66572230e-003, 0., 0., 0., 0., 8.49858299e-003, 0., 0., 0.,
          0., 0., 0., 2.83286115e-003, 0., 2.83286115e-003, 0., 0.,
          2.83286115e-003, 0., 2.83286115e-003, 0., 0., 2.83286115e-003,
          0., 2.83286115e-003, 0., 0., 0., 0., 0., 0., 0.,
          5.66572230e-003, 0., 0., 2.83286115e-003, 0., 2.83286115e-003,
          2.83286115e-003, 0., 0., 0., 0., 0., 0., 0., 0.,
          8.49858299e-003, 0., 2.83286115e-003, 0., 0., 0., 0., 0., 0.,
          0., 0., 0., 0., 5.66572230e-003, 0., 0., 0., 2.83286115e-003,
          0., 0., 0., 0., 0., 0., 0., 0., 0., 2.83286115e-003,
          1.13314446e-002, 0., 0., 0., 0., 0., 0., 2.83286115e-003,
          2.83286115e-003, 2.83286115e-003, 0., 0., 0., 0., 0., 0.,
          2.83286115e-003, 0., 0., 0., 0., 0., 0., 0., 2.83286115e-003,
          0., 0., 0., 0., 0., 0., 2.83286115e-003, 0., 0., 0., 0.,
          2.83286115e-003, 0., 0., 0., 0., 0., 0., 0., 0., 0., 0., 0.,
          2.83286115e-003, 0., 0., 0., 0., 0., 0., 0., 2.83286115e-003,
          0., 0., 0., 0., 5.66572230e-003, 0., 0., 2.83286115e-003,
          2.83286115e-003, 0., 1.13314446e-002, 0., 0., 2.83286115e-003,
          0., 0., 8.49858299e-003, 0., 8.49858299e-003, 0.,
          2.83286115e-003, 0., 5.66572230e-003, 0., 0., 0.,
          1.41643062e-002, 0., 0., 0., 5.66572230e-003, 2.83286115e-003,
          5.66572230e-003, 0., 0., 0., 0., 0., 2.83286115e-003, 0.,
          2.83286115e-003, 0., 8.49858299e-003, 0., 0., 2.83286115e-003,
          0., 0., 0., 5.66572230e-003, 0., 0., 2.83286115e-003, 0., 0.,
          0., 0., 0., 0., 0., 2.83286115e-003, 0., 2.83286115e-003,
          5.66572230e-003, 0., 2.83286115e-003, 0., 0., 0., 0., 0., 0.,
          0., 0., 0., 0., 0., 0., 0., 0., 0., 0., 0., 0.,
          2.83286115e-003, 0., 0., 0., 0., 0., 0., 0., 0., 0., 0., 0.,
          5.66572230e-003, 0., 2.83286115e-003, 2.83286115e-003, 0., 0.,
          0., 0., 0., 0., 0., 0., 0., 8.49858299e-003, 0., 0., 0., 0.,
          2.83286115e-003, 5.66572230e-003, 0., 0., 0., 0., 0., 0., 0.,
          0., 0., 2.83286115e-003, 0., 0., 0., 0., 0., 0., 0., 0., 0.,
          0., 8.49858299e-003, 0., 5.66572230e-003, 0., 2.83286115e-003,
          0., 0., 2.83286115e-003, 0., 5.66572230e-003, 2.83286115e-003,
          0., 0., 2.83286115e-003, 2.83286115e-003, 0., 2.83286115e-003,
          5.66572230e-003, 0., 0., 0., 0., 0., 0., 0., 0., 0., 0., 0.,
          0., 0., 0., 0., 0., 0., 0., 0., 0., 0., 0., 2.83286115e-003,
          8.49858299e-003, 0., 0., 0., 0., 0., 0., 0., 0., 0.,
          2.83286115e-003, 0., 2.83286115e-003, 0., 0., 0., 0.,
          2.83286115e-003, 0., 0., 0., 0., 0., 0., 2.83286115e-003,
          2.83286115e-003, 0., 0., 0., 0., 2.83286115e-003, 0., 0., 0.,
          0., 0., 0., 0., 0., 0., 0., 2.83286115e-003, 0., 0.,
          2.83286115e-003, 0., 0., 2.83286115e-003, 0., 0., 0., 0., 0.,
          0., 0., 0., 0., 0., 5.66572230e-003, 0., 0., 0.,
          2.83286115e-003, 2.83286115e-003, 0., 0., 0., 0., 0., 0., 0.,
          0., 0., 5.66572230e-003, 0., 2.83286115e-003, 0.,
          5.66572230e-003, 0., 2.83286115e-003, 0., 0., 5.66572230e-003,
          5.66572230e-003, 0., 0., 0., 0., 2.83286115e-003, 0., 0., 0.,
          0., 0., 0., 0., 0., 0., 0., 0., 0., 5.66572230e-003, 0.,
          2.83286115e-003, 0., 2.83286115e-003, 0., 0., 2.83286115e-003,
          0., 0., 0., 0., 0., 0., 0., 0., 5.66572230e-003, 0., 0., 0.,
          2.83286115e-003, 0., 0., 0., 0., 0., 0., 0., 0.,
          2.83286115e-003, 0., 0., 0., 0., 2.83286115e-003, 0., 0.,
          5.66572230e-003, 0., 2.83286115e-003, 0., 0., 0., 0., 0., 0.,
          0., 0., 0., 5.66572230e-003, 0., 0., 0., 0., 0., 0., 0.,
          1.13314446e-002, 0., 2.83286115e-003, 0., 5.66572230e-003, 0.,
          0., 0., 0., 2.83286115e-003, 0., 0., 0., 0., 0., 0., 0., 0.,
          2.83286115e-003, 0., 0., 2.83286115e-003, 0., 0.,
          2.83286115e-003, 0., 0., 2.83286115e-003, 0., 0.,
          2.83286115e-003, 0., 0., 2.83286115e-003, 0., 0., 0., 0., 0.,
          0., 0., 0., 0., 0., 2.26628892e-002, 0., 2.83286115e-003, 0.,
          0., 0., 0., 0., 0., 0., 0., 0., 0., 5.66572230e-003, 0., 0.,
          1.13314446e-002, 0., 2.83286115e-003, 0., 8.49858299e-003,
          2.83286115e-003, 0., 0., 0., 0., 0., 0., 0., 5.66572230e-003,
          0., 0., 0., 2.83286115e-003, 0., 0., 2.83286115e-003, 0., 0.,
          0., 0., 0., 0., 1.69971660e-002, 2.83286115e-003, 0., 0., 0.,
          2.83286115e-003, 0., 0., 0., 0., 1.13314446e-002, 0., 0., 0.,
          5.66572230e-003, 2.83286115e-003, 0., 5.66572230e-003, 0., 0.,
          0., 0., 0., 2.83286115e-003, 0., 0., 2.83286115e-003, 0., 0.,
          0., 0., 0., 0., 0., 0., 0., 0., 0., 2.83286115e-003, 0., 0.,
          0., 0., 0., 2.83286115e-003, 0., 0., 0., 2.83286115e-003,
          2.83286115e-003, 5.66572230e-003, 0., 0., 0., 0., 0.,
          5.66572230e-003, 0., 0., 0., 2.83286115e-003, 0., 0., 0.,
          8.49858299e-003, 0., 5.66572230e-003, 0., 0., 2.83286115e-003,
          0., 0., 0., 0., 0., 0., 5.66572230e-003, 2.83286115e-003, 0.,
          2.83286115e-003, 0. ]
      - [ 0., 3.04878037e-003, 0., 0., 0., 0., 0., 3.04878037e-003, 0.,
          0., 6.09756075e-003, 0., 0., 3.04878037e-003, 0., 0., 0., 0.,
          9.14634112e-003, 0., 0., 0., 0., 0., 3.04878037e-003, 0., 0.,
          3.04878037e-003, 6.09756075e-003, 6.09756075e-003,
          3.04878037e-003, 0., 0., 0., 9.14634112e-003, 3.04878037e-003,
          0., 0., 9.14634112e-003, 3.04878037e-003, 0., 0., 0., 0., 0.,
          0., 0., 0., 0., 0., 0., 0., 3.04878037e-003, 0., 0.,
          3.04878037e-003, 0., 0., 0., 0., 3.04878037e-003,
          3.04878037e-003, 0., 0., 9.14634112e-003, 0., 1.21951215e-002,
          0., 0., 0., 0., 0., 0., 0., 0., 0., 0., 0., 0., 0., 0., 0.,
          3.04878037e-003, 0., 0., 0., 0., 0., 3.04878037e-003, 0., 0.,
          0., 0., 0., 3.04878037e-003, 0., 0., 0., 0., 0., 0., 0., 0.,
          0., 0., 0., 6.09756075e-003, 3.04878037e-003, 0., 0., 0., 0.,
          3.04878037e-003, 0., 0., 0., 0., 0., 0., 0., 0.,
          3.04878037e-003, 0., 6.09756075e-003, 0., 0., 0., 0.,
          6.09756075e-003, 0., 0., 0., 3.04878037e-003, 0., 0., 0.,
          3.04878037e-003, 0., 0., 0., 0., 0., 0., 0., 0., 0., 0., 0.,
          0., 0., 0., 0., 0., 0., 0., 0., 0., 0., 0., 0., 0., 0., 0., 0.,
          0., 0., 0., 0., 0., 3.04878037e-003, 6.09756075e-003, 0., 0.,
          0., 0., 3.04878037e-003, 3.04878037e-003, 0., 0., 0., 0., 0.,
          0., 0., 0., 6.09756075e-003, 0., 1.21951215e-002, 0., 0., 0.,
          0., 0., 0., 0., 3.04878037e-003, 0., 3.04878037e-003, 0.,
          3.04878037e-003, 0., 6.09756075e-003, 3.04878037e-003, 0.,
          6.09756075e-003, 0., 0., 0., 0., 6.09756075e-003, 0., 0., 0.,
          6.09756075e-003, 3.04878037e-003, 3.04878037e-003, 0., 0., 0.,
          0., 0., 0., 0., 0., 0., 3.04878037e-003, 0., 0., 0., 0., 0.,
          1.21951215e-002, 0., 0., 0., 3.04878037e-003, 6.09756075e-003,
          0., 0., 0., 0., 0., 0., 0., 0., 0., 0., 0., 0., 0., 0., 0., 0.,
          6.09756075e-003, 0., 3.04878037e-003, 3.04878037e-003, 0., 0.,
          0., 6.09756075e-003, 0., 0., 0., 0., 6.09756075e-003, 0.,
          3.04878037e-003, 0., 0., 0., 0., 9.14634112e-003, 0., 0.,
          6.09756075e-003, 3.04878037e-003, 0., 0., 0., 0., 0., 0., 0.,
          0., 6.09756075e-003, 0., 0., 0., 0., 0., 0., 1.52439019e-002,
          0., 0., 0., 3.04878037e-003, 0., 3.04878037e-003, 0., 0., 0.,
          3.04878037e-003, 0., 0., 0., 3.04878037e-003, 0.,
          3.04878037e-003, 0., 0., 6.09756075e-003, 0., 0., 0., 0., 0.,
          0., 0., 0., 0., 6.09756075e-003, 0., 0., 3.04878037e-003, 0.,
          0., 0., 0., 0., 0., 0., 0., 0., 0., 0., 0., 3.04878037e-003,
          3.04878037e-003, 0., 0., 0., 0., 0., 0., 0., 6.09756075e-003,
          0., 0., 0., 9.14634112e-003, 0., 0., 0., 0., 0., 0.,
          9.14634112e-003, 0., 0., 0., 0., 0., 0., 0., 3.04878037e-003,
          0., 3.04878037e-003, 0., 0., 3.04878037e-003, 0., 0., 0., 0.,
          0., 0., 3.04878037e-003, 0., 3.04878037e-003, 0., 0., 0., 0.,
          0., 0., 0., 0., 0., 0., 0., 0., 0., 0., 6.09756075e-003, 0.,
          6.09756075e-003, 0., 0., 6.09756075e-003, 6.09756075e-003, 0.,
          0., 0., 0., 0., 0., 3.04878037e-003, 0., 0., 0., 0., 0., 0.,
          0., 0., 0., 0., 0., 3.04878037e-003, 0., 0., 0., 0., 0.,
          6.09756075e-003, 9.14634112e-003, 0., 0., 3.04878037e-003, 0.,
          0., 0., 3.04878037e-003, 0., 3.04878037e-003, 3.04878037e-003,
          0., 0., 0., 2.13414617e-002, 0., 0., 0., 0., 3.04878037e-003,
          0., 0., 0., 3.04878037e-003, 0., 0., 0., 0., 0., 0.,
          3.04878037e-003, 0., 0., 9.14634112e-003, 0., 3.04878037e-003,
          0., 0., 0., 0., 0., 0., 3.04878037e-003, 0., 0.,
          6.09756075e-003, 0., 0., 0., 3.04878037e-003, 0., 0., 0., 0.,
          0., 0., 0., 0., 0., 0., 0., 0., 0., 0., 0., 0., 0., 0., 0., 0.,
          0., 0., 0., 6.09756075e-003, 0., 0., 0., 0., 3.04878037e-003,
          3.04878037e-003, 0., 9.14634112e-003, 0., 0., 0., 0., 0.,
          3.04878037e-003, 0., 0., 0., 0., 0., 0., 3.04878037e-003,
          3.04878037e-003, 0., 1.21951215e-002, 0., 0., 0.,
          6.09756075e-003, 0., 3.04878037e-003, 0., 0., 0., 0., 0.,
          6.09756075e-003, 0., 0., 0., 3.04878037e-003, 0., 0., 0., 0.,
          0., 0., 3.04878037e-003, 0., 0., 3.04878037e-003,
          6.09756075e-003, 3.04878037e-003, 0., 0., 0., 0., 0., 0., 0.,
          3.04878037e-003, 6.09756075e-003, 0., 3.04878037e-003, 0., 0.,
          0., 0., 0., 0., 3.04878037e-003, 0., 0., 0., 0., 0., 0., 0.,
          0., 0., 0., 0., 0., 0., 0., 0., 0., 0., 0., 0., 0., 0., 0., 0.,
          0., 0., 3.04878037e-003, 0., 0., 0., 0., 0., 0., 0., 0., 0.,
          0., 1.52439019e-002, 0., 3.04878037e-003, 3.04878037e-003, 0.,
          6.09756075e-003, 3.04878037e-003, 0., 0., 6.09756075e-003, 0.,
          0., 0., 0., 0., 0., 3.04878037e-003, 0., 0., 0., 0.,
          3.04878037e-003, 0., 0., 0., 0., 0., 9.14634112e-003,
          3.04878037e-003, 0., 0., 0., 0., 0., 0., 0., 3.04878037e-003,
          6.09756075e-003, 0., 0., 3.04878037e-003, 0., 3.04878037e-003,
          0., 0., 0., 0., 0., 0., 0., 3.04878037e-003, 0.,
          3.04878037e-003, 0., 3.04878037e-003, 0., 0., 0., 0., 0., 0.,
          0., 0., 0., 0., 0., 0., 3.04878037e-003, 9.14634112e-003, 0.,
          0., 0., 0., 3.04878037e-003, 0., 0., 0., 0., 3.04878037e-003,
          3.04878037e-003, 0., 0., 0., 0., 0., 0., 0., 0., 0., 0., 0.,
          0., 0., 0., 0., 0., 0., 0., 3.04878037e-003, 0., 0., 0., 0.,
          0., 0., 3.04878037e-003, 0., 0., 0., 6.09756075e-003, 0.,
          3.04878037e-003, 0., 0., 0., 0., 0., 3.04878037e-003,
          3.04878037e-003, 0., 0., 0., 0., 6.09756075e-003, 0., 0.,
          3.04878037e-003, 0., 0., 3.04878037e-003, 9.14634112e-003, 0.,
          3.04878037e-003, 0., 0., 0., 0., 3.04878037e-003, 0., 0., 0.,
          3.04878037e-003, 0., 0., 0., 0., 0., 3.04878037e-003,
          6.09756075e-003, 0., 0., 6.09756075e-003, 0., 0., 0., 0., 0.,
          3.04878037e-003, 1.21951215e-002, 0., 0., 0., 0., 0., 0., 0.,
          0., 0., 3.04878037e-003, 0., 0., 0., 0., 0., 3.04878037e-003,
          0., 0., 0., 0., 0., 0., 0., 0., 0., 0., 0., 0., 0., 0.,
          3.04878037e-003, 0., 0., 0., 0., 3.04878037e-003, 0., 0., 0.,
          0., 0., 0., 0., 0., 0., 6.09756075e-003, 0., 0.,
          6.09756075e-003, 9.14634112e-003, 0., 0., 0., 0., 0., 0., 0.,
          0., 0., 0., 0., 0., 3.04878037e-003, 0., 6.09756075e-003, 0.,
          0., 0., 0., 0., 0., 0., 0., 0., 9.14634112e-003, 0.,
          1.21951215e-002, 3.04878037e-003, 0., 0., 6.09756075e-003, 0.,
          0., 0., 0., 0., 0., 0., 0., 6.09756075e-003, 0., 0.,
          3.04878037e-003, 0., 3.04878037e-003, 0., 0., 0.,
          9.14634112e-003, 0., 0., 0., 0., 0., 0., 6.09756075e-003,
          3.04878037e-003, 0., 0., 0., 0., 0., 0., 0., 0., 0.,
          3.04878037e-003, 0., 0., 0., 0., 0., 0., 0., 0., 0., 0.,
          6.09756075e-003, 0., 0., 0., 1.21951215e-002, 0., 0., 0.,
          3.04878037e-003, 0., 0., 0., 0., 6.09756075e-003, 0., 0.,
          3.04878037e-003, 0., 0., 0., 0., 0., 0., 0., 0., 0.,
          3.04878037e-003, 0., 6.09756075e-003, 0., 0., 0., 0.,
          3.04878037e-003, 0., 0., 0., 0., 0., 0., 0., 0., 0., 0., 0.,
          0., 0., 0., 0., 6.09756075e-003, 0., 0., 0., 0., 0.,
          3.04878037e-003, 0., 0., 6.09756075e-003, 6.09756075e-003, 0.,
          0., 3.04878037e-003, 0., 3.04878037e-003, 3.04878037e-003, 0.,
          3.04878037e-003, 3.04878037e-003, 0., 0., 3.04878037e-003, 0.,
          0., 0., 0., 0., 3.04878037e-003, 0., 0., 0., 0., 0., 0.,
          3.04878037e-003, 0., 3.04878037e-003, 0., 0., 3.04878037e-003,
          0., 0., 0., 6.09756075e-003, 0., 0., 6.09756075e-003, 0., 0.,
          0., 0., 3.04878037e-003, 0., 3.04878037e-003, 0., 0., 0., 0. ]
      - [ 3.08641978e-003, 0., 0., 0., 0., 0., 0., 0., 0.,
          3.08641978e-003, 0., 0., 0., 0., 0., 0., 3.08641978e-003, 0.,
          0., 0., 0., 0., 0., 0., 0., 6.17283955e-003, 0., 0.,
          6.17283955e-003, 6.17283955e-003, 3.08641978e-003, 0., 0., 0.,
          3.08641978e-003, 0., 0., 0., 3.08641978e-003, 3.08641978e-003,
          0., 0., 0., 0., 0., 0., 0., 0., 0., 0., 0., 0., 0., 0., 0., 0.,
          0., 3.08641978e-003, 0., 0., 0., 0., 3.08641978e-003, 0.,
          3.08641978e-003, 0., 6.17283955e-003, 3.08641978e-003, 0., 0.,
          0., 0., 0., 0., 0., 0., 0., 0., 1.23456791e-002, 0., 0., 0.,
          0., 0., 0., 0., 0., 0., 0., 0., 0., 0., 0., 0.,
          3.08641978e-003, 3.08641978e-003, 3.08641978e-003, 0., 0., 0.,
          0., 0., 3.08641978e-003, 0., 0., 3.08641978e-003, 0., 0., 0.,
          0., 0., 0., 3.08641978e-003, 0., 0., 0., 0., 0., 0., 0., 0.,
          6.17283955e-003, 0., 3.08641978e-003, 0., 0., 0.,
          3.08641978e-003, 0., 0., 0., 0., 3.08641978e-003, 0., 0., 0.,
          0., 0., 0., 6.17283955e-003, 0., 0., 0., 0., 0., 0.,
          3.08641978e-003, 0., 0., 0., 0., 0., 3.08641978e-003, 0.,
          3.08641978e-003, 3.08641978e-003, 0., 3.08641978e-003, 0., 0.,
          0., 0., 0., 0., 3.08641978e-003, 0., 0., 3.08641978e-003, 0.,
          3.08641978e-003, 0., 0., 0., 0., 3.08641978e-003, 0., 0., 0.,
          0., 0., 0., 0., 3.08641978e-003, 0., 0., 6.17283955e-003, 0.,
          6.17283955e-003, 0., 0., 0., 0., 0., 0., 0., 0., 0.,
          9.25925933e-003, 0., 0., 0., 6.17283955e-003, 3.08641978e-003,
          0., 1.85185187e-002, 0., 0., 3.08641978e-003, 0.,
          9.25925933e-003, 0., 0., 0., 3.08641978e-003, 0.,
          3.08641978e-003, 0., 0., 0., 0., 0., 0., 0., 0., 0.,
          3.08641978e-003, 3.08641978e-003, 0., 0., 0., 0.,
          6.17283955e-003, 0., 0., 0., 0., 9.25925933e-003, 0., 0., 0.,
          0., 0., 0., 3.08641978e-003, 3.08641978e-003, 0., 0., 0., 0.,
          0., 0., 0., 3.08641978e-003, 0., 0., 0., 0., 0., 0., 0.,
          3.08641978e-003, 0., 0., 0., 0., 3.08641978e-003, 0., 0., 0.,
          0., 0., 0., 1.54320989e-002, 0., 0., 0., 3.08641978e-003, 0.,
          0., 0., 0., 0., 0., 0., 0., 0., 0., 0., 0., 0., 0., 0.,
          3.08641978e-003, 0., 0., 0., 3.08641978e-003, 0., 0., 0., 0.,
          0., 0., 0., 0., 0., 0., 0., 6.17283955e-003, 3.08641978e-003,
          0., 6.17283955e-003, 0., 0., 0., 0., 0., 0., 0., 0., 0.,
          6.17283955e-003, 0., 0., 0., 3.08641978e-003, 0., 0., 0., 0.,
          0., 0., 0., 3.08641978e-003, 0., 0., 0., 0., 6.17283955e-003,
          0., 0., 0., 0., 0., 3.08641978e-003, 0., 3.08641978e-003, 0.,
          0., 0., 1.23456791e-002, 0., 0., 0., 0., 0., 0., 0., 0., 0.,
          0., 0., 3.08641978e-003, 0., 6.17283955e-003, 9.25925933e-003,
          0., 3.08641978e-003, 3.08641978e-003, 0., 3.08641978e-003, 0.,
          0., 0., 0., 0., 0., 0., 0., 3.08641978e-003, 0., 0., 0., 0.,
          0., 1.23456791e-002, 0., 0., 0., 0., 0., 0., 0., 0.,
          6.17283955e-003, 0., 0., 0., 0., 3.08641978e-003,
          3.08641978e-003, 0., 0., 0., 0., 0., 0., 0., 0., 0., 0., 0.,
          9.25925933e-003, 0., 3.08641978e-003, 0., 0., 0., 0.,
          3.08641978e-003, 0., 0., 0., 0., 0., 3.08641978e-003, 0., 0.,
          0., 3.08641978e-003, 0., 0., 0., 0., 0., 3.08641978e-003, 0.,
          0., 0., 0., 3.08641978e-003, 0., 0., 3.08641978e-003, 0., 0.,
          0., 2.16049384e-002, 0., 0., 0., 0., 0., 0., 0., 0., 0., 0.,
          0., 6.17283955e-003, 0., 3.08641978e-003, 0., 0., 0., 0.,
          9.25925933e-003, 0., 0., 0., 0., 0., 0., 0., 0., 0., 0., 0.,
          0., 0., 0., 0., 0., 0., 0., 3.08641978e-003, 0., 0., 0., 0.,
          0., 0., 0., 0., 0., 0., 0., 3.08641978e-003, 0.,
          3.08641978e-003, 0., 3.08641978e-003, 0., 0., 6.17283955e-003,
          0., 0., 0., 0., 0., 3.08641978e-003, 0., 0., 6.17283955e-003,
          0., 0., 0., 1.23456791e-002, 3.08641978e-003, 0., 0., 0.,
          1.23456791e-002, 1.23456791e-002, 0., 6.17283955e-003, 0.,
          1.23456791e-002, 1.23456791e-002, 0., 0., 1.85185187e-002, 0.,
          0., 0., 0., 0., 0., 3.08641978e-003, 9.25925933e-003, 0., 0.,
          0., 0., 0., 3.08641978e-003, 3.08641978e-003, 0., 0.,
          6.17283955e-003, 0., 0., 0., 0., 0., 0., 0., 3.08641978e-003,
          0., 3.08641978e-003, 6.17283955e-003, 0., 0., 0., 0., 0., 0.,
          0., 0., 0., 0., 0., 0., 0., 0., 0., 0., 0., 0., 0.,
          9.25925933e-003, 0., 0., 0., 3.08641978e-003, 0., 0., 0., 0.,
          0., 0., 3.08641978e-003, 0., 6.17283955e-003, 0., 0., 0., 0.,
          0., 0., 0., 3.08641978e-003, 0., 0., 6.17283955e-003, 0.,
          9.25925933e-003, 0., 0., 3.08641978e-003, 0., 0.,
          6.17283955e-003, 0., 0., 0., 0., 0., 0., 0., 0., 0., 0., 0.,
          0., 0., 0., 3.08641978e-003, 0., 0., 0., 0., 0., 0., 0.,
          6.17283955e-003, 0., 0., 0., 0., 0., 0., 3.08641978e-003,
          3.08641978e-003, 9.25925933e-003, 0., 0., 3.08641978e-003,
          3.08641978e-003, 0., 0., 0., 0., 0., 3.08641978e-003, 0.,
          3.08641978e-003, 3.08641978e-003, 3.08641978e-003, 0.,
          3.08641978e-003, 0., 0., 0., 0., 0., 3.08641978e-003,
          3.08641978e-003, 0., 3.08641978e-003, 0., 0., 0.,
          6.17283955e-003, 3.08641978e-003, 0., 0., 0., 0., 0.,
          3.08641978e-003, 0., 0., 0., 0., 0., 0., 0., 0., 0., 0., 0.,
          0., 0., 0., 0., 0., 0., 0., 0., 0., 0., 0., 0.,
          6.17283955e-003, 0., 0., 0., 0., 0., 3.08641978e-003, 0., 0.,
          0., 0., 3.08641978e-003, 0., 0., 0., 0., 0., 3.08641978e-003,
          0., 0., 6.17283955e-003, 0., 0., 0., 0., 0., 0., 0., 0., 0.,
          3.08641978e-003, 3.08641978e-003, 0., 0., 0., 0., 0., 0., 0.,
          0., 0., 0., 0., 0., 0., 0., 0., 3.08641978e-003, 0.,
          3.08641978e-003, 1.54320989e-002, 3.08641978e-003,
          3.08641978e-003, 0., 0., 0., 0., 0., 0., 0., 6.17283955e-003,
          0., 3.08641978e-003, 3.08641978e-003, 0., 0., 0., 0., 0., 0.,
          0., 0., 0., 0., 0., 0., 0., 0., 3.08641978e-003,
          3.08641978e-003, 0., 0., 0., 0., 0., 0., 0., 0., 0., 0., 0.,
          3.08641978e-003, 0., 0., 0., 0., 0., 0., 3.08641978e-003, 0.,
          6.17283955e-003, 0., 0., 0., 0., 3.08641978e-003,
          6.17283955e-003, 0., 3.08641978e-003, 6.17283955e-003,
          6.17283955e-003, 0., 0., 0., 3.08641978e-003, 0., 0., 0., 0.,
          0., 0., 0., 0., 0., 0., 0., 3.08641978e-003, 0., 0., 0., 0.,
          0., 0., 0., 0., 3.08641978e-003, 0., 9.25925933e-003, 0., 0.,
          6.17283955e-003, 3.08641978e-003, 3.08641978e-003, 0., 0., 0.,
          3.08641978e-003, 0., 0., 0., 6.17283955e-003, 0., 0.,
          3.08641978e-003, 0., 0., 0., 0., 3.08641978e-003,
          3.08641978e-003, 0., 0., 0., 3.08641978e-003, 3.08641978e-003,
          0., 3.08641978e-003, 0., 0., 3.08641978e-003, 0.,
          3.08641978e-003, 0., 0., 0., 0., 3.08641978e-003,
          3.08641978e-003, 0., 0., 0., 0., 0., 0., 0., 0., 0., 0.,
          6.17283955e-003, 0., 0., 0., 9.25925933e-003, 3.08641978e-003,
          3.08641978e-003, 6.17283955e-003, 0., 3.08641978e-003, 0., 0.,
          0., 3.08641978e-003, 0., 0., 0., 0., 0., 0., 0., 0., 0., 0.,
          0., 0., 0., 0., 6.17283955e-003, 0., 0., 0., 0.,
          3.08641978e-003, 0., 0., 0., 6.17283955e-003, 0., 0., 0., 0.,
          0., 0., 0., 0., 0., 0., 0., 0., 0., 0., 0., 0., 0., 0., 0., 0.,
          0., 0., 0., 0., 1.23456791e-002, 0., 0., 3.08641978e-003, 0.,
          0., 0., 0., 0., 0., 0., 3.08641978e-003, 0., 0.,
          3.08641978e-003, 3.08641978e-003, 0., 0., 0., 0., 0.,
          3.08641978e-003, 0., 0., 3.08641978e-003, 0., 0.,
          3.08641978e-003, 0., 0., 3.08641978e-003, 3.08641978e-003, 0.,
          0., 3.08641978e-003, 0., 0., 0., 0., 0., 0., 3.08641978e-003,
          0., 0., 0., 0. ]
      - [ 0., 0., 0., 0., 0., 3.38983047e-003, 0., 0., 0., 0.,
          6.77966094e-003, 0., 0., 6.77966094e-003, 0., 0., 0., 0.,
          3.38983047e-003, 0., 0., 0., 0., 0., 0., 0., 0., 0.,
          6.77966094e-003, 3.38983047e-003, 3.38983047e-003, 0., 0., 0.,
          0., 0., 0., 0., 6.77966094e-003, 0., 0., 0., 0., 0., 0., 0.,
          0., 0., 0., 0., 0., 0., 3.38983047e-003, 0., 0., 0., 0., 0.,
          0., 0., 0., 0., 0., 0., 0., 0., 0., 0., 0., 0., 0., 0., 0., 0.,
          0., 0., 0., 0., 0., 0., 0., 0., 3.38983047e-003, 0., 0., 0.,
          3.38983047e-003, 0., 0., 0., 0., 0., 0., 0., 0., 0., 0., 0.,
          0., 0., 0., 0., 0., 0., 0., 3.38983047e-003, 0., 0., 0., 0.,
          0., 0., 0., 0., 0., 0., 0., 0., 0., 0., 0., 3.38983047e-003,
          0., 6.77966094e-003, 0., 0., 0., 0., 6.77966094e-003, 0., 0.,
          0., 0., 0., 0., 0., 0., 0., 3.38983047e-003, 0., 0., 0., 0.,
          0., 0., 0., 0., 0., 0., 0., 0., 0., 0., 3.38983047e-003,
          3.38983047e-003, 3.38983047e-003, 0., 0., 0., 0., 0., 0., 0.,
          0., 0., 0., 0., 3.38983047e-003, 0., 0., 0., 0., 0., 0., 0.,
          3.38983047e-003, 0., 3.38983047e-003, 0., 0., 0., 0.,
          6.77966094e-003, 0., 0., 1.01694912e-002, 0., 1.01694912e-002,
          0., 0., 0., 3.38983047e-003, 0., 0., 0., 0., 0.,
          3.38983047e-003, 0., 0., 0., 6.77966094e-003, 3.38983047e-003,
          0., 1.01694912e-002, 0., 0., 3.38983047e-003, 0.,
          1.35593219e-002, 3.38983047e-003, 0., 0., 6.77966094e-003, 0.,
          3.38983047e-003, 0., 0., 6.77966094e-003, 0., 0., 0., 0., 0.,
          0., 0., 0., 0., 0., 0., 0., 1.35593219e-002, 0., 0., 0.,
          3.38983047e-003, 1.01694912e-002, 0., 0., 0., 0., 0., 0., 0.,
          0., 0., 0., 0., 0., 0., 0., 0., 0., 3.38983047e-003, 0., 0.,
          0., 0., 0., 0., 3.38983047e-003, 0., 0., 0., 0.,
          3.38983047e-003, 0., 0., 0., 0., 0., 0., 1.01694912e-002, 0.,
          3.38983047e-003, 3.38983047e-003, 3.38983047e-003, 0., 0., 0.,
          0., 0., 0., 0., 0., 0., 0., 0., 0., 0., 0., 0.,
          1.01694912e-002, 0., 0., 0., 3.38983047e-003, 3.38983047e-003,
          3.38983047e-003, 0., 0., 0., 0., 0., 0., 0., 0., 0.,
          3.38983047e-003, 0., 0., 3.38983047e-003, 0., 0.,
          3.38983047e-003, 0., 0., 0., 0., 0., 0., 3.38983047e-003, 0.,
          3.38983047e-003, 3.38983047e-003, 0., 0., 0., 0., 0., 0., 0.,
          0., 3.38983047e-003, 0., 0., 0., 0., 3.38983047e-003, 0., 0.,
          0., 0., 0., 0., 0., 3.38983047e-003, 0., 3.38983047e-003, 0.,
          1.01694912e-002, 0., 0., 0., 0., 0., 0., 3.38983047e-003, 0.,
          0., 0., 0., 0., 0., 0., 3.38983047e-003, 0., 3.38983047e-003,
          0., 0., 3.38983047e-003, 0., 0., 0., 6.77966094e-003, 0., 0.,
          0., 0., 3.38983047e-003, 0., 0., 0., 0., 0., 0., 0., 0., 0.,
          0., 0., 0., 0., 0., 0., 0., 0., 0., 6.77966094e-003, 0.,
          6.77966094e-003, 0., 3.38983047e-003, 3.38983047e-003,
          6.77966094e-003, 0., 0., 0., 0., 0., 0., 0., 6.77966094e-003,
          0., 0., 0., 0., 0., 0., 0., 0., 0., 0., 0., 3.38983047e-003,
          0., 3.38983047e-003, 3.38983047e-003, 0., 3.38983047e-003, 0.,
          0., 0., 0., 0., 0., 0., 3.38983047e-003, 0., 0.,
          1.35593219e-002, 0., 0., 0., 0., 0., 0., 2.71186437e-002, 0.,
          0., 3.38983047e-003, 0., 0., 0., 3.38983047e-003, 0.,
          3.38983047e-003, 3.38983047e-003, 0., 6.77966094e-003, 0., 0.,
          0., 0., 0., 0., 0., 0., 3.38983047e-003, 0., 0., 0., 0., 0.,
          0., 3.38983047e-003, 0., 0., 0., 0., 0., 0., 0., 0., 0., 0.,
          0., 0., 0., 0., 0., 0., 0., 6.77966094e-003, 0.,
          3.38983047e-003, 0., 0., 0., 6.77966094e-003, 0., 0., 0., 0.,
          0., 0., 0., 0., 0., 0., 0., 0., 0., 3.38983047e-003, 0., 0.,
          0., 0., 0., 0., 3.38983047e-003, 3.38983047e-003, 0.,
          1.01694912e-002, 0., 0., 0., 3.38983047e-003, 3.38983047e-003,
          0., 0., 0., 0., 0., 0., 0., 0., 0., 3.38983047e-003, 0., 0.,
          0., 0., 0., 3.38983047e-003, 0., 3.38983047e-003, 0., 0.,
          6.77966094e-003, 6.77966094e-003, 3.38983047e-003, 0., 0., 0.,
          0., 0., 3.38983047e-003, 0., 0., 6.77966094e-003, 0., 0., 0.,
          0., 0., 0., 0., 0., 0., 0., 0., 0., 0., 0., 0.,
          3.38983047e-003, 0., 0., 0., 0., 0., 0., 0., 0., 0., 0., 0.,
          0., 0., 0., 0., 0., 3.38983047e-003, 0., 3.38983047e-003, 0.,
          0., 0., 0., 3.38983047e-003, 0., 0., 0., 6.77966094e-003, 0.,
          3.38983047e-003, 0., 0., 0., 3.38983047e-003, 0.,
          1.35593219e-002, 0., 0., 0., 0., 0., 0., 0., 0., 0.,
          3.38983047e-003, 0., 0., 0., 0., 3.38983047e-003, 0.,
          3.38983047e-003, 0., 0., 0., 6.77966094e-003, 0.,
          6.77966094e-003, 0., 3.38983047e-003, 0., 0., 0., 0., 0.,
          3.38983047e-003, 6.77966094e-003, 0., 0., 3.38983047e-003, 0.,
          0., 0., 0., 0., 0., 3.38983047e-003, 0., 0., 0.,
          3.38983047e-003, 3.38983047e-003, 0., 0., 0., 0., 0., 0., 0.,
          3.38983047e-003, 0., 0., 0., 0., 0., 3.38983047e-003,
          3.38983047e-003, 0., 0., 0., 0., 3.38983047e-003,
          1.01694912e-002, 0., 0., 0., 0., 0., 0., 0., 3.38983047e-003,
          0., 0., 6.77966094e-003, 0., 0., 0., 0., 0., 0., 0., 0.,
          3.38983047e-003, 0., 0., 0., 3.38983047e-003, 0., 0., 0., 0.,
          0., 0., 3.38983047e-003, 0., 3.38983047e-003, 0.,
          6.77966094e-003, 0., 0., 0., 0., 3.38983047e-003, 0., 0., 0.,
          6.77966094e-003, 0., 0., 0., 0., 6.77966094e-003, 0., 0.,
          3.38983047e-003, 0., 3.38983047e-003, 3.38983047e-003, 0., 0.,
          0., 0., 0., 0., 0., 3.38983047e-003, 0., 0., 0., 0., 0., 0.,
          0., 0., 0., 0., 3.38983047e-003, 0., 0., 0., 0., 0., 0., 0.,
          0., 3.38983047e-003, 1.01694912e-002, 0., 0., 0., 0., 0., 0.,
          0., 0., 0., 0., 0., 0., 1.01694912e-002, 0., 0., 0., 0.,
          1.01694912e-002, 0., 0., 0., 0., 3.38983047e-003, 0., 0., 0.,
          0., 0., 0., 0., 6.77966094e-003, 0., 0., 0., 0., 0.,
          3.38983047e-003, 3.38983047e-003, 0., 3.38983047e-003, 0., 0.,
          0., 0., 0., 0., 6.77966094e-003, 6.77966094e-003,
          3.38983047e-003, 1.01694912e-002, 0., 0., 0., 0., 0.,
          3.38983047e-003, 0., 0., 0., 0., 0., 0., 0., 0., 0.,
          1.01694912e-002, 0., 0., 0., 3.38983047e-003, 6.77966094e-003,
          0., 0., 0., 3.38983047e-003, 0., 0., 0., 0., 3.38983047e-003,
          0., 0., 0., 0., 0., 0., 0., 0., 6.77966094e-003,
          6.77966094e-003, 0., 0., 0., 0., 0., 0., 0., 3.38983047e-003,
          6.77966094e-003, 0., 0., 3.38983047e-003, 0., 0., 0.,
          3.38983047e-003, 0., 0., 3.38983047e-003, 0., 0., 0., 0., 0.,
          3.38983047e-003, 3.38983047e-003, 6.77966094e-003, 0., 0., 0.,
          0., 0., 0., 0., 0., 0., 0., 3.38983047e-003, 0., 0., 0.,
          1.35593219e-002, 3.38983047e-003, 3.38983047e-003, 0., 0.,
          3.38983047e-003, 3.38983047e-003, 0., 0., 6.77966094e-003, 0.,
          3.38983047e-003, 0., 3.38983047e-003, 0., 0., 3.38983047e-003,
          0., 0., 0., 0., 0., 0., 3.38983047e-003, 6.77966094e-003, 0.,
          3.38983047e-003, 0., 3.38983047e-003, 2.03389823e-002, 0., 0.,
          0., 3.38983047e-003, 0., 0., 0., 0., 0., 0., 0., 0., 0., 0.,
          0., 0., 3.38983047e-003, 0., 0., 0., 0., 0., 0., 0., 0., 0.,
          3.38983047e-003, 0., 3.38983047e-003, 0., 3.38983047e-003, 0.,
          0., 0., 0., 0., 0., 3.38983047e-003, 3.38983047e-003, 0., 0.,
          0., 0., 3.38983047e-003, 0., 0., 0., 0., 0., 3.38983047e-003,
          0., 0., 0., 0., 0., 3.38983047e-003, 0., 0., 0.,
          6.77966094e-003, 0., 3.38983047e-003, 0., 0., 0., 0., 0., 0.,
          0., 0., 0., 0., 0., 0. ]
      - [ 0., 0., 0., 0., 0., 3.11526470e-003, 0., 0., 0., 0., 0., 0.,
          3.11526470e-003, 0., 0., 0., 0., 0., 3.11526470e-003, 0.,
          3.11526470e-003, 0., 0., 3.11526470e-003, 0., 0., 0., 0.,
          1.55763235e-002, 3.11526470e-003, 0., 0., 3.11526470e-003, 0.,
          3.11526470e-003, 0., 0., 0., 3.11526470e-003, 3.11526470e-003,
          0., 0., 0., 0., 0., 0., 0., 0., 0., 0., 3.11526470e-003, 0.,
          0., 0., 0., 0., 0., 0., 0., 6.23052940e-003, 0., 0., 0., 0.,
          3.11526470e-003, 3.11526470e-003, 6.23052940e-003, 0., 0., 0.,
          3.11526470e-003, 0., 0., 0., 0., 0., 0., 0., 1.55763235e-002,
          0., 0., 0., 1.24610588e-002, 0., 0., 0., 0., 0., 0.,
          3.11526470e-003, 0., 0., 0., 0., 3.11526470e-003, 0.,
          3.11526470e-003, 0., 0., 0., 0., 0., 3.11526470e-003,
          3.11526470e-003, 0., 0., 0., 0., 3.11526470e-003,
          3.11526470e-003, 6.23052940e-003, 0., 0., 0., 0., 0., 0.,
          3.11526470e-003, 0., 3.11526470e-003, 0., 6.23052940e-003, 0.,
          1.24610588e-002, 3.11526470e-003, 0., 0., 0., 0., 0., 0.,
          3.11526470e-003, 3.11526470e-003, 0., 0., 0., 0., 0., 0., 0.,
          0., 0., 0., 0., 0., 0., 3.11526470e-003, 0., 0., 0., 0., 0.,
          9.34579410e-003, 6.23052940e-003, 0., 0., 0., 0., 0., 0., 0.,
          0., 0., 0., 0., 0., 0., 0., 0., 3.11526470e-003, 0., 0., 0.,
          0., 0., 0., 0., 3.11526470e-003, 0., 0., 3.11526470e-003, 0.,
          0., 0., 0., 6.23052940e-003, 0., 9.34579410e-003, 0., 0., 0.,
          0., 0., 0., 0., 0., 0., 0., 0., 0., 0., 0., 3.11526470e-003,
          0., 1.86915882e-002, 0., 0., 6.23052940e-003, 0.,
          3.11526470e-003, 3.11526470e-003, 0., 0., 3.11526470e-003, 0.,
          0., 0., 3.11526470e-003, 0., 0., 0., 0., 0., 3.11526470e-003,
          0., 3.11526470e-003, 0., 0., 0., 0., 0., 6.23052940e-003, 0.,
          0., 3.11526470e-003, 0., 9.34579410e-003, 0., 0., 0., 0., 0.,
          0., 0., 0., 0., 0., 0., 0., 0., 0., 0., 0., 3.11526470e-003,
          0., 0., 0., 0., 0., 0., 3.11526470e-003, 0., 0., 0., 0.,
          3.11526470e-003, 0., 0., 3.11526470e-003, 0., 0., 0., 0., 0.,
          0., 6.23052940e-003, 3.11526470e-003, 0., 0., 0., 0., 0., 0.,
          0., 0., 3.11526470e-003, 0., 0., 3.11526470e-003, 0., 0.,
          6.23052940e-003, 3.11526470e-003, 0., 0., 3.11526470e-003,
          6.23052940e-003, 3.11526470e-003, 0., 0., 0., 0., 0., 0., 0.,
          3.11526470e-003, 0., 0., 6.23052940e-003, 0., 0., 0., 0., 0.,
          3.11526470e-003, 3.11526470e-003, 0., 0., 0., 0., 0., 0., 0.,
          0., 0., 0., 0., 0., 0., 0., 0., 0., 0., 0., 0., 0., 0., 0.,
          3.11526470e-003, 0., 0., 3.11526470e-003, 0., 0., 0., 0., 0.,
          3.11526470e-003, 0., 0., 0., 0., 0., 3.11526470e-003, 0., 0.,
          0., 0., 0., 0., 0., 3.11526470e-003, 0., 0., 0.,
          3.11526470e-003, 0., 0., 0., 0., 0., 0., 0., 0.,
          3.11526470e-003, 0., 0., 3.11526470e-003, 0., 3.11526470e-003,
          0., 0., 0., 0., 3.11526470e-003, 9.34579410e-003, 0., 0., 0.,
          0., 0., 0., 0., 0., 0., 0., 3.11526470e-003, 0.,
          3.11526470e-003, 6.23052940e-003, 9.34579410e-003, 0., 0., 0.,
          6.23052940e-003, 0., 0., 0., 0., 0., 0., 0., 0., 0., 0., 0.,
          0., 0., 0., 6.23052940e-003, 0., 0., 0., 0., 6.23052940e-003,
          6.23052940e-003, 0., 6.23052940e-003, 0., 3.11526470e-003, 0.,
          0., 0., 0., 0., 0., 3.11526470e-003, 0., 0., 0.,
          6.23052940e-003, 0., 0., 3.11526470e-003, 3.11526470e-003, 0.,
          0., 1.86915882e-002, 0., 0., 0., 0., 0., 0., 0., 0., 0., 0.,
          0., 9.34579410e-003, 0., 0., 3.11526470e-003, 0., 0., 0., 0.,
          0., 3.11526470e-003, 0., 3.11526470e-003, 3.11526470e-003,
          6.23052940e-003, 0., 0., 3.11526470e-003, 0., 0., 0., 0., 0.,
          0., 0., 0., 0., 0., 0., 0., 0., 0., 0., 3.11526470e-003, 0.,
          0., 0., 3.11526470e-003, 0., 0., 0., 9.34579410e-003, 0., 0.,
          0., 3.11526470e-003, 0., 3.11526470e-003, 0., 0., 0., 0., 0.,
          0., 0., 0., 0., 0., 0., 9.34579410e-003, 0., 0.,
          3.11526470e-003, 0., 3.11526470e-003, 6.23052940e-003, 0., 0.,
          0., 0., 0., 0., 0., 0., 0., 0., 3.11526470e-003,
          3.11526470e-003, 0., 0., 0., 3.11526470e-003, 0., 0., 0., 0.,
          0., 0., 0., 0., 0., 6.23052940e-003, 3.11526470e-003, 0., 0.,
          0., 0., 0., 0., 6.23052940e-003, 0., 3.11526470e-003,
          3.11526470e-003, 0., 3.11526470e-003, 0., 0., 0., 0., 0.,
          3.11526470e-003, 0., 0., 0., 0., 0., 3.11526470e-003, 0., 0.,
          0., 0., 0., 3.11526470e-003, 0., 0., 0., 3.11526470e-003, 0.,
          0., 0., 0., 0., 0., 0., 0., 6.23052940e-003, 0., 0., 0., 0.,
          0., 0., 0., 3.11526470e-003, 0., 0., 3.11526470e-003, 0.,
          2.80373823e-002, 0., 0., 0., 0., 0., 0., 0., 0., 0., 0., 0.,
          0., 0., 0., 0., 3.11526470e-003, 0., 3.11526470e-003, 0., 0.,
          3.11526470e-003, 0., 3.11526470e-003, 0., 0., 0.,
          6.23052940e-003, 0., 0., 0., 0., 3.11526470e-003, 0., 0., 0.,
          0., 3.11526470e-003, 6.23052940e-003, 0., 0., 0., 0., 0., 0.,
          0., 0., 0., 3.11526470e-003, 0., 0., 0., 0., 0., 0., 0., 0.,
          0., 0., 0., 0., 3.11526470e-003, 0., 3.11526470e-003, 0., 0.,
          0., 6.23052940e-003, 3.11526470e-003, 3.11526470e-003, 0., 0.,
          0., 3.11526470e-003, 3.11526470e-003, 3.11526470e-003, 0., 0.,
          0., 0., 3.11526470e-003, 0., 0., 3.11526470e-003, 0.,
          3.11526470e-003, 0., 0., 0., 0., 3.11526470e-003, 0., 0., 0.,
          0., 0., 0., 0., 3.11526470e-003, 0., 0., 0., 0.,
          3.11526470e-003, 0., 0., 6.23052940e-003, 0., 0.,
          3.11526470e-003, 0., 0., 0., 0., 3.11526470e-003,
          3.11526470e-003, 0., 0., 3.11526470e-003, 0., 0., 0., 0., 0.,
          0., 0., 0., 6.23052940e-003, 0., 3.11526470e-003, 0., 0., 0.,
          3.11526470e-003, 0., 0., 0., 3.11526470e-003, 0., 0., 0., 0.,
          0., 0., 0., 0., 0., 3.11526470e-003, 0., 0., 0., 0., 0., 0.,
          0., 0., 0., 0., 6.23052940e-003, 0., 0., 0., 0., 0., 0., 0.,
          0., 6.23052940e-003, 0., 0., 0., 0., 0., 0., 0., 0.,
          6.23052940e-003, 3.11526470e-003, 0., 3.11526470e-003, 0., 0.,
          3.11526470e-003, 0., 0., 0., 3.11526470e-003, 0., 0.,
          3.11526470e-003, 3.11526470e-003, 0., 0., 0., 0., 0., 0., 0.,
          3.11526470e-003, 0., 0., 0., 0., 6.23052940e-003, 0., 0.,
          3.11526470e-003, 0., 6.23052940e-003, 0., 0., 0.,
          3.11526470e-003, 0., 0., 0., 0., 0., 3.11526470e-003, 0., 0.,
          3.11526470e-003, 0., 0., 3.11526470e-003, 3.11526470e-003, 0.,
          0., 0., 0., 0., 0., 0., 1.55763235e-002, 0., 6.23052940e-003,
          0., 0., 3.11526470e-003, 0., 0., 0., 0., 3.11526470e-003,
          3.11526470e-003, 0., 0., 3.11526470e-003, 0., 0., 0.,
          6.23052940e-003, 3.11526470e-003, 0., 0., 0., 3.11526470e-003,
          0., 0., 0., 3.11526470e-003, 3.11526470e-003, 0., 0., 0., 0.,
          0., 0., 0., 3.11526470e-003, 0., 0., 9.34579410e-003, 0., 0.,
          3.11526470e-003, 0., 0., 0., 0., 0., 0., 0., 0., 0.,
          3.11526470e-003, 6.23052940e-003, 0., 0., 0., 0., 0.,
          3.11526470e-003, 9.34579410e-003, 0., 6.23052940e-003,
          3.11526470e-003, 0., 0., 0., 0., 0., 0., 3.11526470e-003, 0.,
          0., 0., 0., 0., 0., 0., 0., 0., 0., 0., 0., 3.11526470e-003,
          0., 3.11526470e-003, 3.11526470e-003, 0., 0., 0.,
          3.11526470e-003, 0., 0., 0., 0., 0., 0., 3.11526470e-003, 0.,
          3.11526470e-003, 0., 0., 6.23052940e-003, 0., 0., 0., 0., 0.,
          0., 0., 0., 3.11526470e-003, 0., 3.11526470e-003,
          6.23052940e-003, 0., 0., 3.11526470e-003, 0., 0.,
          3.11526470e-003, 0., 3.11526470e-003, 0., 3.11526470e-003, 0.,
          3.11526470e-003, 0., 0., 0., 3.11526470e-003, 0., 0., 0., 0.,
          0., 6.23052940e-003, 0., 0., 0., 0., 0., 0., 0., 0., 0.,
          3.11526470e-003, 3.11526470e-003, 6.23052940e-003, 0., 0., 0.,
          0., 0., 3.11526470e-003, 0., 0., 0., 0., 0., 0. ]
      - [ 0., 0., 2.84900283e-003, 0., 0., 2.84900283e-003, 0., 0., 0.,
          5.69800567e-003, 0., 0., 0., 0., 0., 0., 0., 0., 0., 0.,
          2.84900283e-003, 0., 0., 0., 0., 0., 0., 0., 2.84900283e-003,
          2.84900283e-003, 0., 0., 0., 0., 0., 0., 0., 0.,
          8.54700804e-003, 0., 5.69800567e-003, 0., 0., 0., 0., 0., 0.,
          2.84900283e-003, 0., 2.84900283e-003, 0., 0., 2.84900283e-003,
          0., 0., 0., 0., 0., 0., 2.84900283e-003, 0., 0., 0., 0.,
          2.84900283e-003, 2.84900283e-003, 0., 0., 0., 0., 0., 0., 0.,
          0., 0., 0., 2.84900283e-003, 0., 0., 0., 0., 0., 0.,
          2.84900283e-003, 0., 5.69800567e-003, 0., 0., 0., 0., 0., 0.,
          0., 0., 0., 0., 0., 2.84900283e-003, 0., 2.84900283e-003, 0.,
          0., 0., 0., 0., 0., 0., 0., 0., 0., 2.84900283e-003,
          2.84900283e-003, 2.84900283e-003, 0., 0., 0., 0., 0., 0., 0.,
          0., 2.84900283e-003, 0., 2.84900283e-003, 2.84900283e-003, 0.,
          0., 0., 5.69800567e-003, 0., 0., 5.69800567e-003,
          2.84900283e-003, 2.84900283e-003, 0., 0., 0., 0., 0., 0., 0.,
          0., 0., 0., 2.84900283e-003, 0., 0., 0., 0., 0., 0., 0.,
          2.84900283e-003, 2.84900283e-003, 0., 0., 0., 0., 0., 0., 0.,
          0., 0., 0., 0., 0., 0., 5.69800567e-003, 0., 0., 0., 0., 0.,
          0., 0., 2.84900283e-003, 2.84900283e-003, 2.84900283e-003,
          2.84900283e-003, 0., 5.69800567e-003, 5.69800567e-003,
          2.84900283e-003, 0., 0., 0., 0., 5.69800567e-003, 0., 0., 0.,
          0., 0., 0., 0., 0., 0., 0., 0., 2.84900283e-003, 0.,
          5.69800567e-003, 5.69800567e-003, 0., 0., 0., 0., 0.,
          1.70940161e-002, 8.54700804e-003, 0., 0., 2.84900283e-003,
          5.69800567e-003, 2.84900283e-003, 0., 0., 0., 0., 0., 0.,
          2.84900283e-003, 2.84900283e-003, 0., 0., 0., 2.84900283e-003,
          0., 0., 0., 0., 2.84900283e-003, 2.84900283e-003, 0.,
          5.69800567e-003, 0., 0., 0., 0., 0., 0., 0., 0., 0., 0., 0.,
          0., 0., 0., 0., 0., 0., 0., 0., 0., 0., 0., 0., 0., 0.,
          2.84900283e-003, 0., 5.69800567e-003, 0., 0., 5.69800567e-003,
          0., 0., 5.69800567e-003, 0., 0., 0., 0., 0., 0., 0.,
          2.84900283e-003, 0., 0., 0., 0., 0., 0., 0., 0.,
          2.84900283e-003, 2.84900283e-003, 2.84900283e-003, 0., 0., 0.,
          2.84900283e-003, 0., 0., 1.13960113e-002, 2.84900283e-003, 0.,
          0., 2.84900283e-003, 0., 0., 0., 0., 0., 0., 0., 0., 0.,
          2.84900283e-003, 0., 0., 0., 0., 0., 2.84900283e-003, 0., 0.,
          5.69800567e-003, 0., 0., 2.84900283e-003, 2.84900283e-003, 0.,
          0., 0., 0., 0., 0., 0., 2.84900283e-003, 0., 0., 0., 0., 0.,
          2.84900283e-003, 0., 2.84900283e-003, 0., 0., 0., 0., 0., 0.,
          0., 0., 2.84900283e-003, 0., 0., 0., 0., 0., 1.13960113e-002,
          0., 0., 0., 0., 2.84900283e-003, 0., 0., 2.84900283e-003,
          2.84900283e-003, 0., 0., 0., 0., 0., 2.84900283e-003, 0., 0.,
          5.69800567e-003, 2.84900283e-003, 0., 0., 0., 0.,
          2.84900283e-003, 2.84900283e-003, 0., 0., 0., 2.84900283e-003,
          0., 0., 2.84900283e-003, 0., 0., 0., 0., 0., 0., 0., 0., 0.,
          0., 0., 0., 0., 0., 0., 5.69800567e-003, 0., 2.84900283e-003,
          0., 2.84900283e-003, 0., 0., 0., 0., 0., 2.84900283e-003, 0.,
          0., 1.13960113e-002, 0., 0., 0., 0., 0., 0., 2.84900283e-003,
          5.69800567e-003, 0., 0., 0., 0., 2.84900283e-003, 0.,
          2.84900283e-003, 2.84900283e-003, 0., 0., 0., 2.84900283e-003,
          0., 0., 0., 0., 0., 0., 0., 0., 0., 0., 0., 0., 0.,
          8.54700804e-003, 0., 0., 0., 0., 0., 0., 0., 0.,
          1.13960113e-002, 2.84900283e-003, 2.84900283e-003,
          2.84900283e-003, 0., 5.69800567e-003, 0., 0., 0.,
          2.84900283e-003, 2.84900283e-003, 0., 0., 0., 0., 0.,
          2.84900283e-003, 0., 0., 5.69800567e-003, 2.84900283e-003, 0.,
          0., 0., 0., 2.84900283e-003, 0., 0., 0., 0., 0., 0., 0.,
          2.84900283e-003, 0., 0., 0., 0., 0., 8.54700804e-003, 0.,
          2.84900283e-003, 2.84900283e-003, 0., 0., 0., 0., 0., 0.,
          2.84900283e-003, 0., 1.42450146e-002, 0., 0., 0., 0., 0., 0.,
          0., 0., 0., 2.84900283e-003, 2.84900283e-003, 0., 0.,
          2.84900283e-003, 0., 2.84900283e-003, 0., 0., 0.,
          2.84900283e-003, 0., 0., 0., 0., 0., 0., 2.84900283e-003, 0.,
          0., 0., 0., 0., 0., 0., 0., 0., 0., 0., 0., 8.54700804e-003,
          5.69800567e-003, 0., 2.84900283e-003, 0., 0., 0., 0., 0., 0.,
          5.69800567e-003, 0., 2.84900283e-003, 0., 0., 0.,
          5.69800567e-003, 0., 0., 0., 0., 0., 0., 0., 1.42450146e-002,
          0., 2.84900283e-003, 0., 0., 0., 0., 0., 0., 0., 0., 0.,
          1.13960113e-002, 0., 0., 0., 0., 0., 0., 0., 5.69800567e-003,
          0., 0., 0., 0., 2.84900283e-003, 0., 0., 0., 0., 0., 0., 0.,
          0., 0., 1.13960113e-002, 0., 0., 0., 2.84900283e-003,
          2.84900283e-003, 8.54700804e-003, 0., 0., 0., 0., 0., 0., 0.,
          0., 0., 8.54700804e-003, 0., 5.69800567e-003, 0., 0.,
          2.84900283e-003, 0., 2.84900283e-003, 5.69800567e-003, 0., 0.,
          2.84900283e-003, 0., 0., 5.69800567e-003, 0., 0., 0., 0., 0.,
          0., 0., 8.54700804e-003, 0., 0., 2.84900283e-003, 0., 0., 0.,
          0., 0., 0., 0., 0., 0., 0., 0., 2.84900283e-003, 0., 0., 0.,
          0., 0., 0., 0., 0., 0., 0., 5.69800567e-003, 0., 0., 0.,
          5.69800567e-003, 2.84900283e-003, 0., 2.84900283e-003, 0., 0.,
          0., 0., 0., 0., 0., 0., 2.84900283e-003, 0., 0., 0.,
          1.13960113e-002, 0., 2.84900283e-003, 2.84900283e-003, 0., 0.,
          0., 0., 2.84900283e-003, 2.84900283e-003, 0., 0., 0., 0., 0.,
          0., 0., 0., 0., 0., 0., 1.99430194e-002, 0., 5.69800567e-003,
          0., 5.69800567e-003, 0., 0., 0., 0., 0., 2.84900283e-003,
          5.69800567e-003, 0., 0., 0., 0., 2.84900283e-003, 0.,
          2.84900283e-003, 0., 2.84900283e-003, 0., 0., 0.,
          2.84900283e-003, 2.84900283e-003, 0., 0., 0., 0., 0., 0., 0.,
          0., 0., 0., 0., 0., 0., 0., 0., 0., 2.84900283e-003,
          2.84900283e-003, 0., 0., 0., 0., 0., 0., 0., 0., 0.,
          1.13960113e-002, 0., 0., 0., 0., 0., 2.84900283e-003, 0., 0.,
          0., 0., 0., 0., 0., 0., 0., 0., 0., 5.69800567e-003, 0.,
          2.84900283e-003, 0., 0., 0., 2.84900283e-003, 0.,
          2.84900283e-003, 2.84900283e-003, 0., 0., 0., 0., 0.,
          2.84900283e-003, 0., 0., 0., 0., 0., 0., 2.84900283e-003, 0.,
          0., 2.84900283e-003, 0., 2.84900283e-003, 2.84900283e-003, 0.,
          0., 0., 1.13960113e-002, 0., 0., 0., 0., 0., 0., 0.,
          5.69800567e-003, 0., 0., 5.69800567e-003, 0., 0., 0.,
          2.84900283e-003, 0., 0., 0., 0., 0., 2.84900283e-003, 0.,
          2.84900283e-003, 0., 0., 0., 2.84900283e-003, 0., 0., 0.,
          2.84900283e-003, 2.84900283e-003, 0., 1.13960113e-002, 0., 0.,
          0., 0., 0., 2.84900283e-003, 0., 0., 0., 0., 1.13960113e-002,
          5.69800567e-003, 2.84900283e-003, 0., 2.84900283e-003, 0., 0.,
          0., 5.69800567e-003, 0., 0., 0., 2.84900283e-003, 0.,
          2.84900283e-003, 0., 0., 0., 0., 0., 0., 5.69800567e-003, 0.,
          0., 0., 0., 0., 0., 0., 0., 0., 0., 0., 0., 2.27920227e-002,
          0., 0., 0., 0., 0., 0., 0., 0., 0., 0., 0., 0., 0., 0., 0., 0.,
          2.84900283e-003, 0., 0., 0., 0., 8.54700804e-003, 0., 0., 0.,
          2.84900283e-003, 2.84900283e-003, 0., 0., 0., 0., 0., 0.,
          8.54700804e-003, 0., 0., 0., 0., 0., 8.54700804e-003, 0., 0.,
          0., 2.84900283e-003, 0., 0., 0., 2.84900283e-003, 0., 0., 0.,
          2.84900283e-003, 0., 0., 0., 2.84900283e-003, 0.,
          2.84900283e-003, 0., 0., 0., 0., 0., 0., 0., 2.84900283e-003,
          0., 0., 2.84900283e-003, 2.84900283e-003, 0., 0., 0., 0., 0.,
          2.84900283e-003, 0., 0., 0., 2.84900283e-003, 0.,
          2.84900283e-003, 0., 0., 2.84900283e-003, 2.84900283e-003,
          2.84900283e-003, 1.13960113e-002, 0., 0., 0., 0.,
          2.84900283e-003, 0., 0., 0., 0., 0., 0., 2.84900283e-003, 0.,
          0., 2.84900283e-003, 0., 5.69800567e-003, 0. ]
      - [ 3.19488812e-003, 3.19488812e-003, 0., 0., 0., 3.19488812e-003,
          0., 0., 0., 6.38977624e-003, 0., 0., 0., 3.19488812e-003, 0.,
          0., 3.19488812e-003, 0., 6.38977624e-003, 0., 0., 0., 0., 0.,
          0., 0., 0., 0., 6.38977624e-003, 6.38977624e-003,
          3.19488812e-003, 0., 0., 0., 6.38977624e-003, 0., 0., 0.,
          9.58466437e-003, 3.19488812e-003, 0., 0., 0., 0., 0., 0., 0.,
          0., 0., 0., 0., 0., 0., 3.19488812e-003, 0., 0., 0., 0., 0.,
          0., 0., 0., 0., 0., 3.19488812e-003, 0., 3.19488812e-003, 0.,
          0., 0., 0., 0., 3.19488812e-003, 0., 0., 0., 0., 0., 0., 0.,
          0., 0., 0., 0., 0., 0., 0., 0., 0., 0., 0., 0., 0., 0., 0., 0.,
          0., 3.19488812e-003, 0., 0., 0., 0., 0., 3.19488812e-003, 0.,
          0., 0., 0., 0., 0., 6.38977624e-003, 0., 3.19488812e-003, 0.,
          0., 0., 0., 3.19488812e-003, 0., 6.38977624e-003, 0., 0., 0.,
          3.19488812e-003, 0., 0., 0., 0., 3.19488812e-003, 0., 0., 0.,
          3.19488812e-003, 0., 0., 0., 0., 0., 0., 0., 6.38977624e-003,
          0., 0., 0., 0., 0., 6.38977624e-003, 0., 0., 0., 0., 0.,
          1.59744397e-002, 3.19488812e-003, 3.19488812e-003,
          3.19488812e-003, 0., 0., 0., 0., 0., 0., 3.19488812e-003, 0.,
          0., 0., 0., 0., 0., 0., 0., 0., 0., 0., 0., 3.19488812e-003,
          3.19488812e-003, 3.19488812e-003, 0., 0., 6.38977624e-003, 0.,
          1.27795525e-002, 0., 0., 6.38977624e-003, 0., 1.27795525e-002,
          0., 0., 0., 3.19488812e-003, 0., 0., 0., 3.19488812e-003, 0.,
          0., 0., 0., 0., 3.19488812e-003, 0., 0., 3.19488812e-003, 0.,
          3.19488812e-003, 3.19488812e-003, 0., 3.19488812e-003, 0., 0.,
          0., 3.19488812e-003, 0., 0., 0., 0., 3.19488812e-003, 0., 0.,
          0., 3.19488812e-003, 0., 0., 3.19488812e-003, 0., 0., 0., 0.,
          0., 9.58466437e-003, 0., 0., 0., 3.19488812e-003,
          3.19488812e-003, 0., 0., 0., 0., 0., 0., 0., 3.19488812e-003,
          0., 0., 0., 0., 0., 0., 0., 0., 3.19488812e-003, 0., 0., 0.,
          0., 0., 0., 3.19488812e-003, 0., 0., 0., 0., 3.19488812e-003,
          0., 6.38977624e-003, 3.19488812e-003, 0., 0., 0.,
          1.59744397e-002, 0., 0., 3.19488812e-003, 3.19488812e-003, 0.,
          0., 0., 0., 0., 0., 0., 3.19488812e-003, 0., 0., 0.,
          3.19488812e-003, 0., 0., 3.19488812e-003, 9.58466437e-003, 0.,
          0., 0., 3.19488812e-003, 3.19488812e-003, 3.19488812e-003, 0.,
          6.38977624e-003, 0., 0., 0., 0., 0., 0., 0., 3.19488812e-003,
          0., 0., 3.19488812e-003, 0., 0., 3.19488812e-003, 0., 0., 0.,
          0., 0., 0., 9.58466437e-003, 0., 0., 0., 0., 3.19488812e-003,
          0., 0., 0., 0., 0., 0., 6.38977624e-003, 0., 0., 0., 0.,
          6.38977624e-003, 0., 0., 3.19488812e-003, 0., 0., 0., 0.,
          6.38977624e-003, 6.38977624e-003, 0., 0., 6.38977624e-003, 0.,
          0., 0., 0., 0., 0., 0., 0., 0., 0., 6.38977624e-003,
          6.38977624e-003, 0., 0., 0., 0., 3.19488812e-003, 0., 0., 0.,
          0., 0., 0., 6.38977624e-003, 0., 0., 0., 0., 3.19488812e-003,
          0., 6.38977624e-003, 0., 0., 3.19488812e-003, 0., 0., 0., 0.,
          0., 0., 0., 0., 0., 0., 0., 3.19488812e-003, 0., 0.,
          3.19488812e-003, 3.19488812e-003, 0., 3.19488812e-003, 0., 0.,
          0., 0., 0., 0., 0., 3.19488812e-003, 0., 0., 0., 0., 0., 0.,
          0., 0., 0., 0., 0., 0., 0., 0., 6.38977624e-003, 0., 0., 0.,
          0., 0., 0., 0., 6.38977624e-003, 0., 6.38977624e-003,
          3.19488812e-003, 0., 0., 0., 3.19488812e-003, 0., 0., 0.,
          3.19488812e-003, 0., 0., 1.59744397e-002, 0., 0., 0., 0., 0.,
          0., 0., 0., 6.38977624e-003, 0., 0., 6.38977624e-003, 0., 0.,
          3.19488812e-003, 0., 0., 0., 3.19488812e-003, 0., 0., 0., 0.,
          0., 0., 0., 0., 3.19488812e-003, 0., 0., 0., 0., 0., 0., 0.,
          0., 0., 0., 0., 0., 0., 0., 0., 0., 0., 0., 0.,
          3.19488812e-003, 0., 3.19488812e-003, 0., 3.19488812e-003, 0.,
          0., 0., 0., 0., 3.19488812e-003, 0., 9.58466437e-003, 0., 0.,
          3.19488812e-003, 0., 0., 0., 0., 0., 0., 6.38977624e-003, 0.,
          0., 3.19488812e-003, 3.19488812e-003, 0., 3.19488812e-003, 0.,
          0., 0., 6.38977624e-003, 6.38977624e-003, 0., 0., 0., 0., 0.,
          0., 3.19488812e-003, 0., 0., 3.19488812e-003, 6.38977624e-003,
          0., 0., 0., 0., 0., 0., 3.19488812e-003, 0., 0.,
          3.19488812e-003, 3.19488812e-003, 0., 0., 0., 0., 0., 0.,
          3.19488812e-003, 0., 3.19488812e-003, 6.38977624e-003, 0.,
          3.19488812e-003, 0., 0., 0., 0., 0., 0., 0., 0., 0., 0., 0.,
          3.19488812e-003, 0., 0., 0., 0., 0., 0., 0., 0., 0., 0.,
          3.19488812e-003, 0., 0., 0., 3.19488812e-003, 0., 0., 0.,
          3.19488812e-003, 0., 6.38977624e-003, 3.19488812e-003, 0., 0.,
          0., 0., 3.19488812e-003, 0., 0., 0., 0., 3.19488812e-003, 0.,
          0., 0., 0., 0., 3.19488812e-003, 0., 0., 0., 0., 0., 0., 0.,
          0., 0., 0., 0., 0., 0., 0., 3.19488812e-003, 0., 0., 0., 0.,
          0., 6.38977624e-003, 0., 3.19488812e-003, 0., 3.19488812e-003,
          0., 0., 0., 0., 3.19488812e-003, 0., 6.38977624e-003, 0.,
          3.19488812e-003, 3.19488812e-003, 6.38977624e-003, 0.,
          3.19488812e-003, 0., 0., 0., 0., 0., 0., 0., 3.19488812e-003,
          0., 0., 0., 0., 0., 0., 0., 0., 3.19488812e-003, 0.,
          3.19488812e-003, 0., 0., 0., 6.38977624e-003, 9.58466437e-003,
          3.19488812e-003, 0., 0., 0., 3.19488812e-003, 6.38977624e-003,
          0., 0., 0., 0., 0., 0., 0., 0., 0., 0., 0., 0., 0., 0., 0., 0.,
          0., 0., 0., 0., 0., 0., 3.19488812e-003, 3.19488812e-003, 0.,
          0., 0., 0., 0., 0., 0., 6.38977624e-003, 6.38977624e-003, 0.,
          6.38977624e-003, 0., 0., 0., 0., 0., 6.38977624e-003,
          3.19488812e-003, 0., 6.38977624e-003, 0., 0., 0.,
          3.19488812e-003, 3.19488812e-003, 0., 0., 3.19488812e-003, 0.,
          0., 3.19488812e-003, 0., 0., 0., 0., 0., 0., 0., 0., 0., 0.,
          0., 0., 0., 0., 0., 0., 0., 0., 3.19488812e-003, 0., 0., 0.,
          0., 0., 0., 0., 0., 0., 6.38977624e-003, 3.19488812e-003, 0.,
          0., 0., 0., 0., 0., 0., 3.19488812e-003, 0., 0.,
          6.38977624e-003, 9.58466437e-003, 0., 0., 0., 0.,
          3.19488812e-003, 0., 0., 0., 0., 3.19488812e-003,
          3.19488812e-003, 0., 0., 0., 0., 0., 0., 3.19488812e-003, 0.,
          0., 0., 0., 0., 0., 3.19488812e-003, 0., 3.19488812e-003, 0.,
          0., 0., 0., 6.38977624e-003, 0., 0., 3.19488812e-003,
          3.19488812e-003, 3.19488812e-003, 0., 0., 0., 0., 0., 0., 0.,
          0., 0., 0., 0., 0., 0., 0., 0., 0., 0., 3.19488812e-003, 0.,
          3.19488812e-003, 0., 0., 0., 0., 3.19488812e-003, 0.,
          9.58466437e-003, 0., 0., 0., 0., 3.19488812e-003, 0., 0.,
          3.19488812e-003, 0., 0., 0., 0., 3.19488812e-003, 0., 0.,
          9.58466437e-003, 0., 3.19488812e-003, 0., 0., 3.19488812e-003,
          0., 0., 0., 0., 3.19488812e-003, 0., 0., 3.19488812e-003, 0.,
          0., 0., 0., 3.19488812e-003, 0., 0., 3.19488812e-003, 0.,
          3.19488812e-003, 3.19488812e-003, 0., 0., 0., 0., 0., 0., 0.,
          0., 0., 0., 6.38977624e-003, 0., 0., 0., 0., 0.,
          3.19488812e-003, 3.19488812e-003, 0., 6.38977624e-003, 0., 0.,
          0., 0., 0., 0., 0., 3.19488812e-003, 0., 0., 0., 0., 0., 0.,
          0., 0., 0., 0., 9.58466437e-003, 0., 0., 0., 0.,
          9.58466437e-003, 0., 0., 0., 3.19488812e-003, 0., 0., 0., 0.,
          0., 0., 0., 0., 0., 0., 0., 6.38977624e-003, 0., 0., 0., 0.,
          0., 0., 0., 0., 6.38977624e-003, 3.19488812e-003, 0.,
          3.19488812e-003, 0., 0., 0., 0., 0., 0., 0., 0., 0.,
          6.38977624e-003, 0., 0., 0., 0., 0., 3.19488812e-003, 0., 0.,
          0., 0., 0., 3.19488812e-003, 0., 0., 0., 0., 0.,
          6.38977624e-003, 0., 0., 0., 3.19488812e-003, 0.,
          6.38977624e-003, 0., 0., 0., 0., 3.19488812e-003, 0., 0., 0.,
          0., 0., 6.38977624e-003, 0. ]
      - [ 3.37837846e-003, 0., 0., 0., 0., 0., 0., 0., 0.,
          3.37837846e-003, 0., 3.37837846e-003, 0., 0., 0., 0., 0., 0.,
          3.37837846e-003, 0., 3.37837846e-003, 3.37837846e-003, 0., 0.,
          0., 0., 0., 0., 6.75675692e-003, 6.75675692e-003,
          3.37837846e-003, 0., 0., 0., 0., 0., 0., 3.37837846e-003,
          3.37837846e-003, 0., 0., 0., 0., 0., 0., 0., 0., 0., 0., 0.,
          0., 0., 3.37837846e-003, 0., 0., 0., 3.37837846e-003, 0., 0.,
          0., 0., 0., 0., 0., 6.75675692e-003, 0., 6.75675692e-003, 0.,
          0., 0., 0., 0., 0., 0., 0., 0., 0., 0., 0., 0., 0., 0.,
          3.37837846e-003, 0., 0., 0., 0., 0., 1.01351356e-002, 0., 0.,
          0., 3.37837846e-003, 0., 0., 0., 0., 0., 0., 0., 0., 0., 0.,
          0., 0., 3.37837846e-003, 0., 0., 0., 0., 0., 0.,
          3.37837846e-003, 0., 0., 0., 0., 0., 0., 3.37837846e-003, 0.,
          3.37837846e-003, 0., 0., 3.37837846e-003, 0., 3.37837846e-003,
          0., 0., 0., 0., 0., 0., 0., 0., 0., 0., 0., 0.,
          3.37837846e-003, 0., 0., 0., 0., 0., 0., 0., 0., 0., 0., 0.,
          0., 6.75675692e-003, 0., 0., 3.37837846e-003, 0., 0.,
          3.37837846e-003, 0., 0., 0., 6.75675692e-003, 0., 0., 0., 0.,
          1.01351356e-002, 0., 0., 0., 0., 0., 0., 0., 3.37837846e-003,
          0., 3.37837846e-003, 0., 0., 0., 0., 0., 0., 0.,
          6.75675692e-003, 0., 1.35135138e-002, 0., 0., 0., 0., 0., 0.,
          0., 0., 0., 6.75675692e-003, 3.37837846e-003, 0.,
          3.37837846e-003, 3.37837846e-003, 0., 0., 1.01351356e-002, 0.,
          3.37837846e-003, 3.37837846e-003, 0., 3.37837846e-003,
          3.37837846e-003, 0., 0., 3.37837846e-003, 0., 3.37837846e-003,
          0., 0., 0., 0., 0., 0., 0., 0., 0., 0., 3.37837846e-003, 0.,
          0., 0., 0., 1.01351356e-002, 0., 0., 0., 3.37837846e-003,
          6.75675692e-003, 0., 0., 0., 0., 0., 0., 0., 0., 0., 0., 0.,
          0., 0., 0., 0., 0., 0., 0., 0., 0., 0., 0., 0.,
          3.37837846e-003, 0., 0., 0., 0., 3.37837846e-003, 0., 0., 0.,
          0., 0., 0., 1.68918930e-002, 0., 0., 0., 3.37837846e-003, 0.,
          0., 0., 0., 0., 0., 0., 0., 0., 0., 0., 0., 0., 0.,
          6.75675692e-003, 0., 0., 0., 0., 0., 6.75675692e-003, 0., 0.,
          3.37837846e-003, 0., 3.37837846e-003, 0., 0., 3.37837846e-003,
          0., 0., 6.75675692e-003, 0., 0., 6.75675692e-003,
          3.37837846e-003, 0., 0., 3.37837846e-003, 0., 0., 0., 0., 0.,
          6.75675692e-003, 0., 3.37837846e-003, 0., 0., 0., 0., 0., 0.,
          0., 0., 0., 3.37837846e-003, 0., 0., 0., 0., 6.75675692e-003,
          0., 0., 0., 0., 0., 0., 0., 0., 3.37837846e-003, 0., 0.,
          3.37837846e-003, 0., 0., 0., 3.37837846e-003, 0., 0., 0., 0.,
          0., 0., 0., 0., 0., 0., 6.75675692e-003, 0., 0.,
          3.37837846e-003, 3.37837846e-003, 0., 0., 0., 0.,
          3.37837846e-003, 0., 0., 0., 3.37837846e-003, 3.37837846e-003,
          0., 0., 0., 0., 0., 0., 0., 0., 6.75675692e-003,
          3.37837846e-003, 3.37837846e-003, 0., 0., 0., 3.37837846e-003,
          0., 0., 3.37837846e-003, 3.37837846e-003, 0., 3.37837846e-003,
          0., 0., 0., 0., 0., 0., 3.37837846e-003, 0., 0., 0., 0.,
          6.75675692e-003, 0., 0., 0., 0., 0., 0., 0., 0., 0., 0., 0.,
          0., 0., 0., 3.37837846e-003, 0., 3.37837846e-003, 0., 0., 0.,
          0., 0., 3.37837846e-003, 0., 0., 0., 0., 3.37837846e-003, 0.,
          0., 3.37837846e-003, 0., 0., 0., 2.70270277e-002, 0., 0., 0.,
          0., 0., 0., 0., 0., 0., 0., 0., 6.75675692e-003, 0.,
          3.37837846e-003, 0., 0., 0., 0., 1.01351356e-002, 0., 0., 0.,
          0., 3.37837846e-003, 0., 0., 0., 0., 0., 0., 0., 0., 0., 0.,
          0., 0., 0., 0., 0., 0., 0., 0., 0., 0., 0., 3.37837846e-003,
